19.080986,65
1.0,0.9442603,2.7652307,1.4762615,0.91455656,-0.7709267,-1.0082083! 1.0,-0.12234104,0.01890397,-0.14060825,1.7088504,-3.3259454,2.0211196! 1.0,-0.98281145,1.4380177,-1.9338644,-0.76258546,-0.2040447,-1.8005425! 1.0409858,1.2590001,-0.09514338,0.63224256,-1.3696419,-2.139583,-1.0443432! 1.0,0.018868566,-0.7918069,0.5655229,-2.0719037,-0.8473213,1.2185726! 1.3530241,-0.48536837,-1.6914446,-2.376806,1.0329206,0.43422198,0.9161211! #1.107636,1.4713893,0.041223288,-3.0581336,0.31037104,1.9444277,0.6777503! 1.0,2.3462834,-1.0760326,0.6302163,0.8258834,0.18320692,1.6337152! 
0.9771338,1.089085,1.012362,1.4762615,1.461489,-0.7709267,-1.4402791! 1.0,2.3577075,-0.21448034,-0.14060825,1.8341722,-2.2803483,-0.96297634! 1.0,-1.2972274,1.4380177,-1.9338644,0.048790753,0.115027666,-1.546015! 0.57214296,1.3205272,0.5595334,1.7302558,-1.4687278,-1.9448383,-1.55939! 1.0,0.018868566,-0.17380303,0.059131622,-1.8541071,-1.2129922,1.0257903! 1.0,-0.48536837,-1.6914446,-1.3662641,0.7663081,0.91678256,1.5738199! #1.0,1.0168669,2.9750524,0.12448537,0.631319,0.059643507,-0.21583337! 1.0,2.3462834,-1.319398,0.89312935,0.8258834,2.1248693,1.6337152! 
1.0,1.8051142,0.61840206,1.2459042,-1.6425252,-1.4244566,-1.6611264! 1.213923,2.008813,1.4536142,-2.3789756,-0.30210358,-2.0155802,-1.9210124! 1.0,-0.98281145,1.5385782,-1.3847721,0.32719654,0.22482467,-2.0377927! 1.0611315,1.6411302,-0.09514338,-0.9296784,-1.2895178,-1.1280999,-1.0443432! 1.0,0.7065365,-0.980645,-0.33846092,-0.6382912,2.081773,0.6409152! 1.0,-0.68735075,-1.7540661,-2.3262482,1.3245993,-1.1431566,-0.45011377! #1.0,0.9781656,-0.3307076,-2.9982336,-0.8793262,0.059643507,-0.14492196! 1.0,0.42062116,-1.2263165,0.23581284,0.033753812,1.0512047,1.8902502! 
1.0,0.9442603,-0.32530975,0.6587404,0.4294334,-0.6397074,-0.3505783! 1.3984635,3.2913446,0.9878356,0.21490866,-0.30210358,-3.4684665,0.3455357! 1.0392303,1.8652295,1.4015305,-1.1149865,-0.68264234,-0.3010987,-0.3484363! 1.397675,1.6843634,-0.09514338,0.3374911,-1.1465788,-2.139583,-0.2006284! 1.0,-2.0422087,0.6018782,-0.4949597,-1.9069786,-0.87025714,0.9913263! 1.3409965,-0.84428525,-1.528867,0.896244,-0.48486936,0.18455607,0.5582148! #1.0,0.6937937,1.9155593,0.6177145,-1.195636,0.13227773,0.2177428! 0.7819575,2.3462834,-2.0460746,0.35211754,0.9227112,1.8430139,1.960363! 
1.0,1.7933038,3.509807,0.38124716,0.87818575,-0.1857664,-0.26170677! 1.0,3.2612948,0.09846866,-0.14060825,0.15638459,-1.528387,0.9190943! 1.0,0.5880301,1.5952127,-2.0847461,0.48369253,-0.9640975,-1.8659916! 1.1226869,0.8483697,0.08132315,1.0671339,3.240843,-1.9095802,-0.29134643! 1.4781442,-1.3000718,-0.20574522,0.7144493,-3.7962089,-1.3336449,1.6108081! 1.0,-0.6471747,-1.8090823,-1.5659435,1.5541868,0.32487416,1.2220383! #1.0,1.2740517,2.3796268,-3.2772322,0.36439186,0.2213592,-0.5608259! 1.0,1.3481479,-0.4632433,2.515726,1.2080824,0.85980123,-0.4650007! 
1.0,-0.21011347,2.315574,1.0874033,0.01643455,-0.6397074,1.5928679! 0.5071589,1.6232774,-0.20494473,0.27317303,0.26091844,-2.063815,-0.89006484! 1.2711184,-0.8357374,1.700067,-3.034308,-1.2216682,-0.4131999,-0.15217024! 1.0275832,1.7861103,0.82716864,0.81858057,3.3915422,-1.6057868,0.8149652! 1.3354585,-0.14256972,-1.3783078,1.9612575,2.345115,-1.6174171,0.46244025! 1.0,-1.0155871,0.0048949122,-0.37808698,-1.017508,-1.2514331,-1.6395663! #0.91753125,1.5254347,2.0995064,-1.2954988,0.45825857,1.8337977,1.7665781! 1.0,0.96545655,-0.9423178,1.9888737,0.60824096,-0.9762221,-0.39219815! 
1.1293093,1.0666063,2.7652307,1.2040033,1.2288187,-2.125023,0.35085702! 0.8087664,2.6647441,-0.66864383,1.9540291,-0.3421018,-1.6641561,-1.5218213! 1.0,0.15076816,1.4380177,-1.9927046,0.04904622,-0.4529168,-2.224507! 1.0,0.7876244,1.3771683,1.087538,-1.9647471,-1.8548603,0.17449981! 1.0,0.42141032,-0.51177543,-0.013504207,-2.0949783,-0.9802922,-0.13933569! 1.0,-0.37880373,-1.9407816,1.4205271,1.4618684,-0.4511001,1.6199065! #1.0,1.3715303,1.9310073,-1.1922289,-0.2382232,0.33934903,-2.3187242! 1.0,-0.09658295,-1.3013903,0.063094616,0.8229616,0.04604304,1.6824162! 
1.0,0.77390075,2.3880296,0.77341336,1.0156715,-0.6884699,-1.4434438! 0.7265802,1.9639211,-0.21448034,0.17935324,0.34404767,-2.1710482,-0.96297634! 1.0,-1.3422587,1.2396287,-1.0593288,0.42037034,-0.49952143,-2.4472225! 0.9628819,0.9071931,0.63210225,-0.5009536,3.7464266,-2.5826232,-1.5506816! 1.0,0.75437695,-1.4663224,-0.33846092,-0.8673558,-1.2129922,1.0890068! 0.6531984,-0.48536837,-1.5810459,-2.4176667,0.5044983,0.836173,1.5738199! #1.0,0.91471493,0.18758637,0.83233666,-0.8793262,0.059643507,2.9016616! 1.0,2.192277,-0.85899544,0.6998514,1.0214678,2.0079885,1.3847327! 
1.0,1.2376647,1.1632158,1.0895299,-0.98702353,-1.8170555,-0.4421594! 1.0,1.983146,-0.31928647,2.6842113,1.7999544,-1.4938084,-1.1459955! 1.0,1.8420196,1.9830997,-1.3847721,-0.31600505,-0.9996883,-1.9078819! 1.0863907,1.5058885,1.1464567,1.5480022,-1.7472707,-1.3423152,1.3032898! 1.0,0.24899799,-1.469785,1.5122874,-3.9089863,-0.6051651,1.033889! 1.0,0.72128415,-0.7679252,-2.0541291,0.2229659,-0.50017124,1.9123166! #1.0,-0.7533504,2.9063258,0.3997869,0.31037104,0.691188,3.6989264! 1.0,1.2318239,-0.6165946,2.2051322,1.5282261,1.8969092,0.99495524! 
1.0,1.0208161,0.2499842,1.405205,0.49432832,-2.009611,-1.5908221! 1.0,1.8311806,1.480443,0.52598286,-0.12007779,-1.843483,-2.4226942! 1.0,1.1794697,1.7008972,-1.1972842,-1.1934439,-0.12896788,-1.8787388! 1.0,0.87034154,1.2475059,0.3524618,-1.4979928,0.37760562,-1.3540977! 1.0,-0.31423825,-1.8282449,-0.32454515,1.3865011,-1.606626,0.89703417! 1.0,-0.71750736,0.18388104,-0.59412473,1.0115585,0.43229204,0.8046428! #1.0,1.570272,0.9163819,-3.114003,-0.9830044,-0.20892674,2.282076! 0.54309106,2.175211,-0.451648,1.397315,0.33050525,0.8182762,0.9653619! 
1.0396366,0.87264943,0.32777572,-1.7165642,0.13065916,-0.9570328,-1.0635351! 0.51396847,2.8263526,0.35468626,-0.14060825,0.5851734,-2.126306,0.5627268! 1.0,1.0420822,2.3719914,-1.7879617,-0.46020025,-0.8152407,-2.3404894! 1.4124286,1.1075908,2.1689641,-0.020090222,3.959673,-2.5892951,0.278148! 1.0,-0.7088662,0.5185679,-0.08600271,0.38821584,0.9694034,1.7153263! 1.0,-0.06183499,-1.6660318,-2.9827044,1.2245207,-0.04501027,0.1740892! #1.2601876,1.4713893,2.6227975,2.5272925,0.31037104,0.2213592,0.41485238! 1.0,2.5619993,0.13855582,1.5872924,1.2326422,1.2310048,1.2277254! 
1.0,1.7962523,1.0211239,0.71683556,-0.686897,-1.2515513,-1.5086503! 1.0,3.2239544,0.94714296,-0.6138355,0.050616205,-3.1631532,-0.2558477! 0.79815733,-0.23227513,1.8825128,-1.6247387,-0.45495003,0.57505924,-2.6371093! 0.65261257,0.82434684,1.3400122,0.93162954,-1.0210869,-2.1223438,1.4797459! 1.1254311,-1.8401244,-1.2355016,0.24314159,-1.4140797,2.6163392,1.0879793! 1.0,-0.6958045,-1.9856752,-0.59340376,1.6214616,-1.6713593,1.3330128! #1.0,0.5020136,1.5604197,-0.575904,0.49164665,-0.008843422,1.1347173! 1.0,1.6307187,-1.6601878,2.0586772,1.6401229,-0.3656391,-0.52221787! 
1.0,0.33665508,0.37419182,1.8216891,-1.7156577,-1.0390134,0.42958343! 1.3650529,-0.12814337,0.04939139,-1.1006794,-0.11664778,-4.029655,-1.0731463! 1.3573446,0.43628544,1.8825128,-0.46660703,-0.6284834,0.55892056,-1.8905512! 0.66148895,0.95940316,-0.23292363,0.3977183,-0.13490182,-2.139583,-0.795208! 1.2905954,-0.21851176,-0.7918069,-0.718634,-2.0719037,0.9694034,0.8133657! 0.9733194,-0.29423004,-1.78191,-1.078547,-0.6521825,-0.49625337,-2.2169065! #1.0224259,1.6234217,1.0539491,-0.60993654,-0.041842997,-0.37102157,-0.37660897! 0.5859942,1.0700873,-1.8716855,0.22912711,0.38702422,-0.9762221,-0.058940172! 
0.7380224,1.2414653,2.3373306,-3.152054,1.0668929,-1.0559812,-0.16706204! 1.0,1.5155532,-0.39650744,-0.42029977,1.7798169,-1.5972383,0.6340138! 1.0,0.43150496,2.0498192,-1.0379417,-1.2258537,-1.3550885,-1.8970953! 1.0,0.65642786,-0.74074227,0.75091344,0.5307668,-2.4425752,-0.98754245! 0.77356327,-0.53706264,-0.6234133,0.5943063,-1.0932069,-0.9428068,1.5736214! 0.8615201,-1.8353853,-1.6914446,-1.1587646,1.2941114,-1.7210468,0.7091805! #1.0,2.3427758,0.041223288,-3.2112355,0.27965373,-1.0306444,0.08807629! 1.0,2.427868,-1.0760326,0.4717229,1.4854944,-0.07748836,-0.5601371! 
1.4517893,1.353768,2.40126,1.8499084,-1.4064755,-1.0368342,-1.4402791! 1.0,1.7679791,0.6476891,0.64407414,1.6256452,-1.6414638,-1.1750821! 1.0,-0.5683074,0.47514075,-1.1520208,-1.6275909,-0.58907247,-1.7694213! 1.0,-0.25844204,0.19296032,1.1182678,-1.5020133,-1.4457184,-1.4155276! 1.0,-1.4402977,-2.1871586,1.4048278,0.22942114,-1.2962455,0.62726116! 1.0,-0.98424315,-0.3923043,0.3364079,-0.6202806,-0.5555456,1.2301939! #1.0,-0.69152594,1.8752073,-3.0581336,0.38316262,1.8668574,-0.25965708! 1.0,0.9669386,-0.42084986,2.177244,1.094012,2.742257,-0.38550013! 
1.0,1.9050053,0.31411427,-0.14139014,1.0713886,-1.9459476,-2.0735362! 1.0,1.9453051,-0.2591192,-0.14060825,-0.15791845,-0.4478773,2.707627! 1.0,-0.9745225,-0.11541641,-1.4050312,-1.2652159,0.57505924,-1.9260626! 0.60913044,0.82434684,0.19332618,0.52293247,-1.0210869,-1.6864138,-1.0265615! 0.740464,0.34682065,-0.7918069,0.3548565,-1.0867677,1.2462907,-0.2357902! 1.0,-1.1463455,-2.011761,-2.2340727,-0.66837686,-1.6253481,1.2763947! #1.0,1.0732701,1.9931931,-3.345634,0.1128428,-0.17876732,-0.022383869! 0.72495466,1.6307187,-1.5862865,1.6091546,1.17806,1.5060297,0.6890442! 
1.0,2.196145,2.9751391,-2.2230897,-1.1032557,-2.5819016,0.2070092! 1.1734793,3.1123214,0.22156787,2.5923667,-1.4656589,-3.4070506,2.2041042! 1.0,1.1671929,1.6930349,-1.4414713,-0.46020025,-0.8889866,-1.5195317! 0.8889246,1.3542075,0.025913477,-2.7901657,-1.3696419,-0.30179477,0.43107206! 1.0,-0.35850334,0.08987641,2.4763932,-0.05445671,-0.8473213,1.5746789! 1.2236714,-0.53594357,-1.8377388,-1.7457223,1.0329206,-0.22329885,1.5738199! #0.6966834,1.5302894,2.7203708,-3.0581336,0.8051911,0.30219942,0.6777503! 1.3027825,-0.69272184,-0.2801059,1.8270421,0.42173707,0.32089174,1.6337152! 
1.1513476,1.1700449,1.7157073,-1.3105258,0.83382905,-0.9545972,-0.7579395! 1.2691725,0.027584791,-0.36081725,0.5819306,2.5010543,-3.0736814,0.030179799! 1.0,-0.98281145,0.7446427,-2.8193722,-0.034440637,0.7686293,0.5592869! 1.0,1.0200665,-0.305555,0.63224256,4.2350674,-1.8507688,-0.90405554! 0.9685013,-0.123586714,0.2793826,-0.9431216,-2.221263,-0.28062123,1.5550524! 1.0,-0.2587676,-1.9843704,-1.9957815,0.19153559,-2.5597086,0.6001779! #1.0,1.3292581,1.742088,-2.7571826,0.3638004,0.67290395,2.808825! 1.0,2.1872559,-1.293093,0.026782215,2.069038,1.12725,0.9602136! 
0.6530527,1.1879475,0.6200999,0.4403748,1.0125467,-0.2247768,0.59868246! 1.0,2.56497,0.01890397,-0.3743397,1.7088504,-2.7853906,2.0211196! 0.7618922,-1.4438272,1.4380177,-1.9338644,-1.4153949,-1.3383942,-3.1301122! 1.0,1.9788043,0.4030121,0.63224256,-1.6247365,-2.139583,-1.0443432! 1.0,0.018868566,-0.9015986,0.30486768,-1.3475463,-0.81870806,0.74203944! 1.0,0.009496391,-1.6914446,-2.376806,0.7089254,0.43422198,0.4607941! #1.0,1.073504,0.054984987,-0.22511292,0.36439186,2.098727,-0.97931373! 1.0,2.3462834,-1.3020265,-0.43751603,1.4360088,0.74368167,-0.14358824! 
1.4538311,0.9442603,2.7652307,1.3502746,0.5879772,-0.5629237,-0.775725! 1.0,2.2147405,0.106724024,1.0147142,1.7088504,-3.3259454,2.0211196! 1.0,1.120929,1.8473928,-1.966648,-0.30241787,-0.4529168,-2.296917! 0.57446676,1.1141953,0.6059929,0.77164066,-1.9647471,-1.6426573,-0.024231493! 1.0,0.39316422,-0.40033907,0.5655229,-2.8623743,-1.022208,1.2185726! 1.0209279,1.7383018,-1.9407816,-0.183689,0.7516137,0.43762165,1.6199065! #0.6863554,1.4629321,0.35140073,-3.488631,-0.150329,1.9444277,0.884741! 1.0,0.19030362,-0.77100736,0.063094616,1.9607352,-0.07463086,1.0766441! 
0.50152946,0.5682788,2.8163395,1.5431478,1.0168502,-1.0612586,-0.82196707! 1.0,2.049053,0.01890397,-0.38160604,0.28308916,-2.4910367,0.21393716! 1.0,1.2440201,1.4380177,-1.9338644,-0.7824286,0.13320822,-1.7084948! 1.0,1.276216,-0.09514338,-0.95428544,-1.7388988,-1.815004,-1.1580473! 0.9069466,-0.9480315,-0.48075473,0.38396996,-1.7013887,-0.8473213,1.2185726! 1.0,-0.5845809,-2.0344703,-1.6460885,0.4029572,0.28295684,-0.8825523! #1.0,1.657805,1.633259,-3.2036815,0.40476406,1.9444277,0.749257! 1.0,0.07722318,-0.8636745,0.22199714,0.8258834,0.23045099,1.6337152! 
1.0,0.5102397,3.0925584,-2.2230897,1.3746569,-1.6328471,0.59579927! 1.4128809,0.3579542,2.074908,2.5923667,1.7088504,-1.8847594,2.2951293! 1.0,0.6002367,1.495412,-2.7136307,0.8047309,-1.4570055,-1.8228725! 1.0,0.72806233,-0.22862744,-2.9494276,-1.6257188,-0.7620987,0.43107206! 1.0,0.018868566,-0.81060463,0.5655229,-2.0719037,-0.8054009,1.2185726! 1.0,-0.5702041,-1.6914446,-2.376806,0.16129869,0.5200078,0.44370192! #1.0,2.0267587,2.7667632,-3.0581336,0.31037104,0.4686051,-1.1573896! 0.8594031,-0.6072339,-0.2801059,1.0572509,2.2328835,0.1465438,1.6337152! 
1.0,1.8051142,0.8655235,-1.3105258,-1.4947724,-0.66371953,-1.0822041! 1.0,2.4196732,0.06857556,0.19176197,1.9205477,-1.3513323,-1.6227993! 1.0,-0.98281145,0.45890123,-2.03996,-0.06572825,0.22482467,-2.0090408! 1.2505271,0.43463707,-0.56800264,-0.9296784,-1.6140286,-1.5193515,-1.3992995! 0.6024124,-0.30838102,0.07330936,-0.9431216,-1.421655,1.1418526,0.62368! 1.4253585,-0.49452484,-0.6495432,-1.3662641,0.982837,-2.5597086,1.1582136! #1.0,0.9781656,1.8974414,-2.9249225,-1.1884689,0.059643507,-0.14492196! 1.0,-0.10476911,-1.1219933,1.4230611,0.033753812,1.2021096,0.81114805! 
1.0,0.6454551,2.8163395,2.3478634,-1.6587071,-1.2798346,-0.82196707! 1.0,0.3628472,0.113331616,0.78612083,1.566798,-2.7773895,0.007222235! 1.0,1.4788445,2.9894178,-2.289664,-0.008641779,-0.49986655,-1.9287076! 1.0,0.23047864,2.0733933,-4.083311,3.7828891,-1.783656,-2.1129875! 1.0,0.41031957,-0.65344846,0.38396996,0.16342992,-2.1842244,0.2618063! 0.8618864,-0.13652438,-2.6437197,-2.9312825,0.27763057,-1.3868068,-1.0353298! #1.0247619,1.4713893,2.748807,-3.0581336,0.33147907,1.0031164,1.0718791! 1.0,-0.35588396,-1.5853686,1.2442479,0.33050525,-1.7443093,1.6161519! 
1.0,1.0329361,2.8792057,0.4381029,1.3746569,-1.3506391,0.0519827! 0.72118455,4.129925,2.074908,3.2653394,0.58416754,-2.9508357,0.8870893! 1.0,1.3783607,0.5097096,-3.0838435,0.7091437,-0.5609756,-1.4875656! 1.0,1.1207919,-0.58150256,-0.030976415,-1.1991196,-1.7934368,-1.558809! 1.0,-0.418575,-0.81060463,0.26069272,-2.1418605,-1.1351286,1.2278343! 1.0,-0.6704032,-2.0272877,-0.91334975,0.16129869,0.9510227,0.44370192! #0.9419015,-1.1941211,2.972031,-3.4417086,-1.029607,-0.3161807,-1.036582! 1.0,0.08777779,-1.8514509,1.432359,1.2310077,0.45641208,-1.7297249! 
1.0,1.5554237,2.705472,1.0009458,-0.09189248,-0.45954245,1.0887651! 1.0,3.62247,-0.5783703,-0.6130069,1.7895815,-3.821789,-0.6661107! 1.0,-0.98281145,1.4380177,-0.7833976,-1.8573954,-0.2040447,-1.9661975! 1.0,2.3537688,-0.5421372,1.8865075,-1.7591138,-2.139583,-1.8515707! 1.0,-1.3750663,-0.086384,-1.1607155,-2.0719037,-0.14300013,1.2185726! 1.0,-0.5790096,-1.3577152,-0.7172865,0.31239736,-1.9057335,0.40347016! #0.7306937,0.6937937,1.143362,-0.15039152,0.31037104,0.26734263,0.59096205! 1.0,2.7871406,-1.1377789,0.90423244,0.75397766,0.5023918,1.2277254! 
1.0,0.30751163,0.96750003,0.6748696,0.91455656,-1.9168562,-1.4579103! 1.0,0.14145577,0.01890397,-0.34500217,1.2894564,-2.1677227,-2.4226942! 1.0,-0.33271855,3.3025718,-2.4234195,-0.98997647,-0.8295875,-1.8005425! 1.0,1.4172245,-0.13526177,0.63224256,-1.3696419,-2.1569748,-1.5145531! 0.7051085,0.30512774,0.6471276,-0.03553903,-1.3441029,0.37064922,1.2185726! 1.3615127,1.5783954,-1.6914446,-2.8703148,1.668741,-1.5966456,0.600837! #1.1486626,0.85925204,3.4565432,-1.8072422,-0.04366982,0.26621562,-0.74834114! 1.0,0.55363715,0.08498275,0.53697026,0.8258834,0.23431796,1.374687! 
1.4533131,1.7933038,1.7157073,0.7919799,-0.55849004,-1.8397868,0.62383866! 1.1611755,3.1576037,0.5019148,-0.2861039,0.5371881,-2.6190124,-0.24708974! 1.353162,0.47429043,1.4968624,-1.9732944,1.051455,-1.8083773,-1.9075663! 1.0,0.89458966,-0.45235026,-0.44486797,-1.1925685,-2.1223438,-1.0208064! 0.52681243,-0.23917699,-0.80790156,1.8510442,-1.0768766,0.99385506,1.4479293! 1.0,-0.40448028,-1.5457878,-2.361562,-0.9731432,-0.23374337,1.2763753! #1.0,1.6197457,2.3713362,0.642961,-0.053044617,0.2213592,1.9303846! 0.7878999,1.5953565,-1.6296749,1.8048189,1.7698634,1.3595173,1.1660365! 
1.0,0.8044733,2.7652307,1.7544613,1.237699,-0.7709267,0.54364604! 1.4043272,-0.12234104,-0.24398285,-1.9681288,-0.67307955,-1.8276865,2.0211196! 1.0,-1.5414747,1.4341643,-2.5093665,-0.6469674,-0.2040447,-1.8005425! 1.1464272,0.9378168,0.2976508,0.26160645,0.278273,-2.3572092,0.40315443! 1.0094384,0.018868566,-0.7918069,-0.8960957,-1.8293843,1.0184073,1.2185726! 1.0,-0.48536837,-1.6723858,-2.2614985,1.0329206,0.31236196,0.9161211! #1.0,-0.6516066,0.346156,-1.3522358,0.71543056,-0.17506558,0.6777503! 1.2491765,2.3462834,-1.0760326,0.83768654,0.16360527,0.18320692,0.30308455! 
1.0,0.19854671,2.299647,0.6748696,0.91455656,-0.856098,0.2070092! 1.0,2.176684,-0.20494473,-0.1314798,-0.9337075,-2.2603192,-1.9210124! 0.73381597,-0.8357374,-0.4381392,-3.034308,-0.76258546,-0.813601,-0.36758345! 1.0,1.0194571,-0.5650369,1.4082196,-1.5443501,-2.1569748,-0.8799402! 1.0,-0.14256972,-1.1466537,0.34233195,2.5352561,-1.3758678,1.0406017! 1.0,0.48673642,-1.9647871,-0.37808698,1.2057724,0.9644385,-0.4401154! #0.9942679,1.116866,2.2700624,0.38741136,-0.9120593,-0.16095299,0.6777503! 1.0,0.42062116,-1.0760326,2.1063204,0.9227112,-0.1209082,1.6337152! 
0.7198751,1.2376647,0.7640096,0.6372169,-0.6499434,-0.98489934,-1.8650389! 1.0,3.1123214,0.72759706,-0.14060825,-0.72454274,-1.7599247,0.6045231! 1.0,0.32068986,1.6930349,-1.6247387,-0.2677613,-0.41351593,-1.8659916! 1.0,1.3542075,0.311693,-2.6065798,-1.7472707,0.37760562,0.49028915! 1.0,-0.5223648,0.35756344,0.88281816,-2.152984,-1.6506157,0.31414276! 1.0,-0.99943954,-2.2988198,-2.5376682,1.3506657,-1.5483568,-0.4749192! #1.0,1.5302894,2.7203708,-2.8906717,-1.4488957,0.55150795,-0.05731237! 1.0,-0.69272184,-1.5862865,1.8270421,1.44776,0.48048574,2.0760896! 
1.0,1.7933038,0.4762122,1.0895299,1.294138,-0.9125594,-1.8650389! 1.0,3.1507595,0.0729301,1.5617576,-0.72454274,-1.8939148,-0.3626315! 1.0,0.32068986,1.9830997,-1.6247387,-0.2677613,-0.44845676,-1.4278685! 1.0,1.2699144,2.46706,-2.4392717,-1.0424418,-2.1223438,-1.3900185! 0.54076755,0.4178908,0.37607968,1.1567523,-2.1854882,-1.7896771,0.053830564! 1.0,-1.4142313,-1.9858999,-2.376806,-1.2438526,-1.6149931,-0.10834217! #1.0,1.4385841,2.8116395,-2.8906717,0.5439016,0.2213592,-0.97931373! 1.0,0.5946091,-1.6025932,1.7223456,0.97570914,-0.07748836,1.5774548! 
0.95265216,1.6893919,1.046581,-1.8303254,-0.8492491,-1.3960611,0.2070092! 1.0,1.9915392,0.027305722,1.5453103,1.8944519,-1.793269,-1.6971791! 1.0,-0.93158627,2.3218718,-1.5490911,-0.06572825,0.2876377,-1.8005425! 0.7751538,1.3542075,0.17016226,-2.6352577,-1.354989,-1.8662722,-0.9164356! 0.5653594,0.70469546,-2.1931205,-0.33846092,-1.9377701,-0.9818079,1.1642604! 1.0,-0.98321575,-3.376733,-1.6552372,1.7039893,-0.109617054,0.6745075! #1.0,1.2085098,2.708321,0.47110546,-0.55268836,1.8832331,-0.21482563! 1.0242574,-0.69272184,-0.52620596,2.056735,0.13992977,0.78308094,2.3913598! 
1.0,2.0829973,0.5038395,1.1484587,0.35235125,-0.9188076,-1.0635351! 1.0,1.696998,0.6102453,1.5617576,-0.23963934,-2.211652,-2.3904533! 1.0,-1.1225383,0.44022727,-1.1034708,-0.28388214,-1.0885739,-1.9661975! 1.0,0.8663806,1.0024488,1.0207398,-1.3696419,-1.0954963,-0.697928! 1.0,-1.4743583,0.3725649,0.12709904,-0.1460802,0.2323147,1.3292134! 0.68596077,-0.48536837,-1.9769701,-1.453573,0.047795832,0.9644385,0.3929149! #1.0,1.2085098,2.2499642,-1.0065957,-0.5665677,0.43398196,0.11621755! 1.0,0.005524218,-2.1335154,2.7918925,0.48867542,-1.1971505,1.9212308! 
1.0,2.0210848,2.0101357,1.1046815,-0.29748976,-1.3916721,-1.4919024! 1.0,3.3797045,0.5717069,-0.14060825,-1.4718657,-1.9139163,0.058560193! 1.0,1.1671929,0.16099912,-1.6675539,-1.2560918,-0.8889866,-1.7535425! 0.63962835,1.3891808,0.9693759,-2.7901657,-1.8853936,-2.5935383,0.3235274! 1.0,0.020971179,-0.6691164,2.2489219,0.11812973,-0.71143246,1.7153263! 1.0,-0.8347792,-2.058277,-1.7457223,-0.9731432,-0.17251015,1.2381953! #1.0,1.7091997,2.7203708,-0.27499872,-0.93537676,0.70284826,1.9303846! 1.0,-0.74189144,-1.5862865,1.3897326,1.7698634,1.8777595,0.82635194! 
0.69136053,3.229201,1.5971514,1.3702729,-0.998657,-0.7378556,0.397305! 1.0,1.4573257,0.04517269,0.3683191,0.16912019,-1.914052,-1.4887605! 0.5758689,1.3246305,2.1812382,-0.25032008,-0.07624978,-1.1964009,-1.3905516! 1.0,1.7886747,1.5977695,1.2349857,-1.25899,-2.3503041,-1.3542901! 0.92477417,0.50615406,1.2858846,0.5781868,-1.8566716,-0.47759378,0.4067785! 1.0581286,-1.0627964,-2.6447134,-1.078547,-0.98959714,-2.0006113,1.2502486! #1.0,1.3776318,0.1614855,-0.79836494,-1.3558142,-0.62643886,-0.043742716! 1.0,-0.21614742,-1.0799466,0.022994697,0.37306857,0.18320692,0.84030986! 
1.0,1.3011823,2.522334,0.3368165,-0.9299552,-1.6625575,0.24898672! 1.0,1.6527612,0.69253284,1.0823715,-0.23963934,-2.6653128,2.7829072! 1.0,-1.3422587,0.44022727,-0.22467643,-0.06572825,-1.7009499,-1.3983319! 0.77881306,0.9581035,2.5995243,0.437149,-0.39033085,-2.4188344,-1.4042965! 0.9455879,-0.75063103,-1.577676,1.5884042,1.3147275,-0.96449137,1.1215396! 1.0,-0.9031673,-2.3457508,-1.3662641,0.6646224,-0.9815001,2.2199674! #1.0,1.4038653,2.9029853,-0.90597224,-0.8793262,0.24571943,-0.6144774! 0.67956114,0.42062116,-2.114376,-0.13606942,1.6322744,0.21213752,1.6337152! 
1.0,0.4963215,0.30237675,1.2366986,1.088556,-1.6248934,-0.14702564! 1.0,1.354641,-0.13669276,0.23242468,1.5868058,-3.424002,0.13663656! 1.0,-1.0810292,1.9338169,-2.167101,-0.25470728,-0.7142039,-1.4056051! 1.390224,1.7387643,0.18891102,0.42753965,-1.5117643,-1.6943402,-1.6379676! 1.0,-1.4878583,-0.8282719,-0.48145556,0.07161379,1.5585251,1.2763555! 1.0,0.63171196,-1.9433012,-2.3905318,0.19673061,-0.7353629,-1.055873! #1.0,1.4715749,-0.3820206,-0.9384199,0.7258862,-0.9980352,0.6777503! 0.7760066,0.9568751,-1.3884594,2.7918925,0.6310507,0.18320692,1.0935056! 
1.2637784,0.7520645,3.1288495,1.2507051,0.4294334,-1.5969328,-0.59321326! 0.9101493,0.29841506,0.8092947,-0.14060825,0.7929878,-3.4684665,0.25149167! 1.0,0.29120946,1.3170271,-0.7218826,-0.68264234,-0.21025312,-2.1830945! 0.8360504,1.4532247,0.698036,-0.40782785,-1.1465788,-2.8894687,-0.2006284! 1.0,-2.0422087,0.7181648,2.1548414,-3.6444163,-0.6755913,0.62726116! 1.0,-0.6858099,-1.5206413,-0.99243957,0.982837,-0.30109262,0.30094606! #1.0,0.40423316,2.883892,0.33547622,0.31037104,-0.6814101,0.53038716! 1.0,2.3462834,-0.6258747,0.12374413,0.4301738,-0.20472229,-0.44174874! 
1.1409488,0.59867173,2.6757865,1.8747592,0.402461,-0.94951355,-0.2394377! 1.0,-0.022551775,-0.21280962,2.5031552,1.1314261,-3.08995,-0.04235041! 0.86854637,1.9491417,1.7902079,-1.027868,-0.71032476,-0.5859218,-1.9036655! 0.5266735,2.9724028,1.7542346,0.86354494,-0.39033085,-1.3484874,-2.0561178! 1.0,0.61893106,-0.4611001,0.5614619,0.16342992,-0.14300013,0.6377574! 1.0,1.4621532,-2.5669227,-0.72687083,0.69399786,-1.5851703,-0.58610255! #1.2416792,1.3220485,2.748807,-4.1663294,-0.936291,2.2918108,-0.87404054! 1.0,1.5304403,-1.5853686,0.77091,0.43376297,-1.3135647,1.6161519! 
1.0,1.7933038,0.9529278,1.1484587,-0.63419247,-1.1501868,0.2070092! 0.66479856,1.6527612,0.22156787,0.119552195,1.7088504,-1.793269,0.058560193! 1.0,-1.0834715,1.2882237,-1.6247387,-0.3065685,-0.8889866,-1.8005425! 1.0,1.3542075,2.2372644,-2.7901657,-1.3431984,-0.31601703,0.3235274! 1.0,-0.35850334,0.20975274,2.082762,0.11812973,0.7176746,1.6872461! 0.8609065,-1.0431494,-1.6914446,-1.7457223,1.0329206,0.22135544,1.8222675! #0.97167987,1.9577956,2.7203708,-3.0581336,0.7534753,0.55150795,0.081269026! 1.0,2.3462834,-1.9254278,1.8270421,0.033753812,0.18320692,1.7576902! 
1.0,0.9442603,1.0466976,1.0895299,-1.1177256,-1.7565143,-1.4742365! 1.0,-0.470262,0.55065376,1.5617576,1.7088504,-1.7578489,-2.4226942! 1.0,0.2739852,2.032728,-2.4234195,-0.6527606,-0.9964804,-2.2101896! 1.2626624,1.1323199,1.1041144,-0.6745665,4.215369,-2.1569748,-0.09335601! 1.0,1.0546105,-0.5234431,0.02519679,-1.8131967,-0.6062782,-2.274138! 1.0,-0.93028355,-2.2988198,-2.8703148,0.6085445,-0.7466662,0.600837! #1.4304339,1.4460111,1.6625788,-1.4779603,-0.3991695,0.26621562,0.52876043! 1.0,0.9290096,-1.3654988,0.6302163,0.8258834,0.23431796,2.0852537! 
1.0,1.6893919,2.7418432,-2.1780217,-1.4252424,-1.1614726,-0.15457904! 1.0,0.26270878,-0.15408611,0.13052928,-0.24707091,-1.2715652,2.8611546! 1.4048765,-1.0826842,0.86907864,-1.83966,-0.28682238,0.14996403,-1.5921938! 1.0,0.010003865,-0.09514338,0.28720903,3.042276,-2.139583,0.82061857! 1.0,-1.386992,-0.85611504,0.93567485,-2.0719037,-0.8473213,1.2414862! 0.5446136,0.48072743,-1.1722958,-2.264889,-0.6825932,-1.2277412,1.5889876! #1.3123474,1.3571565,1.3484049,-0.44898963,-0.12918353,-1.435834,0.2178163! 1.0,2.3462834,-1.5698895,2.4254403,-0.06382114,-0.9762221,1.4699743! 
1.0,0.916833,3.3973532,2.0290642,0.73723024,-1.9459476,-1.206727! 1.3390625,1.8666854,-0.51602155,-0.124293625,1.7784414,-2.0638435,2.707627! 1.0,-0.049778104,-0.18301111,-2.0107365,-1.3477414,-1.0627177,-1.8905512! 1.0,1.4409096,0.11672914,0.63224256,-2.3059666,-1.3793957,-1.0265615! 1.0,-0.34062028,-1.5906894,0.3548565,-0.89390653,0.9694034,0.74943113! 1.0,-0.45652854,-2.0079563,1.3745391,1.3530078,-1.6253481,1.5889876! #0.62120634,1.9270725,2.38339,-0.91449386,-0.7545193,-0.010848761,0.40842384! 1.0,0.13970804,-0.86639065,0.068415344,-0.48935652,1.5060297,2.1815774! 
0.7977281,1.1268129,2.40126,-2.6740615,-0.91092545,-0.064712584,-0.6120603! 1.0,3.6079273,0.6476891,-2.325366,1.3906245,-2.1104972,-1.0633016! 1.0,1.0420822,0.89844614,-1.9464306,-2.0132165,0.3219828,-1.2040379! 1.0,0.57099,0.84766054,1.2565132,3.959673,-1.6591777,0.11924571! 1.0,0.9082663,-0.107438624,2.2788363,-1.2866337,-1.035897,-2.3865163! 1.0,0.9337388,-0.3923043,-1.0537269,1.5541868,0.5394513,-0.99708927! #1.0,2.1647143,1.0850487,-0.21163225,-0.3097577,0.59780353,2.4982705! 1.0,0.9937905,-1.5862865,2.094638,0.23982888,2.742257,-0.38550013! 
1.0,1.3776048,1.7696618,-1.2789409,-1.5340953,-1.3916721,0.041395843! 1.0261793,1.7625847,2.2758245,-0.11585647,1.6884261,-3.2239285,-0.63276756! 1.0,-0.33232176,0.60223633,-2.7263057,-0.19024009,0.3219828,-2.6166708! 1.0,0.980356,1.081488,-0.4954151,-1.2232316,-1.3593682,-0.18500328! 1.0,1.3910136,-1.3426934,-1.3173623,-2.0719037,1.1315553,1.0412321! 0.6362395,0.844434,-1.9853734,-0.81851214,-0.4507051,-1.5057889,1.1118608! #1.0,0.91471493,2.6293404,-3.669795,0.28434134,2.2412238,-0.62574565! 1.0,0.42062116,-1.1930138,1.0752394,0.09947336,-0.53463495,0.5380086! 
1.0,0.3608551,2.3519726,1.444638,-0.8857939,-0.69952035,-1.3268032! 1.0,-0.09635717,1.6386409,-0.06726396,1.7088504,-3.9021783,-0.26307923! 1.0,0.43221784,1.6067579,-0.61213005,-0.3822524,-0.326527,0.52662987! 0.82214755,1.4037814,1.6008706,1.1952382,0.44077784,-1.6205976,-0.15087205! 1.0,-0.97765744,-0.7777561,1.1169912,-1.0420195,-1.1505066,1.6329048! 1.0,0.7037667,-1.384512,-0.48873585,1.2784894,-2.765759,1.2137358! #1.0,0.48383176,1.7037268,-2.9097147,0.16116577,0.5948887,2.411916! 1.0,2.3462834,-1.1569351,2.4998624,0.6383392,0.98895603,1.0766441! 
1.072771,0.7015622,2.16802,-2.5700927,-0.70297587,-0.9570328,-1.1541895! 1.3465879,0.1798737,0.0051997304,1.0470906,-0.09408492,-1.8933487,-0.48939866! 0.7104925,0.22012478,3.449656,-0.0047052503,-2.4206014,-0.36734897,-1.9406729! 0.6234155,1.4290967,1.0649606,-0.030976415,-0.85978186,-2.3503041,-1.4666071! 0.5882786,-1.6467068,-0.8905984,0.17464316,-2.2392554,-1.3254094,-0.15295982! 1.0,0.9394882,-2.2417896,-1.078547,1.2784894,0.6617384,-1.6395663! #1.3735061,1.1580393,1.4815435,-2.5196035,-0.4457749,0.0825001,2.2280004! 1.349606,1.9195999,-0.721572,1.8663104,0.033753812,0.31362575,2.216818! 
1.4660436,0.7502328,0.6852884,0.59648746,-1.428303,-0.8325635,0.043100238! 1.0,2.0449002,0.6391113,3.157748,1.7440194,-2.2473533,0.8074675! 1.3954973,2.684375,0.29441142,-1.9945459,1.051455,0.25990194,-1.3499746! 1.0,0.7638854,0.37825364,-0.051797748,-1.2674036,-0.5971651,-0.4533757! 1.0235388,-3.032494,-0.8705936,0.34860986,-1.3762895,-0.026339233,1.041588! 1.0,-0.096791506,-1.7321757,-2.9357493,0.96962553,-1.5071107,1.2502486! #1.0,-0.6323725,3.9088883,-3.7328587,-1.1546483,-0.51580733,-1.4533731! 1.0,2.5819411,-1.2054261,2.0702472,2.620953,1.338203,2.0725055! 
0.9877121,1.6063333,1.693501,0.92296654,1.1973202,-2.2432117,-1.401891! 1.0,2.6368535,-0.25340182,-0.14060825,0.26717567,-1.167866,0.48043638! 1.0,0.09907144,2.191682,-2.414074,0.2855823,-0.4529168,-1.7648623! 1.0,1.1095254,1.7385235,0.47693694,-0.9149017,-1.4119029,-0.8532282! 1.0,-0.71731275,-0.5024922,-0.109000504,-1.0480429,-1.1015276,2.487459! 1.0,0.7037667,-0.373097,1.2754071,-0.50456256,0.13657534,1.0208946! #1.0,-1.3670912,1.1846104,-0.8322909,-1.834441,1.8832331,-0.88253295! 1.2452431,0.0983125,-1.5258355,0.9522009,1.1362712,1.0868739,-0.30184036! 
1.0,0.30751163,1.3345413,1.3420811,1.4893752,-0.29004657,-0.26170677! 1.3173101,3.2913446,0.23719269,-0.30891067,2.3641496,-3.720443,-0.7936573! 1.0,1.9368706,1.847265,-1.4083717,-1.0942383,-0.813601,-2.2522058! 1.0,0.5672329,1.2475059,0.68306416,-0.8991546,-2.3822045,-0.59223133! 1.0,-0.1359238,0.40997875,0.7144493,-1.9069786,-0.75948477,0.62726116! 1.2139525,0.18872082,-1.6362629,0.04041624,-1.4932525,0.56734604,1.8605292! #1.0,0.49414688,0.35079283,-3.0581336,-0.6254896,0.3893302,1.059316! 0.55704105,0.9234594,-1.3654988,-0.09605235,1.1187963,1.3643123,-0.78554827! 
1.0,0.70492846,1.0851884,-2.4382281,-0.4683522,-0.8325635,-0.99902225! 1.4831564,3.5474944,-0.2053582,0.023622334,-1.541688,-1.2964152,0.8074675! 1.0,0.93174064,0.49133497,-1.143583,0.5843551,-0.029588282,-2.2522058! 1.0,1.7886747,1.2497877,-0.030976415,-1.0814662,-1.1757891,-0.38112533! 0.5442705,0.1722089,-0.5267483,-0.43900472,-2.030153,2.0585825,0.88838! 1.0,1.0260727,-0.51808727,0.9496683,-1.1590295,-1.1273605,1.2756121! #1.0,1.0270758,0.8970093,0.040456176,-1.3936086,1.0509064,0.12862247! 1.0,2.1865735,-0.07191491,1.2404377,0.5602683,0.44854993,2.1038055! 
1.0,1.8787853,1.6386594,1.7213955,1.4295583,-0.59379697,-1.0071115! 1.0,1.5155532,0.8611691,0.5412446,-0.638862,-1.7217965,1.5412104! 1.0,-1.4138284,1.8473928,-1.8208866,-1.0796967,-1.7043377,-2.282917! 1.1935436,1.221029,2.6102128,1.0141437,3.9966097,-1.783656,-1.3728559! 1.0,-0.64580554,-0.4373628,0.82904345,-2.2517529,-0.6814049,0.2742619! 1.0,2.1922424,-0.4325415,0.12636775,1.1609249,0.65771174,0.9161211! #0.7105486,1.1778394,-0.452249,-3.488631,-0.150329,0.24571943,0.39671892! 0.9602657,-0.35588396,-0.77100736,1.8955859,0.33050525,0.18320692,1.0766441! 
1.40528,0.3282529,2.522334,1.2040033,0.97581434,-1.6625575,-0.5818751! 1.0,3.0926611,0.020732999,1.9540291,-0.1674344,-1.6641561,2.3940592! 1.2681602,0.09541088,1.4380177,-2.2483885,0.04904622,-0.7768567,-1.1757922! 1.0,1.0792373,1.2578629,1.087538,-0.39033085,-2.4188344,-1.121798! 1.0,0.42141032,-0.06507832,1.5884042,-2.0949783,2.3513603,2.0035944! 1.0,-0.36219192,-1.8822961,0.50370234,-1.1855069,-0.33041364,3.1398697! #1.0,1.6666272,1.2194332,-0.28703576,-0.49166733,0.023061633,0.6777503! 1.0,1.8702793,-1.3013903,1.7856172,0.8229616,0.04604304,0.22805613! 
1.0,1.9050053,3.3973532,0.21132731,1.0713886,-0.7709267,-1.0082083! 1.0,-0.1692115,0.38092464,-2.930627,1.6813874,-3.3259454,2.707627! 1.0,-0.976739,-0.11541641,-1.9338644,-1.3477414,-1.0627177,-1.8005425! 1.0,1.2590001,0.3148312,0.29679555,-1.4067862,-1.4229269,-1.0443432! 1.0,-0.018459499,-0.7918069,0.84166884,-2.0719037,1.2462907,-0.2357902! 1.2268044,-0.48536837,-2.011761,1.3745391,-0.66837686,0.43422198,0.9161211! #1.0,1.4713893,0.041223288,-3.0581336,0.31037104,-0.22294348,1.0873253! 1.0,0.13970804,-1.0760326,1.515271,0.52501124,1.5060297,1.6337152! 
1.0,0.9442603,2.7652307,-2.1985617,0.006786883,-0.8977044,-0.8775557! 1.0,-0.12234104,-0.14636868,-0.14060825,1.8047848,-3.3259454,1.7161348! 1.2254331,1.1007617,1.4380177,-2.0974083,-0.76258546,-0.4529168,-3.0236497! 1.0,0.30442363,0.98635906,0.63224256,-1.5161474,-2.342946,-0.57343626! 1.1179731,-0.375844,-0.7918069,-0.10695332,-2.0719037,-0.8473213,1.2185726! 0.7208697,-0.604861,-1.054161,-2.376806,0.689778,0.43422198,1.6199065! #1.0,1.5182693,2.1204355,-3.657688,0.098673105,1.9444277,1.5172862! 0.59946054,1.6448252,-1.7251835,0.527826,0.8825669,-0.66428804,2.3683693! 
0.5391817,0.8188921,3.0668333,1.5523431,1.0168502,-0.65252894,-0.3755721! 1.1278198,1.2901309,0.96043825,1.0147142,1.7440194,-4.008423,2.1378164! 1.0,0.48743808,0.75681853,-1.18044,-0.7724716,-0.96097237,-1.9265137! 1.0,0.08811653,1.2262421,-0.21718222,-1.5409629,-2.8207664,-0.16941631! 0.5098789,-0.6867756,-1.1227982,-0.45459306,-1.4375944,1.2335191,1.2264427! 1.0,-1.0546393,-1.0973394,-1.4869984,-0.49388772,-2.994756,1.0072029! #1.0,0.8245903,2.9716609,-3.5027766,1.1376872,0.2213592,0.17222756! 1.0,1.6307187,-1.2054261,0.56119204,0.2145639,-0.8769113,1.184263! 
1.0,2.0416899,2.7652307,1.1480461,-0.8857939,-0.7709267,-1.0082083! 1.0,1.760579,0.37225944,0.076101184,1.9561303,-1.8783097,0.80944574! 1.0,1.2703612,0.8819299,-0.76712924,0.53052914,0.7550304,-1.9661975! 1.42624,1.0087781,1.3464456,0.1474036,-0.96310675,-2.5674376,-1.0487666! 1.0,0.6472105,-0.21075642,0.16070205,-1.1898844,1.5138683,0.9700037! 1.0,1.9672477,0.005387664,-0.88213676,0.9483743,0.6165878,0.9557328! #1.0,1.4713893,0.84022427,-0.6579668,0.19003457,1.7779682,1.3574848! 1.0,0.8011371,-1.5990126,1.7658203,1.2508833,0.18320692,-0.72252405! 
1.2893249,1.3697988,4.084426,0.82818174,0.4944551,-1.6697862,-0.3505783! 0.634592,3.553473,-0.23522449,-0.33320522,0.3452161,-2.0891082,0.67527413! 1.0,-1.525758,1.5535765,-0.9851784,-0.68264234,-0.58907247,-0.82882553! 1.0,1.6843634,0.698036,0.14445049,-1.3064597,-2.889393,-1.6948323! 1.0,-2.143146,0.11252469,2.1548414,-1.0778289,0.97478205,0.62726116! 1.0,-1.2577624,-1.528867,0.896244,0.7576553,-1.768081,-0.26359075! #0.6571897,0.72457814,1.5434142,0.33547622,-1.4154127,0.11659223,2.9254029! 1.0,2.111898,-0.42084986,1.5151479,1.3606275,1.8430139,0.6587767! 
1.0,0.6021001,3.509807,0.5450449,-0.6071686,-0.7709267,0.25738776! 1.0,1.8563673,2.1165972,0.53055656,0.09493238,-1.9048517,-0.17063278! 1.0,-0.20837146,3.655019,-1.7848355,-1.0819697,-0.094292045,-2.7686534! 1.488444,2.2153347,2.6459339,-0.643539,4.8526525,-2.1223438,-1.2819836! 1.0,-0.48018724,0.35756344,-1.7033377,-2.2965806,1.9947171,2.0466874! 1.1521509,-0.6219144,-1.5457878,-2.7227328,1.0194705,0.244133,1.4654746! #1.0,0.6847426,1.2480257,-2.8906717,-1.0999494,-0.40356517,-0.08237207! 1.0,1.6272299,-1.0635657,0.9526398,1.2040565,-0.04533708,1.7449973! 
1.0,0.9442603,2.7652307,1.4762615,1.461489,-0.45954245,0.49223727! 1.0,2.2131727,0.7415722,-0.14060825,1.7088504,-3.9999144,2.0211196! 1.0,-0.98281145,1.2718822,-2.3199177,-0.76258546,0.22255129,-1.1047482! 1.0,1.1366658,-0.19920427,0.3815267,-1.7059271,-2.139583,-1.0443432! 1.0,0.087224185,-0.23932439,0.77535087,-2.0719037,0.68419343,1.2185726! 1.0,1.5643111,-1.3280098,-2.376806,0.06914222,0.67349654,0.40347016! #1.0,1.4713893,0.78751343,-0.22511292,0.31037104,1.9719825,0.6777503! 1.0,1.9613165,-1.1377789,0.85263526,0.8258834,0.74368167,0.116487205! 
1.0,0.7713663,1.3624687,-2.4382281,1.3343534,-0.7709267,-1.0082083! 1.0187132,-0.12234104,0.2503265,-0.14060825,-1.0433214,-1.3354263,-0.42169476! 1.0,-0.98281145,1.4380177,-1.3847721,-2.754031,0.35148758,-1.8659916! 1.1666533,1.5058885,0.91875726,0.63224256,-1.3696419,-1.7643659,-1.8456235! 0.8450288,0.018868566,-1.3013835,0.09068203,-2.0719037,-1.2259215,-2.2069693! 1.0,-0.48536837,-3.3891444,-0.59340376,1.668741,0.43422198,0.9161211! #0.8180309,0.87255514,3.8266902,-3.1500423,0.31037104,0.30219942,1.0134244! 1.0,2.5635407,-1.0760326,0.6302163,0.8258834,0.12388456,1.6337152! 
1.0,1.9721099,2.0101357,0.7871099,-0.63455284,-0.56567115,0.103634894! 1.0,2.7789629,-0.38122898,0.23137403,1.9223318,-2.4470594,-2.4226942! 0.6631001,0.25304836,1.2826536,-1.6675539,-1.2560918,-0.25098932,-1.7535425! 1.0,1.3891808,0.9693759,0.87595606,-0.3988492,-2.5935383,-0.8671155! 1.0,0.41031957,0.33964902,1.5777416,-2.67048,-0.35638255,0.52611274! 1.0,-0.43646383,-1.4548397,-0.4020722,0.047795832,-0.23418993,2.3076873! #1.0,0.76047,1.3411305,-3.9146752,0.2321819,0.24571943,1.7951124! 1.0,-0.74189144,-0.8199556,1.9140089,1.3713741,1.8777595,1.68239! 
1.0,1.3007466,0.28650182,1.3702729,-0.6077611,-0.7625465,-0.5391702! 1.0,2.1913612,0.32472247,0.1523593,-0.3421018,-3.6014433,1.0595645! 0.91997474,1.6777136,0.09587312,-2.350041,0.6382928,-1.2476258,-2.5968752! 1.0,0.827463,-0.11659598,0.76791084,-0.65699065,-2.2694883,-1.0443432! 1.0,0.36899066,-1.5657235,0.56249744,2.3709965,-0.8473213,-0.4153697! 1.0,-1.7031982,-1.767288,-2.2265897,-0.015935242,-1.2546523,1.1269416! #1.0,1.4713893,1.4795572,0.3311954,0.5543948,-0.112285554,-0.3307945! 1.0,-0.31179476,-0.37149966,-0.22409368,0.33050525,0.87039185,1.3523679! 
1.0,1.3090521,1.7120802,0.57680905,0.056536615,-1.2967978,-0.55749065! 1.0,3.152996,2.109785,0.76439536,-1.1161714,-2.2052329,0.48043638! 1.0,0.5359117,0.43661863,-1.9927046,-0.2677613,0.6080039,-1.9595608! 1.0,1.431329,0.87192345,-0.46851587,-0.29093528,-0.91187584,-2.2877138! 1.0,-1.5208827,1.0559988,0.24175334,-0.32429343,-1.6506157,1.7506243! 1.0,-0.48536837,-1.8356661,-2.8734279,1.5339832,-1.4890985,1.6199065! #0.92686313,0.91306305,4.3665333,-3.2291098,0.10256523,0.89489686,-0.88253295! 0.6230008,1.5040745,-1.3113618,0.5310424,0.97570914,1.0525355,2.1770935! 
1.0,1.1386063,0.707082,0.83929265,0.57736504,-0.3270694,0.44913065! 1.0,1.6069098,0.01890397,0.2614504,-0.12784761,-2.0023925,1.3832965! 1.0,2.4576397,-0.2639115,-0.5564369,-1.2258537,-0.2040447,-1.8133664! 1.0,1.3903534,-0.09514338,1.2145233,-1.088207,-0.96985596,-0.48349345! 1.0,-1.9962506,-2.0725951,1.147867,-2.110451,-0.8003643,-2.4098084! 1.0,-0.38080925,-2.443461,1.0023484,1.1042975,-0.862604,-1.1565521! #1.0,1.5302894,2.7203708,-2.68328,-1.2386662,-0.109565616,-1.4556141! 0.6953732,2.3624759,-1.2768123,1.9295348,0.724199,0.32089174,-1.0972011! 
1.1429241,0.92517495,-0.053572178,-3.465566,-0.9349241,0.0455634,-1.6666262! 1.3609397,2.110641,-0.39042008,-0.17089069,1.3906245,-1.3501673,-1.6971791! 1.4973252,-1.1709789,-0.13560402,-1.3051124,-1.1163502,-0.19024009,-1.9021776! 1.0,0.91163516,-0.09514338,0.991626,-1.1661801,-0.5541572,-0.697928! 1.0383425,1.2281322,0.48467082,0.04167384,-2.933519,-1.035897,1.2185726! 1.0,1.2107058,-1.7755723,-1.0537269,-0.525254,0.3848201,-0.0981791! #1.0,1.4713893,3.1520424,0.547471,-0.78481746,-1.9542794,0.6777503! 1.0,2.207807,-1.1514007,1.7651205,0.3993389,2.2774613,0.67039293! 
1.0,2.9972186,0.68655455,1.0916132,0.8571218,-0.9225949,-1.7057374! 1.0,1.6819499,-0.3389905,0.2434128,0.049236953,-1.2715652,1.3020111! 1.0,-0.98683614,1.4568245,-2.877336,0.35229385,0.031608343,-2.159639! 1.0,-0.5262432,1.7915454,0.3428622,-1.8514056,-2.4351764,-0.5648205! 1.0,-1.2974113,-1.1194955,1.3755894,-0.123821676,-0.4911555,1.2414862! 1.0,-0.5747317,-1.2318217,-2.8734279,0.66619647,-3.0111585,-0.8489564! #0.5641866,1.3571565,1.3484049,-0.44898963,-0.536237,1.3423331,0.2178163! 1.0,1.8158038,-1.2217739,1.3577571,0.11800766,-0.67332554,2.1983738! 
1.0,0.7486033,3.6031737,0.82818174,-0.16690636,1.1126204,-1.2815515! 0.6004532,0.08521479,0.322331,-0.14060825,0.3452161,-4.1100407,1.819725! 1.0,0.5881704,1.5535765,-0.4318862,-1.75438,-0.295251,-2.1332095! 1.0,1.9887316,0.93635863,1.3428112,0.35483593,-0.7053847,-0.1752351! 0.90678036,0.5061236,-0.3087886,0.9999266,1.0757716,-0.80358744,1.6148942! 0.5176033,-0.31522328,0.25369585,-0.34326684,1.390089,-1.768081,0.7607442! #1.0,0.912377,3.0094044,-3.613981,0.67199314,-1.4654061,2.958155! 1.0,-0.5654823,0.13631564,0.55194753,0.4149294,0.8182762,1.8626717! 
1.2493613,0.7374721,2.9092531,-2.502256,0.4444031,-0.7709267,-0.68354726! 1.312228,0.61359835,0.8074044,-0.34500217,1.6135168,-2.1578846,1.8622538! 1.0,1.0345249,3.3025718,-1.9338644,-0.59724665,0.016906679,-1.8005425! 1.0,0.46455926,-0.13526177,0.63224256,-1.8556374,-2.139583,-0.662966! 1.0,0.018868566,-0.7918069,1.0304093,-2.7547343,-0.4627607,1.1540747! 1.0,-0.24558383,-1.6914446,-0.8323216,1.668741,0.39707273,0.9161211! #1.0956687,1.3377283,1.9556336,-1.0017941,-0.6044351,0.5417063,0.35335016! 1.0,2.4499412,-0.07191491,0.6567121,1.1237286,0.3701657,1.7131064! 
1.0,1.3823507,2.1613991,0.6012231,-1.1177256,-0.66371953,-0.82852995! 1.0,2.4196732,0.72759706,-0.14060825,2.1548352,-3.6902385,1.1991845! 1.3475511,0.2739852,0.9660758,-1.9643662,-0.76258546,-0.9964804,-2.1394596! 0.70065415,1.6204585,-0.56800264,-3.321286,-1.9700236,-2.3347332,-0.09335601! 1.0,0.006228626,-0.25558215,0.02519679,-0.76970994,-0.8473213,1.2394876! 1.0,-0.49452484,-1.7326041,-0.75465256,-0.50912726,-2.5597086,-0.4749192! #1.0,0.9952241,1.7848915,0.6357379,0.31037104,0.33359116,0.3770427! 1.0,-0.18879402,-1.3294828,2.0586772,1.0525377,1.12725,0.81114805! 
1.2048557,1.6582229,2.3346295,1.6109798,0.7069713,-2.010563,-0.15457904! 1.0,1.5063908,-0.64314586,-0.99149245,0.21187693,-2.790229,-2.4226942! 1.0,0.78355247,1.2656283,-0.48616284,-0.45495003,-0.49909467,-2.3565118! 1.0,1.4409096,1.316973,1.2278304,3.2699928,-1.4143624,-1.7192347! 1.0,-1.0046549,0.25413483,0.4959808,-0.82302237,-0.72044575,-1.0900414! 1.0,-0.10318148,-0.9963974,-2.080564,1.4425452,-1.4642082,-0.062278807! #1.4088358,0.9089026,1.081919,-0.27888763,-0.67514986,0.023061633,1.7963246! 1.0,1.5509115,-2.0053117,1.6091546,0.71185964,-0.30654806,1.8297145! 
1.0,3.3727942,2.4640162,0.9723035,0.20874834,-2.1069298,-1.4608207! 1.4796405,2.2147405,0.06640977,0.5741204,-1.175727,-2.5300708,0.71225953! 1.4954779,-0.015285552,1.9954011,-1.8830647,0.4854387,-0.31504303,-2.3248281! 1.0,0.71509916,-0.440453,-0.13840157,-1.7971687,-0.8433337,0.18741524! 1.0,-1.1214466,-1.7902124,0.9663249,0.48444647,-0.90865475,-0.7917404! 1.0,-0.5895191,-1.0037379,-2.688398,1.5078248,-1.492714,1.2502486! #0.86191905,1.9512645,1.922145,-0.6831915,-0.6749673,-0.31437212,-0.88253295! 1.0,0.28580928,-1.3100247,0.56821996,0.32844508,0.77385,1.6337152! 
1.0,0.9488303,0.9030602,1.0269829,-0.98702353,-1.8170555,-1.0635351! 0.83355147,0.5490674,-0.7702064,0.70736706,1.7999544,-3.65877,-1.1459955! 1.0,-0.47548848,1.4968624,-0.7895456,0.3890952,-0.58907247,-2.2041256! 1.0,1.7079582,1.2333686,1.3608025,-1.7004919,-1.3883014,1.2221165! 1.0,-1.114575,1.0682192,2.334434,-0.90597785,-0.6051651,1.229806! 1.0,0.09709436,-2.0113754,-2.0541291,0.010414958,0.41405654,0.8059826! #1.0345887,-0.7533504,1.9645565,0.3997869,0.66447806,0.39412528,2.9107816! 0.96998006,2.7897916,-0.6165946,2.0140474,1.043503,0.19963044,0.8539383! 
1.0,1.9708395,2.9571097,1.6069772,0.43760705,-0.42501968,0.6810575! 1.0,1.8720217,-0.15363687,0.06938958,-0.80289006,-1.793269,-1.9210124! 1.0,0.26844895,1.6992093,-0.9175209,0.29603148,-0.5321209,-0.6721739! 1.0,1.087826,0.56336564,-0.07748723,-1.6267538,-1.3678813,-0.8799402! 1.0,0.35136467,-1.0383635,0.047581196,-2.0352135,0.9694034,0.27964538! 0.8262042,0.14449692,-1.7629538,-2.5945802,0.4029572,-1.8382223,1.5738199! #1.0,0.7100711,1.2678862,0.30930144,0.6581079,0.09439093,-0.21482563! 1.0,0.42062116,-2.2465715,0.7054653,0.033753812,1.1839818,0.9653619! 
1.0,0.216012,2.7652307,0.71683556,1.1528358,-0.7709267,-1.9674824! 1.0,3.1507595,0.01890397,-0.14060825,0.33270872,-3.3259454,2.0211196! 1.056924,-0.9745225,1.4380177,-1.6247387,-0.45495003,-0.2040447,-2.3667898! 1.0,1.2590001,-0.09514338,0.11445463,-1.3696419,-2.139583,-1.4184325! 1.0,0.018868566,-0.7918069,1.5921354,-2.2194052,-0.8473213,1.2185726! 1.0,-1.2344398,-1.2964479,-2.2340727,0.047795832,0.43422198,0.9161211! #1.0,1.0732701,0.041223288,-3.0581336,0.31037104,-0.48276192,0.6777503! 1.0,2.1401002,-1.5758412,0.6302163,0.8258834,-1.0480527,1.6337152! 
1.0,1.7933038,3.2504456,0.9966121,-1.3630931,-0.4910136,0.2070092! 1.0,3.1123214,0.22156787,-0.14060825,-1.4718657,-1.1981773,0.52098876! 1.3205541,0.5845943,1.2077129,-1.6247387,-0.05283034,-1.3383942,-1.8659916! 1.0,1.3542075,-0.34386843,1.0264077,-0.47610414,-0.78464365,0.16215473! 1.0,-1.6372349,-0.62995756,2.2489219,0.11812973,-2.088711,1.7153263! 1.0,-0.4371038,-1.9027758,-1.9472685,1.0329206,0.07660335,1.1639651! #1.0,2.0051723,2.7203708,-0.46926367,0.6089904,1.9444277,0.081269026! 1.185256,-0.69272184,-1.5862865,1.945023,0.8258834,0.5446748,0.82635194! 
1.3893306,1.2018046,1.1632158,1.2638398,0.97581434,-1.59377,-0.5157652! 0.67763484,2.062136,-0.24398285,-0.7139546,0.014033914,-1.4938084,0.6045231! 1.0,0.8287419,2.3692403,-1.5058804,-0.2677613,-1.2376412,-1.9078819! 0.7512174,0.98046005,1.098268,0.24256861,-1.7472707,-2.5737233,-0.7795134! 1.0,-1.3000718,-1.577676,1.5884042,-3.9089863,2.3513603,0.46753097! 1.0,-0.99943954,-0.7679252,0.50370234,-1.0016584,-1.0529267,1.567097! #0.5657447,1.5302894,0.78751343,-0.3829127,1.1170008,0.30219942,3.6989264! 1.0,1.7894735,-1.5567824,0.11060536,1.6322744,0.45690346,0.10060465! 
1.0,1.5582263,2.7652307,0.63103944,0.20874834,-0.46621865,-1.020443! 0.5334077,1.6527612,-0.6098273,0.3527869,1.2679188,-1.896079,0.8074675! 1.0,0.20464623,0.44022727,-2.2850406,-0.06572825,-0.40361667,-1.1389139! 1.0,1.4409096,2.407742,1.0207398,-1.5409629,-1.9997566,-0.29470402! 0.93689436,-1.1108775,-0.029077709,-0.39433056,0.24053687,-0.90865475,0.9329324! 1.0,1.003685,-2.0612779,-1.0720239,-0.44691014,0.9536506,1.3691525! #1.0,-0.6323725,0.29098606,-3.2587729,-0.7573642,0.46108413,-0.5525954! 1.0,0.0983125,-1.0823016,0.5423651,1.3654169,-0.9323961,2.0559585! 
1.0,1.7970667,0.6202057,1.4762615,0.42793185,-1.6763623,0.79557234! 1.0,1.6527612,0.6368375,-0.14060825,1.5868058,-3.3259454,2.0579145! 0.6231404,0.43628544,2.2968497,-2.167101,-0.25470728,0.688385,-1.8862888! 1.0,0.15558195,-0.56800264,0.63224256,3.042276,-1.6943402,-0.9517803! 1.0,-0.06474143,-0.85611504,0.6266805,-2.6827655,-0.020275235,1.2763555! 0.9638753,0.6318392,-1.4883081,-2.5729117,0.77198446,-1.7245777,1.5942402! #1.0,1.3292581,2.7126539,-0.9384199,0.31037104,-0.3753494,0.6777503! 1.2738786,0.013308108,-1.0760326,0.99101293,0.8258834,1.2618716,1.001586! 
1.0,1.33196,0.31411427,0.7919799,1.0380669,-0.9868161,-1.8013995! 1.0,3.1507595,-0.20912701,-0.53991723,0.030530691,-1.6641561,0.112594485! 1.0,0.2391755,-0.5330148,-2.0787623,-0.3331316,0.57505924,-2.5580912! 1.0,1.3891808,2.3183503,0.5727433,-1.1463938,-2.1223438,-1.7745335! 1.0,-2.2279978,1.6200905,1.5395184,-1.4140797,1.0686438,-0.028023005! 1.4019489,-0.40448028,-1.5457878,-2.4191651,0.047795832,0.34769017,0.9161211! #1.0,1.1154794,0.041223288,0.4922998,0.21262294,0.18180156,-0.08237207! 1.0,1.6307187,-1.5862865,1.5620086,0.8456289,-1.071933,0.79211825! 
1.0,0.96517,3.509807,0.83929265,0.57736504,-1.1246738,-2.207151! 1.0,0.99998873,0.027305722,0.16316438,0.5371881,-2.6190124,-0.24708974! 1.0,1.1671929,1.0236073,-1.285634,-1.2258537,-0.4838056,-1.9287076! 1.0,0.5889313,-0.2571426,-1.1071478,-0.97772264,-0.96985596,-0.48349345! 1.0,-0.0955717,-1.5687237,-1.2296612,-1.2318776,0.68747926,0.80358183! 0.7501281,1.698955,-2.413923,0.5592671,1.1042975,-0.862604,-0.81735104! #1.0,1.5302894,2.7203708,0.7411313,-0.37416524,0.2213592,-0.08237207! 1.0,1.693744,-1.5862865,0.2995249,0.37079632,0.85980123,-1.0972011! 
0.6549691,0.20809531,0.9529278,-1.6602154,0.08561188,-2.0389504,-0.119308054! 1.0,1.5085056,-0.36029565,1.6274102,2.106072,-1.3753605,0.52000546! 0.5707672,1.1127663,2.3218718,-2.1230264,-2.624446,0.2876377,-1.8005425! 1.0,0.8483697,2.01126,0.93162954,-1.7460979,-1.1154912,-1.0223067! 1.0,-1.8422449,0.95222837,0.11851698,-2.3831267,-1.2735333,0.509067! 1.0,-0.53436,-1.4888153,-1.3662641,1.9607683,0.35255545,1.5738199! #1.0,1.4713893,1.5434142,-3.1461957,0.31037104,-0.12335396,1.0667431! 1.0,2.3243074,0.13017887,-0.03090918,1.4310534,1.2569304,1.9719107! 
1.0,1.3090521,1.7120802,1.4762615,-1.3193452,-0.40127093,-1.0082083! 1.0,1.7002914,2.1099372,3.0498753,-1.1161714,-1.0777586,0.48043638! 1.0015285,0.51871544,0.94228005,-1.9927046,-0.45495003,0.26892298,-2.3667898! 1.0,0.30442363,1.2353253,0.63224256,-1.49899,-0.91187584,-1.8749303! 0.6188776,-1.4424775,-0.27029574,-0.120265365,-2.409898,0.60652184,0.8630351! 1.0,-0.48536837,-2.2710934,-2.5626087,1.5339832,0.67788255,0.9161211! #1.0,1.1580393,2.4604616,-3.0127087,-0.23205781,-0.112285554,0.3522076! 1.0,1.0700873,-1.6996815,0.18889618,1.4442806,-0.6933924,2.1770935! 
1.0,0.7747211,1.5523343,1.0895299,-0.62560034,-1.3436831,-1.5908221! 1.10637,1.8311806,0.27375203,0.76439536,1.8944519,-2.4746892,-2.4226942! 1.2909632,1.1794697,1.7559247,-0.48616284,-0.49191284,0.34391868,-1.9078819! 0.6853795,1.5058885,2.46706,1.096483,-1.7472707,0.37760562,-1.3900185! 1.0,-1.3000718,-0.7907567,1.1567523,1.2023968,-2.0432286,0.4426812! 1.0,-0.99943954,-0.7679252,-2.5376682,0.047795832,-1.0529267,1.567097! #1.0,1.5302894,-0.35038233,0.94315076,-0.9830044,-0.0034468174,3.6989264! 1.0,1.0808213,-1.5599384,1.397315,0.97570914,-0.84044766,0.99495524! 
1.0,0.7015622,2.368309,1.5490217,0.91455656,-0.7709267,-1.0082083! 1.0,-0.12234104,-0.15363687,0.1784463,1.7088504,-1.8753537,2.0211196! 1.0,0.022648394,3.193424,-1.9338644,-0.46020025,0.3219828,0.90903646! 1.0,1.2590001,1.8165755,0.63224256,4.29334,-2.0510762,-1.8456235! 1.0,-0.24943823,-1.176101,0.27220887,0.5130978,2.6163392,1.770643! 1.0,-0.48536837,-1.6914446,-2.376806,1.0329206,-1.3004966,0.6184067! #1.3346575,1.4713893,-0.42089254,-0.53532463,0.31037104,1.9792476,0.6777503! 1.0,0.24234205,-1.2833123,0.881176,0.8258834,0.18320692,1.6337152! 
1.0622442,0.98001707,2.9292016,1.3312621,-1.2797348,-1.7946882,-1.0635351! 0.99379057,0.5490674,-0.3668841,0.8422531,0.5299092,-1.8220384,0.2731607! 0.69533825,-0.9604884,1.8026525,-0.4257387,-0.2440151,-0.54412585,-2.2021656! 1.0,1.8476429,1.7542346,0.26507866,0.5639567,-2.2691467,-1.6644274! 1.0,-0.5364776,-2.0314574,0.7085331,2.3316023,-1.0561726,0.22728193! 0.625041,-0.76130646,-0.80333316,-2.9357493,0.9023086,-1.0670794,0.3836202! #0.6714303,0.39117265,-0.18715191,-3.2291098,0.66447806,1.8592259,2.9107816! 1.0,1.3310833,-1.7309756,0.22666901,0.6915161,0.1749664,0.6374088! 
1.0,1.4440975,0.68655455,-0.17989564,0.2821067,-1.6625575,-1.8386273! 1.0,1.632332,1.5227761,0.11628538,2.595644,-2.2787724,-0.53376734! 1.0,1.5063214,1.8709767,-0.40023357,3.0494714,-0.42859972,-1.353318! 1.0,2.7289858,1.7915454,0.86354494,-0.6789958,-1.3484874,-0.81993604! 1.0,0.49134237,-0.94564164,1.320694,-0.123821676,-0.8174803,0.6377574! 1.0,-0.48536837,0.45404762,-1.0980422,0.75943935,-1.7234229,-0.58610255! #1.0,0.7762373,1.9181768,-4.1663294,-0.936291,1.1450546,2.9908571! 1.0,0.102797866,-1.161462,1.7515832,0.15066767,-0.0853495,-0.23599082! 
1.0,0.7015622,3.6243563,-2.4382281,-1.6587071,-1.2794197,-0.19059616! 1.2582086,-0.022551775,0.31054622,0.78612083,1.2087257,-3.0886302,-1.6227993! 1.0,0.22012478,2.9894178,-1.027868,-2.2176423,0.6946124,-1.6189737! 1.0,2.2510133,1.8165755,-1.199192,-0.56832016,-0.8796465,-2.1129875! 1.0,-1.6748345,-1.5342076,1.942621,0.21383458,2.810624,-2.2290173! 1.0,0.9337388,-1.6914446,-3.006802,-0.11219716,-1.1321094,0.12126243! #1.0,1.4713893,2.748807,-2.5676582,-0.63406867,1.9444277,2.8485754! 1.0,1.4185991,-1.5853686,1.7734693,0.8258834,0.35144633,2.216818! 
1.0,0.9167851,2.871889,0.7697554,0.4294334,-0.73440105,0.10564041! 1.0,3.2913446,-0.6797644,-0.14060825,1.9770658,-1.8264735,-0.40614378! 1.0,0.21922219,1.8825128,-1.5574033,-1.3040236,-0.7130435,-2.2522058! 1.0,1.3811698,0.69071054,-0.21718222,-1.1871998,-2.1569748,-1.0208064! 1.0,-0.1359238,0.35756344,2.244496,-1.9069786,0.9694034,0.62726116! 0.54046136,-1.0546393,-1.6914446,-1.4869984,-1.9168978,0.56734604,1.5738199! #1.0,-0.6323725,0.46596855,0.33547622,-0.63752747,1.9444277,-0.3252886! 1.0620136,1.6157811,-1.3654988,1.5588393,0.5401009,0.041478932,0.82635194! 
1.0,-0.13304448,2.5406032,1.3702729,0.91455656,-1.7202446,-0.22729117! 1.102004,-0.12234104,0.01890397,-0.1729626,1.7088504,-3.3259454,1.0595645! 1.062376,-0.9622721,1.4380177,-2.3949134,-0.76258546,-0.2040447,-1.8659916! 1.0,0.8715072,-0.067531586,0.63224256,-1.6282463,-0.76889664,-1.0443432! 1.0,-0.19724566,-0.7918069,0.5655229,-1.0582998,-0.37400228,1.5717437! 1.2973762,-0.8476054,0.3064679,0.40757376,0.55727303,0.15180594,0.9161211! #1.0,0.8798813,1.6221209,0.72237235,0.16741097,2.5894477,1.2147498! 1.0,2.3462834,-1.0760326,0.6302163,0.8258834,-0.24287164,1.6337152! 
1.0,0.9442603,0.37419182,1.1496246,-0.83758926,-0.80589926,-1.0082083! 1.0,1.5063908,1.9000983,-2.008009,-0.53001726,-3.7912614,0.7579626! 1.0,-0.027366936,1.149134,-2.2221355,-0.28388214,-0.2040447,-1.9489076! 1.2818797,1.5303819,1.5087433,1.0207398,-0.66985714,-2.3336706,-0.859409! 1.0,0.70469546,-1.6814318,-1.1971595,1.4174592,2.337201,0.9551158! 1.0,-0.33998442,-2.8845284,0.88952404,1.8993576,-1.1360543,0.5776247! #1.0,1.2186265,1.3881724,-3.1656978,-0.62150407,1.0774136,1.020801! 1.4268188,2.2081735,-1.4843969,2.0586772,1.0651747,-0.0018006563,0.22659802! 
1.0,1.3776048,2.392228,1.3027077,0.90809137,-0.12059152,-0.55749065! 1.0,3.4220686,0.24796575,0.97414374,1.9561303,-2.3395524,0.80944574! 1.4123895,-1.4614649,1.8435719,-2.0437195,0.7091437,0.13519627,-1.3690902! 1.0,1.0087781,-0.02059716,-2.7901657,-0.96310675,-2.1223438,0.39607257! 1.0,-1.7223743,-0.11430669,1.2591777,0.07161379,0.60652184,0.60077834! 0.7461999,-0.8588475,0.005387664,-0.4981994,0.6425513,-1.1920786,0.592159! #1.0,1.3292581,2.0640957,-0.575904,0.08599174,1.2369895,1.3574848! 1.0,0.9325664,-1.0774195,1.6863918,1.5763538,0.817494,1.174645! 
1.0,0.3950131,3.3571267,0.7206421,0.08419502,0.36019164,-0.8954543! 1.0,1.9228771,-0.42692792,0.11531228,1.8763604,-2.5767803,0.036524296! 1.0,1.7205446,1.3817463,-0.46660703,-1.2258537,0.048660994,-2.2522058! 1.0,1.4409096,0.8429044,0.5376111,3.2699928,-0.5176342,-0.5034302! 1.0,0.042395532,-0.67043304,-0.68318295,-1.5541377,2.5290852,1.4734093! 1.0,2.2506452,-1.4091575,1.0021114,1.3241491,-1.960264,1.326901! #1.0,1.2580924,2.4910326,-0.6214492,-0.8842055,1.8507152,2.202206! 1.0,0.051402867,-2.0180175,0.034231603,1.434346,-0.9323961,2.1815774! 
1.0,0.45574152,2.24123,-0.32706428,0.41996402,-0.6407572,0.35623294! 1.0,2.2166033,-0.4188897,-0.7266429,-0.4686358,-1.33715,2.4303775! 1.0,-1.233763,1.4380177,-0.36667472,0.2965321,-0.4131999,-0.2046212! 1.0,0.13487339,1.7542346,-0.9296784,-1.7472707,-2.3089077,-1.4065619! 0.79188526,-0.093838036,1.2525284,0.86229736,-1.3706247,-0.5418921,1.5550524! 1.0,0.013950765,-1.3577152,0.43839526,-0.8208491,-0.93912655,0.5582148! #1.0,1.5302894,2.1262734,0.23254395,-0.73576784,0.047449946,0.7266868! 0.88407123,-0.24756676,-1.9158447,0.35211754,1.1813654,-0.10280323,1.960363! 
1.0,0.4963215,0.4922735,1.4762615,0.18209839,-0.65252894,0.79557234! 1.0,1.2707133,-0.21641397,1.0147142,0.79943883,-3.5890548,0.13663656! 1.0,0.43628544,0.4631706,-1.8908195,0.045229495,0.688385,-1.4056051! 1.0,1.2590001,0.28496027,1.2625281,-1.3696419,-1.6943402,-1.0443432! 1.374291,-1.4685297,-1.1227982,-0.21794665,0.046626687,-0.81399506,0.9240633! 1.0,0.6318392,-1.4883081,0.027323365,0.58603454,-2.5597086,-0.9716135! #0.6799323,0.5818316,1.7037268,-0.19432777,0.016886413,0.6027304,1.938604! 1.3060656,2.6104703,-1.5906215,0.56119204,0.8258834,0.17495263,1.6337152! 
1.0,1.3090521,2.522334,-2.4404988,0.5634278,-1.1898277,-0.23265076! 1.0,2.2147405,-0.29569757,1.0059481,0.014033914,-2.9176464,0.8366955! 0.7605794,0.09541088,1.70647,-2.724478,3.0157163,0.25990194,-2.020811! 1.0,0.30442363,0.21533024,0.24256861,-0.39033085,-2.4188344,-1.4002419! 1.0,0.14505953,-0.6104839,1.7308612,-2.3255486,-0.8942374,-0.6301897! 1.3537371,0.026979864,-1.103838,0.50370234,0.60334975,1.0909904,0.9060324! #1.0,0.22243446,0.78751343,-3.4070168,0.40951335,1.7110317,-0.88253295! 1.0,1.7262241,-0.49343944,0.11060536,0.28378683,-0.9043465,2.1770935! 
1.0,0.9488303,0.4922735,1.3312621,-1.2797348,-1.7946882,-0.8830459! 1.0,1.5670025,-0.21641397,1.0767524,0.15900785,-2.7363422,0.13663656! 1.0,0.43628544,1.2947655,-2.167101,0.11810708,0.688385,-1.4056051! 1.0,1.2590001,1.2980057,0.9453876,0.3963188,-1.2336731,-1.6644274! 0.669582,-1.4685297,-0.048594415,0.9463533,0.07161379,-0.62006706,0.9794868! 1.0,0.3525675,-1.8420831,-2.913701,0.9023086,-1.7245777,-0.9716135! #1.0,1.3292581,0.44234902,-3.2291098,0.66447806,0.39412528,0.6777503! 1.0,2.2806165,-1.0760326,0.6302163,0.6915161,0.18320692,1.6337152! 
1.0,0.5186268,2.8824887,-2.005052,1.0156715,-1.3385158,-0.62855! 1.0,1.7694957,0.3782513,0.35347754,-0.07596767,-2.4383276,0.33672655! 1.0,-0.18016714,-0.20272613,-1.9767816,-0.6500726,-0.2040447,-1.9661975! 1.0,1.1262531,1.5308226,-0.4747833,3.293437,-2.5826232,-1.4904355! 1.0,0.011077464,-1.4663224,1.6241268,-2.1187575,1.2459171,1.0430727! 0.9105617,0.22487605,-1.4436615,-2.4176667,0.5060262,0.836173,-0.5702104! #1.1044805,1.2204525,0.904755,-1.7592001,0.103109896,1.686825,-0.47475362! 1.1214997,2.3158283,-1.6301743,1.3129184,1.5590956,-0.27521676,1.3847327! 
1.3341079,0.34973615,2.6819253,1.5370452,0.647786,-1.1950355,-0.14702564! 1.0,2.4196732,-0.13669276,-0.098189116,0.13923907,-3.705998,1.2092617! 1.0,-0.98281145,1.4968624,-1.0272777,0.34878963,-0.37595487,-1.9298127! 1.0,1.6845654,1.9874184,-0.21250731,-1.338547,-2.1223438,-2.207353! 1.0,-1.6315038,-0.8433795,1.8510442,1.5228987,0.9694034,1.2185726! 1.4047163,-1.0546393,-1.6050379,-2.1059494,0.6055896,-0.19689804,-0.84360605! #1.0,-0.96588707,2.223743,-1.004286,0.49164665,1.6458933,-2.2419577! 1.0,1.6307187,-1.4617313,2.7918925,0.33050525,-1.5215006,0.81114805! 
1.0,3.0265977,2.7652307,0.5450449,-0.83758926,-2.2938073,-0.07113409! 1.0684016,1.696998,-0.008455038,0.40927166,0.45252258,-2.7436097,2.077821! 1.0,1.2256436,2.452977,-0.42390162,-0.76258546,-0.2040447,-1.5018402! 1.0,0.3372724,0.32517296,0.63224256,-1.354989,-3.0830226,-0.88688755! 1.0,0.6472105,-0.7533047,-0.40355533,1.4174592,1.8765943,1.5862901! 1.2120214,1.9672477,-3.176573,-0.88213676,1.0329206,0.77937555,0.99533117! #1.0,1.4713893,0.53248143,-3.66344,0.31037104,1.9499577,0.47980332! 1.0,2.3462834,-1.1377789,0.6302163,1.0651747,0.3232373,2.4320784! 
1.0,-0.032496393,3.6031737,1.6110442,0.37649226,-1.1950355,0.32341582! 1.0,1.0838401,-0.40466863,0.48440236,1.3704772,-2.0891082,1.1222705! 1.0,-1.1847394,1.0690632,-0.6708216,0.34878963,-0.63074446,-2.1663883! 1.0,1.7825654,1.0113419,0.42753965,-1.0469341,-1.2700822,-1.7128072! 1.0,-1.4878583,-0.6262833,-0.46073878,1.5228987,1.5965283,-0.2504384! 1.0,0.97784877,-2.0782628,-0.34326684,0.19673061,-0.7353629,0.7607442! #1.0,1.0383521,1.5434142,-0.35467023,1.1859024,-1.4654061,-2.2419577! 1.0,1.7044969,-0.1372413,3.1109424,0.4149294,-1.127087,1.1983535! 
1.0,1.3286829,3.145456,0.56482387,-1.0912299,-1.3497472,-1.064459! 1.4149995,2.3874493,0.6102453,1.219562,-0.72454274,-2.3934772,2.309802! 1.0,0.43049252,1.2678552,-1.2942848,-0.50744987,-0.44845676,-1.4201752! 1.0,0.8221136,1.6498127,1.185027,-0.86194396,-1.5028726,-1.0860368! 1.0,-1.4743583,0.3725649,-1.1712022,-1.9682442,1.0142894,1.033889! 1.0,-0.9277587,-2.011761,-2.3101573,0.47155452,-1.408545,1.9250991! #1.0,0.6916173,1.6273896,-1.0065957,-0.9830044,-0.0034468174,-0.59408134! 1.0,2.4290214,-1.3654988,2.819303,1.0072811,0.37108678,1.1654778! 
1.0,2.0416899,1.1372843,1.1904377,0.42649543,-3.1162467,-1.4759166! 1.0,0.6644301,0.96774036,0.11207771,-0.23963934,-2.7603383,-2.6561139! 0.90418077,0.63916016,1.7180982,0.1006273,0.71096337,0.49973893,-1.1000755! 1.0,0.98485273,-1.7340679,-0.44486797,4.3695593,-1.9810088,-1.0443432! 1.0,-0.404477,-1.2985418,1.4286668,-2.2321625,-0.7040736,0.30716014! 1.0,1.2694705,-2.011761,-2.0443895,-1.488639,-0.4569196,1.497683! #1.0,0.6483447,0.801384,-0.56627697,0.2163499,0.31857407,2.7471051! 0.5968422,0.9774216,-1.4323196,-0.40547442,0.32683057,0.41468078,-0.49627048! 
1.0,1.2376647,0.707082,0.83929265,-1.1177256,-1.0774806,-2.1772254! 1.0,0.92904747,0.72759706,-0.7139546,1.8944519,-2.0988772,0.75937384! 1.2247577,0.8287419,1.9830997,-0.5564369,-0.8088705,0.2876377,-1.8133664! 1.0,0.6384223,-0.09514338,0.37755233,-0.97772264,-0.96985596,-0.37902248! 1.0,-1.3000718,-1.6169571,-1.2296612,-3.9089863,0.7615431,0.80358183! 1.2675614,-0.31094438,-0.7679252,-2.5376682,-1.6934292,-1.0529267,1.0072029! #1.0,1.5302894,2.7203708,0.9658044,1.1170008,0.30219942,3.8216288! 1.0,1.2318239,-1.0803996,1.9295348,0.97570914,0.32089174,0.99495524! 
1.0,0.9442603,0.13609946,1.2917544,0.3619805,-0.7722647,-1.2423822! 0.7588055,-0.12234104,0.32472247,2.65302,1.7088504,-3.3259454,1.0595645! 1.0,1.8420196,1.8361852,-1.8957167,-0.4044127,-0.2040447,-1.1757922! 1.0,1.0667939,1.3651751,0.63224256,-0.56097364,-2.2060995,-1.0443432! 1.0,0.018868566,-0.37939304,0.56249744,-2.0719037,-0.47862244,-0.048597872! 1.0,-1.4906287,-1.6802633,-2.376806,1.0329206,0.43422198,2.0032234! #0.87343675,1.4713893,1.5591307,-3.0581336,0.077281415,-0.36348528,-2.7975523! 0.56790906,2.6258845,-1.0760326,0.6302163,1.280349,0.18320692,1.001586! 
1.0,1.8144286,0.37419182,1.3702729,-0.9867742,-0.32518756,0.41867095! 1.3514278,1.983146,-0.2053582,-0.5967351,1.8944519,-1.6641561,0.6045231! 1.1324179,-0.81469333,1.9830997,-0.45875466,-0.2677613,-1.1964009,-1.9078819! 1.2389318,1.7886747,1.386925,1.1057334,-1.0814662,-2.5737233,-0.29747152! 1.0,0.1722089,-0.7918069,-0.63373256,-1.607881,1.0764165,0.8903439! 1.0,-0.7709189,-0.7679252,-2.5376682,-1.5993501,-1.4888394,1.6039193! #1.0,1.0073836,0.8970093,-0.07082158,1.1170008,1.0509064,-2.5527787! 0.7043602,1.3167844,-1.1377789,2.6420226,0.8204968,1.8969092,1.9582938! 
0.8020779,1.3859152,1.1632158,-2.4052057,0.8489379,-0.7709267,-1.1120554! 1.0,2.069374,-0.09749216,-2.9557757,1.0552374,-3.7762833,-0.36273497! 1.0,1.0420822,2.615309,-1.7326748,-0.28388214,0.49422264,-1.4875656! 1.0,0.5672329,0.6452866,0.42470747,3.3029034,-0.724116,-0.2006284! 1.0,-0.95331573,-0.20574522,0.7144493,-1.1438031,2.337201,-0.40784776! 1.0,-0.3037125,-1.010462,0.88952404,0.14091253,-0.5442289,1.6199065! #1.4521172,0.6800206,2.495011,-3.0581336,-0.29918545,1.3600125,2.6894243! 1.0,2.0752969,-1.1377789,-0.09605235,1.2233133,-0.9043465,2.6646214! 
1.0,-0.077649355,1.3849002,1.4759271,-0.9985937,-0.81479317,-0.7389303! 1.1321898,1.6133296,1.1976336,-0.11585647,1.7798169,-1.5359849,1.1222705! 1.0,0.7107926,0.033896625,-0.83440787,0.25541908,-1.7967329,-2.0346894! 1.0,1.2590001,-0.013566256,0.30248618,-1.3084565,-0.023269653,-0.58158433! 1.0,-0.21851176,-1.2965107,-1.4755077,-2.0719037,-0.9798133,0.7067476! 1.0,-0.82473016,-1.9948573,-1.630154,0.5784613,0.18769228,1.0060263! #1.1896307,0.9647387,2.4881282,0.7584008,0.10142887,1.763391,-1.4331334! 1.0,1.6574199,-0.97566,1.0086563,0.8258834,-0.26376367,1.1619308! 
1.0,3.4638295,0.51479596,0.4531436,0.37649226,-1.9422774,-1.0082083! 1.1700689,2.0765386,-0.40466863,0.48440236,0.3452161,-2.0891082,-1.9884579! 1.0,-0.9313341,0.92148876,-0.7895456,-0.47490078,-0.58907247,-2.3667898! 1.0,1.7825654,1.2612116,0.64246505,-1.49899,-1.0656466,-1.5158061! 0.85964596,-2.143146,0.85692656,-0.956919,-2.0211625,-0.560372,-0.2292226! 1.0,-0.582696,-2.2710934,-0.18793058,0.7576553,0.3433215,0.9161211! #0.6900537,0.72457814,2.1313093,0.28391135,-0.53180116,-0.05182135,0.3522076! 1.042367,1.7044969,0.1128155,0.69438547,0.4149294,-0.9762221,1.9647462! 
1.0,1.0329361,0.32138878,0.87667453,1.2275022,-0.7561522,-1.3347349! 1.0,0.99914736,0.8611691,-2.008009,-0.638862,-1.8644094,0.009467006! 1.0,1.3052675,-0.01605761,-1.6247387,-0.53467315,-0.4770546,-2.3605018! 1.0,-0.2822585,1.2600253,0.8127813,2.9620292,-1.2903556,-1.322645! 1.0,-0.0038671494,0.40690356,-0.54567957,0.75748813,0.61373067,1.7153263! 1.0,-0.6958045,-0.5851548,-2.6895936,0.047795832,-0.599587,0.7311929! #1.0,1.3292581,0.78782845,-4.1680894,0.49961597,-0.910337,1.7871101! 1.0,0.21519262,-1.8255217,1.9596701,1.2879719,0.12175357,0.06581968! 
1.4244695,1.2546443,2.7663012,1.8216891,0.63994724,-0.42501968,-0.73456174! 1.0,1.1969774,-0.15363687,-1.0441964,1.4261438,-1.8753537,-0.21046919! 1.3095386,0.43221784,2.849719,-1.4118516,-0.46020025,0.3219828,-1.9936392! 1.0,1.7482489,1.6909082,-0.5005968,3.8441205,-2.52886,-1.8456235! 1.0,-0.50736165,-1.176101,0.40039337,2.1134038,-0.8473213,-0.15295982! 1.4647295,-0.48536837,-1.3323454,-0.59340376,0.9413896,-0.93782336,-0.6779393! #1.0,0.87255514,2.4882808,-0.45205414,0.45343083,0.5989588,3.0102677! 1.0,0.42062116,-0.6111183,0.42511833,1.2080824,-0.56863695,-0.3518266! 
1.0,0.9442603,1.693501,1.4762615,1.1143835,-0.7709267,-1.401891! 0.5477115,2.8907676,-0.11601001,-0.14060825,1.7088504,-2.1215234,2.0211196! 1.0,-0.98281145,1.4380177,-1.7135577,-0.7898076,0.49756688,-1.464356! 1.0,1.2590001,1.270987,-2.4354458E-4,-1.3696419,-2.205617,-1.3174258! 1.0,0.018868566,-0.84906316,0.18603843,-2.0719986,-0.6794714,2.487459! 1.0,-0.48536837,-0.373097,-2.258539,1.1042975,0.045093954,0.9161211! #1.0,1.4713893,0.041223288,-0.8322909,-1.7230366,-0.3829019,3.3182607! 0.698666,2.175211,-1.0760326,0.6302163,0.8258834,1.0868739,1.6337152! 
1.1155204,1.1268129,0.26672238,-2.8773935,-0.91092545,-0.009724975,-0.7249469! 0.91039884,1.2769661,0.8847607,-0.22093028,1.3906245,-1.6454184,2.3100371! 1.0,0.61531806,1.9694674,-0.8353435,-1.0819697,-0.65305746,-1.2040379! 0.5334421,0.40431166,1.4880438,1.2565132,-1.3855175,-1.6574199,1.058583! 0.5971227,-1.3460417,-2.1871586,2.2788363,-1.2557399,-1.035897,1.3635454! 1.0,0.072401285,-0.3923043,-2.2150147,-0.6397641,-0.5555456,-0.1747806! #1.0,1.9385896,2.058404,0.35642505,-0.13243818,-0.0898031,-0.31849217! 1.0,0.9937905,-1.0466994,1.7949461,1.3813648,0.3455298,0.9549444! 
1.0,1.3764708,2.522334,1.7182136,0.97581434,-1.6625575,-0.8468628! 1.0,2.0305843,0.01890397,-0.14060825,-0.4181478,-2.9176464,2.3940592! 1.0,0.09541088,1.70647,-0.08380741,-0.46020025,-0.9596006,-1.4401135! 1.0,0.98046005,0.13251632,-0.21718222,-0.39033085,-2.1223438,-1.3642265! 1.0,-0.21851176,-1.577676,1.3506944,-1.4140797,2.3513603,0.74203944! 1.0,-1.0546393,-1.5457878,-1.5078596,-1.0016584,-0.33041364,1.7348139! #1.2773103,-0.66888034,1.159608,-0.28703576,0.40951335,0.36294073,0.6777503! 1.0,1.8702793,-1.5567824,0.11060536,0.8379689,0.21213752,0.6343686! 
1.0,0.37905568,3.5700026,1.5986276,1.2711346,-0.88785326,-1.8220127! 1.0,1.8311806,0.24983567,-0.14060825,2.595644,-2.2473931,-0.24708974! 1.0,1.1671929,1.2622428,-1.6247387,-0.3822524,-1.8083773,-2.0533876! 1.4604206,0.8852513,-0.116577566,0.8732908,0.26341456,-1.4224148,-1.0208064! 1.0,-0.0955717,-0.7777561,1.1169912,-1.4140797,1.5984981,1.3605182! 1.0,-1.3029324,-1.6914446,-1.3769106,0.2318576,-2.5103693,1.2137358! #1.0,1.2542862,2.4482749,-2.9097147,-0.37416524,0.2213592,-0.018433154! 1.0,0.12954664,-0.91595703,1.8663104,0.9940358,0.20534551,1.0766441! 
0.9370966,1.6063333,1.693501,1.5431478,1.5265229,0.4623648,-1.0082083! 1.0,-0.12234104,0.01890397,-0.38160604,-0.1563021,-3.1749256,2.0447884! 1.2062981,-0.98281145,1.4380177,-1.4272873,-0.6992528,0.13320822,-1.8005425! 1.0,1.276216,1.2475059,-0.77874446,-0.7415792,-1.815004,-1.1580473! 1.0,-0.905525,-0.7761746,0.18603843,-2.077227,-0.6794714,1.2185726! 1.0,0.7037667,-0.58575517,-2.5691676,0.49461347,0.7586377,1.0208946! #0.815928,1.8047467,1.0673056,-0.8322909,-1.834441,1.9444277,0.6777503! 1.0,2.175211,-1.0091915,1.0496559,0.9319792,0.18320692,1.3202753! 
1.0,0.49173325,1.1399555,1.0895299,-1.1177256,-2.0389504,-0.87852246! 1.0,3.7093213,0.72759706,-0.7139546,2.106072,-1.4938084,0.6045231! 0.5681864,0.8256778,1.9830997,-1.3847721,-0.0066064596,0.2876377,-1.8005425! 1.0,1.0197787,0.37131888,0.5527146,-1.7472707,-2.0327945,-1.0223067! 1.0,-1.3000718,-0.7907567,1.0372447,-3.9089863,-0.41972923,0.010625184! 1.0,-0.99943954,-0.34736514,-2.5376682,0.5588984,-0.63890237,-0.84360605! #1.0,1.7444445,0.804892,-3.1461957,1.1170008,0.30219942,0.97793186! 1.0,1.2318239,-1.1377789,-0.03090918,1.2863638,0.24201608,1.5038157! 
1.0,0.9442603,2.7652307,0.535129,-0.43991578,-1.485316,-1.0082083! 0.85349864,1.7309711,0.01890397,-0.14060825,1.7315022,-2.4746892,1.6304653! 1.2997996,0.9577087,1.4380177,-1.9338644,-0.6988069,0.054320514,-1.8005425! 1.0,1.6204585,2.6961148,0.63224256,-0.11304402,-2.139583,-0.9988896! 1.0,0.018868566,1.0193181,0.6615549,-1.6859977,1.0142894,0.79793584! 0.598409,-0.47268796,-2.1050735,-2.376806,0.6431192,0.59269416,0.9161211! #1.0,0.6916173,0.23539293,-3.0581336,-0.9830044,2.3266604,-0.46779162! 0.6957791,0.5946091,-1.0760326,0.6302163,0.8258834,0.18320692,2.234125! 
1.0,1.6742482,2.522334,1.8997443,1.1479111,-1.6625575,-0.9185316! 1.0,2.2668242,-0.24398285,0.23242468,0.014033914,-3.262312,0.8030765! 1.1594478,-1.0331507,1.5972637,-0.13944888,3.0078254,-1.2376412,-2.6153297! 1.0,0.98046005,0.43792474,0.24256861,3.7765236,-2.4188344,-0.7892961! 1.0,0.49134237,-0.22101992,1.5884042,1.1611028,2.3513603,0.74203944! 1.0,-1.891166,-1.8742659,-2.5300276,-1.1009115,-0.12559325,2.0032234! #1.355376,-0.18391013,1.2667236,-0.28703576,0.40951335,2.0271149,0.6777503! 1.0,0.9568751,-1.5567824,0.527826,0.33050525,0.490632,0.8485637! 
0.7004926,0.92517495,1.123519,1.4762615,0.49957812,-0.8325635,-0.007668853! 1.2925521,1.0777235,0.83256984,-0.14060825,1.7440194,-3.7524502,2.6457753! 1.0,0.45350778,0.19879025,-1.3050703,0.3563515,-0.2040447,-1.8593507! 1.0,1.2590001,-0.09514338,1.1152651,-1.3696419,-2.5252273,-0.054985702! 1.0,-2.918963,-0.5842971,-0.64795053,-0.99521136,-0.026339233,-2.5792625! 1.3902843,-0.48536837,-1.8643937,-2.376806,-1.9194298,-1.2273335,0.9161211! #1.0,1.4713893,0.16901386,-3.5027766,0.31037104,-0.7228578,-0.5344587! 1.0,2.3462834,-1.0760326,0.6302163,0.8258834,0.520348,1.6337152! 
1.0,0.87264943,2.804503,0.71683556,0.76871026,-0.98021054,-0.7993305! 1.3046105,3.1507595,0.20039576,-1.8569713,0.5851734,-3.6686041,2.2136414! 1.0,1.2844062,1.4380177,-1.4411464,-0.10481405,-1.4275618,-2.2522058! 1.0,0.46455926,2.1689641,0.63224256,3.959673,-1.7162875,-1.5158061! 1.0,0.5189085,0.48467082,-0.08600271,0.38821584,0.096758306,1.7153263! 1.0,-0.039880574,-1.5457878,-2.3752317,1.2916507,0.3848201,1.060917! #1.487391,0.92698056,2.4482749,-1.0017941,-0.49166733,0.2213592,-0.18222696! 1.0,2.192277,0.13855582,1.7651205,1.4442806,1.2315044,1.7131064! 
0.6184845,1.0329361,3.5072145,0.84364516,-1.2014891,-1.5251985,-0.35796338! 1.0,-0.36261898,1.2424479,0.21738344,1.0131949,-1.9139163,1.7768079! 1.0,1.1906877,1.4700216,-0.29742962,0.40338528,-0.4545309,-1.8354967! 1.0,2.0786402,0.8454866,-2.703808,-0.38932365,-2.1863647,0.39607257! 1.0,0.41031957,-1.3994259,-0.08699912,-1.4156082,-0.89958555,0.2302264! 1.0,0.84323037,-1.6914446,-2.0888171,0.18259525,-0.17251015,-0.029608905! #1.0,0.77742,1.9084892,-1.2954988,-0.2527026,2.2412238,3.4133477! 1.0,1.268822,-1.2571816,1.184169,0.41203475,-0.27521676,1.1768339! 
1.0,1.3544229,1.7157073,-1.3105258,-0.58636904,-1.3572313,-1.6091375! 1.0,2.4196732,1.1789829,0.7611507,1.9205477,-2.369409,-1.6227993! 1.4971559,-0.76210463,0.45890123,-2.196569,-0.28388214,-0.4922135,-1.8133602! 1.0,1.6204585,1.7857733,0.046833336,-1.4928839,-1.0906,-1.3992995! 1.0,0.08654237,1.0715744,-1.0005697,-1.7427988,0.7691957,1.2788239! 1.0,1.9672477,-1.7326041,-1.6061238,-0.974868,-2.5597086,1.482743! #1.0,-0.66888034,1.7848915,-0.79836494,0.31037104,-0.36551368,-0.14940232! 1.0,2.192277,-1.2982378,1.7100818,0.5507884,1.1286116,0.81114805! 
1.0,3.3727942,1.1372843,0.9723035,1.1257641,-1.1101803,-1.4759166! 0.86083734,3.6984584,0.023407817,-0.14060825,1.6750338,-1.9636403,-1.5430557! 1.0,0.22033828,1.9954011,0.1006273,0.6427934,0.14584315,-1.979809! 1.0,1.2809544,0.56336564,-0.4079604,4.3695593,-0.8433337,-1.0443432! 1.0,-0.6440316,-1.6576781,2.1020036,-2.2321625,-0.8473213,-0.6730633! 1.0,-0.5895191,-2.919107,-2.5702796,0.8380851,-2.0650535,-0.5702104! #1.0,0.16539681,2.742109,-0.8090966,0.31037104,-0.8044147,-0.88253295! 1.0,0.09495628,-1.3100247,1.053792,0.59549993,0.42769837,0.116487205! 
1.0,1.4395752,2.5562987,1.3920147,0.97581434,-1.1614726,-1.0635351! 1.0,1.3907499,-0.36992604,0.002069652,0.014033914,-2.9956765,0.030244827! 1.0,1.3987114,1.70647,-0.8847077,3.0078254,-1.2376412,-1.8005425! 1.0,0.98046005,0.038737416,-0.643539,3.8156655,-2.139583,-0.88265324! 0.74934477,0.49134237,-1.8443745,1.5884042,-1.5300093,1.7925547,0.74203944! 1.0,-0.8937287,-1.9970059,0.50370234,-1.0016584,-0.33041364,-0.9607676! #1.0,1.4992638,0.4321931,-0.28703576,0.3978184,1.7192366,0.6777503! 0.7704892,1.8702793,-2.0053117,0.31401354,1.9980708,0.21213752,0.03543991! 
1.0,1.5363417,2.7663012,1.4014659,0.78816634,-1.7330097,-0.95813394! 1.0,1.6527612,-0.45909745,-0.99149245,1.60514,-1.6758198,0.8881919! 1.0,0.96580666,1.4380177,-2.5044456,-1.1136969,-0.4676298,-1.8005425! 0.99233043,0.27240413,-0.09514338,0.63224256,-1.3696419,-0.66764945,-1.2502367! 1.0,-0.48100942,-0.4889688,-1.0945218,-2.0719037,-0.8473213,0.2623486! 1.4191083,0.009496391,-1.78191,-2.5478268,1.4554503,-1.2518979,0.88881755! #1.0,1.9937096,0.041223288,-3.2756124,-0.041842997,0.09439093,-0.97931373! 1.0,1.4680398,-1.0760326,2.4231172,-2.1530843,0.17671996,2.1815774! 
1.0,2.9249682,2.259562,1.3955477,0.17694366,-0.4910136,-0.8987835! 0.8151772,1.6527612,-0.45909745,-0.99149245,1.5863757,-2.248608,0.48043638! 1.0,0.57154447,1.4926212,-2.37887,-0.27220923,0.8442655,-1.8005425! 1.0,0.30442363,2.2560766,-0.40623486,-1.3696419,-1.8135917,-1.8009939! 1.0,-0.48100942,-0.30058122,0.16083992,-2.1501374,0.9694034,0.2623486! 1.0,-0.32618552,-1.5008664,-2.376806,1.0329206,-1.427356,0.6260787! #1.0,-0.7177893,2.3144484,-3.0581336,-0.31940365,0.19449598,-0.7617212! 1.0,0.0983125,-1.6382236,2.4231172,1.0369589,0.29734874,-0.6933105! 
0.55108994,1.33196,3.5072145,0.84364516,-1.5265455,-0.6331204,-0.5739649! 1.0,1.74161,0.08549547,0.21738344,1.0131949,-1.6641561,0.112594485! 1.0,1.1205385,0.11992085,-2.0787623,-0.3331316,-0.7159566,-2.446372! 1.0,1.8120958,1.2431521,0.6006825,-0.77389747,0.070839584,-2.0848756! 1.0,-0.38917822,0.49820596,-0.08699912,-2.8309903,-0.4911555,0.071856916! 1.2070894,1.6341678,0.3386789,-0.9092495,-0.6344942,-0.17251015,0.8247908! #1.0,0.93221354,2.2806726,-1.2954988,-0.2527026,0.65522504,3.4133477! 1.0,-0.9831273,-1.0297956,1.5620086,0.8456289,2.117733,1.1768339! 
1.0,1.0623012,2.9292016,0.9747312,0.924257,-3.1895738,0.26398927! 1.0,3.1637542,1.5344429,0.8422531,-1.0433214,-1.3340557,0.39373493! 1.0,0.73352635,1.9830997,-0.4257387,-1.0240018,-0.14957345,-2.2243903! 1.0,1.5058885,-0.012358427,0.26507866,-1.7472707,-1.8118451,-1.0327835! 1.0,0.70469546,0.85692656,2.022248,-2.2297735,-0.58118683,0.7510345! 1.0,-1.3341401,-2.5996919,-1.7855439,0.60334975,-0.5876581,0.5582148! #1.0,1.5302894,0.041223288,-3.3901882,0.31037104,1.4414783,0.3662616! 1.0,1.4394423,-1.3080935,1.4254143,0.66663504,0.4637463,1.6200532! 
1.0,1.0208161,-0.14094818,2.0148485,-0.62560034,-1.8397868,-1.5908221! 1.0,2.6647441,1.1435812,0.76439536,-0.72454274,-2.4746892,1.0774246! 1.4653612,0.8580818,1.7559247,-0.2961213,-0.25263423,-1.3009953,-1.8005425! 1.0,0.88392496,2.46706,-0.44486797,2.8478222,-0.5971651,-1.3900185! 0.8678109,0.06229794,1.0224602,0.10506648,1.7294292,-2.0432286,0.7763066! 1.0,1.6903644,0.3064679,-2.8703148,0.047795832,-1.5966456,-1.018832! #0.99238014,1.570272,-0.35038233,-3.3417683,-0.053044617,0.29002,2.054634! 1.0,0.7815338,-1.6296749,2.7918925,2.2872386,-0.9323961,0.7392201! 
1.0,1.250452,0.834672,1.2329822,0.63775706,-0.4505986,-0.44511837! 1.0,2.0861719,0.5552974,1.0147142,-0.72711575,-4.2650566,0.8870893! 1.0,-0.25276798,1.2961488,-2.5412488,-0.42158985,-1.0165215,-2.3667898! 1.0,1.6242119,-0.20269132,0.9231883,-0.9435728,-1.5237086,-0.16421354! 1.0,0.018868566,-1.1960386,-0.030505955,-2.4390683,-0.8591152,1.2278343! 1.0,0.13985145,-1.6507896,-0.183689,-0.69019735,-0.18056667,1.9989543! #0.85899705,-1.1941211,0.12582749,-0.6027545,-7.901192E-4,0.2184909,-0.9936402! 1.0,1.9163433,-2.099784,0.024002075,1.2310077,0.20534551,1.9092736! 
0.6564018,0.34973615,0.3859228,1.3103957,0.12598866,-1.2554288,-1.0531168! 0.6575052,0.34550917,0.25446606,0.01411593,0.32405168,-3.8945372,-1.6203614! 1.3771707,-0.37693614,1.942683,-0.6708216,0.34878963,-0.63074446,-2.9967322! 1.0,0.9989412,0.5425077,0.5880294,-0.9129569,-1.2700822,-1.7153065! 1.0,-0.6204324,-1.231463,-0.3278851,1.7433,-0.54947793,1.2185726! 1.0126615,-1.2780244,-1.6914446,-2.1059494,0.19673061,-0.7353629,-0.84360605! #1.0,1.013073,2.2499642,0.05082649,0.6411892,2.2087407,-2.2419577! 1.0,0.11123115,-1.3884594,2.7918925,0.33050525,-1.127087,1.072629! 
1.0,1.3764708,2.5392733,1.8747592,0.5414604,-0.33576423,-0.9044409! 0.8417897,2.4196732,-0.26240337,-6.1672926E-4,0.014033914,-2.4683964,-0.09182882! 1.0,-0.65748775,2.6473298,-2.1106424,3.0494714,-0.37595487,-1.8659916! 1.0,1.2692716,1.8717062,-0.21718222,-1.0210869,-2.1223438,-0.84367716! 1.0,-0.21851176,-0.54776484,0.3057506,-1.5623062,0.9694034,1.095362! 1.0,-1.3010204,-0.85733426,-2.376806,0.982837,-2.0713472,1.1184775! #1.0,1.0270758,1.9762363,-2.9982336,-0.4676953,0.34598303,-0.1378079! 1.4456422,1.6307187,-1.4695232,1.9596701,0.8379689,0.30673593,0.81114805! 
1.0,0.30128646,-0.6211205,0.7364724,0.37649226,-1.7946882,-0.070174396! 1.0,2.1718364,-0.40466863,-0.28140706,-0.82491964,-2.0891082,-1.9884579! 0.7575887,0.82777303,1.5535765,-0.9037204,-1.75438,-0.5879078,-2.4797413! 1.0,1.2590001,1.0113419,0.44793814,3.1640263,-2.8898914,-1.6644274! 1.0417112,-0.74173826,-0.3087886,-0.47270542,-1.267628,-0.23795319,1.2872703! 1.0,-1.4828789,-2.513737,-1.4363091,0.7576553,-1.6712188,0.7607442! #1.0,0.6483447,1.236779,-3.8692408,-1.1082478,1.4434171,2.0909634! 1.0,2.1531973,-1.7588986,0.69438547,0.066190064,-0.062637985,0.82635194! 
1.0,1.1268129,2.5562987,1.1288037,1.2108247,0.13152331,0.043100238! 1.0,1.8330045,0.6476891,-1.9597389,1.4361799,-3.7386029,1.8625914! 1.0,-0.55202186,2.7395606,-0.8353435,0.04559493,-0.37595487,-1.2040379! 1.2494423,2.1463935,-0.7854776,-3.3971019,-2.103437,-1.6574199,-0.8375748! 1.0,1.1088848,-2.1906576,2.2788363,-1.1629548,1.1418526,1.2264427! 1.3026828,-0.46970463,-0.85075086,-0.6810667,-0.6202806,-0.56773365,1.2502486! #1.0,-1.1374617,2.2176461,-3.5000172,-1.1546483,0.59780353,-0.14940232! 1.0,2.1865735,-1.1131551,1.7949461,-0.18877494,0.7163845,-0.38550013! 
1.0,1.2745283,0.834672,1.2329822,0.6705846,-0.4505986,0.35195524! 1.0208988,1.5684371,-0.22596234,-0.73948795,1.5517606,-3.9591022,2.0211196! 1.0,2.1589038,-0.45708066,-3.480217,-0.061545193,-0.72293615,-2.3565118! 1.0,1.6575384,2.017548,0.22525716,2.8629756,-1.140212,-0.13145465! 1.0,0.19039178,-1.408843,0.42576402,-1.0867677,-0.81399506,0.1564148! 1.0,-0.22295552,-1.6016368,-2.080564,1.02755,-0.09382397,1.8429716! #1.0,1.6213762,1.7037268,-0.50701594,-0.67514986,0.44849592,1.938604! 1.0,0.1612128,-2.0053117,1.6091546,0.8825669,-0.905146,1.4303577! 
1.0,0.7530388,2.522334,1.1421834,0.91455656,-0.21622258,-0.73660326! 1.0,2.2357953,0.004870951,-0.12256783,-0.52863985,-1.793269,-1.9210124! 1.0,-1.3422587,0.41457772,-0.9175209,0.29603148,-0.053148806,-1.8070824! 1.0,0.98046005,0.56336564,-0.23520553,-0.39033085,-1.7643752,-0.84367716! 1.0,0.49134237,-1.4209237,0.56702495,0.11812973,2.3513603,0.5809978! 1.081521,0.079277515,-1.9613671,-2.3680105,0.4029572,-0.7317873,2.0032234! #1.0,1.3016943,0.78751343,0.30930144,-0.98095673,0.21118528,-0.21482563! 1.0,0.39711094,-1.2607467,0.47308618,0.033753812,0.21213752,0.10060465! 
1.1118637,1.6893919,1.2910218,1.1484587,-1.3613536,0.36019164,0.0824939! 1.0,1.983146,0.28141397,1.5617576,-0.5457026,-1.4938084,0.4021567! 1.0,-0.8697231,0.91072243,-1.2107238,-0.48596352,0.2876377,-1.8005425! 1.0,1.5058885,1.5848403,0.6462557,-1.7472707,-1.109036,-0.59415644! 1.0,-1.3000718,-0.1433962,-0.33846092,0.11812973,-0.9818079,0.4426812! 0.78769046,-0.99943954,-0.7679252,-2.5376682,-1.6934292,0.9644385,1.251687! #1.0,1.5302894,1.8752073,1.1172884,-0.34325647,0.23679572,2.3530095! 0.998676,-0.35588396,-1.1377789,0.4699573,0.033753812,1.1839818,-0.38550013! 
1.0,0.53625935,1.0753605,1.8216891,0.68565196,-0.42501968,-1.4863138! 1.0,1.5063908,-0.22714901,-2.1165645,-1.8129762,-1.7605135,-0.21046919! 1.0,0.93174064,0.29441142,-2.102867,-0.33963466,-0.029588282,0.9661901! 1.0,0.8483697,1.8165755,-0.030976415,3.959673,-2.0510762,-0.024231493! 0.897615,-1.8422449,-0.5842971,0.713317,0.029129982,2.0585825,-2.2069693! 1.0,0.9337388,-0.57321185,-0.59340376,0.10789639,-1.3004966,0.77613944! #1.2986207,1.5435692,2.4882808,-3.5027766,-1.1546483,0.4634424,0.24146426! 1.0,0.42062116,-0.07191491,0.42511833,1.2080824,0.44854993,2.2667236! 
1.0,1.1724771,0.009536564,1.2674668,0.57736504,-0.86632305,-2.1772254! 1.0,0.92904747,0.7166202,0.5126302,-1.5685765,-2.206982,0.3198374! 1.0,0.4660734,-0.2639115,-0.5564369,0.2965321,-0.4838056,-1.4875656! 1.0,1.6146305,0.98635906,-0.46851587,-1.4065619,-2.029859,-1.8749303! 1.0,0.020304084,-0.12779236,0.029815435,-0.8285543,0.68747926,-0.40784776! 1.0,-0.31094438,-1.4040898,1.2199152,0.16129869,-0.862604,1.0072029! #1.0,1.5302894,2.3144484,-3.2291098,-1.0772555,0.30219942,-1.2477586! 0.875323,0.0983125,-1.383194,0.23325151,0.43132454,-1.3033569,-1.0972011! 
1.0172656,0.3084796,2.8129654,1.7181045,-1.2014891,-2.970604,0.41867095! 1.0,1.4485164,0.01890397,-0.38160604,1.64372,-3.3259454,2.3196204! 1.0,-0.98281145,-0.1401869,-1.3806394,-0.6992528,-0.05718851,-1.6351995! 1.0,1.0871263,-0.09514338,-0.77874446,-1.3696419,-1.815004,-0.054985702! 1.0,-0.9480315,-0.48075473,1.4048278,-2.0719037,-1.7940519,-2.5328288! 1.0,0.7693949,-1.8771815,-1.9182377,0.5974531,-0.7973387,1.2684427! #1.0,1.4043834,3.1520424,-4.130824,0.16223407,0.8185384,0.6777503! 1.0,-0.3816532,-1.0091915,1.8829857,0.8258834,-0.83695394,1.6337152! 
1.2346408,1.250452,2.9772878,1.9371715,0.270998,-0.7709267,0.39984554! 1.0,-0.12234104,0.6649408,3.1576529,1.7181816,-3.8569748,1.6523752! 1.0,0.49433643,0.16148448,-0.7895456,1.1973288,0.3759603,-2.0277271! 0.7587947,1.6539485,0.35334164,1.568727,0.02774918,-1.9821134,-1.0443432! 0.7393272,-0.59634775,-0.91497207,0.52309775,-1.7688568,-0.8591152,1.851917! 1.0,0.050427258,-2.1685703,1.1154615,-0.493253,0.43422198,2.076926! #1.0,1.6146297,1.2052466,0.27733094,-0.08236778,1.0509064,-1.3671! 1.0,1.7377876,-1.4654336,1.2404377,0.32453275,-0.10930318,1.6337152! 
0.9847022,1.127549,0.37419182,-1.8201892,0.8489379,-0.4705016,-0.21437961! 1.4700274,1.2676661,0.8946045,1.7639706,-1.4936142,-3.7762833,-1.9210124! 0.7551262,-1.3422587,0.44022727,-0.68293804,-0.45495003,-1.2477762,-1.6792186! 1.0,0.58781266,2.695341,0.437149,3.2699928,-1.0156741,-1.4042965! 1.0,-0.95331573,-0.53037894,-0.33846092,-0.5098885,2.337201,1.2185726! 1.0,-0.48536837,-1.010462,-1.3662641,0.14091253,-0.5442289,1.7174046! #1.1070931,2.0680122,2.495011,-0.90597224,-0.699362,0.17000014,2.4666643! 1.0,2.560702,-1.4255202,0.771737,1.4849966,-1.0300508,2.6646214! 
1.0,2.9351645,2.0724468,1.7951697,0.84740067,-0.86343324,-1.2650461! 1.1633091,3.3211298,1.0406855,0.16716218,-0.24136794,-1.195008,1.2938985! 1.3689358,-0.21273673,2.401283,-1.7746705,-0.45495003,-0.27253807,-1.4505637! 1.0945681,-0.31231415,0.8429428,1.0177268,3.5484214,-1.8507688,-0.27791166! 1.3867104,-1.6545045,0.40420842,1.4479194,-2.9002535,1.7024622,0.58259404! 1.2203329,0.029010236,-2.8263445,-0.9872472,-0.39312178,-0.9908882,-0.026756883! #0.7970323,1.8730083,0.49484664,0.8157126,-0.34325647,-0.3753494,2.5512109! 1.3149505,1.332902,-1.336762,0.022994697,1.0312978,0.8281677,0.82357657! 
1.0,2.147206,0.4958169,-0.47047824,-0.7080004,0.041863143,-0.070174396! 1.0,0.29448777,1.4933474,-2.3321285,-0.2550665,-2.123187,0.7318922! 1.0,1.2440201,2.0310807,-0.66319454,-0.76846415,0.15094799,-0.97605175! 0.9631232,2.5041473,0.9660929,1.0207398,0.5639567,-2.0769098,-2.6286745! 1.1945136,-1.9418604,0.39592642,-1.0945218,1.7441905,-0.9666393,1.105824! 1.0,-1.0882969,-0.3923043,-0.056928158,0.36252707,-0.8110212,0.5611041! #1.0,1.4102312,1.0193698,-3.0581336,0.8841916,0.24571943,2.958155! 1.0,-0.6373322,-2.1335154,0.47896415,1.2805202,0.19963044,0.39443892! 
1.0,0.6332589,2.522334,1.7182136,-1.0148561,-0.761439,-0.31403726! 1.0,1.9172194,-0.24398285,-2.1383293,1.7440194,-1.9714122,2.3748267! 1.0,0.99391556,1.450582,-1.3050703,-0.025108695,-1.2376412,-1.8005425! 1.0,0.98046005,0.18859243,-0.13588154,-0.13141787,-2.4188344,-0.84367716! 1.0,0.16703331,-1.577676,1.5884042,-2.0179267,2.0300395,1.2264427! 0.55642617,-0.9031673,-1.9970059,-1.4907279,-1.0016584,-0.33041364,1.9562771! #1.0,1.4992638,0.78751343,-0.73151135,0.5089993,1.0725532,0.31939226! 1.0,1.674654,0.02258575,2.0396657,1.6322744,-0.020781636,2.1038055! 
1.0,0.9488303,3.0936298,0.8959601,0.53961664,-1.1246738,-1.0635351! 1.0,1.8311806,0.39290702,-0.5636505,0.5371881,-2.5968037,2.4768772! 1.0,1.1671929,1.4968624,-1.4322118,-1.5068157,-2.0181162,-1.9287076! 1.0,1.5500515,1.2980057,1.0207398,0.33545035,-1.1280417,-1.0208064! 1.0,-1.0046549,0.7742655,0.59266055,-1.4140797,-0.3155951,-0.15320116! 1.000445,1.7431461,-0.80333316,-1.0218167,0.047795832,0.4171881,0.8059826! #0.84753984,1.2542862,1.9645565,-0.37207818,0.66447806,0.39412528,2.9107816! 1.0,1.5953565,-1.7309756,0.2995249,-0.08904916,0.85980123,-0.63237345! 
1.0,1.6302248,1.1632158,1.5884898,1.1223367,-0.12059152,-0.55749065! 0.98269224,3.152996,0.37225944,-0.7139546,0.345232,-3.828511,0.80944574! 1.0,1.2737488,1.325345,-1.6453223,0.4651255,-1.4429545,-2.404307! 1.0,0.66164875,0.87192345,0.1474036,-0.30894208,-0.91187584,0.39607257! 0.56820464,0.06604773,-0.2831366,0.16070205,-0.94184285,-0.5227123,0.37591034! 0.6837694,-0.8588475,-1.8120563,-2.0861933,0.24023151,-1.1920786,1.1723664! #1.2135184,0.76592344,0.53248143,-0.8687584,0.08599174,1.2369895,3.6989264! 1.0,1.4580839,-1.1377789,1.432359,1.5553963,0.817494,0.009954631! 
1.0,0.7035115,2.7652307,-2.2230897,1.3567786,-1.8175085,-0.5818751! 1.0,2.368884,-0.24398285,0.3226822,-0.12352097,-2.9176464,2.1151123! 1.0,0.5183521,1.8434268,-1.4486644,-1.5208597,-1.2376412,-1.8228725! 1.0,0.98046005,-0.09514338,0.24256861,-1.3696419,-2.4188344,-0.84264374! 1.467704,0.07548207,-1.577676,0.5655229,1.3147275,2.3513603,1.3768649! 1.0,-1.3913612,-1.9970059,-2.171897,-1.0016584,-0.33041364,2.0032234! #1.0,1.4992638,2.7667632,-3.0581336,0.31037104,1.7110317,0.34338796! 1.0,1.8702793,-1.5567824,0.11060536,0.8258834,0.21213752,1.5385734! 
1.0,1.7933038,1.180829,1.6328022,1.0275407,-1.4298278,-1.7336564! 1.1583687,3.1123214,0.22156787,-0.14060825,-0.24136794,-1.2921267,-1.6227993! 1.0,1.1671929,2.7044425,-0.5071607,-0.45495003,-0.8889866,-1.7583408! 1.0,-0.039717376,0.025913477,1.0932252,0.7517161,-1.5181881,0.3235274! 1.0,-0.35850334,0.59062064,2.2489219,-3.086206,1.2916076,1.7153263! 0.5118117,-1.2905807,-2.058277,-1.7457223,-0.39312178,-0.9240575,0.3929149! #0.8570012,1.470052,2.2377973,0.8157126,-0.34325647,0.55150795,0.26382643! 0.9934736,-0.69272184,-1.5862865,0.022994697,1.2028515,0.5752238,1.2989905! 
1.0,0.46402413,0.67274773,1.7857008,0.68565196,-0.0050355196,-1.1541895! 0.82056046,3.5474944,0.42676705,3.1576529,1.4261438,-1.8753537,-0.21046919! 0.96324545,0.23836988,2.849719,-2.102867,-0.19595361,0.3219828,-2.502025! 1.0,0.8483697,0.3789764,0.5258175,0.02774918,-1.7702436,-1.8456235! 1.0,-1.8422449,-1.4571532,0.40039337,-2.030153,0.6676968,1.6051269! 1.0,0.5809265,-1.9622855,-0.59340376,-0.77683413,0.15389019,1.6039193! #1.0,1.5857995,1.2052466,0.27733094,-0.08236778,0.39962858,0.6777503! 1.0,2.192277,-1.1588585,0.42511833,0.724199,-0.10930318,-0.32432306! 
1.0,1.9114969,1.9260333,1.2106483,-0.37812328,-0.7625465,-1.1390331! 0.6152442,1.4725316,0.12273908,0.46758395,-0.23963934,-4.037528,-1.6227993! 1.1707772,1.4181135,0.69011605,-2.307006,-0.18107659,-1.2258687,-2.5968752! 1.0,1.2266483,-0.11659598,0.76791084,-1.4914441,-3.114138,-0.2011463! 1.0,0.7056089,-1.1227982,1.2322342,-2.8895133,1.2854125,0.62726116! 1.4978809,0.2068299,-1.0973394,0.021689236,-0.015935242,-1.4050319,0.2190361! #1.0,1.2606964,1.4795572,-3.2501216,0.17081541,1.0407201,1.938604! 0.614666,-0.45789868,-1.097707,-0.3264631,0.33050525,-0.8769113,2.234125! 
1.0,3.3727942,0.34631902,0.8664316,-0.9167718,-1.0559812,-1.1899734! 0.5804682,-0.02084446,0.13658082,3.1294851,0.19973958,-1.9191704,-1.390908! 1.0,-0.36431724,1.9954011,-2.3405492,-1.2514751,-0.9610034,-1.5206114! 1.0,1.5878375,0.12724954,0.11552006,-1.3299675,-2.4425752,-1.0443432! 1.0,-1.0046549,-2.0425062,-0.33194202,-0.47642243,-1.1700565,1.5736214! 1.0,-0.5895191,-3.7411928,-2.7476625,1.2941114,-2.554892,1.2502486! #1.0,0.62535083,2.3548863,-3.7016022,0.27965373,-1.2194595,-0.88253295! 1.0,0.09495628,-1.1503111,1.053792,1.4854944,0.42769837,-0.5601371! 
1.3778749,0.8933385,2.7652307,1.640846,1.4165349,-1.6328471,-1.0082083! 0.8354607,-0.12234104,2.074908,-0.14060825,0.58490086,-1.5965846,-0.96297634! 1.0,-0.98281145,0.3385197,-2.338343,0.7091437,-1.0364652,-2.0806248! 1.3522147,1.3578341,-0.056823313,-0.030976415,-1.3696419,-2.139583,-1.5083792! 0.6748128,0.018868566,-0.7918069,1.4048278,0.7993913,-0.8473213,0.4078225! 0.6275386,-0.48536837,-1.2972112,-0.91334975,0.81817997,0.43422198,0.7980849! #1.0,1.2826369,0.041223288,-3.0581336,-0.109597266,1.9444277,0.6777503! 1.0,2.3462834,-1.213521,0.6302163,2.5412595,0.18320692,1.6337152! 
1.0,0.9442603,2.7652307,1.4762615,1.0454564,-0.37962872,-1.0082083! 1.0,1.8416686,-0.4045486,2.7099798,0.345232,-2.3930779,0.6841204! 1.0,-1.2383637,1.8825128,-1.676816,-0.44378006,-1.224386,-0.7466853! 1.0,1.2590001,2.594973,0.63224256,-0.6808822,-2.139583,-1.0443432! 1.0,-0.19939274,-0.7918069,-0.19042975,-1.1024644,-0.8473213,1.2185726! 1.0,-0.48536837,-1.9104598,-2.8895323,0.20688134,0.41963303,0.82507735! #1.0,1.2072709,-0.39263123,-3.0581336,0.69518626,1.6642187,-0.49334735! 1.0,2.3462834,-0.6356291,0.6302163,0.8258834,0.27034003,0.82635194! 
1.0,1.7962523,2.9092531,1.4925973,-1.358625,-0.9570328,-1.7998142! 1.0,3.659256,-0.3055287,-0.39072114,-0.5434625,-1.6852156,0.7863416! 0.51801026,1.2777529,0.9949263,-1.2175218,0.19355994,-0.52896684,-2.4302492! 1.0,0.8483697,1.467473,0.93162954,4.29334,-0.98070383,1.4797459! 1.0,-1.8422449,-2.2819004,0.49187917,-2.6011548,2.6163392,-2.7649577! 0.54768515,-0.9392353,-2.9429672,-0.5097393,1.6214616,-1.6713593,1.9351087! #1.0,0.22378892,0.6966191,-3.0581336,-0.29918545,0.13811171,0.5235639! 1.0,2.5619993,-1.6499557,0.105089545,-0.24449241,-0.46833974,3.2593882! 
1.0,1.250452,2.9772878,1.9371715,1.088556,-0.34417945,-0.14702564! 1.0,1.0838401,-0.13669276,0.23242468,1.7181816,-3.5288038,2.0211196! 1.0,-1.0870905,1.2306525,-2.5412488,0.34878963,-0.83164954,-1.8005425! 1.0,1.7944467,-0.09514338,0.7632682,-1.3696419,-1.5237086,-1.4130275! 1.0,0.018868566,-0.60021174,0.5655229,-1.7688568,-0.8591152,1.463191! 1.0,-0.55572736,-2.1685703,-2.411572,-0.98835605,0.43422198,-0.8215197! #0.9265236,1.0383521,0.041223288,-3.4417086,0.39496368,2.097387,-2.5925295! 1.0,0.9568751,-0.9707642,2.7918925,0.33050525,1.869269,1.072629! 
1.0,1.7933038,3.509807,0.5450449,0.3684324,-0.7709267,-0.015033066! 1.0,2.4628606,-0.32146102,0.8422531,0.09493238,-1.9039279,-0.05384934! 0.7161504,-1.4657204,1.4380177,-1.368391,-0.2440151,-0.14957345,-2.2243903! 1.0,1.8476429,1.7542346,0.7339039,-1.7472707,-2.2691467,0.4224285! 1.0,0.90768284,0.31366086,1.7244396,-1.9377701,-1.0561726,1.7153263! 1.2931468,-0.658227,-2.2838147,-1.046983,1.0194705,0.244133,0.5582148! #1.0,1.3292581,1.2480257,-0.43047714,-0.9762803,1.4414783,-0.08237207! 1.0,1.6272299,-1.7844753,0.4837138,-0.33609194,-0.04533708,1.306825! 
1.0,0.92517495,0.41805798,0.9327263,-0.29049516,-0.44351965,-1.6666262! 1.3792287,1.8451333,1.6735553,0.027766287,-0.19747144,-1.3501673,-2.4226942! 0.5380892,-1.663662,-0.15802598,-0.9240663,-0.76258546,-0.33301014,-2.0600533! 1.0,1.697476,1.304672,1.236549,-1.3696419,0.26647258,-0.697928! 1.0,0.24027687,0.48467082,-0.34519863,-2.708057,-0.47058034,1.2185726! 1.0090299,-0.5796044,-2.4496112,-0.8198261,1.6891632,0.39145458,-0.0981791! #1.0,1.4713893,2.8958073,-1.0017941,-0.78481746,0.24571943,0.6777503! 1.0,1.2786098,-1.1514007,0.28862333,0.8478876,-1.1971505,1.9302063! 
1.0,0.9442603,0.48521978,1.2366986,0.8665538,-1.6946256,-0.8607695! 1.0,1.1083405,-0.6294141,0.26075667,0.3472368,-2.5367498,2.698341! 1.0,-1.0810292,1.4968624,-0.5564369,0.34878963,-0.63074446,-2.3735244! 0.7412862,2.038932,1.5728948,0.42753965,-1.0007119,-0.823526,-1.0443432! 1.0,-1.4878583,-0.62355053,0.72508293,-1.546644,0.071288586,0.77092993! 1.1717155,1.9732621,-1.6050379,-0.5144704,0.28327096,-0.7353629,-0.74177784! #1.0,1.4498346,1.9762363,-3.7073832,0.46357203,1.6458933,0.421287! 0.70190406,0.9568751,-1.3884594,2.7918925,0.33050525,0.63983124,1.9909608! 
1.275626,1.7933038,0.5038395,1.1484587,1.294138,0.29732925,0.2070092! 1.2994925,1.5091794,-0.15363687,1.7295077,-0.23963934,-1.8875971,-0.3626315! 1.0,0.2891426,0.44022727,-1.1034708,-0.06572825,-0.18446434,-2.0031533! 1.4544139,1.043289,1.0834041,1.2355239,-1.0210869,-2.1223438,0.556075! 1.0,-0.68890035,-0.7918069,0.6134178,-1.4140797,-0.7021672,1.2996535! 1.0,-0.26800722,-1.5457878,-1.453573,0.047795832,0.9644385,2.0530672! #1.3960364,1.3292581,3.0123374,-3.0904324,0.49164665,0.059643507,-1.2648559! 1.0,0.005524218,-2.1335154,2.7918925,1.2366018,-1.1583978,1.9212308! 
1.0,1.3697988,-0.32530975,-0.59403265,-0.5081819,-1.8703997,-0.3505783! 1.0,2.8688111,0.13808537,2.0679755,-0.38216287,-3.1570768,1.5370295! 1.0,2.137619,1.6502482,-0.66497415,-0.68264234,-0.09284729,-0.41046256! 1.0,2.2510133,0.698036,0.14445049,-1.1465788,-2.1871405,-0.12524754! 1.0,-1.6256347,0.11252469,1.9074082,1.727768,-1.4215639,0.28405386! 1.0,-0.39972085,-1.694674,0.896244,-0.11219716,-0.14158237,-0.26359075! #1.0,-0.08107674,3.238576,0.33547622,-1.4154127,-0.016857564,3.0814352! 1.0,2.3462834,-2.1335154,1.4004836,1.3606275,1.8430139,2.1472127! 
1.0,1.1779187,1.1632158,1.5884898,1.1223367,-1.6023266,-0.15457904! 1.0,2.4207282,-0.2591192,-0.41019648,1.7746372,-2.5193355,1.1615853! 1.0,1.9513738,-0.11541641,-2.5794535,-1.2089589,0.25990194,-2.378079! 1.0,1.4409096,0.43808377,0.8780656,3.359113,-1.4143624,0.24202216! 1.0,0.19039178,-0.010604084,0.41363662,-1.0299413,-1.0561726,1.4804673! 1.0,-0.88397413,-2.011761,-2.9357493,-0.66837686,-1.4642082,-0.7933853! #1.0,0.78867817,1.081919,-0.27888763,0.25271112,0.3073932,1.7963246! 1.2529004,2.175211,-2.0053117,0.58310395,0.16786158,-0.9323961,-0.030312538! 
1.1076467,1.0009913,2.7663012,-2.4382281,-0.5081819,-0.9570328,-1.1541895! 0.80826735,1.2756078,0.31054622,-0.34500217,-0.09408492,-2.1248593,-0.1218127! 0.6951484,0.56469345,2.8342595,-2.5383325,-2.380837,0.3219828,-1.8974285! 1.0,2.2510133,1.8165755,-0.7884786,4.4932575,-1.0748614,-2.3479412! 1.0,-1.8422449,-1.176101,-0.021797776,0.21383458,2.6163392,-2.2069693! 1.0,1.3321967,-0.8482875,-0.59340376,-0.11219716,-1.16727,0.6184067! #1.0,0.34116197,2.3819153,-2.5647206,-0.8987497,-0.11194557,2.8485754! 1.0,1.6873502,-0.23767841,1.1739478,1.1176419,0.31362575,2.4355993! 
1.0,2.0485168,1.4376597,1.2366986,-1.6166236,-1.1950355,-0.30254! 1.0,1.4170783,-0.13669276,0.23242468,1.4997313,-1.0818777,-1.449003! 1.0,-1.0810292,1.4968624,-0.6708216,0.28959674,-0.63074446,-2.3667898! 1.0,1.7387643,0.5425077,1.0913122,4.276153,-1.2986426,-0.9558467! 1.0,-1.4878583,-1.5666082,1.3667376,1.4430671,-0.81021535,0.77092993! 1.0,-0.384435,-1.6691382,-1.9096924,0.5901449,-0.7353629,-0.0981791! #1.2892218,1.0383521,0.48878318,-0.35467023,0.5055438,-1.0836369,-2.2419577! 1.0,0.9568751,-1.4704598,2.7918925,0.27233404,0.25882107,1.072629! 
0.52321273,0.46402413,1.9260333,1.7857008,1.3313644,-0.65252894,-1.5350323! 1.0,1.5063908,1.1556764,3.1576529,-1.4788694,-3.67802,1.6523752! 1.0,1.4181135,1.0342227,-1.9762036,-0.08924121,0.3759603,0.634143! 1.0,0.51745814,0.10793996,1.0149422,0.104430854,-2.2398465,-0.6422878! 1.0,-0.13082379,-1.1227982,-0.21794665,-2.030153,-0.81399506,0.9240633! 1.0,0.050427258,-1.9622855,0.9710914,-0.228266,0.15389019,1.6039193! #0.62067413,0.5818316,1.5984032,0.27733094,-0.45448512,1.0437565,-1.3617272! 1.0,2.192277,-1.1769586,1.2404377,0.6614514,-0.8769113,0.94617647! 
0.54034,0.72685677,1.1632158,1.1496246,1.1223367,-0.7709267,-0.26170677! 1.0,3.1785586,1.1568514,0.85601395,1.0749638,-1.9215307,0.7579626! 1.0,-0.23179239,1.6489779,-1.88633,-0.28388214,-1.0645031,-1.9661975! 0.99485475,1.6741496,1.8587846,0.12452251,-0.66985714,-2.139583,1.3224837! 1.0,0.70469546,-0.20574522,-1.1971595,-1.8909723,-0.8208287,0.9551158! 1.0,-0.5782862,-2.8845284,-0.88213676,1.6446704,-1.1360543,1.8346! #1.0,0.49414688,0.8121024,-3.6219177,-0.23441494,0.89489686,2.0752025! 1.0,0.013308108,-1.1377789,-0.09605235,1.7111634,1.9700798,2.3968065! 
1.0,0.0026977062,-0.38044637,0.22625631,1.5071452,-2.970604,0.043100238! 1.0023034,1.4485164,0.09846866,-0.14060825,-0.74774563,-1.5076685,0.5053244! 1.2346108,0.45350778,0.7178178,-2.5599372,-0.25215513,0.4324504,-1.8659916! 1.0,0.8483697,0.25551265,0.53304344,-1.0210869,-2.2380166,-1.8456235! 1.0,-3.264431,-0.9790748,0.24501568,-1.8531296,-0.46359718,-2.5328288! 1.4861659,-1.8629756,-1.2753252,-1.4363091,1.668741,0.20060176,1.6999857! #1.0,-0.6323725,2.4896843,-3.5027766,-1.1546483,-0.7638448,1.975666! 1.0,2.0697207,-1.2054261,1.9596701,0.0813635,0.65725994,1.1450977! 
1.0,0.8188921,1.0211239,1.5523431,-0.20129788,-0.9570328,-1.3998375! 1.0,1.0100642,0.96043825,1.3848321,0.6140537,-1.6852156,-0.2558477! 1.1376989,1.4181135,0.75681853,-1.9762036,-0.18107659,-0.8839278,-3.0117285! 1.0,0.05622697,1.467473,0.93162954,4.29334,-0.98070383,1.4797459! 1.0,-0.99627763,-1.2355016,0.24314159,-1.5236843,2.6163392,0.9240633! 1.0,-0.6958045,-2.5085425,0.52100235,-0.228266,-2.5597086,1.0072029! #1.0,1.072963,1.8341624,-3.0581336,-0.29918545,0.6027304,1.938604! 1.1133711,2.8141613,-1.8644773,2.3178108,1.6401229,-0.8769113,-0.37766773! 
1.0,1.0329361,2.523685,1.4762615,0.5681735,-2.0296388,-1.1917019! 1.0,4.177685,2.074908,3.2653394,1.0131949,-2.077571,2.4768772! 1.0,1.3783607,1.4380177,-2.1180372,0.7091437,-1.098542,-1.7299275! 1.0,0.72806233,1.0102948,0.2565453,-1.0421097,-2.139583,-1.6355457! 1.0,0.018868566,-0.81060463,-0.692469,0.7993913,-0.8054009,-1.0900414! 0.786802,-0.10318148,-0.69140905,-1.0434558,1.2027926,0.045500457,0.14637315! #1.0,1.6632155,3.0988607,0.16613376,-0.536237,0.4686051,-1.036582! 1.0,1.5509115,-1.213521,1.059149,0.71185964,-0.30654806,-1.1783813! 
1.0,0.7015622,2.8129654,-2.4382281,-1.60905,0.4623648,-1.0082083! 1.0,-0.12234104,-0.3055287,-0.91171396,1.64372,-3.2251234,2.0447884! 1.0,-0.98281145,1.0801291,-1.9338644,-0.37913322,-0.8839278,-2.4302492! 1.3823423,0.8483697,-0.12596983,0.079470634,-1.3696419,-2.1137373,-1.1580473! 1.0,-0.9480315,-0.48075473,0.87720877,-2.0719037,-0.48522663,1.2185726! 1.0,-0.8435582,-1.7506864,-0.37772948,-0.7080865,0.28295684,0.12126243! #1.0,1.7769852,1.4411734,0.3305639,-0.2698819,1.9444277,0.6777503! 1.0,2.5619993,-1.4179311,0.22199714,0.8258834,-0.7057661,3.2593882! 
1.0,0.75810784,2.4498343,1.3420811,1.3658731,-1.1688616,-0.26170677! 1.0,2.368884,-0.4390599,0.59431523,1.3926396,-2.9176464,2.3940592! 1.0,-0.26395202,1.70647,-0.23273104,-0.28388214,-1.0887653,-1.9078819! 1.3863738,0.98046005,1.8587846,0.24256861,3.3029034,-2.4188344,-0.81583107! 1.0,0.49134237,-1.577676,1.5884042,-2.369221,-0.75948477,0.74203944! 0.9891618,-0.5781016,-1.7477933,0.11639488,1.6446704,-0.33041364,2.0032234! #0.8988652,0.49414688,0.78751343,-3.0581336,-0.29918545,0.3893302,3.4607592! 1.0,1.9055359,-1.1377789,-0.37252742,1.7111634,0.21213752,-0.78554827! 
1.2347369,0.44909936,3.842629,-2.223098,1.0168502,-0.6122437,-1.0635351! 0.54796505,1.9080069,0.01890397,-0.14060825,0.15420347,-2.5285044,-1.6971791! 1.0,0.8169574,2.165945,-1.6247387,-0.7724716,-0.6647907,-1.9265137! 1.0,1.333619,0.69071054,0.9039132,0.0397954,-1.5545374,-0.107489526! 1.0,-0.5425813,0.35756344,0.4959808,-0.8229067,-1.8052921,1.2264427! 1.1545274,-0.7157657,-1.7826481,-1.4869984,0.15591133,-1.788223,-0.90604424! #1.0,-0.6323725,2.8193026,-3.5027766,0.65805644,0.110862255,-0.4418304! 1.0,1.7044969,-1.7418447,1.5588393,0.41341978,0.44854993,0.82635194! 
1.0,2.0416899,3.0865302,0.80227894,1.0907552,-1.1375175,0.49402356! 1.0,1.735383,0.8611691,0.36243582,1.6046135,-2.0589733,2.039579! 1.0,-0.51248896,2.340315,-0.29742962,-0.95002997,0.24653947,-1.9287076! 1.0,2.0074606,1.7555926,1.0207398,-1.3055913,-1.783656,-0.25713086! 1.0,0.23341084,-0.47074544,-1.0638132,-0.8489282,-0.8473213,0.4426812! 1.0,-0.29310405,-0.86213887,-2.0315561,0.047795832,0.67086375,2.0844188! #1.3959823,1.7044442,0.22230327,-0.049157917,0.3127463,1.8011591,0.101108134! 1.1867723,1.2302563,-2.4895327,1.3170801,0.9048419,1.8172103,1.2654727! 
