17.682426,25
0.0,0.15118885,-0.6171346,-0.16210103,0.99797297,0.683764,-0.9182832! 0.0,-0.65323055,-0.18588881,-0.24599755,-0.49992335,-0.11755414,0.32569277! 0.0,-0.16670501,-0.13755357,-0.7984067,-0.50209713,0.96440685,0.7533139! 0.0,-0.42817628,-0.5699688,-0.6060928,0.2936175,-0.49554265,-0.7162006! #0.0,0.49885428,0.008525159,0.7038943,0.9075744! 0.0,-0.09664555,0.2820887,-0.30243373,-0.56423926! 
0.0,-0.04340723,-0.079913855,-0.33379138,-0.4935764,-0.46399382,0.88326824! 0.0,-0.32765225,0.67686296,-0.58060956,-0.56027025,-0.66922677,0.47841033! 0.0,0.43982968,0.2698767,0.1715927,-0.34863287,0.7570859,-1.020641! 0.0,0.102513075,-0.37510678,0.83131695,0.22596717,0.13254881,-0.8629281! #0.0,0.6307193,0.22921431,-0.5116565,0.6085967! 0.0,-0.35855454,0.3291056,-0.4140041,-0.31085846! 
0.0,-0.8834959,-0.28990853,-0.5815408,-0.5914446,0.41301703,-0.5891143! 0.0,-0.7622681,-0.5782139,-0.18661702,-0.19086422,0.11553812,0.3578461! 0.0,0.6329626,0.27105534,0.166116,-0.10476041,-0.7053679,0.17534995! 0.0,0.32455266,0.10231003,0.059486628,-0.28303808,-0.2831713,0.0941873! #0.0,-0.31060493,-0.42159343,0.43931365,-0.008537903! 0.0,-0.17300928,0.31521487,0.021774054,-0.95701694! 
0.0,0.44751954,-0.40227905,0.8895192,-0.27776644,-0.0035766363,0.9213114! 0.0,-0.7432159,-0.13006902,0.7463289,0.6089606,-0.13867033,-0.8385205! 0.0,0.99919033,0.36049783,0.0595901,0.305232,-0.9738722,0.7533139! 0.0,0.40571725,-0.5732945,-0.020513892,-0.41797158,-0.05468152,0.38515243! #0.0,0.41567433,-0.53071636,-0.30886,0.82750547! 0.0,-0.38552517,0.2820887,0.21516216,-0.39757192! 
0.0,0.44751954,0.8135567,-0.34700975,-0.17381954,-0.93574697,0.87491715! 0.0,0.6188675,-0.7991594,-0.38997337,0.6089606,-0.13867033,-0.094208956! 0.0,0.49487057,0.36049783,0.012975216,-0.6882405,-0.9716677,0.7533139! 0.0,-0.60959804,0.026492387,0.25122535,0.33155996,-0.05468152,0.67284673! #0.0,0.3609631,-0.021720912,0.11655777,0.1843884! 0.0,-0.36688134,0.2820887,0.33748043,-0.8479801! 
0.0,0.65551925,-0.28573453,-0.37355196,-0.9677708,0.5542986,0.23695362! 0.0,0.6653589,-0.3109095,-0.6614938,0.80106914,0.40012276,-0.6188563! 0.0,0.2156409,-0.601918,0.0595901,-0.17477539,-0.077293634,-0.78686416! 0.0,-0.45833838,-0.14005661,-0.68842375,-0.95587474,-0.9198172,-0.81627864! #0.0,0.06462288,-0.13139576,-0.6500687,0.13344492! 0.0,-0.2609782,0.81599593,-0.76665944,0.4583671! 
0.0,0.43152773,-0.5600408,-0.82887137,-0.63181734,0.8501854,0.026001614! 0.0,0.37743056,-0.13006902,0.73519456,0.49162012,-0.1408631,-0.8657363! 0.0,0.9676026,0.36049783,0.042640846,-0.23150808,0.17457092,-0.9769435! 0.0,0.012043778,0.030291043,0.5143578,-0.56869864,-0.11913107,-0.669464! #0.0,0.41567433,-0.32324633,-0.83697224,0.95981336! 0.0,0.32700276,-0.95058846,0.8604986,-0.39757192! 
0.0,-0.040047474,0.47338593,0.92509335,-0.7044831,-0.46399382,0.96757567! 0.0,0.3305806,-0.81082666,0.20168877,-0.30406556,0.23563766,0.15809692! 0.0,0.40038002,0.67687154,0.16578734,0.2799884,0.14104848,-0.57812846! 0.0,0.97664654,0.44911778,0.1535519,-0.96003973,-0.3571833,0.89038193! #0.0,-0.050419092,0.414958,-0.13936985,-0.3431833! 0.0,-0.3245858,-0.5094807,-0.48324084,0.45667744! 
0.0,-0.42940548,0.71101326,0.33225304,-0.045204997,0.76586056,-0.6176041! 0.0,0.58293957,-0.023468614,-0.6409935,0.80106914,0.15615529,0.47614697! 0.0,0.47933507,-0.6149274,-0.08822429,-0.40864936,0.68974096,0.49462092! 0.0,0.0032578707,0.92891335,0.43169415,0.9271524,0.83152634,0.4336294! #0.0,0.8631185,-0.5954281,-0.1801995,0.10573983! 0.0,-0.763147,-0.24361098,0.33748043,-0.8479801! 
0.0,-0.64588714,-0.67567503,-0.34700975,-0.17381954,-0.7676159,0.35345644! 0.0,-0.0102314465,0.44146824,0.42955267,-0.52818793,0.22314525,0.28104344! 0.0,-0.9940125,0.78755367,-0.0745728,0.64788973,0.96440685,0.49462092! 0.0,0.9046539,-0.5699688,-0.5998162,-0.7881166,-0.98384464,0.7779192! #0.0,0.49885428,-0.26811254,-0.61847925,0.8221778! 0.0,0.010965824,-0.40424883,-0.30243373,0.7697! 
0.0,-0.861493,0.5211344,-0.53848815,0.14288902,0.14159013,0.48683214! 0.0,-0.6555537,-0.21698129,0.64257157,-0.96139324,0.57472277,0.5516132! 0.0,-0.3497125,-0.7845317,0.3404106,-0.17044866,-0.5581155,0.21648538! 0.0,-0.8907701,-0.62450564,0.8272277,-0.46105707,0.8572248,-0.50537586! #0.0,-0.006486416,0.22845341,-0.19591618,-0.02931894! 0.0,-0.84272504,-0.34937882,0.9135446,0.51149964! 
0.0,-0.51185274,0.28248012,0.29172647,0.03301935,-0.48693427,0.15257022! 0.0,0.14629197,-0.38819957,-0.2985849,-0.9589671,0.5765298,0.61630046! 0.0,0.5676675,-0.19582069,-0.98347116,0.3970614,0.4666183,0.611435! 0.0,-0.42905593,0.049531884,-0.13157833,0.7668778,-0.64651704,0.9060992! #0.0,-0.006486416,0.4065158,-0.83697224,-0.46592045! 0.0,-0.17083666,-0.38606054,0.81184494,-0.7375455! 
0.0,0.4922756,0.5211344,0.49686682,0.47990352,-0.90418196,0.7121796! 0.0,-0.6555537,-0.7991594,-0.4396923,-0.8101615,-0.08085418,0.40709794! 0.0,-0.88431823,0.7488892,-0.54612905,0.80108404,-0.6319371,-0.9952581! 0.0,0.8000103,0.03578346,-0.6602051,-0.7735379,0.8907341,-0.0525645! #0.0,0.12665696,0.22845341,-0.21965921,-0.8464983! 0.0,-0.055001616,-0.39230883,0.86644566,-0.24098098! 
0.0,0.15118885,-0.1217774,-0.11964628,-0.27776644,0.62764984,-0.00912923! 0.0,-0.6531354,-0.5702021,0.61435044,0.8281691,-0.11755414,0.61630046! 0.0,0.265054,-0.5314878,0.2091484,0.7051544,-0.8557673,0.8032488! 0.0,0.3547864,-0.5699688,0.2965585,0.8918698,-0.49554265,0.15435326! #0.0,0.09333287,0.008525159,-0.14103518,0.0059729815! 0.0,0.30947033,0.038181663,-0.98715377,-0.5118419! 
0.0,-0.51185274,0.28248012,0.8034469,0.7190242,-0.48693427,-0.59620845! 0.0,-0.36546722,-0.38819957,0.87567574,-0.9589671,-0.4033082,0.5516132! 0.0,0.48404983,-0.19582069,-0.98347116,-0.01665353,-0.3160625,0.4580404! 0.0,-0.42905593,0.049531884,0.7245564,-0.65766037,-0.027609248,-0.6588501! #0.0,-0.36560118,0.056966376,-0.24929142,-0.46592045! 0.0,-0.17083666,-0.4624957,-0.35146677,-0.7040231! 
0.0,-0.10737647,0.98801005,-0.37893236,-0.53295195,-0.93574697,-0.6502887! 0.0,-0.6242875,-0.11883366,-0.38997337,0.5054312,0.96241045,-0.094208956! 0.0,0.7250389,-0.5433279,0.6789131,0.9889941,-0.17712271,0.96233475! 0.0,-0.392192,0.047797203,0.2450552,0.37638283,-0.45009333,-0.99405384! #0.0,-0.062293172,-0.7410735,0.2168603,-0.29860964! 0.0,0.48226917,-0.9121444,-0.15917027,-0.8479801! 
0.0,-0.52528334,0.56034374,-0.24748361,0.6512624,0.60097194,-0.87241614! 0.0,-0.42183435,0.6417581,0.08161867,0.53367364,-0.08085418,-0.4928254! 0.0,0.613716,0.20227122,-0.31637084,-0.058769096,-0.3041764,-0.66020644! 0.0,-0.11953211,0.03578346,0.69572103,0.11839235,-0.16882396,0.5625961! #0.0,-0.36560118,0.90227604,-0.24929142,0.98222435! 0.0,-0.56913173,0.61500394,0.13751802,0.6000174! 
0.0,0.12048364,0.793622,0.39514232,-0.44374466,-0.9887444,-0.24755192! 0.0,-0.84262156,-0.04120493,-0.24129498,0.53896105,-0.69393253,-0.9626234! 0.0,-0.7551943,-0.26500428,-0.2734863,-0.72060764,0.6680465,0.41972077! 0.0,-0.36019957,0.444108,-0.23836577,0.2490238,0.40147567,0.23282373! #0.0,-0.22785914,0.5251924,0.25777364,-0.7274469! 0.0,-0.48119652,-0.51230824,-0.83276916,-0.57420385! 
0.0,-0.53918946,0.1897082,0.9382076,-0.27776644,0.097972155,-0.5891143! 0.0,-0.2878861,-0.21218815,-0.36299407,0.04220764,0.8869127,-0.4858737! 0.0,-0.9680574,0.7254288,0.166116,-0.175066,-0.7053679,0.67599154! 0.0,0.3547864,0.10231003,0.14587158,0.9170813,-0.2831713,0.12095332! #0.0,-0.31060493,0.1292522,-0.2893833,0.3514353! 0.0,0.30947033,0.16064632,0.57164884,-0.95701694! 
0.0,0.5284491,0.71879697,-0.41517866,-0.8986677,-0.91145337,-0.59548396! 0.0,-0.021522872,-0.89465535,-0.38041818,-0.9783252,0.87569785,-0.30712813! 0.0,0.2944776,0.21574688,-0.6576177,-0.7389548,0.42218357,-0.7859684! 0.0,-0.5027026,-0.0102113485,0.25122535,0.6421338,-0.84701854,-0.7032659! #0.0,0.09333287,-0.32077077,0.75629246,-0.52558833! 0.0,0.4129659,-0.24361098,0.33748043,0.7676201! 
0.0,0.6743344,0.08918345,0.53356254,0.44089568,-0.53308785,-0.2904067! 0.0,-0.06828368,0.46845222,0.25216877,0.1511935,-0.9702569,-0.25484884! 0.0,-0.22320855,0.6653805,0.21565354,0.1647023,0.25397515,-0.7859684! 0.0,0.15170944,-0.23994684,-0.21768387,0.26683894,-0.87517583,-0.7855382! #0.0,0.93036985,-0.368827,-0.20267312,0.38897812! 0.0,0.39804634,-0.28682876,0.7881006,-0.75194955! 
0.0,-0.18145023,-0.65626955,-0.33681262,0.75301635,0.8501854,-0.84931815! 0.0,-0.6555537,-0.8820498,0.73519456,0.49366283,-0.1408631,0.5516132! 0.0,0.73039,0.36049783,0.8173453,0.6408981,-0.10089854,-0.65946984! 0.0,0.919669,-0.9157515,0.8987723,0.26813948,-0.11913107,-0.669464! #0.0,-0.006486416,0.22845341,-0.83697224,0.9389807! 0.0,0.32700276,-0.43629062,0.74131346,-0.9589285! 
0.0,0.44751954,0.45521176,0.29172647,-0.08806491,0.683764,-0.9496455! 0.0,-0.6531354,-0.5702021,-0.19893491,0.34712636,-0.11755414,0.32569277! 0.0,0.265054,0.97314453,-0.7984067,-0.44762075,0.96440685,0.7533139! 0.0,-0.42817628,-0.8065864,0.2965585,0.9179514,0.7818252,-0.7162006! #0.0,0.12386425,0.008525159,-0.57311624,-0.24058473! 0.0,-0.09664555,-0.31469944,-0.30243373,0.25413346! 
0.0,-0.6237618,0.55828315,-0.33379138,-0.8986677,0.4807764,-0.5778575! 0.0,-0.044827413,-0.67352164,0.34303826,-0.623008,-0.7578392,-0.6188563! 0.0,-0.5956245,-0.11174661,0.055485446,-0.22837748,0.050235324,-0.8093983! 0.0,0.12567997,0.6274597,0.5489138,-0.39507058,-0.87517583,0.19387081! #0.0,0.53544664,-0.36464846,-0.63327086,0.10573983! 0.0,0.52183735,-0.28705895,0.21516216,-0.5610543! 
0.0,0.64276874,0.80169,0.24898219,-0.4935764,-0.3738582,0.88326824! 0.0,0.07197392,-0.062366843,0.63598096,0.14098358,-0.6812632,-0.8862182! 0.0,-0.9645753,0.2629345,0.44454145,-0.07600653,0.5454627,-0.9971714! 0.0,0.26890337,0.9822633,0.83131695,0.22596717,-0.20111573,0.40043962! #0.0,-0.5329571,0.22921431,0.7570994,0.21400225! 0.0,0.681913,-0.7635313,-0.8378258,-0.7311778! 
0.0,0.90374964,0.08918345,0.53356254,0.44089568,0.09806335,0.29296675! 0.0,-0.06828368,0.8726727,-0.32632148,0.1511935,0.0019802041,-0.40943897! 0.0,-0.8644272,0.66534746,-0.7984067,-0.82649297,0.93698496,-0.7859684! 0.0,-0.46709242,-0.69439876,-0.17094445,0.26683894,-0.87517583,0.35434473! #0.0,0.51423675,-0.13840659,-0.20267312,0.38897812! 0.0,-0.070448875,-0.045114912,0.11156356,0.91757005! 
0.0,0.8648052,-0.2692575,-0.38374427,0.06762838,0.76586056,0.026001614! 0.0,-0.39748272,-0.013291914,0.5466979,0.80106914,0.24255574,0.47614697! 0.0,0.039148536,-0.601918,0.010424793,-0.45123136,0.3289038,-0.016471267! 0.0,0.8000103,0.92891335,0.43169415,-0.95373577,0.71165085,0.8932142! #0.0,0.8631185,0.008525159,-0.10101631,0.55396616! 0.0,-0.33169866,-0.24361098,-0.08027345,0.5334804! 
0.0,-0.54556537,-0.6845008,-0.3880851,-0.4935764,0.7286009,-0.2070564! 0.0,0.9690779,0.67686296,-0.58060956,-0.96139324,-0.14183426,0.32442188! 0.0,-0.14715533,-0.33487314,0.1715927,0.22105563,-0.40653598,-0.5761256! 0.0,0.26890337,-0.3787085,0.83131695,0.22596717,-0.20659095,0.0070827045! #0.0,0.6307193,0.22921431,-0.7073525,0.6085967! 0.0,0.47310552,0.3291056,0.07601881,-0.39109862! 
0.0,-0.04340723,0.7369057,-0.71221375,-0.68134516,0.49705216,-0.064074755! 0.0,0.62308884,0.59109277,-0.50157946,0.44862366,0.40012276,-0.29266274! 0.0,-0.29786634,-0.6868011,-0.92849004,-0.17477539,0.09214795,-0.78686416! 0.0,0.56008804,0.6367578,0.7025479,0.3600335,-0.9198172,-0.81627864! #0.0,-0.042407822,-0.6184896,0.056580074,-0.7363003! 0.0,-0.2839923,-0.44281256,-0.2751525,0.97528887! 
0.0,-0.87735176,-0.25032973,-0.33681262,-0.23179781,-0.14021099,0.3321339! 0.0,-0.67566115,0.4518608,0.32178938,-0.9948466,-0.120557666,0.5011877! 0.0,-0.16745083,-0.95963573,-0.53527844,-0.27825555,0.6146748,-0.9952581! 0.0,0.92973936,-0.88177764,0.80427146,-0.2854582,-0.458835,-0.0525645! #0.0,-0.36695516,-0.34432518,-0.4828682,0.9367581! 0.0,0.5966743,0.6140964,0.74818766,0.22848508! 
0.0,-0.96689415,0.1836605,0.50930333,-0.96900874,-0.17889237,0.15257022! 0.0,0.6852397,0.0075576305,-0.7022023,0.47126108,-0.113583766,0.7612652! 0.0,0.15781121,0.2629345,-0.92849004,0.11258042,-0.3160625,0.57264364! 0.0,0.113847695,0.55819035,0.7820902,-0.05199293,-0.20659095,0.40043962! #0.0,-0.44562146,0.34558296,0.2889804,0.3514353! 0.0,-0.30888855,0.19828103,-0.59630513,-0.5832871! 
0.0,-0.21298146,-0.3325364,-0.78823787,0.06762838,-0.05304075,-0.8122628! 0.0,-0.8604435,0.81808615,-0.39657688,0.20593083,0.20410024,-0.5844463! 0.0,0.4831332,-0.671152,-0.19575083,0.9625205,-0.077293634,-0.57869816! 0.0,0.6485473,0.6419271,0.03320396,-0.95587474,0.862126,0.17886877! #0.0,0.06462288,-0.13139576,-0.6076238,0.10573983! 0.0,-0.45894694,-0.22571422,0.22952841,-0.4387915! 
0.0,-0.04340723,-0.6722913,0.4090886,-0.94792366,0.88077587,0.38851997! 0.0,-0.0060112476,-0.91115034,0.6977689,0.57140356,-0.25929615,-0.31908894! 0.0,0.53213423,0.2615353,0.06644893,0.22105563,-0.67586553,0.6726647! 0.0,0.2083596,0.026492387,-0.84516263,-0.508994,0.89647377,-0.035884023! #0.0,-0.6975378,-0.32324633,0.11655777,-0.85981846! 0.0,-0.38076615,0.21515375,-0.698341,0.7222632! 
0.0,0.21661627,0.7369057,0.8034469,-0.7499999,0.09806335,-0.00912923! 0.0,-0.368904,0.8726727,-0.38041818,-0.9700074,0.051006228,0.5075693! 0.0,-0.97363454,-0.25312197,-0.92849004,-0.44318354,0.14104848,0.9757769! 0.0,0.023963451,0.65135026,-0.9855204,-0.18432425,-0.77371013,0.12095332! #0.0,-0.56512344,0.22921431,0.91388476,-0.52558833! 0.0,-0.34247088,0.08424163,0.11156356,0.34536636! 
0.0,0.4896797,-0.90111136,0.43737674,0.4456126,0.093223095,-0.17966896! 0.0,0.7641686,-0.5851923,-0.32909727,-0.7622673,0.23563766,0.15809692! 0.0,0.27145895,0.028955579,0.7525089,-0.92458236,-0.66861415,0.014473796! 0.0,-0.9502747,-0.23730755,-0.33651114,-0.89993334,-0.3138739,-0.16600227! #0.0,-0.31060493,0.04910469,-0.1464949,-0.21153736! 0.0,0.43085003,-0.3281027,-0.0635252,-0.88144994! 
0.0,0.45899034,-0.6950147,0.43737674,-0.69940996,0.89441895,-0.84844565! 0.0,-0.75801516,-0.44949925,-0.32909727,-0.7871344,0.946139,-0.811019! 0.0,0.44453275,0.46638107,-0.98347116,-0.92458236,-0.67573166,0.014473796! 0.0,0.7950121,0.18122196,0.069084644,-0.660404,-0.040953755,-0.6588501! #0.0,-0.36560118,0.41787553,-0.5116565,0.4982549! 0.0,-0.16404855,-0.556391,-0.0635252,0.45359874! 
0.0,-0.30105913,-0.20385277,0.85227394,0.53458923,0.6197289,-0.06420648! 0.0,0.20895457,-0.4650867,0.5943903,0.028828971,0.2779156,0.035459876! 0.0,-0.61772317,-0.20427263,-0.05865276,-0.20871282,0.3503754,0.06788337! 0.0,-0.6261399,-0.8966366,-0.6024356,-0.508994,0.45270777,0.7694156! #0.0,-0.6119366,0.07967807,-0.5059291,-0.65108407! 0.0,0.8299792,-0.41495666,0.34478486,-0.28830588! 
0.0,0.4922756,-0.26987278,-0.42062664,-0.68827665,0.43642548,0.17620754! 0.0,0.09637201,0.9749989,0.92945206,-0.26169372,0.28876242,0.5838895! 0.0,0.9524796,0.8801708,0.055485446,-0.33086264,0.38222134,-0.07532799! 0.0,-0.5108588,-0.3094021,0.6913722,-0.8104483,0.22833158,0.622451! #0.0,0.3973713,0.35576653,-0.21278119,0.5704663! 0.0,-0.18642622,-0.1266315,-0.36014092,-0.5636631! 
0.0,0.44086504,0.7369057,0.88526607,-0.5954207,-0.53308785,-0.2904067! 0.0,0.97371346,-0.5564917,0.25216877,-0.292688,0.40012276,-0.25484884! 0.0,-0.22320855,0.40646082,0.14482701,0.1647023,-0.5748735,0.49462092! 0.0,0.15170944,0.12861085,-0.3455853,-0.9141174,0.647623,-0.38325036! #0.0,0.93036985,-0.906649,0.33679545,-0.497109! 0.0,0.6635294,-0.28682876,0.7881006,0.36534238! 
0.0,-0.42940548,0.68850935,-0.37096858,0.7453191,-0.91145337,0.04373026! 0.0,0.6188675,-0.8855908,0.7484733,0.0055547953,0.12393792,-0.035541892! 0.0,-0.08951926,-0.83555543,-0.08822429,-0.6799463,0.68974096,0.96233475! 0.0,-0.26096344,0.09721756,0.25948137,0.530851,0.6134353,0.4478674! #0.0,-0.41781092,0.67209816,0.009402156,0.3785932! 0.0,0.17783415,-0.48133585,-0.9057461,-0.8310359! 
0.0,-0.42959517,0.22451317,-0.36202234,-0.45527837,-0.91145337,-0.5891143! 0.0,-0.6833874,0.47690383,-0.033744443,0.42021394,-0.4033082,-0.28742918! 0.0,-0.9900559,-0.9726546,0.38114607,-0.058769096,-0.9774872,0.49462092! 0.0,-0.6173243,-0.0102113485,0.718861,-0.28303808,0.96293557,-0.9046526! #0.0,0.09333287,0.090106785,-0.30886,-0.5717468! 0.0,0.4129659,-0.4624957,-0.014457583,0.48568892! 
0.0,0.4922756,0.7369057,-0.3880851,-0.146659,0.43642548,0.4480102! 0.0,-0.14214075,-0.8620417,-0.6205673,0.1367473,0.72771204,0.046981886! 0.0,0.1346927,-0.6496022,0.06693889,0.7869123,0.3799739,0.5317477! 0.0,0.56008804,-0.01848296,0.97125566,-0.8199992,0.647623,0.6443609! #0.0,-0.087274194,0.047799744,0.34708235,-0.8158145! 0.0,0.6732273,-0.4624957,-0.76356816,0.965417! 
0.0,-0.07688464,-0.620741,-0.33379138,0.4130441,1.0078323,0.040318582! 0.0,0.9394542,-0.35519752,0.5466979,1.0253315,0.80458677,-0.24849701! 0.0,0.44258118,0.36049783,0.6801823,0.9759388,0.45984682,-0.097157076! 0.0,0.261279,-0.0019182526,0.98047256,0.12993693,0.13357368,-0.07680237! #0.0,-0.5916114,-0.014278531,-0.6500687,0.4358872! 0.0,-0.29221475,-0.34464407,-0.93837976,0.7550143! 
0.0,-0.04340723,-0.28573453,0.25008222,-0.8661612,-0.48693427,0.6232487! 0.0,0.6653589,-0.2877508,0.87567574,-0.9589671,-0.113583766,0.3578461! 0.0,0.9676026,-0.601918,-0.5116702,0.9759388,-0.077293634,0.611435! 0.0,0.36605203,0.049531884,0.6894504,-0.65766037,-0.027609248,0.9060992! #0.0,-0.006486416,-0.13139576,-0.6500687,0.13344492! 0.0,-0.2609782,-0.24361098,-0.76665944,0.4583671! 
0.0,0.39185333,0.647686,0.75657606,0.24883708,0.2353531,0.15257022! 0.0,0.876793,-0.38819957,-0.25060105,0.80106914,-0.5135311,-0.8390409! 0.0,0.31931093,0.94657004,0.5591233,-0.45123136,-0.077293634,0.5927694! 0.0,-0.53314024,0.031593833,-0.6975167,-0.046868682,-0.7263461,0.4767824! #0.0,-0.034748737,-0.11673546,0.12711108,-0.8158145! 0.0,-0.3263922,-0.2450341,-0.7786263,0.83630866! 
0.0,-0.4162723,0.53572786,-0.248232,-0.55323994,0.61564994,0.91692305! 0.0,0.34468186,0.8726727,0.07713401,-0.45664048,0.7713436,0.07207008! 0.0,-0.042105317,0.53481793,-0.02129341,0.9879569,0.4666183,0.4058938! 0.0,0.58885,0.76071596,0.867427,-0.9426254,0.013063837,-0.69359994! #0.0,-0.48577917,0.9497262,0.30366814,0.4955821! 0.0,0.67052436,0.21515375,0.24949847,-0.15775251! 
0.0,-0.04340723,-0.33866632,-0.020593047,-0.63181734,0.8501854,0.061593212! 0.0,0.6852397,-0.8820498,0.7606101,-0.23450214,-0.1408631,0.61497456! 0.0,0.91692185,0.3819075,0.042640846,0.9889941,0.46813715,-0.65946984! 0.0,0.012043778,0.34725988,0.5515657,0.057000995,-0.11913107,-0.7191396! #0.0,-0.03881383,-0.32324633,-0.83697224,0.0059729815! 0.0,-0.2768817,-0.43629062,0.5783632,0.6828103! 
0.0,0.53416413,-0.84281653,0.03066492,-0.18556464,0.25413704,0.7165589! 0.0,-0.75801516,-0.21984975,0.34303826,-0.37920976,-0.22900283,-0.094208956! 0.0,-0.5956245,-0.11174661,0.055485446,0.2799884,0.050235324,-0.8093983! 0.0,0.12567997,0.03578346,0.6913722,-0.41797158,0.053016223,0.6440644! #0.0,0.53544664,0.014640596,-0.63327086,-0.5155982! 0.0,0.33417517,-0.28705895,0.81892294,0.25381607! 
0.0,0.43152773,-0.6171346,-0.020593047,-0.63181734,0.8501854,0.026001614! 0.0,-0.65323055,-0.8820498,0.73519456,0.49162012,-0.11755414,-0.58200836! 0.0,0.73039,-0.13755357,0.042640846,-0.82443094,-0.10089854,-0.65946984! 0.0,0.012043778,0.7337998,0.8987723,0.26813948,-0.49358743,-0.07680237! #0.0,-0.062293172,-0.13713993,0.7038943,0.95981336! 0.0,-0.09664555,0.2820887,-0.31220236,-0.1917149! 
0.0,0.5654093,0.6230395,0.8000726,0.7145089,0.8825065,-0.5891143! 0.0,0.4314853,0.8124669,-0.5844511,0.1511935,-0.09975958,0.5516132! 0.0,-0.97363454,-0.94479257,0.34414625,0.11258042,0.14104848,0.9757769! 0.0,-0.43423626,0.9378873,-0.9855204,-0.74969465,-0.2831713,0.7173326! #0.0,-0.042121667,0.23672824,-0.21143791,-0.17410764! 0.0,0.28603864,-0.4830249,0.11156356,0.34536636! 
0.0,0.4922756,0.51317704,0.87183785,0.81113994,-0.84564745,0.4480102! 0.0,0.21502042,-0.78304815,0.17198145,0.58348036,-0.9005228,0.045312103! 0.0,0.9524796,0.6792877,0.35705543,-0.690553,-0.7679368,-0.3384083! 0.0,-0.5108588,-0.08591895,0.7182849,-0.8199992,0.72326696,-0.3442905! #0.0,-0.19009066,0.052670836,-0.63327086,0.920054! 0.0,0.33620307,0.75418854,-0.35799015,-0.4304434! 
0.0,-0.48742613,0.74348104,-0.41517866,0.6277474,-0.17889237,-0.8726262! 0.0,0.45152926,-0.35430264,-0.80338037,0.42217803,-0.17074,-0.6188563! 0.0,-0.36875245,0.72120214,-0.0064731464,-0.7389548,-0.24199975,-0.7864331! 0.0,0.6759939,-0.82658917,0.96484834,-0.47071373,-0.47523543,-0.18318728! #0.0,0.26932776,-0.067928314,0.75629246,-0.44961977! 0.0,-0.60050166,0.84567595,0.06119287,0.3779602! 
0.0,-0.93234706,0.68809974,0.17658257,0.22040212,-0.1363957,-0.23742259! 0.0,-0.5637418,-0.8639002,-0.9238757,0.7055137,0.15721083,-0.100305796! 0.0,0.49974132,-0.9076096,0.24606764,-0.3077172,-0.050873637,-0.046463728! 0.0,0.61217463,-0.6015518,-0.25528017,0.56348693,0.6656338,0.433005! #0.0,-0.38391316,-0.61207235,-0.54387915,0.12602615! 0.0,0.2946242,-0.61311716,-0.88638234,0.7723354! 
0.0,0.47717226,0.4358727,-0.28832188,0.81031764,0.43642548,0.4480102! 0.0,-0.08370641,0.9749989,-0.38041818,0.1511935,0.80458677,0.5516132! 0.0,-0.97363454,-0.94479257,0.055485446,-0.62911713,-0.7679368,-0.097157076! 0.0,-0.5108588,-0.0102113485,-0.9855204,0.95023036,0.9787289,0.12095332! #0.0,-0.06448103,0.07752491,-0.63327086,-0.52992797! 0.0,-0.34247088,-0.44501403,0.11156356,-0.9044851! 
0.0,-0.879111,0.5211344,-0.33681262,0.75301635,0.76736605,0.026001614! 0.0,0.7619941,-0.7991594,-0.79231787,-0.96139324,-0.08085418,-0.29266274! 0.0,-0.16745083,-0.95963573,-0.7632108,-0.6882405,-0.80606925,-0.9952581! 0.0,-0.47297037,-0.88177764,0.88698816,-0.24650854,0.26934493,0.951353! #0.0,0.3973713,0.22845341,0.8973386,0.9256091! 0.0,-0.43897617,-0.2450341,0.6311694,0.22848508! 
0.0,-0.04340723,-0.05017066,0.35558558,-0.9797039,-0.46399382,0.2718836! 0.0,0.3479638,0.38552845,0.15779161,-0.56027025,-0.06587064,0.47075474! 0.0,0.083777666,-0.81996155,-0.30073035,-0.34863287,0.7570859,0.79028535! 0.0,-0.11776066,0.69440377,0.5515657,-0.24857855,0.13145798,-0.8629281! #0.0,0.06462288,0.48319924,-0.5116565,-0.40443468! 0.0,0.15600395,-0.26743805,-0.7705796,-0.31085846! 
0.0,0.07030094,-0.20590095,0.53270745,-0.1912667,0.119932994,-0.1755321! 0.0,-0.16501626,-0.85502297,0.5602892,-0.2378068,-0.16346109,0.09602839! 0.0,0.08063376,0.6804743,0.7792677,0.6196301,0.7409866,-0.24722135! 0.0,0.7892873,-0.41229618,0.6606316,-0.53997767,-0.41544902,-0.17829213! #0.0,0.8521148,-0.6073451,0.15984212,0.024573393! 0.0,0.3073604,-0.6878222,0.70085645,0.8174813! 
0.0,0.15118885,-0.1217774,-0.36202234,0.7190242,0.683764,-0.9182832! 0.0,-0.6531354,-0.89465535,-0.38041818,0.42021394,-0.11755414,-0.3631878! 0.0,0.44993174,-0.9726546,-0.16684076,-0.4037154,0.095063485,0.7161916! 0.0,0.2294642,-0.029561479,0.2965585,-0.19399786,-0.84701854,-0.7162006! #0.0,0.09333287,0.13687599,0.7038943,-0.24058473! 0.0,-0.09664555,-0.6457603,-0.30243373,-0.56423926! 
0.0,-0.04340723,-0.28573453,-0.78823787,-0.04993165,-0.4865209,0.20622154! 0.0,0.92308867,0.81808615,-0.7471795,0.42956555,0.85464007,-0.5844463! 0.0,0.18935505,-0.80617726,-0.90605694,-0.45123136,0.45984682,0.49462092! 0.0,-0.5100814,-0.9428096,0.43169415,-0.95587474,-0.49994534,-0.7273777! #0.0,0.06462288,0.0034349188,-0.6500687,-0.68530965! 0.0,-0.45894694,-0.22571422,-0.34698617,-0.5832871! 
0.0,-0.643512,-0.26987278,0.29172647,-0.7177981,0.028487086,0.17620754! 0.0,-0.32032347,0.13365683,0.87567574,-0.9589671,0.83756363,0.5838895! 0.0,-0.9654641,0.4175787,-0.78095245,0.3970614,0.38222134,-0.07532799! 0.0,-0.3821445,-0.3094021,0.18609726,-0.65766037,0.22376537,0.52845! #0.0,-0.2932471,0.35576653,-0.83697224,0.85622895! 0.0,-0.17271233,0.554795,-0.35146677,-0.9535984! 
0.0,0.5654093,-0.6572756,0.035205234,0.6835022,-0.90964,-0.5202762! 0.0,-0.08977314,-0.9317708,-0.38041818,0.1511935,0.051006228,0.5516132! 0.0,-0.95420766,0.11471522,0.6455195,-0.12339926,0.14104848,0.9757769! 0.0,-0.2533313,0.6876002,0.98047256,-0.18432425,-0.87517583,0.12095332! #0.0,-0.06448103,0.22921431,-0.21143791,-0.73246694! 0.0,-0.34247088,-0.42188558,0.9013393,0.6031909! 
0.0,0.4714376,-0.26987278,-0.4609388,-0.7177981,0.028487086,0.13161513! 0.0,0.09637201,0.16354191,-0.6377789,0.093835235,0.08442363,0.5253514! 0.0,-0.9654641,0.4175787,-0.78095245,-0.33086264,-0.8557673,0.5927694! 0.0,-0.33962727,-0.3094021,0.18609726,-0.95587474,0.048341103,0.0055598803! #0.0,-0.2932471,0.35576653,0.83657014,0.85622895! 0.0,-0.17271233,0.554795,0.32635146,-0.9535984! 
0.0,0.4714376,-0.08891243,-0.5099132,-0.038491428,-0.56991327,-0.3226551! 0.0,-0.28288656,-0.26195335,-0.57142496,0.40153086,0.87569785,0.5253514! 0.0,-0.14922833,-0.56533134,-0.6576177,-0.8235746,-0.49568748,0.5927694! 0.0,0.7169664,-0.24154425,0.879502,-0.11823344,0.048341103,0.0055598803! #0.0,-0.006486416,0.42223823,0.75454706,0.38897812! 0.0,-0.17083666,-0.096283555,0.33748043,-0.87798715! 
0.0,-0.9778672,-0.26987278,0.088891745,0.75606716,0.07088192,0.17620754! 0.0,0.09637201,0.67686296,0.92945206,0.44862366,0.83756363,0.5995541! 0.0,-0.24359465,-0.1931152,-0.7689216,-0.70030284,-0.3671844,-0.16919899! 0.0,-0.33962727,-0.3094021,-0.5086125,0.5721501,0.22376537,0.951353! #0.0,-0.062293172,0.35576653,0.5723259,0.85622895! 0.0,-0.17271233,0.554795,0.5396389,-0.3777697! 
0.0,-0.5617844,0.72878844,-0.1264071,-0.18556464,-0.453503,0.45291883! 0.0,-0.6555537,0.62788725,0.32178938,0.41648948,0.72771204,-0.85078543! 0.0,-0.56927776,0.6247418,-0.045467734,0.4755304,-0.34486687,0.42331854! 0.0,-0.7158785,-0.3445729,0.08205545,-0.43769848,0.74494374,-0.85144794! #0.0,-0.052932143,0.14051399,-0.66416705,-0.44961977! 0.0,-0.7224417,-0.45487994,-0.59658015,-0.36441872! 
0.0,0.9401915,-0.6302706,0.088891745,-0.7499999,-0.2642455,0.692374! 0.0,0.87426436,-0.07987334,0.6977689,-0.9331058,-0.6812632,-0.9897604! 0.0,0.9579169,-0.25312197,-0.92849004,0.2213768,-0.33739614,-0.6756065! 0.0,-0.2649273,-0.625938,-0.84516263,0.75936174,0.21456409,-0.4753604! #0.0,-0.56512344,0.34788775,0.8975214,-0.7271993! 0.0,-0.56440437,0.08424163,0.23449862,-0.7903756! 
0.0,0.4922756,0.6230395,0.92509335,-0.47012472,-0.91145337,-0.59548396! 0.0,0.44903576,-0.89465535,-0.38041818,-0.96619385,-0.14183426,-0.3261228! 0.0,0.44158614,0.326169,0.5681484,-0.058769096,-0.14394066,0.49462092! 0.0,0.2294642,-0.0102113485,0.7245564,0.22815973,-0.8471613,-0.7032659! #0.0,0.073774494,0.13687599,-0.13182008,-0.2989058! 0.0,0.4129659,-0.24361098,-0.8219409,0.7676201! 
0.0,0.9401915,-0.6572756,-0.77665806,-0.60393083,0.09806335,-0.24755192! 0.0,-0.0060112476,0.8726727,0.49890333,-0.98348546,-0.67400914,0.38523245! 0.0,-0.863225,-0.90874976,0.83801067,0.2435547,0.14104848,0.9757769! 0.0,0.2083596,0.58798563,-0.84516263,-0.27079678,-0.87517583,-0.035884023! #0.0,0.16333728,0.3858306,0.25777364,-0.52558833! 0.0,-0.56440437,0.3319775,0.11156356,0.34536636! 
0.0,0.069407105,0.65247905,-0.07727289,0.99797297,-0.28415215,-0.74979377! 0.0,0.4225533,0.79725695,0.07794857,-0.49992335,0.18818307,0.32569277! 0.0,0.6948153,-0.13755357,-0.7984067,-0.50209713,0.96440685,0.36191833! 0.0,-0.4639449,0.6017908,-0.13191545,0.2936175,-0.49554265,0.5526246! #0.0,0.49885428,-0.38931,0.7038943,0.20327933! 0.0,0.7186183,-0.82150435,0.8496542,-0.0018508434! 
0.0,0.3010112,0.17256796,0.97029746,-0.045204997,-0.56935024,-0.2070564! 0.0,-0.32032347,-0.8820498,0.7606101,-0.23450214,-0.14183426,0.32442188! 0.0,0.91692185,-0.33487314,-0.7689216,-0.3052237,-0.3671844,-0.41914418! 0.0,0.056612372,-0.2805762,-0.3786146,-0.60718536,-0.5247364,0.8318714! #0.0,-0.40162718,-0.05840541,-0.8000661,0.52505445! 0.0,-0.23253047,-0.4624957,0.07601881,-0.9930229! 
0.0,0.46582034,-0.53213227,-0.9611684,-0.69940996,0.9094899,0.909125! 0.0,-0.75801516,-0.26195335,-0.6377789,-0.37920976,-0.66922677,0.5253514! 0.0,-0.4820063,0.47427502,0.38114607,-0.8125596,-0.8557673,0.25138366! 0.0,0.7950121,-0.88177764,-0.6133632,-0.95587474,0.048341103,0.0055598803! #0.0,-0.36560118,0.41787553,-0.5116565,0.38897812! 0.0,0.46348208,-0.556391,0.33748043,-0.87798715! 
0.0,0.15118885,0.4267373,0.62860084,-0.94222397,-0.003426075,-0.9130082! 0.0,0.19898474,0.43700683,-0.28971863,-0.49992335,-0.11885619,-0.13596678! 0.0,0.42072546,-0.671152,0.10225773,0.9625205,0.7819426,0.7533139! 0.0,-0.42817628,-0.7720423,0.03320396,0.2936175,0.862126,-0.7162006! #0.0,0.9469545,-0.72545815,-0.6076238,0.9075744! 0.0,-0.0081727505,-0.45608687,0.23183383,-0.46105525! 
0.0,-0.6237618,0.53114915,-0.33379138,-0.8661612,0.705675,0.6232487! 0.0,0.58113587,-0.67352164,0.8768199,-0.8101615,-0.08085418,-0.6188563! 0.0,-0.5956245,-0.7845317,0.31367457,-0.54894936,0.14104848,-0.5467126! 0.0,0.80326974,0.05763185,0.58873415,0.92146397,0.96293557,0.19387081! #0.0,-0.6242552,-0.00928605,-0.19781719,0.10573983! 0.0,-0.087331794,-0.6565772,0.21516216,0.25823617! 
0.0,0.4636455,0.6230395,-0.5260885,0.6290649,0.09825301,0.6232487! 0.0,0.68708116,0.053052664,0.8768199,-0.014385462,0.7291595,0.3578461! 0.0,-0.5956245,0.326169,0.63846624,-0.10299712,0.5365529,-0.5885961! 0.0,0.10615599,0.05763185,0.72345465,0.34187806,-0.84465796,0.67241275! #0.0,0.06462288,-0.28081882,-0.82707876,-0.085840195! 0.0,-0.80401754,-0.40920025,0.9898367,-0.95701694! 
0.0,-0.9197384,0.32357895,0.6421164,-0.63181734,0.5523861,-0.46799946! 0.0,0.876793,-0.42686749,-0.24784505,0.79019403,-0.5135311,-0.4928254! 0.0,-0.01087904,0.94657004,-0.93650925,0.7010881,-0.3160625,-0.115458965! 0.0,0.6854595,0.19312823,-0.68344706,-0.046868682,0.86678606,0.46442705! #0.0,0.048691392,-0.18378466,0.9563993,0.9964442! 0.0,-0.3263922,0.57807493,-0.7070402,0.6000174! 
0.0,-0.31912178,0.8502096,0.022542238,-0.48020214,-0.003560599,-0.8816197! 0.0,-0.6555537,0.40670216,0.32178938,0.42021394,0.72771204,-0.6188563! 0.0,-0.88105345,0.11471522,0.74560875,-0.12339926,0.807271,0.49462092! 0.0,0.051235437,-0.37377644,0.26872396,0.03044768,-0.6971858,-0.85144794! #0.0,0.4203785,0.51248026,-0.9219079,-0.8232951! 0.0,0.90693897,-0.42188558,-0.8774017,0.5316714! 
0.0,-0.9302857,0.762959,-0.5260885,0.8025416,0.09825301,-0.27270293! 0.0,0.7593334,-0.64491916,0.61435044,-0.014385462,-0.8895112,0.3578461! 0.0,-0.58664465,-0.34847653,0.7804495,0.20606828,0.9676547,-0.5885961! 0.0,-0.6677052,-0.4849583,0.9565468,-0.83497864,-0.7263461,0.67241275! #0.0,0.06462288,0.46301425,0.043387413,0.51950014! 0.0,-0.28626466,-0.40920025,0.5732893,-0.10944736! 
0.0,-0.94056153,0.7369057,-0.34700975,-0.17381954,0.62764984,-0.9182832! 0.0,0.5985354,0.48651472,-0.50157946,-0.9545652,-0.47150183,-0.7503204! 0.0,-0.29786634,-0.9726546,-0.92849004,0.20244879,-0.74930334,0.7533139! 0.0,0.024354115,-0.17094052,0.7245564,-0.16638006,-0.09151852,0.4336294! #0.0,-0.06448103,-0.6184896,-0.13534153,-0.017118812! 0.0,-0.393839,0.2820887,0.16434026,0.4564411! 
0.0,-0.93234706,0.28099513,0.80251396,0.32463455,-0.38714802,0.63216233! 0.0,0.57790947,-0.062366843,0.63598096,0.14098358,0.15721083,-0.8862182! 0.0,-0.9934633,-0.9076096,-0.31766725,-0.07600653,0.5454627,-0.9796194! 0.0,-0.7963995,0.9822633,0.2976476,0.45993456,-0.20111573,0.9465065! #0.0,-0.38391316,-0.7797383,-0.54387915,0.058989763! 0.0,0.6840904,-0.7551565,-0.8378258,0.7723354! 
0.0,-0.42940548,-0.26446185,-0.1264071,0.7030228,-0.91145337,-0.064074755! 0.0,0.6188675,-0.8855908,-0.6409935,0.6089606,0.72771204,-0.6188563! 0.0,0.47933507,-0.25591183,-0.08822429,0.34743297,0.68974096,0.65584147! 0.0,0.8000103,0.22455657,0.25948137,0.9271524,-0.3945141,0.4336294! #0.0,-0.03881383,0.18059698,0.38881445,-0.8232951! 0.0,0.52183735,-0.48133585,0.6209259,-0.8479801! 
0.0,0.4714376,0.647686,0.75657606,0.6290649,-0.12101102,-0.7587563! 0.0,0.07634807,-0.30000737,-0.72987354,-0.25847232,0.119103715,0.53468895! 0.0,0.31931093,0.10049975,0.38114607,-0.8125596,0.41882765,0.5317477! 0.0,0.25133482,-0.4489776,0.9975424,0.56917024,-0.8169031,0.67241275! #0.0,-0.5201349,0.0061997473,0.83657014,0.38897812! 0.0,0.30336177,-0.40920025,0.31901082,-0.8335781! 
0.0,0.4922756,-0.6845008,0.92509335,-0.47012472,0.14423068,-0.59548396! 0.0,0.44903576,-0.89465535,-0.38041818,-0.17731571,-0.41263556,-0.31908894! 0.0,0.44158614,-0.05883956,0.5681484,-0.058769096,-0.14394066,0.63858795! 0.0,0.24751472,0.03605652,0.8507727,0.29158604,-0.8604463,-0.7032659! #0.0,-0.29652795,0.14051399,0.115257666,-0.52558833! 0.0,0.4129659,-0.33466768,-0.73658407,0.7676201! 
0.0,0.7370461,0.79497206,-0.9448986,0.32463455,0.8420594,0.63216233! 0.0,-0.75801516,-0.34728038,-0.92692596,0.14098358,-0.4019742,0.47614697! 0.0,0.4831332,0.27314523,0.67327523,-0.5988318,0.5454627,-0.9971714! 0.0,-0.43423626,0.9822633,0.8757683,0.7668778,-0.20111573,0.4877609! #0.0,-0.5673443,0.41787553,0.7570994,0.38897812! 0.0,0.71033967,-0.556391,0.77889043,-0.7311778! 
0.0,0.4922756,0.22451317,-0.36202234,-0.45527837,0.43642548,-0.5891143! 0.0,0.94839275,-0.88534737,-0.6205673,-0.623008,0.9743904,-0.36128286! 0.0,-0.28300238,-0.9726546,0.7422664,-0.058769096,-0.94974035,0.49462092! 0.0,0.18086916,-0.01848296,0.7245564,0.22815973,-0.9922623,0.6443609! #0.0,0.09333287,0.047799744,0.34708235,0.66699076! 0.0,0.43085003,0.46980244,-0.76356816,0.965417! 
0.0,0.3565279,0.4267373,0.8530458,0.87064373,-0.84564745,0.6728225! 0.0,0.97371346,-0.9165813,0.53913426,0.58348036,0.61438835,-0.24849701! 0.0,0.9676026,-0.37888873,0.35705543,-0.65891194,-0.1637233,0.02256! 0.0,-0.23629153,-0.16552576,-0.6643039,-0.8568984,0.27692318,0.2673614! #0.0,0.55671966,-0.28081882,0.1410346,-0.40385187! 0.0,0.45253012,-0.2450341,-0.35799015,-0.4304434! 
0.0,0.3010112,-0.6845008,-0.3880851,-0.045204997,0.09825301,-0.2070564! 0.0,1.0051565,0.61030316,0.73519456,-0.96139324,-0.1408631,-0.31908894! 0.0,-0.67601633,-0.38573572,-0.79358023,0.22105563,0.3370983,0.6443821! 0.0,-0.040710926,0.55819035,0.8746398,-0.508994,-0.41260904,0.89825875! #0.0,-0.73695636,-0.30151364,-0.8000661,0.52505445! 0.0,0.4561795,-0.4624957,0.7729948,0.9191196! 
0.0,0.39185333,-0.3958212,-0.767017,-0.00883913,-0.34800375,0.15257022! 0.0,-0.68148816,-0.34128833,-0.4243126,-0.9546895,-0.5135311,0.6589813! 0.0,-0.03967063,0.8122215,0.5591233,0.7837095,0.96835816,-0.115458965! 0.0,-0.7680031,0.031593833,-0.97583187,-0.88897824,0.86678606,0.4767824! #0.0,-0.034748737,0.120496035,-0.9433837,0.9964442! 0.0,0.4569695,0.57807493,0.88894165,0.6404638! 
0.0,-0.04340723,-0.28573453,-0.78823787,0.06762838,-0.45859152,0.42771745! 0.0,-0.6982178,0.81808615,-0.7471795,0.12015566,-0.26444197,-0.61449546! 0.0,-0.16670501,-0.13755357,0.32409626,-0.837697,0.96440685,0.49462092! 0.0,-0.5100814,0.6419271,-0.6060928,0.2936175,-0.4894879,-0.07680237! #0.0,0.06462288,-0.13139576,0.7038943,0.9075744! 0.0,-0.09664555,0.2820887,-0.38528442,-0.1917149! 
0.0,-0.51185274,0.28248012,0.29172647,-0.8661612,-0.48693427,0.15257022! 0.0,-0.32032347,-0.38819957,0.87567574,-0.7085594,0.72771204,0.3578461! 0.0,-0.12732193,-0.9528978,0.042640846,-0.6991715,-0.3160625,0.65584147! 0.0,-0.42905593,0.049531884,0.7025479,0.15640284,-0.027609248,-0.76696557! #0.0,-0.006486416,-0.13929868,0.044690378,-0.46592045! 0.0,-0.17083666,-0.4291594,-0.35146677,-0.72169447! 
0.0,0.005044777,0.040447805,-0.19478881,0.47990352,0.24324238,-0.27270293! 0.0,0.7867488,-0.10775995,-0.47382677,0.18182993,-0.8895112,0.779111! 0.0,-0.58664465,0.6537384,0.7804495,0.20606828,0.9676547,0.67491686! 0.0,-0.6677052,0.306399,0.9565468,-0.8428967,-0.72016454,-0.108805336! #0.0,0.30689427,0.46301425,-0.20267312,0.9774435! 0.0,0.6732273,-0.18751395,0.5732893,0.36382213! 
0.0,0.07295418,0.65247905,-0.74176097,0.91830575,0.9931344,-0.74979377! 0.0,-0.84262156,0.79725695,0.07794857,0.80106914,0.354465,-0.0057765245! 0.0,0.45176148,-0.5664085,-0.31637084,-0.39008698,0.6680465,0.49462092! 0.0,0.38081846,0.6017908,-0.13191545,0.79601204,0.2680751,-0.6909934! #0.0,-0.22785914,-0.38931,-0.6631849,0.0743283! 0.0,-0.2609782,-0.82150435,0.12223828,0.8608742! 
0.0,-0.47845888,0.57463014,-0.38374427,0.7190242,0.62764984,-0.5668412! 0.0,0.44903576,-0.89465535,-0.38041818,0.8281691,0.5765298,-0.3631878! 0.0,-0.28298965,-0.5314878,-0.17594744,0.947571,0.095063485,0.072218694! 0.0,0.2294642,0.99828696,0.7245564,-0.16165529,-0.84701854,0.9060992! #0.0,-0.8112532,0.13106059,-0.13182008,0.0059729815! 0.0,-0.20267606,0.038181663,-0.75754124,0.25413346! 
0.0,0.5500958,-0.6572756,0.8034469,0.6835022,0.09806335,0.32410222! 0.0,-0.08977314,-0.78304815,0.97681797,0.58348036,0.051006228,0.69975865! 0.0,-0.97363454,-0.94479257,0.35705543,-0.65891194,0.10718626,-0.9810169! 0.0,-0.23629153,-0.0102113485,-0.9855204,-0.18432425,0.72326696,-0.3442905! #0.0,-0.23893377,0.22391689,-0.21143791,-0.52558833! 0.0,0.4724815,-0.08093798,0.11156356,0.34536636! 
0.0,0.8894216,-0.05017066,-0.9611684,0.4130441,0.85032845,0.51119083! 0.0,-0.12631333,-0.7924851,0.15779161,0.11231685,-0.06587064,-0.24849701! 0.0,-0.9940125,-0.83473194,0.6801823,0.68875706,0.45984682,0.7971615! 0.0,-0.11776066,0.69440377,0.98047256,-0.24857855,0.8602952,0.34368408! #0.0,-0.5916114,0.48319924,0.65284085,-0.18246663! 0.0,-0.43729022,-0.31099963,-0.93837976,0.6647217! 
0.0,0.4667263,-0.7046865,-0.34700975,-0.85661983,-0.7676159,-0.9182832! 0.0,-0.2536236,0.48651472,-0.38041818,0.6089606,-0.14095673,-0.3631878! 0.0,-0.7174836,-0.68982244,-0.7370162,-0.4417067,0.68965375,0.7533139! 0.0,-0.60959804,0.39748275,-0.6827581,-0.38909602,0.7398747,0.4336294! #0.0,-0.06448103,0.008525159,0.37679446,-0.42350954! 0.0,-0.6365093,-0.35723245,-0.8219409,0.63942087! 
0.0,-0.7370504,-0.5466486,0.8034469,0.7003416,-0.8850351,0.48255932! 0.0,0.9674954,-0.89465535,0.5620495,0.42021394,-0.30582774,-0.24849701! 0.0,-0.9940125,-0.5206163,0.6801823,0.68875706,0.45984682,-0.097157076! 0.0,0.27795136,-0.42800355,0.5143578,-0.18432425,0.5381356,0.48476553! #0.0,-0.5916114,0.01134491,-0.58468056,-0.52558833! 0.0,-0.43729022,-0.4844759,-0.8219409,-0.014616732! 
0.0,0.4922756,-0.6845008,-0.3880851,-0.5954207,0.20772243,0.221387! 0.0,0.11569035,0.5811466,0.7463289,0.8380803,0.8391327,0.558287! 0.0,0.9293468,0.40646082,-0.49779785,-0.47366625,0.5809449,0.5166998! 0.0,0.56730986,0.5613978,0.39099813,0.75936174,-0.2831713,0.12095332! #0.0,-0.32743168,0.16903687,-0.1801995,-0.21153736! 0.0,-0.13635528,0.37728298,0.17461145,0.39792025! 
0.0,0.4922756,-0.40227905,0.73677826,-0.16298199,-0.7676159,-0.5891143! 0.0,0.6188675,0.6417581,-0.38041818,-0.1542808,0.354465,-0.3631878! 0.0,0.5278144,0.28433043,-0.7370162,0.16189152,-0.16010523,0.49462092! 0.0,-0.45126003,-0.0102113485,0.7245564,-0.89549124,-0.2831713,0.4336294! #0.0,-0.06448103,-0.28404987,-0.31266484,0.9463932! 0.0,-0.15389764,-0.4830249,-0.8219409,0.40867555! 
0.0,0.43152773,-0.65626955,-0.020593047,0.06762838,0.76586056,0.42771745! 0.0,0.37743056,-0.8820498,0.73519456,0.80106914,0.7247951,0.40709794! 0.0,-0.0020668805,-0.0055810288,0.042640846,-0.45123136,-0.105415516,-0.65946984! 0.0,0.66820544,0.7586106,0.43169415,-0.95587474,-0.11913107,-0.6909934! #0.0,-0.02139571,-0.6184896,-0.83697224,0.95981336! 0.0,-0.408666,-0.43629062,-0.38528442,-0.9589285! 
0.0,0.4922756,-0.40227905,-0.34700975,-0.17381954,-0.7676159,-0.9182832! 0.0,0.6188675,0.48651472,-0.38041818,0.6089606,0.84032667,-0.3631878! 0.0,0.5278144,-0.9726546,-0.7370162,0.21978489,-0.9716677,0.7533139! 0.0,-0.60959804,-0.0102113485,0.6843209,-0.19399786,-0.09151852,0.4336294! #0.0,-0.06448103,0.008525159,-0.13182008,0.1843884! 0.0,-0.40748537,0.2820887,-0.8219409,0.40867555! 
0.0,0.07030094,0.17572922,-0.3880851,-0.5954207,0.8067436,0.26888856! 0.0,0.07520008,-0.5329248,0.7463289,-0.2378068,0.84032667,0.9188752! 0.0,0.6690806,0.40646082,0.123633526,-0.7920662,0.7409866,0.49462092! 0.0,0.7892873,-0.41229618,0.07756233,-0.61022055,-0.2831713,0.7188362! #0.0,0.8521148,-0.6073451,-0.7409948,-0.4700117! 0.0,-0.18099734,-0.4830249,-0.011547446,-0.30916676! 
0.0,0.00647521,0.46559858,0.6447941,0.88052547,-0.8188728,-0.49104166! 0.0,0.2539809,-0.02656424,-0.9937902,0.8429625,0.7662139,-0.6343274! 0.0,-0.39655676,0.6411036,0.3422091,0.6196301,-0.10564017,-0.20807707! 0.0,-0.10274257,0.8603864,-0.016391993,-0.63130593,0.013308167,0.82140636! #0.0,0.3731084,0.68636453,-0.25341105,0.038366318! 0.0,0.48822594,0.115710855,0.25118446,-0.8423977! 
0.0,-0.52528334,0.7369057,0.09415181,0.9168148,0.6145848,-0.87140226! 0.0,-0.75801516,0.6417581,-0.79231787,-0.9966216,-0.08085418,-0.29266274! 0.0,-0.121352926,-0.26500428,-0.7632108,-0.058769096,-0.80606925,-0.16919899! 0.0,-0.47297037,0.06322134,0.30364883,-0.24650854,0.26934493,0.5625961! #0.0,0.3973713,0.056966376,-0.24929142,0.972492! 0.0,-0.15389764,0.61500394,0.9185512,0.25413346! 
0.0,-0.87735176,0.5211344,-0.33681262,-0.00883913,-0.045978136,0.3321339! 0.0,-0.68148816,-0.35570636,0.3002588,-0.96139324,0.43754363,0.5516132! 0.0,-0.16745083,0.8122215,0.7655691,0.7837095,-0.33942336,0.46249568! 0.0,-0.7680031,-0.88177764,0.80427146,0.09944213,0.6048558,-0.0525645! #0.0,-0.36695516,0.120496035,-0.9433837,0.9256091! 0.0,0.4569695,-0.2450341,0.6311694,0.22848508! 
0.0,-0.6506465,0.6230395,0.03066492,0.5743023,0.8825065,-0.5202762! 0.0,0.4314853,-0.9317708,-0.5844511,-0.53038234,-0.98064506,0.4220461! 0.0,-0.75070786,0.11471522,0.34414625,0.11258042,0.59494555,0.26963365! 0.0,-0.43423626,0.9378873,0.8390217,-0.74142224,0.65733826,-0.9046526! #0.0,-0.36848283,0.16903687,0.76111495,-0.21153736! 0.0,0.28603864,-0.42188558,0.68163943,0.5735168! 
0.0,0.87915385,0.6761885,-0.33681262,0.91830575,0.28676414,-0.74979377! 0.0,0.4225533,0.79725695,0.07794857,0.16848767,0.18818307,-0.0057765245! 0.0,-0.8803748,-0.7845317,0.93799984,-0.37331307,-0.45685256,0.36191833! 0.0,-0.4639449,0.58798563,-0.040807843,-0.4948759,-0.19755626,0.5526246! #0.0,-0.006486416,-0.38931,0.7589922,0.04255706! 0.0,-0.3866614,0.4496684,0.8496542,0.8097555! 
0.0,0.6743344,-0.90723956,-0.7915729,-0.28298151,-0.53308785,-0.2579265! 0.0,-0.019533217,0.65083283,0.22795326,0.47959778,-0.9702569,-0.9963446! 0.0,-0.22320855,-0.323938,0.21565354,0.1647023,0.25397515,-0.84880364! 0.0,0.16095278,0.036737405,0.5855018,0.63971645,-0.30621147,-0.035884023! #0.0,-0.10324087,-0.32324633,0.33679545,-0.53870285! 0.0,0.6635294,0.27973676,0.7881006,0.4533226! 
0.0,-0.47845888,0.51763517,0.8034469,0.88052547,-0.96915495,-0.59620845! 0.0,0.44903576,-0.89465535,0.7606101,-0.37920976,-0.4033082,0.5516132! 0.0,0.7678536,-0.25591183,-0.98347116,-0.058769096,-0.3041764,0.96832836! 0.0,0.2294642,-0.0102113485,0.8385429,-0.8460285,-0.84701854,-0.6588501! #0.0,-0.8112532,0.056966376,-0.24929142,-0.5155982! 0.0,0.8487608,-0.6450804,0.81184494,-0.6926209! 
0.0,0.5419411,0.24571048,0.088891745,0.75606716,-0.0035766363,-0.01572847! 0.0,-0.6555537,-0.7991594,-0.58060956,0.44862366,0.40012276,-0.6188563! 0.0,0.48953462,-0.1931152,0.7121113,-0.62911713,-0.3671844,0.49462092! 0.0,0.26890337,0.6367578,0.26872396,0.11754517,0.9897944,-0.85144794! #0.0,-0.062293172,0.51248026,-0.9219079,-0.8232951! 0.0,-0.4243765,0.07565355,0.7939131,-0.3777697! 
0.0,0.64276874,0.8382969,0.80251396,0.32463455,-0.3738582,-0.7239822! 0.0,-0.40314877,-0.062366843,0.63598096,0.14098358,0.49829525,-0.34996498! 0.0,-0.5785284,0.23124778,0.44454145,-0.04167152,-0.16038065,-0.9971714! 0.0,-0.7963995,0.9822633,0.9269769,-0.053370595,0.20763719,0.9465065! #0.0,-0.5329571,0.14051399,-0.3255313,0.21400225! 0.0,0.6840904,-0.24361098,-0.6282239,-0.7311778! 
0.0,-0.039641738,0.6230395,-0.27617955,-0.07583165,0.10265518,0.42771745! 0.0,0.73331046,-0.89465535,-0.5228339,0.73396134,0.051148176,0.65257466! 0.0,-0.20786929,0.6448622,0.10949254,0.45002317,0.29351878,0.96832836! 0.0,-0.8137944,-0.9276072,0.62194717,0.9198728,0.86548746,0.6589612! #0.0,-0.03881383,0.5898591,0.84999216,0.4358872! 0.0,-0.09160185,0.9036697,0.50865436,-0.2235581! 
0.0,0.4922756,-0.26987278,-0.36202234,-0.46576387,0.028487086,0.17620754! 0.0,-0.66365266,-0.84998834,-0.40863642,0.42021394,-0.4033082,0.5838895! 0.0,-0.97825485,0.4175787,-0.54612905,-0.32695618,-0.9774872,0.49462092! 0.0,0.2294642,-0.3094021,0.7245564,0.5721501,-0.9922623,0.12095332! #0.0,-0.2932471,0.35576653,-0.097536206,0.85622895! 0.0,-0.17271233,0.554795,0.5396389,-0.9535984! 
0.0,0.4922756,-0.3718944,-0.53848815,-0.17381954,-0.74957,-0.9182832! 0.0,0.5253731,0.48651472,0.64257157,-0.64106166,0.57472277,-0.4035623! 0.0,-0.3497125,-0.9726546,0.3404106,0.21978489,-0.5581155,0.7533139! 0.0,-0.85012543,-0.62450564,-0.31990182,-0.46105707,-0.04920387,0.4336294! #0.0,-0.06448103,0.008525159,-0.13182008,0.1843884! 0.0,-0.33243158,-0.34937882,0.8822473,0.40867555! 
0.0,0.51729435,0.46689665,0.8431753,0.6835022,0.103011474,-0.054990053! 0.0,-0.08977314,0.8726727,0.084010124,0.1511935,0.9716697,0.9382168! 0.0,0.99838746,0.94730556,0.6291981,-0.18511832,0.14104848,0.5578966! 0.0,0.023963451,0.96681416,-0.9855204,-0.57385945,-0.87517583,0.9137305! #0.0,-0.47525656,0.22921431,-0.6220726,0.85105395! 0.0,-0.34247088,-0.4563131,0.11156356,0.5127591! 
0.0,-0.6506465,0.8502096,0.035205234,0.5743023,0.76736605,0.48814425! 0.0,0.02822727,-0.39048907,-0.5210654,-0.53038234,0.07158935,0.4392407! 0.0,-0.24359465,0.11471522,-0.22277915,-0.087153524,0.807271,0.3052094! 0.0,-0.2533313,0.05763185,0.88698816,-0.9740766,-0.3040769,-0.9232695! #0.0,0.6307193,0.27761546,0.76111495,-0.73246694! 0.0,-0.09664555,-0.42188558,0.6209259,0.5735168! 
0.0,-0.7192692,0.26345992,0.8034469,0.6404265,0.7319946,0.8593857! 0.0,0.3303282,-0.30474818,0.20168877,0.42021394,-0.4527459,-0.8657363! 0.0,0.27145895,0.67687154,0.60908926,0.2799884,0.4242473,0.9757769! 0.0,0.15747726,-0.42800355,0.32806897,-0.96003973,0.5381356,0.48476553! #0.0,-0.7703222,0.3782804,-0.13936985,-0.0804503! 0.0,-0.92909884,-0.4563131,-0.8219409,-0.9331504! 
0.0,0.057879735,-0.1217774,-0.41517866,-0.94792366,-0.90418196,0.692374! 0.0,-0.6531354,0.073697835,0.6298989,-0.8401698,-0.14047585,0.32569277! 0.0,0.265054,0.7488892,-0.54612905,-0.8296902,0.96440685,-0.8759037! 0.0,-0.34596708,-0.5699688,0.2965585,0.8918698,-0.49554265,0.1884917! #0.0,0.09333287,0.008525159,-0.21965921,0.02887094! 0.0,-0.09664555,-0.33286315,0.86644566,-0.56423926! 
0.0,0.65551925,0.23254544,-0.37355196,-0.9677708,-0.91145337,0.23695362! 0.0,0.94500345,0.6197377,-0.6614938,0.44862366,-0.08085418,0.5516132! 0.0,-0.4820063,-0.6868011,-0.94222975,-0.17477539,0.09214795,0.50058687! 0.0,-0.42905593,-0.0102113485,0.7245564,0.7668778,-0.9198172,-0.79048795! #0.0,-0.36560118,0.1398336,-0.24170384,-0.7413873! 0.0,0.82573533,0.81599593,0.81184494,0.06478931! 
0.0,-0.9778672,0.24571048,0.088891745,0.22040212,-0.38714802,-0.064074755! 0.0,0.57790947,0.67686296,-0.58060956,0.44862366,0.15721083,-0.83329415! 0.0,0.9236659,-0.1931152,-0.31766725,-0.74720275,0.22227132,-0.046463728! 0.0,0.26890337,-0.6015518,0.2976476,0.42310894,0.24350095,0.38869426! #0.0,-0.4222383,0.22921431,0.5723259,0.058989763! 0.0,0.9341084,0.8597324,-0.70697236,0.7285057! 
0.0,-0.31384552,-0.012026906,-0.35803843,0.4130441,-0.91145337,0.48255932! 0.0,-0.0060112476,-0.7924851,-0.38041818,-0.98348546,-0.4033082,-0.24849701! 0.0,-0.9940125,-0.323938,0.6801823,-0.62911713,0.45984682,0.49462092! 0.0,0.27795136,-0.63802123,0.98047256,-0.27079678,0.89647377,0.34368408! #0.0,-0.5916114,0.13687599,-0.55510634,-0.22118685! 0.0,-0.43729022,-0.34464407,-0.728765,-0.9044851! 
0.0,0.15118885,-0.1217774,-0.90728086,0.99797297,0.09825301,-0.9182832! 0.0,-0.6531354,-0.5702021,0.61435044,-0.49992335,0.80458677,0.32569277! 0.0,0.37498307,-0.33487314,-0.8158684,-0.4037154,-0.3671844,0.7533139! 0.0,-0.22882408,-0.06292403,0.2965585,0.8918698,-0.49554265,0.9570421! #0.0,0.26932776,0.008525159,0.14449799,0.52505445! 0.0,-0.60050166,0.60503066,-0.30243373,0.3779602! 
0.0,-0.889495,0.8044021,0.92509335,0.53458923,-0.24938989,0.8856338! 0.0,0.65170753,-0.8762355,0.5943903,-0.33077967,0.71400404,-0.094208956! 0.0,-0.3201753,0.83460605,-0.92875886,0.94129074,0.3503754,0.97606325! 0.0,-0.6284734,-0.3777596,-0.16716588,-0.508994,-0.11913107,0.7779192! #0.0,-0.062293172,0.07967807,0.11655777,-0.6440468! 0.0,-0.2768817,-0.8997539,0.7228714,0.8174813! 
0.0,-0.861493,0.7369057,-0.53848815,0.14288902,0.24391532,0.026001614! 0.0,-0.14214075,-0.87703884,-0.40475526,0.11751949,0.72771204,0.046981886! 0.0,0.1346927,-0.6496022,0.3404106,-0.6621896,-0.5581155,0.5317477! 0.0,-0.85012543,-0.88177764,-0.31990182,-0.46105707,0.8572248,0.3950155! #0.0,-0.063442156,0.050861683,-0.19591618,-0.8158145! 0.0,-0.84272504,-0.4624957,0.8822473,0.51149964! 
0.0,-0.87735176,0.5211344,0.021336973,0.5743023,-0.05255556,0.3321339! 0.0,-0.9481952,-0.7991594,0.32178938,-0.53038234,-0.98064506,0.4392407! 0.0,-0.16745083,0.11471522,0.7655691,-0.12339926,0.807271,-0.9952581! 0.0,-0.2533313,-0.9231884,0.98047256,-0.9740766,0.6048558,-0.9046526! #0.0,-0.36695516,0.18676738,-0.9219079,-0.73246694! 0.0,0.5966743,-0.2450341,0.6311694,0.5735168! 
0.0,0.4922756,0.70545995,-0.9448986,-0.45527837,0.09825301,-0.71253353! 0.0,0.98348814,-0.89465535,-0.38041818,-0.8101615,-0.4019742,0.32442188! 0.0,-0.97370934,-0.9776322,-0.7689216,0.11258042,-0.3671844,0.49462092! 0.0,0.2294642,-0.05041448,0.7245564,0.9198728,-0.9922623,0.9313469! #0.0,0.09333287,0.046454746,-0.8030072,-0.5717468! 0.0,0.4129659,-0.35723245,-0.014457583,0.7550143! 
0.0,-0.28103375,0.6903362,-0.74176097,0.06762838,-0.34800375,0.7545638! 0.0,-0.8456356,0.6417581,0.61435044,-0.9546895,0.43754363,0.47614697! 0.0,-0.75665355,0.8122215,-0.31522578,-0.45123136,0.96835816,0.49462092! 0.0,-0.7680031,0.444108,-0.97583187,-0.88897824,0.2680751,0.6960547! #0.0,-0.025494337,0.120496035,-0.9433837,0.4132924! 0.0,0.41742665,0.7446266,0.12223828,0.8608742! 
0.0,-0.87735176,0.7369057,-0.33681262,0.75301635,-0.0035766363,0.026001614! 0.0,0.7426733,-0.8485674,0.32178938,-0.96139324,-0.08085418,-0.29266274! 0.0,-0.16745083,-0.95963573,-0.7632108,-0.6882405,-0.80606925,-0.16919899! 0.0,0.919669,-0.88177764,0.88698816,0.11279951,0.26934493,-0.0525645! #0.0,-0.36695516,0.22845341,0.8973386,0.5684162! 0.0,0.5966743,-0.4445992,0.58883965,0.25413346! 
0.0,-0.47845888,-0.6845008,-1.0249437,-0.045204997,0.09825301,-0.2070564! 0.0,0.9690779,-0.8820498,0.7606101,0.8281691,-0.14183426,0.32442188! 0.0,0.18935505,-0.33487314,-0.7689216,0.7051544,-0.3671844,-0.5761256! 0.0,-0.040710926,0.99828696,-0.3786146,-0.9138353,0.5911176,0.15435326! #0.0,-0.40162718,-0.8873264,-0.14103518,0.0059729815! 0.0,0.30947033,0.038181663,0.07601881,0.9191196! 
0.0,0.42941248,0.98801005,-0.37893236,-0.53295195,0.2917857,-0.7733021! 0.0,-0.0060112476,-0.11883366,0.73999155,-0.29290617,0.59491277,0.38023195! 0.0,0.7250389,-0.28237772,0.042640846,0.17562962,-0.17712271,0.5327438! 0.0,-0.392192,-0.63802123,0.35201573,-0.65766037,-0.43529868,-1.0257531! #0.0,-0.006486416,-0.7410735,0.2168603,-0.8158145! 0.0,0.48226917,-0.9121444,-0.698341,-0.05982077! 
0.0,-0.94056153,-0.26987278,0.39672756,0.28270128,0.028487086,0.17620754! 0.0,0.09637201,-0.8820498,0.92945206,-0.26169372,-0.47150183,-0.7503204! 0.0,-0.9654641,0.4175787,-0.92849004,-0.6003095,0.38222134,-0.052056435! 0.0,0.024354115,-0.3094021,0.18609726,0.31773347,0.22376537,0.52845! #0.0,-0.2116117,-0.6184896,0.06648815,-0.017118812! 0.0,-0.17271233,-0.46183884,0.16434026,0.965417! 
0.0,-0.28103375,0.6230395,0.03066492,0.038007107,-0.34800375,-0.00912923! 0.0,-0.65521777,-0.34128833,0.7606101,-0.9546895,-0.47150183,0.6422584! 0.0,-0.75665355,0.8122215,0.166116,0.7837095,-0.6562089,0.46249568! 0.0,-0.7680031,-0.0102113485,-0.97583187,-0.88897824,0.88726616,0.6960547! #0.0,-0.8112532,-0.6184896,-0.5240879,0.4358872! 0.0,0.4569695,0.77613807,0.88894165,-0.5019022! 
0.0,-0.8659531,0.57463014,0.03066492,0.7030228,0.8714467,-0.5891143! 0.0,0.44903576,0.64136446,-0.3575085,-0.1542808,0.71400404,0.32679838! 0.0,0.5695282,-0.5770947,0.67123324,0.9889941,-0.13668379,-0.42742324! 0.0,-0.43423626,0.7451825,0.8415105,0.67507696,-0.2831713,0.12095332! #0.0,0.65804625,0.20017684,0.3278321,-0.21153736! 0.0,0.3370751,-0.43629062,0.5783632,0.8174813! 
0.0,0.4922756,0.22451317,-0.74176097,0.06762838,-0.91145337,-0.59620845! 0.0,0.44903576,-0.9205723,0.61435044,0.42021394,-0.4033082,0.47614697! 0.0,0.44993174,-0.9726546,-0.31637084,-0.45123136,0.095063485,0.49462092! 0.0,0.38081846,0.444108,0.43169415,-0.19399786,0.2680751,0.12095332! #0.0,-0.06448103,0.13687599,-0.6631849,-0.2989058! 0.0,0.8731269,0.61500394,-0.8219409,0.8608742! 
0.0,0.49220273,0.6230395,-0.34700975,-0.17381954,-0.0035766363,-0.5891143! 0.0,0.4314853,0.8124669,-0.5854989,0.6089606,-0.09975958,-0.9137481! 0.0,0.49487057,0.36079526,0.34414625,-0.6882405,-0.9716677,0.13819337! 0.0,-0.60959804,0.9378873,-0.021107148,-0.74969465,-0.024148196,0.38515243! #0.0,-0.36848283,-0.021720912,0.06295872,-0.21153736! 0.0,-0.36688134,0.2820887,0.21516216,-0.923646! 
0.0,0.5654093,-0.70498705,0.8034469,-0.4935764,0.09806335,0.29296675! 0.0,-0.08977314,0.9749989,-0.7022023,0.44102514,0.87569785,0.5516132! 0.0,-0.97363454,-0.14364412,0.1715927,-0.62911713,0.14104848,-0.7399876! 0.0,-0.5754027,-0.3787085,-0.9855204,-0.9447048,-0.87517583,0.12095332! #0.0,-0.8853266,0.22921431,-0.7491468,0.12516677! 0.0,-0.34247088,-0.4563131,0.11156356,-0.36553276! 
0.0,0.7669523,-0.98703945,-0.39851186,-0.795622,-0.69225156,-0.88400507! 0.0,0.97882915,-0.24269605,-0.27122998,-0.9144207,0.29289377,-0.5500351! 0.0,0.8383652,-0.1931152,-0.6902406,0.5376481,0.38588572,-0.19335665! 0.0,-0.95737076,0.25428236,-0.5086125,-0.9934348,0.36399162,0.9376794! #0.0,-0.08620159,0.29821396,0.81787264,0.7797518! 0.0,0.42219603,0.826174,0.33413184,0.6818801! 
0.0,-0.04340723,-0.26896104,-0.34700975,-0.17381954,0.76586056,0.42771745! 0.0,-0.40439367,0.5197062,-0.38041818,0.6089606,0.7247951,-0.3631878! 0.0,0.5278144,-0.9726546,-0.7370162,0.21978489,-0.9716677,0.7533139! 0.0,-0.60959804,0.7586106,0.7245564,-0.19399786,0.2680751,-0.6909934! #0.0,-0.06448103,0.008525159,-0.13182008,0.1843884! 0.0,-0.408666,0.2820887,-0.8219409,-0.5019022! 
0.0,0.4714376,0.1170795,-0.49554712,-0.019418716,-0.86329806,-0.064074755! 0.0,-0.3083639,0.6796605,-0.6377789,0.093835235,-0.60975206,0.5253514! 0.0,0.265054,-0.5433279,-0.30073035,-0.6722595,-0.9977507,0.5927694! 0.0,-0.19543791,0.048856974,0.5515657,-0.6729965,0.048341103,0.28714466! #0.0,-0.006486416,0.0061997473,0.83657014,0.38897812! 0.0,0.5062207,-0.096283555,0.21516216,-0.9027197! 
0.0,-0.95021594,-0.87291646,-0.34700975,-0.17381954,0.43642548,0.8517871! 0.0,0.6188675,0.9749989,0.15506029,0.6089606,0.3927648,0.7623738! 0.0,-0.14715533,0.025107026,0.1715927,0.7789769,-0.40653598,0.7533139! 0.0,-0.5754027,-0.5540037,0.38311556,-0.9447048,-0.20659095,0.35394788! #0.0,0.7867007,0.6906109,0.014077,-0.58607244! 0.0,-0.36688134,0.307763,-0.15068078,0.447856! 
0.0,-0.9251075,-0.92020667,-0.31893992,-0.17671543,-0.453503,0.8593857! 0.0,-0.4347732,-0.93588436,-0.21388507,0.41648948,0.23563766,0.67139435! 0.0,-0.61587954,0.67687154,-0.045467734,0.2799884,0.6444469,-0.23222171! 0.0,-0.7158785,0.8392057,0.32806897,0.5110841,0.74494374,0.94335544! #0.0,-0.052932143,0.14051399,-0.16859919,-0.44961977! 0.0,-0.77704453,-0.5136315,0.66835403,0.42390603! 
0.0,0.47645912,-0.28990853,-0.28832188,-0.27776644,-0.96915495,0.40592656! 0.0,-0.9615495,-0.5329248,0.77267575,-0.23450214,0.80458677,-0.24849701! 0.0,-0.9346671,0.5662067,0.055485446,0.7869123,-0.7053679,0.67599154! 0.0,0.32392243,0.58341753,0.99477005,0.9198617,0.9787289,0.3326922! #0.0,0.6148702,0.07967807,-0.63327086,-0.24058473! 0.0,0.30998105,-0.34464407,0.021774054,-0.95701694! 
0.0,-0.04340723,0.1170795,0.2890458,0.06762838,-0.86329806,0.42771745! 0.0,-0.39748272,-0.023468614,-0.10678363,-0.987558,-0.60975206,0.4632227! 0.0,-0.24953234,-0.601918,-0.30073035,-0.6722595,-0.9716677,0.49462092! 0.0,0.018973742,0.92891335,0.5515657,-0.6729965,0.83152634,0.8932142! #0.0,-0.03881383,-0.00928605,-0.6388804,-0.5542079! 0.0,0.14871287,-0.24361098,-0.38528442,0.5334804! 
0.0,0.90374964,0.647686,0.99073243,0.06762838,0.816988,0.6232487! 0.0,0.6653589,0.78228533,0.36289048,-0.52818793,0.5953487,0.33674157! 0.0,0.31931093,0.24118948,-0.5116702,0.9759388,-0.077293634,-0.9631802! 0.0,0.38081846,-0.69439876,-0.68842375,0.2936175,-0.49554265,-0.6909934! #0.0,0.06462288,-0.13840659,0.7208301,0.38897812! 0.0,-0.070448875,0.48796317,-0.76665944,0.91757005! 
0.0,-0.54556537,-0.40227905,0.24898219,-0.17381954,-0.7676159,0.88326824! 0.0,0.6188675,0.67686296,-0.58060956,0.6132012,-0.6812632,-0.3631878! 0.0,0.51920176,-0.9726546,0.1715927,-0.24090627,-0.40653598,-0.67134446! 0.0,-0.60959804,-0.0102113485,0.7245564,-0.19399786,-0.20659095,0.38743052! #0.0,0.6307193,0.22921431,-0.7245481,0.1843884! 0.0,-0.36688134,0.2820887,-0.4140041,0.40867555! 
0.0,-0.51185274,0.28248012,0.29172647,0.9168148,-0.48693427,0.15257022! 0.0,-0.32032347,-0.38819957,0.87567574,-0.9589671,0.7766658,0.3578461! 0.0,-0.12732193,-0.19582069,0.042640846,-0.43648225,-0.3160625,0.5149789! 0.0,-0.42905593,-0.4005632,0.7025479,0.33155996,0.96293557,0.9060992! #0.0,-0.01180768,0.25296295,-0.83697224,-0.43700618! 0.0,-0.408666,-0.556391,0.072894886,-0.72169447! 
0.0,-0.42959517,0.08918345,0.7826836,-0.18556464,0.6197289,0.026250243! 0.0,-0.6833874,0.40912497,-0.18661702,-0.96619385,-0.1301084,-0.31908894! 0.0,-0.9900559,0.27105534,0.38114607,-0.8667099,0.6183079,0.17534995! 0.0,0.7928927,0.7351028,-0.31529975,-0.28303808,0.96293557,0.7234272! #0.0,-0.16125023,-0.42159343,0.43931365,0.56314087! 0.0,-0.17300928,-0.072792456,-0.8219409,0.48568892! 
0.0,0.6889112,0.71361315,0.109345675,0.5435196,-0.0035766363,0.37633753! 0.0,0.57120556,-0.8731157,-0.16388535,-0.70596784,0.18140829,-0.6326165! 0.0,0.9322125,0.54108834,0.29708207,0.121994495,-0.23427065,-0.35090706! 0.0,-0.26096344,0.58341753,0.041671753,0.80134577,0.57078165,0.4479057! #0.0,-0.006486416,0.25296295,0.1410346,0.08788729! 0.0,-0.42778027,-0.4669302,0.2362379,-0.7836313! 
0.0,0.9401915,0.5211344,-0.7915729,0.75301635,-0.0035766363,-0.19233716! 0.0,-0.6555537,-0.7991594,0.32178938,-0.21356912,-0.08085418,0.71155536! 0.0,-0.16745083,-0.323938,0.7655691,0.24729455,-0.28008032,-0.6756065! 0.0,0.2083596,-0.5699688,0.80427146,0.10294011,-0.30621147,-0.035884023! #0.0,-0.36695516,0.38776827,0.25777364,0.9629699! 0.0,0.5966743,0.3319775,-0.8133087,0.5521215! 
0.0,0.07295418,0.65247905,-0.37893236,-0.53295195,0.023627043,-0.7733021! 0.0,0.4225533,0.79725695,0.70947206,0.16848767,0.16814908,-0.0057765245! 0.0,-0.8803748,-0.5664085,0.6789131,-0.37331307,-0.17712271,0.5327438! 0.0,-0.392192,0.047797203,0.35201573,0.37638283,-0.43529868,0.5526246! #0.0,-0.08484638,-0.7410735,0.7589922,-0.6882323! 0.0,0.755769,-0.82150435,-0.15917027,-0.0018508434! 
0.0,0.86729956,0.55828315,-0.36946478,0.6290649,-0.24292469,-0.8726262! 0.0,0.45152926,0.81808615,-0.80338037,0.42956555,-0.26444197,-0.6188563! 0.0,0.4831332,-0.024959803,-0.19575083,-0.7389548,-0.077293634,-0.35090706! 0.0,0.7214928,-0.37377644,0.43169415,-0.47071373,-0.4894879,0.9541276! #0.0,0.06462288,0.42223823,-0.6500687,0.3392559! 0.0,-0.60050166,-0.22571422,0.0890248,0.41644266! 
0.0,-0.737378,-0.026054025,0.87183785,-0.41786432,-0.84564745,-0.064074755! 0.0,0.81146055,0.67686296,-0.58060956,0.58348036,0.40012276,0.69975865! 0.0,-0.7287631,-0.1931152,0.4039419,-0.74720275,-0.16100514,-0.9810169! 0.0,-0.27863932,-0.16336799,-0.5086125,0.2668343,0.72326696,-0.3442905! #0.0,-0.062293172,0.052670836,0.5723259,-0.730137! 0.0,-0.4243765,0.07565355,-0.35799015,-0.3777697! 
0.0,0.4922756,0.4267373,-0.34700975,-0.17381954,-0.48693427,0.47320765! 0.0,-0.30013514,-0.7305527,0.04119396,0.6089606,0.84032667,0.40709794! 0.0,0.5278144,0.7488892,-0.76247305,0.21978489,-0.9245348,0.7533139! 0.0,0.47423756,-0.78428614,-0.6827581,0.89243376,-0.09151852,0.42094743! #0.0,-0.03881383,0.023783922,-0.13182008,0.1843884! 0.0,-0.36688134,0.25343934,-0.8219409,0.40867555! 
0.0,0.07585037,0.08918345,0.53356254,0.75301635,0.09825301,0.29296675! 0.0,-0.6555537,-0.7991594,0.32178938,0.1511935,0.72771204,0.20776272! 0.0,-0.8644272,0.6537384,0.8173453,-0.82649297,-0.45685256,-0.7859684! 0.0,0.04561468,-0.23994684,0.80427146,0.07963455,0.6048558,0.35434473! #0.0,0.41222718,0.22845341,-0.9219079,0.38897812! 0.0,0.6150288,-0.2450341,0.15264183,0.21423887! 
0.0,0.4636455,-0.26987278,0.03066492,-0.7603756,0.028487086,0.6232487! 0.0,0.68708116,0.16354191,0.92945206,0.9909463,0.83756363,0.5838895! 0.0,-0.9654641,0.4175787,0.59757745,-0.33086264,0.38222134,-0.093950935! 0.0,0.10615599,-0.3094021,0.8507727,0.34187806,0.22376537,0.15435326! #0.0,-0.2932471,0.35576653,-0.613935,-0.18649778! 0.0,-0.80401754,-0.6565772,0.5396389,-0.95701694! 
0.0,-0.04340723,-0.6845008,-0.07716632,-0.045204997,-0.18141015,-0.2070564! 0.0,-0.006142605,0.6767603,0.7122331,-0.96139324,-0.60975206,-0.29266274! 0.0,0.18935505,-0.5433279,-0.7689216,0.20704515,-0.3671844,-0.52678937! 0.0,-0.040710926,-0.06292403,0.25122535,-0.60718536,-0.48983753,0.99475205! #0.0,-0.8853266,-0.05840541,-0.7835431,0.52505445! 0.0,0.4561795,-0.44281256,0.07601881,0.9191196! 
0.0,0.6743344,-0.6171346,-0.42062664,0.06687224,-0.53308785,-0.2904067! 0.0,-0.4779564,0.46845222,0.25216877,-0.292688,-0.11755414,-0.25484884! 0.0,-0.12236467,-0.13755357,-0.03858144,0.1647023,0.25893855,0.53191286! 0.0,0.15170944,-0.4489776,-0.6060928,-0.53130233,0.2680751,-0.7855382! #0.0,0.93036985,-0.906649,0.33679545,-0.57366097! 0.0,-0.09664555,0.29406852,-0.3199823,-0.56423926! 
0.0,-0.07688464,-0.620741,-0.33379138,-0.8871159,-0.2982804,0.7496674! 0.0,-0.68148816,-0.34128833,-0.4243126,-0.9546895,0.43754363,0.47614697! 0.0,-0.71582884,0.8122215,-0.93356454,0.7837095,0.9969899,-1.0095187! 0.0,-0.7680031,-0.7740592,0.19427967,0.12993693,0.9194814,0.6960547! #0.0,0.4456106,0.120496035,-0.6500687,0.4132924! 0.0,-0.29221475,-0.6955194,-0.41796207,0.6404638! 
0.0,0.9401915,-0.7161227,0.7826836,-0.2868178,0.09669651,0.29296675! 0.0,-0.019533217,0.8726727,0.6977689,0.8039464,-0.07887027,-0.9963446! 0.0,0.5480457,-0.323938,0.06743391,-0.82649297,0.31421325,-0.6756065! 0.0,0.023963451,0.026492387,0.5855018,0.12993693,-0.3346478,-0.035884023! #0.0,-0.10324087,-0.36557105,0.25777364,0.38897812! 0.0,-0.16565749,0.27973676,-0.48324084,0.8174813! 
0.0,0.44751954,0.26617074,-0.9189756,0.88052547,-0.91145337,-0.49104166! 0.0,-0.1407103,0.63419867,-0.9937902,-0.25447693,-0.44496614,-0.02490887! 0.0,0.265054,0.97448015,-0.19197512,0.6196301,-0.10564017,0.2969606! 0.0,-0.47297037,-0.665388,0.7245564,0.8780706,0.013308167,0.8198389! #0.0,0.17453635,0.9086519,0.5306146,0.038366318! 0.0,-0.42778027,-0.4563131,-0.8219409,0.4934085! 
0.0,-0.04340723,-0.28990853,-0.34700975,0.06762838,-0.0035766363,0.42771745! 0.0,-0.40439367,-0.7991594,0.7463289,0.6089606,-0.13867033,-0.9137481! 0.0,-0.0020668805,0.014747536,0.0595901,-0.45123136,-0.9716677,0.7533139! 0.0,-0.60959804,-0.5699688,-0.020513892,-0.95587474,-0.05468152,-0.6909934! #0.0,-0.02139571,-0.021720912,0.06295872,0.1843884! 0.0,-0.36688134,0.2820887,0.21516216,0.447856! 
0.0,-0.9197384,-0.65626955,-0.020593047,-0.63181734,0.60097194,-0.46799946! 0.0,0.37743056,-0.42686749,0.08161867,0.53367364,0.2743622,0.795449! 0.0,0.613716,0.16268569,0.042640846,0.73546374,-0.10089854,-0.65946984! 0.0,0.020758402,0.19312823,0.8987723,0.11839235,-0.16727187,-0.669464! #0.0,0.048691392,0.90227604,0.9563993,-0.671913! 0.0,-0.5463842,-0.85197616,0.5783632,-0.9845974! 
0.0,0.3565279,-0.40227905,-0.34700975,-0.17381954,-0.7676159,-0.064074755! 0.0,0.6087206,-0.9165813,0.53913426,0.6089606,0.56499726,-0.24849701! 0.0,0.9676026,-0.37888873,-0.7370162,-0.10707773,0.45984682,0.7533139! 0.0,0.16947949,-0.0102113485,0.7245564,1.0091736,-0.09151852,0.32874486! #0.0,-0.06448103,0.008525159,-0.13182008,-0.4897294! 0.0,-0.36688134,0.2820887,-0.5792023,0.40867555! 
0.0,0.4922756,-0.40227905,-0.36646762,-0.17381954,-0.7676159,0.4480102! 0.0,0.6188675,-0.9070605,-0.38041818,-0.3920585,-0.9005228,0.045312103! 0.0,0.9524796,-0.9726546,-0.7370162,0.21978489,-0.7679368,-0.3826213! 0.0,-0.60959804,-0.0102113485,0.7182849,-0.8199992,-0.09151852,0.622451! #0.0,-0.06448103,-0.28272855,-0.63327086,0.1843884! 0.0,-0.36688134,0.75418854,0.23180087,0.40867555! 
0.0,0.3010112,0.1836605,0.5408084,-0.96110106,0.097972155,0.23684788! 0.0,-0.20037279,-0.21218815,-0.36299407,0.04220764,0.8869127,0.34978294! 0.0,0.18935505,-0.86907196,-0.8920428,0.25361633,0.45984682,0.47269595! 0.0,0.13060737,0.6121774,0.14587158,0.9170813,0.13357368,-0.49258137! #0.0,0.06627721,0.0034349188,0.2889804,-0.68530965! 0.0,-0.30888855,0.19828103,0.57164884,0.8645263! 
0.0,-0.9302857,-0.3958212,-0.767017,0.8025416,-0.34800375,-0.27270293! 0.0,0.7593334,-0.64491916,-0.47382677,-0.9546895,-0.8895112,0.779111! 0.0,-0.75665355,0.8122215,-0.93116933,0.74498284,0.93801534,0.67491686! 0.0,-0.7421969,-0.75228876,-0.97583187,-0.88897824,-0.72016454,0.6960547! #0.0,-0.025494337,0.46301425,-0.9433837,0.51950014! 0.0,0.4569695,0.77613807,0.5732893,0.6404638! 
0.0,-0.45702672,0.67982876,-0.9448986,-0.85661983,0.80873513,0.4225521! 0.0,-0.84262156,-0.9317708,0.6617351,-0.9652632,0.354465,-0.6674192! 0.0,0.45176148,-0.68982244,0.60563886,-0.45123136,0.68965375,0.6726647! 0.0,0.38081846,0.39748275,0.43169415,-0.38909602,0.7398747,-0.7602291! #0.0,-0.066651225,0.008525159,0.37679446,-0.4416671! 0.0,-0.6365093,0.61500394,0.18303883,0.65956926! 
0.0,-0.659212,0.53572786,0.8034469,0.7190242,-0.91145337,-0.031273484! 0.0,0.44903576,0.9270114,0.18506555,-0.37920976,-0.4033082,0.5516132! 0.0,0.44993174,-0.62516797,-0.98347116,-0.058769096,-0.3041764,0.50058687! 0.0,0.2294642,-0.0102113485,-0.5869514,0.7668778,-0.84701854,0.40834427! #0.0,-0.36560118,-0.46492696,-0.35987544,-0.5155982! 0.0,-0.69396985,-0.41679227,0.26548278,0.5316535! 
0.0,0.86729956,-0.08891243,-0.4609388,-0.019418716,0.9094899,-0.00912923! 0.0,-0.32032347,-0.26195335,-0.57142496,0.093835235,0.87569785,0.5253514! 0.0,-0.14922833,-0.56533134,-0.6349304,0.73990226,-0.49568748,0.5927694! 0.0,-0.5905725,-0.24154425,-0.6195027,-0.11823344,0.048341103,0.9060992! #0.0,-0.006486416,0.42223823,0.83657014,0.38897812! 0.0,-0.12807812,-0.35723245,0.7761368,0.15815532! 
0.0,-0.18145023,0.532776,-0.33681262,0.75301635,0.8501854,-0.84931815! 0.0,-0.6555537,-0.8820498,0.73519456,-1.0022215,-0.1408631,0.84100443! 0.0,0.73039,0.36049783,0.8173453,0.9889941,-0.10089854,0.6443821! 0.0,0.919669,0.030291043,0.80427146,0.07963455,0.6048558,-0.49258137! #0.0,-0.062293172,-0.32324633,-0.83697224,0.9389807! 0.0,0.32700276,-0.2450341,0.74131346,0.22848508! 
0.0,-0.89265645,0.482751,-0.24657547,-0.4935764,0.39362836,-0.39003336! 0.0,-0.32765225,0.67686296,-0.58060956,-0.7811731,-0.85556626,-0.11399603! 0.0,0.8823736,0.2629345,0.1715927,-0.1990099,0.62727964,0.124332905! 0.0,0.27052736,-0.9014703,0.6020163,-0.24719751,0.23335862,0.70581055! #0.0,0.6307193,0.8344083,-0.7592125,0.6085967! 0.0,-0.35855454,0.3291056,-0.3727926,0.39480245! 
0.0,-0.5029137,0.53572786,-0.9448986,-0.85661983,0.25413704,0.692374! 0.0,-0.72653866,-0.9317708,-0.122474015,-0.37920976,0.72771204,-0.6674192! 0.0,-0.67601633,-0.68982244,-0.98455065,-0.6989578,0.6420898,-0.65946984! 0.0,0.5604466,0.03578346,0.30364883,0.7668778,0.7398747,-0.7602291! #0.0,-0.36560118,0.008525159,-0.029695977,-0.4416671! 0.0,0.43085003,-0.43629062,0.81184494,0.25381607! 
0.0,0.4922756,-0.40227905,-0.35585338,-0.1789608,0.816988,0.65027964! 0.0,0.6188675,0.48651472,0.36289048,0.6089606,0.5953487,-0.3631878! 0.0,0.31931093,-0.9726546,-0.7370162,0.7026688,-0.9716677,0.8017718! 0.0,-0.46709242,-0.69439876,0.7245564,-0.19399786,-0.49554265,0.5130565! #0.0,0.49885428,-0.13840659,-0.13182008,0.1843884! 0.0,-0.070448875,0.48796317,-0.8219409,0.91757005! 
0.0,0.51059324,0.98801005,-0.37893236,0.7190242,0.023627043,-0.59620845! 0.0,-0.6242875,-0.11883366,0.73999155,-0.37920976,-0.38509944,0.5516132! 0.0,0.7250389,-0.28237772,-0.98347116,-0.058769096,-0.17712271,0.5327438! 0.0,-0.35502163,-0.0102113485,0.38112092,0.37638283,-0.8951786,-0.6588501! #0.0,0.25893998,-0.7410735,-0.24929142,-0.5155982! 0.0,0.8487608,-0.4624957,-0.15917027,-0.6390644! 
0.0,0.8648052,-0.055200096,-0.30097497,-0.34409145,-0.43511415,0.026001614! 0.0,0.07527113,0.7880256,0.5466979,-0.93550795,0.24255574,0.63063335! 0.0,0.039148536,0.8801708,0.010424793,-0.837697,0.3289038,-1.020641! 0.0,0.38081846,-0.07980871,0.43169415,-0.36112,0.18301463,-0.07680237! #0.0,0.3973713,-0.11673546,-0.10101631,0.5164299! 0.0,-0.2609782,-0.43629062,-0.08027345,-0.2285229! 
0.0,-0.024951696,-0.5937232,-0.37096858,-0.27776644,-0.4793042,0.9213114! 0.0,0.74384487,0.78765607,0.7484733,0.0055547953,0.37772405,-0.163625! 0.0,0.99919033,-0.83555543,0.65463173,-0.6799463,0.46813715,-0.21876025! 0.0,-0.08604109,0.06717999,-0.8256841,0.530851,-0.6248441,0.88111585! #0.0,-0.41781092,0.67209816,-0.03647993,-0.9663265! 0.0,0.17783415,0.434726,-0.9057461,-0.55541825! 
0.0,-0.861493,-0.17109334,-0.53848815,0.14288902,-0.74957,-0.568694! 0.0,0.58113587,-0.8820498,0.64257157,-0.9545652,-0.47150183,-0.7503204! 0.0,-0.29786634,0.54597414,-0.92849004,-0.17044866,-0.5408775,-0.34913823! 0.0,-0.85012543,-0.17094052,-0.31990182,-0.46105707,0.647623,-0.49258137! #0.0,-0.2116117,-0.6184896,0.073076434,-0.017932773! 0.0,0.46320376,-0.46183884,0.16434026,0.965417! 
0.0,0.39185333,0.8502096,0.6421164,0.5743023,-0.90964,-0.5202762! 0.0,-0.9481952,-0.38819957,-0.25060105,0.79019403,-0.5135311,0.4392407! 0.0,-0.01087904,0.11016502,0.5591233,0.3970614,0.807271,0.26963365! 0.0,-0.2533313,0.031593833,0.98047256,-0.9740766,0.86678606,0.4767824! #0.0,-0.034748737,-0.13929868,0.76111495,0.9964442! 0.0,-0.3263922,0.57807493,-0.7786263,-0.72169447! 
0.0,-0.6338582,-0.21340936,0.85227394,-0.14068967,-0.65079474,-0.06420648! 0.0,0.09637201,-0.1520223,0.51978874,-0.26169372,0.83756363,0.5838895! 0.0,-0.95363367,-0.20427263,-0.05865276,0.31740928,-0.5018635,0.06788337! 0.0,-0.33962727,-0.31932297,0.18609726,-0.55345404,0.45270777,0.7694156! #0.0,0.8189863,0.35576653,-0.4721166,0.85622895! 0.0,-0.17271233,0.554795,0.35637614,-0.28830588! 
0.0,-0.52528334,-0.620741,-0.33379138,-0.8871159,0.6145848,-0.87241614! 0.0,-0.75801516,-0.35519752,-0.25530505,0.31154814,-0.4019742,-0.6441842! 0.0,0.44258118,-0.26500428,0.6442539,-0.058769096,-0.3041764,-0.66020644! 0.0,0.38081846,0.03578346,0.19427967,0.7668778,0.13357368,-0.07680237! #0.0,-0.36560118,0.056966376,-0.24929142,0.4358872! 0.0,-0.29555506,-0.6955194,-0.41796207,0.7550143! 
0.0,-0.040047474,0.6216643,-0.020593047,-0.2868178,-0.46399382,0.026001614! 0.0,0.36242685,-0.81082666,0.20168877,0.49162012,0.23563766,0.795449! 0.0,0.73039,0.67687154,0.16578734,0.2799884,-0.6232922,0.45858434! 0.0,0.012043778,0.030291043,-0.33397597,-0.96003973,-0.3571833,-0.669464! #0.0,-0.020731237,-0.33629677,-0.83697224,0.95981336! 0.0,-0.19188246,-0.5094807,-0.48324084,-0.9589285! 
0.0,0.15118885,-0.6171346,-0.33379138,0.99797297,-0.42161426,0.040318582! 0.0,-0.2536236,-0.15697442,-0.24599755,0.12015566,-0.11885619,-0.6674192! 0.0,-0.16670501,-0.68982244,0.32409626,-0.837697,0.6695721,0.6726647! 0.0,0.5604466,0.7045351,-0.6827581,-0.38909602,0.7398747,-0.7602291! #0.0,-0.066651225,-0.11673546,0.7038943,0.9075744! 0.0,-0.6365093,0.2820887,0.18303883,0.63942087! 
0.0,-0.47845888,0.6230395,0.03066492,-0.8661612,-0.96915495,0.15257022! 0.0,0.4314853,-0.89465535,0.87567574,-0.23450214,-0.47150183,0.3578461! 0.0,0.7383749,-0.19582069,-0.006259378,0.3970614,-0.6562089,0.611435! 0.0,0.10615599,0.049531884,0.8385429,-0.65766037,0.5911176,0.9060992! #0.0,-0.006486416,-0.12160367,-0.83697224,0.4358872! 0.0,-0.13635528,-0.6565772,-0.8219409,-0.72169447! 
0.0,0.8894216,-0.6171346,0.35558558,-0.9797039,0.683764,-0.25002363! 0.0,-0.12631333,0.38552845,-0.7343728,-0.49992335,-0.11755414,0.47075474! 0.0,0.083777666,-0.16942595,-0.40666562,-0.7830366,-0.06447983,0.79028535! 0.0,-0.11776066,-0.5699688,0.8423022,-0.24857855,-0.49554265,-0.7162006! #0.0,0.3808749,0.008525159,0.65284085,-0.5425217! 0.0,0.15600395,-0.4326843,-0.26765132,-0.56423926! 
0.0,-0.94056153,0.7369057,0.39672756,-0.46964297,0.65962946,0.35345644! 0.0,0.23029506,-0.83373576,-0.50157946,-0.9545652,-0.47150183,-0.8837686! 0.0,-0.29786634,-0.25312197,-0.92849004,-0.6003095,-0.74930334,-0.34913823! 0.0,0.024354115,-0.17094052,-0.020513892,0.3600335,0.647623,-0.49258137! #0.0,0.3973713,-0.6184896,-0.61847925,0.77974534! 0.0,0.46320376,-0.5545048,0.68822634,0.447856! 
0.0,0.9401915,-0.75381434,-0.7582362,-0.60393083,0.8501854,-0.24755192! 0.0,-0.03965331,0.65083283,0.6977689,0.47959778,-0.29745877,-0.9963446! 0.0,0.5695282,-0.323938,0.041062035,0.94708467,0.80183494,-0.6756065! 0.0,0.16095278,0.026492387,0.5855018,0.63971645,-0.30621147,-0.035884023! #0.0,-0.10324087,-0.32324633,0.25777364,0.38330233! 0.0,0.32700276,0.27973676,0.7228714,0.78860164! 
0.0,0.5202562,0.52001125,0.03066492,0.8581785,0.10265518,0.42771745! 0.0,-0.75801516,-0.89465535,-0.5228339,-0.53038234,-0.7578392,0.40709794! 0.0,0.55957794,0.7488892,-0.99730873,-0.6989578,-0.67586553,0.96832836! 0.0,0.87214446,0.03578346,0.8507727,0.9198728,0.86548746,0.15435326! #0.0,-0.36560118,0.008525159,-0.10258471,0.4358872! 0.0,-0.13635528,-0.4149297,0.81184494,0.25381607! 
0.0,0.3010112,0.24571048,0.088891745,-0.045204997,0.09825301,-0.064074755! 0.0,0.9690779,0.67686296,-0.48880863,-0.96139324,0.40012276,-0.83329415! 0.0,0.18935505,-0.1931152,-0.7689216,0.22105563,-0.3671844,-0.5761256! 0.0,-0.040710926,0.6367578,-0.3786146,0.22596717,-0.41260904,0.0070827045! #0.0,-0.062293172,-0.05840541,-0.8000661,0.52505445! 0.0,0.4561795,-0.4624957,-0.70697236,-0.3777697! 
0.0,0.8596326,-0.7161227,-0.7915729,-0.94792366,0.6197289,-0.2526525! 0.0,-0.6833874,-0.97702515,0.6977689,-0.9652632,-0.29745877,-0.9963446! 0.0,0.5695282,-0.323938,0.06743391,0.7869123,0.80183494,0.6726647! 0.0,0.16095278,0.026492387,0.5855018,-0.508994,-0.30621147,-0.06134142! #0.0,-0.10324087,0.047799744,0.2567893,0.38330233! 0.0,-0.38076615,-0.39230883,-0.011547446,-0.95701694! 
0.0,-0.51185274,0.28248012,0.29172647,0.5435196,-0.0035766363,0.5223659! 0.0,-0.6215293,-0.38819957,0.87567574,-0.9589671,-0.113583766,-0.6326165! 0.0,-0.55236244,-0.05883956,0.042640846,-0.43648225,-0.34229633,-0.35090706! 0.0,-0.42905593,0.092582345,0.3521924,-0.65766037,0.57078165,0.9060992! #0.0,-0.01180768,0.25296295,0.1410346,0.08788729! 0.0,0.52183735,-0.30012992,-0.45669183,-0.92873657! 
0.0,0.51059324,0.53572786,0.8034469,0.7190242,-0.024664164,-0.8978903! 0.0,0.7065879,0.073697835,-0.38041818,-0.34488618,0.20076841,0.98532593! 0.0,0.44993174,0.74579215,-0.8689424,0.8587705,-0.3041764,0.50058687! 0.0,0.9101875,0.36945224,0.7245564,0.7668778,-0.84701854,-0.6588501! #0.0,-0.24389052,0.52950907,-0.24929142,0.26112294! 0.0,0.8487608,-0.4624957,0.4027393,-0.66158736! 
0.0,-0.737378,-0.012026906,0.87183785,-0.4377442,0.27343804,-0.24755192! 0.0,0.21502042,0.9212142,0.97681797,0.58348036,-0.7106329,0.74567163! 0.0,-0.7287631,-0.323938,0.35705543,0.24729455,-0.3774321,-0.9810169! 0.0,0.19225073,-0.16336799,-0.6643039,-0.8568984,-0.30621147,-0.3442905! #0.0,-0.19009066,0.052670836,0.9000623,-0.40385187! 0.0,-0.56440437,0.3319775,-0.32192257,-0.4304434! 
0.0,-0.04340723,-0.25521398,0.5387317,0.06762838,-0.43984818,0.6232487! 0.0,0.6653589,-0.35430264,-0.5279894,0.75594103,-0.66922677,0.3255049! 0.0,-0.32223487,0.72120214,-0.5116702,-0.54894936,-0.077293634,-0.7864331! 0.0,0.38081846,-0.7970259,0.96484834,-0.95587474,0.2680751,-0.6909934! #0.0,-0.41238344,-0.13139576,-0.6971809,0.13344492! 0.0,0.44839597,-0.24361098,0.06119287,0.4583671! 
0.0,0.014374204,0.53572786,-0.41517866,-0.94792366,-0.91145337,-0.59620845! 0.0,-0.21791558,0.073697835,-0.38041818,-0.37920976,-0.08085418,0.40709794! 0.0,0.24455607,0.7488892,-0.98347116,-0.8296902,-0.3041764,-0.8759037! 0.0,-0.31485683,0.03578346,0.30364883,-0.7743768,-0.84701854,-0.6588501! #0.0,-0.36560118,0.42223823,-0.21965921,0.02887094! 0.0,0.86467934,-0.4624957,0.83764845,-0.24098098! 
0.0,0.4922756,0.22451317,-0.36202234,0.7190242,-0.7676159,0.47320765! 0.0,0.44903576,0.20701551,-0.48880863,0.42021394,-0.08085418,-0.45830414! 0.0,0.44993174,-0.94853926,-0.16684076,-0.54894936,-0.45685256,0.6443821! 0.0,0.82285726,0.05763185,0.93366855,0.9300019,0.89647377,0.12095332! #0.0,-0.01180768,0.13687599,-0.19781719,-0.2989058! 0.0,-0.09664555,-0.6457603,0.36477673,0.7676201! 
0.0,0.4922756,-0.9308393,0.03066492,0.120776534,-0.60820997,0.42771745! 0.0,-0.2291987,0.70384693,-0.5228339,-0.53038234,-0.0473634,0.39729923! 0.0,-0.28300238,0.7488892,0.6982119,-0.4417067,-0.67586553,0.96832836! 0.0,0.6759939,0.909336,0.8507727,0.9198728,0.86548746,-0.9132267! #0.0,-0.03881383,-0.4217461,-0.32064307,-0.637305! 0.0,-0.13635528,-0.6565772,-0.8219409,-0.9252329! 
0.0,-0.8890737,-0.40227905,0.088891745,-0.62783146,0.111243606,0.47320765! 0.0,0.87426436,-0.07987334,0.6977689,0.2963832,-0.08085418,-0.4721428! 0.0,-0.14922833,-0.35993025,0.31367457,0.2213768,-0.33739614,0.6443821! 0.0,0.82285726,0.079455346,-0.84516263,0.9271524,0.21456409,-0.4753604! #0.0,-0.01180768,-0.44157368,0.28490093,0.7069477! 0.0,-0.56440437,0.60503066,0.07056582,0.7222632! 
0.0,0.51059324,0.6230395,0.8034469,0.7190242,-0.91145337,-0.59620845! 0.0,0.864761,-0.04120493,0.60428786,-0.38509932,-0.4033082,0.5516132! 0.0,0.40230665,-0.323938,-0.34562898,-0.058769096,-0.33739614,0.50058687! 0.0,0.2294642,-0.63802123,0.19427967,-0.38214898,-0.84701854,-0.6588501! #0.0,-0.36560118,0.38776827,-0.2893833,0.38330233! 0.0,0.8487608,-0.4624957,0.81184494,-0.67724735! 
0.0,0.4922756,-0.3018459,-0.36202234,-0.27776644,-0.96915495,-0.5891143! 0.0,0.37743056,-0.56229854,0.77267575,-0.23450214,-0.47150183,-0.3631878! 0.0,-0.29786634,-0.9726546,0.20776898,-0.62911713,0.57196593,0.69265056! 0.0,0.77426744,0.10231003,0.7245564,-0.26073495,-0.2831713,0.12095332! #0.0,-0.06448103,0.8037803,-0.13182008,0.039713632! 0.0,0.30947033,-0.6457603,-0.8219409,-0.95701694! 
0.0,0.44751954,-0.6845008,0.92509335,0.88052547,-0.89178205,-0.49104166! 0.0,0.9622011,-0.89465535,-0.9937902,0.8429625,0.49829525,0.022641182! 0.0,0.2944776,0.21574688,-0.24113332,-0.058769096,-0.14394066,0.37836784! 0.0,0.24751472,-0.6831789,0.89834327,0.26334283,0.013308167,0.82140636! #0.0,0.09333287,-0.067928314,0.5306146,-0.52558833! 0.0,0.4129659,-0.14577103,-0.6950224,-0.808012! 
0.0,-0.66929936,-0.8706623,-0.34700975,-0.17381954,-0.9514713,0.8517871! 0.0,0.6188675,0.99771,-0.7466641,-0.78390044,-0.20021975,0.7574424! 0.0,-0.14715533,0.2629345,0.1715927,0.22105563,-0.9716677,-0.2647909! 0.0,-0.5754027,0.6274597,-0.6099111,-0.0011513121,0.020538092,0.35394788! #0.0,0.7867007,0.34353846,0.06295872,0.57061017! 0.0,-0.36688134,0.307763,-0.43037015,0.447856! 
0.0,0.9401915,-0.65626955,0.015459511,-0.63181734,0.8501854,0.026001614! 0.0,-0.019533217,-0.8820498,0.6977689,0.49162012,-0.1408631,0.795449! 0.0,0.5695282,-0.323938,0.06743391,0.9889941,-0.10089854,-0.65946984! 0.0,0.012043778,0.026492387,0.5855018,0.26813948,-0.11913107,-0.669464! #0.0,-0.10324087,-0.32324633,-0.83697224,0.38330233! 0.0,0.32700276,-0.43629062,0.7228714,-0.9589285! 
0.0,-0.643512,0.4267373,-0.052417994,-0.94222397,-0.90418196,0.17620754! 0.0,0.19898474,0.16354191,-0.28971863,-0.49992335,0.83756363,0.32569277! 0.0,-0.28300238,0.4175787,0.10225773,-0.524374,0.38222134,0.7533139! 0.0,-0.42817628,-0.52021307,0.18609726,0.2936175,0.22376537,0.52845! #0.0,0.9469545,0.011488941,-0.21278119,0.9075744! 0.0,-0.0081727505,0.554795,-0.59630513,0.45999295! 
0.0,0.87915385,0.6761885,-0.36202234,-0.048701525,0.28676414,-0.5891143! 0.0,-0.66365266,-0.89465535,-0.38041818,-0.96139324,-0.4033082,0.5516132! 0.0,0.4865979,-0.7845317,-0.54612905,-0.3065617,-0.45685256,0.6443821! 0.0,0.2294642,-0.0102113485,-0.040807843,-0.4948759,-0.9922623,0.12095332! #0.0,0.09333287,0.3917532,-0.08449264,-0.5717468! 0.0,0.40936396,-0.4624957,-0.8182125,0.8169889! 
0.0,-0.889495,-0.6302706,0.088891745,-0.60393083,-0.8388447,0.692374! 0.0,0.87426436,-0.8820498,0.6977689,0.51747924,-0.6812632,-0.9897604! 0.0,0.5695282,-0.5433279,-0.34562898,0.2213768,-0.33739614,-0.6756065! 0.0,-0.46353757,-0.63802123,0.6613189,-0.2519937,0.21456409,-0.4753604! #0.0,0.6307193,-0.32324633,0.23675488,0.7069477! 0.0,-0.22446239,0.3319775,0.07056582,0.36534238! 
0.0,-0.52719593,-0.9308393,-0.53848815,0.120776534,-0.60820997,0.48683214! 0.0,0.5253731,0.7253763,0.64257157,0.33695972,0.57472277,0.5110769! 0.0,-0.6124228,0.2364684,0.3404106,-0.5009615,-0.5581155,0.78754115! 0.0,0.8381616,-0.62450564,-0.1684246,-0.46105707,0.8572248,-0.31225872! #0.0,-0.5326401,-0.46511376,-0.32064307,-0.637305! 0.0,-0.84272504,-0.085314035,0.8822473,0.51149964! 
0.0,-0.69971895,-0.026054025,0.9210424,0.6284579,-0.84564745,0.6728225! 0.0,0.21502042,-0.78304815,0.77051044,-0.96139324,-0.7106329,0.3578461! 0.0,0.7217932,0.92617357,0.60908926,0.21438086,-0.16100514,-0.9810169! 0.0,-0.23629153,-0.16336799,-0.9426117,-0.8568984,-0.055087853,-0.3442905! #0.0,-0.19009066,0.052670836,0.9000623,-0.40385187! 0.0,-0.44728446,-0.17488194,0.6209259,-0.4304434! 
0.0,0.4922756,0.51317704,0.03066492,0.81113994,-0.4157084,0.4743604! 0.0,-0.72286963,-0.9070605,0.26244402,0.79501164,0.56046176,-0.88152367! 0.0,-0.9940125,0.6861986,0.33981422,0.7869123,-0.14375658,0.49462092! 0.0,-0.42905593,0.7047282,-0.020513892,-0.8199992,0.89647377,0.41690585! #0.0,0.37706554,-0.28272855,-0.63327086,0.77974534! 0.0,-0.34802485,0.75418854,0.68822634,0.45426583! 
0.0,-0.87735176,-0.33866632,-0.9060751,0.9297443,0.24391532,-0.49615526! 0.0,-0.14214075,-0.8855908,0.7606101,-0.23450214,0.73158294,0.63012433! 0.0,0.1346927,-0.6825559,0.059471395,-0.6621896,0.46813715,-0.4084278! 0.0,0.54997385,-0.88177764,0.551726,-0.9335973,0.13357368,0.3622394! #0.0,-0.087274194,-0.11673546,-0.31369823,0.0059729815! 0.0,-0.2768817,-0.4624957,0.5239357,0.6828103! 
0.0,-0.879111,0.67982876,0.088891745,0.034000855,0.76736605,0.42771745! 0.0,0.7619941,0.6417581,0.61435044,-0.96139324,0.354465,0.47614697! 0.0,-0.09725231,-0.26500428,-0.7632108,-0.6882405,0.6680465,-0.16919899! 0.0,0.38081846,0.444108,0.43169415,-0.24650854,0.26934493,0.951353! #0.0,0.3973713,-0.13139576,0.8973386,0.5684162! 0.0,-0.2609782,-0.4610165,0.12223828,0.8608742! 
0.0,-0.040047474,0.6216643,-0.31893992,-0.2868178,0.5667249,0.5223659! 0.0,-0.26337218,0.0024261586,0.1929611,0.8039464,-0.36330628,0.15809692! 0.0,0.27145895,-0.4804188,0.85708404,0.2799884,-0.81017256,0.45713955! 0.0,0.84056544,-0.9455887,-0.33397597,-0.96003973,0.11275303,-0.8910753! #0.0,-0.9455383,0.414958,-0.344499,0.8589808! 0.0,-0.4659748,-0.5094807,-0.48324084,-0.91594017! 
0.0,-0.87735176,0.5211344,-0.33681262,-0.45527837,-0.0035766363,-0.5723404! 0.0,-0.66365266,-0.83518624,-0.38041818,0.42021394,-0.08085418,-0.36128286! 0.0,0.48211765,-0.95963573,0.7655691,-0.058769096,-0.9774872,-0.9952581! 0.0,0.919669,-0.0102113485,0.80427146,0.09944213,-0.9922623,-0.0525645! #0.0,-0.36695516,0.046454746,-0.097536206,0.9256091! 0.0,0.5966743,-0.2450341,0.6311694,0.7676201! 
0.0,0.65551925,0.28248012,-0.37355196,-0.9677708,0.49705216,0.23695362! 0.0,-0.32032347,-0.38819957,0.87567574,0.44862366,0.40012276,0.3578461! 0.0,-0.12732193,-0.6868011,0.042640846,0.3970614,0.09214795,0.611435! 0.0,-0.42905593,0.07411708,-0.46109882,0.51953495,-0.9198172,0.9060992! #0.0,-0.062293172,0.1296654,0.5723259,-0.46592045! 0.0,-0.2839923,-0.35723245,-0.2751525,-0.72169447! 
0.0,0.12032561,0.62664247,0.53356254,0.88052547,0.09806335,0.29296675! 0.0,0.4314853,0.8726727,-0.5844511,0.1511935,0.0019802041,0.20776272! 0.0,0.44158614,0.6537384,0.042640846,0.11258042,-0.2773078,0.13819337! 0.0,-0.43423626,0.9378873,-0.17094445,0.26683894,-0.8489414,0.7173326! #0.0,-0.36848283,-0.39973548,-0.20267312,-0.21153736! 0.0,0.38930392,-0.045114912,0.68163943,-0.923646! 
0.0,0.4714376,-0.08891243,-0.4609388,-0.019418716,0.9094899,-0.3530326! 0.0,-0.3083639,-0.26195335,-0.7343728,0.093835235,0.08923888,0.5253514! 0.0,0.265054,-0.56533134,-0.40666562,-0.50209713,0.96440685,0.5927694! 0.0,0.7169664,-0.5699688,-0.6133632,-0.95587474,0.05868822,-0.7162006! #0.0,-0.006486416,0.008525159,-0.26278615,0.38897812! 0.0,-0.22446239,-0.060330737,0.33748043,-0.87798715! 
0.0,0.15118885,-0.1217774,-0.36202234,0.7190242,-0.91145337,-0.9182832! 0.0,0.44903576,-0.5702021,-0.38041818,-0.49992335,-0.4033082,0.32569277! 0.0,0.44993174,-0.13755357,-0.7984067,-0.62911713,0.095063485,0.7533139! 0.0,0.2245701,-0.0102113485,0.2965585,-0.14908342,-0.49554265,0.12095332! #0.0,-0.06448103,0.13687599,0.7038943,-0.23329736! 0.0,0.8731269,-0.33286315,-0.30243373,-0.56423926! 
0.0,0.9167843,0.4267373,-0.90728086,-0.045204997,0.09825301,0.5223659! 0.0,0.39131966,-0.93864816,-0.75433993,0.11231685,-0.042055696,-0.6326165! 0.0,0.37498307,-0.33487314,-0.80511725,0.11258042,0.45984682,-0.097157076! 0.0,-0.6021857,-0.06292403,-0.8181195,-0.47071373,0.57078165,0.9570421! #0.0,0.26932776,-0.685518,0.15638915,0.08788729! 0.0,-0.60050166,0.60503066,-0.45669183,-0.92873657! 
0.0,-0.9724798,-0.44446993,0.7089243,0.8786291,0.56584847,-0.9126307! 0.0,-0.96827054,0.21250212,-0.19413972,-0.9192232,0.8768051,0.40681732! 0.0,-0.4820063,-0.98896956,0.74028313,0.7789769,-0.29882264,-0.42879367! 0.0,0.569745,0.64370227,0.37070608,0.7668778,-0.32560647,0.7834219! #0.0,-0.36560118,0.6906109,0.9712529,-0.58607244! 0.0,-0.4088483,-0.4783082,-0.15068078,-0.87440634! 
0.0,-0.42940548,-0.94535047,0.33225304,-0.07836775,0.093223095,0.91692305! 0.0,0.6188675,-0.8855908,-0.6409935,0.6089606,0.15615529,-0.035541892! 0.0,0.47933507,0.67687154,-0.08822429,0.34743297,0.6876989,0.6465434! 0.0,-0.26096344,0.22455657,0.25948137,-0.47283876,0.57078165,0.4336294! #0.0,-0.36560118,0.414958,-0.1801995,0.3785932! 0.0,-0.77704453,-0.52487266,0.33748043,0.45667744! 
0.0,-0.018723845,-0.6722913,0.47932887,-0.061950605,-0.9514713,-0.07120991! 0.0,0.44903576,0.11560702,0.8801701,-0.6711693,0.07854819,-0.92975605! 0.0,-0.24953234,0.014747536,-0.30073035,0.25361633,0.45984682,0.5374349! 0.0,-0.19543791,0.6761104,-0.09143771,0.12993693,0.88135296,-0.49258137! #0.0,0.06627721,-0.44157368,0.07161017,0.95799744! 0.0,0.3842229,-0.4291594,-0.48324084,0.46844083! 
0.0,0.4853567,0.22451317,-0.34700975,-0.45527837,-0.91145337,-0.5891143! 0.0,-0.66365266,-0.89465535,-0.7466641,0.6089606,-0.4033082,-0.36128286! 0.0,0.4865979,0.2629345,-0.54612905,0.21978489,-0.9774872,0.7533139! 0.0,0.2294642,-0.0102113485,0.7245564,0.22815973,-0.20659095,0.12095332! #0.0,0.09333287,0.046454746,0.06295872,0.57061017! 0.0,-0.36688134,-0.4624957,-0.4140041,0.7613874! 
0.0,0.097552374,-0.28990853,0.53270745,-0.15153138,0.1304022,-0.1755321! 0.0,0.087042645,-0.86013603,-0.5279894,-0.2378068,-0.88315856,0.9188752! 0.0,-0.0020668805,-0.9528978,0.20545037,-0.7920662,-0.49568748,-0.282321! 0.0,0.7892873,0.6761104,0.07756233,0.15640284,0.0872031,0.7188362! #0.0,-0.03881383,-0.6184896,-0.7409948,-0.4700117! 0.0,0.29868752,-0.4291594,-0.8219409,0.4583671! 
0.0,0.5654093,0.117853165,-0.42916223,-0.94792366,-0.90418196,0.7166513! 0.0,-0.21791558,0.8726727,-0.48880863,-0.8401698,-0.12291737,0.5516132! 0.0,0.265054,0.7488892,-0.54612905,-0.8296902,0.14104848,-0.8759037! 0.0,0.023963451,0.03578346,-0.9855204,-0.7735379,0.8907341,0.12095332! #0.0,0.12665696,0.27730158,-0.21965921,-0.52558833! 0.0,-0.34247088,-0.5776123,0.86644566,0.34536636! 
0.0,-0.9197384,0.6230395,-0.24748361,0.6512624,0.60097194,-0.7239822! 0.0,-0.42183435,-0.42686749,0.08161867,-0.17731571,0.26518428,0.3578461! 0.0,0.613716,0.20227122,-0.93650925,0.11258042,-0.9472472,0.6780961! 0.0,0.6854595,0.19312823,0.69572103,0.29158604,-0.2828922,-0.5029702! #0.0,0.048691392,0.16903687,0.115257666,-0.671913! 0.0,-0.56913173,-0.85197616,-0.7356291,-0.11028673! 
0.0,-0.93234706,0.28099513,0.87183785,0.22040212,-0.84564745,0.6728225! 0.0,0.57790947,-0.78414917,0.97681797,-0.61993265,0.15721083,-0.59505725! 0.0,-0.7287631,-0.9076096,-0.31766725,-0.65891194,0.22227132,-0.9810169! 0.0,-0.23629153,-0.6015518,0.2976476,0.42310894,0.72326696,-0.3442905! #0.0,-0.38391316,0.052670836,-0.54387915,0.058989763! 0.0,0.4724815,-0.08093798,-0.35799015,-0.4304434! 
0.0,0.15118885,0.26345992,-0.28225386,0.65119576,-0.45859152,0.8464658! 0.0,0.3303282,-0.18588881,0.20168877,0.12015566,-0.11755414,-0.58200836! 0.0,-0.16670501,-0.13755357,0.32409626,-0.837697,0.96440685,-1.020641! 0.0,0.38081846,-0.23730755,-0.6060928,0.2936175,-0.08398497,-0.07680237! #0.0,0.06462288,0.414958,-0.13936985,-0.0804503! 0.0,-0.92909884,-0.5094807,-0.027390838,-0.88642836! 
0.0,0.4922756,-0.28990853,0.9435957,-0.27839702,-0.96915495,-0.24755192! 0.0,-0.61207914,-0.04120493,0.53913426,-0.23450214,-0.98064506,-0.9459623! 0.0,-0.28180158,0.09325881,0.38114607,-0.175066,0.807271,-0.6756065! 0.0,0.051235437,0.10231003,0.059486628,-0.27079678,-0.2831713,-0.01216187! #0.0,-0.6975378,0.1292522,0.06648815,-0.85063684! 0.0,0.29048362,-0.007786371,0.021774054,-0.95701694! 
0.0,-0.30105913,-0.6950147,0.92509335,0.53458923,-0.25691772,0.8434645! 0.0,0.6852397,0.8608562,-0.32909727,-1.0113294,0.946139,0.94039047! 0.0,-0.61772317,-0.34942687,0.7525089,-0.20871282,0.3503754,0.014473796! 0.0,-0.934741,-0.37213168,0.9269769,0.09707081,-0.27346066,0.15435326! #0.0,0.88042676,0.07967807,-0.5059291,-0.6440468! 0.0,-0.16404855,-0.3281027,-0.9295552,0.45359874! 
0.0,-0.9349391,0.26617074,-0.5666448,0.26301813,-0.46311066,0.4480102! 0.0,-0.21580973,-0.7991594,0.53913426,-0.25447693,0.585441,0.4256791! 0.0,0.9322125,-0.9230731,-0.9098332,0.6408981,0.807271,0.57264364! 0.0,0.051235437,0.95830524,0.5197669,-0.2949304,0.31194818,0.15435326! #0.0,-0.006486416,0.22845341,-0.11238581,0.55396616! 0.0,0.49366692,-0.263885,-0.8219409,0.06478931! 
0.0,0.90374964,0.647686,-0.37893236,-0.53295195,0.816988,0.65027964! 0.0,-0.036556903,-0.11883366,0.73999155,-0.29290617,0.5953487,-0.19242764! 0.0,0.7250389,-0.28237772,0.6789131,0.7026688,0.96440685,-0.9631802! 0.0,-0.46709242,0.047797203,0.35201573,0.2936175,-0.43529868,-0.99124813! #0.0,0.49885428,-0.12146139,0.7208301,-0.6882323! 0.0,0.48226917,0.48796317,-0.15917027,0.91757005! 
0.0,0.4922756,-0.28990853,0.9382076,-0.27776644,-0.90964,-0.5891143! 0.0,-0.944091,-0.9317708,-0.48880863,-0.23450214,-0.98064506,0.3578461! 0.0,-0.75070786,0.11471522,0.61560977,-0.175066,0.84094423,0.26963365! 0.0,-0.2533313,0.10231003,0.059486628,-0.9740766,-0.2831713,-0.9046526! #0.0,-0.31060493,0.008525159,0.76111495,0.039713632! 0.0,-0.22446239,-0.42188558,0.9013393,0.5735168! 
0.0,-0.04340723,-0.28573453,0.99073243,0.06762838,0.5666974,-0.5891143! 0.0,0.6653589,-0.56701285,0.8233042,-0.1542808,0.24255574,0.3578461! 0.0,0.9676026,0.326169,-0.5116702,0.73634636,-0.511088,0.008347664! 0.0,-0.43423626,-0.14005661,0.8507727,-0.9182179,0.2680751,-0.6909934! #0.0,0.65804625,-0.13139576,-0.26733297,0.13344492! 0.0,-0.2609782,-0.43629062,-0.011547446,0.70814764! 
0.0,0.10866673,0.65247905,0.088891745,0.46458977,0.76736605,0.026001614! 0.0,0.7619941,0.79725695,0.07794857,-0.96139324,-0.6712202,-0.0057765245! 0.0,-0.09725231,-0.2528751,0.93799984,-0.6882405,0.77666175,0.36191833! 0.0,-0.4639449,0.8707018,0.88698816,0.79601204,-0.19755626,0.951353! #0.0,-0.08484638,-0.38931,0.7589922,0.5684162! 0.0,0.755769,-0.82150435,0.9185512,0.25413346! 
0.0,0.70513314,-0.15901816,0.29172647,-0.8986476,-0.48693427,0.9783069! 0.0,-0.35491237,-0.7305527,0.73519456,-0.9405004,0.585441,0.558287! 0.0,-0.28300238,-0.15736887,0.7939089,0.9018092,-0.6143967,0.6443821! 0.0,0.56730986,0.5613978,0.39099813,0.9198728,-0.027609248,0.1884917! #0.0,-0.03881383,0.023783922,-0.8803025,-0.8158145! 0.0,-0.17083666,0.37728298,0.17461145,0.39792025! 
0.0,-0.26849586,0.6230395,0.92509335,0.53458923,0.6197289,0.8856338! 0.0,0.44903576,-0.44053733,0.6336278,0.42021394,-0.14183426,-0.3631878! 0.0,-0.61772317,-0.34942687,0.67123324,-0.62911713,0.095063485,0.97606325! 0.0,0.2294642,-0.37213168,0.9269769,-0.28303808,-0.8034072,0.15435326! #0.0,-0.06448103,0.07967807,-0.2893833,-0.2989058! 0.0,0.8731269,-0.41495666,-0.8029196,-0.15911031! 
0.0,-0.643512,-0.26987278,-0.1264071,-0.7177981,-0.96915495,0.17620754! 0.0,0.09637201,-0.07538597,0.92010725,-0.26169372,0.83756363,-0.6326165! 0.0,-0.9654641,0.014747536,0.20545037,-0.43648225,0.38222134,0.5149789! 0.0,-0.33962727,-0.27147704,0.18609726,0.5721501,0.96293557,0.52845! #0.0,-0.2932471,0.25296295,0.07161017,0.85622895! 0.0,-0.408666,-0.556391,0.072894886,-0.5019022! 
0.0,0.4896797,-0.6722913,0.43737674,-0.7344283,-0.25691772,-0.08889016! 0.0,0.4318031,0.8608562,0.8571523,-0.74997747,0.946139,-0.29266274! 0.0,0.44453275,-0.017582592,0.7525089,-0.92458236,-0.67573166,0.014473796! 0.0,-0.19543791,0.657766,-0.09143771,0.09707081,-0.3138739,-0.4472903! #0.0,0.88042676,-0.32324633,-0.53771347,-0.62772775! 0.0,-0.16404855,-0.50532377,-0.0635252,0.46844083! 
0.0,-0.5029137,-0.7046865,0.7826836,-0.85661983,0.80873513,0.4225521! 0.0,0.37743056,-0.9317708,0.6431743,0.79046816,-0.10217059,-0.6674192! 0.0,-0.9900559,-0.68982244,0.63507056,-0.4417067,0.68965375,-0.7859684! 0.0,0.5604466,0.67362803,-0.6827581,0.12993693,-0.3346478,-0.27595964! #0.0,0.4498067,0.008525159,0.37679446,-0.4416671! 0.0,-0.16565749,-0.045114912,-0.48324084,0.48568892! 
0.0,-0.21298146,-0.8543693,-0.5260885,0.6290649,-0.003426075,0.026001614! 0.0,0.6102108,0.053052664,-0.39657688,0.20593083,0.18207598,-0.13596678! 0.0,0.31931093,-0.5853585,0.5955234,0.9625205,0.5365529,-0.57869816! 0.0,0.6940809,-0.4849583,0.72345465,-0.25334024,-0.7263461,0.17886877! #0.0,0.79490244,-0.72545815,-0.82707876,-0.8245734! 0.0,-0.28626466,-0.45608687,0.9898367,0.3779602! 
0.0,0.7370461,0.7369057,-0.9448986,0.28270128,0.8645383,-0.6180811! 0.0,0.57910895,-0.8820498,-0.50157946,-0.9545652,-0.47150183,0.5165264! 0.0,0.4831332,-0.98896956,-0.92849004,-0.5988318,0.4666183,-0.98263174! 0.0,-0.43423626,-0.17094052,0.6154527,0.7668778,0.647623,-0.49258137! #0.0,-0.36560118,-0.6184896,-0.24382114,0.3739349! 0.0,0.287149,-0.46183884,0.16434026,0.965417! 
0.0,-0.6242498,-0.6845008,-0.34700975,-0.17381954,-0.24938989,-0.93891203! 0.0,0.65170753,0.44146824,-0.38997337,-0.33077967,0.71400404,0.69873446! 0.0,0.484262,0.8375503,-0.0745728,0.64788973,0.76638365,-0.5209723! 0.0,0.9046539,-0.5699688,-0.37027216,0.5553249,-0.16766767,0.7779192! #0.0,-0.45506275,-0.33459195,0.26429546,-0.6406374! 0.0,0.010965824,-0.8997539,-0.19637658,0.7697! 
0.0,0.44535995,0.8154789,0.32390666,0.5334569,0.5667249,0.51617587! 0.0,-0.23646097,-0.9165813,0.1929611,0.980935,-0.042055696,-0.035541892! 0.0,0.6180062,-0.4975178,0.85708404,-0.094050765,-0.81017256,0.7297945! 0.0,0.84056544,0.58341753,-0.2350061,0.89882386,-0.64651704,0.34368408! #0.0,-0.90699935,-0.08619988,-0.344499,-0.122688055! 0.0,-0.47739002,-0.25528708,-0.19842052,-0.9352883! 
0.0,-0.04340723,-0.049750958,-0.33379138,0.06762838,-0.46399382,0.36880302! 0.0,-0.40439367,-0.07538597,-0.6377789,-0.57520354,-0.66922677,0.40709794! 0.0,-0.0020668805,-0.9103211,0.20545037,-0.34863287,0.7570859,0.5149789! 0.0,0.102513075,0.756974,0.43169415,-0.95587474,0.2680751,-0.6909934! #0.0,0.06462288,-0.099850774,0.07161017,-0.40443468! 0.0,-0.408666,-0.24361098,-0.4034428,-0.31085846! 
0.0,0.53416413,-0.1217774,-0.82208794,-0.18556464,0.683764,-0.9182832! 0.0,-0.6531354,-0.21984975,0.61435044,-0.47000575,0.72771204,0.32569277! 0.0,0.52568424,-0.13755357,-0.7984067,-0.6989578,0.3799739,0.7533139! 0.0,0.87214446,0.03578346,0.30364883,0.8918698,-0.49554265,-0.7162006! #0.0,0.09333287,0.008525159,-0.06261492,-0.24058473! 0.0,0.43085003,-0.43629062,-0.30243373,0.25381607! 
0.0,0.4922756,-0.40227905,-0.34700975,-0.17381954,0.8825065,-0.5891143! 0.0,0.6188675,0.8124669,-0.5844511,0.08730602,0.84032667,-0.5715071! 0.0,0.5278144,-0.10694516,-0.7370162,0.21978489,0.59494555,0.13819337! 0.0,-0.60959804,-0.0102113485,0.8390217,-0.19399786,-0.09151852,0.4336294! #0.0,-0.103974745,0.008525159,-0.87365603,-0.21153736! 0.0,0.28603864,0.2820887,-0.8219409,-0.923646! 
0.0,0.4922756,0.6480361,0.43737674,0.6717768,-0.21932793,-0.5891143! 0.0,0.44903576,-0.56701285,-0.32909727,-0.7871344,0.24255574,0.94039047! 0.0,-0.18271273,0.326169,0.67123324,-0.92458236,-0.511088,0.014473796! 0.0,-0.43423626,0.16133943,-0.33651114,0.09707081,-0.3138739,0.12095332! #0.0,0.65804625,0.20017684,-0.26733297,-0.21153736! 0.0,-0.33169866,-0.3281027,0.03522029,0.70814764! 
0.0,0.9401915,-0.6572756,0.8034469,-0.60393083,0.09806335,0.29296675! 0.0,-0.019533217,0.69071424,-0.38041818,0.47959778,0.051006228,0.5516132! 0.0,-0.97363454,-0.94479257,-0.54612905,0.9889941,0.14104848,-0.6756065! 0.0,0.16095278,0.026492387,0.5855018,-0.18432425,-0.30621147,-0.0675541! #0.0,-0.06448103,-0.32324633,0.25777364,0.38330233! 0.0,0.32700276,0.27973676,0.7228714,0.34536636! 
0.0,-0.9939213,-0.6572756,-0.38658616,-0.15153138,0.8714467,-0.064074755! 0.0,0.07527113,0.8726727,-0.5279894,0.1511935,0.6879208,0.5516132! 0.0,-1.0026432,-0.89696515,0.20545037,-0.6991715,0.14104848,0.65584147! 0.0,0.66820544,-0.0102113485,-0.9855204,0.15640284,0.0872031,0.12095332! #0.0,-0.03881383,-0.56894314,0.044690378,-0.52558833! 0.0,-0.34247088,-0.4563131,-0.8219409,0.34536636! 
0.0,-0.93234706,0.28099513,-0.74176097,0.06762838,0.9759582,0.40173888! 0.0,-0.84262156,0.6417581,0.66215575,-0.61993265,0.354465,0.47614697! 0.0,0.9236659,-0.26500428,-0.31637084,-0.2799794,0.6550185,0.49462092! 0.0,0.5446569,-0.6015518,0.2976476,0.42310894,0.2680751,0.4382025! #0.0,-0.22785914,-0.5919883,-0.6631849,0.10573983! 0.0,-0.28648093,0.61500394,0.12223828,0.7723354! 
0.0,0.37675762,-0.20385277,0.8645422,-0.55323994,0.6156577,-0.06420648! 0.0,0.20895457,-0.16119199,0.5566472,0.016516805,0.756258,-0.03626883! 0.0,-0.0745571,-0.20427263,-0.05865276,0.9879569,-0.16629922,0.5771011! 0.0,0.58885,0.89718366,-0.6024356,-0.9426254,0.18163037,-0.6893704! #0.0,-0.48577917,-0.43126166,-0.4721166,-0.65230036! 0.0,0.6763206,0.78117037,0.34478486,-0.28830588! 
0.0,-0.024951696,-0.5937232,-0.3571241,0.7453191,-0.4793042,0.04373026! 0.0,0.74384487,0.78765607,0.7484733,0.42021394,-0.37725642,0.3542297! 0.0,-0.08951926,0.74149215,0.166116,-0.13818373,-0.54906905,0.67599154! 0.0,0.2294642,0.6016716,-0.8256841,0.530851,-0.6248441,0.88111585! #0.0,-0.3882947,0.67209816,0.06648815,0.0059729815! 0.0,0.27281806,-0.5545048,-0.9057461,-0.55541825! 
0.0,-0.04340723,-0.33866632,0.29172647,-0.824459,-0.48693427,-0.49615526! 0.0,-0.34194678,-0.10775995,0.87567574,-0.9589671,-0.10488559,0.30885535! 0.0,0.91692185,-0.6825559,0.65463173,-0.35086736,0.46813715,-0.4084278! 0.0,0.09752408,0.34725988,0.6894504,0.057000995,-0.027609248,0.9060992! #0.0,-0.03881383,-0.11673546,-0.83697224,-0.46592045! 0.0,-0.17083666,-0.5545048,-0.35146677,0.6828103! 
0.0,0.9167843,0.6957519,0.035205234,-0.94792366,0.09825301,-0.5202762! 0.0,-0.9481952,-0.9317708,0.60428786,-0.53038234,-0.4019742,0.32442188! 0.0,-0.97370934,-0.9776322,0.6455195,0.08697833,-0.3671844,-0.9394875! 0.0,-0.040710926,-0.05041448,0.14908236,-0.97277045,0.89647377,-0.9046526! #0.0,0.6951255,0.008525159,-0.8030072,-0.73246694! 0.0,-0.26383322,-0.35723245,0.9013393,0.7550143! 
0.0,-0.51185274,-0.6171346,-0.9448986,-0.8661612,0.7140458,0.15257022! 0.0,-0.64101857,-0.7991594,0.87567574,-0.9589671,-0.11755414,0.32569277! 0.0,-0.12732193,-0.19582069,0.005925387,0.7879213,-0.3160625,0.611435! 0.0,-0.42905593,0.049531884,0.6894504,0.9198728,0.89647377,0.9060992! #0.0,0.49885428,0.008525159,-0.16611142,-0.46592045! 0.0,-0.17083666,-0.35723245,-0.30243373,-0.56423926! 
0.0,-0.55527544,0.21480727,0.29172647,0.32627583,-0.48693427,0.87491715! 0.0,-0.32032347,-0.7991594,0.8233042,-0.9589671,0.24255574,0.02293706! 0.0,-0.18271273,-0.19582069,0.042640846,0.73634636,-0.33814874,0.611435! 0.0,-0.42905593,0.7451825,-0.3786146,-0.856316,-0.035120767,0.9060992! #0.0,0.42082974,-0.13929868,0.16277556,-0.46592045! 0.0,-0.17083666,-0.35723245,0.21516216,-0.72169447! 
0.0,-0.879111,0.7369057,-0.9611684,-0.69940996,0.76937896,0.91692305! 0.0,-0.75801516,-0.44949925,-0.79231787,-0.96139324,-0.66922677,-0.811019! 0.0,-0.4820063,0.47427502,-0.7632108,0.21240413,-0.80606925,0.25138366! 0.0,0.7950121,0.8813907,0.069084644,-0.22486964,0.26934493,-0.6588501! #0.0,0.3973713,0.41787553,-0.5116565,0.4982549! 0.0,0.87348473,-0.4445992,0.42392594,0.25413346! 
0.0,0.4896797,-0.6950147,0.43737674,0.6717768,0.8825065,-0.5891143! 0.0,0.7641686,0.8124669,-0.5844511,0.08730602,-0.09975958,-0.5715071! 0.0,0.44453275,0.028955579,0.34414625,-0.92458236,-0.67573166,0.13819337! 0.0,-0.43423626,0.18122196,-0.33651114,-0.74969465,-0.3138739,0.68931115! #0.0,0.88042676,0.04910469,0.9401952,-0.21153736! 0.0,-0.16404855,-0.4830249,-0.10391425,0.45359874! 
0.0,0.12322724,0.21657205,-0.5815408,-0.35078245,0.41301703,-0.2367059! 0.0,-0.053125024,0.40912497,-0.18661702,0.23095834,-0.66922677,-0.5510514! 0.0,0.6329626,0.27105534,-0.52947986,-0.837697,0.7570859,0.17534995! 0.0,0.7928927,-0.11882424,0.43169415,-0.35027522,0.18301463,-0.083574! #0.0,-0.16125023,-0.42159343,0.43931365,-0.40443468! 0.0,-0.17300928,-0.24361098,-0.41796207,-0.1917149! 
