23.09889,150
0.0,0.47689128,0.6043344,0.7303194,0.18476576,0.9545612,0.17046475! 0.0,-0.75113964,0.34971923,0.73133856,-0.6197725,0.2761472,-0.42846185! 0.0,-0.5888426,0.7708477,0.8312669,0.09232247,-0.01915529,0.17072117! 0.0,0.8437865,0.58445144,-0.7148348,0.47266108,-0.38389182,-0.12754479! #0.0,0.10841091,-0.07798287,0.52047694,0.045714498! 0.0,0.29901057,0.092817426,-0.8255154,-0.15831244! 
0.61117876,0.47950372,-0.7707455,-0.5458808,0.36503816,0.48238719,-0.0497034! 0.21068645,0.7582015,-0.8133508,-0.15079416,-0.6910538,-0.20008157,-0.92622745! -0.80746067,0.8800398,-0.33135328,0.1420219,-0.8941026,0.41586483,0.89841795! 0.29262078,-0.7868618,0.19522545,-0.73817945,0.3689481,-0.19015013,-0.16944301! #0.5221784,0.29234505,0.9587395,-0.4579482,-0.73835087! -0.7716501,-0.7399866,0.8346165,0.10628331,-0.72732556! 
-0.4126438,0.9105276,0.32293755,-0.13838658,-0.47675142,-0.7892222,0.31240046! 0.0014835596,0.43824068,-0.032483704,-0.44419965,-0.058065016,0.31807923,-0.997769! 0.43195495,0.94565916,-0.75201917,-7.64776E-4,-0.6190783,0.02387333,-0.23166049! 0.4799752,-0.12705739,0.147964,-0.5338688,0.11659682,-0.52710223,0.85821223! #-0.5916798,0.33029103,0.040974975,0.7593583,-0.3156879! 0.3307624,-0.23093085,-0.1939457,-0.8898204,-0.034588575! 
0.16944556,0.50713474,-0.3262494,-0.5307838,-0.46292743,-0.008425504,0.007854413! 0.651757,0.63113207,-0.023868322,-0.13749853,-0.8468514,-0.9466049,-0.9324378! -0.08860183,0.047401343,0.99339974,-0.072227135,-0.4872606,0.07753107,-0.80601025! 0.9828799,0.4371289,0.50880015,-0.89724576,-0.92755926,0.49288392,-0.4188332! #-0.63414466,0.96113366,0.3222107,0.07903443,-0.055674728! -0.2641245,-0.35144174,0.20992786,0.11165939,-0.8873886! 
0.3848809,0.6246885,-0.72712266,-0.5504158,0.4424833,-0.5900315,0.8931935! 0.7641716,0.595382,0.33208275,-0.5851466,0.8997086,0.92828536,-0.2202961! 0.044142008,0.13419843,-0.8035329,-0.90395117,-0.0623627,-0.70425445,-0.39586315! 0.48086154,-0.8730832,-0.5174742,-0.86398137,-0.7275319,-0.47813895,-0.007947087! #-0.82108986,0.037912387,0.2903243,-0.7539664,-0.71899325! 0.5303023,-0.48403156,0.16739357,0.88000214,-0.88554394! 
-0.005388379,0.14373887,-0.25294018,0.654407,0.1420399,0.009630542,0.11089063! -0.30940962,-0.614129,0.31657648,0.5435798,0.44329378,0.29920578,0.099595666! 0.35361183,-0.45952642,0.25115407,-0.1118058,-0.010331035,-0.44326234,0.04756218! -0.79839134,0.08209553,-0.5212144,-0.58659923,0.8382043,-0.36809003,-0.5674545! #-0.18176794,-0.636181,0.89829886,-0.11924136,0.4430021! 0.57154155,-0.29381126,0.18567061,0.12480648,0.89998645! 
-0.7096,0.7691667,-0.72712266,-0.0520727,-0.41855288,0.015531335,-0.092684865! -0.6087643,0.10366148,0.54839486,-0.6417501,0.7456124,-0.7917289,-0.6862923! 0.8215445,0.020285167,-0.5175927,0.41914415,-0.1525609,-0.1288734,1.0221965! -0.2398876,-0.8730832,-0.57892156,-0.07362446,0.8540469,-0.5551412,-0.7517559! #0.84405184,0.60537297,0.06802449,-0.2509419,-0.71899325! -0.79848105,-0.15838578,0.20992786,0.7708836,-0.28936687! 
-0.22857285,-0.21423757,-0.3262494,-0.5307838,0.18037096,-0.008425504,-0.11296097! 0.067174315,0.7407365,-0.71835697,-0.25382334,0.6040472,-0.15912057,-0.84484404! 0.6240511,-0.42445987,-0.59968567,0.39823228,-0.13424271,-0.94009864,0.90800035! -0.94329286,0.026198357,0.4499902,0.9282446,0.7374058,-0.41464555,-0.3928838! #-0.41444302,0.6432978,0.2907306,0.5220361,-0.50186735! 0.18131721,-0.30876416,-0.053591363,0.4104898,0.97850925! 
0.065312386,0.50713474,0.645015,-0.6577676,-0.10561309,-0.9280607,0.8621194! -0.97126126,0.7284275,0.92154354,0.34635592,0.4412117,-0.18425927,0.46674395! -0.5225489,-0.16262293,0.24989545,-0.837944,0.7872538,0.39477476,-0.42750105! 0.44567227,0.592283,0.48287365,0.41759855,-0.5430918,-0.3981199,-0.15551452! #-0.32380214,0.5152278,-0.03088095,-0.82157165,-0.535558! -0.3417735,-0.74584126,-0.09976101,-0.96495754,-0.82684654! 
-0.6826589,-0.6135881,-0.8281838,-0.609464,-0.8855649,-0.93921924,0.269032! 0.048137683,0.63113207,0.029265165,-0.95814335,-0.8468514,-0.9466049,0.90056276! 0.5476792,0.9457262,1.0032256,-0.9667525,-0.63174987,0.1175842,-0.80601025! -0.32881308,0.4371289,-0.8602696,-0.19052194,0.7217602,-0.26691195,-0.4188332! #-0.85048306,0.90561026,0.2001187,0.07903443,-0.6767797! 0.7643585,-0.09724593,0.67301106,0.12480648,-0.31312907! 
0.2796569,0.7879394,-0.7673732,-0.6676777,-0.4767872,-0.9694711,0.04843414! -0.68615764,0.12208553,0.85473454,-0.42718193,0.25998312,-0.041464567,-1.0305952! -0.6315123,-0.038323164,0.5581889,-0.09305632,-0.92015445,0.08738689,0.901453! -0.75243676,-0.566092,-0.32521236,-0.8840654,0.823013,-0.91494787,0.0983001! #0.30285335,0.25284216,0.721197,0.11244094,-0.51009023! -0.506322,0.5103016,0.6121939,0.10391005,0.451167! 
-0.23931086,-0.656942,0.82272255,0.3931576,-0.08345167,0.15118492,-0.37252867! 0.8249388,0.7326315,0.17387736,0.29498637,0.04557526,-0.79661345,0.97966135! -0.5611664,0.7373184,-0.23171118,-0.39085007,-0.43096268,-0.3708483,0.77208805! -0.7294104,0.6337532,0.36105418,-0.23596354,-0.6906506,0.3569518,-0.6275017! #0.4115337,0.573155,0.18782377,-0.3315513,-0.4535601! 0.0130729675,-0.21641308,0.3575366,-0.67975783,0.7257713! 
0.16918135,0.14373887,-0.28733638,0.68090105,-0.63839865,0.009630542,-0.1515286! 0.8619399,0.7940899,-0.98590815,-0.6176507,0.5741174,0.20402133,-0.24882479! -0.46149626,-0.010664105,0.5363327,0.737949,-0.010331035,-0.3643409,1.0023792! -0.41708207,0.8027353,-0.5212144,-0.21706602,-0.34084964,-0.6778726,-0.6041896! #0.57345736,0.674037,0.113528356,-0.08439764,-0.09204131! -0.23809314,-0.067616224,0.18567061,0.12480648,0.89998645! 
-0.05931723,0.6246885,-0.80757535,-0.41815877,-0.49465865,-0.035977848,-0.053731337! 0.26865745,-0.095476225,-0.05229305,0.9364054,0.2713087,0.84746236,-0.91978586! 0.7224575,0.04460204,-0.94022745,-0.52331024,0.9858558,0.08398867,-0.48801872! -0.38909793,0.6274542,-0.845189,-0.24392737,0.7385725,0.9293262,0.47219962! #-0.8990346,0.6419819,0.040974975,0.1306258,-0.48071522! 0.6888068,0.6396438,0.24806528,0.7708836,0.48805022! 
0.41468006,0.15216571,-0.55109024,0.8562174,-0.8911419,0.05449469,-0.092684865! -0.45480776,0.7582015,0.47316003,-0.2602826,-0.95967454,0.108012795,-0.23584302! 0.03331856,0.020285167,0.3856406,0.5854406,-0.26636308,-0.8910928,-0.6479077! 0.4462707,0.7218789,0.24060641,-0.6742624,0.6077567,-0.5764695,-0.7440517! #0.024871826,-0.5636562,0.040974975,-0.52565587,-0.9039129! 0.8614018,-0.31116182,0.21168606,0.11878632,0.48805022! 
-0.8840673,0.6246885,0.11619568,-0.50184834,0.5973123,0.33380973,-0.053731337! -0.5481318,0.8356945,0.9260355,0.9364054,0.6040472,0.84746236,-0.91978586! -0.102621004,0.5011711,1.0047171,-0.58301413,0.9858558,-0.6912905,-0.23166049! 0.22232127,0.6290091,-0.845189,-0.16724686,0.7767808,0.9293262,0.47219962! #0.048939347,0.6419819,-0.10129534,0.11081533,-0.02951616! -0.04087305,0.6396438,0.38944852,-0.22365212,0.48805022! 
0.9954107,0.6208308,-0.3816655,0.6558942,-0.451299,-0.91871065,0.8931935! -0.1771636,0.7308535,0.59002197,-0.13047123,0.6694406,-0.70699114,-0.22242492! 0.6542499,0.43814322,-0.21390116,-0.61838794,-0.13984665,0.036103804,0.96198577! -0.070007324,-0.020772018,-1.0183098,-0.29326022,0.58727676,0.35600182,0.113550216! #0.47692978,0.4800158,0.19273311,0.08479173,0.6606628! 0.18289602,-0.7542428,0.3575366,0.120722055,0.97850925! 
-0.5901942,-0.9014549,0.11583102,-0.5307838,-0.6600176,-0.008425504,-0.6570858! -0.6647663,0.56100714,0.9260355,0.9364054,0.59753126,-0.99665534,0.90690756! 0.10236442,-0.99419427,-0.80733824,0.020529214,0.63431144,-0.19675103,0.9979653! 0.06763935,0.84217453,0.28809094,-0.5710889,-0.5089909,0.5891062,0.47219962! #-0.76902187,0.668015,0.040974975,-0.16859066,0.166278! 0.5678197,-0.17330883,-0.7924937,-0.70504975,-0.2674713! 
0.6790724,0.31333998,0.37258065,0.7909862,0.23388119,-0.7498202,0.19654441! -0.334736,0.6301568,0.89918685,-1.0048194,0.92977595,0.42517558,-0.047873568! -0.5583674,0.23199764,-0.68577176,-0.2770505,-0.2996903,0.08738689,0.3750233! 0.33032775,0.41243377,0.147964,-0.25126687,0.7522171,-0.28318983,-0.85596776! #-0.9867066,0.79799354,-0.81101125,0.12459697,0.6139729! 0.6124648,-0.31369302,0.22084948,-0.49061415,0.9279538! 
0.89806247,0.14545222,-0.73903394,-0.64737743,0.89681876,0.00982875,0.0656219! 0.11308992,-0.11390538,0.53737396,-0.26358438,-0.88487136,-0.40905523,-0.91978586! -0.3569516,1.0194997,-0.9334419,-0.07845819,-0.13984665,-0.7667533,-0.44180974! -0.20083869,0.509729,0.32333866,-0.43604642,0.6433514,-0.25669852,-0.39148775! #-0.40238988,0.77630025,-0.66042566,-0.46640587,-0.2329857! 0.50765634,-0.3467914,-0.60015225,-0.4071382,-0.17144327! 
0.022531629,0.86239386,0.32293755,-0.09759939,0.35354233,-0.9865409,-0.11421003! -0.9140519,-0.05557123,0.35045198,-0.64808124,0.5090282,0.31807923,-0.0100057125! -0.18976414,0.11482918,0.3452821,-0.051324256,-0.6712766,0.4608018,-0.42198348! 0.426005,0.8200269,0.22648714,0.2909987,-0.32651654,-0.28318983,-0.4947502! #0.5397558,0.045176297,0.24774651,0.4527352,0.028270297! -0.6513456,-0.28134105,0.40232393,-0.95555884,0.86951333! 
-0.09864557,0.14373887,-0.49822995,-0.41815877,0.5697027,-1.0134685,-0.662009! -0.28467572,0.76169175,0.8987628,-0.40241078,-0.36840773,0.6052692,-0.11481542! 0.110351324,0.70307976,-0.55515873,-0.7397846,0.83506006,-0.59343576,0.36997128! 0.4148128,0.82208234,-0.74386644,-0.07200594,-0.40835348,0.47849357,0.519328! #0.26817238,0.6432978,0.31157458,0.3469144,-0.2596577! 0.38603878,-0.13645096,0.2528441,0.8317918,-0.8884005! 
-0.9656477,0.14545222,-0.73903394,-0.609464,0.6551273,-0.9500356,0.19981873! -0.6820731,0.62523997,0.005529469,-0.026497826,0.39296654,-0.40905523,-0.71636826! -0.7247449,0.89285,-0.9334419,0.007306773,-0.21088102,-0.02668665,0.94933766! 0.3888359,-0.14999609,0.6573741,-0.28765166,0.7162303,0.3610161,0.5229273! #-0.9916965,0.46305606,0.089903325,0.46342582,0.52772313! 0.24092221,-0.0062875897,0.8503793,0.76075953,-0.28951055! 
0.5116538,0.6319345,0.35993153,-0.41815877,-0.49465865,-1.0134685,-0.11823487! -0.3007536,0.62523997,0.47279072,0.60323954,0.2713087,0.20402133,-0.9677912! -0.808972,0.27799582,-0.6596323,0.81408334,-0.025464892,-0.20173767,0.24196759! -0.2337805,-0.40619075,0.7418374,-0.007923573,0.6474809,0.42564917,0.3159939! #0.30600357,-0.9523263,0.040974975,0.010015607,-0.28043187! 0.14592445,-0.29381126,-0.9513382,0.2651224,0.8776769! 
-0.49332297,0.2461226,-0.88748986,-0.2472904,-0.046530128,0.5829413,0.5751333! 0.43615723,0.7940899,0.84539473,-0.9942564,0.5800692,-0.0021669865,-0.8898264! 0.8182148,-0.010664105,0.5363327,0.044659205,0.6595345,-0.3643409,0.18392977! 0.02286613,0.03390246,-0.85514766,-0.5873532,-0.34084964,-0.17309988,0.519328! #0.14510216,0.6775155,-0.91775703,0.6329067,-0.78638005! 0.8101257,-0.067616224,0.12789047,0.35356617,-0.034588575! 
0.88320494,0.221722,0.7117667,-0.21125162,-0.6600176,0.13320982,-0.6570858! -1.0274401,0.56100714,-0.12250817,-0.08418357,0.2645702,-0.4780322,0.90690756! -0.9137056,0.89660543,-0.80733824,-0.5536015,0.67210674,0.08738689,-0.13461018! 0.8291763,-0.48145354,-0.8067681,-0.4687003,0.7182454,0.61422527,-0.61228526! #-0.45293832,-0.6545583,0.037728745,0.6108792,-0.32561195! -0.34920752,-0.17561436,-0.7924937,-0.26713395,-0.3190943! 
-0.8566383,-0.27922148,-0.9889735,0.7909862,-0.41620097,0.91678524,-0.011521658! 0.48609364,-0.31618428,0.45641524,-0.2641034,0.36020017,-0.7124316,0.50951725! -0.9366474,-0.5320473,-0.9707249,-0.61838794,0.46568912,0.012407787,0.9060467! 0.78079575,0.99198914,0.147964,0.36382255,0.73894995,-0.31925815,0.76500154! #-0.2880931,0.79799354,0.21300629,0.5548169,0.52772313! 0.14794266,-0.23640329,0.20210478,-0.8428581,0.011817962! 
0.010410044,-0.37037802,-0.80757535,-0.18101466,0.78533125,-0.0075916126,0.8532791! -0.9416467,0.051826626,0.32759658,-0.971679,0.27726954,0.20402133,-0.40337867! 0.74587035,0.9278803,-0.022492435,-0.09948267,-0.13984665,0.13297,0.0040979795! -0.98823416,0.7548872,0.41039973,0.4685042,0.17018887,-0.6503632,0.67518854! #-0.24517155,0.19615686,0.040974975,-0.74441195,-0.05650981! -0.41892374,0.47635773,-0.4856499,0.8317918,-0.03644669! 
0.9429579,0.14373887,-0.6172993,-0.41815877,0.8238038,-0.005261898,-0.11296097! 0.4547596,-0.1367413,-0.05229305,0.9995168,0.2713087,0.20698118,0.5058793! -0.21583784,0.43647316,-0.94022745,-0.52331024,0.757933,-0.0029366836,-0.48801872! 0.9195566,0.7350464,0.3179517,-0.24392737,0.6474809,0.36755148,0.26942363! #-0.08425856,0.7129163,0.040974975,0.5222964,-0.66819644! 0.953568,-0.29381126,0.24806528,0.7708836,-0.28112733! 
0.54860413,0.25279552,-0.80757535,0.79821384,0.35354233,-0.0075916126,0.79656243! -0.68692267,0.71752113,-0.05229305,-0.30739522,0.2713087,0.34102908,-0.7406825! 0.21605337,0.93024915,-0.019169688,-0.09948267,-0.10536632,0.051617607,0.5685369! 0.6556548,0.7548872,0.19024365,0.91979563,0.6474809,-0.2772108,0.3159939! #-0.92160475,0.02990241,0.040974975,0.6622745,0.69424057! 0.5443213,-0.16926678,0.16041194,0.80173045,0.91489303! 
-0.31453466,0.1355191,-0.8656827,-0.8440091,-0.08345167,-0.81319547,0.03866807! 0.6031107,-0.4624302,0.68699735,0.0339245,0.2840624,-0.8060438,0.6611239! 0.66605103,0.93940526,0.9909406,0.6296697,-0.010331035,0.0546171,-0.66561! -0.36409616,0.69573724,-0.8067681,-0.16965151,0.71856403,-0.5497542,-0.7440517! #0.94554293,0.2242222,0.22158393,0.5425936,-0.24542919! 0.23644817,-0.24947548,0.11008115,-0.8814136,-0.32427925! 
-0.56886446,0.94246674,-0.06337142,0.5609279,-0.49874064,-0.93921924,0.269032! -0.53132963,0.62523997,-0.023868322,-0.2905978,0.6780842,-0.5262675,0.91765654! -0.65058047,0.91922027,-0.089696884,0.469385,-0.21590894,-0.02668665,-0.8122163! -0.85592407,-0.13859835,0.6573741,-0.28765166,-0.40835348,0.3610161,0.5229273! #0.7383268,0.7129163,-0.4690951,0.6470375,-0.40300256! -0.013538957,-0.3348106,0.8503793,0.08058676,-0.9182982! 
0.5793574,0.3371935,-0.56965864,0.012260199,-0.9237132,-0.008425504,0.3797364! 0.051762342,0.14714861,0.69287306,-0.38950694,0.6961714,0.8085476,0.21719956! 0.5582255,-0.58064425,-0.5606585,-0.2652352,-0.5270251,5.8822334E-5,0.41758132! -0.21036494,0.5891354,0.66315603,-0.73860097,0.7374058,-0.6778726,0.53014594! #-0.7954422,0.23515105,0.23791116,0.0660522,-0.83384025! -0.63370407,-0.0044614635,0.24968521,-0.58147657,-0.6977372! 
0.4634974,-0.102466166,-0.3816655,-0.9090218,-0.451299,-0.91871065,0.83281136! 0.28976238,0.6301568,0.53820705,0.17729525,-0.43665186,0.46411705,-0.2515991! 0.5275136,0.59545773,0.019972231,0.028981581,-0.13984665,0.036103804,0.3402353! 0.43913007,-0.5635237,0.147964,-0.5338688,0.90611064,-0.4691592,-0.66288775! #0.31807017,0.55842817,0.1781977,0.08479173,0.6606628! -0.33633924,-0.15781723,0.3575366,0.36165804,0.8790145! 
0.52623785,0.7321676,-0.78507525,0.6668174,-0.61223656,-0.5900315,-0.75318325! 0.038416028,0.43824068,0.76413804,-0.056215864,0.54026777,0.91399753,-0.23584302! 0.5275717,-0.16112077,-0.736474,-0.94850904,-0.124172226,-0.02668665,0.064106226! 0.61146414,-0.22255215,-0.5174742,0.64165395,0.6334996,0.8768657,0.033482265! #0.5496669,0.56561106,0.5447247,0.4291116,0.6437815! -0.032151937,-0.44135788,0.09695068,-0.3644899,-0.23125891! 
-0.43491733,0.30890968,-0.6582471,-0.461384,0.5584457,0.33380973,-0.030012045! -0.6328082,0.8356945,0.33946183,-0.19225407,0.7187208,-0.15912057,-0.7211299! 0.65885174,0.5482334,1.0463166,-0.58301413,-0.8489217,-0.65829045,0.33053017! -0.8559761,0.016629905,-0.845189,-0.29970902,-0.40835348,-0.95603657,0.81338644! #0.4283936,0.53388023,-0.67663884,-0.82675654,-0.7148284! 0.31059372,0.6396438,0.32661504,-0.26713395,-0.8884005! 
0.65482056,0.94246674,0.567449,-0.98614585,0.5973123,0.48238719,-0.07135439! 0.95097363,-0.15795554,0.5499052,-0.6665009,-0.058065016,0.6297256,-0.997769! -0.0058375597,-0.27264464,-0.56957823,0.0038438886,-0.4872606,0.08738689,0.5944725! -0.4982214,0.6739822,-0.9888211,0.7203827,0.3689481,-0.27580452,-0.2535034! #0.61080325,0.32660317,0.29671684,0.5120114,-0.055674728! 0.99108446,-0.74584126,0.8346165,-0.8589758,0.9279538! 
-0.09170604,-0.95589685,-0.917442,0.6982117,-0.22759186,-0.7657448,-0.9701602! 0.61040163,0.60477924,0.7209709,-0.64808124,0.5521374,0.29574963,-0.26038423! 0.81117374,0.8790414,0.2872508,0.49989378,-0.4580659,0.4608018,-0.39408597! 0.009942625,0.69573724,0.07254055,-0.26275206,0.7097364,-0.28318983,-0.044614434! #-0.44485304,0.02990241,0.32170534,-0.8600431,-0.42061183! 0.8801365,-0.30876416,0.24806528,-0.2476623,0.08703959! 
-0.32956886,-0.95589685,-0.4763022,0.75753176,0.23388119,-0.9437021,-0.9701602! 0.4202962,0.60477924,0.40002108,-0.64808124,-0.566335,-0.9083571,0.14936921! 0.5615603,0.8790414,-0.13810316,-0.96336806,-0.6022108,0.1175842,-0.39408597! 0.045567967,-0.36925316,0.32690948,-0.49862364,0.670326,-0.22509895,-0.044614434! #0.37349117,0.06794294,0.05533097,0.4527352,0.7113279! 0.3686167,-0.30876416,0.30596316,-1.001643,0.6980821! 
0.18455803,-0.54534304,-0.7448398,0.5748815,-0.26874253,-0.09377134,0.21339694! -0.051295042,0.44672287,0.5499052,-0.58186704,-0.79251945,-0.19559467,0.839966! 0.894323,0.89931464,0.87401086,-0.2770505,0.45199654,0.08738689,-0.69189495! -0.59100425,0.08209553,-0.3881134,-0.15837464,0.8625653,-0.17309988,-0.48991266! #-0.5994054,0.02990241,0.17465001,0.46342582,-0.31932715! -0.49556923,-0.30474827,0.22084948,-0.46738076,-0.35641497! 
0.63530666,0.271654,-1.020862,-0.41815877,-0.45784196,-0.005261898,0.13846664! 0.37350452,0.7284275,0.53737396,0.68815714,-0.88487136,-0.73987645,-0.24882479! 0.29622746,1.0194997,1.0574168,-0.2770505,0.42552117,-0.6578219,-0.5977578! -0.18307424,0.059264153,-0.34926295,-0.87595284,0.5846454,-0.99763095,-0.5796593! #0.21224594,0.66955596,0.23791116,0.5692861,-0.49762368! -0.3123045,0.0389421,0.18690526,-0.72312176,0.92233515! 
-0.74485505,0.22107212,-0.6853564,-0.609464,-0.48604295,0.00982875,-0.42009217! 0.7884805,0.69111025,-0.26506233,-0.892768,0.5752434,-0.40905523,-0.45615506! 0.43799162,-0.42445987,-0.92676884,-0.17745245,-0.13984665,-0.71706235,0.73935264! 0.37400603,0.48865598,-0.95803154,-0.1688689,0.6367954,-0.48364258,0.87729216! #0.57042545,0.2418192,0.63728285,0.60044014,0.95523334! -0.6071335,-0.25804144,-0.17912304,-0.9816536,-0.034588575! 
0.48805404,0.6800852,0.8958268,0.95093846,-0.50820386,-0.19718137,0.19654441! 0.46866217,0.77476126,0.33739224,-0.46476233,0.7456124,0.32954255,0.839966! 0.6711972,0.020174224,0.87401086,-0.5056564,-0.13086952,0.004899293,-0.90074724! -0.40521765,-0.5589268,0.3485762,0.19626057,0.12919056,-0.25146237,-0.33365262! #0.9143121,-1.0011418,0.23349337,-0.38582876,-0.5273721! -0.40527546,-0.8920958,0.9034935,-0.9320135,-0.5919034! 
0.8603499,-0.11511767,-0.8281838,-0.9818491,0.1420399,0.6325224,0.269032! -0.45026016,0.63113207,0.9260355,-0.26899517,-0.8468514,-0.9466049,-0.049801826! 0.86613107,0.7162689,1.0032256,0.54388833,-0.63174987,0.14951193,-0.0014413595! -0.9948094,-0.7210958,0.33863425,-0.58659923,-0.92755926,-0.26691195,-0.105633385! #-0.89092314,0.9381453,0.040974975,-0.11924136,-0.07008548! -0.66103244,0.15709269,0.1300995,-0.92231166,-0.89358133! 
0.7113974,0.6208308,-0.014911473,0.7949535,-0.6165279,-0.9500356,0.19981873! -0.562968,0.62523997,0.52848023,-0.026865669,0.38584664,-0.78366655,-0.24882479! 0.46398175,0.89931464,0.2958302,0.469385,-0.6516664,-0.6776686,0.7832544! -0.18590319,-0.14999609,0.6573741,-0.31901845,0.8864128,-0.20760716,-0.5674545! #-0.9690366,0.7129163,0.5015761,0.46342582,-0.35124397! 0.6903738,-0.0062875897,0.8503793,0.7235263,0.89998645! 
-0.93240225,-0.41714022,0.3284429,0.7847173,0.27269143,-0.6196691,-0.43979722! 0.20395362,-0.35092193,0.9475855,0.2013721,0.6108028,-0.6336547,-0.6016191! 0.16201162,-0.78748643,-0.87976867,0.47430053,-0.010331035,0.11695239,-0.8011402! -0.90000904,0.50852394,0.21238375,-0.21356988,-0.6285266,0.303028,-0.75657624! #-0.6454794,0.13176537,-0.15084776,-0.113601625,-0.3497322! -1.0079832,0.32276577,0.16041194,-0.49061415,0.85950947! 
0.008417863,-0.37037802,-0.9754827,-0.8554796,0.22722077,-0.81319547,0.57119817! -0.375695,-0.036091566,0.61310416,-0.9954295,-0.2364079,-0.6070083,0.5935333! -0.44428396,1.0194997,-0.92676884,0.07153245,-0.79132795,0.6184237,-0.4024447! 0.87887573,0.41390508,-0.8067681,-0.26275206,0.7355311,-0.86111283,-0.044614434! #-0.34949172,0.25151637,0.32170534,0.75132316,-0.3971025! 0.100912094,-0.24298634,-0.4650544,0.8002354,0.63746214! 
-0.19349922,-0.6135881,-0.7490626,-0.609464,0.2006594,0.015531335,0.92029566! 0.5037242,0.73596865,0.84539473,-0.9942564,0.38584664,0.5408867,-0.24882479! -0.0538224,0.033457793,-0.09866455,-0.9946745,-0.60884887,0.08738689,-0.71688646! -0.74830604,-0.07446897,-0.8602696,-0.19052194,0.8528132,-0.17309988,-0.37784922! #0.4194814,0.66955596,-0.720863,0.5425936,-0.7245648! 0.21922636,-0.27626097,0.2594184,0.100673,-0.31312907! 
-0.04318154,-0.656942,-0.7673732,-0.4476078,-0.41041833,0.15118492,0.014264435! 0.041838646,0.13873856,-0.03166602,-0.98236394,0.61999774,-0.79661345,-0.85671306! 0.40745997,0.21108112,0.3856406,0.0747668,-0.43096268,-0.6912905,-0.6776413! 0.6137006,0.03752691,0.21081261,-0.23596354,-0.6906506,-0.26502788,0.9194045! #0.938372,-0.9843241,0.32499814,-0.3315513,-0.1059223! -0.2484734,-0.28007796,0.18759292,1.0283531,0.8552092! 
0.97346175,0.44507074,-0.77064955,0.9285939,-0.26874253,0.015531335,0.90337753! 0.21504092,0.6984695,0.9371273,0.34635592,0.01343894,-0.8060438,0.46674395! -0.8021891,-0.16262293,0.09898923,-0.82078576,0.8350445,-0.36726266,-0.42750105! -0.9295572,0.69573724,-0.8067681,0.37371147,0.7182454,-0.4743208,-0.15551452! #-0.22626078,0.7107107,0.96471435,1.0104477,-0.53468573! 0.1879772,-0.74584126,0.20992786,0.7681167,-0.92175686! 
-0.42015314,0.41200507,-0.33112437,-0.461384,0.5919501,-0.9500356,-0.4393421! -0.89051616,0.11271272,0.7138752,-0.30154422,0.022306962,-0.9170792,-0.2972458! 0.5348387,0.012237521,0.97310853,0.0747668,0.07323918,0.0757613,-0.630099! 0.06274068,0.5189199,0.16514479,-0.21327622,-0.26052853,-0.22826546,0.76500154! #0.53802574,0.50519,0.34130666,0.5056719,0.5974858! -0.18388963,-0.2731958,0.21168606,0.23414266,-0.8884005! 
-0.42887354,0.14373887,-0.80757535,0.8562174,-0.8911419,-0.751162,-0.43495223! 0.80510294,-0.1367413,-0.015722014,-0.4477416,-0.91246235,0.18781777,-0.2883234! -0.9639364,-0.7831973,0.5567647,0.593027,0.022977758,-0.829211,-0.52461237! 0.96603537,0.7548872,0.22761944,-0.24392737,0.81785107,-0.5764695,0.3159939! #-0.18382522,-0.5636562,0.040974975,-0.52565587,-0.9039129! 0.23439503,-0.29381126,0.18091165,0.16821711,0.059491076! 
-0.9102328,0.221722,-0.3233289,0.68090105,0.30913225,0.7932532,-0.1515286! 0.2388205,0.7940899,0.5055331,-0.6176507,-0.68333316,-0.051619053,-0.8753653! 0.2997223,0.44432667,0.5363327,0.737949,0.6567663,0.07753107,0.23824203! -0.47449422,0.4371577,-0.845189,-0.091279715,0.71564394,-0.43908852,-0.28070354! #-0.275715,-0.010940421,0.51357937,0.3469144,0.9807509! -0.5511129,-0.20321862,0.20992786,0.2860286,-0.94012535! 
-0.05466318,0.5408152,0.6345989,-0.48044488,-0.47675142,-0.008425504,-0.4434808! -0.9579325,0.69111025,-0.98041904,-0.892768,-0.88487136,0.68788373,-0.45615506! -0.1398108,1.0177238,-0.7770065,0.39823228,-0.15367313,0.11551499,-0.23166049! -0.7174324,-0.22255215,-0.845189,-0.4687003,0.7320169,0.9293262,-0.2407502! #-0.44384074,0.6432978,0.23047252,-0.022851825,-0.021789938! 0.13763344,0.43946457,0.20992786,0.35356617,-0.25796908! 
0.48100638,0.86239386,0.28545764,-0.09759939,-0.10073991,-0.9845196,0.31240046! 0.6356702,-0.29383865,-0.032483704,-0.44419965,0.4394668,-0.051619053,-0.997769! 0.2472651,0.11482918,-0.5978862,0.011903316,-0.6190783,-0.71710587,1.0284083! -0.18603933,0.99198914,0.4499902,0.9654258,0.7031529,-0.45332423,-0.3497613! #-0.68297005,0.62771446,0.23791116,0.09331016,-0.6929431! -0.37911594,-0.23093085,-0.056130152,0.7441496,-0.738803! 
-0.10361767,0.41887987,-0.6172993,0.12060233,0.68495613,-0.98629177,0.012078393! -0.14464712,0.014364958,-0.20093238,-0.6176507,0.7054739,0.7457754,-0.29885292! 0.93066704,0.012237521,0.0774982,0.39823228,-0.45678887,-0.7128788,0.98514557! -0.51557696,0.9218135,0.22836582,-0.6273904,-0.6884104,-0.6778726,0.02895282! #-0.81481576,0.21118581,0.30501303,0.087633505,-0.098453276! -0.76083934,-0.22784922,-0.96114683,-0.065992,-0.46588767! 
0.58144295,0.94246674,-0.014911473,0.8279372,-0.10630954,0.58726084,-0.12045829! 0.59193575,0.8172387,-0.6726898,0.015850712,-0.55644184,-0.15912057,-0.30520463! -0.2337122,0.87753665,-0.62651396,0.45657238,-0.12839535,0.813161,-0.8122163! -0.43393433,-0.14462191,-0.27421445,-0.19831118,0.6916739,-0.7602953,-0.47133818! #-0.6338928,0.2752056,0.15977073,0.53437483,0.6773883! -0.24067307,-0.3348106,0.14279881,-0.26588938,-0.172671! 
-0.014243126,-0.37037802,-0.48046863,0.83443546,-0.46584958,-0.8665668,-0.6423814! 0.9768512,0.065166734,0.98047316,-0.94833595,-0.2364079,-0.67822325,0.5935333! 0.5225929,1.0648445,0.9198966,-0.61838794,-0.79132795,0.061889347,0.53813136! -0.74988544,-0.4529465,0.55894184,-0.16207314,0.2039342,-0.2983896,-0.024994642! #-0.65093625,0.23614344,-0.67663884,0.77093244,0.95930076! 0.6770303,-0.56387615,0.29694533,-0.06952061,0.62328994! 
-0.73666036,-0.42048824,0.3284429,0.44818568,-0.8855494,-0.9865409,-0.574198! -0.96649706,-0.41759244,-0.05229305,-0.60219574,0.5090282,0.65853673,-0.0100057125! -0.049350977,0.11482918,-0.12003657,-0.5303797,-0.6712766,-0.6088713,-0.42750105! 0.1521895,-0.41935462,0.21238375,0.24640104,-0.32651654,0.27142146,0.47380447! #-0.35178876,-0.09607732,0.23277733,0.7870084,-0.26990044! -0.6830752,-0.22712432,0.1406956,-0.95555884,0.86951333! 
0.86624956,0.80403805,-0.014911473,0.6024861,-0.8855494,0.13500535,0.21339694! -0.52730954,0.73596865,0.52848023,-0.60219574,-0.8548313,-0.19559467,0.9205876! -0.9103062,-0.42445987,-0.78987145,0.028981581,0.757933,-0.75515807,0.75247717! 0.98423696,0.9886297,-0.8067681,-0.1688689,-0.15002365,-0.48364258,-0.7907345! #0.19702792,0.22282328,0.040974975,0.810314,-0.71899325! -0.8838123,-0.04215719,0.35577533,0.20605575,0.8834525! 
-0.49927545,0.7451185,-0.9207458,0.9636112,-0.26874253,-0.0084691495,0.8736423! 0.7524131,-0.18448499,0.510762,0.12190854,-0.36840773,0.5759555,0.6611239! -0.99731886,0.22304974,0.31369692,0.028981581,0.757933,-0.70781565,-0.6855225! 0.4845064,-0.14999609,0.6573741,0.38655326,0.7182454,-0.4743208,-0.75057083! #-0.8349031,0.53388023,0.23791116,0.41291928,-0.36874133! -0.26304805,-0.28007796,0.3033452,-0.9286368,-0.8884005! 
0.32853496,0.28598648,-0.33266234,-0.66374815,0.8238038,-0.008425504,0.3487622! 0.26216933,0.8331992,-0.98041904,-0.6801388,0.5365397,0.81029934,-0.9419945! 0.06735504,0.9187328,-0.73683447,-0.49730927,-0.44840774,-0.8910928,-0.7617563! 0.5817925,-0.22255215,0.26581058,0.85862046,0.9791568,-0.23734938,-0.9478173! #0.7240681,0.6432978,0.16011561,0.18452226,-0.021789938! -0.49179983,-0.12369664,0.20992786,0.2233871,-0.82684654! 
-0.15491676,0.5776781,-0.32782748,0.79821384,0.94344264,-0.9500356,0.21339694! 0.8423271,-0.1367413,-0.05229305,-0.30739522,0.2713087,0.20402133,-0.40337867! -0.8144691,0.04287426,0.012019109,-0.09948267,-0.24274054,0.098167494,0.8666093! -0.77494526,0.7548872,0.21238375,-0.24401987,0.8569817,0.3539805,0.32297346! #-0.5181596,0.037912387,0.040974975,0.08479173,-0.28043187! 0.42339563,-0.30185485,0.8252765,-0.31177536,0.91489303! 
-0.0063197613,0.31333998,-0.85852194,-0.22607589,-0.6600176,0.5829413,0.8931935! 0.8662597,-0.5879891,-0.8438177,0.037607193,0.53109217,-0.99665534,0.13749467! 0.8667278,-0.99419427,-0.80733824,-0.11787927,-0.6017878,-0.23642612,-0.13461018! -0.0015356541,0.87707424,0.3017386,-0.5873532,0.11659682,0.36353266,-0.6275017! #0.09086144,-0.6545583,-0.88914794,0.6127023,-0.32561195! -0.27746284,-0.17561436,0.3575366,0.36165804,-0.34351382! 
0.9544688,0.7395452,-0.419685,0.26808405,-0.49296832,0.54850566,-0.11296097! -0.8371705,0.8771452,0.72675395,-0.9863253,-0.7930273,0.3244518,0.14318633! -0.11035919,0.42791438,0.7194488,-0.6756177,0.86735094,-0.7365057,0.2425095! -0.21960056,-0.39968157,0.13969907,-0.9634479,0.7097364,0.88626134,-0.054856546! #-0.12643325,0.53388023,0.50514907,0.9587355,-0.9721912! -0.078784585,-0.7820877,0.44032067,-0.22925425,-0.94012535! 
0.10250807,0.6246885,-0.7673732,0.654407,-0.63839865,0.04340557,-0.092684865! -0.82968414,0.7256954,0.50539714,-0.60219574,-0.7053556,0.15646262,-0.24882479! 0.6170616,-0.16112077,-0.019169688,-0.88996446,0.757933,0.47652,0.949! 0.3344813,-0.45621762,-0.5174742,0.82281554,0.6077567,-0.20760716,-0.5674545! #0.8298304,0.66955596,0.08122197,-0.78686684,-0.28972128! -0.4244578,-0.29381126,0.2506794,-0.3644899,0.89998645! 
0.46906888,0.31333998,-0.85852194,-0.22607589,-0.8844284,0.62401104,0.8931935! -0.6327176,-0.5879891,-0.05229305,0.82794076,-0.43665186,0.60380995,0.14680083! -0.082952134,0.70307976,-0.01284067,0.56988746,0.017795812,0.036103804,0.96198577! -0.790657,0.87707424,0.21238375,-0.21356988,0.081988946,0.27393618,0.47380447! #0.0049442053,0.58661187,-0.88466024,0.45368412,-0.19500697! -0.19451523,-0.24343264,-0.35734364,-0.7304069,0.9242134! 
0.7898519,0.105720975,0.61118376,-0.5001483,-0.48634237,-0.8665668,0.84526634! 0.1445626,0.74984115,0.50165606,-0.50932276,0.33919036,-0.63746274,-0.23584302! -0.13082314,1.0648445,0.9002403,0.54858154,0.6455495,0.036103804,-0.6555492! 0.8691449,0.8842719,0.2163341,0.3467774,0.11659682,0.9293262,-0.6275017! #-0.22737038,-0.32109308,0.040974975,0.71551853,-0.12332875! 0.85643744,-0.23473895,0.3388996,0.71124506,-0.3587827! 
0.93638706,0.94246674,-0.72712266,0.6982117,-0.2688266,0.88851464,-0.091819525! 0.8774588,0.8214301,0.52848023,-0.84970635,-0.55644184,-0.67822325,-0.12176533! -0.35791266,0.8524374,-0.92676884,0.45657238,0.757933,-0.78571826,-0.4056065! 0.9059403,-0.14462191,0.43705577,-0.90405685,0.702556,-0.7602953,-0.47133818! #-0.077145696,-0.32109308,0.15977073,0.74824154,-0.42061183! -0.9233825,-0.3348106,0.23268199,-0.26588938,0.91489303! 
-0.4283786,0.8345029,-0.7673732,0.67373955,-0.63839865,0.009630542,0.03866807! -0.2990682,-0.614129,0.54839486,0.5435798,0.56401944,0.92828536,-0.6862923! -0.9849068,0.833678,-0.5175927,-0.9144599,-0.067499526,0.47652,1.0146066! 0.44385672,-0.8730832,-0.5212144,-0.04297972,0.8864128,-0.41634643,-0.7517559! #0.53666174,0.60537297,0.15977073,0.5425936,-0.7297615! 0.2923648,-0.19674435,0.23851794,-0.86156106,-0.2674713! 
-0.10820976,0.12588765,-0.8344752,0.79821384,-0.10630954,0.58726084,-0.12045829! -0.5614139,0.7841704,-0.05229305,-0.58186704,0.2713087,-0.15912057,-0.45223856! -0.41940784,0.5651108,-0.019169688,-0.09948267,-0.12839535,0.098167494,0.89740187! 0.42008114,0.016629905,-0.30898237,-0.24401987,0.6474809,-0.2772108,0.3159939! #-0.50474894,0.5867155,0.15977073,0.6622745,0.6437815! 0.34042597,0.71164834,0.06378688,-0.9129474,-0.172671! 
0.35618782,-0.7667075,-0.7107773,0.72472423,-0.47675142,-0.27254373,-0.48349065! -0.35759723,0.62003744,0.6661706,-0.39203858,0.4394668,0.69314307,-0.19474025! 0.51742303,1.0617228,-0.92676884,-0.32882726,0.76941043,-0.71430045,0.911854! 0.09011641,0.4613289,0.18341957,0.5712087,0.7031529,0.9184417,-0.3497613! #0.21516454,0.2334173,0.32499814,0.14685604,0.030389667! 0.23121369,-0.26729327,0.24806528,-0.34127313,-0.4623507! 
-0.578727,0.13723332,-0.3296841,-0.461384,0.6551273,-0.21416038,-0.4393421! 0.3348726,-0.08826518,0.029265165,0.6474677,0.3531328,-0.9170792,-0.2972458! 0.33694792,0.012237521,0.69751126,0.0747668,0.10625762,0.07362744,-0.6934599! 0.6585245,0.6319157,0.1453455,-0.21327622,-0.26052853,-0.22826546,0.76500154! #0.8322965,0.29126352,-0.66042566,-0.34161857,0.5974858! -0.870208,-0.0062875897,0.21168606,-0.9286368,-0.8884005! 
-0.79152954,0.6246885,0.11619568,-0.5362338,0.5973123,-0.7350839,0.06991446! 0.7568171,0.8356945,0.9260355,0.39818072,-0.10578179,0.84746236,0.77160716! 0.5037605,0.5011711,1.0047171,-0.58301413,0.9858558,-0.6912905,0.57000506! 0.25995433,-0.11976588,-0.845189,0.9204103,0.19082868,0.9293262,0.42357963! #-0.94078124,-0.6733357,-0.6638608,-0.5060967,0.08956468! 0.013465643,0.6396438,-0.5712698,-0.23528184,0.48805022! 
-0.8012649,-0.503568,-0.899462,0.5748815,-0.103065714,-0.90886533,-0.62377876! 0.20409088,0.67534757,0.81476355,0.8584105,-0.46080533,-0.9183192,0.839966! -0.9391937,0.8790414,-0.7705167,0.07698564,0.08708648,-0.7029706,-0.7211597! 0.4532852,-0.07446897,0.15211731,-0.15837464,-0.7229962,-0.48364258,-0.04421008! #-0.81031466,0.02990241,0.20425695,0.75132316,0.5037851! -0.9664266,-0.29735282,0.29694533,-0.46738076,-0.28742668! 
0.59957623,0.41887987,0.3284429,-0.41815877,-0.49465865,-0.005261898,0.42837358! -0.37259293,0.7310678,0.34061086,0.6182544,0.2772736,-0.27667952,0.13809514! -0.7198642,0.5272083,-0.019169688,0.5093739,-0.1029654,0.5694683,-0.8851304! 0.4017756,0.08209553,-0.97036326,-0.87725204,-0.34239244,0.2885426,-0.5674545! #0.9799414,0.15086201,0.040974975,0.62638324,-0.19500697! 0.35839438,-0.24393654,0.20992786,-0.2870803,0.85950947! 
0.10976672,-0.18465686,-0.7707455,-0.5458808,0.6551273,-0.4528233,0.7258326! 0.14665556,0.7308535,0.92154354,0.6474677,-0.53148615,0.8041785,0.8958158! 0.05422485,0.44467872,0.13887429,-0.11719513,-0.22998437,0.41586483,-0.42750105! -0.7133757,0.5329914,0.18671453,-0.73817945,-0.30916345,-0.5402199,-0.21225739! #0.020900011,0.7078665,-0.8961984,1.0034755,0.6437815! -0.2680887,-0.8641048,0.9712175,0.37016368,-0.72732556! 
-0.36438918,-0.42048824,-0.72712266,0.5893159,-0.90204126,0.03238638,-0.5494409! 0.8857291,0.11538257,-1.029907,-0.60219574,-0.9153797,0.65853673,-0.23584302! -0.69641435,0.8790414,-0.12003657,-0.5303797,-0.010331035,-0.70425445,-0.630099! 0.7280416,0.8892247,-0.643797,0.8667375,0.79031324,-0.2772108,0.46843165! #0.9061887,0.1662064,0.16011561,0.18452226,-0.43698984! 0.3084373,0.07967472,0.22023617,0.3054407,-0.29018223! 
0.35589767,-0.21423757,0.6345989,-0.48822027,0.18037096,-0.25338092,-0.48349065! 0.42247832,0.69111025,-0.98590815,-0.25382334,0.6040472,-0.007509839,-0.8682087! -0.978683,-0.010664105,-0.92676884,0.39823228,-0.13984665,-0.49955463,-0.19880286! -0.19846022,0.45722902,0.4499902,-0.4524297,0.7320169,0.9293262,-0.3928838! #0.5952964,3.0305982E-4,0.2907306,0.5159939,0.95523334! 0.6648427,-0.04578459,0.20992786,0.35356617,-0.031163324! 
-0.7750515,-0.54534304,-0.86291695,0.625831,-0.8844284,-0.09377134,-0.66354364! 0.054797053,0.44672287,0.5499052,0.82794076,0.2505488,0.60380995,0.92012954! -0.62845373,0.8790414,-0.7705167,-0.2770505,0.45199654,0.08738689,0.8100493! -0.034211993,0.49770012,0.21238375,-0.16604945,0.11659682,-0.17197075,0.47380447! #0.1718452,-0.51746833,-0.0065425932,0.41556227,0.50590754! -0.48409235,0.07967472,-0.35734364,-0.72312176,-0.35641497! 
-0.4313997,0.41200507,-0.49822995,-0.6371291,0.5919501,-0.9500356,-0.6225933! -0.6005906,0.76169175,0.8987628,-0.40241078,0.58028716,-0.002232816,-0.6862923! -0.09312749,0.048178017,0.97310853,0.0747668,0.10625762,0.0757613,-0.630099! 0.62401783,0.5189199,0.15795934,-0.21327622,0.72399163,0.4462539,0.7716951! #-0.065126896,0.50519,0.31157458,0.3469144,0.5974858! -0.13355577,-0.11875957,0.20992786,0.23414266,-0.8884005! 
-0.4238255,-0.76314354,0.19427776,0.3931576,-0.451299,-0.005261898,-0.37252867! -0.20913208,-0.1367413,0.042140126,-0.60219574,0.04557526,-0.93112254,0.97966135! 0.99621356,-0.78748643,-0.23171118,0.4067911,0.7768906,-0.5059251,-0.8257993! 0.30356622,-0.7264247,-0.38677394,-0.5671598,0.6635539,0.9299274,-0.6275017! #0.28448808,-0.41554105,0.15977073,-0.11533915,-0.4535601! 0.8936676,-0.20134677,-0.0044712275,0.88015103,0.7257713! 
-0.6418053,-0.503568,-0.9754827,-0.41815877,0.22722077,-0.8190677,-0.629369! 0.73609567,-0.036091566,0.8837989,-0.58186704,0.2772736,-0.6070083,-0.28412816! 0.029096007,0.5272083,0.87401086,0.07153245,-0.13086952,-0.4801432,0.17403233! -0.534454,-0.12705739,0.24060641,-0.25516328,0.7355311,-0.28014022,-0.044614434! #0.3310721,0.7529752,0.32170534,0.19763888,-0.3971025! -0.57914376,-0.22488001,0.29694533,0.8002354,-0.300907! 
-0.53931916,0.6174657,-0.7631976,-0.51176256,0.34964862,0.13363822,-0.7222379! 0.8791138,0.88049126,0.8474003,-0.40241078,-0.52220434,-0.36626884,-0.8980297! 0.68715453,-0.84726465,0.34373185,-0.69660187,-0.05040269,-0.62907326,-0.4513045! -0.78434885,0.31097144,0.5950743,0.56031454,0.7309763,0.936564,0.028478716! #0.8748729,0.2713981,0.47426715,0.7135272,0.31315184! -0.3723266,-0.26392528,0.22023617,0.09577573,0.86841583! 
-0.93140924,0.7451185,-0.20101535,-0.353037,0.18037096,0.8825834,-0.65858686! -0.34753394,0.9075882,0.61310416,-0.94833595,-0.2364079,0.75995934,0.13809514! -0.6860617,1.0194997,0.0774982,-0.61838794,-0.79132795,-0.71706235,-0.82145774! -0.22277844,-0.4529465,-0.95803154,-0.91985357,0.6514671,0.6225717,-0.5654378! #0.5215489,0.23614344,0.5454601,0.87975323,0.10109174! 0.4146495,0.6583001,-0.23657288,-0.43767646,-0.03644669! 
0.21116948,-0.503568,-0.27949205,0.68090105,-0.44904396,-0.843005,-0.629369! 0.9193144,0.7940899,0.33739224,0.085761905,0.2772736,0.06422089,-0.8898264! -0.62615645,-0.45952642,0.5363327,-0.6888855,0.6480646,0.1586622,0.98514557! -0.092677236,0.8027353,0.15672976,-0.21706602,0.35009634,-0.7091779,0.519328! #-0.8259901,-0.010920048,0.50514907,0.9158988,-0.15751815! 0.6998403,0.34877002,-0.9776033,-0.51287675,-0.636737! 
-0.79512453,-0.47665915,-0.91770124,0.59613776,-0.5239945,-0.26062536,0.8621194! 0.97946095,0.6867633,0.36704272,-0.27507928,0.7535275,-0.90559244,-0.09035316! -0.5161972,0.929669,0.87401086,-0.07845819,-0.18322861,-0.02668665,0.89740187! 0.48188627,-0.046908114,0.5746062,-0.83458626,0.90207577,-0.41634643,0.5229273! #0.6560894,-0.10081952,0.23791116,0.6297481,0.7113279! 0.14622349,-0.44838092,0.8503793,-0.45607865,-0.33729878! 
-0.40510964,-0.54534304,-0.70231736,0.7847173,0.8016539,-0.10400001,0.03866807! 0.89708436,-0.05557123,0.55385447,-1.0099677,-0.79251945,-0.19559467,-0.91293216! -0.1670964,-0.77301335,-0.7705167,-0.2770505,-0.55188835,0.4608018,-0.4024447! -0.504104,0.8200269,0.31905353,-0.26275206,0.5985353,-0.28318983,-0.48991266! #-0.43385053,-0.49375436,0.03617973,0.46342582,0.028270297! -0.40406722,-0.27626097,0.22084948,-0.49061415,-0.35641497! 
-0.44624436,0.7451185,-0.7259375,-0.8877019,0.35354233,0.08439238,-0.015217777! 0.08812904,0.7292264,0.7209709,-0.6176507,0.5090282,-0.9542551,0.9456861! -0.19377637,0.87850815,0.2872508,0.49989378,0.21955915,0.04904175,-0.4555677! 1.0151783,0.69573724,-0.30480492,-0.19052194,-0.32651654,-0.4743208,-0.4947502! #-0.73878634,-0.09607732,0.24774651,-0.8600431,-0.42061183! 0.40609136,-0.09724593,0.39621907,-0.92231166,0.08703959! 
-0.89595425,-0.503568,-0.3262494,0.5748815,-0.5239945,-0.26062536,0.3333833! 0.8154887,0.67534757,0.36704272,-0.58186704,-0.8548313,-0.9293412,0.839966! 0.38212907,1.111483,0.89765614,0.07698564,-0.15767391,0.116087526,-0.73423684! 0.8863082,-0.07446897,0.55894184,-0.90405685,0.90207577,-0.43933278,0.56387895! #-0.47691905,0.02990241,0.2057377,0.75132316,-0.3071531! 0.33323598,-0.20321862,0.29694533,0.8804324,-0.31507248! 
-0.08881819,0.15216571,-0.3296841,-0.4476078,0.5919501,-0.21416038,0.23288971! -0.054477453,0.11271272,-0.22374143,-0.12545404,0.022306962,-0.15089706,0.50951725! 0.6856477,0.48689857,-0.046587292,-0.091311,-0.2708081,-0.14228462,-0.6776413! -0.23773968,0.028003097,0.18306583,-0.9350308,0.6069932,0.3911843,0.76500154! #-0.9079853,0.4800158,0.32499814,0.5394422,-1.0042841! -0.59563375,-0.28715712,0.21168606,0.120722055,-0.94012535! 
-0.74189305,-0.11511767,-0.25294018,-0.41815877,0.1420399,-0.1932334,-5.84431E-4! -0.97687507,-0.614129,0.8625852,-0.8789424,-0.7053556,0.29920578,0.099595666! 0.92475474,-0.45952642,-0.92676884,-0.88996446,-0.16625518,-0.44052264,-0.0014413595! -0.17476022,0.42179036,-0.8443099,-0.9017957,0.7521056,-0.36809003,0.4875052! #0.18170619,-0.32109308,-0.0328981,-0.11924136,-0.06332439! -0.30363548,0.15709269,0.13955474,-0.42436743,0.67253506! 
-0.3220502,0.6499432,0.7117667,0.5748815,-0.5239945,-0.26062536,-0.07438562! -0.045449972,0.8288965,0.8238534,-0.58186704,-0.8548313,-0.6070083,0.839966! 0.7230507,1.0648445,-0.0052847452,0.50813866,-0.13086952,-0.02668665,-0.69189495! -0.26218557,0.3805447,0.17107761,-0.17933582,-0.6578684,-0.17300464,-0.044614434! #0.47684097,0.02990241,0.17465001,0.75132316,-0.38204506! -0.94279265,0.06678116,0.40706864,-0.49061415,-0.31507248! 
-0.91700757,-0.30029714,-0.3262494,0.75753176,0.23388119,-0.7657448,0.3333833! -0.9980819,0.7940899,-0.27221859,0.60483116,-0.67623496,-0.78366655,0.8277702! 0.9969156,0.9281861,-0.75949055,0.50813866,-0.47814155,0.4608018,-0.73423684! 0.12985039,0.8027353,0.4499902,-0.90405685,0.90207577,-0.28318983,0.56387895! #-0.012809038,0.02990241,0.32170534,-0.2509419,-0.29563564! -0.40887952,-0.30876416,0.24806528,-1.001643,-0.7809475! 
0.014032006,-0.11511767,-0.3143797,0.6348134,0.68495613,-0.98629177,0.1717994! -0.8795247,0.7940899,0.71351296,-0.9657388,-0.21247298,0.7457754,-0.3066404! -0.96518683,0.012237521,-0.7705167,0.39823228,-0.4872606,0.07753107,0.98514557! 0.832795,-0.7304281,0.4682657,-0.19052194,0.11659682,-0.89855504,-0.48991266! #-0.64094174,0.21118581,0.34130666,0.087633505,0.4259205! 0.10510206,0.0389421,0.22084948,-0.065992,-0.39830047! 
0.67982996,-0.68626565,0.6925563,0.59509104,0.40020818,-1.008951,0.18841495! -0.6504314,0.7284275,0.32432044,-0.5851466,-0.91246235,-0.11756948,-0.91978586! 0.78983843,0.79035276,-0.91470754,-0.027668476,-0.10086174,-0.7368659,0.9762784! 0.1445954,0.73850703,0.31722897,0.26896122,0.6826004,-0.6353391,-0.28070354! #0.64452565,0.675792,0.2760132,-0.6139355,0.4665944! 0.40537393,-0.7542428,0.16463216,0.7444035,0.9106239! 
-0.07556391,-0.9986347,-0.917442,0.75753176,-0.46584958,-0.81319547,-0.6423814! -0.062212467,0.60477924,0.61310416,-0.64808124,-0.2364079,0.34398523,0.5935333! -0.6277224,1.0194997,-0.75949055,0.50813866,-0.7540481,0.017527726,-0.034180284! -0.35250998,-0.36925316,0.07254055,-0.28501526,0.2039342,-0.86111283,-0.044614434! #-0.3788966,0.23614344,0.19319966,0.4527352,0.95930076! -0.5189259,-0.30876416,0.24806528,-0.43767646,-0.03644669! 
0.8057325,0.5052345,-0.046002913,0.5748815,-0.8521548,-1.008951,0.030211657! -0.15198123,-0.073880106,0.84539473,-0.95814335,-0.8548313,-0.9183192,-0.18245672! -0.2125024,0.89351934,0.9543712,-0.50601345,-0.010331035,0.108324215,-0.80601025! 0.24114843,0.99010956,0.55894184,-0.9350308,0.8864128,-0.2004053,-0.76635593! #-0.62144756,0.037912387,0.23791116,0.5394422,-0.571223! -0.081472516,-0.29735282,0.29694533,-0.92231166,0.6980821! 
-0.5408064,0.25279552,-0.19111657,-0.5779323,0.36503816,-0.4725597,0.79656243! -0.07515776,0.5057172,-1.0747627,-0.035066128,-0.5746721,0.34102908,-0.7406825! -0.2814945,0.86995256,-0.77330637,0.1420219,0.2938632,0.051617607,0.5685369! -0.31062424,-0.7868618,-0.9315252,0.87165195,0.670326,-0.5402199,0.03645001! #-0.9553242,0.02990241,-0.8961984,-0.49477592,0.69424057! 0.64369357,-0.85719097,0.16041194,0.37016368,-0.72732556! 
0.027003288,-0.503568,-0.014911473,0.78398556,-0.49465865,-0.843005,0.21339694! -0.51836,0.2777965,0.40002108,-0.58186704,0.2772736,-0.9466049,0.099595666! 0.7075958,1.0648445,1.0032256,-0.69471115,-0.13086952,0.12290652,-0.69189495! 0.685537,0.99010956,0.17999345,-0.15837464,0.8316988,-0.22509895,-0.048621047! #0.13257909,-0.636181,0.55436677,0.07903443,-0.5837682! 0.8231398,0.34877002,-0.9776033,-0.51287675,-0.636737! 
0.6317482,-0.25397626,-0.4763022,-0.47188437,-0.46584958,0.8876208,-0.091819525! -0.42736673,-0.18974605,0.40002108,-0.6424185,-0.22049442,-0.94492245,-0.8844985! -0.75586045,0.89351934,-0.13810316,0.6253588,-0.63174987,-0.6305822,-0.80601025! -0.7005099,0.509729,-0.8067681,-0.49862364,0.71856403,-0.3317378,0.40512583! #0.8043597,-0.012746364,0.05533097,0.53327423,0.7113279! 0.63857067,-0.2462079,-0.11500004,-0.43767646,0.6980821! 
0.46047258,0.14221513,-0.80757535,-0.5307838,-0.07498783,-0.0075916126,-0.39695495! -0.07163954,-0.1367413,-0.05229305,0.70775616,0.2713087,0.20402133,-0.09451887! 0.20147622,0.883348,-0.55515873,-0.09948267,-0.119154334,0.098167494,0.89740187! 0.52944934,0.7548872,0.21238375,-0.24401987,0.6474809,-0.38040534,0.3413633! #0.29627752,0.7129163,0.27541482,-0.8007596,-0.28043187! -0.36944377,-0.30185485,0.20992786,0.47056746,-0.8884005! 
-0.9721342,0.31333998,0.3284429,0.44818568,0.020884633,0.8825834,0.42837358! -0.96846056,0.8919933,-0.8438177,0.037607193,-0.43665186,-0.27667952,0.13809514! 0.8702495,0.70307976,-0.019169688,0.5332416,-0.005183071,0.036103804,0.96198577! 0.5854422,-0.06927526,-0.31718087,-0.21356988,0.11659682,0.36353266,0.18946338! #0.76279116,-0.23583351,-0.8838617,0.49912986,-0.78638005! 0.46254575,-0.24393654,-0.2097553,-0.2870803,0.85950947! 
-0.483114,-0.4156115,0.017786767,0.86189765,0.24637659,-0.81319547,-0.64750636! -0.101759315,0.7841704,0.9634304,-0.6713461,-0.2364079,0.46842158,0.5935333! 0.43240774,0.8675586,-0.92159504,-0.61838794,-0.79132795,0.061889347,-0.034180284! 0.572155,0.9886297,0.15198848,0.40366325,0.21247557,-0.48364258,-0.5654378! #-0.96904135,0.53388023,0.19319966,-0.74441195,0.95930076! 0.9451344,-0.25804144,-0.4650544,-0.43767646,0.8887408! 
0.92768705,0.14373887,-0.33033812,-0.461384,0.5919501,0.009630542,-0.3967917! -0.8470852,0.11271272,0.7138752,-0.30253735,0.022306962,-0.9170792,-0.24882479! -0.4666109,0.012237521,0.97310853,-0.88996446,-0.010331035,0.44208995,0.949! 0.24520397,0.5189199,-0.5706356,-0.21327622,-0.26052853,-0.20760716,0.76500154! #-0.04984522,0.50519,0.34130666,0.54687643,0.5974858! -0.064971685,-0.2511897,0.15802898,0.23414266,0.89998645! 
-0.47422028,0.86239386,-0.5060704,-0.41815877,-0.91830933,-0.7892222,0.3612343! 0.728328,0.7582015,0.010723647,-0.16833735,-0.058065016,-0.20008157,-0.997769! 0.017187238,-0.27264464,-0.35293388,-0.5303797,0.87983,-0.3716551,0.3750233! 0.857976,0.99198914,-0.8067681,-0.8855628,0.3689481,-0.47843063,0.5127854! #0.35993505,0.32660317,0.9587395,0.5394422,-0.090510234! -0.47346145,-0.74584126,0.8346165,0.07448132,-0.5093696! 
-0.7170532,0.7879394,-0.6582471,-0.9090218,-0.451299,0.32535863,0.885645! -0.73446774,-0.96787,-0.291354,0.11564677,0.3350192,0.45186996,0.25566456! 0.4208841,0.5482334,0.059994712,0.028981581,-0.8428217,-0.02668665,0.33458346! -0.6784147,-0.46379405,-0.5174742,-0.29970902,0.11659682,0.88626134,-0.50656545! #-0.09263098,0.29126352,0.2010591,0.03863854,0.7113279! 0.9114795,-0.68569297,-0.20196113,0.82280886,0.97850925! 
0.6666697,0.6246885,-0.72712266,-0.5504158,0.1420399,-1.0425597,-0.015217777! -0.02496469,0.595382,0.33208275,-0.5851466,-0.21247298,0.92828536,0.50265145! 0.04493189,0.13419843,-0.8035329,-0.5303797,0.45199654,-0.44326234,-0.7754961! -0.4676535,0.49971685,-0.34926295,-0.19052194,0.072757564,-0.47813895,-0.48991266! #-0.51196206,-0.008820742,0.89829886,-0.08268143,-0.43698984! -0.25868523,0.0389421,0.22084948,-0.76473117,-0.39830047! 
-0.9933846,-0.3546706,-0.85852194,-0.22607589,-0.5138548,-0.81319547,0.5751333! 0.3486066,0.065166734,0.61310416,-0.94833595,0.6059774,0.46842158,0.5935333! -0.8388283,1.0194997,0.18748459,0.051667973,-0.79132795,0.061889347,0.18392977! 0.28843677,0.03390246,-0.8067681,-0.58591306,0.2039342,-0.86111283,-0.5654378! #-0.9902185,0.6775155,0.19319966,0.6329067,0.95930076! -0.22224987,-0.24929088,0.12789047,-0.5385635,-0.03644669! 
-0.049272418,-0.27199075,-0.3262494,0.3578297,0.5571059,0.027107473,0.3333833! 0.83867323,0.7940899,0.68699735,0.60483116,0.6694406,-0.7150543,0.86182415! -0.8744585,0.833678,0.89765614,-0.57337785,-0.15767391,0.8793362,-0.73423684! 0.21923625,-0.44433498,0.14271547,-0.6975561,0.90207577,0.9082812,-0.529689! #0.90112144,0.6432978,-0.39811462,-0.2509419,-0.571223! -0.58078456,-0.81269264,0.20992786,0.4946423,-0.2674713! 
0.035293818,0.7321676,-0.7398166,0.5685446,0.1420399,-0.98187655,-0.0039790757! 0.3526168,0.7582015,0.5744154,-0.26899517,0.6313232,0.29920578,-0.21285921! -0.82789177,0.89931464,-0.5919442,0.44426712,-0.010331035,-0.44326234,-0.0014413595! -0.30515802,0.509729,-0.8869368,-0.58659923,0.72791195,-0.19015013,-0.52224505! #-0.58957946,-0.007466633,0.040974975,-0.11924136,0.5037851! 0.21297872,0.15709269,0.1300995,0.10628331,0.67253506! 
-0.04733307,-0.09332503,-0.719154,0.8562174,-0.8911419,0.13500535,-0.03291752! -0.9738989,0.73596865,0.52848023,-0.60219574,0.046670772,-0.19559467,0.5230712! -0.57530415,0.033457793,0.53395295,0.5854406,0.8305601,-0.829211,-0.7768846! -0.27026463,0.7149857,-0.8045531,-0.6742624,-0.16546972,-0.5764695,-0.71663445! #0.77053046,-0.5286632,0.025716722,0.85385585,-0.9039129! 0.44887412,-0.061451487,0.18091165,0.120722055,0.059491076! 
0.1482408,-0.07018398,8.2150474E-4,-0.98614585,-0.18454544,0.52053124,0.45960128! -0.795231,-0.26852295,-0.2904364,0.9414395,-0.058065016,-0.7124316,0.37224817! -0.577037,0.83337975,-0.92676884,-0.77698994,0.8350445,0.39440024,-0.05656882! -0.75789165,-0.12005842,0.147964,-0.54333013,0.3689481,-0.4691592,0.52231115! #0.6745312,-0.081314206,0.4190551,0.5120114,-0.354614! 0.00811572,0.18437159,0.8346165,-0.5341256,0.9279538! 
-0.14614773,0.10581614,-0.9552909,-0.66173476,-0.08400473,-0.7892222,0.31240046! -0.9259124,0.7263218,-0.032483704,-0.4690013,-0.058065016,0.31807923,-0.13816294! 0.6886699,-0.42445987,-0.78939426,-0.0068916045,0.73561966,-0.5766303,0.24707067! 0.59159756,0.99198914,0.147964,-0.28538787,0.11659682,0.38712248,-0.25669095! #0.8041481,0.79799354,0.040974975,-0.68486637,-0.3156879! -0.42648053,-0.25804144,-0.122886926,0.24618065,-0.28951055! 
0.5189482,-0.503568,-0.033509135,0.5748815,-0.35831118,-0.26062536,-0.38487136! -0.6768267,-0.036091566,0.33739224,-0.5392888,-0.9572073,-0.9183192,0.839966! -0.884228,1.0648445,0.9198966,0.07698564,-0.13086952,-0.3748237,-0.28001857! -0.28369057,-0.50854915,0.69206274,-0.9677047,0.8738815,-0.48364258,-0.5444363! #-0.7683655,-0.6141366,0.23791116,0.75132316,0.28085983! 0.765887,0.5234983,-0.81277835,0.8002354,0.6712668! 
-0.6984961,0.14373887,0.07700192,0.6668174,0.6551273,-0.005261898,0.19981873! -0.8688517,-0.614129,0.8625852,0.47368622,-0.7053556,0.60380995,0.91765654! -0.9614749,-0.7831973,-0.089696884,-0.091311,-0.30342463,0.11611055,0.7753749! -0.29690337,0.50852394,0.25006077,-0.87725204,0.92320085,0.303028,0.4550925! #0.5970645,0.13176537,0.09174369,0.015392065,-0.090510234! 0.2300154,0.28281927,0.9712175,-0.8941364,0.88337237! 
0.42602825,0.39109933,-0.014911473,-0.6440896,-0.06206275,-0.8377156,-0.091819525! 0.65220594,0.7886099,0.88391507,-0.26899517,-0.2364079,0.29920578,-0.7211299! -0.23768699,0.16842103,-0.5978862,-0.77698994,-0.42471445,0.39440024,-0.42750105! 0.5771462,-0.7304281,-0.8067681,-0.58659923,-0.72582114,-0.25315714,-0.5648947! #0.55620325,0.7078665,0.040974975,-0.11924136,-0.088137865! 0.042537328,0.15709269,0.08401757,-0.7368328,-0.6371961! 
-0.38902593,0.6246885,0.16445827,-0.5362338,-0.06613651,0.33380973,0.19654441! -0.6687999,0.8356945,0.94426715,0.9364054,-0.058065016,0.84746236,-0.047873568! -0.27606392,-0.8444903,-0.7031369,-0.58301413,-0.6190783,0.08738689,-0.23166049! 0.23677449,0.45433745,0.147964,0.5321754,0.72791195,0.9468862,0.44588926! #0.88696,0.6419819,-0.48832223,0.1306258,-0.02951616! 0.6155975,0.6396438,0.23609915,-0.82003254,0.9279538! 
-0.52501214,-0.102466166,0.23801322,0.7909862,-0.06613651,-0.7498202,0.19654441! -0.81587446,0.6301568,0.94370264,-0.64259946,0.56401944,-0.7124316,-0.6862923! -0.39681733,0.44432667,-0.5175927,0.41914415,-0.6190783,-0.51251566,1.0087974! -0.27956307,-0.8730832,0.17107761,0.53882086,-0.7275319,-0.23591024,-0.7517559! #-0.89264125,0.79799354,-0.47947884,0.5120114,-0.71899325! -0.6189631,-0.19674435,0.20992786,-0.82003254,-0.2674713! 
-0.7621757,0.28507814,-0.496039,0.79821384,0.006522417,-0.8817588,-0.11296097! 0.97181404,-0.18974605,-0.26506233,-0.6424185,-0.566335,-0.94492245,0.91765654! 0.70152485,0.44467872,-0.089696884,0.6863989,-0.22998437,0.1175842,-0.6646757! -0.69228125,0.028130244,0.45146963,0.20522408,0.6688591,-0.2273469,0.1203672! #-0.026690364,0.2159718,0.079775974,-0.704196,-0.35124397! 0.3258735,-0.0062875897,0.98529637,-0.92231166,-0.94012535! 
-0.83177304,0.77064776,-0.85570914,0.6348134,0.1420399,0.6040777,0.1717994! 0.98230386,0.7697813,0.3655568,-0.53977567,0.94031036,0.29920578,-0.049801826! -0.6279801,0.7162689,0.118425444,0.5355068,0.42449763,-0.7201715,-0.52461237! -0.2600472,-0.7304281,-0.76798034,-0.11156712,0.11659682,-0.48981273,-0.48991266! #-0.23894513,0.6686955,0.89829886,-0.08268143,0.4259205! 0.9305109,-0.3068089,0.20992786,-0.76473117,0.97850925! 
-0.03809154,0.9258131,-0.15705562,0.823108,0.24854466,-0.25838387,0.10195494! -0.5775678,-0.036091566,0.7139019,-0.98236394,0.7230706,-0.836079,-0.68167305! -0.13697946,-0.42821205,0.6974251,-0.31144977,-0.501215,0.4608018,-0.781551! 0.7325189,0.3565824,0.41640094,0.06824577,-0.029171348,-0.30522895,0.033178605! #1.0042341,0.7366992,0.56059074,-0.8477572,-0.3971025! 0.5907754,-0.33125094,-0.12777895,-0.4663435,0.5646365! 
0.4766357,0.37347066,-0.3262494,0.3931576,-0.45784196,0.22939801,-0.37252867! -0.10940552,-0.1367413,0.53737396,-0.29212394,0.04557526,-0.9559188,-0.91978586! -0.7717974,0.70679724,0.71272373,-0.07845819,-0.24878573,0.64119756,0.77208805! 0.65081,0.3349253,-0.38677394,0.38655326,0.6433514,-0.25669852,-0.55106187! #0.27751622,0.77630025,-0.66042566,-0.4080424,-0.2329857! -0.12078869,-0.3467914,0.3575366,-0.6397006,0.7257713! 
-0.80409336,0.82541716,-0.34872615,-0.36881173,-0.5239945,-0.8736407,0.7586844! 0.84432626,0.3612988,0.52848023,-0.009115439,-0.88487136,0.92828536,0.6810689! -0.6330236,0.8749084,-0.5417699,-0.04525934,-0.95929265,0.7004373,-0.6646757! 0.46518242,-0.07446897,0.6573741,-0.43304658,0.7187404,0.15116966,-0.007997632! #0.78880394,-0.39737523,0.4023584,0.47363755,-0.3071531! 0.9000608,0.24866754,0.8503793,-0.9433377,-0.87468535! 
-0.9662392,0.21177197,-0.80757535,-0.77768695,-0.07498783,-0.0075916126,-0.39695495! 0.41415727,0.7582015,-0.05229305,-0.30739522,0.2713087,0.20402133,-0.40337867! 0.6307248,1.0648445,-0.0013713501,0.4745191,-0.13086952,0.12563981,0.89740187! 0.21413064,0.55767334,0.55894184,-0.24401987,0.6474809,-0.2772108,0.3159939! #0.08158624,0.5867155,0.034863044,0.75132316,-0.571223! -0.6726258,-0.30185485,0.29694533,0.7842815,0.62328994! 
0.15379643,0.221722,-0.37541953,-0.4476078,0.5919501,-0.17056893,-0.1515286! -0.8027222,0.7940899,-0.22374143,-0.13047123,0.022306962,-0.051619053,-0.8898264! 0.29945898,0.4931335,-0.046587292,0.737949,-0.2708081,-0.3643409,0.98514557! 0.6605855,0.8027353,0.18306583,-0.22184697,-0.34084964,-0.6432278,0.519328! #-0.66657066,0.4800158,0.67075163,0.5394422,-1.0067128! -0.32164717,-0.067616224,0.20992786,0.35356617,-0.9828271! 
-0.09156561,0.9531621,-0.99263287,0.89651877,-0.10073991,0.58678615,0.31240046! 0.5858649,0.6905746,0.032575745,0.8206712,-0.91246235,0.770175,-0.13577318! -0.81987524,1.0889716,0.5885539,-0.38092506,-0.41665995,0.7526039,0.9762784! -0.5992793,0.73850703,0.7832401,-0.07697916,0.7354473,-0.66133994,0.519328! #-0.13168526,0.6432978,0.25706238,0.09331016,-0.7192698! -0.35187244,-0.04470086,0.20992786,-0.5011146,-0.738803! 
0.8920988,-0.503568,0.3284429,0.5748815,-0.5715889,-0.6196691,-0.41375044! -0.7775905,-0.3657496,0.33739224,-0.9942564,0.2505488,0.22698826,0.92012954! -0.98048675,1.0847719,0.8939255,0.07698564,-0.14712097,0.017378839,0.8100493! -0.44611824,0.08209553,0.2165642,-0.16965151,0.8528132,0.303028,-0.56918085! #0.72179353,0.66955596,0.23791116,0.5425936,-0.56071746! -0.6943233,-0.29418707,0.29694533,-0.57843965,0.88715905! 
0.8731837,0.7451185,-0.72712266,0.9285939,-0.90671057,0.6011202,-0.091819525! 0.6099044,0.73596865,0.5499052,-0.60219574,-0.88487136,-0.7858101,-0.91293216! 0.10153282,0.031026494,1.0574168,0.5838958,0.44408873,-0.8781611,-0.73423684! 0.86450565,-0.7482472,-0.34926295,-0.6672403,-0.16546972,-0.99763095,-0.6275017! #-0.24358758,-0.5286632,0.32489526,0.49965563,-0.48071522! 0.24280667,-0.07589577,1.7669052E-5,0.20605575,0.91489303! 
0.20651746,0.14373887,-0.7673732,0.68752736,-0.63839865,0.64604,0.1717994! -0.11178148,-0.63967335,0.31657648,-0.9657388,-0.68266344,0.20402133,-0.049801826! 0.43763864,0.87946147,-0.7705167,-0.88996446,-0.030074073,0.47652,0.94933766! 0.539111,0.08209553,-0.34926295,-0.58591306,0.8864128,-0.93852043,-0.48991266! #-0.1577754,0.66955596,0.89829886,-0.08268143,-0.12285362! -0.3670162,-0.29381126,0.18567061,-0.76473117,-0.39830047! 
-0.45842576,-0.42513075,-0.53853166,0.6668174,-0.3128091,-0.8377156,-0.43979722! -0.56828964,-0.3865551,0.40002108,0.49747908,0.23600313,0.7724551,0.6674785! -0.7604908,0.87753665,-0.57063055,-0.022523474,0.73561966,-0.61493516,-0.3312949! -0.15581834,0.85633016,-0.5926821,-0.21356988,0.7031529,0.303028,-0.4158337! #-0.9151174,0.13176537,-0.45210516,0.4836315,-0.15438455! 0.78679025,0.07967472,0.8037374,-0.86912566,0.86951333! 
-0.8121983,0.42569792,-0.014911473,0.7949535,-0.3152345,0.69005406,0.50064206! 0.19361961,0.50114477,-0.0015919805,-0.6176507,0.38584664,-0.18297528,-0.26038423! -0.72761154,0.14501338,-0.14110798,-0.005957246,-0.6219226,-0.70781565,-0.6789401! 0.52821445,0.699281,-0.70857555,-0.116690636,-0.72582114,-0.7602953,-0.6981669! #-0.07668686,0.19465344,0.96838355,-0.8600431,-0.42061183! -0.9172505,-0.2731958,0.09676744,0.05310623,-0.6711128! 
-0.68282354,0.50713474,0.6345989,-0.48044488,-0.47675142,-0.23909754,-0.45556918! 0.03931105,0.69111025,-0.98590815,-0.892768,-0.88487136,0.68788373,-0.45615506! 0.38817382,-0.010664105,-0.92676884,-0.17745245,-0.12412579,-0.49955463,-0.23166049! 0.03628874,0.45722902,-0.845189,-0.4687003,0.7320169,0.9293262,-0.12894101! #0.017911673,-0.008724362,0.63728285,-0.022851825,0.95523334! 0.6277588,0.43946457,-0.19082516,0.35356617,-0.034588575! 
0.42296708,0.2441791,0.008645058,-0.18101466,-0.49182358,0.33380973,-0.60245275! -0.22165811,0.8519554,0.9260355,-0.095428824,0.7187208,0.8815074,-0.049801826! 0.17965806,0.7162689,1.0463166,-0.58301413,0.7453426,-0.7057556,-0.0014413595! 0.48981678,0.621277,0.31905353,-0.58659923,0.43430012,-0.2560147,-0.0964762! #0.44314718,0.19615686,-0.67663884,-0.095564425,-0.71141684! 0.45478296,0.15709269,0.1300995,-0.22365212,-0.85660625! 
0.052022815,0.41887987,0.32293755,-0.14529923,0.35354233,0.8825834,0.42837358! 0.9754865,0.8919933,-0.20093238,0.6982412,0.2505488,0.29505077,0.18270321! -0.3158089,0.11482918,0.3452821,0.5093739,-0.6712766,-0.7128788,-0.7996216! -0.31440473,-0.06927526,0.22648714,-0.23954438,-0.32651654,-0.51308346,0.18946338! #-0.5029211,-0.09607732,0.040974975,0.87975323,-0.26990044! 0.99696934,-0.25934547,-0.7674564,-0.2870803,0.85950947! 
0.8795817,0.6246885,0.3284429,0.44818568,0.020884633,0.8825834,0.42837358! -0.096012115,0.83052486,0.9260355,0.9364054,0.6040472,-0.27667952,-0.91978586! -0.31331408,0.5011711,-0.019169688,0.5093739,-0.005183071,-0.7128788,-0.23166049! 0.5342128,0.63759154,-0.94391656,-0.16724686,0.72791195,0.2885426,0.47219962! #-0.36850885,0.6419819,0.040974975,0.87975323,-0.19500697! -0.8978895,0.6732593,0.38944852,-0.2870803,0.848759! 
-0.1886257,-0.9223603,0.19427776,-0.021328688,-0.3128091,-0.005261898,0.1524911! -0.05582409,-0.3415012,0.24036595,0.0339245,0.6108028,-0.67822325,-0.6016191! -0.0672667,-0.7831973,-0.019169688,0.58873487,-0.71084255,0.08835942,0.24707067! -0.07583989,0.47139618,-0.8600559,-0.5671598,0.6929039,0.79858816,-0.18206534! #0.18493772,0.05789664,0.5769638,0.4836315,-0.19500697! -0.66267014,0.07967472,0.1406956,-0.7354424,0.85950947! 
0.49521637,0.7451185,-0.917442,0.75753176,-0.26874253,-0.7657448,-0.9701602! -0.7199768,0.68753797,-0.27221859,-1.0017912,-0.67623496,0.34398523,-0.24882479! 0.089362025,0.8790414,-0.75949055,0.50813866,-0.51103747,-0.70781565,-0.71688646! -0.254228,-0.41008797,-0.85514766,-0.16965151,0.6916739,-0.28318983,-0.59651905! #-0.97272015,0.66955596,0.32170534,0.53412116,-0.29708865! -0.38821387,-0.30876416,0.25417253,-0.96343863,0.8583941! 
0.8619883,0.94246674,0.32293755,-0.18101466,0.16421506,-0.98087597,0.37490195! 0.9046103,0.1386377,0.33946183,-0.6424185,0.12624156,0.6297256,-0.20670797! -0.6769501,0.93024915,-0.5978862,-0.60075176,-0.010331035,0.051617607,0.5944725! -0.47736335,0.6739822,-0.9627946,-0.87725204,0.8864128,-0.18751003,-0.2535034! #-0.3885402,-0.0345809,0.041934863,0.5425936,-0.090510234! -0.26546216,-0.23093085,0.38944852,0.8317918,-0.22593796! 
0.85141397,0.15216571,-0.3296841,0.8562174,0.5919501,-0.21416038,-0.0032738522! 0.03364837,-0.30145,-0.22374143,-0.13047123,-0.91246235,-0.15089706,-0.23584302! -0.6565474,-0.55612075,-0.046587292,-0.091311,-0.2708081,-0.829211,-0.6776413! 0.58946204,0.012116335,0.18306583,-0.6742624,0.6069932,-0.5764695,0.76500154! #0.5945804,0.4800158,0.045671947,0.5394422,-0.9039129! -0.64957845,-0.6845037,0.18091165,0.15009555,0.059491076! 
0.7410232,0.52714974,-0.9552909,0.39227843,0.18037096,0.015531335,-0.011826323! 0.029510856,0.44672287,0.8010617,-0.30739522,-0.88487136,-0.9466049,0.9873742! 0.7641599,0.89931464,0.9543712,-0.50601345,-0.010331035,0.108324215,-0.5435044! -0.008429527,0.30799475,-0.32505363,-0.87744087,0.74660945,-0.2004053,0.957445! #0.25449497,-0.5636562,0.21061164,0.5394422,-0.46300146! -0.98492384,-0.39209127,-0.082543135,-0.84315455,0.6980821! 
0.52693,0.6499432,0.7117667,0.5748815,-0.5715889,-0.26062536,-0.07438562! 0.66775143,-0.036091566,0.33739224,-0.58186704,0.62400085,-0.6070083,0.839966! -0.7030094,1.0648445,0.9198966,0.50813866,-0.13984665,0.10387616,-0.69189495! 0.60373604,0.3805447,0.183815,-0.9200099,0.8625653,-0.18129516,-0.5444363! #-0.8362911,0.32743976,0.001665622,0.79131836,-0.571223! 0.121313095,-0.29735282,0.29694533,0.8002354,0.92070425! 
0.48786223,-0.503568,0.13295051,-0.5307838,-0.51068765,-0.005261898,0.37735927! -0.5735589,0.2777965,0.5055331,0.6474677,0.2544933,0.10845101,0.099595666! -0.13197172,-0.45952642,0.25115407,-0.6888855,-0.50612533,0.07753107,-0.6646757! 0.8148538,-0.07446897,0.17999345,-0.01297006,-0.6562287,0.303028,0.3159939! #-0.6975907,-0.636181,0.50514907,0.5220361,-0.34047243! -0.05321324,-0.16069688,-0.9776033,-0.51287675,-0.6102824! 
-0.4850496,0.28598648,0.32293755,-0.21125162,-0.22306725,-1.0134685,-0.662009! 0.75593674,0.62523997,-0.064197496,-0.053744745,0.53109217,0.6259568,0.9176189! 0.57810867,0.22304974,-0.55515873,-0.11787927,0.83506006,0.10926626,-0.13461018! -0.2697535,-0.14999609,0.6573741,-0.095950544,-0.40835348,0.5891062,-0.61228526! #-0.9494194,0.53388023,0.3187982,0.7575051,-0.32561195! -0.27720535,-0.17561436,-0.7924937,-0.9121335,-0.3190943! 
0.21328986,0.271654,0.95565474,0.5980363,0.94344264,0.55710214,0.1717994! -0.14097273,0.7284275,0.6661706,-0.5851466,0.7644205,-0.73987645,-0.91293216! 0.8777386,0.031026494,1.055361,-0.2770505,-0.23373133,-0.71430045,0.911854! -0.37525594,-0.18537533,0.18341957,-0.24661002,0.68049604,0.936564,-0.6275017! #-0.45832193,0.42174998,0.28162992,0.55103797,-0.49762368! -0.7017449,-0.26729327,0.035114016,-0.31177536,-0.4623507! 
0.2846179,-0.42048824,0.11619568,-0.21809685,-0.3128091,-0.008425504,-0.43979722! -0.54938173,0.50114477,-0.023868322,0.9364054,0.23600313,0.7724551,-0.56859994! 0.7009355,0.89660543,0.31369692,-0.005957246,-0.66792774,-0.61493516,-0.3312949! -0.9103198,0.50852394,0.98513645,-0.116690636,-0.72582114,-0.29173395,-0.4158337! #-0.5626801,0.13176537,-0.40423566,-0.16859066,-0.1621213! 0.8398268,0.07967472,-0.6004394,-0.8741929,0.86951333! 
0.46714842,-0.55479884,-0.20101535,0.6348134,-0.5239945,-0.09377134,0.38781506! 0.5672455,0.39678314,0.5499052,0.089827195,-0.79251945,-0.19559467,-0.40337867! 0.24935997,0.89931464,0.0774982,-0.2770505,0.33562768,-0.009375818,0.7832544! 0.9116112,0.08209553,-0.97036326,-0.19052194,0.11659682,-0.2772108,-0.52708936! #0.81758857,-0.51746833,0.5683887,0.45407167,0.5509231! -0.257941,-0.24393654,0.22084948,-0.2870803,-0.46588767! 
0.32149613,0.15860908,0.004727993,-0.36866143,-0.6398719,0.08439238,0.17907213! -0.5857031,0.7292264,-0.98041904,-0.6176507,0.53628683,0.20402133,-0.22995308! -0.9662788,0.89931464,0.30478016,-0.88996446,0.24007884,-0.02668665,0.9383055! -0.25972217,0.08209553,0.38029015,-0.19052194,0.8864128,0.71927285,-0.22407928! #0.09742808,0.2276992,0.040974975,0.5425936,-0.090510234! -0.084619045,-0.24349663,0.14093143,0.12480648,0.89998645! 
0.6421144,0.31333998,-0.85852194,-0.66173476,-0.08400473,0.31383616,0.014299519! 0.3515228,0.7263218,-0.19614284,-0.2829177,-0.43665186,-0.7712966,0.111749746! 0.6121309,-0.42445987,-0.7429664,0.5332416,-0.6149625,0.036103804,0.96198577! 0.41948995,0.87707424,-0.31718087,-0.28538787,-0.59356844,0.36089492,-0.6275017! #0.589612,0.14349295,-0.88466024,0.46322268,-0.78638005! -0.38779044,-0.24343264,0.3575366,0.36165804,-0.45548236! 
-0.9718778,-0.503568,0.26203972,0.7909862,-0.06613651,-0.7498202,-0.44827583! -0.98540807,0.64730734,0.36704272,-0.4480909,-0.058065016,-0.87767434,-0.09035316! -0.3071314,-0.8125641,0.9207638,-0.07845819,-0.6190783,-0.02668665,-0.44263005! -0.5959277,-0.07446897,0.147964,-0.07200594,0.11659682,-0.23591024,-0.8346128! #-0.4242549,0.79799354,-0.47947884,-0.8007596,-0.3071531! 0.7484026,9.296872E-4,0.8503793,-0.82003254,-0.31507248! 
-0.6821304,0.14373887,-0.6172993,-0.57601357,0.55202705,-0.3817306,-0.11296097! -0.75320363,0.71752113,0.68699735,-0.6176507,0.6040472,-0.051619053,-0.71636826! -0.8390846,0.43647316,-0.73683447,0.39823228,-0.4872606,-0.0029366836,-0.6646757! 0.79843843,0.65566397,-0.33924308,-0.42043838,0.90207577,-0.21528846,-0.64505297! #0.91075563,0.7129163,0.2448869,-0.72919315,0.6459621! 0.02407062,-0.3208618,-0.5739325,-0.9580414,-0.28112733! 
0.25267598,-0.503568,0.077924065,0.5748815,-0.5715889,0.3852682,-0.41375044! 0.799224,0.6560916,-0.9719808,-0.58186704,0.6961714,0.76062155,0.84013253! -0.010404825,-0.58064425,0.9198966,-0.2652352,-0.13086952,-0.02668665,-0.69189495! -0.77794266,0.99010956,0.55894184,-0.73860097,-0.70121264,-0.48364258,-0.9597249! #-0.42088926,-0.019887473,0.28673506,0.0660522,-0.83384025! 0.4014276,-0.050768495,-0.4063741,0.8002354,-0.6977372! 
0.3688145,-0.1905055,0.34789,0.9073299,-0.47069255,-0.44420236,0.015327852! -0.3300432,0.7582015,0.7128769,-0.60219574,-0.9522486,-0.5067601,-0.19355291! -0.24481344,0.07570049,-0.7738575,-0.082221806,-0.124172226,-0.6912905,-0.81931! -0.92673016,0.6739822,-0.9855842,-0.18895885,-0.40835348,-0.27580452,-0.2535034! #0.8665004,-0.0345809,0.2893192,0.7504738,0.69424057! 0.228742,0.4965574,0.18510714,-0.2448755,0.49317935! 
-0.041321516,0.148771,-0.9889735,0.5980363,-0.63839865,0.62044173,-0.053731337! 0.064018846,0.7284275,0.8625852,0.68815714,-0.87978,-0.73987645,-0.91293216! 0.52836525,0.89619476,-0.6534041,-0.88996446,-0.14144297,-0.7201715,0.950604! -0.98428607,-0.7482472,-0.8067681,-0.24661002,-0.51297265,-0.5266752,-0.48500255! #0.5397065,0.66955596,0.28162992,0.5425936,-0.090510234! -0.6922368,-0.29450196,0.14335683,-0.72312176,0.92233515! 
0.27941084,0.11008651,-0.28614,-0.5540722,-0.50973,-0.07333175,-0.9701602! 0.5873731,0.80591613,0.029265165,-0.26358438,-0.641857,-0.15912057,-0.91978586! -0.49682423,0.5482334,0.72999966,0.006702509,-0.8783267,-0.70425445,0.93656564! -0.37791324,0.63277435,0.07254055,0.6384378,0.6916739,-0.25669852,-0.6546462! #0.8843783,0.29126352,0.34130666,0.14685604,-0.25065687! -0.19059741,-0.3266132,0.38307214,-0.9286368,-0.18586856! 
-0.6298959,-0.11511767,0.008645058,0.6348134,0.8018105,0.6040777,0.1717994! 0.98020124,0.44672287,-0.98041904,-0.9657388,0.5365397,0.29920578,-0.061159782! 0.7973583,0.7162689,-0.77412844,-0.2770505,-0.4872606,-0.44326234,-0.7617563! 0.12857509,-0.22255215,-0.34926295,0.817425,0.11659682,-0.70298517,-0.22407928! #0.5580996,0.6432978,0.2186409,-0.08268143,-0.021789938! -0.58467543,-0.21749581,0.16008423,0.92726505,-0.3103544! 
-0.8804796,-0.16722518,0.35381782,-0.5307838,0.5919501,-0.5900315,0.3580862! -0.73104906,-0.41759244,-0.05229305,-0.60219574,-0.9153797,0.6261052,0.31205386! 0.9657494,-0.7831973,-0.12003657,-0.5303797,0.757933,0.07753107,-0.630099! -0.28571856,0.4371577,0.17182717,-0.8513771,-0.6253023,-0.41634643,-0.28070354! #0.86093986,-0.010940421,0.3024304,0.3469144,-0.10704593! 0.800681,0.07967472,0.20992786,-0.3644899,-0.29018223! 
-0.9864783,0.86239386,-0.5042659,0.89651877,-0.46584958,0.58678615,0.31240046! -0.9022229,0.64553285,0.61310416,-0.94833595,-0.91246235,0.4327293,0.5935333! -0.92693657,1.0889716,-0.92676884,-0.027668476,-0.41665995,-0.7368659,0.9762784! -0.42719448,0.73850703,0.7832401,-0.801782,-0.5439844,-0.67610246,0.519328! #0.7351204,0.23614344,0.23791116,-0.74441195,0.95930076! 0.25780058,-0.04470086,-0.4650544,0.7444035,-0.72743857! 
-0.24524033,0.787674,0.3284429,-0.637121,-0.3128091,-0.60942215,-0.45878825! -0.2948581,-0.1367413,-0.05229305,-0.9657388,-0.32797828,-0.481067,-0.22242492! -0.4647131,-0.42445987,-0.019169688,0.028981581,-0.13867609,0.08398867,0.46473205! 0.22656453,0.99010956,0.6573741,-0.21356988,0.11659682,-0.92241585,-0.56473243! #-0.9643165,0.49307206,0.11344652,0.4836315,-0.36874133! -0.9337764,-0.28007796,0.2690509,-0.7304069,0.8735498! 
0.6163242,0.7321676,0.07700192,0.6668174,0.6551273,0.1499141,0.19981873! 0.08145274,0.12208553,0.76413804,0.47368622,0.25998312,-0.5262675,0.92012954! -0.23500709,0.91922027,-0.019169688,0.469385,-0.21590894,-0.02668665,0.7832544! -0.6810061,-0.14999609,0.6573741,-0.28765166,-0.45325658,0.303028,0.5229273! #-0.99889886,0.13176537,0.089903325,0.4925774,-0.35124397! 0.6639905,0.28281927,0.8503793,-0.8734124,-0.94012535! 
-0.052681446,0.94246674,-0.865322,-0.92471755,0.55202705,0.037917178,0.3244854! 0.63686776,0.84349453,-0.7553995,0.010099061,0.6040472,-0.20390859,-0.09451887! -0.06279421,0.15925056,0.17698076,0.39823228,-0.4872606,0.853276,0.98514557! -0.640737,-0.21869595,-1.0183098,-0.21706602,0.6784586,0.97682244,0.519328! #0.45005357,0.27971685,0.27541482,0.08479173,-0.055674728! 0.32861137,-0.20321862,0.23609915,0.8804324,-0.2674713! 
-0.8141892,0.2441791,-0.73872036,-0.18101466,-0.93378264,0.13500535,-0.053731337! 0.031126738,0.81063485,0.33946183,-0.60219574,0.7187208,-0.19559467,0.5230712! -0.87120557,0.033457793,1.0463166,0.5838958,0.757933,-0.8781611,-0.73423684! 0.28408134,0.6907488,-0.845189,0.7580511,-0.16546972,0.9293262,-0.7907345! #-0.89034,0.19615686,0.040974975,0.85385585,-0.71141684! 0.74595106,-0.04215719,0.20992786,-0.26713395,-0.85660625! 
0.9784422,0.14373887,0.13295051,-0.59828144,-0.5239945,-0.23711254,-0.6225933! 0.23343062,0.76169175,0.36704272,-0.40241078,0.7535275,-0.051619053,-0.6862923! 0.4236461,0.93880945,0.87401086,-0.07845819,0.757933,-0.59343576,0.36997128! -0.8483077,0.7983217,-0.74386644,-0.07200594,0.72399163,0.47849357,0.5229273! #-0.3264525,0.6432978,0.31157458,-0.8007596,-0.3071531! 0.5658072,9.296872E-4,0.20992786,0.8717988,-0.35409433! 
0.86097944,0.1856942,-0.76940894,-0.56701994,-0.08400473,-0.92815244,0.014299519! -0.5648552,0.7263218,0.9256648,-0.2829177,0.5923939,-0.82871985,-0.15369199! -0.8702477,0.89931464,-0.71059465,-0.53892905,-0.9364133,-0.6904639,0.24707067! -0.77285326,-0.5812361,-0.57892156,-0.28538787,-0.59356844,-0.43806633,-0.25669095! #0.33644554,-0.55869627,0.041120637,0.50287044,0.06940389! 0.07790363,-0.23549928,-0.16626826,0.2716009,-0.2501834! 
-0.8145473,0.8345029,0.3284429,0.44818568,-0.5014784,0.8825834,0.37735927! -0.6027384,0.8991364,0.54839486,-0.64259946,0.2505488,-0.27667952,-0.6862923! 0.12890828,0.454794,-0.019169688,0.41914415,-0.005183071,-0.51251566,1.0087974! -0.9124334,-0.8730832,-0.9887555,-0.05282734,-0.34239244,0.2885426,-0.73921806! #0.3298185,0.13176537,0.040974975,0.87975323,-0.19500697! -0.8526461,-0.19674435,0.20992786,-0.2870803,-0.2674713! 
0.58247554,0.7451185,-0.7625533,0.9763843,-0.0986256,0.040868007,-0.091819525! 0.690776,-0.1367413,0.52848023,-0.30739522,0.2713087,-0.67822325,-0.12176533! -0.37653792,0.9278803,-0.92676884,0.39910144,0.757933,0.098167494,0.89740187! -0.34311366,0.8113451,0.55894184,-0.26126304,0.6474809,-0.2772108,0.3159939! #0.6556976,-0.32109308,0.040974975,0.643593,-0.28043187! -0.972075,-0.2326959,0.23268199,0.7681167,0.9197984! 
-0.5774269,0.9105276,0.11619568,-0.5362338,0.5973123,0.33380973,-0.42468667! 0.47525823,0.78672624,0.5510354,0.68815714,0.6040472,0.80323887,-0.24882479! -0.6747483,0.5011711,-0.019169688,-0.57237065,0.5377454,0.040596113,-0.21715748! 0.09561481,0.6385076,0.15795934,-0.87595284,0.5846454,0.9293262,-0.59177524! #0.9165414,0.66955596,0.23791116,0.5692861,-0.02951616! -0.2756673,0.6396438,0.18690526,-0.24275553,0.89998645! 
-0.13908255,0.14373887,-0.3296841,-0.461384,-0.63839865,-0.9500356,-0.4393421! 0.07853453,-0.9859628,0.7138752,0.68815714,-0.68022895,0.20402133,-0.28897217! 0.8251196,0.046739466,0.31369692,0.0747668,-0.6067918,0.06923837,0.9543154! 0.40012693,0.5189199,-0.94674027,-0.24719733,-0.26052853,-0.20907466,-0.6097154! #-0.9123844,0.42813623,-0.720863,0.5056719,-0.6767797! -0.896945,-0.29381126,0.18567061,-0.9113218,-0.8884005! 
-0.09254198,0.7451185,-0.81498563,0.8279372,-0.83945763,0.13500535,-0.1296545! -0.9710505,0.7841704,0.50165606,-0.58186704,0.6780842,-0.18339683,0.5230712! 0.80076826,0.033457793,-0.6448672,0.5838958,-0.12839535,-0.7491814,0.950604! -0.034063816,0.7149857,-0.27421445,-0.6742624,-0.51297265,-0.48364258,-0.5249291! #-0.65409124,-0.5286632,0.040974975,0.85385585,0.6437815! -0.1040894,-0.04215719,0.21916041,0.20605575,0.91489303! 
0.93598497,0.26213777,-0.9754827,0.7847173,-0.51398045,-0.054789584,-0.43979722! 0.22951579,0.11943163,0.85128844,0.0339245,0.5800692,-0.6070083,-0.68167305! 0.036467314,0.46437207,-0.042106107,0.58873487,0.73561966,0.08835942,0.24707067! 0.5125705,0.50852394,-0.5174742,-0.26275206,0.7187404,-0.28318983,0.5255761! #0.257043,0.1773561,0.5769638,0.4836315,-0.3971025! -0.03323686,0.07967472,0.1406956,-0.49061415,0.89998645! 
-0.62417865,-0.503568,0.8708991,-0.57601357,0.17065136,0.15118492,-0.43979722! 0.5987803,-0.036091566,-0.053351164,-0.58186704,0.61999774,-0.79661345,-0.67637825! -0.44069743,1.0648445,-0.1883738,-0.3236597,-0.43096268,0.08398867,-0.8206965! 0.5304884,0.31230286,0.3997277,-0.17256398,0.98335606,-0.24938425,0.9194045! #-0.483176,-0.9843241,0.36015353,0.69895583,-0.22943439! -0.4086933,-0.3266132,0.18759292,-0.7517544,-0.23745024! 
0.29996932,0.7451185,-0.9889735,0.3578297,-0.26874253,0.5266552,0.90337753! -0.76583815,0.73596865,0.53259987,0.5435798,-0.7185033,-0.8060438,-0.7166271! -0.8306892,0.833678,0.9455021,-0.57337785,0.757933,0.8793362,-0.6555492! 0.70851123,-0.44433498,-0.8067681,-0.90405685,0.7004757,-0.4743208,-0.78919065! #0.65896034,0.4869809,-0.39811462,0.55742633,-0.24179903! 0.2205925,-0.04215719,-0.6094426,0.7681167,0.8630589! 
-0.5818778,0.14373887,0.12129438,0.68544364,0.20378675,0.21936151,-0.015217777! 0.7091876,0.12208553,0.769061,-0.117991686,0.5521374,0.91399753,-0.23584302! 0.29151988,0.8601172,-0.9291374,-0.44554725,-0.124172226,-0.71843046,-0.73423684! -0.28930342,0.6466133,0.13969907,-0.19052194,0.7097364,0.8768657,-0.007947087! #-0.6690018,0.7298707,0.07799077,0.9587355,-0.9698381! -0.61624897,-0.20032065,0.6651605,-0.3644899,-0.23125891! 
0.6408684,0.7321676,-0.7398166,0.5685446,-0.51398045,0.036166985,-0.41204762! -0.045339942,0.7582015,0.85128844,-0.35378692,0.5800692,-0.22411442,-0.21285921! -0.14537577,0.46437207,-0.048064098,0.44426712,-0.010331035,0.47663176,-0.73423684! 0.21804571,0.509729,-0.85514766,-0.118120596,0.8057796,-0.19015013,-0.52224505! #-0.04044938,0.32743976,0.34644607,0.58071935,-0.3971025! -0.1428299,0.24496758,0.40232393,0.10628331,0.8753689! 
-0.93496823,-0.102466166,-0.7673732,-0.98614585,-0.4767872,0.48238719,-0.662009! 0.006027341,0.12208553,0.5053534,-0.42718193,0.25998312,-0.15924962,-1.0305952! 0.08208525,0.9278803,-0.7031369,0.8269788,0.8350445,0.08738689,0.901453! 0.28715324,1.0370048,0.4797783,-0.29326022,0.80856323,-0.4691592,0.5127854! #-0.21054924,0.32660317,0.21911803,0.53297997,-0.3156879! 0.17294538,-0.30876416,0.8346165,0.10391005,0.9279538! 
0.5191504,-0.3546706,-0.3296841,0.7847173,0.61754906,0.036166985,-0.41204762! 0.62958896,0.15845816,0.6983605,-0.30253735,0.022306962,-0.6070083,-0.2972458! -0.6677042,0.46437207,-0.048064098,0.50813866,0.10625762,0.4608018,-0.4024447! 0.066538215,0.42781436,0.15795934,-0.26275206,0.8528132,-0.22826546,0.76500154! #0.968565,0.50519,0.32170534,0.58071935,0.5974858! 0.9118851,-0.2731958,0.21168606,0.23414266,0.89998645! 
-0.506199,0.271654,-0.34872615,0.59509104,-0.3766104,-0.21699794,0.1717994! -0.8852891,0.7284275,0.5499052,0.32930842,-0.6174074,0.9347638,-0.91293216! 0.5566285,0.031026494,1.0574168,-0.2770505,-0.9280482,-0.68476903,-0.61679107! 0.71284974,-0.26233423,0.47978848,-0.43304658,0.7597729,-0.99763095,-0.6290184! #-0.06535971,-0.39737523,0.28162992,0.45490274,-0.49762368! 0.85625815,0.24866754,0.035114016,-0.72312176,0.92233515! 
-0.6561065,0.82081276,-0.46254364,-0.461384,-0.05255816,0.00982875,0.38206482! 0.56099606,-0.18695275,-0.09025031,0.5878874,-0.4564249,0.92828536,-0.22126365! -0.7059286,-0.16112077,-0.097999796,-0.9446905,0.02357499,0.06040992,-0.39586315! 0.060394764,-0.91795236,-0.5174742,0.82281554,0.63890696,-0.6522616,0.36080176! #-0.23731863,-0.0701381,-0.106822856,-0.7697324,0.7113279! 0.49805784,-0.48403156,-0.17266011,-0.6458534,-0.88554394! 
-0.71454346,-0.02537765,-0.86291695,-0.18101466,0.5643782,-0.031813897,-0.6728731! 0.6271961,0.64553285,-0.023868322,-0.35327262,0.5800692,0.83609915,-0.40840232! 0.14650929,0.8790414,-0.5978862,0.05173514,0.27461994,0.11794269,0.9802953! 0.53511477,0.8027353,0.18705893,0.56031454,0.7097364,-0.6778726,-0.64491194! #0.07186517,0.20585802,-0.08877933,0.6470375,-0.055674728! -0.92813444,-0.19543472,0.20992786,0.8317918,-0.2674713! 
-0.34566128,-0.503568,0.13295051,-0.57175565,0.020884633,0.8825834,-0.41375044! -0.027752083,0.69186187,-0.20093238,-0.032159224,-0.88487136,0.34398523,0.13809514! 0.8525021,0.883348,0.048271723,0.5545778,0.33562768,-0.6858941,0.76367253! -0.34171176,-0.07446897,0.6573741,-0.9709928,0.90207577,0.6225717,0.18946338! #0.93511415,0.02990241,0.5454601,0.47363755,0.10109174! -0.87656325,0.04882064,0.23609915,-0.2870803,-0.8884005! 
0.94943833,0.86239386,0.32293755,0.72472423,0.8962111,-0.93747985,0.3583562! -0.5469641,0.62003744,-0.032483704,-0.40416855,-0.058065016,-0.6729641,-0.6778338! 0.122859836,1.0617228,-0.71662104,-0.039529298,-0.6190783,-0.6148352,0.911854! -0.77438366,0.96817094,0.15253146,-0.5338688,0.11659682,-0.47843063,-0.3497613! #0.22611868,0.42174998,0.3455657,0.14685604,-0.3156879! -0.6034653,-0.23093085,0.24806528,-0.31177536,-0.738803! 
0.6583836,0.7125929,-0.3262494,-0.4476078,-0.46292743,-0.21416038,0.007854413! 0.11823344,0.7582015,0.07512614,-0.13047123,0.022306962,-0.91658217,0.5230712! 0.030435085,0.047401343,-0.029123843,-0.074089736,-0.2708081,-0.14228462,-0.6776413! 0.7994858,0.003805237,-0.30480492,-0.9350308,0.8569817,0.3911843,-0.7299096! #0.5777918,0.037912387,0.49431384,-0.33933136,-0.40599498! 0.4174968,-0.28715712,0.21168606,0.10391005,-0.013855744! 
-0.28243232,0.86239386,-0.4930012,-0.09759939,-0.06613651,0.48238719,0.31240046! -0.5358468,0.7582015,-0.032483704,-0.16833735,-0.68595165,0.31807923,-0.39856625! 0.7449101,-0.23122087,-0.67758435,-0.0068916045,-0.6190783,-0.3716551,0.3750233! -0.35749903,0.99198914,0.15702072,-0.89724576,0.3689481,-0.19015013,-0.16944301! #0.32339382,0.79799354,0.9587395,0.49581867,-0.3156879! 0.06451583,-0.74584126,0.8346165,-0.9322899,-0.738803! 
-0.8046366,0.14545222,-0.014911473,-0.609464,-0.49814072,0.00982875,0.21339694! 0.5803561,-0.333799,0.005529469,-0.51572764,-0.88487136,-0.40905523,-0.9324378! -0.47222793,1.0648445,1.0032256,-0.072227135,-0.13086952,0.6109575,-0.69189495! -0.38833666,0.99010956,0.359195,-0.15837464,0.7162303,-0.29143864,0.53253704! #-0.9980042,0.2752056,0.17465001,-0.4904003,-0.5837682! -0.22679651,-0.33332267,0.20210478,-0.92231166,-0.28951055! 
0.25099075,0.7139598,-0.7904517,-0.44990858,-0.05255816,-0.81319547,0.89714193! 0.4109069,0.7822363,0.8625852,-0.50932276,0.7535275,-0.58328754,-0.25980145! -0.023804981,0.9749407,-0.81581527,-0.88996446,0.018291127,-0.9585345,-0.96863925! -0.04904854,-0.12705739,-0.76928866,0.67576873,0.8864128,0.88626134,0.053990882! #0.25847888,-0.109982684,-0.09893794,0.7593583,-0.49762368! -0.5489167,-0.7562872,0.18567061,-0.4359537,0.5330801! 
0.8178172,0.66691333,0.004727993,0.6982117,-0.20501624,0.036987312,-0.023946341! 0.43338346,0.62523997,0.7209709,-0.6176507,0.5521374,0.808801,-0.2123253! 0.36990952,0.91201633,0.2872508,-0.05649817,0.24376231,0.04904175,0.9383055! -0.6348413,0.69573724,-0.95803154,-0.19052194,0.7097364,-0.4743208,-0.3609463! #-0.9513544,0.55237657,0.23757797,-0.9010293,-0.051768303! -0.38868797,0.6366291,0.32661504,-0.26588938,0.08703959! 
0.24196756,0.82081276,0.21658772,0.7909862,-0.06613651,-0.5900315,0.70480657! 0.40075696,0.11271272,0.45641524,-0.9657388,-0.48095492,0.92828536,-0.2202961! -0.082305074,-0.5320473,-0.08578383,-0.90395117,-0.0623627,0.06040992,0.9060467! 0.408512,-0.8730832,-0.48897013,-0.49862364,-0.7275319,-0.4691592,0.76500154! #0.29105687,0.616737,0.021924693,0.5120114,-0.7311028! -0.5467926,-0.48403156,0.16739357,-0.86156106,-0.88554394! 
-0.74780345,0.6246885,-0.6964761,-0.41815877,0.4424833,-1.0062603,-0.015217777! -0.3363999,-0.614129,0.36607417,0.72519636,0.8997086,0.25285906,0.50265145! -0.7121296,0.15605551,-0.8035329,-0.5303797,0.12937655,-0.44052264,-0.7754961! 0.22492611,0.49971685,0.3053952,-0.87725204,0.6826004,-0.47813895,0.113550216! #0.96743834,0.664126,0.2903243,0.52313566,-0.43698984! 0.28176248,-0.22500943,0.19258542,0.12480648,0.20482133! 
-0.94068074,-0.27922148,0.26203972,0.7909862,-0.63839865,-0.77648044,0.70480657! -0.34462774,0.12626919,-0.05229305,-0.2641034,0.2739631,-0.7124316,0.92012954! -0.842577,-0.5320473,0.33665827,0.55186236,-0.010331035,0.08738689,0.958809! 0.44553363,0.99198914,0.21238375,-0.49862364,-0.6285266,-0.4691592,0.76500154! #0.82743585,0.13176537,0.026124705,0.5425936,-0.19500697! 0.7650566,-0.23640329,0.15441301,-0.8428581,0.48805022! 
0.7729113,0.9531621,-0.99263287,-0.49029827,-0.82009983,0.58726084,-0.12045829! 0.38841522,-0.7999015,0.50165606,0.8206712,-0.6570617,-0.15912057,-0.9324378! 0.1424917,0.5482334,-0.6448672,0.7500431,-0.7205682,-0.7201715,0.99340767! 0.70354617,-1.0456431,-0.301598,-0.07697916,-0.51297265,-0.48364258,0.03599751! #0.6648805,0.558568,0.7210057,0.6805657,0.20447934! 0.5238255,-0.95125306,0.29694533,-0.5011146,0.64213204! 
0.75414956,-0.7298243,-0.96023166,-0.5307838,0.5706785,0.090026855,0.34862244! 0.13828456,0.4709554,0.9260355,0.98187095,-0.33209896,0.3869753,0.25718212! -0.01837027,0.89660543,-0.38273907,-0.005957246,-0.6540573,0.020168424,0.9979653! 0.25854632,-0.056527615,-0.17315173,0.32350835,-0.084795184,-0.58717334,0.67249143! #0.23233232,0.6419819,0.040974975,-0.16859066,0.166278! -0.68101776,-0.4648322,-0.6004394,-0.22365212,-0.27063602! 
0.59647465,-0.21423757,-0.29430783,-0.6440896,0.8424064,-0.8377156,0.9451461! 0.8235212,0.7891501,0.92154354,-0.50932276,0.7535275,-0.13326998,-0.25980145! 0.07758713,0.16842103,-0.20233971,0.17968006,0.40653867,-0.54286635,0.8314807! -0.10017741,0.5329914,0.21787521,0.06839402,-0.72582114,0.88626134,-0.95131636! #-0.83697104,0.7078665,0.47437403,1.0104477,-0.51802135! -0.21247065,-0.20321862,-1.012562,-0.7368328,-0.2674713! 
0.56931174,-0.2598928,0.004727993,0.6982117,0.5973123,0.08439238,-0.015217777! 0.8126358,0.7940899,0.7141777,-0.6176507,0.5521374,-0.7804613,-0.26038423! 0.46887684,0.44432667,-0.5527437,0.19850282,0.24376231,0.04904175,0.9383055! -0.6476697,0.8027353,0.4499902,-0.21706602,0.7097364,-0.4743208,-0.6981669! #0.899412,0.2276992,0.23791116,0.10955025,-0.566326! 0.24823189,-0.20321862,0.1756534,-0.26588938,-0.2674713! 
0.29052007,0.14373887,-0.81498563,-0.47188437,-0.41620097,-0.005261898,-0.053731337! -0.53312945,-0.31618428,0.8625852,0.68815714,-0.7053556,0.22335385,-0.26089442! -0.9568101,1.0010183,-0.9707249,-0.61838794,-0.14144297,0.061889347,0.950604! 0.3044169,0.08209553,-0.8067681,0.36382255,0.71856403,-0.36445782,-0.60672915! #-0.07335353,0.46305606,0.040974975,0.5425936,-0.090510234! 0.9666953,-0.23709154,0.20210478,0.73550195,0.8691438! 
0.12858272,0.9105276,0.6560523,0.6281843,-0.49465865,-0.93921924,0.0656219! -0.8377768,0.7621705,-0.039247748,-0.33374673,0.3531328,-0.43909281,-0.29836994! -0.6827831,0.9686326,0.72999966,-0.09948267,-0.8783267,0.04383089,-0.44180974! 0.5730649,0.8892247,0.2559273,-0.4682947,0.90266204,0.38546574,0.03777728! #-0.65965915,0.33029103,0.31630227,0.76394844,-0.22943439! 0.71579003,-0.3266132,-0.20196113,0.2645005,-0.14395595! 
-0.7841599,0.17821571,-0.3262494,-0.6201962,-0.26874253,0.015531335,0.90337753! 0.5404558,0.73596865,0.53737396,-0.9863253,-0.8624804,-0.8060438,0.6611239! -0.5093311,1.0194997,0.71272373,-0.07845819,0.5377454,0.07639377,-0.44180974! 0.54994595,0.69573724,-0.33924308,-0.90405685,0.7182454,-0.25669852,-0.5796593! #0.642279,0.24037156,-0.66042566,0.4735171,-0.2329857! 0.5439104,-0.0016064495,0.24716407,-0.4071382,-0.17144327! 
0.15210748,0.87023795,-0.7631976,-0.5007578,0.5753169,-0.81319547,-0.7222379! -0.08191252,0.88669175,0.7109672,-0.35327262,0.22885002,0.68565094,-0.9284815! -0.9400432,-0.84726465,-0.5978862,-0.64212495,-0.8783267,-0.13358538,0.3742353! -0.24965346,0.800115,0.5950743,0.56031454,0.7879435,-0.7113536,0.028478716! #-0.1789029,0.20585802,0.5234228,0.09331016,0.028270297! 0.6072581,-0.20321862,0.69279957,-1.0012649,0.86841583! 
0.5105257,0.94246674,0.11583102,-0.18101466,0.5973123,-0.008425504,-0.6570858! -0.96315706,0.56100714,0.33946183,-0.6424185,0.53109217,0.6297256,-0.7406825! -0.5976615,-0.99419427,-0.80733824,-0.60075176,0.63431144,0.051617607,0.61969256! -0.20271662,0.6619933,-0.957752,-0.5710889,0.670326,-0.27580452,-0.6062444! #0.15844846,-0.6545583,0.17706028,0.6108792,-0.055674728! 0.4115243,0.48964068,0.38944852,0.8317918,-0.22851475! 
-0.2277497,-0.7235347,-0.49223366,-0.98614585,-0.13362229,0.46266767,-0.07135439! -0.0610106,0.10855448,0.4357919,-0.5322584,-0.058065016,0.5150752,-0.56761503! -0.6594175,0.45049775,-0.7031369,-0.49088907,0.8350445,0.9803729,-0.05656882! 0.36688092,-0.12005842,0.147964,-0.54333013,0.6252341,0.14127266,0.5127854! #-0.23866367,0.32660317,0.9309124,0.5120114,-0.1151588! 0.27332032,0.042114377,0.55037105,0.13288797,-0.89828646! 
-0.92672896,0.7451185,0.8708991,-0.48818442,-0.28718188,-1.051881,-0.91442996! -0.06518984,0.43824068,0.79719883,-0.61676675,0.08348167,-0.43909281,0.5935333! 0.9480591,0.9686326,0.15091826,0.5497025,-0.8794972,0.04383089,0.15821907! 0.043677807,0.5278199,0.24060641,0.61205274,0.8018656,-0.2748598,0.028478716! #0.357355,0.251402,0.31630227,-0.32667044,0.028270297! 0.27593443,-0.30876416,-0.20196113,0.7441599,-0.82183135! 
0.10595763,0.12588765,0.34789,0.8279372,-0.10630954,-0.44420236,-0.12045829! 0.9396663,0.10930213,0.50165606,-0.58186704,0.6780842,-0.5067601,-0.67637825! -0.16980207,0.5482334,-0.7738575,0.75544417,-0.12839535,-0.72971493,0.950604! -0.9328747,0.016629905,-0.957752,-0.21356988,0.670326,-0.48364258,-0.5249291! #0.016472101,-0.0345809,0.04520532,0.58139473,0.6437815! 0.034253836,0.71164834,0.24871975,-0.2448755,-0.21833344! 
-0.065746546,0.14373887,-0.7673732,0.654407,-0.63839865,0.009630542,0.8621194! 0.508384,-0.97558117,0.59002197,-0.27507928,0.38433957,0.20402133,-0.24882479! 0.13946843,0.833678,0.3856406,0.54388833,-0.14724945,-0.49999613,0.949! -0.8005338,-0.46379405,-0.5212144,-0.58591306,0.90611064,-0.20760716,-0.042888403! #-0.8478421,0.66955596,0.08122197,0.5425936,-0.090510234! -0.0605911,-0.44838092,0.18567061,-0.95555884,0.89998645! 
0.5450599,-0.37037802,-0.5042659,0.5748815,-0.47987297,-0.26062536,-0.41375044! -0.67284834,-0.069130465,0.33739224,-0.94833595,-0.2364079,0.46842158,0.839966! -0.20637655,1.0648445,0.9198966,0.07698564,-0.79132795,0.061889347,-0.034180284! -0.91213715,-0.4529465,-0.8067681,-0.58591306,0.2039342,-0.86111283,-0.5444363! #0.7876661,0.02990241,0.19319966,-0.74441195,-0.571223! 0.7170733,-0.29735282,0.29694533,-0.43767646,-0.03644669! 
-0.5650226,0.31333998,-0.75766194,-0.637121,-0.451299,-1.0425597,-0.015217777! 0.3296845,-0.1367413,0.33208275,0.12190854,-0.36840773,0.6026974,-0.22242492! 0.37774515,0.22304974,-0.8035329,-0.56290275,0.12937655,-0.70425445,-0.7754961! -0.9383123,-0.14999609,0.6573741,-0.86398137,0.11659682,-0.92280316,-0.7440517! #-0.12349808,0.037912387,0.31157458,0.52313566,-0.32812396! -0.57705843,-0.28007796,0.19258542,0.88000214,-0.8884005! 
-0.055505037,-0.503568,-0.7514672,-0.9045971,-0.8806009,-0.26062536,-0.41375044! -0.6514305,0.6867633,0.40002108,0.37645233,0.7535275,-0.9826983,-0.09035316! 0.13471514,0.929669,-0.82346964,-0.08701084,-0.13086952,-0.02668665,-0.94541276! 0.8666439,-0.07446897,0.57767236,-0.07200594,-0.95075923,-0.673157,0.53253704! #0.061944008,0.5563842,0.23791116,-0.36121202,-0.3071531! 0.058418788,9.296872E-4,0.30596316,-0.45607865,-0.31507248! 
0.13013947,0.14373887,-0.7631976,0.39950347,0.1911411,-0.6374277,-0.60245275! -0.5153003,-0.37380815,0.93978477,0.47368622,0.2505488,0.29920578,-0.93110806! -0.4005264,-0.7831973,-0.90115803,-0.79185843,0.0348751,-0.4374142,0.3742353! 0.8396652,-0.07446897,-0.5174742,0.7841828,-0.72559273,-0.24051107,0.3784876! #0.65895927,0.09718226,0.07799077,-0.11924136,-0.33951068! 0.0069357157,0.07967472,0.1406956,0.68019104,-0.27177167! 
0.20053983,0.41961104,-0.81434447,-0.5307838,-0.45784196,-0.5900315,0.34862244! 0.5657171,0.50114477,-0.09025031,0.9364054,-0.41753277,0.92828536,-0.2202961! -0.5300704,0.89660543,0.31369692,-0.90395117,-0.6540573,0.05124654,-0.39586315! -0.25150812,-0.8730832,-0.5174742,-0.116690636,-0.7275319,-0.24051107,-0.007947087! #-0.17981184,0.6419819,0.040974975,-0.78686684,-0.71899325! 0.19854939,-0.4648322,-0.60395056,-0.22365212,-0.88554394! 
0.8884759,0.86239386,0.34800625,-0.21809685,0.35354233,-0.9865409,-0.06318707! -0.5459968,0.6301568,0.92154354,0.6474677,0.5090282,0.31807923,-0.0100057125! 0.51709723,0.44467872,0.13887429,-0.11719513,-0.6712766,-0.1523383,-0.42750105! -0.87476504,-0.41935462,0.22648714,0.2909987,0.6069932,-0.5376534,-0.4947502! #0.66872954,-0.09607732,0.24774651,1.0034755,0.5943561! -0.3092029,-0.23093085,-0.7326895,-0.95555884,0.8415586! 
0.35043162,-0.3546706,-0.95747274,-0.4753413,0.5753169,-0.85071206,-0.03254272! 0.98309374,0.74984115,0.7072982,-0.56428516,0.18265831,-0.058931112,-0.29885292! -0.7563218,1.1165922,0.80772436,-0.64212495,-0.14865604,-0.13358538,-0.5881607! 0.55756,0.11925876,0.499938,-0.21327622,0.7879435,-0.7113536,-0.32677823! #0.06423402,0.53388023,-0.26611507,0.073094726,-0.7192698! -0.66630423,-0.2731958,0.20992786,-0.97363806,-0.70505464! 
-0.73943996,-0.5870793,0.07700192,0.62243676,0.72354496,0.069458075,-0.7915942! 0.9489912,0.036195874,0.9678358,0.45494476,0.25998312,0.7679647,0.92012954! -0.7772349,-0.7831973,-0.0062059164,-0.92809606,-0.96508896,0.08398867,0.80729496! 0.033376455,0.50852394,0.81888443,-0.8518485,-0.34349108,0.70401466,0.4550925! #0.59668195,-0.0561105,-0.7870022,0.4777855,-0.058211803! 0.24649906,0.26007795,0.17441851,-0.8941364,-0.19973934! 
0.35062683,-0.9521458,-0.045548014,-0.9818491,-0.29749614,-0.963826,0.021152258! 0.29494536,-0.32980847,0.31657648,0.085761905,0.47430503,0.32353482,0.099595666! 0.736897,-0.45952642,0.21313596,-0.11439922,0.7453426,-0.44326234,0.36997128! -0.10537362,0.67695427,-0.36244577,-0.58659923,0.35009634,-0.36809003,0.6450758! #0.86717653,-0.636181,0.26337186,0.43335426,0.4430021! 0.4049524,0.16768287,0.16684929,0.68019104,0.86841583! 
0.0035700798,0.3371935,-0.7697198,0.012260199,-0.08897841,0.3852682,-0.9701602! 0.19691245,0.6560916,-0.9719808,-0.38950694,0.6961714,-0.36626884,-0.7420764! 0.74474186,0.19719906,0.35168323,0.7682904,-0.13984665,-0.5059251,-0.42250645! -0.89315176,0.31097144,0.3343403,-0.76238656,0.7309763,-0.50866747,-0.68073183! #-0.70191383,0.2713981,-0.51136434,0.7135272,0.31315184! 0.54707575,-0.23979387,0.20087944,-0.58147657,-0.70140046! 
0.5682452,-0.21423757,-0.81434447,-0.5307838,0.18037096,-0.008425504,-0.092684865! -0.9699497,0.12208553,0.50539714,-0.60219574,0.59052557,0.91399753,-0.23584302! 0.9295552,-0.16112077,-0.59968567,0.39823228,0.757933,0.08738689,0.9596535! -0.72118485,0.8892247,-0.5174742,0.82281554,0.7374058,-0.24051107,-0.3928838! #0.52337193,0.6432978,0.2907306,-0.78686684,-0.28972128! -0.22346696,-0.04578459,0.24806528,0.4104898,-0.2674713! 
0.8566836,-0.11511767,0.004282765,-0.57601357,0.17065136,-0.44420236,-0.60245275! -0.44777286,0.7886099,-0.05229305,-0.25230175,-0.9522486,0.29920578,-0.049801826! -0.47501662,0.7162689,-0.5978862,0.54388833,-0.124172226,-0.43162787,0.022836175! 0.7103524,-0.7304281,-0.957752,-0.58659923,0.72791195,-0.25315714,-0.0964762! #0.44771904,-0.0345809,0.040974975,0.7552341,0.71161455! 0.7434803,0.45884937,0.1300995,-0.22365212,-0.21833344! 
0.4036634,0.82081276,-0.81434447,0.79821384,-0.45784196,-0.5900315,-0.12045829! 0.7407775,0.7841704,-0.09025031,-0.58186704,-0.4307439,-0.15912057,-0.9324378! 0.28341472,0.5482334,-0.097999796,-0.90395117,-0.12839535,-0.7201715,0.950604! -0.10256183,0.016629905,-0.27421445,-0.26218033,-0.7275319,-0.24051107,-0.5249291! #-0.3739741,0.29126352,0.15977073,-0.78686684,-0.7017147! 0.6832831,0.71164834,0.16739357,-0.86156106,-0.87919444! 
0.71114534,-0.06378806,-0.80757535,-0.4753413,0.10688412,-0.9500356,-0.39695495! 0.52747166,0.74984115,-0.14029253,0.98860157,0.2713087,-0.058931112,-0.29885292! 0.034527898,0.012237521,-0.94022745,0.54252225,-0.14865604,0.08398867,-0.48801872! -0.068103075,0.11925876,0.499938,-0.24392737,-0.41400033,0.38546574,0.26942363! #-0.099054575,0.037912387,0.040974975,0.5222964,0.6039962! -0.08246195,-0.29381126,0.24806528,-0.82076144,-0.70505464! 
-0.13594246,-0.06378806,0.24335372,-0.5316921,0.10688412,0.027107473,0.3333833! 0.33027017,0.74984115,0.68699735,-0.56428516,0.18265831,-0.78366655,0.8036503! 0.47730696,0.012237521,0.9278369,0.54252225,-0.13623723,0.8549485,-0.73423684! 0.32448554,0.8027353,0.499938,-0.90405685,-0.41400033,-0.07504952,-0.27855837! #-0.4923662,0.62615633,0.23791116,0.073094726,-0.571223! -0.6906182,-0.20321862,0.20992786,-0.82076144,-0.70505464! 
0.84453356,-0.7933372,0.95565474,0.12060233,0.68495613,-0.93747985,0.012078393! 0.6730826,0.62003744,0.68699735,-0.41101816,0.7552883,0.7457754,-0.29885292! 0.8579494,0.03774652,0.07210696,-0.32882726,-0.4872606,-0.71430045,0.9947154! -0.06869483,0.509729,0.18341957,0.5712087,0.68049604,-0.6778726,0.519328! #0.09579599,0.21118581,0.34130666,0.087633505,-0.098453276! -0.25557336,0.18437159,0.24806528,-0.065992,-0.2888058! 
-0.8925643,-0.06378806,0.24335372,-0.4753413,0.10688412,-0.7720679,-0.03254272! 0.14273882,0.014364958,-0.15292078,0.589929,0.18265831,-0.08447674,-0.29885292! 0.24229002,0.012237521,0.80772436,0.54252225,-0.18443152,0.8549485,-0.54147315! 0.862099,0.11925876,0.22836582,0.90124536,0.7642894,0.88626134,0.02895282! #-0.3729086,0.7948312,0.5516896,0.46270657,0.10109174! 0.41642904,-0.2731958,-0.6793821,-0.82076144,-0.46588767! 
-0.6030766,-0.2879735,-0.7673732,0.79821384,-0.63839865,-0.005261898,-0.41204762! 0.592271,-0.54133373,0.84539473,-0.9942564,-0.7532198,-0.7150543,-0.84403545! 0.61818635,0.89931464,0.33665827,0.051667973,-0.14144297,-0.4770056,0.950604! 0.8990269,0.08209553,-0.7678769,-0.49862364,0.7425351,-0.5266752,-0.5674545! #-0.78961724,0.66955596,0.040974975,0.5425936,0.95930076! 0.14498375,-0.3403151,0.14335683,-0.5385635,0.89998645! 
-0.8430792,0.8083627,-0.004072018,-0.21809685,-0.49182358,0.3451748,-0.05986104! 0.54142797,-0.04047525,0.33946183,0.34635592,-0.90650773,-0.15912057,-0.45615506! 0.47493234,0.03102476,0.11619413,-0.58301413,0.8350445,-0.6912905,-0.42750105! 0.926353,0.6144646,0.48287365,0.37371147,-0.5430918,-0.46267954,-0.6275017! #-0.1650935,0.7227177,0.96471435,-0.83788425,0.6437815! -0.040896177,-0.74584126,0.7734311,-0.26713395,-0.172671! 
-0.45449924,-0.3546706,-0.7673732,-0.461384,-0.51398045,-0.007354589,0.2234145! 0.34661937,0.7582015,0.52848023,-0.9942564,0.57178694,0.92828536,-0.21124874! 0.43001795,0.7939871,0.92029124,0.4745191,-0.010331035,0.058654755,-0.69189495! -0.89744544,0.55767334,-0.30480492,-0.55803245,0.74660945,-0.41464555,0.7210856! #-0.87714326,0.20527737,0.07417001,0.75132316,-0.571223! 0.120839596,-0.28979105,0.14405432,0.054691855,0.62328994! 
0.9037838,0.75407696,-0.3296841,0.12060233,0.64652044,0.31335175,0.012078393! -0.12238872,0.7940899,-0.6727318,-0.6176507,0.7054739,-0.46206048,0.25566456! -0.5471823,0.012237521,0.07210696,0.54388833,-0.14724945,0.07753107,0.98514557! -0.9158592,0.509729,0.4499902,-0.6423297,-0.6884104,0.38088772,0.519328! #0.42145622,-0.10081952,0.34130666,0.087633505,0.7113279! 0.016788244,-0.44838092,0.11008115,-0.94137996,-0.2888058! 
0.69080794,0.79961455,0.6560523,-0.35789657,0.8424064,-0.010802843,-0.51704586! -0.2879082,0.8919933,-0.20093238,0.13287997,0.6780842,-0.18124026,-0.24836433! -0.9851686,0.8790414,-0.68851626,0.5093739,0.757933,-0.70425445,-0.7996216! 0.43118015,0.63277435,-0.95803154,-0.29326022,0.823013,-0.91494787,0.18946338! #0.23813927,0.02990241,0.16011561,0.87208205,-0.15751815! 0.27573562,-0.16926678,-0.23657288,0.2645005,-0.82684654! 
-0.71203136,-0.21423757,-0.3262494,-0.48320043,0.18037096,-0.008425504,-0.4082534! -0.89601016,0.11736817,0.54314786,0.68815714,0.6040472,0.20402133,-0.84484404! 0.35533023,-0.42445987,-0.60888964,-0.88996446,-0.13984665,0.040596113,-0.630099! 0.3428477,0.8892247,0.15795934,0.8531349,0.7374058,-0.6778726,-0.5796593! #0.18299867,0.66955596,0.2526281,0.5159939,-0.29875836! 0.57153904,-0.031983323,0.18690526,0.4104898,-0.2674713! 
0.29325402,0.6246885,0.11619568,0.16347277,0.5973123,0.37001002,-0.053731337! -0.056927443,0.87845075,0.9260355,0.60323954,0.6040472,0.84746236,-0.91978586! 0.44773984,0.5195195,1.0047171,0.81408334,0.9858558,-0.45601034,0.25669074! 0.9601379,-0.40619075,0.7418374,-0.8892894,-0.74718857,-0.56647646,0.490056! #-0.4238317,0.6419819,0.630831,0.1306258,0.9955661! 0.07754552,-0.9153522,0.38944852,0.2651224,0.47920686! 
-0.33558595,0.66691333,-0.7431408,0.6982117,-0.51398045,0.08439238,-0.015217777! -0.089499116,0.7292264,0.7209709,-0.9942564,0.5521374,-0.7804613,-0.26038423! 0.050312757,0.89931464,0.2872508,0.60587883,0.24376231,0.08738689,0.9383055! 0.9369159,-0.5812361,0.41752768,-0.62011284,0.7097364,-0.4314415,-0.5674545! #-0.31672406,0.66955596,0.23757797,0.5425936,-0.42061183! -0.2210362,-0.28979105,0.39621907,-0.6458534,-0.94012535! 
0.0986408,0.50713474,-0.3262494,0.78398556,0.5919501,0.7932532,0.3580862! -0.4796908,0.63113207,0.84539473,-0.9255405,-0.68333316,-0.051619053,-0.21285921! 0.5885637,0.89351934,-0.5074281,0.47879553,0.757933,0.108324215,0.23824203! 0.2986443,0.29303637,0.3053952,-0.091279715,0.71564394,-0.41634643,-0.7896462! #0.7030798,-0.010940421,0.2893192,0.3469144,-0.10704593! 0.4121195,-0.20321862,0.20992786,0.2860286,-0.94012535! 
-0.75915444,0.25279552,-0.72712266,-0.8554796,-0.8855494,-0.008425504,0.79656243! -0.6571498,0.71658367,0.52848023,-0.60219574,0.14296345,0.34102908,-0.7406825! -0.6547681,0.93024915,-0.8228472,0.5838958,0.757933,-0.8781611,-0.73423684! 0.38665223,0.7149857,-0.8067681,-0.6742624,-0.16546972,-0.2772108,-0.7907345! #0.07946682,-0.48182368,0.04520532,0.18452226,0.7277587! -0.5597619,-0.04215719,0.16041194,-0.2448755,-0.5169161! 
-0.6548213,0.28598648,0.6560523,-0.41815877,-0.49465865,-1.0134685,-0.39695495! 0.35779917,0.62523997,-0.06455368,-0.29283094,0.2713087,0.20402133,-0.09035316! -0.65599656,-0.7831973,-0.019169688,-0.09948267,0.022977758,0.1807715,-0.5431363! -0.097976804,0.7470747,0.21238375,-0.032836806,0.6474809,0.38546574,0.3027848! #0.66970944,0.02990241,0.040974975,0.4836315,-0.28043187! 0.10566735,-0.26537123,0.31630933,0.2645005,0.8776769! 
0.8118459,-0.26346353,-0.46254364,0.79821384,0.20378675,0.015531335,-0.092684865! -0.501058,-0.15173206,0.50539714,0.5878874,-0.7969222,0.91399753,-0.23584302! -0.24901342,1.0617228,-0.10176349,-0.9414719,0.757933,0.08738689,-0.9381659! -0.34131718,0.6476622,0.35862324,-0.48632008,0.63890696,-0.67320865,0.5381981! #-0.041205764,-0.0701381,0.06802449,-0.7697324,0.7113279! 0.92396164,-0.31116182,-0.17266011,-0.3644899,-0.23125891! 
