20.128256,45
0.0,-0.35372162,-0.1825991,0.67208725,0.78950554,0.4304428,0.20119666! 0.0,0.69566375,0.1417084,-0.28725734,-0.33659783,0.39961496,0.17588696! 0.03697518,0.76817316,0.7019555,0.5415075,0.6545124,-0.11442916,0.38869098! 0.0,0.9367452,-0.57321423,-0.6432445,-0.12640345,0.43404534,-0.45448875! #0.0,-0.13393778,0.3602475,0.5473387,-0.6229295! 0.0,0.12863338,0.12739505,-0.18583402,0.47944954! 
0.0,0.8924031,0.83575106,0.5082457,0.15421739,-0.7423877,-0.60462713! 0.0,0.051658805,0.2355131,0.41465408,-0.37541696,0.45370838,-0.22219813! 0.04899675,-0.56757796,0.7627382,0.439152,-0.30532837,0.09302592,0.39746776! 0.0,-0.7464258,-0.5941358,0.5254188,-0.73145926,-0.37771285,0.6765323! #0.0,-0.001829654,0.15939371,0.9556904,0.84435993! 0.0066827945,0.28930026,-0.004428759,0.7398548,0.7811178! 
0.0,-0.960748,-0.2935603,0.13720532,0.40209067,-0.28301936,0.4113186! 0.0,0.66462827,0.10564563,-0.8386673,-0.71075225,-0.65009797,0.14712486! 0.0,0.8397939,0.17243524,0.5415075,-0.8428853,-0.032041486,0.36370555! 0.0,-0.375738,0.7479724,-0.6025591,0.8828251,0.52530336,0.19686908! #0.0,0.2752123,-0.09260315,-0.20527625,0.89708406! 0.0,-0.041425537,-0.17584866,0.76588744,0.746861! 
0.0,-0.5851823,0.4890276,0.021010749,0.38637367,-0.1947583,-0.6992935! 0.0,-0.60875297,-1.0070662,-0.4388584,-0.20935142,-0.41737676,0.53202516! 0.0,-0.4140593,0.06613763,0.55373394,-0.27865693,-0.5246107,0.50361174! 0.0,0.28422925,-0.62347525,0.13881958,0.8806952,0.06773528,0.19642717! #0.0,-0.095358804,-0.054179862,0.5473387,0.7878969! 0.0,0.024261907,0.29182658,-0.22820987,-0.93688846! 
0.0,-0.7620666,-0.29849854,1.01316,0.5201227,0.08212049,0.57663095! 0.0,0.858737,0.69565654,0.15923262,0.41258675,0.5002885,-0.47232994! 0.0,-0.4140593,0.8504484,0.7390551,0.8243775,-0.06193187,0.35113665! 0.0,0.71970063,-0.8100213,0.4213501,-0.22757496,0.454283,0.39502686! #0.0,-0.02987435,0.28245306,0.68722415,-0.56514835! 0.0,0.014985515,-0.11493883,-1.0010097,0.41322842! 
0.0,0.945538,0.22041035,0.21128054,0.11779758,0.6994918,0.6052196! 0.0,-0.7800192,0.098076046,0.64490855,-0.70105124,0.3013935,0.15949973! -0.014813997,0.7879323,0.22377998,0.034987338,-0.3576734,-0.01633539,-0.60310656! 0.0,-0.08166063,-0.9041226,0.68059623,-0.21938622,0.49918267,0.0537819! #0.0,0.24537726,-0.077758655,0.06077838,0.21698119! 0.0,0.12143448,0.15958253,-1.0010097,0.94450706! 
0.0,0.9512034,-0.32407233,0.16658425,-0.9885093,-0.64559704,0.60798675! -0.003140144,0.6879311,0.8513494,0.5904543,-0.888937,0.39961496,-0.05910659! 0.0,0.8950332,0.7019555,-0.064704776,-0.31446517,-0.521978,0.19108626! 0.0036419556,-0.0040650666,0.6289439,-0.6432445,-0.27522746,0.07009852,-0.46504605! #-0.02338509,-0.15403599,0.06340775,0.907951,0.23838124! 0.0,0.06966472,-0.16737096,-0.013257038,0.7905918! 
0.0,0.31540534,0.28070396,0.7168812,-0.66116244,-0.27070117,-0.62925714! 0.0,-0.9745683,0.43691915,-0.87792635,-0.009142727,0.0631745,0.54634637! 0.0,0.79334867,0.17263103,0.808408,-0.27865693,0.045021396,-0.5929827! 0.0,0.22650366,-0.8765535,-0.44071198,0.8620823,-0.8108666,-0.14143609! #0.0,-0.056074213,-0.21377477,-0.667047,-0.33298287! 0.0,0.07222399,-0.23538753,-0.33977383,-0.8266034! 
0.0,0.28897363,1.1908867,-0.8709686,-0.46733811,0.057856787,0.008474525! -0.008115329,0.6879311,0.49073884,-0.650019,-0.4283311,0.45783395,0.11787424! 0.0,0.87834466,-0.27186823,0.54405135,-0.9599732,-0.10923782,0.30232072! 0.0,0.68660027,-0.8765535,0.14718702,0.005871713,0.45617035,-0.3139994! #0.0,-0.078238145,0.11116102,1.0360585,-0.64711916! 0.0,0.19179165,-0.01251629,0.9692378,0.6028922! 
0.0,-0.62739176,-0.294903,0.75476545,0.77186954,-0.9649166,-0.1922059! 0.0,0.6879311,0.92177147,0.772864,-0.4733416,0.516431,0.16161422! 0.0,-0.7876241,-0.18118088,-0.3004085,0.6054148,-0.6734571,-0.6247377! 0.0,-0.4755116,0.50263137,-0.21751891,-0.2574377,0.53120095,-0.029832222! #-0.011216272,-0.0849597,-0.12699601,1.0467685,-0.56514835! 0.0,0.27946267,0.087564684,-0.8838413,-0.97221094! 
0.0,0.3016194,0.4314969,0.64457995,-0.23622333,-0.35304442,0.140534! 0.0,0.70765615,-0.087984085,-0.8386673,-0.0040961504,-0.29519102,-0.611498! 0.0,0.18748713,0.6337513,-0.033082638,-0.20311373,0.029531498,0.84863126! 0.0,0.23129031,-0.6416009,-0.91761565,-0.1844379,-0.43096328,-0.47922763! #0.0,-0.086230695,0.14530669,-0.8022745,-0.2608224! 0.0,0.22217318,-0.44988132,0.6666894,-0.73558074! 
0.033817414,-0.6336864,-0.6999692,0.2164799,-0.3920146,-0.3999256,0.5604354! 0.0,0.5453041,0.6519977,-0.014213681,0.6913534,-0.35436833,0.18143149! 0.0,-0.93018216,-0.615828,0.11178526,0.23646283,0.3235544,0.36864424! 0.013636205,0.037542958,-0.6416009,0.46559405,-0.5812931,-0.4170071,-0.3139994! #0.0,0.09653592,-0.008078374,0.9267909,-0.28302896! 0.0,-0.16763735,0.062449932,1.0115772,0.48502868! 
0.0,-0.49103367,-0.3173812,0.5831343,0.8216548,-0.30028728,-0.7720643! 0.0,0.71632254,0.988293,-0.77721834,-0.8676316,0.586607,-0.31931642! 0.0,0.1597895,0.2331744,0.0043641813,0.00936348,-0.026824366,0.23289052! 0.0,0.14996195,0.33422425,-0.16238566,-0.24879688,0.048777238,0.24755394! #0.0,-0.12959386,-0.1248897,-0.7794314,-0.2894224! 0.0,0.1686286,-0.096146464,-0.36747488,0.2538878! 
0.0,-0.45140132,-0.6152535,-0.22647464,-0.9885093,-0.64559704,0.79549026! 0.0,0.69794166,0.88824457,0.5904543,-0.9053721,-0.643086,-0.23227005! 0.0,0.8567967,-0.20979714,-0.062403854,-0.3358243,0.010547757,-0.7279063! 0.0,-0.93861365,0.61625797,-0.68955654,-0.34622636,-0.40656736,-0.16392986! #0.0,-0.07527083,-0.13494039,0.9890564,0.89708406! 0.0,0.046586346,-0.13668826,-0.055602916,0.7905918! 
0.0,0.86503136,-0.8002108,0.65364903,-0.6378127,-0.8183695,0.12199083! -0.0049924254,0.70614266,-0.97977346,0.49927688,-0.32036436,-0.4686804,0.13791797! 0.0,0.87834466,-1.0475235,-0.076856405,0.6912448,0.44986603,-0.5715031! 0.0030040257,0.18472692,0.5446902,-0.66938955,-0.07720134,0.4489669,-0.28196836! #0.0,0.79247737,-0.14714839,0.5997021,-0.28302896! 0.0,0.009138115,-0.01251629,-0.4071555,0.008245144! 
-0.012598269,-0.23861086,0.44172448,-0.91658866,0.0054361112,0.8652349,0.23612751! 0.0,-0.09852477,0.18921196,-0.3742965,-0.77513206,0.89365685,-0.28573325! 0.0,-0.61032933,-1.0662487,0.7812469,-0.72897387,-0.7612164,0.85481715! 0.027990367,-0.80119646,-0.87809145,0.26604635,0.74626637,-0.38577026,0.18582046! #0.0,-0.18337388,-0.34759438,-0.54046786,-0.2534084! -0.033813417,-0.061706595,-0.041431136,0.9252109,0.46075493! 
0.0,0.73458725,0.39441186,0.65223163,0.08172999,-0.33350992,0.507797! 0.0,0.12655143,0.8167132,0.23805273,-0.2982406,-1.001052,0.17588696! 0.0,0.7957147,0.018394712,0.6943618,0.652885,0.3377093,-0.4080869! 0.0,-0.97176325,-0.59187156,-0.48113042,-0.7909107,0.52184623,-0.7233071! #0.009188473,-0.111505635,0.056419138,-0.48393774,-0.5541161! 0.01645301,-0.02455898,0.18858105,-0.6651008,0.50171053! 
0.0,0.6981524,0.06537433,0.6260964,-0.3107468,-0.7450938,-0.611568! 0.0,-1.0017319,0.12278366,-0.75357664,-0.32036436,0.9186222,0.16555497! 0.0,-0.75337195,-1.0475235,-0.51332307,-0.2680633,0.44986603,0.4625729! 0.0,-0.17986996,-0.5819508,-0.66938955,-0.5736485,0.47766155,0.75472295! #0.0,-0.090960264,-0.051128954,0.9637198,-0.28302896! 0.0,0.21154182,-0.15448426,1.0776186,-0.8154335! 
0.0,-0.86758417,-0.7686167,-0.7201415,-0.26274258,-0.7423877,-0.6526068! 0.0,0.019109294,0.19065182,0.61791474,-0.72750324,-0.35436833,-0.6299264! -0.026980145,0.8397939,0.14859796,-0.9702213,-0.30532837,-0.8203715,0.39746776! 0.0,-0.77560556,-0.59187156,0.5254188,-0.4736714,-0.9277972,0.18933839! #0.0,-0.9165424,0.17777452,0.64510846,-0.5780359! 0.0,9.494424E-4,0.1675228,-0.28503716,0.7811178! 
0.0,0.29912725,-0.1905457,0.07299715,0.11779758,0.9574418,0.577879! -0.037836857,0.6631899,0.8849504,0.99577856,0.9456116,0.9085851,0.17588696! 0.0,-0.7833005,-1.0171485,0.70875597,0.5985701,-0.74810445,0.23289052! 0.0,0.0064568873,0.627277,0.7111821,-0.21938622,-0.36977124,-0.4496331! #0.0,0.24537726,-0.1248897,0.6974762,-0.5534661! 0.020839069,-0.026626188,-0.18604645,0.6179252,0.76803404! 
-7.606745E-4,-0.41594717,-0.10077664,-0.026310744,0.42558324,0.4304428,0.6584636! 0.0,-0.9745683,0.16746229,-0.35979605,-0.66221815,-0.9775022,0.17588696! 0.0,-0.98911023,0.2456295,-0.07332939,0.6545124,0.33737892,-0.63993764! 0.0,0.19381525,-0.57321423,0.44691673,0.05253744,0.22770055,0.03500511! #0.0,-0.17298643,-0.49497616,-0.8020079,-0.37923208! 0.0,0.16081919,0.14151159,0.4684604,0.47395638! 
0.0,0.832363,0.4127172,-0.22647464,-0.9831579,-0.33350992,-0.67532766! 0.0,0.67906356,0.88824457,-0.47864014,-0.36920974,-0.6649531,0.012133598! 0.0,-0.80790097,-0.08846125,0.52294713,0.5698228,-0.5246107,0.47318497! 0.0,0.34412134,-0.5997763,0.17802346,-0.056650545,0.08421011,-0.4496331! #0.0,-0.065360785,0.15356615,0.9734156,0.66933584! 0.008412391,0.035546828,-0.027508814,0.47901806,0.517744! 
0.0,0.37154767,0.39441186,0.35434175,0.08172999,0.10864304,-0.36872995! 0.0,0.67906356,0.12114752,0.26828754,-0.33659783,-0.65009797,-0.23227005! 0.0,0.1597895,-0.20979714,-0.13935384,-0.3358243,-0.12595269,-0.4453404! 0.0,0.6215141,0.47193655,-0.68955654,-0.018813914,-0.44695574,-0.41462234! #0.0,-0.20306174,0.3602475,0.9559151,0.89708406! -0.023130262,0.0016140677,-0.29227743,-0.013257038,0.7905918! 
0.00814835,-0.8299403,1.1908867,-0.021957865,-0.4528097,-0.7176536,-0.031653307! 0.0,0.77929157,0.49073884,0.049869917,-0.5902045,0.45783395,0.14972018! 0.0,0.5698371,-0.27186823,0.5438613,0.60236233,-0.44631192,0.30232072! 0.0,-0.48083472,-0.8765535,0.18016967,-0.08228856,-0.15384091,-0.16380545! #0.0,0.5905514,0.21971801,0.3269081,-0.28396967! 0.0,0.27417985,-0.26417062,0.13670373,-0.8414454! 
0.0,0.8128866,-0.1905457,0.65637904,0.59201306,0.97197205,-0.7217369! 0.0,-0.92973816,0.8943485,-0.6292386,-0.22898906,0.56560344,0.24851745! 0.0,-0.5967221,0.6363233,-0.32180867,-0.23993781,-0.6771793,0.85481715! 0.0,-0.71055853,-0.6138663,-0.4335381,-0.08635516,0.08421011,0.39502686! #0.0,-0.091977865,0.056419138,-0.8020079,0.99221253! 0.0,-0.026626188,0.12739505,-0.8244804,0.92127335! 
0.0,0.35283035,0.22719803,-0.8280134,-0.8852515,-0.2561987,-0.6246487! 0.0,0.07233864,0.8546581,-0.70785385,-0.85806626,-0.9775022,0.20325851! -0.025452066,0.8714709,0.7162978,-0.3400226,0.73341537,0.92260134,0.57650566! 0.0,-0.8567332,-0.60021627,0.5070495,0.543456,0.45278537,-0.040610403! #0.0,-0.77750707,0.123956904,-0.8020079,-0.6953025! 0.0,0.0025238767,-0.31933805,-0.9053288,0.27272177! 
0.0,0.49936983,0.81399596,0.65364903,0.16234447,0.021142215,0.15354915! 0.0,-0.4874522,-0.087984085,-0.7270111,0.68467516,0.516431,-0.98199666! 0.0,0.47196513,-0.16276895,-0.3004085,0.81282955,0.39764854,-0.67154145! -0.028662885,0.25260493,-0.5501753,0.47074026,-0.1279556,-0.084887505,-0.37654474! #0.0,0.11110675,-0.04997194,1.0737101,-1.0013113! 0.0,-0.058249276,-0.138776,-0.80479944,0.76803404! 
0.0,0.3690417,0.39441186,-0.08263603,0.07882377,0.08212049,0.033301793! 0.0,0.12638518,1.0396268,0.26423508,-0.33659783,0.41189086,0.17588696! -0.014909379,-0.90257025,0.04738287,0.0654918,0.18229365,-0.1371245,0.30232072! 0.0,0.8276633,0.47193655,0.3892218,-0.21256241,-0.44695574,0.24755394! #0.0,-0.1853658,-0.10095858,0.5434031,0.46813837! 0.0,0.06967962,-0.29227743,-0.73406106,0.41322842! 
0.0,0.8922912,0.6329832,-0.057830393,-0.040029615,-0.78274965,0.60032356! -0.023678899,0.63460094,-0.15114357,-0.28039083,0.41258675,0.40273422,-0.06950885! 0.0,0.25606698,0.34392038,-0.057442788,-0.7720895,0.18348344,-0.7207605! 0.0,-0.55137086,-0.8557131,-0.50146407,-0.44806743,0.47766155,0.022160396! #0.0,0.7578673,0.28245306,-0.6703121,0.22810869! 0.0,0.23978147,0.34445667,-0.21028215,-1.0243623! 
0.0,0.8924031,-0.68883365,-0.79661494,0.042300053,-0.7423877,0.07195504! 0.0,-0.9276829,0.27766225,0.80937,-0.38302013,-0.35436833,-0.93554133! 0.0,0.93538445,0.7363426,0.439152,0.6150197,-0.8203715,0.77373636! 0.0,-0.76184565,-0.93383676,0.15663178,-0.16343859,-0.9277972,-0.9336219! #0.0,-0.11996598,-0.018586755,0.9556904,0.84435993! 0.031246874,0.28930026,-0.022597771,-0.012974616,0.7811178! 
0.0,0.59538835,0.1580148,0.16095124,0.15421739,0.1299491,-0.63288397! 0.0,0.78253084,-0.14465433,0.039646704,0.34880587,0.43768975,-0.22219813! 0.0,0.91729677,-1.0079579,-0.050081298,0.3136697,0.091025546,-0.5923776! 0.0,-0.61636156,-0.5557068,0.16180941,0.89595735,-0.06600849,0.6765323! #0.0,-0.001829654,-0.17627169,0.41609734,0.21979274! -0.025557458,0.041711647,0.16515411,0.73282754,-1.0401547! 
0.0,0.99823505,-0.1905457,0.328753,0.33276057,0.7310533,0.6210627! 0.0,0.6764842,0.8849504,-0.90628123,-0.9298732,0.021558307,-0.91448677! 0.0,-0.49426273,0.1644606,0.70875597,0.6196696,-0.7138261,0.20462403! 0.0,-0.920362,0.5264783,-0.12979925,0.8806952,-0.34260753,-0.4496331! #0.0,-0.44945046,0.34421062,0.9734156,-0.5688677! 0.0,0.07222399,0.03395103,-0.91192555,0.25371! 
0.0,-0.5510576,0.3231149,0.663051,0.08172999,-0.13553022,-0.6992935! 0.0,0.013143346,0.1697948,0.7844672,-0.71075225,-0.038930167,-0.95898885! 0.0,0.8397939,-0.13929121,0.08048423,-0.12781817,-0.49299955,-0.6368906! 0.0,-0.375738,-0.6416009,-0.6025591,0.8828251,0.52530336,-0.4093623! #0.0,-0.045501556,-0.16800506,0.64510846,0.82819575! 0.0,0.37170815,0.1435343,0.18540442,-1.057949! 
0.0,0.3835298,-0.19360037,0.663051,0.6000252,0.9532817,0.14662308! -0.0074701123,0.67006177,0.67912245,-0.8768101,-0.79734874,-0.035657592,0.13982889! 0.0,0.6260884,0.34392038,0.9316428,-0.19814831,0.36168918,-0.66267! -0.01836142,-0.877922,-0.39083898,-0.15413351,0.8812885,0.40876985,-0.434186! #0.0,-0.112121195,-0.11041763,-0.7690221,-0.5541161! 0.0,-0.030949455,-0.23538753,-0.012974616,0.23553628! 
0.0,-0.7620666,0.9076074,1.01316,0.5201227,0.08212049,0.57663095! 0.0,-0.92973816,0.70859134,0.056073323,-0.2822429,0.5002885,-0.22802956! 0.0,-0.37833464,0.88850546,-0.1073702,-0.26480895,0.34022647,0.13721669! 0.0,0.71970063,-0.55726296,0.41610757,-0.3327087,0.454283,0.39502686! #0.0,-0.08503993,0.33216086,0.6858114,0.7220165! 0.0,0.07665606,-0.24664092,-0.6651008,-0.72228503! 
0.0,-0.5311326,-0.6180614,0.56864405,-0.23999232,-0.29848197,0.19001795! 0.0,0.67006177,-0.3481847,0.8495965,-0.19145712,0.97118294,0.11913254! 0.0,0.8397939,-0.8191042,-0.050081298,0.6368264,0.3177265,-0.24075533! 0.0,-0.6644829,0.52108103,-0.6019575,-0.052128665,0.43565667,0.20102699! #0.0,-0.07087098,-0.2939512,0.6315129,0.569135! 0.0,0.14670134,-0.23538753,1.03446,0.38756403! 
0.0,0.8922912,0.5999923,-0.059323803,-0.040029615,-0.6938493,-0.09073149! 0.0,0.77929157,0.8810659,0.049869917,-0.5902045,0.39615336,0.14972018! 0.0,0.68894905,0.6337513,-0.057442788,0.5994382,0.18348344,-0.10631633! 0.0,-0.48083472,-0.8765535,-0.50146407,-0.09633404,0.47766155,0.7911343! #0.0,0.7578673,0.21971801,0.36898145,-0.28396967! 0.0,0.23978147,-0.27344185,0.13670373,-0.8414454! 
0.0,-0.5510576,0.08189236,0.080309704,0.08172999,-0.28301936,0.19001795! 0.0,-0.9980989,0.43691915,0.19539331,-0.376459,-0.41016737,0.16961086! 0.0,-0.9892041,-0.20979714,-0.615633,-0.849473,-0.032041486,-0.23911127! 0.0,-0.9569828,-0.6416009,-0.120608956,-0.30027118,-0.44695574,-0.4093623! #0.0,-0.17298643,-0.16800506,-0.20527625,0.82879275! 0.0,0.37170815,0.105303705,0.45883626,-1.057949! 
0.0,-0.7620666,-0.9028238,0.6521071,0.017102122,0.8158401,-0.42879722! 0.0,0.7566397,0.12900458,-0.46397433,-0.05333233,-0.41389537,-0.37557903! 0.0,-0.5437937,0.814121,-0.12283496,-0.8321296,-0.16237143,-0.54617506! 0.007160466,0.19319324,-0.8557131,-0.06501301,0.8981089,-0.36977124,0.022160396! #0.0,-0.07638319,0.14755833,0.6289288,0.8372465! 0.0,0.078194074,-0.3006941,0.62746704,-1.057949! 
-0.032899506,-0.5398228,-0.9028238,-0.4916986,0.7878055,-0.12568365,-0.42879722! 0.0,-0.066061765,0.12900458,-0.46397433,-0.20173526,-0.9867192,-0.91235524! 0.0,-0.88282275,-0.25862253,-0.09030023,-0.8321296,-0.15724169,-0.46073696! -0.026302278,0.18404469,0.43465003,-0.45635518,-1.7789006E-4,-0.7803863,0.41573906! #0.0,-0.11412467,0.13300268,0.92895263,-0.65508366! 0.039576452,-0.05366295,0.076725535,0.6183622,0.5207646! 
0.0,-0.55708617,-0.6273458,0.73225623,0.7770898,-0.9989443,-0.71613175! 0.0,-0.04172105,-0.087984085,-0.28039083,-0.3676608,0.3230774,-0.5609111! 0.0,0.5896283,-1.0516862,-0.011585876,-0.35276005,-0.4748068,0.5989539! 0.0,0.65250343,0.93275285,-0.15120837,0.9162191,-0.027180359,0.098214984! #0.0,0.11110675,0.15356615,0.93576026,0.99221253! 0.0,0.021672267,-0.19386429,-0.20801935,0.64232326! 
0.0,0.40217367,-0.18548855,0.8181584,0.6000252,-0.7176536,0.21411869! 0.0,0.67006177,-0.61301064,-0.6559708,-0.51303315,-0.024658658,-0.014864184! 0.0,0.87834466,-0.4762907,0.9728538,-0.91374755,-0.07717323,-0.61665857! 0.020594422,-0.40339935,0.0054460764,-0.12979925,0.23567712,0.40876985,-0.41007975! #0.0,0.60599387,0.25709632,0.9490433,0.7412749! 0.0,0.05607233,-0.23538753,-0.8153542,0.46209! 
0.0015871711,-0.5398228,0.67311215,0.7007593,0.7878055,-0.9987921,0.11076568! 0.0,-0.066061765,-0.9877441,-0.75357664,-0.27004856,-0.9867192,-0.6053646! 0.0,-0.53598845,-0.25862253,-0.09030023,0.67951995,-0.004004225,-0.46073696! 0.0,0.18404469,-0.3064263,-0.57370275,0.84692746,0.517677,0.46892288! #0.017513815,-0.0722031,-0.042049255,0.92895263,0.5359064! 0.0,-0.05366295,0.04714111,-0.010648645,-0.1693379! 
0.0,-0.9222084,0.83575106,0.6079522,0.7770898,-0.78274965,-0.76391417! 0.0,-0.04172105,-0.15114357,0.24444082,-0.37774616,0.46576944,-0.25881606! 0.021828081,-0.7706154,-0.53812295,-0.3060716,-0.7141072,-0.74810445,0.85481715! 0.0,-0.55137086,-0.56429833,0.5070495,0.4222949,-0.41434985,0.027509034! #0.0,-0.06993398,-0.32643485,1.0057683,-0.2534084! 0.0,0.065403275,-0.33462903,-0.8838413,0.2273662! 
0.0,-0.7620666,1.1617996,0.44980347,-0.040215958,-0.6879082,0.03520412! 0.0,0.735929,0.25946712,0.50069875,-0.7804748,0.021558307,0.18296508! 0.0,0.123385355,0.7162978,0.09619306,0.73341537,0.05964732,-0.23911127! 0.0,-0.8567332,0.42874715,0.4032141,-0.2902137,-0.44361317,-0.41462234! #0.0,-0.12630257,-0.10022418,0.97636515,-0.6950976! 0.0,-0.054926824,-0.1925014,0.4149729,-0.86485934! 
0.0,-0.4119569,-0.6360102,0.7462168,0.09347961,-0.23567465,0.17322296! 0.0,-0.046292167,0.6777222,-0.8768101,-0.9053721,0.44860286,0.20576467! 0.0,0.91729677,-1.0363314,-0.20526655,-0.2105089,-0.22498584,-0.592348! -0.02904809,0.66344595,-0.93383676,-0.56178653,0.8812885,0.40876985,0.16534725! #0.0,-0.017121132,0.13300268,0.90769273,0.23695044! 0.0,-0.07200308,-0.17939694,0.73282754,-0.61284566! 
0.0,-0.44269583,0.6663397,0.25825244,0.08172999,0.9368135,0.55696696! 0.0,-0.6513994,-0.21041185,0.23805273,-0.7442034,-0.64835083,0.13868815! 0.0,-0.7332514,0.51925254,-0.5359288,0.69692945,-0.7188422,0.31030256! 0.0,-0.68006074,-0.8557131,-0.57830924,-0.046291232,-0.7553815,-0.7233071! #0.0,-0.014770493,0.3602475,0.74381876,-0.5541161! 0.0,0.06967962,0.26911563,-0.23927215,0.52202916! 
0.0,0.62164855,0.2675396,-0.7434113,-0.052983887,0.10864304,0.0819571! 0.047840837,0.73817766,0.12438837,-0.70220315,-0.7442034,0.90587205,-0.28573325! 0.0,0.8461319,0.12440932,0.9316428,-0.24700627,-0.09344575,-0.46073696! 0.0,-0.2246515,-0.57321423,-0.22868063,-0.010461107,-0.93327224,-0.14143609! #0.0,-0.15129629,0.28245306,0.23259376,-0.31674033! 0.0,-0.06599137,-0.13668826,-0.3589265,0.6992404! 
0.0,0.8924031,-0.7686167,0.15150356,0.505653,-0.7442116,-0.4712007! 0.0,-0.5548089,0.3765421,0.4369781,-0.86349833,-0.46621832,-0.93554133! 0.0,0.18193375,0.31706488,-0.55728966,-0.30532837,0.7273223,0.45517814! 0.0,-0.5447781,0.18099499,0.64698255,-0.039532226,0.51034486,-0.7944888! #0.0,0.1875504,-0.1075663,0.71092296,0.4006095! 0.0,-0.091679454,-0.03561987,0.9751737,-0.9931017! 
0.0,-0.7620666,1.1617996,0.050074864,0.0664145,-0.6180548,-0.42879722! 0.0,0.735929,0.96568155,0.50069875,-0.8332567,-0.09025109,-0.36120126! 0.01682422,-0.9641724,0.34392038,0.09619306,0.5926111,0.05964732,-0.61869335! 0.0,-0.9519225,-0.92951775,-0.06610164,-0.80619717,-0.07167196,-0.21347305! #0.036209676,-0.12575391,0.13339603,-0.19325474,0.2429855! -0.0021352395,0.06967962,-0.1925014,0.37521645,-0.85544056! 
0.018668626,-0.9222084,0.3343761,0.054440077,-0.8852515,-0.28301936,-0.79878074! 0.0,0.07233864,0.43691915,0.12902397,-0.27626532,-0.44758826,0.16961086! 0.0,0.8714709,-0.20979714,0.004494272,-0.8428853,0.22210896,0.57650566! 0.0,0.9744823,-0.548961,0.5070495,-0.005151922,-0.06600849,-0.040610403! #0.027127992,-0.77750707,-0.17627169,0.7147358,-0.37923208! 0.0,0.08598852,-0.79924333,0.320665,0.27272177! 
0.0,-0.42820066,-0.7686167,-0.057830393,-0.019334078,-0.3257816,0.60032356! 0.0,0.65617603,-0.19291063,0.15923262,-0.9339251,-0.9600836,-0.2689278! 0.0,-0.9446793,0.30430365,-0.50601715,0.6054148,-0.76587844,0.35113665! 0.0,0.5833365,0.61625797,0.94046664,-0.2746989,-0.37688076,-0.14152586! #-0.002242677,-0.05900118,0.28245306,0.9691726,0.22810869! 0.0,0.05785583,0.34149313,0.3835373,0.20604986! 
0.0,-0.960748,-0.17335318,0.37112975,0.83791935,-0.7113882,-0.6992935! 0.0,-0.017894763,0.10564563,0.7844672,0.9456116,-0.038930167,0.13447985! 0.0,0.14383695,-0.13929121,-0.18337858,0.6655305,0.3058244,0.021187425! 0.0,-0.1972366,0.42874715,0.3892218,0.844587,-0.42677,0.18933839! #0.0,0.19374023,0.33216086,0.64510846,-0.042310204! 0.0,-0.041425537,0.09631113,-0.73406106,0.746861! 
0.0,0.59538835,0.07196346,0.22225697,-0.6860075,-0.7498645,0.07104912! 0.0,-0.5601267,0.88824457,-0.92711055,-0.7923859,-0.92728376,0.5858345! 0.0,0.1864952,0.19906427,0.016247537,0.2003687,0.13590392,0.88591486! 0.0,-0.64120615,-0.55036014,0.13714589,-0.03304255,-0.06600849,-0.40992543! #0.0,-0.05011593,-0.063956544,0.9490433,0.89708406! 0.0,0.07222399,-0.0915305,-0.7654008,0.41390625! 
0.014171515,0.31540534,0.41857272,-0.026310744,0.37689674,0.08765568,0.37731862! 0.0,0.69566375,0.5880025,0.82952064,-0.36920974,0.39961496,0.1197079! 0.0,-0.9965991,-0.5344213,-0.27418756,-0.5966597,0.37177327,0.7983571! 0.0,0.19381525,-0.039444227,0.59581196,0.05253744,0.21804273,0.7633488! #0.0,-0.17298643,-0.04997194,-0.36347,0.93811935! 0.0,0.06247839,-0.138776,0.7528405,0.78005975! 
0.0,-0.45140132,-0.6152535,-0.22647464,-0.9885093,0.8263834,-0.85055655! 0.0,-0.87712705,0.22316507,0.6369103,-0.05333233,0.53493834,0.012294449! 0.0,0.5532905,0.13256252,0.12048884,-0.20311373,0.8764634,0.2957503! 0.0,-0.93861365,0.61625797,0.17802346,-0.2746989,-0.89181024,-0.16392986! #0.0,-0.07527083,-0.08786988,0.93576026,0.89708406! -0.023926908,0.062416688,-0.24999239,0.35030225,0.7454773! 
0.0,0.832363,-0.36032477,-0.50466776,0.08172999,0.8652349,0.40946245! 0.027983885,0.5881221,-0.47863594,-0.3742965,-0.77513206,-0.35744682,-0.28573325! 0.0,-0.61032933,-1.0662487,0.7914052,-0.72897387,-0.7571518,-0.59202! 0.0,0.13861264,-0.87809145,0.26604635,0.032346487,-0.37700975,0.002248492! #0.005133927,-0.022912748,0.19155921,0.994333,-0.2872642! 0.0,0.11552195,-0.05853821,0.89658004,-0.9714427! 
0.0,0.7734404,-0.68883365,0.65364903,0.27854407,-0.7560672,-0.6992935! 0.0,-0.010313146,-1.0634601,-0.89555174,-0.37124106,-0.9398175,-0.24053232! 0.0,0.93538445,-0.12386818,-0.51332307,-0.8939161,-0.65956324,-0.26857448! 0.0,-0.68834776,-0.6163501,0.15663178,-0.16343859,0.41889107,0.355416! #0.0,0.2624734,0.0380043,-0.37824267,-0.4467509! 0.0,0.051086716,-0.21259438,0.73282754,0.5237386! 
0.012872975,0.66067374,0.29932797,0.8181584,-0.014550008,-0.017150402,0.18395323! 0.0,0.73817766,0.8449511,-0.87792635,-0.7756314,-0.3749367,0.54634637! 0.0,0.87834466,0.19906427,0.9728538,-0.19814831,-0.6259887,-0.61665857! 0.0,0.8833513,-0.960207,-0.12979925,0.22210972,0.43660074,-0.16889903! #0.0,0.60599387,0.034837835,0.91166246,0.7412749! 0.0,0.07289303,-0.23538753,-0.8684267,-0.8162329! 
0.0,0.37154767,-0.650585,-0.18565364,-0.41564482,-0.23567465,-0.73002905! -0.035031,-0.9473065,0.27766225,-0.87792635,0.65071505,-0.9616376,-0.25865084! 0.0,0.84918255,-0.17347012,-0.1546207,-0.90787643,0.22011292,0.24065591! 0.0,0.13867313,-0.5303612,0.28111002,-0.7256874,-0.5083433,0.7759661! #0.0,-0.06710315,0.026829436,0.90301275,-0.2434137! 0.0,0.059447497,0.16294612,0.7753452,0.50265074! 
0.0,0.455451,1.1617996,0.09234009,0.11779758,-0.6741149,0.20729937! 0.0,0.735929,0.049358957,0.50069875,-0.9097379,0.9085851,0.15949973! 0.0,0.6086079,0.24998282,0.09619306,-0.8783187,0.09899235,-0.23911127! 0.0,0.73630977,0.3232259,-0.06610164,-0.21938622,-0.44361317,-0.21347305! #0.0,0.24537726,-0.1248897,0.97636515,-0.3182489! 0.0,-0.02455898,-0.18604645,0.4149729,0.76803404! 
0.0,0.04526896,-0.7742065,0.64457995,-0.08213942,-0.98998606,0.56446826! 0.0,-0.87712705,0.58983135,0.6327237,-0.7963237,0.6971637,-0.7126522! 0.0,-0.14624524,0.7400166,0.12048884,-0.55688643,0.8764634,0.45254073! 0.0,-0.65618294,-0.34521425,-0.118926615,0.44691458,-0.89181024,0.85936403! #0.0,-0.07610071,0.2401962,0.24737823,0.2612574! 0.0,-0.14186937,0.4460945,0.35030225,0.7454773! 
0.0,-0.5095747,-0.2935603,-0.18565364,0.59201306,-0.6938493,-0.6947955! 0.0,0.034790006,0.8943485,-0.25702596,-0.9063549,0.9659177,-0.8259251! -0.018892163,0.8397939,-1.0288627,0.5733783,-0.26885626,0.18011022,0.36919895! 0.0,0.26923588,-0.5453629,-0.4335381,-0.30053225,0.43565667,-0.44717458! #0.0,0.17110807,-0.30060938,0.9734156,-0.5884344! 0.0,0.017785624,0.29816186,0.9011741,0.41322842! 
0.0,-0.52076155,1.1617996,0.55140066,0.08172999,-0.7176536,-0.42879722! 0.0,0.735929,0.1697948,0.50069875,-0.93858314,0.013008516,-0.90684706! 0.0,-0.717937,0.24998282,0.09619306,0.5926111,-0.49299955,-0.2382876! 0.0,-0.9519225,-0.6416009,-0.628828,-0.27522746,-0.44695574,-0.21347305! #0.0,-0.12630257,-0.12959205,-0.9783653,-0.3182489! 0.0,0.06967962,-0.18129814,0.45883626,-0.86485934! 
0.0,-0.5095747,0.5396528,0.021954471,-0.9885093,-0.64559704,0.60798675! 0.0,-0.25196457,0.85982794,-0.8690904,-0.888937,0.56400967,-0.29173946! 0.0,0.8530346,0.51925254,-0.09030023,-0.31446517,0.010547757,0.13764341! 0.0,-0.71055853,-0.5832047,-0.09825885,-0.2073145,0.45278537,-0.40703484! #0.0,-0.021399707,0.09430534,0.34738132,0.76327384! 0.0,-0.308906,-0.12853165,0.45883626,-0.39512795! 
0.0,-0.7097811,0.4716674,0.6851704,0.7770898,-0.98998606,-0.14189428! 0.0,0.12638518,0.47257248,-0.61436,0.8804953,-0.40858817,-0.05910659! 0.0,0.30993366,0.7029396,0.66023,-0.2814545,-0.11104332,0.84863126! 0.0,0.60972285,0.9613507,-0.3754965,0.33315516,0.10089058,-0.47922763! #0.0,-0.14119008,0.15356615,-0.37824267,-0.2872642! 0.0,0.015022878,-0.18895139,-0.01124052,0.8237827! 
0.0,-0.9222084,0.6066288,0.10781722,0.69929475,-0.28301936,-0.63063717! 0.0,0.7122522,0.43691915,-0.06393738,-0.376459,-0.44758826,0.16961086! 0.0,-0.57939816,0.3733108,0.004494272,0.74743325,-0.96809953,-0.23911127! 0.0,0.13991392,-0.57067376,-0.1697818,-0.005151922,0.29271758,-0.16777673! #0.0,-0.17298643,-0.17627169,-0.20527625,-0.37923208! -0.022949833,0.073521435,0.6176081,0.73282754,0.29617023! 
0.0,0.5045285,0.40586606,-0.026310744,0.7770898,-0.98998606,-0.8118781! 0.0,-0.03589392,1.0396268,0.7844672,-0.8926196,0.3230774,-0.05910659! 0.0,0.5896283,-1.0516862,-0.011585876,0.74572974,-0.4748068,0.24065591! 0.0,-0.9172411,0.93275285,0.17802346,-0.11010019,-0.027180359,0.1364033! #0.0,0.20381035,0.15356615,0.06077838,0.20989397! 0.0,0.082619965,0.025932636,0.8155585,0.25371! 
0.0,-0.49564287,0.11712746,-0.08262304,0.2955258,-0.44929433,0.5872084! 0.0,-0.968321,0.67912245,-0.6283047,-0.7442034,-0.5331504,0.7839056! 0.0,0.8461319,-0.27186823,0.9316428,-0.18202268,0.33737892,0.85481715! 0.0,-0.6479839,0.012463953,-0.12194879,-0.026895067,0.46965113,0.022336327! #0.0,-0.18346119,-0.17791517,-0.7753244,-0.31878597! 0.0,0.066331014,-0.13668826,-0.21028215,0.23110779! 
0.0,-0.55708617,-0.3173812,-0.026310744,0.09347961,-0.7176536,-0.70282626! 0.0,-1.030937,1.0396268,0.9066452,-0.8332567,0.44860286,-0.20994979! 0.0,0.91729677,0.70050836,0.0960218,0.00936348,0.8764634,0.24065591! 0.047642965,0.66344595,0.34898973,-0.16462661,0.8291147,0.037850168,-0.4609821! #0.0,0.20381035,-0.22596131,0.7773059,-0.25292885! 0.0,0.082619965,0.556273,-0.20801935,0.6038519! 
0.0,0.31280908,0.8824131,0.69243526,-0.9885093,0.727067,0.6512! 0.0,0.6879311,0.88824457,0.8166981,-0.888937,-0.33118245,0.17588696! 0.0,0.8950332,0.51925254,-0.29534146,-0.19338685,0.010547757,-0.61869335! 0.02227142,-0.1553818,-0.5295599,0.17802346,0.8981089,0.52530336,0.1364033! #0.0,-0.021399707,0.25508577,0.6143402,-0.3154926! 0.0,0.06693652,-0.16737096,-0.013257038,0.7905918! 
0.0,-0.7620666,-0.29849854,-0.057830393,0.4934166,-0.78084224,0.60032356! 0.0,0.7566397,-0.15114357,-0.28039083,0.41258675,0.5002885,0.17588696! 0.0,0.25606698,0.34036228,-0.28318045,0.71294296,-0.553671,0.35113665! 0.041195717,0.19774196,-0.8557131,0.78824824,-0.37757903,0.52530336,0.022160396! #0.0,0.11110675,0.34421062,0.6143402,0.20119832! 0.0,0.16959143,0.34445667,0.35321727,0.7530755! 
0.047009926,0.042658925,0.3231149,0.6754054,0.28628704,-0.32534856,0.41859543! 0.0,0.014103774,-0.339969,0.071699694,-0.38302013,-0.57433474,-0.8259251! 0.0,0.36340868,-0.15283883,0.52294713,-0.72897387,-0.7304645,-0.6102256! 0.0,-0.09960944,0.475883,-0.09825885,0.7228818,-0.04391229,0.002248492! #0.0,-0.12575391,0.13339603,0.95059663,-0.066850424! 0.0,0.11552195,-0.05853821,-0.77802557,0.7530755! 
0.0,-0.7620666,1.1568971,0.65364903,0.27854407,-0.7442116,-0.6992935! 0.0,-0.03081178,0.44391885,-0.9148196,-0.39712867,-0.9398175,-0.29741755! 0.0,0.48148343,0.2777376,-0.51332307,-0.9144496,-0.63820565,-0.23595816! 0.0,0.22222069,-0.6163501,-0.44468376,0.9390621,0.41889107,-0.97975016! #0.0,-0.1595088,-0.17627169,1.0057683,-0.57140654! 0.04583923,0.097988725,-0.039313365,0.69567895,0.2273662! 
0.0,0.41759843,-0.32261786,0.5404605,0.008418564,-0.7502564,0.8355762! 0.0,0.12738383,0.19849177,0.8495965,-0.7584117,-0.52394205,-0.9479487! 0.0,0.76817316,0.089851975,-0.5555702,-0.29062945,-0.39169744,0.045233488! 0.0,-0.6644829,0.6082046,-0.6457842,-0.03304255,0.4597148,0.21549961! #0.0,-0.16465002,-0.04997194,0.60789126,-0.6445024! 0.0,-0.056379724,0.37186018,0.9879271,-0.28032288! 
0.0,0.7593465,0.83575106,0.36500525,0.98827237,0.052653108,0.13567317! 0.0,0.6931554,-0.72559214,-0.7270111,-0.2316688,0.56471246,-0.96332866! 0.0,0.6655122,-1.0219147,-0.64847165,-0.8783187,-0.632089,-0.9558239! 0.0,-0.39551497,-0.11493862,0.6845235,0.8715341,0.14435574,-0.8502569! #0.0,0.35605782,-0.008078374,0.06077838,-0.008838177! 0.0,-0.24228932,0.14021285,0.6179252,0.76803404! 
0.0,-0.53333026,0.44172448,0.67002344,-0.4033119,0.07947174,0.16819711! 0.0,-0.02797921,0.8849037,-0.28725734,-0.70105124,-0.88294107,-0.2437746! 0.0,-1.0183191,0.0155083425,-0.29988024,0.6614754,-0.08251286,0.29056346! 0.0,-0.09960944,-0.5132705,0.33320433,-0.04729351,-0.32388857,-0.33565938! #0.0,-0.15226077,-0.022481967,1.0007693,0.9368264! 0.0,-0.02455898,-0.14909834,0.89658004,0.8616868! 
0.0,0.7070804,-0.31252983,0.09301567,0.71293056,-0.79013324,0.4113186! -0.030785805,0.019109294,0.21342924,-0.86423254,-0.6034591,-0.46621832,0.9744356! 0.0,-0.9499361,0.9290514,0.5415075,-0.30532837,0.7659134,-0.6266044! 0.0,0.66344595,-0.57067376,-0.5730127,-0.039532226,0.52530336,-0.37782478! #0.009404212,-0.0541338,-0.12185611,0.9663834,-0.22915132! 0.02085099,0.073521435,-0.13668826,0.7753452,0.2273662! 
0.0,0.31540534,-0.2935603,-0.17962232,-0.46870267,-0.7157637,0.010862425! 0.0,0.0028353743,0.5464063,0.18139926,0.73446655,-0.13899964,-0.49246216! 0.0,-0.57884467,0.72735,-0.5267817,-1.0147543,0.12387766,0.55258584! 0.0,-0.71174395,-0.8962427,0.9032314,-0.18467247,0.074988864,-0.16128951! #0.0,0.101295054,-0.18410507,-0.4149143,0.99221253! 0.0,-0.17026746,0.556273,-0.036677696,0.60617507! 
0.0,0.73261786,-0.13302733,-0.063556865,0.75642264,-0.48266557,0.1285044! 0.0,0.6879311,0.19849177,0.056073323,-0.38302013,-0.54171365,-0.19396293! 0.0,-0.825395,0.042256568,0.004494272,0.18229365,-0.39169744,0.25825414! 0.0,0.12625164,-0.5359899,-0.65613484,-0.03304255,-0.3386562,0.24755394! #0.0,-0.07685357,0.017708313,0.92569214,0.21294317! 0.0,0.056003463,-0.29227743,-0.030511292,0.9502167! 
0.0,-0.98519933,0.515751,-0.74414355,0.78950554,-0.6474478,0.15254307! 0.0,-0.2853191,0.1417084,0.039646704,-0.8824487,0.4307749,0.17588696! 0.0,-0.7489257,0.20088214,-0.038336854,0.51966774,-0.8344934,-0.63993764! 0.0,0.9367452,-0.5952307,0.13211799,-0.12745064,0.54209393,0.70068836! #0.0,-0.17298643,-0.019811392,0.53934735,0.21698119! 0.02200124,0.16081919,-0.16821238,0.7528405,0.77029514! 
0.0,-0.7725731,0.30751586,-0.06173139,0.03366916,0.76720107,-0.7142513! 0.0,0.034790006,1.0396268,0.23805273,-0.70105124,0.6225815,0.27499473! 0.0,-0.90257025,0.2672851,0.09619306,0.32291898,0.051685978,-0.68637365! 0.0,0.71970063,0.6957464,-0.628828,-0.21256241,-0.3387561,0.24755394! #0.0,0.09846333,-0.12296954,0.68722415,-0.26500157! 0.0,0.035670538,-0.07739897,-0.38169432,0.94450706! 
0.0,-0.7177213,1.1617996,0.5726548,0.77923685,-0.7002301,-0.42167902! 0.0,-0.39524564,0.25946712,0.50069875,-0.9053721,-0.42860448,0.14338763! 0.0,0.58854765,0.16040877,0.10300898,0.6415875,-0.6734571,-0.6247377! -0.012030501,0.18450646,0.34688416,-0.06610164,-0.1752662,-0.44361317,-0.20542453! #0.0,-0.12630257,-0.12959205,0.97636515,-0.3182489! 0.0,0.00888232,-0.18604645,0.4149729,0.4626082! 
0.0,-0.45731324,-0.83251435,-0.7201415,0.1208601,-0.7113882,-0.7174964! 0.0,0.69566375,0.10564563,0.9965668,-0.9545066,0.41098788,1.0078518! 0.0,-0.4140593,0.21201529,-0.15605596,0.19750975,-0.5246107,0.21654952! 0.0,0.66344595,0.475883,-0.49832612,0.74301004,0.06773528,0.18933839! #-8.2150847E-4,-0.095358804,0.30811825,0.66743195,-0.60475755! 0.0,-0.05634716,0.09331089,-0.9284385,0.45733824! 
0.0,0.44347283,0.27828112,0.53508806,-0.3920146,-0.14993195,0.14662308! 0.0,0.73817766,0.59351224,-0.47864014,-0.36920974,-0.035657592,0.13982889! 0.0,0.87147963,-0.20726047,0.9316428,-0.20311373,-0.7981791,0.23616767! 0.0,0.1955679,-0.39083898,-0.039497342,-0.002602484,0.46965113,-0.36284807! #0.0,0.15449479,-0.15783359,0.27103412,0.66933584! 0.0,-0.030949455,-0.027508814,-0.4071555,0.14621292! 
0.0,-0.45731324,0.49776915,-0.06972635,-0.67135096,0.9315311,-0.6992935! 0.0,-0.017894763,-1.0237607,-0.8670401,-0.73134094,0.3282336,-0.2972988! 0.0,0.7944355,0.14859739,0.08048423,0.21303368,0.4610641,0.073535085! 0.0,-0.61636156,0.7696011,-0.20651853,-0.34900647,0.52530336,0.18933839! #0.0,0.2903396,0.27415633,0.38036376,-0.57140654! 0.0,0.17863274,0.1675228,-0.7699963,0.45676035! 
0.0,0.65720534,-0.33844662,0.5679544,0.0054361112,0.8652349,0.56446826! 0.0,0.06296042,0.4788315,-0.551052,-0.74136454,0.0631745,-0.254481! 0.0206053,0.8216293,0.07762567,-0.6549547,0.6805952,-0.9401726,0.17679207! 0.0,0.7704845,-0.87809145,0.22681335,0.9162191,0.31870723,-0.5350324! #0.0,-0.075080276,0.13300268,0.47962582,-0.25292885! 0.0,-0.03224661,-0.0013627559,-0.37600294,-0.20532876! 
0.0,0.6573474,-0.92775416,-0.85253453,-0.9611445,0.31904054,0.13409223! 0.0,-0.02823541,0.25590217,-0.86444616,-0.38302013,0.92795986,0.25696385! 0.0,0.1864952,0.18510646,0.56202894,0.31175867,0.13590392,0.2116014! 0.0,-0.7933523,-0.5722836,-1.0142192,-0.03304255,-0.31642413,0.84613! #0.0,-0.7920828,-0.09260315,0.97749585,0.89708406! 0.0,0.23978147,0.09331089,-0.8838413,0.42477936! 
0.0,0.28897363,0.10072981,-0.7434113,0.39815164,0.4443985,0.34992874! 0.0,-0.9980989,0.7142161,0.27416193,-0.22477844,0.9840757,0.53202516! 0.0,-0.9965991,-1.0260626,-0.08452444,-0.9472795,0.3377093,0.50663584! 0.0,0.20380063,0.7561488,-0.6800846,-0.5071968,0.22770055,0.7633488! #0.0,-0.046247367,0.28745592,0.28516436,0.82879275! 0.0,0.017265547,0.43423355,0.4387174,-0.5878836! 
-0.006406825,-0.4538927,0.852672,0.2724541,0.111198545,-0.5338087,-0.6992935! 0.0,-0.9732099,0.12278366,-0.63463306,0.8896674,-0.98551565,0.5995032! 0.0,-0.6172737,0.5326648,-0.2966975,-0.35669807,0.21008933,0.13721669! 0.0,-0.18809485,-1.022222,-0.59593844,-0.6217601,0.051150814,0.39101696! #0.0,-0.11629868,-0.015657328,0.9267909,0.6680374! 0.0,0.22663127,-0.28931054,-0.9000877,-0.70439076! 
0.0,-0.7708937,-0.9076185,0.2846851,0.7770898,-0.7450938,-0.611568! 0.0,-0.96512556,0.12900458,-0.45216244,-0.05333233,0.6225815,0.13791797! 0.0,0.7447102,0.814121,-0.52260256,-0.8321296,0.4222557,-0.64740276! 0.0,-0.91751915,-0.5952307,-0.66938955,0.8806952,-0.36977124,0.19642717! #0.0,-0.090960264,0.13300268,0.91199917,-0.65508366! -0.022917146,0.23978147,-0.124630675,0.6183622,0.789547! 
0.0,-0.45707533,-0.66021615,0.44804204,0.09347961,0.10864304,0.14028773! 0.0,0.038578987,-0.14465433,-0.8768101,-0.19739039,0.45370838,-0.43617618! 0.0,0.84265363,-1.0234666,-0.51332307,0.5576991,0.09302592,-0.6593938! 0.0,0.7093464,-0.96746695,-0.047352646,0.8812885,0.60916686,0.16534725! #0.0,-0.017121132,0.13300268,0.95359164,0.21979274! 0.0,0.10312451,0.031934254,0.74241364,-1.0401547! 
0.0,0.49636316,-0.29849854,1.01316,0.5201227,-0.7176536,0.57663095! 0.0,-0.92973816,0.69565654,-0.47864014,-0.57025266,0.3226737,-0.47232994! 0.0,-0.80790097,-0.08846125,-0.28318045,0.5698228,-0.72752786,0.1925641! 0.019787107,0.71970063,-0.60495144,-0.039497342,-0.09451884,-0.81473005,-0.40990528! #0.0,-0.08503993,0.28245306,0.9734156,-0.56514835! 0.0,0.00981465,-0.11493883,0.51030046,0.517744! 
0.0,-0.7620666,-0.1905457,0.29626244,-0.040215958,-0.7176536,-0.41911763! 0.010962516,0.6631899,0.25946712,0.50069875,0.9456116,0.021558307,0.18296508! 0.0,0.6086079,0.24998282,0.70875597,0.5926111,-0.74810445,-0.024247408! 0.0,0.18450646,0.3232259,-0.12979925,-0.31021696,0.54686916,-0.21347305! #0.0,-0.095476255,-0.12959205,0.97636515,-0.5688677! 0.0,-0.026626188,0.1214553,0.4149729,0.25371! 
0.021589044,0.3282412,0.06537433,0.5644479,-0.8852515,-0.7450938,-0.33552963! 0.0,0.04594481,0.67912245,0.12902397,-0.27626532,-0.9361273,-0.29758498! 0.0,-0.6761881,0.9381635,-0.3004085,0.24740662,-0.10243821,0.46061692! -0.036104284,-0.877922,0.6709207,-0.50146407,-0.09660195,0.063574955,0.19642717! #0.0,-0.14694762,-0.054179862,1.0015435,-0.57140654! 0.0010840818,0.06934406,-0.3466722,0.7022213,-0.93688846! 
0.0,0.31540534,-0.30742887,-0.47665402,0.0528262,0.6994918,0.6052196! 0.0,-1.0432956,0.861304,0.51856554,-0.97149765,-0.42860448,-0.4016099! 0.0,0.88447404,0.6578452,0.37975538,0.20658743,0.13590392,-0.4453404! 0.0,-0.4003405,-0.8962427,0.7410735,-0.7191636,0.45728758,-0.022034563! #0.0,-0.11996598,-0.25435323,0.92434585,0.22851351! 0.0,-0.017889291,-0.23702823,1.0327512,0.7530755! 
0.027162213,0.3863374,0.18925075,0.6959339,-0.06765831,0.4268768,0.5530405! 0.0,0.67906356,0.85439336,0.5650112,-0.9053721,-0.9775022,-0.3178987! 0.0,0.86005294,-0.025255043,-0.3400226,0.73341537,0.8879382,0.4525219! 0.027614165,-0.2304889,-0.80785346,-0.57310414,0.5830712,-0.3078771,0.09503817! #0.016400937,-0.08430014,0.123956904,-0.8020079,-0.6634045! 0.0,0.17196089,-0.16737096,-0.9014491,0.9298092! 
0.046552036,0.8128866,-0.82946855,0.24552093,-0.62398374,-0.71525514,-0.7242027! 0.0403235,-0.017894763,0.48939726,-0.47173578,-0.71075225,-0.3803433,0.18469477! 0.0,0.072401,0.06995491,-0.48536363,-0.8302876,0.12387766,0.36919895! 0.0,-0.41629657,-0.353729,-0.45695215,-0.08228856,-0.40061355,-0.34577864! #0.0,-0.05011593,0.10217171,0.9490433,-0.3189899! -0.04365896,0.27226913,0.1675228,-0.077561736,0.45676035! 
0.0,0.8114651,-0.2935603,0.047056936,0.22314051,0.9375733,0.0034847185! 0.0,-0.026590858,0.23432061,0.74076253,-0.89335936,-0.17124175,0.17692822! 0.0,-1.0471816,0.06995491,-0.65509766,-1.0147543,-0.089745596,0.85481715! 0.0,0.66344595,-0.5739207,-0.39286634,0.7593737,-0.44695574,-0.9657043! #0.0,0.12675613,0.056419138,-0.37824267,-0.2534084! 0.0,-0.034956936,0.2261463,0.77284336,-0.70434016! 
-0.0493835,0.3282412,0.90324634,0.059820756,0.111198545,-0.5338087,0.021904254! 0.0,0.029063106,-1.0237607,0.056073323,-0.32036436,-0.3511922,0.1823721! 0.0,-0.6172737,-0.16432162,-0.3412707,-0.26480895,0.13590392,0.50031763! 0.0,0.9367452,-0.55726296,-0.6406047,-0.34622636,0.93038625,0.35876185! #0.0,-0.15515225,0.13300268,0.9734156,0.7220165! 0.0,0.07898477,-0.24664092,-0.6651008,-0.4615432! 
0.0,0.54956,-0.18879344,0.0035892725,-0.18070151,0.11759737,0.11076568! -0.004238885,-0.6423279,0.5768207,0.056073323,0.04509294,0.34643805,0.10927278! 0.0,0.8763148,0.21201529,-0.32082862,-0.14614706,0.18011022,-0.46316713! 0.0,0.18472692,-0.34521425,-0.718386,0.74301004,-0.8108666,0.9959402! #0.0,-0.3101624,-0.008078374,0.95838076,0.8031756! 0.0,-0.27074507,-0.11664903,0.68182653,0.94450706! 
0.0,-0.048583984,-0.1905457,0.61208534,-0.2138705,-0.98998606,-0.20492119! -0.014102668,-0.19848514,0.8849504,0.99577856,0.9456116,-0.6468761,0.18296508! 0.0,-0.7833005,-0.19509792,0.70875597,0.5383922,0.19574249,-0.024247408! -0.024915982,0.8894162,0.56274265,-0.12979925,0.078534484,0.68825614,-0.13547969! #0.0,-0.537218,0.35064346,0.710206,-0.61835057! 0.0,-0.33931017,0.709391,-0.2514075,0.25371! 
0.0,0.9512034,0.64149636,0.6851704,0.74663115,-0.7176536,0.60798675! 0.011098109,0.6879311,0.12601596,0.15923262,0.28989172,-0.34216633,0.20060448! -0.024193062,0.5189491,-0.1380849,-0.3004085,-0.31446517,0.33737892,0.10451406! 0.0,0.52337897,0.012463953,0.52764595,-0.7191636,0.07009852,0.22268975! #0.0,-0.16232003,0.11692652,0.9663834,-0.64711916! 0.0,0.08159126,0.17316884,-0.6651008,0.8779833! 
0.0,0.9329039,-0.15976796,0.6971187,0.39815164,0.12227908,0.119317144! 0.021630626,-0.58708227,0.12900458,-1.0817312,-0.75777584,-0.35744682,0.6057619! 0.0,-1.0183191,-0.25956398,0.7269499,-0.27865693,-0.19103058,-0.55466944! 0.004200548,-0.37812233,-0.87809145,0.14655168,-0.50410694,0.13765389,-0.31228492! #-0.034408532,-0.07707654,0.13982683,-0.78952104,0.99221253! 0.0,0.017265547,-0.01251629,0.67417276,-1.1173333! 
0.0,-0.9222084,0.08189236,0.7462168,0.69929475,-0.28301936,0.19001795! 0.0,-0.06003664,0.6777222,0.19539331,-0.19739039,-0.44758826,0.16961086! 0.0,0.84265363,-0.20279449,-0.4962236,-0.8428853,-0.22498584,-0.621539! 0.0,0.18186373,-0.93383676,-0.13508835,0.8812885,0.07009852,0.14022137! #0.0,-0.17298643,0.25709632,0.95359164,0.21979274! 0.0,0.10312451,0.010064283,-0.9142327,-0.60297644! 
0.0,0.77543676,0.67311215,-0.06720615,-0.61890113,0.08212049,0.7928366! 0.0,0.034790006,1.0396268,0.082709625,-0.05333233,0.6225815,0.27499473! 0.0,-0.90257025,0.11830589,0.09619306,0.18229365,-0.060219448,0.30232072! 0.0,0.71970063,0.31491816,-0.46870378,-0.007314354,-0.7820442,0.24755394! #0.0,-0.084780745,0.13300268,0.9490433,-0.29641247! -0.046928782,0.032272816,-0.07739897,-0.39859855,0.789547! 
0.0,-0.45707533,0.70313317,-0.47665402,0.09347961,-0.225247,0.19001795! 0.0,-0.046292167,0.63469964,-0.8768101,-0.19739039,0.44860286,0.14102595! 0.0,-0.5666709,-1.0662487,-0.4804055,-0.19814831,-0.22498584,-0.5635448! -0.021758497,-0.68006074,-0.57067376,0.85676193,0.91685295,0.40876985,0.16534725! #0.0,-0.112121195,0.28245306,0.9389324,0.89708406! 0.0,0.25707677,0.031934254,-0.9142327,0.23553628! 
0.0,-0.7097811,-0.17335318,0.5404605,-0.036508054,-0.7502564,0.85698617! 0.0,0.017573409,-0.024711207,0.8495965,-0.39712867,-0.5742627,0.18296508! 0.0,0.7056597,0.12440932,0.7457894,-0.29062945,-0.44498244,0.045233488! 0.0,0.8471163,0.627277,-0.6457842,-0.08228856,0.414369,-0.41462234! #0.0,-0.16075069,-0.09867716,0.60789126,0.24217343! 0.043991346,-0.37690172,0.37186018,0.9879271,-0.28032288! 
0.0,0.04526896,-0.7742065,0.8517612,-0.08213942,0.8263834,-0.8118781! 0.0,-0.87712705,-0.61301064,-0.75173163,-0.05333233,0.53493834,0.38751328! 0.0,0.58854765,-0.4762907,0.12048884,-0.9447025,0.8764634,-0.23911127! 0.0,-0.40339935,-0.30972713,-0.12979925,-0.11043867,-0.89181024,-0.9034511! #0.0,0.60599387,-0.2698533,0.9490433,0.2612574! 0.018247467,0.027632814,-0.28617746,-0.8153542,0.7454773! 
0.0,0.060176145,0.4484106,0.035599623,-0.66116244,-0.27070117,-0.14389184! 0.0,0.73352516,-0.9765279,-0.87792635,-0.009142727,0.10519382,-0.2972988! 0.0,0.7796482,-1.0662487,0.7621956,-0.27865693,-0.60687697,-0.6505158! 0.0,0.7704845,-0.37086847,-0.44071198,-0.27522746,0.07009852,-0.040610403! #-1.3602898E-4,-0.056074213,-0.21377477,0.5473387,-0.23078646! 0.0,0.20105511,-0.24155842,-0.87334186,-0.8162329! 
0.0,-0.960748,1.0948687,0.49538526,0.39850128,-0.7176536,0.15354915! 0.0,-0.7963408,-0.21203423,0.5544703,-0.0040961504,-0.43341213,-0.611498! 0.0,0.47196513,0.19906427,-0.3004085,0.6349284,0.35045868,-0.59353817! 0.0,0.23129031,-0.6345934,-0.18794599,-0.25102505,0.40876985,-0.37654474! #0.0,0.19374023,0.28614095,0.95838076,0.22826606! 0.0,-0.06659805,0.13037644,-0.024630345,-0.63455397! 
0.0,0.81946605,-0.30716696,0.7462168,-0.17701235,-0.75993454,0.19001795! 0.0,0.67006177,-0.12135191,0.071699694,-0.49160314,-0.5534531,0.14102595! 0.0,-0.5402409,-1.0662487,-0.54504985,-0.19814831,0.3379077,-0.19388591! 0.040433828,-0.6214098,-0.5378773,-0.15413351,0.8812885,0.41514754,-0.38114637! #0.0,-0.078519195,-0.16550492,-0.7630333,-0.5555213! -0.007907242,0.05607233,-1.6476214E-4,0.50178546,-1.0580785! 
0.0,-0.4698745,0.2981983,0.23129682,0.10237313,-0.27441987,-0.3896218! 0.0,0.6771244,-0.15114357,-0.28039083,-0.9137488,0.52603024,-0.29758498! 0.015177693,-0.8670894,-0.5742802,0.09619306,0.62194824,-0.65705377,-0.54617506! 0.0,0.71970063,0.6258285,-1.0254936,-0.21256241,0.52530336,-0.16380545! #-0.03480482,-0.12632364,0.21971801,0.97841084,0.7832402! 0.0,0.06411731,0.062449932,-0.36747488,0.27433214! 
0.0,0.37154767,0.087707534,0.6622095,-0.48449075,-0.44348928,0.54860747! 0.0,0.5591314,0.13626453,0.23805273,-0.47127223,0.40289697,-0.22081026! 0.0,0.6020126,-1.0079579,0.006219242,0.6545124,0.33737892,-0.23911127! 0.0,0.73630977,-0.5952307,0.16180941,-0.286051,-0.44695574,-0.38114637! #0.0,-0.18288885,0.3602475,0.5164273,-0.9622982! 0.0,-0.09422223,0.02028814,1.0621939,0.050613612! 
0.0,0.945538,0.12903953,0.6416356,-0.41326514,0.6994918,0.18395323! 0.0,-0.96506006,-0.087984085,0.039646704,-0.51303315,-0.9775022,-0.36120126! 0.0,0.5199931,0.75653654,-0.615633,-0.39085025,-0.05615839,0.29929698! 0.0,-0.877922,-0.89300466,-0.44468376,-0.0032088645,0.037850168,-0.20194729! #0.0,-0.10595772,-0.077758655,0.5474009,0.8529871! 0.0,-0.09030785,-0.110949636,0.6843299,0.5237386! 
0.0,-0.5510576,0.3231149,-0.47665402,0.033694472,-0.13553022,0.019330785! 0.0,-0.9980989,0.19065182,0.88708586,-0.38302013,0.6639592,-0.91673315! 0.0,0.776733,0.15079378,-0.08006109,0.31630647,0.92609245,-0.6144346! 0.0,-0.9519225,-0.59187156,-0.628828,-0.3114225,-0.44695574,-0.4093623! #0.0,0.11110675,-0.042049255,0.66743195,0.82879275! 0.0,-0.034956936,0.061540432,0.73282754,0.7423174! 
0.048140097,0.37154767,0.39441186,0.35434175,0.08172999,-0.7442116,0.18395323! 0.0,-0.051196765,-0.087984085,0.22490974,-0.33659783,0.40289697,0.17588696! 0.0,0.5199931,0.04738287,-0.18337858,0.6545124,-0.63820565,-0.6403897! 0.0,-0.9519225,-0.89300466,-0.44468376,0.04457336,-0.44695574,-0.40674058! #0.0,-0.1853658,0.05574327,0.5434031,0.82879275! 0.0,0.06967962,0.19024499,-0.7170517,0.4767994! 
0.0,-0.39027998,-0.2935603,0.70568544,0.78950554,-0.23567465,-0.78712887! 0.0,-0.9745683,0.27766225,0.18139926,-0.8824487,0.37732416,0.17588696! 0.0,-0.61345243,0.06995491,0.4984089,0.6545124,-0.6302129,0.86632067! 0.0,0.9367452,-0.5407005,-0.37161225,-0.12640345,0.54209393,-0.9405324! #0.0,-0.17298643,0.21971801,-0.35409477,-0.2534084! -0.0029334612,0.16081919,0.05920404,-0.8244804,-0.93688846! 
0.0,0.3863374,0.73812413,0.059820756,-0.3920146,-0.5338087,-0.3896218! 0.010360718,-0.9732099,0.9808487,0.15923262,0.9637492,0.46522617,0.017983079! 0.0,-0.7489257,0.3277599,-0.03740293,-0.23571013,0.21008933,0.13721669! 0.0,-0.9519225,-0.55726296,0.5288566,-0.07074629,0.49897608,0.72868085! #0.0,-0.11996598,-0.015657328,-0.19325474,0.66933584! 0.0,0.07898477,-0.24664092,0.7528405,-0.97221094! 
0.0,0.46359473,0.11034788,0.6585572,0.037014723,-0.6180548,-0.6992935! 0.0,0.6931554,0.78379834,-0.3742965,-0.7183516,-0.43384528,0.17021956! 0.0,0.16143182,0.6337513,-0.51332307,-0.30155215,-0.032041486,-0.5780882! 0.0,0.081666194,-0.57321423,-0.628828,-0.047263205,0.7456102,0.33950186! #0.0,0.0735464,0.4450481,0.35138774,-0.8832674! 0.0,-0.05235388,0.032973785,-0.21350336,0.48710373! 
0.0,0.66067374,0.29932797,0.5679544,-0.6707762,-0.98998606,0.23310101! 0.0,0.034790006,-0.61301064,-0.551052,-0.8402604,-0.36291105,-0.25458997! 0.0,0.8216293,-0.4762907,-0.12283496,-0.9447025,-0.07717323,-0.61665857! 0.0,0.8957926,0.0054460764,0.47610348,0.20714429,-0.09785274,-0.37495744! #0.038017865,0.60599387,0.34421062,0.45998046,0.8852918! 0.0,0.15320885,-0.6078193,-0.4071555,0.46209! 
0.0,0.26788986,-0.3173812,0.58230335,0.6429887,0.057856787,-0.09018183! 0.0,-0.026590858,-0.49451876,0.5228276,-0.05333233,-0.4992056,0.22312224! 0.030310582,-0.9965991,-1.0079579,-0.03740293,-0.7357597,0.051685978,0.23289052! 0.0,-0.5887641,-0.5952307,0.45353508,0.8122984,-0.36977124,0.26058656! #0.046957236,-0.0021726228,-0.17627169,-0.75479597,-0.78444797! 0.0,-0.0072920173,0.15036833,0.45883626,-1.0445787! 
-0.032678634,-0.4538927,-0.17335318,0.25679502,0.83791935,-0.98998606,0.636595! 0.0,0.017573409,-0.25694636,-0.81481105,0.71978664,0.46701235,0.18296508! 0.0,-0.6172737,0.07762567,-0.28318045,-0.35669807,0.21008933,0.15103894! 0.0,0.9367452,-1.0566199,0.42239788,0.6368851,0.051150814,0.35876185! #-0.034155264,-0.16075069,-0.09260315,-0.3493616,-0.4328779! 0.0,0.20109627,0.1675228,0.6843299,-0.70439076! 
0.0,-0.7097811,-0.2935603,0.44980347,-0.06765831,-0.7157637,-0.6992935! 0.0,-0.25196457,-1.0237607,0.18139926,-0.23485865,0.61357725,0.24851745! 0.0,0.123385355,0.7162978,0.7229316,0.73341537,0.12387766,0.021187425! 0.0061506703,-0.8567332,0.42874715,-0.13508835,0.6368851,0.4580049,-0.16128951! #0.0,-0.1853658,-0.18410507,-0.37824267,-0.6950976! 0.0,-0.08449304,-0.01251629,0.9674534,0.27004477! 
0.0,0.31540534,1.1617996,0.7462168,-0.040215958,-0.7176536,-0.42879722! 0.0,0.735929,0.25946712,0.50069875,-0.9053721,-0.98065495,0.15949973! 0.0,-0.72656316,0.20088214,-0.08509929,0.80839956,0.08804566,-0.5929827! 0.0,0.3867361,0.3232259,-0.06610164,-0.27522746,-0.7829849,-0.14143609! #0.0,-0.12630257,-0.12959205,0.9339679,-0.3182489! 0.0,0.06967962,-0.13668826,0.4149729,-0.86485934! 
-0.020052195,0.8128866,-0.24127483,-0.82555264,-0.62398374,0.7621381,-0.1875638! 0.0,-0.026638549,0.47257248,0.84189206,-0.46029815,-0.3511922,0.24851745! 0.0,-0.9768286,0.06995491,-0.9603809,-1.0138272,-0.07845187,0.88591486! 0.0,-0.9130601,-0.992925,1.0134577,0.02012837,-0.44361317,-0.9405324! #0.0,-0.8760654,0.13300268,0.9363825,1.0360864! 0.0,0.27791077,-0.12825531,-0.4739684,-0.9611933! 
0.0,0.38640967,0.83575106,0.6079522,0.83791935,-0.35304442,-0.1922059! 0.0,0.12638518,-0.7801292,0.24444082,0.8896674,-1.006688,0.23248272! 2.2007152E-4,-0.7706154,0.2777376,0.70875597,0.6437019,0.92428905,0.29266652! 0.0,0.2655512,0.42874715,-0.63425493,0.05705655,0.4580049,-0.44384596! #0.0,-0.14119008,-0.32643485,-0.37824267,-0.2872642! 0.0,0.065403275,-0.35163334,-0.8838413,0.2273662! 
0.0,-0.7620666,-0.6360102,0.65364903,0.5201227,0.7007745,-0.740647! -0.009154607,-0.010313146,-0.15114357,0.15923262,-0.39712867,0.44860286,-0.30766177! 0.0,0.48148343,0.16948193,-0.32180867,0.71294296,-0.76216406,0.35113665! 0.0,-0.7030867,-0.6163501,-0.44468376,0.8981089,0.41889107,-0.017470524! #0.0,-0.07196228,0.0380043,0.55883735,0.22810869! 0.0,-0.02510953,0.11035033,0.73282754,0.5237386! 
0.0,0.35018542,0.64149636,0.021010749,0.7238891,-0.7176536,-0.6248996! 0.0,0.7382898,0.12601596,0.15923262,0.7878586,0.39403182,0.20060448! -0.033647202,0.5639641,0.09702391,0.11178526,-0.67004585,-0.44215703,-0.58058596! 0.0,0.52337897,0.627277,0.9342294,0.005871713,0.546894,0.84494185! #0.0,-0.16232003,0.27576485,0.9663834,0.26885426! -0.0018153265,-0.012785763,0.19024499,-0.036677696,0.76803404! 
-0.018412221,0.28897363,-0.11505468,-0.88856745,-0.39345568,-0.79013324,0.19001795! 0.0,0.019109294,0.65344566,0.5219392,-0.52561784,-0.46621832,0.2191241! 0.0,-0.60609263,0.6363233,-0.050815042,-0.8849017,0.739565,0.88270295! 0.0,-0.76619166,-0.5739207,-0.060437035,-0.039532226,0.21859428,-0.34150133! #0.0,0.190182,-0.11118034,-0.7993833,-0.270765! 0.0051872134,-0.02455898,0.09917994,-0.8244804,0.5489451! 
0.0,-0.7620666,0.3536699,0.5831343,0.5201227,-0.30028728,0.57663095! 0.0,0.71632254,0.22316507,0.15923262,-0.8676316,-0.20341563,-0.31931642! 0.0,-0.39256534,0.88850546,-0.09030023,0.8243775,-0.7749517,0.35113665! 0.0,0.71970063,-0.8557131,-0.16238566,-0.24545617,0.048777238,-0.16330303! #0.0,-0.104775034,0.28245306,-0.7794314,0.7220165! 0.0025699548,0.035670538,-0.096146464,-0.19613038,0.22616726! 
0.0,0.49636316,-0.9028238,0.46117058,0.7238891,-0.12568365,0.79292876! 0.0,0.67006177,-0.039137673,-0.47864014,-0.59462684,0.3226737,0.27192461! 0.0,-0.80790097,-0.11917789,0.54285467,0.5698228,-0.8386965,0.1925641! 0.0,0.3304272,-0.60495144,-0.092573345,-0.14430606,-0.81473005,-0.4496331! #-0.02989921,0.097255215,0.13300268,0.9319603,-0.29862043! 0.0,0.01889798,-0.043097388,0.5184286,0.517744! 
0.0,-0.82657963,0.050296925,-0.05874244,-0.03672394,-0.59311026,0.20119666! 0.0,-0.046292167,-0.023373224,0.27416193,-0.95631886,0.4307749,-0.29173946! 0.0,0.6483114,-1.0260626,0.83336544,0.7139681,0.36783835,0.14980026! 0.0,-0.82876295,-0.5739207,0.24049963,0.45576578,-0.3185181,-0.39368233! #0.0,-0.1295261,0.03386636,0.57621974,-0.27738574! 0.0,0.10538241,0.004274197,-0.95028555,-0.54795635! 
0.0,-0.7097811,-0.27622226,-0.53244376,-0.8995534,-1.0164894,0.063048124! 0.0,0.7096517,0.5880025,0.7871655,0.9456116,-0.39807102,0.1197079! 0.0,-0.38141903,-0.5344213,-0.18337858,-0.24860692,-0.12595269,0.7983571! 0.0,-0.23273769,-0.039444227,-0.023253705,-0.27205938,0.16776499,-0.41462234! #0.0,-0.31832165,-0.10022418,-0.667047,-0.036467213! 0.0,-0.3194235,-0.14433828,0.73282754,0.8281481! 
0.0,-0.9222084,-0.6360102,0.0036316235,0.8216548,-0.9848102,-0.8118781! 0.0,0.7305584,0.45552984,-0.29282942,-0.37774616,0.44067475,-0.2689278! 0.0,0.25606698,-0.53812295,-0.050081298,-0.70456684,0.06844817,0.6090692! 0.0,-0.55137086,-0.55504954,-0.13508835,0.4222949,0.45228198,0.027509034! #0.0,-0.028256532,0.110406026,0.9734156,-0.2534084! 0.0,-0.02401803,-0.01251629,-0.3803809,0.9027033! 
0.0,-0.7097811,0.99348116,0.37112975,0.0054361112,-0.7424833,-0.6849752! 0.0,0.12638518,-0.087984085,0.26828754,0.9709697,0.49973774,0.18296508! 0.0,-0.5402409,0.15813842,-0.18337858,0.6518711,1.04335,0.021187425! 0.0,-0.22175288,-0.5114836,-0.09962897,0.6368851,0.4580049,-0.006392788! #0.0024732836,-0.095358804,0.29436788,0.60789126,0.006136831! 0.0,-0.3194235,0.09631113,-0.036677696,-0.76813644! 
0.0,-0.5131405,0.3231149,-0.057830393,0.08172999,-0.78274965,0.60032356! 0.0,0.66438925,-0.15114357,-0.28039083,-0.38302013,0.6639592,-0.91673315! 0.0,0.25606698,-0.615828,-0.2620422,-0.30532837,-0.74810445,-0.6526505! 0.0,0.57496864,-0.8934461,-0.628828,-0.37757903,-0.44695574,0.022160396! #0.049164254,-0.44945046,0.28245306,-0.9783653,0.82879275! 0.0,0.37170815,0.34445667,0.3835373,-1.057949! 
-0.030562073,-0.4538927,0.46653584,0.26632333,0.11779758,1.006192,0.20729937! 0.0,-0.019686237,-0.25694636,0.7388326,-0.05333233,-0.30512494,0.5995032! 0.0,-0.6172737,0.09982106,-0.07332939,-0.8783187,0.051685978,0.13721669! 0.0,0.73630977,-1.022222,0.7111821,-0.17472237,0.017537996,0.35876185! #0.0,-0.15515225,-0.1248897,0.06077838,0.9368264! 0.0,-0.02455898,-0.105096355,0.6843299,0.76890445! 
0.0036997274,-0.5322955,-0.6180614,0.4640955,-0.22345152,0.057856787,0.6584636! 0.0,-0.7844508,0.7142161,0.47559568,-0.5399685,-0.5742627,0.53732! 0.027106736,0.8555862,-0.8191042,-0.03740293,-0.91270524,0.3377093,0.30232072! 0.0,-0.6644829,-0.8825237,-0.8839665,-0.5071968,-0.16362438,-0.3756172! #0.0,-0.16670407,0.28745592,0.74381876,0.569135! 0.0067148134,0.14670134,0.12739505,0.4812896,0.031019807! 
0.0,-0.72657335,-0.65559393,0.6296523,0.81308043,0.15704262,0.13567317! 0.0,0.6879311,-0.09435791,0.64490855,0.463274,0.3013935,0.17588696! 0.0,0.8530346,0.22377998,-0.056674834,-0.57178557,-0.71220636,0.46828157! 0.0,0.08304152,-0.9041226,0.9524721,-0.21938622,-1.0110434,0.02236624! #0.0,0.24537726,-1.8138438E-5,0.8965768,0.9879867! 0.0,0.035670538,0.43043795,0.36389983,0.94450706! 
0.0,-0.82483345,-0.3173812,0.0035892725,0.6429887,0.072662525,0.41859543! 0.0,0.6879311,1.0396268,0.62299585,-0.9053721,0.45783395,-0.8259251! 0.0,0.87834466,-0.2973116,0.11178526,-0.97510123,0.8764634,0.5676591! 0.0,0.68660027,-0.50409377,-0.097419605,0.8122984,-0.36882916,-0.16128951! #0.0,0.20381035,0.3602475,0.06077838,0.1914298! 0.0,0.07222399,-0.20219772,-0.8153542,0.21235184! 
-0.025501907,0.945538,0.40586606,0.69411767,0.7878055,-0.98998606,0.4177795! 0.0,0.020632133,-0.087984085,0.17674513,-0.22462904,-0.99779844,-0.05910659! 0.0,0.5896283,0.07762567,-0.043396205,-0.2814545,0.25843585,0.46402097! 0.0,-0.09960944,-0.681791,0.17802346,-0.028629698,-0.027180359,0.1364033! #0.0,0.19374023,0.28614095,0.93576026,0.99221253! 0.0,0.14670134,0.09426199,0.73964524,-0.51851946! 
0.0,0.41759843,0.4127172,0.017480625,0.0054361112,-0.14993195,0.7946537! 0.0,-0.5684409,0.59351224,-0.47864014,-0.36920974,0.49973774,0.21277128! 0.0,0.87147963,0.12440932,0.7817555,-0.20311373,1.019424,0.23616767! 0.0,0.19774196,-0.72247165,-0.039497342,-0.3053256,-0.81473005,-0.006392788! #0.0,0.15449479,0.24830493,0.6547689,-0.08669114! 0.0,-0.06888144,0.38734236,-0.44299227,-0.73558074! 
0.0,-0.7869697,0.1580148,-0.47665402,0.20684901,0.0068509206,-0.09018183! 0.0,-0.2168527,0.64917976,-0.74381644,-0.7804748,-0.4992056,-0.19977069! 0.0,-1.0388541,0.85628414,0.7047571,0.5804159,0.18386942,0.13752702! 0.0,0.19381525,-0.6143279,0.61416113,0.5830712,0.45278537,0.74368495! #0.0,-0.08430014,0.123956904,-0.8020079,0.87550896! 0.0,-0.08449304,-0.22183667,0.016771752,-0.8496872! 
0.0,0.73458725,0.30424696,0.25825244,0.83791935,-0.35304442,0.07121247! 0.0,0.12655143,0.47257248,-0.24452627,-0.56259817,0.61357725,0.24600889! 0.0,0.7639074,0.016736738,0.49379146,-0.22584699,-0.72349405,-0.46073696! 0.0,0.12625164,0.42874715,0.3005699,-0.7909107,0.4580049,-0.4013545! #0.0,-0.11996598,0.056419138,-0.48393774,0.7412749! 0.0,0.23978147,0.18858105,-0.6651008,0.8237827! 
0.0,0.62164855,0.3231149,-0.7434113,0.08172999,-0.16082416,0.40946245! 0.0,0.73817766,0.67912245,0.071699694,-0.7442034,-0.35744682,0.7839056! 0.0,-0.9277872,-1.0260626,0.7621956,-0.8957363,-0.051464047,0.55409694! 0.0,-0.2246515,0.012463953,-0.12194879,0.032346487,-0.37700975,0.002248492! #0.0,-0.15129629,0.28245306,0.23259376,-0.31878597! -0.033000164,-0.06599137,-0.057945926,0.49908206,0.23236957! 
0.0,0.32592362,-0.87124795,0.009662079,0.40209067,-0.9482597,0.11076568! 0.0,-0.047223426,0.50754094,-0.75357664,-0.3548086,0.4154229,-0.29178077! 0.03850663,0.86005294,0.7019555,0.15306342,0.31630647,-0.53484404,0.2116014! 0.0,-0.375738,-0.34521425,-0.079543024,-0.34622636,0.07009852,0.012929294! #0.0,0.2903396,-0.17627169,0.66026586,-0.5555213! -0.019844849,-0.041425537,0.1675228,-0.3995423,-0.0055321455! 
0.0,0.3863374,0.12903953,-0.0040533654,-0.4224065,-0.6938493,-0.3896218! 0.0,-0.5684409,0.9808487,0.19096321,0.6951963,0.46522617,0.017983079! 0.0,0.8865131,0.3277599,-0.029216569,-0.23571013,-0.5246107,-0.61238325! 0.024294626,0.66344595,-0.60495144,0.55696875,0.8806952,0.06773528,0.72868085! #0.0,-0.09792961,-0.054179862,-0.19325474,0.7878969! 0.0,0.2247088,0.34445667,-0.91779494,-0.97221094! 
0.0,-0.49376512,0.3536699,0.5831343,0.8216548,1.0037936,-0.07793139! 0.0,-0.08891976,0.5537963,0.8182863,-0.8676316,-0.20341563,0.1483564! 0.0,0.18309548,0.2331744,-0.114449486,-0.72897387,0.1022926,0.27025634! 0.009755075,-0.64120615,-0.57067376,-0.718386,0.8724115,-0.4436732,-0.16352694! #0.0,-0.102035716,-0.13123637,-0.37957343,0.89708406! 0.0,0.20978884,-0.1925014,-0.36747488,0.22616726! 
0.0,-0.12118523,-0.08447139,0.49538526,-0.1096334,0.043626726,0.5604354! 0.0,-0.2168527,0.6493221,-0.014213681,-0.7804748,-0.17124175,-0.19977069! 0.0,-0.7489257,-0.14197382,-0.30332482,0.6369033,0.3377093,0.26038456! 0.0,0.24512774,-0.88749087,-0.12979925,0.9057594,0.091344,-0.3139994! #0.0,-0.08430014,0.123956904,-0.037438035,-0.4467509! 0.0,-0.16763735,0.31770283,0.73282754,0.7195826! 
0.041365203,-0.4619823,-0.2935603,0.56864405,-0.16613199,-0.14635447,-0.7420047! 0.0,0.9229133,-0.20108113,-0.25702596,-0.7442034,0.97118294,0.13791797! 0.0,0.8397939,0.09029025,0.5907213,0.5347308,0.3333632,-0.24075533! 0.0,0.21978988,0.52108103,-0.58249646,-0.0071499124,0.43565667,0.20102699! #0.0,0.08514146,0.28245306,0.6315129,-0.5541161! 0.0,0.19958237,-0.13668826,0.8024939,0.33033198! 
0.0,0.33783764,-0.77551234,-0.026310744,0.61928284,0.060148768,0.7350606! 0.0,0.6631899,-0.557531,0.778106,-0.76711893,0.48246694,0.17253476! 0.0,0.25532886,-0.19214977,0.85587597,0.1877861,0.17848659,-0.07864201! 0.0,0.62025607,-0.46965522,-0.13252017,-0.4259254,0.07009852,-0.28196836! #0.0,-0.11996598,-0.27982482,0.7257049,-0.028091908! 0.0,0.29706135,0.11538872,0.117120706,0.15742445! 
0.0,0.66067374,0.34789288,0.8181584,0.0664145,-0.017150402,-0.09018183! 0.0,-0.047223426,-0.61301064,0.08327381,-0.7756314,-0.3749367,0.43727094! 0.0,-0.6172737,0.15562019,0.9363984,-0.94429505,-0.53484404,-0.61665857! 0.0,-0.98036975,0.0054460764,-0.12979925,0.23567712,0.5026414,-0.9405324! #0.0,0.2903396,-0.17627169,0.9490433,0.7412749! 0.0,0.2528928,-0.6078193,0.34228054,-0.0055321455! 
0.0,-0.55708617,-0.6273458,-0.50521886,0.2643004,-0.28984198,0.41859543! 0.0,-0.066061765,-0.467669,0.071699694,-0.3676608,-0.57433474,-0.59636617! 0.0,-0.61032933,-0.864426,0.52294713,-0.31446517,-0.9080552,-0.6102256! 0.0,-0.09960944,-0.53438103,-0.09825885,0.9162191,0.47081465,0.002248492! #0.0,-0.06592144,-0.022481967,0.95059663,-0.5541161! 0.0,-0.05634716,0.556273,-0.80322087,0.42912856! 
0.0,-0.28460437,-0.6360102,0.64457995,-0.9885093,-0.23567465,-0.36538902! 0.0,0.67906356,0.88824457,-0.551052,-0.9053721,-0.65009797,-0.23227005! 0.0,0.8567967,-0.20979714,-0.10006966,-0.3358243,1.0473739,0.48274192! -0.0059124716,-0.55137086,-0.57321423,-0.44368252,-0.59722817,-0.40656736,0.85936403! #0.0,-0.055446047,0.34059477,0.9559151,-0.2534084! 0.0,0.046586346,-0.1495764,-0.013257038,0.7905918! 
0.0,0.5249774,0.40119928,-0.028675301,0.0528262,-0.6938493,-0.34130785! 0.0,-0.5684409,0.5780633,0.18139926,0.9425365,0.4317048,0.122946724! -0.02496224,-0.8143637,-0.7546141,0.37975538,-0.20311373,0.13590392,0.84863126! 0.0,-0.3670403,-0.64181113,0.78824824,-0.1930181,0.14737651,-0.16761622! #0.0,-0.11996598,-0.2562273,0.7655523,0.66933584! 0.0,-0.09030785,-0.12825531,-0.01124052,0.33486357! 
0.0,-0.5322955,-0.27689534,0.7462168,-0.13649581,-0.5144006,0.70596635! -0.046818264,0.3518207,0.6507952,-0.8398867,0.7092804,0.524474,0.14102595! 0.0,-0.058856726,0.073928,0.9770275,-0.91293526,-0.28587162,-0.24075533! 0.0,0.022170901,-0.9240167,-0.6187866,0.8812885,0.7669772,0.16534725! #0.0,-0.112121195,0.2466976,-0.7630333,-0.8832674! 0.0,0.05607233,-0.29638648,0.18701804,0.9337325! 
-0.03500939,-0.82657963,0.28070396,0.6441906,0.71627486,0.13531986,0.6052196! -0.041679412,-1.0232661,0.9010725,0.14249842,-0.9082186,0.39961496,-0.37557903! 0.0,0.87834466,0.6578452,-0.018602699,0.5985701,-0.82979226,-0.4453404! -0.019431306,-0.877922,-0.5978156,0.18436232,-0.69366527,0.49918267,-0.031865038! #0.0,-0.17298643,-0.07181776,-0.34397057,0.20266849! -0.045322657,0.06247839,-0.01251629,-0.4071555,0.78005975! 
0.039907385,0.9884586,0.0727385,0.6851704,-0.052983887,0.10864304,0.60798675! 0.0,0.6879311,0.098076046,0.51856554,-0.493321,-0.34216633,-0.37557903! 0.0,0.8555459,0.5001648,-0.6370986,0.29146984,0.31876066,-0.49914432! 0.03003266,0.81235445,-0.49085885,0.5070495,-0.7191636,0.099598914,0.72868085! #0.0,-0.103039354,-0.2056773,0.4670696,-0.3154926! 0.0,0.06565472,0.0040944405,-0.3589265,0.7004998! 
0.0,0.7276374,-0.2935603,-0.18565364,0.39815164,0.4268768,-0.6992935! 0.0,-0.004464682,-1.0237607,0.18139926,-0.22477844,-0.3511922,0.24851745! 0.0,-0.7489257,0.72735,0.7621956,0.40449765,0.12387766,0.55258584! 0.0,0.20380063,0.72250235,-0.13508835,-0.66213346,0.074988864,-0.040610403! #-0.010398991,-0.03864832,-0.30060938,0.28516436,-0.30133137! 0.0,0.23978147,-0.0052110087,-0.012974616,-0.5878836! 
-0.009544075,0.5619093,0.050296925,0.75476545,-0.2904628,-0.73826766,-0.6992935! 0.0,-0.046292167,0.10564563,0.31535858,0.07643564,-0.3803433,-0.29173946! 0.0,-1.0183191,-0.9797842,-0.12943767,0.7139681,0.14814532,0.14980026! 0.0,-0.375738,-0.5739207,0.9179189,0.45576578,0.5902951,-0.34577864! #0.0,-0.1295261,-0.051128954,0.28516436,-0.27738574! 0.0,0.017265547,0.12109938,0.8114828,0.45676035! 
-0.015411593,-0.5095747,0.050116323,0.021954471,0.10237313,-0.71376956,-0.6992935! 0.04424582,0.66378504,0.5780633,-0.8690904,-0.23485865,0.55639225,0.1127021! 0.0,0.8530346,-0.9981797,-0.09030023,0.73341537,0.8432431,-0.25200617! 0.0,0.12625164,-0.681791,-0.093479276,-0.1930181,0.45278537,-0.9316761! #0.0,-0.08430014,0.09430534,0.31017524,-0.33650425! 0.0,0.009138115,-0.22183667,0.6296808,0.25371! 
0.0,0.8712087,0.4484106,0.047056936,0.0599221,-0.27070117,0.18771654! -0.034282595,-0.6513994,0.97539556,0.07149694,-0.009142727,0.0631745,0.54634637! 0.0,-0.5426944,0.19906427,-0.09030023,-0.31446517,-0.60687697,-0.6503533! 0.0,0.22650366,-0.6335924,-0.078632556,0.8494299,0.47216505,-0.19883373! #0.0,-0.056074213,-0.21377477,-0.71118903,-0.2434137! 0.0,0.07222399,0.1214553,-0.036110174,0.9133423! 
0.0,0.32592362,0.3202963,0.009662079,0.0664145,0.9532817,-0.09018183! 0.0,-0.047223426,0.5066307,0.08327381,0.38502324,0.4154229,-0.27982926! 0.0,0.55936384,0.71435684,0.4616773,0.556426,-0.53484404,-0.9381349! 0.0,-0.95993966,-0.34521425,0.9524721,-0.1621896,0.07009852,-0.9265504! #0.029768828,0.2903396,-0.17627169,0.9490433,-0.5555213! 0.0,0.2528928,-0.1925014,0.35030225,-0.0055321455! 
0.0,-0.5705089,-0.6180614,-0.12868862,-0.6657374,-0.29848197,-0.0023142546! 0.0,-0.7844508,0.88500375,0.16385397,-0.32036436,-0.35744682,0.13791797! 0.0,0.87834466,-0.8191042,0.7621956,0.60918576,0.44986603,-0.5715031! -0.04878087,0.25118065,-0.9211413,-0.66938955,0.01263817,-0.7904844,-0.14143609! #0.0,-0.09970948,-0.18989964,-0.8050869,0.54379225! 0.0,-0.034956936,-0.021709085,1.0277481,0.9031518! 
0.0,-0.23861086,0.44172448,-0.95246893,-0.6405644,-0.7002301,-0.42167902! 0.0,-0.85030293,0.27419117,-1.0817312,0.064335704,-0.4060333,0.5298738! 0.0,0.58854765,0.16040877,0.7812469,-0.16357426,-0.7202324,0.85481715! 0.0,0.29631507,-0.5739207,-0.13935444,0.74626637,0.53864706,0.39502686! #-0.032952033,-0.05560771,-0.38368475,-0.54046786,-0.2534084! 0.0,0.00888232,-0.18604645,0.8559618,-0.3316126! 
0.005312331,-0.74648464,-0.29849854,-0.7284964,-0.6850942,0.9186304,0.18395323! 0.0,-0.97431856,-0.2596683,0.18005975,-0.6433128,0.3230774,0.5427774! 0.0,-0.60326,-0.9810524,-0.32180867,0.60967046,-0.7648343,0.31160593! 0.0,0.66344595,0.6289439,0.78824824,0.85715634,0.08421011,0.81501615! #0.0,0.11110675,0.0380043,0.9126482,-0.56514835! 0.0,0.035670538,0.34445667,-0.92690474,0.5237386! 
0.0,0.14882189,0.1580148,-0.023763027,-0.95094717,0.9574418,0.18384376! -0.017169148,0.017573409,0.988293,-0.39422867,-0.05333233,0.586607,-0.6299264! 0.0,0.058301874,0.14859796,0.49769318,-0.35332298,-0.7858426,0.22100693! -0.044318832,0.14996195,0.627277,-0.46125522,5.2504055E-4,-0.42677,-0.46708772! #-0.0059488304,-0.9165424,0.09262492,-0.7105949,-0.30050215! 0.0,0.06967962,0.18858105,-0.6865366,-1.0445787! 
0.0,-0.921202,0.4618978,0.18834789,-0.66116244,0.1458848,0.22405697! -0.0014892444,-0.6513994,0.88824457,-0.87792635,-0.36920974,-0.65009797,-0.044524122! 0.0,0.14741406,-0.20979714,-0.033082638,-0.19814831,-0.6259887,-0.6503533! 0.0,-0.9068925,-0.5247969,0.17802346,-0.15867795,0.47766155,0.7374236! #0.0,0.022940706,0.034837835,0.9126658,-0.2534084! 0.0,0.016360847,-0.17939694,-0.8153542,-0.8162329! 
0.0,-0.35372162,0.4127172,0.46117058,0.7238891,0.4304428,-0.7019197! 0.0,0.67006177,0.10649926,0.18139926,-0.8824487,0.3226737,0.012133598! 0.0,-0.7489257,-0.08846125,-0.07332939,0.5698228,-0.5246107,0.1925641! 0.0,0.34412134,-0.60495144,-0.6432445,-0.12640345,0.54209393,-0.45448875! #0.0,-0.17298643,-0.30060938,-0.35409477,0.6559449! 0.0,0.01889798,0.10732907,0.7528405,0.47395638! 
0.0,0.97653353,-0.33844662,-0.071380496,0.0054361112,0.8652349,0.6052196! 0.0,-0.09852477,0.43691915,0.20913322,0.42676532,-0.44758826,-0.23227005! 0.0,-0.5558855,0.72735,-0.45675865,-0.31446517,0.09302592,-0.7279063! 0.0,0.6215141,-0.87809145,0.26604635,-0.34622636,-0.37771285,0.18543921! #0.0,-0.18337388,0.13300268,0.61788404,1.028483! 0.0,-0.061706595,-0.01251629,0.89658004,0.42912856! 
0.030993287,0.28897363,0.4127172,0.4572579,0.37689674,-0.7176536,-0.67532766! -0.018929511,-0.9980989,0.22776365,-0.47864014,-0.5399685,0.3226737,0.012133598! 0.0,-0.9965991,-0.08846125,-0.03740293,0.5698228,0.3377093,0.1925641! 0.0,0.34412134,0.6289439,-0.039497342,-0.5201919,-0.81473005,0.7534171! #0.0,-0.08073625,0.28745592,-0.7857125,0.66933584! 0.0,0.047451306,-0.027508814,0.4812896,0.25018394! 
0.0,-0.4119569,-0.16410136,0.6514401,0.7770898,-0.33053765,0.60032356! 0.0,0.06756498,0.9808487,0.19872887,0.38261348,0.56560344,-0.7402896! 0.0,-0.91916114,0.5001648,-0.3004085,-0.26492584,0.21027665,0.6187484! 0.0,0.7117181,-0.9895097,-0.16740379,-0.27682516,0.41770282,0.05616055! #0.0,-0.033277217,-0.09867716,0.9734156,-0.19917357! 0.0,0.035976283,0.34445667,-0.8838413,0.94450706! 
0.0,0.4041994,0.3231149,0.663051,0.57751924,-0.13977332,0.19001795! 0.0,0.61490256,0.10560489,-0.8768101,-0.3384799,-0.024658658,-0.014864184! 0.0,-0.5402409,0.34392038,0.7621956,-0.8957363,0.36168918,-0.41797584! 0.0,-0.920362,0.54073364,-0.15413351,0.8812885,-0.37700975,-0.41007975! #0.0,-0.022912748,0.25709632,-0.7690221,-0.26890147! 0.0,0.09424444,-0.23538753,-0.8073756,-0.9714427! 
0.0,0.66067374,0.0657866,-0.026310744,-0.06765831,0.16428041,-0.6575393! 0.0,0.06230557,-0.13369143,-0.39422867,0.16389859,-0.39807102,0.15949973! 0.0,-0.38141903,0.18023443,0.4955698,-0.786037,-0.6256035,0.3069276! 0.0,-1.066938,-0.59823793,0.96236813,0.8838624,0.44829527,-0.8573389! #0.0,-0.037904877,0.123956904,-0.23313275,-0.6958221! 0.0,-0.040584385,-0.22183667,0.67417276,0.7257431! 
0.0,0.31540534,0.28070396,0.7462168,-0.32484496,-0.7539009,-0.7520132! 0.0,-0.9745683,0.6358359,0.80937,-0.72502226,-0.98065495,-0.19836964! 0.0,-1.0183191,-0.13984153,-0.038730573,0.80839956,0.17882945,-0.62575954! 0.0,0.18472692,0.7479724,-0.13252017,0.8620823,0.07009852,-0.1694597! #0.019337993,-0.3297654,-0.27982482,0.93576026,-0.33298287! 0.0,0.28943118,-0.138776,-0.36747488,-0.9067086! 
0.0224129,-0.33396685,-0.1825991,0.67208725,0.71293056,0.4304428,0.20119666! 0.0,0.6734909,0.20847243,-0.8386673,-0.6034591,0.39961496,0.9744356! 0.0,-0.9499361,0.7019555,0.5415075,-0.8428853,-0.032041486,0.38869098! 0.0,0.66344595,-0.60463995,-1.0142192,-0.22468536,0.43404534,-0.45448875! #0.0,-0.13393778,-0.09260315,0.5473387,0.9387114! 0.0,0.12863338,0.12739505,0.7753452,0.47944954! 
0.0,0.8924031,-0.7686167,0.7462168,0.07372231,-0.80692613,-0.7520132! 0.0,0.019109294,-0.69007003,0.80937,-0.70105124,-0.98065495,-0.93554133! 0.0,-0.78639877,0.22602087,-0.08509929,-0.30532837,0.7659134,-0.6266044! 0.0,0.3867361,0.7479724,-0.023253705,0.8620823,-0.8108666,-0.34150133! #-0.044841874,-0.0541338,-0.09260315,-0.667047,-0.3189899! 0.0,0.034401186,-0.13668826,0.9751737,0.48502868! 
0.0,0.44347283,-0.24202126,0.53508806,0.26586795,0.96145153,0.41859543! 0.0,0.13002574,-0.3342079,-0.8776659,-0.036585093,-0.3869489,0.7166456! 0.0,-0.8815013,0.63683593,-0.7950554,0.16634154,0.118947506,0.5229003! 0.0,-0.877922,0.475883,-0.6693206,0.9825928,0.37462944,0.5989895! #0.0,0.022940706,0.080809474,-0.12537658,-0.32039368! 0.0,-0.08294344,-0.9602485,-0.8153542,0.41215003! 
0.0,-0.28460437,0.8740042,0.6514401,-0.6707762,-0.98998606,-0.36538902! 0.0,0.67906356,-0.27529618,-1.0283498,-0.9053721,-0.65009797,-0.23227005! 0.0,0.76817316,0.7019555,0.74951136,0.6196696,0.3349503,0.045233488! 0.0,0.93123424,-0.9461775,-0.6457842,-0.34622636,-0.45237023,0.21549961! #0.0,-0.07527083,-0.13494039,0.9559151,0.89708406! -0.03750518,0.16622992,-0.15992346,0.96338093,0.7905918! 
0.0,0.3863374,0.12343694,0.047056936,-0.66116244,-0.27070117,-0.6640024! 0.028264862,-0.6513994,0.9808487,0.15923262,-0.009142727,0.018094499,0.017983079! 0.0,0.87147963,0.19906427,0.7621956,-0.23571013,-0.60687697,-0.6503533! 0.0,-0.9519225,-0.8765535,-0.44071198,0.8494299,0.47216505,0.72868085! #0.0,-0.11996598,-0.21377477,-0.71118903,-0.2534084! 0.0,0.08156278,-0.23538753,-0.87334186,-0.8162329! 
0.0,0.34651873,0.058430016,-0.83278155,0.10237313,-0.68714607,-0.6992935! 0.0,0.66378504,0.5780633,0.18139926,-0.89335936,-0.3850212,0.1127021! 0.0,0.96072143,0.13129182,-0.65509766,0.545374,0.09899678,-0.23911127! 0.0,0.12625164,-0.681791,-0.13508835,-0.1930181,0.07009852,-0.9316761! #-0.023655338,-0.17983103,0.2358484,0.34738132,-0.37923208! 0.016206909,0.009138115,0.2261463,0.77284336,-0.72498935! 
0.0,-0.41974366,0.19330454,0.68474764,0.77229375,-0.34965134,0.80673933! -0.044630457,0.034790006,0.14648798,-0.6797955,-0.38302013,-0.038930167,0.5858345! 0.0,0.4956323,-0.14796126,0.24297702,-0.8721299,-0.7440977,0.35078087! 0.0,0.7451577,-0.5979949,-0.6025591,-0.7240001,-0.34379628,0.71596384! #0.0,0.2547063,-0.050931692,0.9165149,0.82819575! 0.0,0.41184998,0.054339983,-0.027603388,-0.062284946! 
0.0,0.59538835,0.36933577,-0.5010828,-0.6860075,0.7310533,0.07104912! 0.0,-0.7963408,0.85209376,-0.8768101,-0.7923859,-0.9398175,0.5858345! 0.0,-0.49426273,0.1644606,-0.4778665,0.2003687,0.039827142,0.88591486! 0.0,-0.5546726,-0.5952307,0.7859799,0.8806952,-0.050481606,0.2039015! #0.0,-0.05011593,0.0722985,0.9490433,-0.2534084! 0.0,0.07222399,0.03395103,-0.7654008,0.746861! 
0.0,-0.35372162,0.39441186,0.67208725,0.08172999,0.9532817,0.063048124! 0.0,0.69566375,0.1417084,-0.28725734,-0.33659783,0.39961496,0.17588696! 0.0,0.76817316,0.04738287,-0.18337858,0.6545124,-0.11442916,-0.4453404! 0.009277254,0.9367452,0.47193655,-0.6432445,-0.12640345,-0.44695574,-0.41462234! #0.0,-0.1853658,0.3602475,0.5046276,-0.035288163! 0.0,0.16853413,-0.29227743,-0.18583402,0.47944954! 
0.0,-0.4992589,-0.5086981,0.047056936,0.12757263,-0.7450938,0.0034847185! 0.0,-0.026590858,-0.991659,-0.21353908,0.6951963,0.4107255,0.17692822! 0.0,-1.0297982,-1.0222938,-0.65509766,0.63020873,-0.089745596,-0.61238325! 0.0,0.22650366,-0.90759,0.97993857,0.8806952,-0.44695574,-0.38064438! #0.0,-0.095358804,-0.054179862,-0.55179745,0.7878969! 0.0,0.2247088,0.2261463,-0.9035582,-0.91647565! 
0.0,0.8924031,-0.7686167,0.09234009,-0.26274258,-0.46738172,-0.49908686! -0.026321007,-0.10553582,0.7030898,0.80937,-0.18855461,-0.35436833,-0.29758498! -0.049514245,-0.5943807,0.44828796,0.40051925,-0.7720895,0.30324933,0.38869098! 0.0,-0.76184565,-0.4054491,0.5254188,-0.5234226,-0.9277972,-0.73412883! #0.0,0.27017152,-0.12185611,0.06077838,0.84435993! 0.0,0.23637547,-0.022597771,0.6664647,0.76803404! 
0.0,-0.7869697,0.1580148,-0.057830393,0.20684901,-0.78274965,0.60032356! 0.0,0.63460094,-0.46082333,-0.8670401,0.42075807,-0.54208773,-0.29178077! 0.0,0.25606698,0.34392038,0.7047571,0.5804159,0.18386942,0.13752702! 0.0,0.6399091,-0.6143279,0.78824824,-0.002602484,-0.35492203,0.016730484! #0.015967418,0.2903396,0.28245306,0.38036376,-0.78444797! 0.0,-0.0072920173,-0.041431136,0.37552884,-0.8496872! 
0.0,-0.53333026,0.6663397,0.67002344,0.0664145,0.07947174,-0.09018183! 0.0,-0.066061765,0.9490168,-0.3103406,0.38502324,0.4154229,-0.2437746! 0.0,-0.6672267,-0.25862253,0.52465516,-0.94429505,-0.7188422,-0.24644856! 0.0,0.18404469,-0.34521425,-0.45635518,-0.24307787,-0.829135,-0.51001465! #0.0,-0.15226077,0.076192364,0.94695485,0.9368264! 0.0,-0.0072920173,-0.03581679,-1.0298603,-0.0055321455! 
0.0,-0.51409984,0.515751,0.5471382,-0.41326514,-0.6061231,0.15254307! 0.0,-0.2853191,0.88824457,-0.25702596,-0.8676316,0.39312,-0.31931642! 0.0,0.8530346,0.20075414,-0.09030023,0.51966774,-0.026824366,-0.63993764! 0.0,0.71970063,-0.5952307,0.13211799,-0.24879688,0.00672004,-0.2070294! #0.0,0.24990155,-0.13123637,-0.7794314,0.21698119! 0.0,0.1686286,-0.138776,-0.36747488,0.77029514! 
0.0,0.043769658,0.4314969,1.01316,-0.23622333,0.08212049,0.17207572! 0.0,-0.9732099,0.47414976,-0.19607893,-0.9484176,0.5002885,0.27499473! 0.0,0.072401,0.88850546,-0.033082638,-0.20311373,-0.72752786,0.35113665! 0.0,0.71970063,-0.6416009,-0.64420587,-0.060717423,0.08421011,0.39502686! #0.0,-0.08503993,0.28245306,0.68722415,-0.56514835! 0.0,0.23273253,0.36349234,-0.01124052,-0.97327393! 
0.0,-0.68290675,-0.3387252,0.43475044,-0.60509276,-0.8228196,-0.75044477! 0.04133826,-0.9781121,0.95096016,-0.0955081,-0.35789853,-0.097759515,-0.98523045! -0.007714916,0.9319627,-0.15283883,-0.7997891,-0.22749338,-0.82791674,0.4254968! 0.0,-0.93462276,-0.5522326,-0.09541095,0.7228818,-0.37803912,0.009671396! #0.0,-0.9480294,0.48995757,-0.7372243,-0.42492092! 0.0,-0.7018503,-0.3054353,0.119009376,-0.20059633! 
0.0,-0.8299403,0.058430016,0.02222384,-0.66116244,-0.98998606,0.20133318! 0.0,-0.99712306,1.0768391,-0.99080896,0.9425365,0.48563433,0.15390062! 0.0,-0.5499478,0.70050836,0.11178526,0.00936348,0.8764634,0.24099672! 0.0,-0.2304889,0.634414,-0.14829354,-0.25026616,0.037850168,-0.16128951! #0.0,-0.054440986,0.15547624,1.0467685,0.21698119! 0.0,0.082619965,-0.019968014,0.38978896,-1.0179441! 
0.049549345,0.42018855,-0.19703174,-0.09871372,-0.47529924,-0.13964021,0.6189289! 0.0,-0.07471228,0.41796207,-0.06548488,0.9783375,-0.7850753,-0.7240304! 0.0,0.10021281,-0.7092631,-0.3008052,-0.69840753,-0.85609365,0.2767614! -0.023452384,0.5218456,0.4471985,-0.32879317,-0.7581643,0.81740785,-0.19493413! #0.0,0.63188577,0.32083082,0.5887898,-0.6495434! 0.0,-0.30325395,-0.21904695,-0.61222553,0.75548685! 
0.0,-0.3565291,0.8666753,0.6514401,0.28628704,-0.97765386,0.85698617! 0.0,0.71259975,-0.467669,0.11721818,-0.37004477,-0.57433474,-0.8259251! 0.0,0.76817316,-0.8863233,0.52294713,-0.72897387,-0.7304645,0.045233488! 0.0,-0.096179664,0.93275285,-0.6457842,-0.35707605,-0.36882916,0.002248492! #0.0,-0.095358804,-0.09867716,0.95059663,-0.5541161! 0.0,0.11552195,0.025817275,0.96338093,0.031019807! 
0.0,0.43469396,-0.68883365,0.050074864,0.0664145,0.16428041,-0.63063717! 0.0,0.038396243,0.27766225,-0.014213681,-0.7389186,0.56400967,-0.24053232! 0.0,-0.5791701,-0.12386818,1.0057983,0.6150197,-0.0043346584,0.77373636! 0.015926246,0.6011702,0.8044425,0.15663178,-0.15869017,0.29271758,0.027174989! #0.0,0.24990155,-0.008078374,0.7147358,-0.4818376! 0.0,-0.16763735,-0.21259438,-0.012974616,0.7215118! 
0.0,0.2859351,0.29932797,0.8181584,0.7293661,-0.98998606,0.23310101! 0.0,-0.04172105,-0.087984085,-0.6847026,-0.7756314,-0.3749367,0.38751328! 0.0,0.5896283,-0.4762907,-0.011585876,-0.9447025,-0.4748068,0.33092257! 0.0425712,-0.09960944,0.0054460764,0.17802346,-0.0112734735,0.5026414,-0.42182326! #0.0,0.60599387,0.15603036,0.9490433,0.7412749! -0.006497193,0.91199565,-0.19386429,-0.83110976,0.46209! 
-0.0026450455,0.461345,-0.32355112,-0.026310744,-0.66116244,-0.23567465,-0.047637444! 0.0,-0.41794693,0.9236769,0.7844672,-0.18440765,0.47257215,-0.048867323! 0.0,-0.7489257,-1.02228,-0.033082638,0.74572974,0.3994098,0.24065591! 0.0,0.20380063,0.627277,-0.65476745,-0.072222345,-0.01864484,0.83558947! #-0.014161993,0.20381035,-0.093288645,0.2926009,0.21698119! 0.036909785,0.07931175,-0.01251629,-0.23604278,0.27760386! 
0.0,-0.8299403,0.794179,0.52289397,0.7770898,-0.33053765,-0.63288397! 0.0,0.017573409,0.67912245,-0.73908305,0.38261348,-0.9775022,0.17692822! 0.0,0.79963213,0.5001648,-0.011094961,-0.8321296,0.76043355,0.27519244! 0.0,0.7117181,-0.9618419,-0.6800846,-0.34622636,0.04992006,-0.2009477! #0.03025977,-0.030164555,-0.0320031,0.558378,-0.60136086! 0.0,0.07222399,0.12739505,-0.8838413,-0.9002582! 
0.0,0.66067374,0.99348116,0.2846851,-0.014550008,-0.27070117,0.18395323! 0.0,0.017573409,0.88824457,-0.87792635,-0.009142727,-0.9398175,-0.611498! 0.0,0.87834466,0.19906427,-0.28318045,0.6349284,-0.6259887,-0.6503533! 0.0,0.23129031,-0.5114836,-0.23054588,-0.332422,0.43660074,-0.37654474! #0.0,-0.095358804,0.034837835,0.93459517,0.7412749! 0.0,0.06668578,-0.44988132,-0.8684267,-0.73558074! 
0.0,-0.4119569,0.83575106,0.5082457,0.09347961,0.10864304,-0.63288397! 0.0,0.038578987,-0.14465433,0.41465408,0.3930602,0.45370838,-0.43617618! 0.0,-0.12649961,0.88850546,-0.050081298,0.5576991,0.09302592,-0.5718916! 0.0,-0.70974284,-0.5808639,-0.07743835,-0.73145926,0.60916686,0.040231977! #-0.017421227,0.012293369,0.13996428,0.5739567,0.21979274! 0.0,-0.07200308,0.033742726,0.73282754,-1.0401547! 
0.0,-0.7620666,-0.3741194,1.01316,0.8216548,0.092189826,0.57663095! 0.0,-0.92973816,0.69565654,0.15923262,-0.6158248,-0.41389537,-0.47232994! 0.0,-0.5437937,0.88850546,-0.28318045,-0.19338685,-0.72752786,-0.61869335! 0.0,0.19774196,-0.8557131,0.4177435,0.01263817,0.52530336,0.82947564! #-0.033304967,0.11110675,0.34421062,0.68722415,-0.56514835! 0.0,0.16959143,0.09433122,0.6569651,0.41322842! 
-0.009160183,-0.6795944,-0.29849854,-0.026310744,0.5201227,0.9186304,0.60032356! 0.0,0.021347888,0.21827903,0.80613196,0.42806706,0.3226737,-0.39184043! 0.0,0.5384382,0.5001648,-0.32180867,0.61634254,-0.13529575,0.31160593! 0.0,-0.66098946,0.5446902,0.7946904,0.8522736,0.08421011,-0.28196836! #0.0,-0.15210235,-0.052210607,1.0467685,-0.56514835! 0.0,0.035670538,0.8533051,0.6296808,0.80018175! 
0.0,0.28091788,1.1233493,-0.8709686,-0.3107468,-0.05413866,-0.6992935! -0.010052323,0.9069086,0.12278366,-0.9602077,-0.3958007,-0.31435823,-0.40918303! -0.035492558,-0.9506281,-0.84500265,-0.055751268,0.09561002,0.3235544,0.39253467! 0.0,0.5993359,0.23392892,0.9687208,-0.29710627,-0.45497543,0.14544702! #0.0,-0.82053864,-0.119704664,0.9663834,0.39280784! 0.0,0.17458224,-0.5773759,0.23048496,0.43627265! 
0.0,0.38640967,0.83575106,0.059820756,0.0528262,-0.5338087,0.8411785! 0.0,-0.9732099,0.43691915,0.24444082,0.8896674,-0.9775022,0.6415485! 0.0,-0.7489257,0.20088214,0.6828899,0.6437019,0.21008933,0.3092392! 0.0,0.22222069,-0.013684034,0.5288566,-0.6217601,-0.41434985,0.75472295! #0.0,-0.17298643,-0.015657328,0.9777788,0.6680374! 0.0,0.037473917,-0.24664092,-0.91156983,0.2273662! 
-0.010031819,-0.4119569,-0.17335318,0.37112975,0.09347961,-0.35304442,-0.14189428! 0.0,0.12638518,0.63488466,-0.50861615,-0.90620565,0.46948633,0.20576467! 0.009378403,0.1597895,0.19906427,-0.1831875,-0.2105089,0.21008933,0.84863126! 0.0,-0.1969133,0.5370658,-0.5575324,-1.0250804,0.4580049,0.35876185! #0.0,-0.017121132,-0.10022418,-0.37824267,0.21979274! 0.0,0.23978147,-0.17939694,0.73282754,0.789547! 
0.0,0.59538835,0.44172448,-0.91658866,-0.6606965,-0.30273306,0.21537364! 0.0,-0.7963408,0.88824457,-0.92711055,-0.7923859,-0.9510323,0.5858345! 0.0,-0.5963799,0.12441006,0.016247537,0.2003687,-0.6129862,0.88591486! 0.0,-0.55432814,-0.5739207,-0.060437035,0.74626637,-0.06600849,0.39502686! #0.01956692,-0.51146126,-0.34759438,-0.54046786,-0.2534084! 0.0,0.09819698,-0.138776,0.8559618,-0.3316126! 
0.0,0.35942203,0.3343761,-0.8280134,-0.8852515,-0.29407108,-0.6494969! -0.023921937,0.07233864,-0.13505721,0.74076253,-0.27626532,-0.9775022,0.20325851! 0.0,0.87147486,0.46631005,-0.32180867,0.19914258,-0.6241002,0.5961624! 0.0,-0.71055853,-0.57832676,0.5070495,-0.08635516,-0.06600849,0.39502686! #0.0,-0.091977865,0.056419138,0.7147358,-0.2534084! 0.0,0.0025238767,-0.79924333,-0.8244804,0.27272177! 
0.0,-0.45204616,0.07196346,0.22225697,0.20120326,0.9315311,-0.6992935! 0.0,-0.026590858,0.30303222,-0.8670401,0.42075807,-0.92728376,0.96432865! 0.0,0.1864952,0.19906427,0.54895955,-0.21702465,0.13590392,0.073535085! 0.0,-0.62966204,-0.562245,-0.6800846,-0.03304255,0.45888615,0.84613! #0.0,0.2903396,-0.09260315,-0.23732011,-0.57140654! 0.0,0.23978147,-0.22183667,-0.8838413,0.45040172! 
0.0,0.28897363,-0.6152535,-0.026310744,0.37689674,0.057856787,0.79549026! 0.0,-0.9672006,0.43691915,0.18139926,-0.5399685,-0.6614489,-0.49222556! -0.015281267,-0.9446793,0.20088214,0.010144129,-0.3242161,0.010547757,0.2957503! 0.0,0.12625164,0.61625797,0.17802346,-0.1064803,0.22770055,-0.16392986! #0.0,-0.17298643,0.22751094,-0.35409477,0.87550896! 0.0,0.032272816,0.18576482,0.7528405,0.7884039! 
-0.01571735,0.8924031,0.4716674,0.6851704,0.8023722,-0.79013324,-0.95499295! 0.0,0.019109294,-0.69176626,0.80937,0.92148256,-0.46621832,-0.93554133! 0.0,0.30993366,0.69631386,-0.050815042,-0.2814545,0.7659134,0.30232072! 0.0,-0.76619166,-0.91778165,-0.5730127,0.33315516,-0.9277972,0.18063232! #0.0,-0.27099693,0.15356615,0.92654884,-0.2434137! 0.0,0.24316745,-0.0014026314,-0.28503716,-0.1965115! 
0.0,0.8114651,-0.5086981,0.047056936,0.97832644,0.9375733,0.0034847185! 0.0,-0.026590858,0.23432061,0.80937,0.83994555,0.66376126,0.17692822! 0.0,-1.0471816,0.3956678,-0.6562886,-0.13311434,-0.089745596,-0.9558239! 0.0,0.22650366,-0.90759,-0.39918733,0.8715341,-0.44695574,-0.38064438! #0.0,0.37029505,-0.12185611,0.61098087,-0.008838177! 0.0,0.9429872,0.8329431,0.77284336,-0.72498935! 
0.0,-0.9222084,0.1580148,-0.47665402,0.20684901,0.30382758,-0.09018183! 0.0,0.5270042,0.18921196,-0.9089515,-0.26105368,2.248548E-4,-0.29178077! 0.0,-0.9893601,0.13256252,0.5780753,0.6240594,0.18386942,0.36864424! 0.0,-0.76619166,-0.6416009,0.61416113,-0.26713577,-0.35492203,-0.20147906! #0.0,-0.28187764,-0.17627169,0.9663834,-0.28302896! 0.0,0.22663127,0.19024499,-0.012974616,-0.85857433! 
0.0,0.0049774833,-0.5086981,0.21754003,-0.94098777,0.8263834,0.79549026! 0.047966983,-0.25278944,0.12438837,-0.7071807,-0.781731,0.56400967,0.0300466! 0.0,-0.89653075,0.7400166,-0.27418756,-0.16719039,-0.24194832,0.4182093! -0.029242516,0.28873527,0.56999457,-0.628828,-0.22875398,0.29271758,-0.9034511! #0.0,-0.13549607,0.17777452,-0.07377851,-0.5541161! 0.0,-0.02455898,0.13617346,-0.38169432,0.2273662! 
0.0,-0.7097811,-0.17335318,0.44980347,-0.06765831,0.97197205,0.60032356! 0.0,0.034790006,0.9010725,0.19872887,-0.7838679,0.56560344,0.18296508! 0.0,-0.9208423,0.34392038,-0.286085,-0.25379464,-0.12595269,-0.0050950292! 0.0,-0.8567332,-0.8557131,0.3892218,-0.31931847,0.4580049,-0.41462234! #0.0,-0.32927823,-0.30060938,-0.37824267,-0.6950976! 0.0,0.035670538,0.34445667,1.0074073,0.7866381! 
-0.031169683,-0.960748,0.37059817,-0.0749862,0.020996597,-0.39485714,0.070742086! 0.0,-0.02993229,0.43691915,-0.31378073,-0.20277897,-0.43989563,0.17588696! 0.0,-1.00956,0.07495784,-0.10542777,-0.8202384,0.34022647,0.35718045! 0.0,0.069647625,-0.56363696,-0.058741156,-0.69195724,0.050570022,-0.12803724! #0.0,0.19374023,-0.25629696,0.61788404,-0.3488895! 0.0,0.017592449,-0.039454646,-0.18583402,0.41322842! 
0.0,0.832363,0.44172448,0.615862,0.28628704,-0.33350992,-0.32885402! 0.0,-0.049967114,0.91884744,-0.28725734,-0.33659783,-0.54171365,0.17588696! 0.0,0.8950332,0.0155083425,-0.29988024,-0.72897387,-0.07717323,0.4625729! 0.0,-0.09960944,-0.5132705,0.17802346,-0.2073145,0.08421011,0.71330273! #0.0,-0.075966656,0.15356615,0.9734156,0.20081793! 0.0,-0.02455898,-0.06721796,0.89658004,0.2273662! 
0.0,0.36087123,-0.960888,0.0036316235,0.2594497,-0.9848102,-0.8118781! 0.0,-0.8320141,0.6135435,0.9721218,-0.56259364,-0.35695636,0.17588696! 0.0,0.84495044,0.74698424,-0.11219764,0.58945316,0.1252263,0.6090692! 0.0,0.22222069,-0.5501753,0.7950213,-0.10038327,-0.36977124,0.19088559! #-0.047783174,0.0955857,-0.13254847,0.70564914,0.6850492! 0.0,-0.33658874,0.913278,-0.36743134,0.2757855! 
0.0,-0.7620666,-0.29849854,1.01316,0.5201227,0.08212049,0.34992874! 0.0,-0.92973816,0.9011904,0.15923262,-0.22477844,0.5002885,-0.47232994! 0.0,-0.4140593,0.88850546,0.7621956,0.8243775,-0.72752786,0.47055864! 0.0,0.71970063,0.72250235,0.41610757,-0.66213346,0.454283,-0.040610403! #0.0,-0.03864832,-0.30060938,0.28516436,-0.3199845! 0.0,0.035670538,-0.11493883,-0.012974616,-0.5878836! 
0.0,-0.9222084,-0.3173812,0.66224957,-0.4019977,-0.1898577,0.20729937! 0.0,0.5869248,0.27766225,-0.87792635,-0.05333233,-0.9616376,0.21277128! -0.007648308,0.015596677,-0.19953033,0.4984089,0.00936348,0.22011292,0.24377257! 0.0,0.16234025,-0.5303612,-0.46125522,-0.67295605,-0.39094764,-0.4418572! #0.0,-0.09940083,-0.1248897,0.9339925,0.05737484! 0.0,0.06967962,-0.13007827,0.10499078,-1.0445787! 
0.022869188,-0.4119569,0.28070396,0.25825244,0.15421739,0.09230027,0.07121247! 0.0,0.12655143,-0.5779928,0.18160221,-0.56259817,-1.001052,0.24600889! 0.0,0.91729677,0.88850546,0.6772389,0.3136697,-0.72090375,-0.5718916! 0.0,0.12625164,-0.5557068,0.3005699,-0.7909107,-0.37771285,0.6765323! #-0.01976462,-0.11996598,0.056419138,0.5752978,0.21979274! 0.0,-0.02455898,0.02871995,-0.6651008,-0.5932815! 
0.0,-0.8299403,0.39441186,0.09301567,-0.66116244,-0.28301936,0.013645481! 0.0,0.5869248,0.07936427,-0.25942528,-0.8332567,-0.9775022,-0.20994979! 0.0,0.9135243,-0.17574269,0.11178526,0.6545124,0.8872415,0.36370555! 0.0,0.86812127,-0.57067376,-0.48113042,0.8620823,0.037850168,-0.7233071! #0.0,0.13887282,0.38324833,0.5434031,0.21698119! 0.0,0.06967962,-0.29227743,-0.009721819,-0.97221094! 
0.0,0.6573474,0.30751586,0.23129682,0.0664145,-0.62441325,-0.42879722! 0.0,-0.017894763,0.25946712,0.50069875,0.8643024,-0.52551913,0.18469477! 0.0,-0.89653075,0.5326648,-0.3004085,0.82371765,-0.0265597,-0.23911127! 0.0,-0.18809485,0.3232259,0.5070495,-0.23742855,-0.34260753,-0.3139994! #-0.0061611123,0.09410962,-0.10644968,-0.9783653,-0.23770928! 0.0,0.040673323,-0.1925014,-0.40127796,0.48502868! 
0.0,0.43469396,0.6066288,0.050074864,-0.46870267,-0.98998606,-0.59624547! 0.0,-0.04172105,-0.087984085,0.19207862,-0.8926196,0.60526824,-0.05910659! 0.0,0.5896283,-1.0516862,-0.011585876,0.74743325,-0.9947968,0.7983571! 0.0,0.6011702,0.9452428,0.17802346,-0.0112734735,-0.027180359,0.1364033! #0.0,0.11110675,0.15356615,0.93576026,0.99221253! 0.0,-0.019167963,-0.19386429,0.8155585,-0.51851946! 
0.0,-0.12118523,-0.6999692,0.050074864,-0.019334078,-0.3999256,0.5604354! 0.0,0.038396243,0.103476524,-0.014213681,0.6913534,0.56400967,-0.19977069! 0.0,-0.5791701,-0.86478186,1.0057983,0.23646283,0.8764634,0.85481715! 0.0,0.6011702,0.8044425,0.57767,-0.18467247,0.29271758,0.061310366! #0.0,0.25382102,-0.098478794,-0.07377851,-0.5541161! 0.0,-0.019167963,0.6176081,0.6843299,0.49785167! 
0.0,-0.5322955,-0.30716696,-0.05874244,0.75930095,-0.75993454,0.11825359! 0.0,0.71868825,0.8943485,-0.5088823,-0.19739039,0.97118294,0.13447985! 0.0,-0.5402409,-1.0662487,-0.54504985,-0.19814831,0.3333632,0.6187484! 0.0,-0.6644829,-0.9240167,-0.13518684,0.8812885,0.40876985,0.16534725! #0.0,-0.112121195,0.29107484,-0.7596876,-0.8832674! 0.0,-0.08323932,-0.28396177,0.19821945,0.746861! 
0.0,0.29176676,0.058430016,-0.83278155,0.10237313,-0.71376956,0.0034847185! 0.04651961,0.66378504,0.23432061,0.80937,-0.23485865,0.4107255,0.17692822! 0.0,-1.0471816,0.1035482,0.7386937,-1.0147543,-0.089745596,-0.23911127! 0.0,0.22650366,-0.90759,-0.13508835,-0.1930181,-0.40253878,-0.9316761! #0.0,0.12675613,-0.12185611,0.34738132,-0.37923208! 0.041359533,-0.034956936,-0.01251629,0.6296808,-0.695275! 
0.0,-0.5510576,0.3231149,0.65364903,0.23137143,0.6966588,-0.14189428! 0.0,-0.9980989,0.1697948,0.071699694,-0.38302013,0.63851905,0.7468305! 0.0,-0.717937,-0.615828,0.4822543,-0.30532837,-0.49299955,-0.6526505! 0.0,-0.68006074,-0.84990066,-0.628828,0.021022558,-0.44695574,-0.47922763! #0.0,-0.078519195,-0.16800506,-0.9783653,-0.8832674! 0.0,0.37170815,0.063129626,-0.01124052,0.79108137! 
0.02964789,-0.9222084,0.881246,0.56154954,0.64793134,0.9532817,0.20119666! 0.0,-0.0528089,0.23432061,-0.4722217,-0.23793735,-0.35744682,-0.31931642! 0.0,-1.0743752,0.16421054,0.52294713,0.21366501,0.118947506,-0.4453404! 0.0,0.47742355,0.475883,-0.12979925,-0.2073145,0.37462944,0.027509034! #0.0,-0.16107702,-0.17627169,0.57621974,-0.32636556! 0.004910659,-0.03935216,-0.09486519,-0.012974616,0.46209! 
0.0,-0.5510576,0.32300094,-0.8709686,0.08172999,0.05763126,-0.6992935! 0.0,-0.9980989,0.10381183,-0.650019,-0.38302013,-0.9519724,-0.40918303! -0.046080727,-0.75237256,-0.615828,-0.615633,-0.30532837,-0.10923782,-0.6526505! 0.0,-0.945615,-0.62962604,-0.628828,0.005871713,-0.34260753,-0.44805905! #0.0063375533,0.09653592,0.11116102,-0.9783653,0.82879275! 0.0,0.22663127,0.105303705,0.44379357,0.6028922! 
0.0,0.37154767,0.39441186,-0.8709686,-0.35009137,-0.28301936,0.4113186! -0.034947384,-0.98325694,0.10381183,-0.25942528,-0.4283311,-0.9519724,0.16961086! 0.0,-1.00956,-0.6005633,-0.055751268,0.31175867,-0.10923782,0.30232072! 0.0,0.86812127,-0.5255659,-0.48113042,0.005871713,-0.34260753,-0.7233071! #0.0,0.09698407,0.11116102,0.9909549,-0.64711916! 0.0,0.06967962,-0.25044644,1.0115772,0.6028922! 
0.0,-0.89528084,0.50302684,0.15150356,0.505653,-0.074745536,-0.45976412! 0.016058017,-0.04172105,-0.7420768,0.4369781,-0.39712867,-0.2549641,0.41738534! 0.024390336,-0.0131367445,-1.0222938,0.55373394,-0.23098195,-0.37261128,0.45517814! 0.0,-0.5447781,-0.5739207,-0.5256375,0.14841187,0.51034486,0.017334515! #0.0,0.17332482,-0.6480249,0.71092296,0.4006095! 0.0,-0.091679454,-0.31933805,-0.96734285,-0.97221094! 
0.0,-0.28460437,-0.6360102,0.6384811,0.40209067,0.10864304,0.20119666! 0.0,0.67906356,0.12601596,0.15923262,-0.9053721,-0.65009797,0.20060448! -0.03111506,0.8567967,-0.1380849,-0.12974744,-0.3358243,-0.06193187,-0.58058596! 0.0,0.6215141,-0.9844487,-0.70291334,-0.36192235,0.52184623,0.22268975! #0.0,-0.16232003,-0.13494039,0.9559151,0.26885426! 0.0,0.046586346,-0.1495764,-0.013257038,0.7905918! 
0.0,0.87102765,-0.3173812,0.09234009,0.11779758,-0.9987921,0.16622129! 0.0,-0.08891976,-0.21041185,-0.75357664,-0.27004856,0.9085851,-0.63373494! 0.0,-0.5512941,-0.18271102,-0.61997133,0.67951995,0.039827142,0.31030256! 0.0,-0.68006074,-0.34521425,-0.57370275,-0.21938622,0.517677,0.008627884! #0.0,-0.047134344,0.06340775,0.6889226,0.9368264! 0.0,0.2247088,-0.18604645,0.66503346,0.76803404! 
0.0,0.14882189,-0.31436443,0.45799989,0.07561778,0.98557156,0.20729937! 0.0,0.5869248,0.10381183,-0.6262491,-0.05333233,0.586607,-0.40918303! 0.0,0.054330565,-0.615828,-0.055751268,0.31175867,-0.10923782,0.30232072! 0.0,0.14996195,-0.62962604,-0.59593844,0.005871713,-0.34260753,0.24755394! #0.0,0.1283421,0.11116102,0.7773059,-0.2894224! 0.0,0.22663127,0.18858105,1.0115772,0.6028922! 
0.0,0.66067374,0.29932797,0.7462168,0.09347961,-0.017150402,0.19001795! 0.0,-0.046727777,0.6777222,-0.6559708,-0.7754258,-0.3749367,0.14102595! 0.0,0.8965351,-0.4762907,0.9728538,-0.9447025,-0.22498584,-0.61446977! 0.0,-0.40339935,0.0054460764,-0.12979925,0.23567712,0.40876985,-0.37495744! #0.0,0.60599387,-0.2698533,0.95359164,0.20890766! -0.01709544,0.91199565,0.031934254,-0.9142327,-0.60297644! 
0.0,0.43469396,0.6873764,0.050074864,-0.46870267,0.16428041,0.5872084! 0.0,-0.6513994,0.103476524,-0.0016721822,-0.7389186,-0.64835083,-0.19977069! 0.0,-0.7332514,0.51925254,1.0248677,0.74743325,-0.9947968,0.31030256! 0.029573228,-0.68006074,0.8044425,0.5656354,-0.18467247,0.32915616,-0.51001465! #-0.031020796,-0.098308414,0.3602475,0.94695485,-0.57507414! 0.0,0.2247088,0.6176081,1.0217986,0.29617023! 
0.0,0.86503136,-0.88955593,0.6697988,0.038079794,-0.8183695,-0.7838148! 0.0,0.70614266,-0.97977346,0.5452052,-0.4132928,-0.4686804,0.99829066! -0.015181027,0.21585551,-0.18118088,-0.1073702,0.6912448,0.18386942,0.33841884! 0.0,0.15636683,0.32810915,-0.98797846,-0.09740068,0.49549592,-0.28196836! #0.012897793,0.79247737,-0.14714839,0.5997021,-0.44455373! 0.045095425,-0.8701538,-0.01251629,-0.4071555,-0.8805976! 
0.0,0.03482393,0.5563009,1.01316,-0.052983887,-0.049302507,0.60798675! 0.0,0.8934276,0.12941577,0.9152765,-0.90620196,-0.33118245,-0.011711836! 0.0,-0.13002563,-0.20979714,-0.30859214,-0.31446517,0.386261,0.13764341! 0.0,0.81235445,0.17837453,-0.6097187,-0.1930181,0.6178845,-0.47511065! #0.0,-0.11223314,0.16491336,0.4670696,0.7220165! 0.0,0.054278452,0.15958253,0.38916546,-0.9109353! 
0.0,-0.45140132,-0.6152535,-0.22647464,-0.06765831,-0.64559704,0.20119666! 0.002139628,-0.96052396,0.85439336,-0.44344318,-0.72558933,0.6119756,0.15949973! 0.0,0.12294006,0.13256252,-0.062403854,-0.35332298,-0.79956377,0.30232072! 0.0,-0.89132035,0.61625797,0.96236813,-0.2746989,0.52530336,-0.4666115! #0.0,-0.07527083,-0.09260315,-0.23313275,0.89708406! 0.0,-0.040584385,-0.22183667,0.6776832,0.7257431! 
0.0,-0.7290039,-0.8825978,-0.15390511,-0.42087197,-0.6061231,0.60032356! 0.0,-0.2853191,0.8849504,0.99577856,0.42806706,0.516431,0.18296508! 0.0,-0.60326,0.20088214,0.3528001,0.71294296,-0.72007054,0.31160593! 0.0,-0.71055853,0.81454706,0.74547434,0.8981089,0.08421011,0.70068836! #-0.004337173,-0.095476255,0.078441076,1.0467685,-0.5688677! 0.0,0.035670538,0.34445667,-0.06746638,0.24104363! 
0.0,-0.5095747,-0.12802912,0.65364903,-0.6657374,-0.9649166,0.14662308! 0.0,-0.92973816,0.8849504,0.9983481,-0.4631959,0.516431,0.13791797! 0.0,0.87834466,-0.18118088,-0.5555702,-0.28096294,0.93041694,-0.5715031! 0.0,-0.4755116,-0.9211413,-0.23407058,-0.039532226,0.4489669,-0.9715496! #0.0,-0.090960264,5.732849E-4,0.6721074,-0.56514835! 0.0,-0.02401803,-0.15448426,-1.0101024,0.30379602! 
0.0,0.7070804,-0.2935603,-0.94294393,-0.48166668,-0.28301936,-0.95619476! 0.0,-0.120625444,0.34228083,0.23629463,0.30939662,0.828521,0.7347901! 0.0,0.030262113,-0.8424698,0.5415075,-0.04728806,-0.13005626,0.36370555! 0.0,0.66344595,-0.57067376,-1.0142192,-0.22468536,0.52530336,-0.37782478! #0.0,-0.586833,-0.056999087,0.034000836,0.89708406! 0.0,-0.40306473,-0.13668826,0.7753452,-0.39646256! 
0.0,-0.7708342,-0.62280154,0.0036316235,-0.66116244,-0.23567465,-0.047637444! 0.0,-0.8320141,0.9236769,0.9721218,-0.56259364,0.44067475,-0.19836964! 0.0,0.8333002,0.7454917,0.7621956,0.58945316,0.08158934,0.6090692! 0.0,0.20380063,-0.5501753,-0.09522273,-0.0032334812,0.052405424,0.83558947! #0.0,-0.06277199,-0.30060938,0.2926009,-0.24081264! 0.0,0.26506642,-0.01251629,-0.908788,0.23181003! 
0.0,-0.4119569,0.41857272,0.6514401,0.7770898,-0.3535132,0.85698617! 0.0,0.7192774,0.5880025,0.77884436,0.38261348,-0.39807102,0.17692822! -0.022841293,0.79963213,0.5001648,-0.3004085,-0.8321296,0.39764854,0.80972165! 0.0,0.7117181,-0.039444227,0.6214629,-0.27205938,0.16776499,0.21549961! #-0.016480982,-0.030164555,-0.09867716,0.5804002,-0.5690663! 0.003602855,0.053801067,0.11052949,-0.8838413,0.97361594! 
0.0,0.38640967,-0.15661392,0.75476545,0.7770898,-0.049302507,-0.1922059! 0.0,-0.0647318,-0.7801292,0.772864,-0.97149765,-0.42860448,-0.32426855! 0.0,-0.543783,0.16040877,-0.3004085,0.21747658,-0.6734571,-0.6247377! 0.0,0.81235445,-0.9772269,0.5070495,-0.1930181,0.42987028,-0.040610403! #0.0,-0.0849597,-0.14446226,0.4670696,-0.57965136! 0.0,0.2570138,-0.10680744,-0.8838413,-0.97221094! 
0.017152477,-0.53365064,0.087707534,0.5831343,0.8216548,-0.30028728,-0.113864794! 0.0,-0.08891976,0.5537963,0.8182863,-0.4326474,0.09777432,-0.31931642! 0.0,0.1864952,0.66029173,0.54895955,-0.20311373,-0.026824366,0.27025634! 0.0,0.6547663,-0.57067376,-0.16238566,0.8623824,0.048777238,-0.21076669! #0.0,-0.104775034,-0.14714839,-0.4096363,0.89708406! 0.0,0.2068829,-0.1925014,1.0042962,0.83203095! 
0.0,0.3663457,0.7694377,0.6079522,0.7770898,0.10406051,-0.1922059! 0.0,-0.04172105,-0.7801292,-0.7071807,-0.9053721,-0.9775022,0.13791797! 0.0,-1.00956,0.2777376,-0.011094961,0.3136697,0.92428905,0.27519244! 0.0,0.7041339,-0.013684034,-0.6800846,-0.122141816,0.45617035,0.75472295! #0.0,-0.078238145,-0.32643485,1.0057683,0.99221253! 0.0,0.065403275,-0.35163334,-0.8838413,0.2273662! 
0.0,0.29912725,0.40119928,0.65364903,-0.3920146,0.97197205,-0.34130785! 0.0,-0.5684409,0.6017181,0.06538981,0.9425365,0.021558307,0.17017129! 0.0,-0.7240835,-0.6074151,0.49379146,0.5985701,-0.06193187,-0.6503533! 0.0,0.2733673,-0.6310328,-0.12979925,0.028097533,0.100507885,-0.4496331! #0.0,-0.046851397,-0.30060938,0.7518448,-0.28114146! 0.0,0.0636743,-0.12825531,1.0430862,0.09989214! 
0.0,0.77152157,-0.5794435,0.5866809,0.83791935,-0.35304442,0.5803008! 0.0,0.85862213,0.47257248,-0.25610918,-0.90620565,0.61357725,0.2784791! 0.0,0.1597895,0.11570442,0.49379146,0.18229365,-0.39169744,0.25825414! 0.0,-0.6576029,0.42874715,-0.614874,0.021022558,0.48727235,-0.47922763! #0.0,-0.14119008,-0.10022418,0.92569214,-0.6445024! -0.009913385,0.23978147,-0.29227743,-0.41102532,0.8237827! 
0.0,-0.87793446,0.29260567,0.22072217,-0.67135096,0.12223911,0.13567317! 0.0,-0.041943736,0.84412766,0.071699694,-0.47887453,-0.98065495,0.16491395! 0.0,0.7944355,0.7283475,0.08048423,-0.7536722,0.33006594,0.36919895! 0.0,0.47899795,-0.5952307,-0.10227382,0.9331858,0.52530336,0.18933839! #0.0,2.160836E-4,0.0844609,0.27702153,0.7412749! 0.0,0.17863274,-0.05853821,-0.7699963,0.42835966! 
