30.675516,140
0.0,-0.022240598,0.027796086,-0.10530937,0.058929075,-0.24604511,0.6448753! 0.0,-0.7577486,0.16333139,1.9887428,2.3975046,-1.3229051,-0.38545656! 0.0,0.18298301,-1.827415,1.6881787,-2.5306935,-2.8044558,2.9852474! 0.0,-0.5701224,-0.37513924,2.2744336,2.8758183,3.5451899,-1.3700539! #0.0,-0.12780148,0.5962618,-1.9042552,0.3451128! 0.0,0.009959199,0.0,2.8450737,-0.9347143! 
0.0,-0.07348342,-0.113035984,0.79836655,-2.9889293,-3.8112953,0.5335083! 0.0,1.9728341,0.28459004,2.0686145,2.4091113,-2.9930186,-0.3731647! 0.0,2.3616645,-0.6170693,-0.85736656,-0.052367393,-0.09454688,2.3722167! 0.0,1.3793871,1.25057,-0.5977271,-0.13135299,-0.48957822,-1.3916229! #0.0,-0.16023476,0.49795765,0.62163997,2.9279935! 0.0,0.042136174,0.0859965,2.7506135,-2.540968! 
0.0,-0.14695713,-0.08034419,-3.006785,-3.0451777,-2.2499743,3.1627042! 0.0,2.110311,-0.0026664436,0.468208,-1.4766388,0.0064260587,-0.3818819! 0.0,1.9788122,-2.9899187,0.063388705,-0.062385995,-1.781456,3.0040586! 0.0,-0.6190857,2.282927,3.790539,2.8480582,-0.38970572,3.9834023! #0.0,-0.20685267,0.42831802,0.19930094,3.9086952! 0.0,0.08900184,0.040592037,-1.7793953,0.73187447! 
0.0,-2.4187133,3.809198,-3.2049518,-0.05362208,-0.30378354,3.1627042! 0.0,1.5757074,-0.11077355,1.9887428,2.3866723,-3.5737715,2.1820898! 0.0,2.0652523,-2.510216,-0.8369071,-3.118669,-2.2056348,2.0194185! 0.0,-1.9229233,1.3670727,-0.9004311,3.755968,-0.35851014,-1.4013326! #0.0,-0.15748543,0.39858606,2.1572723,3.9404905! 0.0,0.032791387,0.17697856,-1.6080041,0.7419472! 
0.0,-1.1875284,-0.09512545,-2.9811065,-0.06673865,-1.5588808,-2.1721754! 0.0,0.97883266,0.14467609,1.2440195,1.8586969,-3.5740337,-0.34678292! 0.0,2.230747,3.2485092,-1.4232156,3.1347356,1.9203782,-1.9352409! 0.0,-1.9191785,-0.36855456,-0.8983755,-3.0067253,-0.48058468,0.91951656! #0.0,-0.17639509,0.48552763,0.17926332,0.020311832! 0.0,0.050099403,-0.007138964,2.7122893,-0.02789409! 
0.0,-0.14695713,-0.13334273,1.733272,3.6138852,-2.2800274,3.1407824! 0.0,2.0987806,0.14664526,1.9614706,1.848361,-0.031376716,-0.32432994! 0.0,1.9788122,-2.9967384,1.8085915,-2.9211168,-2.2162156,2.3846896! 0.0,-1.9088244,-0.40100732,-0.44224212,2.8480582,-0.38970572,-0.3852648! #0.0,-0.23443529,0.3902244,0.17926332,1.8127127! 0.0,-0.07467531,-0.007878728,-1.3378661,-0.07923783! 
0.0,-0.10209624,-0.085110515,-3.1971562,-3.0212145,-1.6255926,-2.1921031! 0.0,2.0907156,0.23641019,-2.8909714,2.0789042,-3.569671,-0.7183754! 0.0,0.16580376,-0.7450222,-0.8107525,3.1435997,-2.8718877,3.0245366! 0.0,1.4147276,-0.39891198,2.232796,-0.17021704,-0.39304617,-2.530359! #0.0,-0.21831803,0.42920122,-1.5916185,3.8949456! 0.0,-0.080553785,0.096325755,-1.3884171,0.7884667! 
0.0,-0.04845524,-2.7236228,1.0247817,-0.02480689,-3.8436775,-2.1841998! 0.0,2.2338412,0.16566536,0.4488353,-1.0029234,0.0025638267,-0.3046814! 0.0,0.02455796,-1.8074523,-0.87696564,0.06472933,3.3927436,2.0283346! 0.0,-0.27795538,-0.40578258,-0.5977271,-0.20259756,-0.01588476,-0.3578085! #0.0,-0.15642059,0.538045,0.17926332,3.9086952! 0.0,-0.0073558986,0.039589394,-1.3562397,-0.025276039! 
0.0,0.62158865,-1.3421804,0.79083204,1.8993824,-1.2438676,-2.1652954! 0.0,2.127711,-0.075956285,-2.506722,2.4955065,-1.3065145,-0.6874411! 0.0,-0.62855136,-1.7802224,3.4533496,3.1129265,-1.7410285,-3.8028677! 0.0,-1.9018039,1.6069235,3.760275,-0.11952984,-0.3681161,0.9814796! #0.0,-0.19211857,0.4584868,-1.6111188,-0.20555265! 0.0,0.07394119,-0.036615193,2.9340596,-2.540968! 
0.0,-0.14695713,-0.13334273,0.71483004,-0.07554224,-0.24604511,3.2109077! 0.0,2.0907156,-0.03772142,1.9825277,0.2725634,-3.6620493,-0.61007094! 0.0,2.707726,-3.4502077,-0.85736656,-1.5509788,-2.2072895,3.0151448! 0.0,1.338783,-0.36158013,3.778919,-2.6412709,-0.11449149,-1.6709337! #0.0,-0.087064356,0.45272428,-0.3101543,1.8387572! 0.0,0.070931144,-0.032086156,-1.7368615,0.77480096! 
0.0,-0.03063637,-0.03470767,-2.9811065,-0.02480689,-1.2487718,-3.9691133! 0.0,2.086601,-0.07964179,2.1493254,-2.3413951,-3.5538964,2.204052! 0.0,3.3969283,-0.77093303,0.5914548,-2.6089168,-1.781456,2.9110928! 0.0,-1.9378914,1.7428411,0.74100107,-0.11952984,-0.4718161,-1.3700539! #0.0,0.17279574,0.4974003,0.8045905,0.44619146! 0.0,-0.099148124,0.015738545,-1.7793953,2.7890682! 
0.0,-0.16075547,-0.09512545,-2.9873378,0.7392328,-1.2032313,3.2109077! 0.0,3.4949262,-0.0137183,0.45536926,0.26344934,-3.6682458,-0.34129766! 0.0,2.3461277,-3.4502077,1.802781,-3.0988495,-1.3546356,-1.9352409! 0.0,-1.9088244,-1.6720744,2.232796,2.8509028,-0.10022741,-0.36990005! #0.0,-0.106341764,0.39999163,2.6642842,3.8949456! 0.0,0.002048973,0.06692346,2.8599536,-0.04934932! 
0.0,-0.14695713,1.7640765,-3.0093844,0.042858973,-2.2800274,3.2130752! 0.0,2.138057,0.14664526,-0.6807572,1.848361,-0.031376716,-0.45166123! 0.0,1.9788122,-0.77093303,-2.458689,-0.025813732,-1.781456,2.9676197! 0.0,0.5880948,1.6437436,-0.44224212,-0.04453769,-0.01588476,-1.3586148! #0.0,-0.20685267,0.50023144,0.17926332,3.9086952! 0.0,0.12743418,0.040592037,-1.7793953,-1.6332006! 
0.0,-0.36987114,1.7084035,1.6348071,0.7744069,-2.300984,3.2109077! 0.0,2.0907156,-0.04389143,2.990708,-1.0718055,5.386472E-4,-0.42060727! 0.0,0.02455796,3.6755412,0.011785366,0.016881391,-2.8718877,2.9472482! 0.0,1.4368092,-0.40214077,-0.9089027,-2.5667143,-0.045869507,-2.530359! #0.0,0.21544163,0.45052162,-0.3101543,-0.26888058! 0.0,-0.004690986,0.05720477,-1.4389421,-0.15619926! 
0.0,-0.04092921,0.62149495,1.7080743,2.4961689,-1.5588808,-3.9395397! 0.0,0.9908017,0.31139937,1.3451984,-2.4092145,-1.3125796,-0.36196157! 0.0,3.555636,-1.7802224,1.6525422,-0.11549206,-0.09454688,2.4555552! 0.0,1.4115367,-0.40214077,0.7135111,-2.6053245,-0.39601877,4.030492! #0.0,-0.19211857,0.48552763,-1.6111188,-0.16212875! 0.0,0.03243725,0.11751071,1.2333106,0.03950796! 
0.0,-0.09957388,-0.099922165,0.79083204,2.6915476,-0.24604511,-2.195765! 0.0,2.165309,-0.123634815,2.0885475,-1.0955397,0.0051587336,-0.3818819! 0.0,2.3193665,-1.7617412,1.6991165,-0.05827146,2.607142,2.0100625! 0.0,-1.8386959,-0.36158013,3.790539,-0.10024336,-2.96599,-0.37784714! #0.0,-0.16023476,0.46493262,0.5573591,1.8132344! 0.0,0.019222576,0.15535773,2.856257,-1.6332006! 
0.0,-0.36987114,-3.4171555,3.0150068,-0.050280135,-1.2199885,3.1407824! 0.0,2.2121916,0.21409512,0.4488353,-1.4835361,-2.2718143,-0.53007084! 0.0,3.555636,-1.7398703,-0.80193365,3.239772,-2.1904604,2.4646735! 0.0,3.697949,-0.40100732,2.324231,-0.12905502,-0.3764694,4.0571938! #0.0,-0.19688258,0.386182,-2.2575085,-0.1951855! 0.0,0.0800001,0.05720477,2.899827,-2.4820616! 
0.0,-0.22165704,3.7532294,0.6665212,0.7392328,-0.3118238,3.1407824! 0.0,3.8580313,0.23641019,2.0715017,1.1601473,-0.12693581,-0.6959587! 0.0,0.0036951117,1.9825749,-0.8617071,3.239772,-2.8577633,2.4822469! 0.0,1.31368,-0.43645677,-0.8585408,-2.731041,-2.9380543,0.9814796! #0.0,-0.23443529,0.45768023,-1.6470451,1.8924172! 0.0,-0.16753867,0.0196626,2.8168693,-2.5625784! 
0.0,0.048853163,-0.13290997,-3.1455379,-3.234764,-1.2319716,0.5284127! 0.0,1.0945773,-0.13934436,1.2440195,1.8758931,-3.6695807,2.2051144! 0.0,2.2981012,-0.71843106,0.024773423,-3.139286,-2.1990407,3.0078523! 0.0,-1.9038235,1.6524713,2.2343726,-2.6412709,0.7558276,2.967531! #0.0,-0.16848616,0.4304793,0.14986466,1.8387572! 0.0,-0.064463586,-0.08800425,-1.3618686,-1.5832406! 
0.0,0.0036833286,3.215847,-1.6552699,2.6915476,-2.6918926,-2.2790117! 0.0,1.0127763,0.13096261,0.48731896,1.9407562,-0.15823449,-0.5785334! 0.0,2.3254979,-0.07930066,-0.80793154,-0.12129518,-2.8718877,2.338293! 0.0,-1.9491596,1.6588247,-0.8777769,3.7144828,-0.49482232,3.9817758! #0.0,-0.16488147,0.4761741,-0.25924292,3.9086952! 0.0,-1.767613E-4,-0.09763479,-1.7637382,0.7419472! 
0.0,-0.16075547,-0.08034419,-3.1925788,-0.050280135,-0.31791675,-2.0494382! 0.0,-0.7577486,0.23641019,-2.900418,-1.0728066,-2.9455748,-0.6410865! 0.0,2.345754,3.747608,0.5718218,-2.9319777,-2.2691293,2.3846896! 0.0,-1.9229233,-0.37513924,0.7086298,3.7619655,-2.91495,-0.37948748! #0.0,-0.22889858,0.5962618,-1.6111188,0.3451128! 0.0,0.009959199,-0.008734234,2.8091958,-0.051360544! 
0.0,2.971367,-0.085110515,0.99937016,-3.198274,-1.2438676,-2.1519156! 0.0,3.4789083,0.21038911,0.51050866,1.8913661,-1.3433037,-0.7486146! 0.0,0.15100011,-3.4502077,-3.5035934,-0.0026694424,-1.7410285,2.9423776! 0.0,1.31368,-0.46788573,2.2719994,2.8509028,-0.55102676,0.9814796! #0.0,-0.14370774,0.39999163,2.6642842,-0.32063386! 0.0,-0.099148124,0.0196626,2.8450737,-1.6318023! 
0.0,-0.14695713,3.4795866,0.71483004,-3.470254,-0.2902127,3.1213644! 0.0,3.4789083,-0.06555386,-2.356929,-1.3592077,-1.3099562,-0.31532538! 0.0,0.18930134,3.6965039,1.7550943,-3.130569,0.014629804,2.3846896! 0.0,-1.9018039,-0.36158013,0.6772051,-2.5171509,-0.4392043,4.030492! #0.0,-0.11545174,0.49987793,0.7437738,-0.2500076! 0.0,-0.077654585,0.10087487,2.7703857,0.6350204! 
0.0,1.7820913,1.7640765,-2.196851,0.042858973,-2.2800274,-3.9475455! 0.0,2.138057,0.14913863,2.1341844,-1.3496119,-1.2996567,-0.60582066! 0.0,1.9788122,1.9976166,0.063388705,-2.6089168,-2.2443285,-2.2537417! 0.0,-1.482801,1.4191281,-0.44224212,-2.7507024,0.7514586,-1.3586148! #0.0,-0.2106842,0.403774,0.17926332,-0.20555265! 0.0,-0.07467531,0.10087487,-1.3378661,0.69775236! 
0.0,1.0339179,3.1692832,-1.6363628,-0.08832613,-0.40274557,-1.3228693! 0.0,2.078411,0.16566536,1.9893413,-1.0728066,-2.954572,-0.46013448! 0.0,0.41067955,-3.4502077,1.6957471,-0.09937146,-0.09454688,2.3597727! 0.0,3.0094478,1.3437972,3.7586272,3.7965336,3.4737296,-1.6506087! #0.0,-0.14370774,0.49061066,2.676452,1.8132344! 0.0,-0.10088644,-0.09763479,2.7737665,-0.07923783! 
0.0,-1.244844,1.7264212,-2.9023383,0.8102503,-1.2750204,-2.1689553! 0.0,2.126453,0.2778526,0.3985402,-2.3413951,-1.2996567,2.1964931! 0.0,3.3969283,-1.7398703,1.6697001,-0.0106813125,-0.020867582,2.360672! 0.0,3.0346398,-1.6720744,2.232796,-0.1558815,-0.50817615,2.938544! #0.0,0.17279574,0.4400074,0.16165479,3.8949456! 0.0,0.18662691,0.09492246,-3.7883615,-0.053682424! 
0.0,-0.047206096,-0.09512545,0.7786326,0.017855305,-0.32701376,-2.0577476! 0.0,1.0127763,-0.01436412,1.9887428,0.31629097,-3.882272,-0.40669882! 0.0,2.3438985,1.9418437,1.631803,-2.6075203,-0.068510234,0.019923817! 0.0,1.4029813,-0.40214077,-0.904755,2.8509028,-0.50475395,-2.5509737! #0.0,-0.13519502,0.3902244,-1.5992198,-0.2500076! 0.0,0.025263619,0.018784951,-2.3410265,0.7108144! 
0.0,-1.2887275,-0.13334273,-2.9439807,-0.07554224,-2.2800274,3.2109077! 0.0,2.157916,0.14664526,2.1508002,0.26344934,-3.6620493,-0.61007094! 0.0,0.693839,-1.7398703,1.6697001,-1.5957539,-2.2072895,2.3829267! 0.0,3.7065897,-0.12690407,0.6772051,-0.20259756,-0.11449149,-0.37952977! #0.0,-0.16023476,0.43649188,-0.3101543,-2.1184492! 0.0,0.009727236,0.026662469,2.7639544,0.77480096! 
0.0,-0.11123605,-0.09972454,-3.03985,-0.02480689,-3.842144,-3.9475455! 0.0,3.473926,-0.10149054,0.39324445,-1.0955397,-2.954572,-0.6824378! 0.0,1.9870937,-1.8255441,-0.77290815,-2.9786158,-2.2162156,2.0283346! 0.0,-1.9637386,-0.32437477,-0.53777504,-2.787833,3.5721745,-0.35708645! #0.0,-0.18878137,0.48893854,0.7437738,-0.2500076! 0.0,0.070931144,0.0083890855,2.8399177,-0.09322041! 
0.0,1.8087139,-0.09512545,-2.9311523,-0.037353016,-0.34542462,-2.1379817! 0.0,2.126453,0.25216526,0.5081853,-2.3413951,-3.5737715,-0.7183754! 0.0,2.2599082,-1.7598829,-0.81810653,-0.11491066,-2.8745077,2.9721045! 0.0,1.3399625,1.6524713,2.232796,-0.20324391,-0.18138069,4.0148864! #0.0,-0.13386104,0.39858606,0.6243219,1.88716! 0.0,0.098161,0.37444702,2.7755532,1.772374! 
0.0,0.5848139,1.7264212,-2.9313588,0.8102503,-0.3934642,-2.1721754! 0.0,3.7537045,0.2778526,-0.97853947,-2.3413951,-3.615077,2.1964931! 0.0,3.555636,-2.9899187,1.6525422,3.1450915,-2.8718877,2.4628282! 0.0,1.4115367,-1.6720744,2.232796,-0.20324391,-0.50817615,4.030492! #0.0,-0.204711,0.45636582,-1.6111188,3.8949456! 0.0,-0.11858943,0.09492246,1.2333106,-0.053682424! 
0.0,-0.022240598,-0.08034419,1.5761284,0.058929075,-0.31791675,3.1407824! 0.0,-0.7577486,0.16333139,1.9887428,2.3975046,-1.3615671,-0.6969726! 0.0,2.2850907,-1.827415,1.6881787,-2.5306935,-2.2162156,2.9852474! 0.0,-0.5701224,-0.37513924,2.2744336,-2.7507024,3.5451899,-1.3700539! #0.0,-0.12780148,0.5815958,-1.5884638,0.32023782! 0.0,0.022677701,-0.33097696,2.8450737,0.7884667! 
0.0,-0.07348342,3.1615372,0.7608558,-3.0375924,-0.02431244,3.330786! 0.0,3.8120968,0.19613779,-2.4020247,-1.0728066,-1.3229051,-0.7486146! 0.0,2.2984533,-0.07930066,-0.8157198,-2.9786158,-2.2527857,2.0727766! 0.0,-0.57998216,-0.44178024,2.2321424,-0.16041587,-0.01588476,2.8101792! #0.0,-0.18388337,0.36801994,0.17926332,-0.27890342! 0.0,0.093511745,-0.07267812,3.5267205,-0.02789409! 
0.0,0.66086286,3.4710572,-3.1971562,0.100511394,-3.8671286,-2.1721754! 0.0,3.7537045,0.14664526,0.5081853,0.26344934,-1.2751307,-0.59456444! 0.0,2.2893465,-3.4836435,-0.81810653,-2.460728,-2.8718877,2.9775264! 0.0,1.3972601,-0.90710783,-0.51034766,0.048678696,-2.9380543,-2.4988778! #0.0,-0.19211857,0.40635076,-1.6111188,-0.23706058! 0.0,0.009727236,0.089448825,2.8248196,-0.0010312311! 
0.0,-0.07348342,1.756262,0.75227386,1.9305863,-1.5981554,3.2109077! 0.0,2.25823,-0.123634815,1.9893413,1.2744527,-0.64406085,-0.6824378! 0.0,0.17203766,-1.8255441,1.6695403,-3.139286,2.623797,2.4346867! 0.0,-1.482801,-0.404427,0.6772051,-2.787833,3.4392478,2.998838! #0.0,-0.20497473,0.45569062,3.513116,1.8132344! 0.0,-0.21644755,0.0083890855,-1.6398884,-0.073019! 
0.0,1.8527795,-2.7015848,0.6973164,-0.050280135,-0.36420822,3.1627042! 0.0,1.0518312,-0.13088453,1.2440195,-1.4705569,-0.016860051,-0.36196157! 0.0,2.3570218,1.9593545,1.6525422,3.1347356,-2.180913,2.0151935! 0.0,-0.57998216,-0.40100732,-0.904755,-0.124339074,-0.012001045,-0.34601954! #0.0,-0.23443529,0.3955962,-0.287709,0.020311832! 0.0,0.045012474,-0.06477024,1.1441818,-0.09322041! 
0.0,-0.009473242,0.027796086,0.7608558,-0.44203743,-1.5981554,-3.9395397! 0.0,3.7388263,-0.007682465,1.3210187,-0.29556248,-1.3229051,-0.36494464! 0.0,2.0652523,-1.827415,-2.5638025,0.0053038895,-0.09454688,2.9775264! 0.0,-1.482801,-0.90710783,-0.85547626,-0.08096376,0.021304682,-1.3700539! #0.0,-0.2308169,0.50797784,-2.2107348,0.41459122! 0.0,-0.18394461,-0.009692103,1.2333106,-0.15619926! 
0.0,-0.04196443,3.161569,1.733272,0.72924256,0.83990395,-2.1721754! 0.0,3.7388616,0.109895796,0.3985402,2.3866723,-1.2996567,-0.7242033! 0.0,2.6593702,-1.7827104,-0.85736656,-2.9342403,-2.2072895,2.009934! 0.0,-1.482801,1.401299,3.7959514,-2.5530372,-0.38814145,-0.3852648! #0.0,-0.1634188,0.48552763,-0.3101543,-0.26598823! 0.0,-0.034457352,0.11735505,2.7865808,0.69775236! 
0.0,0.60567594,-0.099922165,0.71483004,-3.007146,-0.24604511,3.202124! 0.0,2.165309,-0.123634815,0.5081853,1.1781998,-2.2718143,-0.36494464! 0.0,0.02455796,-1.7617412,-2.4470382,3.5024228,3.3927436,2.0100625! 0.0,-0.24258378,-0.36158013,2.232796,0.7204747,-0.39304617,-0.4053062! #0.0,-0.0986049,0.37619632,0.6302736,1.8360142! 0.0,0.019222576,0.10890505,-1.7356293,-1.6332006! 
0.0,-0.16075547,-3.4171555,-2.9902444,2.9957728,-2.2052188,0.5610862! 0.0,0.48726273,0.20141186,1.7424119,0.24080515,1.8632121,-0.673451! 0.0,2.254613,-0.26044226,1.8129307,-3.1388142,1.3080786,2.3846896! 0.0,-1.8409634,1.6900326,2.7987397,-2.7587461,3.456688,-3.1655731! #0.0,0.39071608,0.45636582,-2.1433668,-2.8356795! 0.0,1.1769218,2.7172103,-1.400088,-0.09725809! 
0.0,0.5819312,-0.15318492,-3.0352113,0.74034154,-1.2199885,-1.2749743! 0.0,0.94916457,0.13096261,1.3524497,-1.4766388,-0.12995724,-0.69361806! 0.0,3.5972154,-0.5806757,1.7400444,-2.3853292,-2.1904604,2.3846896! 0.0,3.697949,-0.3534109,-0.5977271,0.71739835,-0.47553724,-1.3916229! #0.0,-0.16023476,0.4761741,0.14633122,-0.26397848! 0.0,0.042136174,0.17661342,2.7703857,2.933049! 
0.0,-0.20620893,-0.038615003,-3.9856744,-3.0611212,0.78798336,3.2109077! 0.0,2.0907156,0.27111498,-0.6807572,-1.0029234,-3.882272,-0.7695137! 0.0,3.5227072,1.9807295,-0.83043814,-2.6089168,-2.2495992,2.3846896! 0.0,1.4368092,-0.4692749,2.2321424,3.7144828,-0.5186959,2.7996268! #0.0,0.19438739,0.5205236,-1.6169138,0.40798193! 0.0,-0.041866694,0.015738545,3.6338503,0.7266564! 
0.0,-0.04863131,1.7498267,-3.1891189,0.76737094,-0.19861503,3.2744088! 0.0,3.4789083,-1.9156437,0.45536926,-1.3963578,-0.20682383,-0.38235646! 0.0,2.368057,-0.7450222,-0.9304361,3.1435997,-2.2517924,3.0245366! 0.0,-0.4869113,-0.40876183,2.230452,2.8509028,-0.06380824,3.9948342! #0.0,-0.14370774,0.36801994,-1.5803754,2.0778942! 0.0,-0.041866694,-0.055286355,-0.08447838,-0.044912446! 
0.0,-0.1566906,3.2182796,0.74822164,-0.03633466,-2.2570949,-2.12528! 0.0,2.25823,0.25216526,0.26555392,-0.48386574,-0.084206626,-0.7602137! 0.0,2.032276,3.6907678,-3.2349563,3.1605291,-0.09454688,2.9734507! 0.0,1.4029813,-0.13448389,2.6496663,-0.13135299,-0.4392043,4.0259037! #0.0,0.15673894,0.4304793,-1.9230266,-0.21504068! 0.0,0.031901915,0.09986623,-0.10574818,2.0767343! 
0.0,-0.14695713,-0.089497045,-2.9700124,3.2192423,-2.2564738,3.1627042! 0.0,1.1608701,0.16333139,-3.3759856,0.30404606,-0.03557664,-0.81013966! 0.0,0.19159582,-0.71843106,0.063388705,3.9511962,0.48444557,-3.6263247! 0.0,1.8279071,1.708241,-2.744516,-2.828236,3.961482,3.073896! #0.0,-1.726275,0.38803944,0.8045905,3.307283! 0.0,-0.07467531,-0.03235075,0.022756256,0.7419472! 
0.0,-0.10811396,3.2215207,2.1119533,0.76558125,-3.8276305,3.202124! 0.0,3.3916974,0.16371429,2.1089075,-2.3413951,-3.6409092,-0.67584! 0.0,2.2891557,-2.510216,-0.8617071,3.1347356,-2.2635865,2.4555552! 0.0,3.7154925,1.9994887,2.2730029,-0.1558815,-0.49281445,-0.36990005! #0.0,-0.24450138,0.403774,0.8993879,-0.24769312! 0.0,-0.13004524,0.14454925,-1.7722255,-2.5625784! 
0.0,-0.07348342,-0.13334273,-2.9311523,1.8539165,-0.39469677,3.162825! 0.0,1.995347,-0.092965655,0.41595063,1.9434541,-3.9146414,-0.7183754! 0.0,2.3461277,2.0032682,1.7042416,-3.1663718,-2.8044558,2.0017476! 0.0,1.859198,-3.1224651,-0.87017393,-0.18553957,-2.909475,-0.35767367! #0.0,-0.21831803,0.46668324,0.62163997,3.9086952! 0.0,-0.03027561,0.1040948,2.8091958,0.74720776! 
0.0,-1.1802413,1.7498267,0.7963691,2.4961689,-0.24001397,-2.0613883! 0.0,0.97778225,0.20883636,2.9481347,-2.4023628,-3.5737715,-0.6874411! 0.0,2.3137758,3.6755412,0.011785366,0.016881391,-2.8718877,2.4555552! 0.0,1.431023,-0.40214077,2.230452,-0.09554775,-0.045869507,4.030492! #0.0,-0.20497473,0.5392236,-1.6111188,-0.2836073! 0.0,-0.080553785,0.12647802,-1.3618686,-0.15619926! 
0.0,-0.052207153,-0.073750876,1.5672066,1.9527359,-1.595028,3.2109077! 0.0,1.9624166,0.22577849,3.039844,-1.0464996,-1.3185215,-0.36196157! 0.0,0.22236916,3.2522683,-0.838236,-0.022993516,-2.854491,2.4129875! 0.0,1.4107682,-0.9402186,2.2428908,3.376735,-3.7460127,-0.40608186! #0.0,-0.23439476,0.4304793,-0.3101543,0.2697243! 0.0,-0.06933424,0.016296893,-1.6364949,0.8142305! 
0.0,0.048853163,0.60434085,0.99937016,-0.050280135,-2.2800274,3.260926! 0.0,2.0907156,0.28637883,1.2440195,2.4955065,-3.6375563,-0.49959272! 0.0,2.707726,-0.825032,0.024773423,-0.030198697,-2.2844763,-1.9515915! 0.0,1.4029813,-0.091358215,-0.9089027,-0.124339074,0.7558276,2.9546118! #0.0,-0.14452244,0.45876342,0.8854632,-0.16212875! 0.0,-0.064463586,-0.008734234,-1.378885,-1.5832406! 
0.0,-0.11123605,-0.09972454,0.69888633,0.7500883,-0.32257092,-3.9475455! 0.0,3.7705867,0.19577977,0.40488595,-1.0955397,-0.14067052,-0.63890904! 0.0,2.3278484,-2.510216,0.5914548,0.004442759,-0.068510234,-0.06893872! 0.0,-1.9637386,-0.40454906,-0.53777504,-2.566627,0.006872833,-0.3838296! #0.0,-0.16023476,0.4441179,2.676452,2.8747835! 0.0,0.070931144,-0.004591938,2.8399177,-0.09322041! 
0.0,-0.044387985,1.7437989,2.1175916,-3.0451777,-0.40274557,3.1213644! 0.0,1.0518312,0.13096261,-2.356929,1.8586969,-3.9146414,-0.31532538! 0.0,0.18930134,-1.7398703,0.03717868,-3.0994875,-0.019052576,2.3829267! 0.0,-1.8771092,-0.37562734,-0.87017393,-3.4663954,-2.9793549,4.030492! #0.0,-0.19689602,0.49987793,0.10774961,-2.1405082! 0.0,-0.077654585,0.10087487,2.8091958,-0.053682424! 
0.0,-0.04092921,0.62149495,1.7080743,0.71071434,-3.844833,-1.3106573! 0.0,2.110311,0.33735108,1.3210187,-0.29556248,-1.3229051,-0.36196157! 0.0,2.0652523,-2.9899187,1.6695403,-0.11549206,-2.2160904,2.0727766! 0.0,1.3499033,-0.90710783,-0.97580445,-2.6053245,-0.39601877,-1.3700539! #0.0,0.1551557,0.50797784,0.6362172,0.41459122! 0.0,0.009727236,0.07468772,-1.3618686,-0.0010312311! 
0.0,-0.14695713,1.7640765,-3.1925788,0.042858973,-2.2800274,3.1627042! 0.0,2.1690903,0.14664526,-0.6807572,1.8969668,-0.031376716,-0.60582066! 0.0,2.6593702,-2.9967384,1.7400444,3.5297174,-2.1050217,-2.271862! 0.0,-1.482801,-0.90710783,3.7956874,2.8480582,0.0071955994,2.8101792! #0.0,-0.20497473,0.4231237,0.6782153,3.9086952! 0.0,-0.07467531,-0.33097696,-1.3378661,2.9771576! 
0.0,0.59922796,-3.4305193,0.99937016,0.7655721,-0.3934642,-2.1921031! 0.0,2.0907156,-0.09048143,1.2440195,1.840315,-3.6695807,-0.36196157! 0.0,2.3382523,-0.825032,1.725732,-2.9342403,-1.3696406,3.0078523! 0.0,-1.8668829,-0.091358215,2.2343726,3.781496,-0.4711342,-2.4988778! #0.0,-0.1885084,0.47993243,0.14986466,-0.16212875! 0.0,-0.064463586,0.14454925,2.8168693,-1.6332006! 
0.0,-0.008556191,1.7498267,-3.0352113,-3.470254,-2.6918926,3.2567794! 0.0,0.99511445,0.19215487,2.0686145,-1.4766388,-0.12995724,-0.59456444! 0.0,2.3181903,3.2485092,-0.85736656,3.1450915,3.4485254,-0.007700585! 0.0,1.3793871,1.6588247,-0.5977271,3.376735,2.191443,4.030492! #0.0,-0.16023476,0.4400074,0.62163997,2.9095447! 0.0,-0.06933424,0.0083890855,2.8450737,-1.6168635! 
0.0,-0.16075547,3.4795866,0.79083204,-0.050280135,-0.36338004,-2.1921031! 0.0,2.0376182,-0.0137183,2.1341844,1.7996285,-1.284477,-0.4809395! 0.0,0.06656554,-2.9917161,1.725732,3.148572,-2.8413093,2.0530934! 0.0,0.60669553,-0.40100732,-0.8983755,-2.7507024,-0.10022741,-2.4988778! #0.0,-0.19679558,0.50108236,-0.34190118,1.7801322! 0.0,0.014121845,0.113306984,2.8168685,-0.044912446! 
0.0,-0.04196443,-0.08497499,0.99937016,-0.3916545,-0.24604511,3.260926! 0.0,3.4789083,-0.09048143,1.2440195,2.4955065,-0.6485174,2.2051144! 0.0,0.08937873,-0.825032,0.024773423,-3.139286,-2.2407365,2.0283346! 0.0,-1.482801,-0.35097635,-0.83298576,-0.1558815,3.449067,2.9435325! #0.0,-0.20497473,0.4304793,0.5780604,-0.16212875! 0.0,-0.06695205,-0.36452177,-1.3618686,-1.5832406! 
0.0,2.971367,-0.03470767,0.80141485,-3.0611212,-0.31795374,3.2031062! 0.0,2.0907156,0.16566536,-0.6807572,-2.3568296,-0.039005544,-0.7695137! 0.0,0.18298301,2.0031605,-0.8228339,3.1353545,-1.781456,2.3846896! 0.0,-1.9378914,-0.36158013,-0.5977271,2.8509028,-0.047037557,-0.36990005! #0.0,-0.13386104,0.4974003,0.17926332,0.40798193! 0.0,-0.041866694,0.06692346,3.6338503,-0.025276039! 
0.0,-0.07348342,0.65297085,-2.938093,1.8539165,-1.6775008,-2.1721754! 0.0,2.1510677,0.31139937,1.3210187,1.8586969,-3.9146414,-0.31532538! 0.0,3.3833466,-2.9899187,1.6525422,-3.1663718,-2.8718877,2.4628282! 0.0,1.8357804,-3.1224651,-0.87017393,-0.16783011,-0.041137908,-0.36990005! #0.0,-0.18448979,0.49987793,0.62163997,3.9086952! 0.0,0.03243725,-0.05139177,-1.6825485,1.772374! 
0.0,0.60567594,-2.6764324,1.5761284,-3.007146,-2.193924,3.3005054! 0.0,2.2166972,0.2113922,0.5081853,1.1388273,-2.2718143,-0.39229813! 0.0,0.02455796,-0.71843106,-2.4470382,-1.5509788,3.3927436,-3.8123806! 0.0,-0.24258378,-0.46106976,2.2929702,-2.5504053,-0.045869507,-0.39639223! #0.0,-0.16023476,0.538045,0.14633122,0.4151509! 0.0,0.0800001,0.10890505,-1.7007614,0.77480096! 
0.0,1.8012881,-0.09045649,-3.6344795,-0.3916545,-2.2800274,-3.0951035! 0.0,-0.9529309,1.6939507,1.2440195,2.4955065,-3.6695807,1.2081385! 0.0,1.588141,-0.636621,0.024773423,-3.139286,-0.52909803,2.5378013! 0.0,-2.053651,1.2203875,2.2708683,0.29089165,0.7472595,2.967531! #0.0,-0.14452244,0.4304793,0.14986466,-0.16212875! 0.0,-1.6687703,-0.08800425,-2.1354265,-1.5832406! 
0.0,2.9536843,-0.085110515,-2.962202,-0.05257846,-2.2800274,3.2109077! 0.0,3.7537045,-0.06276881,0.41595063,-0.376837,-0.12693581,-0.7183754! 0.0,0.0036951117,-2.510216,-2.458689,-3.1216702,-2.2162156,-1.9352409! 0.0,1.4368092,-0.39064518,-0.53777504,-2.6248558,-0.39304617,4.0148864! #0.0,-0.15715215,0.50108236,-0.3101543,3.8949456! 0.0,0.070931144,-0.033061527,-1.4417286,1.7982471! 
0.0,-0.16075547,1.7838799,0.6499479,0.017855305,-0.4189519,3.202124! 0.0,2.2337346,0.31139937,1.3451984,-1.4705569,-1.3125796,-0.36196157! 0.0,2.3329117,1.9477043,1.6525422,-2.610946,-2.8214066,2.026656! 0.0,1.4029813,-1.6720744,-0.9408499,-0.124339074,-0.012001045,0.9549054! #0.0,-0.204711,0.5257686,0.6362172,1.7714156! 0.0,0.025263619,-0.06477024,2.752582,0.7572456! 
0.0,-0.16075547,3.4795866,0.79083204,0.7670942,-2.6918926,3.2126486! 0.0,3.4377244,0.1470403,2.1341844,-1.3496119,-0.12693581,-0.59456444! 0.0,2.0149539,-0.7450222,1.6578844,-3.1177285,-2.8413093,3.0245366! 0.0,1.3545593,-0.40100732,-0.904755,-2.6248558,-0.50475395,3.9984293! #0.0,-0.14951526,0.3902244,-0.34190118,-0.2301978! 0.0,0.057276506,0.113306984,2.8168685,-0.02789409! 
0.0,1.0179003,-0.08034419,0.79836655,-0.030641899,-2.2570949,0.54426! 0.0,3.4789083,0.28459004,0.37345102,2.3975046,-1.252291,-0.3983226! 0.0,2.3616645,-0.100635,1.664307,-0.013201715,-0.09454688,2.9775264! 0.0,-0.6190857,1.25057,-0.46883738,-0.17021704,-0.43277037,4.030492! #0.0,-0.122682914,0.5357569,-0.3101543,-0.21504068! 0.0,-0.097878195,0.0859965,2.7506135,0.7884667! 
0.0,-0.07511522,-3.4171555,2.1136987,-0.05362208,-1.2252795,3.2109077! 0.0,2.2938735,-0.01436412,-0.6807572,-1.1112877,-0.12995724,-0.6874411! 0.0,3.5227072,-3.4502077,1.6578844,-3.176626,-1.3696406,2.3497195! 0.0,1.4029813,-0.4368591,2.2374344,-2.566627,-0.50475395,-2.4958663! #0.0,-0.17639509,0.403774,-1.6092377,3.9086952! 0.0,0.0800001,0.4036113,-2.3308022,0.7572456! 
0.0,-1.298799,-3.3904443,0.99937016,-0.050280135,-3.8409827,3.1493! 0.0,3.4377244,0.19613779,2.1341844,1.3006638,-0.12995724,2.1964931! 0.0,2.707726,3.190918,-1.4767585,-2.9342403,-2.2407365,2.0100625! 0.0,1.4029813,-0.091358215,-0.9089027,-0.124339074,0.7514586,2.998838! #0.0,-0.21908717,0.39858606,0.64830357,1.8132344! 0.0,0.01913302,0.3488747,-1.3618686,0.69551957! 
0.0,-0.07348342,-0.09972454,1.6970916,-0.06673865,-3.8838124,-3.9813163! 0.0,3.4789083,0.14664526,2.0338376,1.9407562,-3.600552,-0.3983226! 0.0,0.06852332,-2.0939271,1.6529666,-0.0106813125,-2.2243435,3.0040586! 0.0,-2.4187074,-0.15242058,-0.9004311,-0.13318507,-0.047037557,-0.38524526! #0.0,-0.087064356,0.4231237,0.61518866,1.8051631! 0.0,0.042136174,0.0083890855,2.799698,2.9771576! 
0.0,0.66086286,1.7565953,-2.938093,0.051750578,-3.8112953,-2.1721754! 0.0,3.8506758,0.31139937,2.1341844,-1.066859,-3.5737715,-0.7486146! 0.0,-0.1782093,-2.9899187,-2.458689,-2.5927646,-2.8718877,2.9676197! 0.0,1.4115367,-1.6720744,-0.97580445,3.8030913,-0.01588476,4.030492! #0.0,0.17279574,0.45636582,-0.3101543,-0.26598823! 0.0,0.070533976,0.074470185,2.8114562,1.772374! 
0.0,-2.4187133,-0.09972454,-1.6363628,0.016651087,-0.24604511,3.202124! 0.0,3.490015,-0.01436412,0.468208,1.9407562,-3.6150613,-0.45166123! 0.0,0.06852332,-2.0939271,1.6529666,-2.97946,-2.2243435,-0.026888866! 0.0,-1.9637386,-0.35097635,-0.83298576,-0.13318507,-0.38970572,0.89506036! #0.0,-0.087064356,0.43864363,0.61518866,1.8051631! 0.0,0.042136174,0.0083890855,2.8399177,2.9771576! 
0.0,1.8087139,3.4588373,0.7963691,0.051750578,-1.2438676,3.202124! 0.0,3.8506758,-0.11077355,2.1341844,-1.0389409,-0.66317534,-0.68515044! 0.0,-0.14405005,3.6502395,-2.458689,-3.1636276,-1.3833895,2.9676197! 0.0,1.3314642,0.6264637,2.189943,3.8030913,0.019121915,4.0462775! #0.0,0.17279574,0.403774,0.6243219,-0.26598823! 0.0,-0.080553785,0.05720477,2.8114562,-0.09322041! 
0.0,-0.16075547,-3.4171555,-2.6428113,0.7107012,-2.162225,3.202124! 0.0,3.4568048,0.13096261,1.3210187,-1.438051,-0.016860051,-0.53007084! 0.0,-0.62855136,1.9593545,1.6525422,3.239772,2.6710327,2.0151935! 0.0,-2.303696,2.054245,2.2374344,3.4173713,-0.48182547,-0.40608186! #0.0,-0.15715215,0.4988413,-2.2628841,-0.24769312! 0.0,0.037089065,-0.06477024,1.2333106,-0.051903185! 
0.0,-0.04092921,0.62149495,0.79436725,-3.4372923,-1.595028,-3.9395397! 0.0,1.9624166,0.1441032,1.3524497,-1.0856782,-1.3125796,-0.36196157! 0.0,3.555636,3.2730284,-0.838236,-0.11549206,-0.09454688,2.3846896! 0.0,1.3652321,-1.6333416,0.6772051,-2.6053245,2.191443,-1.3467877! #0.0,-0.19009227,0.4304793,0.14444013,0.2697243! 0.0,-0.06933424,0.016296893,-1.6364949,-0.15619926! 
0.0,0.26917157,3.774988,2.9965477,-0.050280135,-3.842144,-2.200928! 0.0,2.3537421,0.13096261,1.3524497,1.882455,-0.7832525,-0.6026814! 0.0,1.9870937,-2.4576478,1.7400444,-3.1354423,-0.09454688,2.3846896! 0.0,3.697949,-0.36158013,2.230452,0.71739835,-2.9380543,-0.37948748! #0.0,-0.19688258,0.4761741,-1.6470451,-0.2500076! 0.0,-0.084886804,0.042601414,2.7703857,2.933049! 
0.0,-0.16075547,-0.09512545,0.7737319,2.4206634,-1.2438676,-2.1721754! 0.0,3.4798708,-0.04389143,0.41595063,2.4804945,-3.6831808,-0.45661336! 0.0,2.3071167,-0.7450222,1.791547,2.3560605,-1.3546356,-1.9352409! 0.0,1.4147276,-0.39064518,-0.5327854,-2.8213463,-0.55102676,4.0148864! #0.0,-0.09777586,0.47065568,0.15415062,3.9151068! 0.0,-0.099148124,0.10087487,2.7480361,-0.0071655586! 
0.0,0.5758579,-3.3904443,-3.1925788,-0.050280135,-1.2438676,-2.1921031! 0.0,2.126453,-0.03772142,2.0775423,0.2725634,-1.3298539,-0.7183754! 0.0,2.3399994,0.5206194,1.791547,-3.1216702,-1.366781,2.0530934! 0.0,-1.0105422,1.4191281,0.43166184,-0.20282105,-0.4711342,4.0148864! #0.0,-0.18610318,0.5080749,-1.6111188,0.40798193! 0.0,-0.10283986,0.04927934,-1.6800772,-1.6332006! 
0.0,-0.155072,-0.09168301,0.71483004,-3.198274,-0.24604511,-2.1519156! 0.0,3.3874502,0.21038911,1.2440195,1.8540972,0.0025638267,-0.45166123! 0.0,0.18298301,-3.4502077,1.791547,-0.0026694424,-2.2243435,2.9423776! 0.0,1.31368,-0.36158013,2.2345734,-0.17404261,-0.51419044,-1.3700539! #0.0,-0.14602825,0.45428473,0.63410604,3.9086952! 0.0,0.098161,0.0196626,2.7080812,2.9771576! 
0.0,-0.07348342,-0.08034419,-2.938093,1.9009469,-0.3210048,0.58009666! 0.0,3.7458158,0.19613779,0.45536926,-2.3568296,-1.284477,-0.31095326! 0.0,0.06656554,-2.9682505,1.725732,-0.10921164,-2.2407365,2.9721045! 0.0,0.60669553,1.5839376,-0.98379755,-2.6053245,0.7120666,4.030492! #0.0,-0.19679558,0.50108236,-1.6111188,1.8051631! 0.0,-0.041866694,-0.034475453,2.851158,0.7419472! 
0.0,0.60943264,-3.3803637,0.84117156,0.7655721,-0.3934642,-2.1921031! 0.0,0.40570378,-0.07145895,2.150934,1.840315,-0.12693581,-0.3925376! 0.0,2.3329117,-2.9682505,1.725732,-2.9342403,-2.8577633,2.0530934! 0.0,-1.9229233,-0.41791388,-0.6254378,3.7619655,-0.10022741,3.9948342! #0.0,-0.14370774,0.5496418,2.676452,3.9086952! 0.0,0.07516684,0.15922919,-1.720975,-1.6332006! 
0.0,-0.07939947,1.7264212,-2.9811065,0.7392328,-1.2487718,-3.9691133! 0.0,2.086601,-0.07964179,2.1493254,-2.384881,0.0032502525,-0.42060727! 0.0,2.0652523,3.7398813,0.056138705,-2.583339,-2.8718877,2.9110928! 0.0,1.4308572,-0.40214077,2.230452,-2.5384324,-0.045869507,2.9603164! #0.0,0.17279574,0.49310663,0.20456028,-0.26598823! 0.0,-0.080553785,0.09042376,-3.7883615,0.7122092! 
0.0,-0.05220839,-1.3086256,0.79083204,1.8539165,0.8156773,-1.242733! 0.0,2.127711,-0.075956285,-0.6807572,1.8586969,-0.1683221,-0.31532538! 0.0,2.0652523,-1.7802224,1.7042416,-3.1663718,-1.3696406,1.9903575! 0.0,-1.9018039,-3.1585186,2.2328207,2.8509028,-2.909475,0.9814796! #0.0,-0.19211857,0.49987793,-1.6111188,3.9086952! 0.0,0.080793515,0.07868031,2.9340596,-2.540968! 
0.0,0.60943264,-3.3904443,0.81818455,-0.05362208,-1.2438676,3.3005054! 0.0,0.40570378,0.21352026,2.150934,0.26344934,-1.3606709,-0.7183754! 0.0,2.3399994,3.6907678,1.725732,-2.9342403,-1.3696406,3.0656216! 0.0,-1.0105422,-0.39310688,0.43166184,3.7897327,-0.041137908,-2.4988778! #0.0,-0.16848616,0.47993243,-1.6111188,0.40798193! 0.0,-0.10283986,0.10858624,2.8168693,1.772374! 
0.0,-0.04845524,3.8698072,-0.46356583,-3.0611212,1.1472762,-0.42622617! 0.0,3.7924893,0.16333139,1.9645445,1.8255467,-0.092748165,1.5861473! 0.0,-0.94321156,-3.8570337,-0.24431229,-3.2009568,3.5211372,0.38295698! 0.0,-2.863769,-3.7465122,-3.132433,3.4391382,-2.288763,-0.3323331! #0.0,0.41389182,-0.016469002,0.6231502,3.9086952! 0.0,0.045012474,-0.029648423,-1.3618686,1.7458638! 
0.0,0.60943264,3.4795866,-1.666745,0.7655721,-0.36168802,-2.1921031! 0.0,2.1909769,-0.03772142,2.150934,1.840315,-0.06502756,-0.80388814! 0.0,2.3399994,3.6907678,1.6881787,-2.9342403,-2.2763896,2.0530934! 0.0,0.59853303,2.02765,0.43166184,3.7619655,-0.4711342,-2.4958663! #0.0,-0.1885084,0.51119787,-1.6111188,0.40798193! 0.0,-0.10283986,0.14454925,2.8168693,0.7572456! 
0.0,-1.298799,3.2182796,-3.023817,-0.037353016,-0.3934642,3.2160113! 0.0,2.074685,0.18763879,0.3593737,1.8912396,-0.12995724,-0.71872836! 0.0,2.3438268,-2.9682505,1.6529666,-0.0055191666,3.5997708,3.0064623! 0.0,0.5739148,0.70154464,-0.5977271,-2.6223319,-0.50030905,3.9948342! #0.0,-0.18217757,0.403774,0.17926332,1.8489996! 0.0,-0.07630956,0.022556175,2.8168693,0.7380719! 
0.0,-1.3347534,-0.08034419,0.7432115,-2.9710188,-3.842144,-3.9691133! 0.0,2.165309,0.19613779,1.9520414,1.8434168,-1.2833076,-0.3923397! 0.0,2.3088145,0.5206194,-0.9269039,-2.9342403,-2.2739437,2.976597! 0.0,-2.4369333,1.6775767,-0.51034766,-0.124339074,3.4030929,2.998838! #0.0,-0.21908717,0.40026307,0.6302736,1.8812573! 0.0,-0.10869822,-0.034475453,-1.6531003,0.7419472! 
0.0,2.9629152,-0.10539891,0.71483004,-0.05362208,-0.3118238,3.2109077! 0.0,3.4789083,0.23641019,1.2440195,-2.4023628,0.0025638267,-0.60582066! 0.0,2.0652523,-1.7802224,-0.8617071,-0.10921164,-2.2407365,-2.191801! 0.0,-1.9491596,-0.38982955,2.2374344,-2.7507024,-0.4036483,-2.544617! #0.0,-0.23443529,0.4584868,0.6782153,3.8515239! 0.0,0.080793515,-0.33097696,-1.720975,1.7982471! 
0.0,-1.2744186,-0.08034419,0.7346987,1.1514511,-3.578558,3.2802548! 0.0,-1.1307836,0.20715465,1.366788,1.9059281,-3.6583204,-3.707605! 0.0,2.1026795,-0.77093303,-0.7848515,-2.610946,-2.2955832,2.9110928! 0.0,-1.3377085,-0.43645677,-0.6009729,-3.866498,3.5451899,-0.39450318! #0.0,0.16072688,0.49310663,0.14008912,0.2924161! 0.0,0.45432472,0.0083890855,-3.5958624,0.73187447! 
0.0,0.6206034,3.2096539,0.8017161,-3.0732243,-2.2400875,-2.0577476! 0.0,3.3874502,-0.05084781,0.5081853,1.1781998,-2.2718143,-0.78789055! 0.0,2.341936,-1.7250688,1.664307,-3.1391811,-2.2517924,2.3846896! 0.0,1.3824137,-0.40454906,-0.9089027,-2.6053245,-0.4711342,-0.36990005! #0.0,-0.16023476,0.403774,0.12572555,-0.26888058! 0.0,0.01913302,0.0072882883,2.760066,0.77480096! 
0.0,-0.04196443,-3.4171555,-2.9866269,-3.0611212,-2.162225,-2.1689553! 0.0,3.7463899,0.16099621,2.1663027,-0.3558392,-3.882272,-0.7868598! 0.0,-0.62855136,3.2485092,1.791547,-2.9818034,2.6710327,0.93485284! 0.0,-2.303696,-0.40214077,2.2412968,3.4173713,3.5537338,-0.40608186! #0.0,-0.083724536,0.4988413,-2.2628841,-0.24769312! 0.0,0.079276696,-0.008734234,-1.3448781,-0.07888024! 
0.0,-0.14695713,3.2654781,3.9402256,-3.4471145,-2.2499743,3.1627042! 0.0,2.3289459,-0.0026664436,0.468208,-3.5115275,-0.03557664,0.54640675! 0.0,-2.2046928,0.009690285,0.036834877,-0.05827146,-3.5120115,1.681674! 0.0,3.7154925,-1.2807302,3.783544,-2.027063,3.6347938,3.9834023! #0.0,-0.2106842,-3.9638224,0.59350634,-0.32063386! 0.0,-0.74059725,2.8046927,-0.07619715,-0.38373518! 
0.0,0.6469469,0.60434085,1.648016,3.7548628,0.61133623,-1.2700038! 0.0,3.4377244,-2.2711234,2.1341844,2.5964417,-2.2561293,-0.49959272! 0.0,0.5623436,3.190918,0.56369466,-0.030198697,2.2111812,-1.9515915! 0.0,1.4029813,-0.091358215,-0.9089027,2.977332,-2.1275182,2.967531! #0.0,3.4214835,2.710682,2.399777,-0.16212875! 0.0,0.01913302,3.394268,2.0089564,0.8142305! 
0.0,-0.07348342,3.431156,-2.962253,-0.037353016,-1.2199885,-1.3247738! 0.0,3.4377244,0.31139937,0.4488353,-1.4705569,-0.12995724,-0.45166123! 0.0,2.2489603,1.9833602,1.6897285,-0.062385995,-2.2407365,2.9721045! 0.0,0.5739148,-0.3822543,-0.98379755,2.8509028,0.7359092,4.030492! #0.0,-0.13386104,0.4391655,0.6231502,3.9086952! 0.0,0.0037546605,0.096261546,2.8871036,0.7037771! 
0.0,0.66086286,-3.4171555,0.80700946,-0.05362208,-2.2052188,3.1028197! 0.0,2.0442238,0.31139937,1.3210187,-1.066859,-0.039005544,-0.673451! 0.0,3.555636,-1.7453227,1.8129307,3.1450915,-2.854491,2.4628282! 0.0,1.4181776,-1.6720744,-0.97411126,-0.20324391,3.456688,-1.3047987! #0.0,-0.14370774,0.45636582,0.6362172,0.40798193! 0.0,0.03243725,-0.06477024,1.2333106,-0.025276039! 
0.0,-0.07939947,1.7084035,2.1136987,1.9305863,-0.41403636,3.4841049! 0.0,3.7388616,-0.07878339,0.37942415,2.3866723,-0.6277271,-0.6558248! 0.0,2.6885312,-2.4992936,1.7188963,-3.139286,-2.1993954,2.0283346! 0.0,1.4368092,1.4191281,3.7956874,0.048678696,-0.4573437,-0.4013164! #0.0,-0.13386104,0.3900465,-1.6111188,1.8237308! 0.0,-0.041866694,0.36044988,2.8807974,-1.5832406! 
0.0,0.0036833286,-0.00659075,-3.0352113,-0.44203743,-3.8236287,-1.3106573! 0.0,3.7373812,0.19945714,1.3210187,-0.29556248,-0.12995724,-0.36494464! 0.0,-0.24485724,-0.5806757,-0.85736656,0.0053038895,3.4757528,2.3879433! 0.0,1.3499033,-0.9150727,-0.50809693,3.7350035,-0.38970572,-1.3700539! #0.0,0.17279574,0.40053716,-2.2259288,0.41459122! 0.0,0.009727236,0.07468772,-1.3618686,-1.6168635! 
0.0,-2.4187133,-0.09972454,-1.6363628,-0.015192412,-0.24604511,3.202124! 0.0,3.4789083,-0.01436412,0.468208,0.29996708,-1.3125796,-0.45166123! 0.0,0.06852332,-2.0939271,1.7400444,-2.9641469,-2.2243435,-0.026888866! 0.0,-1.9637386,1.3437972,-0.8254314,-0.13318507,-0.4109336,0.89506036! #0.0,-0.087064356,0.4403637,0.61518866,-0.2500076! 0.0,0.042136174,-0.36452177,2.8399177,-0.09322041! 
0.0,-0.10209624,-0.13334273,0.69888633,-2.985946,-0.39469677,3.162825! 0.0,2.0138412,0.13695091,1.9790351,0.3188067,-1.3125796,-0.45166123! 0.0,0.06852332,-3.4502077,1.7664255,-2.9786158,-2.2243435,2.0283346! 0.0,-1.9637386,-0.35097635,-0.53777504,-2.566627,-0.3764694,0.89506036! #0.0,-0.087064356,0.4304793,0.56606996,-0.2500076! 0.0,0.070931144,0.0083890855,2.8091958,-0.09322041! 
0.0,-0.022240598,0.04009167,-0.10530937,0.075310215,-1.2199885,-1.2749743! 0.0,-0.7577486,0.14274019,1.3524497,0.2725634,-1.3229051,-0.38545656! 0.0,3.555636,-1.827415,1.7400444,-2.5306935,-2.1904604,2.9852474! 0.0,3.697949,-0.37513924,2.2757068,0.71739835,3.567903,-0.37948748! #0.0,-0.12780148,0.5962618,0.14633122,0.3451128! 0.0,0.009959199,-0.124852106,2.7703857,-0.9347143! 
0.0,-0.10209624,3.1615372,-1.66846,-0.07240093,-0.3759986,-3.9691133! 0.0,3.3874502,-0.075956285,1.9929316,1.9843459,-0.07067956,-0.3923397! 0.0,2.345529,-1.7398703,0.56191,-2.610946,2.623797,-0.026888866! 0.0,1.4001127,1.3437972,2.2461846,-0.09554775,3.0860376,2.984594! #0.0,-0.20497473,0.39410573,0.17926332,-0.2301978! 0.0,0.02694681,0.004123386,3.6338503,0.006403558! 
0.0,-0.023197409,3.4141314,-2.9873378,-3.0611212,2.4139752,3.2109077! 0.0,0.0206151,0.18431386,2.0298913,1.8391954,-1.2751307,-0.5886691! 0.0,2.3329117,-0.07930066,-0.81810653,3.1450915,-0.08030065,1.9536012! 0.0,1.4181776,-0.36158013,-0.5327854,-3.445012,-2.9380543,4.030492! #0.0,-0.19211857,0.4761741,0.66812277,1.8387572! 0.0,3.4147477,-0.09763479,3.6338503,0.7419472! 
0.0,-0.087713465,-0.13334273,0.7963691,-3.0212145,-1.5588808,-2.0613883! 0.0,1.0127763,-0.08823837,1.9544752,1.9434541,-3.557017,-0.34678292! 0.0,2.230747,1.9127973,-2.4672363,-3.1216702,1.9203782,2.3846896! 0.0,-1.9191785,-0.40214077,2.232796,-3.0067253,-0.39304617,-0.3852648! #0.0,-0.21831803,0.48552763,0.17926332,3.8949456! 0.0,-0.063116,0.10087487,2.8091958,0.7884667! 
0.0,-0.10209624,1.7498267,-3.1967483,0.8668277,-0.39469677,3.2744088! 0.0,2.0138412,-0.03772142,2.1431587,1.9434541,-0.66317534,-0.78789055! 0.0,0.06852332,-3.4502077,-2.4672363,-2.9786158,-2.2508135,3.0245366! 0.0,-0.4869113,-0.35097635,-0.83298576,3.7144828,-0.3764694,4.030492! #0.0,-1.6919594,0.4304793,0.17926332,2.0778942! 0.0,0.070931144,0.15223885,2.8091958,2.9789047! 
0.0,-1.1802413,-3.4013047,-2.8848379,0.7392328,-0.32537174,3.4440296! 0.0,2.1045613,2.6646056,-2.356929,0.2577739,-3.624437,3.3836794! 0.0,2.0606189,-3.4880674,-3.5035934,-2.366698,-2.28376,2.3846896! 0.0,-1.9133102,3.4844315,0.7086298,-3.0415745,2.1267352,-0.36990005! #0.0,-0.2054,0.46668324,0.50437057,1.88716! 0.0,1.4218847,0.07531586,-1.7440305,0.7884667! 
0.0,-1.3343596,3.4465408,-4.010839,0.0443902,-3.8671286,-2.12528! 0.0,3.4789083,0.18431386,0.93116176,-1.0805218,-1.3098567,-0.5886691! 0.0,2.2893465,-3.4502077,-0.81810653,3.1450915,-0.08030065,1.0744042! 0.0,1.2706605,1.0075173,2.6496663,0.49257326,-3.7674,-3.0587277! #0.0,-1.9147859,0.40635076,0.16165479,1.8387572! 0.0,1.32758,-1.6891643,-0.10574818,2.0744605! 
0.0,-0.07348342,-0.08034419,-3.006785,1.9305863,-3.842144,-3.9813163! 0.0,3.473926,0.14664526,1.9893413,-1.0955397,-0.10968068,-0.6824378! 0.0,0.65526026,-1.8255441,-0.77290815,-3.139286,-2.2162156,2.4346867! 0.0,-2.4187074,-0.32437477,-0.9004311,-2.787833,-0.047037557,-0.38524526! #0.0,-0.20497473,0.4231237,3.5170255,2.793994! 0.0,0.03243725,-0.14557339,-1.6398884,-0.073019! 
0.0,-0.16075547,1.7084035,1.6970916,0.017855305,-3.8838124,-3.9813163! 0.0,3.4789083,0.14664526,1.3451984,0.31629097,-1.3125796,-0.3983226! 0.0,2.3196971,-1.827415,1.6525422,-0.0106813125,-0.12210472,2.4628282! 0.0,1.4029813,-1.6720744,-0.9004311,-0.13923329,-0.047037557,-2.4958663! #0.0,-0.204711,0.403774,0.6362172,2.793994! 0.0,0.009727236,-0.14557339,1.2062839,0.7572456! 
0.0,1.8194709,-0.09512545,-2.919026,-0.06673865,-1.2487718,-3.9691133! 0.0,2.086601,0.16333139,1.2697744,-1.3592077,-3.6620493,2.2085125! 0.0,0.4327029,-0.71843106,1.6385752,-3.096488,-2.2210023,2.0194185! 0.0,-1.9088244,-0.3806844,2.232796,-0.16412565,-0.08453101,-0.39639223! #0.0,-0.1962685,0.3902244,0.7437738,0.4151509! 0.0,0.0800001,-0.032086156,2.7122893,0.72206825! 
0.0,2.9629152,-0.10539891,0.71483004,-3.030083,-0.27209565,3.2109077! 0.0,3.4789083,0.16333139,-0.6807572,-2.4023628,-0.03557664,-0.74853635! 0.0,2.0652523,-0.07930066,-0.81810653,-0.07651049,-2.2162156,-2.2537417! 0.0,-1.8532283,-0.36158013,-0.45679462,2.8480582,3.5451899,0.9814796! #0.0,-0.19689602,0.32706925,0.8045905,1.9388785! 0.0,-0.14038777,-0.04371205,-1.757614,1.7723213! 
0.0,2.971367,3.4795866,-3.1650167,0.7392328,-0.32198104,3.1331825! 0.0,3.4789083,0.16566536,0.5157084,-0.38712668,-3.6938372,-0.36194998! 0.0,-0.5380309,-2.9702845,1.724676,3.1353545,-0.07715002,2.3846896! 0.0,-1.9088244,-1.6720744,-0.5977271,-0.15697323,-0.015780404,-0.3852648! #0.0,-0.124714404,0.39999163,2.656292,0.020311832! 0.0,0.002048973,-0.034475453,3.483349,-1.628967! 
0.0,-0.11401737,-0.10530001,-3.9856744,-0.050280135,-2.2800274,3.247505! 0.0,2.0907156,0.17640018,2.0621374,-2.8552866,-3.6695807,-0.28303578! 0.0,2.345529,3.7587547,-0.9304361,-3.139286,-1.1208134,3.0040586! 0.0,-1.8668829,-0.9402186,-0.9089027,-2.79467,-2.9380543,3.0316916! #0.0,-0.13798426,0.49310663,0.17926332,3.9086952! 0.0,0.098161,-0.036615193,2.8241684,0.8142305! 
0.0,1.7690797,1.7437989,2.1175916,-3.198274,-0.3934642,-2.0613883! 0.0,1.0518312,-0.03772142,-2.4311318,-2.3413951,-3.5703661,2.2385693! 0.0,0.012161344,3.2485092,-2.4672363,-2.9342403,-0.019052576,-2.2255225! 0.0,2.9684474,-0.41686633,0.43166184,-2.662253,-0.11449149,-0.37948748! #0.0,-0.1273733,0.4747333,0.10774961,-2.1405082! 0.0,-0.097878195,0.026662469,-3.0154803,-0.053682424! 
0.0,-0.10209624,-0.13334273,-2.9008396,-3.0212145,0.9800401,2.66045! 0.0,1.995347,-3.4697313,-0.38609457,1.9434541,-3.609997,-2.032682! 0.0,-3.9651108,-2.1799583,-2.4672363,-3.1216702,-1.7410285,2.3846896! 0.0,-0.8162255,-0.39891198,2.232796,0.7683053,-2.048503,-0.3852648! #0.0,-0.21831803,0.7492938,-3.6601505,3.8949456! 0.0,-0.69410944,0.10087487,1.0211244,0.7884667! 
0.0,-0.16075547,1.7084035,0.6929024,0.7392328,-1.2199885,-1.2749743! 0.0,2.1299613,0.20901972,1.9569664,-1.0464996,-0.11952333,-0.46319634! 0.0,2.33037,-1.7617412,1.7400444,-0.062385995,2.2646816,2.0283346! 0.0,3.7716544,1.4191281,-0.89885426,-0.1558815,3.4743912,-1.3370847! #0.0,-0.16200426,0.4761741,0.7207989,1.8237308! 0.0,0.0800001,0.07729621,1.2252513,0.8142305! 
0.0,-0.16075547,-0.08034419,-2.9873378,0.6670985,-3.8063626,-2.1060703! 0.0,3.9122176,0.31139937,1.3451984,1.9299346,-2.91883,-0.36196157! 0.0,3.555636,-1.693065,1.6525422,-0.11549206,-2.2243435,2.4628282! 0.0,1.4115367,-1.6333416,-0.97580445,-0.124339074,-0.39601877,0.9549054! #0.0,-0.11158003,0.40026307,0.6362172,-0.16212875! 0.0,0.03243725,-0.06477024,1.2825395,-0.15619926! 
0.0,-0.155072,-0.085110515,-2.9518805,-3.198274,-3.844833,-2.131694! 0.0,3.8580313,-0.08112669,1.2440195,-1.4766388,-1.3433037,-0.3561105! 0.0,2.7255921,-2.0939271,1.791547,-0.0026694424,3.6222126,0.018779077! 0.0,1.375148,1.5816711,2.2719994,-0.1558815,-0.4818982,-1.4013326! #0.0,-0.14370774,0.5496418,0.63410604,3.91154! 0.0,0.098161,0.16966543,3.628302,-0.05602909! 
0.0,-0.08831254,-0.085110515,0.71483004,0.0026775748,-3.8235247,3.1407824! 0.0,3.4949262,-0.01436412,2.1508002,0.30404606,-0.12693581,-0.36494464! 0.0,2.3329117,3.2898827,-1.4767585,-1.6187159,-2.2021987,-1.9352409! 0.0,1.31368,1.645043,2.2290232,-2.566627,-0.051879715,-0.8252511! #0.0,-0.14370774,0.5496418,-2.288814,3.9086952! 0.0,-0.041866694,0.02616939,-1.3877279,-2.3518329! 
0.0,-0.14695713,1.7640765,0.99937016,0.007051315,-2.2800274,3.1130686! 0.0,2.099129,0.02527814,2.1493254,1.848361,0.0032502525,-0.49208215! 0.0,1.9788122,-2.9967384,0.024083208,-0.052367393,-2.272304,-2.2537417! 0.0,-0.6190857,1.6588247,-0.85547626,2.8480582,-0.35500574,-1.6506087! #0.0,-0.15963133,0.4304793,0.18963993,3.9086952! 0.0,-0.21644755,-0.08800425,1.1441818,0.69218796! 
0.0,-0.11132935,-0.08034419,-2.938093,-0.037353016,-0.3934642,3.2160113! 0.0,0.40570378,0.19945714,2.1359844,1.8912396,-1.284477,-0.6959587! 0.0,0.06656554,-2.9682505,1.725732,-0.10921164,-1.3726766,-1.9491855! 0.0,0.60669553,1.5839376,-0.87848336,-2.6223319,-0.4338606,-2.4988778! #0.0,-0.22621067,0.403774,-1.6111188,1.8051631! 0.0,-0.041866694,0.022556175,2.8168693,-0.044912446! 
0.0,0.0036833286,-0.09045649,-2.9715698,-0.3916545,-0.34641898,-3.9813163! 0.0,3.7924893,0.14048742,0.45536926,2.4955065,-0.0029980056,-0.3046814! 0.0,2.3889854,-0.825032,-0.9594055,-3.139286,-1.3337592,3.0078523! 0.0,1.3156619,-0.091358215,-0.85547626,-2.7653255,-0.3921166,0.8167501! #0.0,-0.16092217,0.4304793,-1.6470451,-0.16212875! 0.0,0.079276696,-0.036615193,2.8616004,1.7785108! 
0.0,0.6206034,-0.09512545,-2.924993,-0.05362208,-1.2438676,-3.9404292! 0.0,1.044136,0.010528937,0.41595063,0.26344934,-3.972818,-0.7183754! 0.0,2.271112,2.0134425,-0.81810653,-3.1323755,-0.115273386,3.0656216! 0.0,-1.9169525,-0.39310688,2.2691567,-0.20324391,-0.05484514,-0.35672092! #0.0,-0.16848616,0.4988413,0.62163997,-2.1184492! 0.0,-0.003756173,0.14454925,-1.6051637,-2.3518329! 
0.0,1.8194709,-2.731724,-2.9873378,0.7661325,-3.5245543,3.1627042! 0.0,1.0518312,-0.091050774,2.9237,1.9299346,-2.9182494,-0.6904348! 0.0,2.3570218,-3.4502077,1.6525422,3.1450915,-2.2243435,2.4555552! 0.0,-0.57998216,1.6419681,-0.8778869,-0.124339074,-2.91495,0.9549054! #0.0,-0.23443529,0.40026307,0.7437738,0.020311832! 0.0,0.070931144,0.051032968,1.2825395,-0.098062985! 
0.0,0.5819312,-3.3648436,-3.0352113,0.7392328,-3.8112953,-1.9995426! 0.0,3.4948003,0.19945714,0.468208,1.9407562,-0.6277271,2.1964931! 0.0,2.3106885,-2.0939271,-0.85736656,-0.052367393,-2.8760145,2.3879433! 0.0,1.3399625,-0.36068353,2.2321424,3.7350035,-0.48957822,-1.3916229! #0.0,-0.16023476,0.3984857,0.114676036,1.8051631! 0.0,-0.097878195,0.17661342,2.7480361,-1.5728567! 
0.0,-0.18058683,3.4604266,-2.9873378,0.7661325,-3.8671286,3.1627042! 0.0,3.4789083,-0.081623994,1.2440195,-1.2866045,-1.3125796,-0.6904348! 0.0,2.2893465,-2.4746304,1.8193694,3.1450915,-0.08030065,1.9824433! 0.0,2.460794,-0.40100732,-0.8983755,3.8425238,-0.37255555,4.0148864! #0.0,-0.20497473,0.3902244,0.16165479,-0.22600721! 0.0,0.045012474,0.09452791,2.8450737,0.7419472! 
0.0,-0.04863131,-0.073750876,0.74632937,-0.037353016,-0.02431244,3.1992424! 0.0,1.9624166,-0.11077355,3.039844,1.8758931,-0.12995724,-0.32046157! 0.0,2.2586784,3.212689,-1.5145658,-0.07144691,-2.2021828,2.4129875! 0.0,0.5739148,-0.3598323,2.2374344,-0.124339074,-3.7460127,-0.40608186! #0.0,-0.23439476,0.39858606,-0.33971322,3.9404905! 0.0,-0.064463586,0.0064873435,1.2388821,0.7617871! 
0.0,-0.23241192,-3.4289777,1.0101147,-3.0732243,-1.2487718,3.2568107! 0.0,2.086601,-0.05084781,0.31959432,-1.0610123,-1.2958869,-0.78789055! 0.0,2.345529,-3.4715028,1.6198479,-2.998513,-2.8044558,2.3879433! 0.0,2.4735174,1.7216673,-0.8983755,1.420198,-0.50475395,-2.5317078! #0.0,0.16072688,0.5084399,0.12572555,-0.21587288! 0.0,0.03243725,0.016296893,-3.7976222,0.72206825! 
0.0,-3.4757318,-0.09512545,0.78351206,-0.037353016,-0.3483158,3.2577639! 0.0,2.138057,2.6646056,0.5458686,1.8758931,-0.015442412,-0.6959587! 0.0,-1.1444528,1.9840333,3.5610383,-0.012520313,-2.2407365,-2.5934117! 0.0,3.8900905,1.6900326,-0.9004311,2.8887188,2.1267352,-0.38901296! #0.0,-0.17764352,0.49987793,-3.4733713,2.638914! 0.0,-0.097878195,0.042601414,0.05832689,-0.044912446! 
0.0,-0.16075547,1.7084035,0.6973164,-0.06673865,-3.8838124,-3.9813163! 0.0,1.0127763,0.14664526,2.0338376,0.26344934,-0.10968068,-0.3983226! 0.0,2.3329117,1.9593545,1.6525422,-2.610946,-0.12210472,2.0151935! 0.0,-2.4598756,-0.15242058,-0.9004311,-0.15696985,-0.047037557,-0.38524526! #0.0,0.1565502,0.5257686,-1.8931701,2.793994! 0.0,0.13786176,-0.06477024,2.752582,-0.051903185! 
0.0,3.683566,3.2215207,1.1005993,2.9952703,1.7678533,-2.1721754! 0.0,3.7537045,0.25216526,-2.620194,1.8586969,-3.5737715,2.7781515! 0.0,3.5510335,1.1202092,-2.0005054,3.1450915,-2.8718877,2.8166428! 0.0,-3.0777893,1.6419681,-0.51034766,-0.29150057,-0.14323871,1.471118! #0.0,-0.16730306,1.884974,-1.6111188,0.718431! 0.0,0.8380618,-0.034475453,2.7897303,-1.6161515! 
0.0,-0.14703202,0.60434085,0.79083204,0.7670942,-3.8112953,3.3229878! 0.0,1.9971101,-0.01436412,2.1341844,-1.0955397,-1.2996567,-0.6729285! 0.0,2.3193665,-0.59022444,1.725732,-0.05827146,-2.8044558,2.3497195! 0.0,1.4476355,-0.40214077,3.790539,-0.13318507,-2.96599,-0.37784714! #0.0,-0.20708281,0.46493262,0.59350634,1.8051631! 0.0,0.042136174,0.15535773,-2.3308022,0.79469305! 
0.0,-0.009255074,1.7264212,-2.9313588,-0.027455192,-1.2487718,3.2109077! 0.0,2.1260178,0.13096261,1.3210187,-2.3413951,-0.6682099,-0.53007084! 0.0,-0.62855136,3.2485092,1.6697001,3.239772,-2.114057,2.3879433! 0.0,-2.303696,-0.40214077,2.232796,-2.5938668,-0.50938475,-0.40608186! #0.0,0.14028034,0.49203557,2.6327617,-0.24391493! 0.0,0.023296988,-0.008734234,-2.3410265,0.72206825! 
0.0,-1.3128029,1.7264212,-2.9486027,-2.9798968,-2.162225,-2.1721754! 0.0,3.4568048,0.16333139,1.2930741,0.30404606,-3.882272,-0.53007084! 0.0,0.2072687,-0.7135272,1.791547,-3.1229224,2.6710327,2.4646735! 0.0,-2.303696,-0.40214077,2.2743902,3.4173713,-0.047037557,3.0305138! #0.0,-0.088857844,0.4304793,-1.8717456,3.9086952! 0.0,-0.041866694,-0.008734234,0.05832689,0.7419472! 
0.0,-0.16075547,3.4695737,-3.1925788,-0.051855464,-0.39469677,3.162825! 0.0,-0.7577486,-0.092965655,0.41595063,-1.0728066,-3.569671,-0.6410865! 0.0,2.3616645,-1.7916871,-2.4672363,-2.9342403,-2.8044558,2.3846896! 0.0,1.4147276,-0.37513924,2.21955,2.8027759,3.469661,-0.3852648! #0.0,-0.21831803,0.46668324,0.61630684,3.8949456! 0.0,0.009959199,0.10087487,2.8149703,0.79515624! 
0.0,0.6469469,0.60434085,-3.1971562,0.0066458434,-1.2131519,0.58009666! 0.0,3.3874502,-0.10520999,1.3210187,1.1781998,-1.2996567,-0.7650684! 0.0,2.3106885,-1.7170606,-1.4767585,0.004442759,-2.8729544,3.0151448! 0.0,1.3603369,-0.42143276,-0.96326864,-0.124339074,-0.48624098,4.030492! #0.0,-0.16023476,0.43023506,-1.5992198,-0.21197373! 0.0,-0.072315075,-0.037511326,2.8191848,-1.618817! 
0.0,0.26917157,-0.085110515,-1.6363628,-0.08843208,-0.24001397,0.5335083! 0.0,2.337178,0.25216526,-2.9264035,-0.40014294,-0.13065504,-0.6731054! 0.0,2.3571575,-2.510216,-3.997425,2.3560605,-2.0572953,2.9721045! 0.0,0.5520388,1.6524713,-0.96326864,-0.14307122,0.7514586,-0.3392251! #0.0,-0.23765473,0.39858606,0.6485146,3.9404905! 0.0,-0.041866694,-0.03304848,2.8450737,1.7982471! 
0.0,-0.16075547,3.2096539,1.5761284,0.7107012,-1.2131519,3.202124! 0.0,3.3874502,-0.022309348,0.53148884,1.1781998,-0.016860051,-0.7221064! 0.0,2.2358139,1.9593545,1.6940348,-3.1388142,-2.2072895,2.0151935! 0.0,1.3824137,-0.40454906,1.5561488,-0.17099914,-0.3764694,-0.36990005! #0.0,-0.13386104,0.5257686,-0.287709,1.8051631! 0.0,0.14010449,-0.062799156,2.752582,-0.051903185! 
0.0,-0.10209624,-0.085110515,1.7543418,-3.0212145,-0.426148,3.2109077! 0.0,2.0907156,0.23641019,0.41595063,1.9434541,-0.6682099,-0.7183754! 0.0,2.3399994,3.7034547,-0.8107525,-3.1216702,-2.83502,2.3846896! 0.0,1.4368092,-0.42944297,0.43166184,-0.091429055,-0.39304617,-0.3678069! #0.0,-0.21831803,0.3900465,-2.1966915,3.8949456! 0.0,-0.063116,0.09679801,2.8091958,-1.618817! 
0.0,-0.07348342,3.1615372,0.69888633,-0.02480689,-0.34542462,-3.9475455! 0.0,3.8120968,0.16333139,2.1341844,0.29996708,-1.3125796,-0.63890904! 0.0,0.06852332,-3.4502077,1.7400444,-2.508031,3.4646068,-2.191801! 0.0,1.8279071,1.3437972,2.2321424,-0.16041587,3.5721745,-0.4013164! #0.0,-0.087064356,0.41370073,0.7437738,-0.2500076! 0.0,0.070931144,-0.36452177,2.8104637,0.7884667! 
0.0,-3.463734,-3.3904443,-2.196851,-3.0451777,-0.32701376,-3.9561884! 0.0,2.078411,-0.05922408,0.36576086,-1.3988295,-3.6923137,-0.7221064! 0.0,-0.51156414,-2.4602716,-2.4672363,-3.176626,-2.2167146,2.3846896! 0.0,1.39603,-0.35852733,1.5561488,2.8509028,0.08129656,3.9911757! #0.0,-0.13962951,0.49310663,0.14633122,-0.32063386! 0.0,0.0117825195,0.07868031,-1.3618686,-0.051360544! 
0.0,-0.08831254,0.59365505,-3.0352113,-0.44203743,-3.844833,3.2567794! 0.0,1.044136,0.19945714,2.1508002,-1.8371087,-0.12995724,2.233831! 0.0,0.19322094,-0.699422,-0.8306769,-1.6187159,3.4757528,2.3879433! 0.0,1.3793871,-0.4779671,2.2345734,3.7350035,-0.051879715,-1.3916229! #0.0,-0.14370774,0.38803944,0.8045905,2.9095447! 0.0,0.025263619,0.02616939,-1.3877279,-2.3518329! 
0.0,-0.04863131,-0.085110515,-2.9811065,0.76737094,-0.24001397,-3.9561884! 0.0,3.4789083,-0.07964179,0.45536926,1.8299581,0.0032502525,-0.42060727! 0.0,2.0652523,-0.7640752,0.5914548,-2.583339,-2.2517924,0.070700124! 0.0,2.4735174,-0.46633258,-0.9416093,2.8509028,-0.06380824,2.9603164! #0.0,0.15583341,0.46493262,-1.5992198,1.8051631! 0.0,-0.087638736,-0.055286355,2.8450737,-0.044912446! 
0.0,0.5940486,-2.6764324,0.7963691,1.9009469,-0.36338004,3.202124! 0.0,0.35644373,0.23641019,2.9481347,1.840315,-1.284477,-0.42432666! 0.0,0.06656554,3.6755412,1.725732,0.016881391,-1.3726766,2.0283346! 0.0,0.60669553,-0.40214077,2.230452,-2.5667143,-0.045869507,-2.4988778! #0.0,-0.20497473,0.49310663,-1.6111188,1.8051631! 0.0,-0.080553785,0.09042376,-1.3618686,-0.07468293! 
0.0,-0.07348342,1.7084035,0.74822164,-0.021673823,-1.6775008,-3.9813163! 0.0,3.4789083,0.13453981,2.0579655,-1.3988295,-0.10968068,-0.3983226! 0.0,0.65526026,-1.7398703,-0.85736656,-0.0106813125,-2.8044558,1.9954096! 0.0,1.3824137,-0.15242058,-0.9004311,-0.15696985,2.191443,-0.38524526! #0.0,0.1565502,0.36061826,0.65966207,1.7796894! 0.0,0.009727236,0.018784951,2.8450737,0.7600578! 
0.0,0.62158865,1.7084035,1.6970916,-3.198274,-3.8838124,-2.1652954! 0.0,0.4431601,-0.0013035536,0.45521575,0.26344934,-0.12693581,-0.6874411! 0.0,0.65526026,-1.7802224,1.8043615,-0.0106813125,-1.3696406,-2.191801! 0.0,1.3253272,1.5816711,2.1776657,-0.15696985,-0.047037557,0.9761981! #0.0,-0.19211857,0.5496418,-1.8931701,2.8409848! 0.0,0.120527476,-0.14557339,-1.720975,1.7982471! 
0.0,0.26917157,-0.04424021,-1.6363628,-0.06673865,-0.24001397,-2.1612284! 0.0,3.4949262,-0.06276881,-2.9264035,0.26344934,-0.08376625,-0.3046814! 0.0,2.2586784,-2.4695137,-0.87696564,2.3560605,-2.1797638,-1.9352409! 0.0,1.4368092,-0.39310688,-0.53777504,-0.14307122,-0.3200068,4.030492! #0.0,-0.1893366,0.49268475,0.17926332,1.8208474! 0.0,-0.019337412,-0.05341477,-1.5974877,0.6889557! 
0.0,-0.10209624,1.7264212,0.69888633,-3.0212145,-0.39469677,3.2109077! 0.0,1.0487065,-0.03772142,1.9790351,-1.078741,-0.037676804,-0.45166123! 0.0,0.058444977,-0.71843106,-2.4672363,-3.1280258,-2.2243435,2.032882! 0.0,-1.9637386,1.6588247,-0.83298576,-2.801517,-0.3764694,0.9503959! #0.0,-0.087064356,0.4304793,-3.3584955,1.8127127! 0.0,0.079276696,0.03739055,2.8091958,0.6910614! 
0.0,-0.11401737,0.60434085,-2.6847446,-0.050280135,-3.8112953,3.2567794! 0.0,3.4377244,0.18944497,2.0621374,-1.3592077,-3.5737715,-0.3162467! 0.0,2.345529,3.7587547,1.664307,-3.139286,-2.269348,3.0040586! 0.0,1.3793871,-0.8730536,-0.5977271,3.7350035,-2.9380543,-0.40608186! #0.0,-0.16023476,0.45636582,-0.2945663,-0.26888058! 0.0,0.098161,-0.036615193,2.8728886,0.8142305! 
0.0,2.971367,-0.085110515,-2.9873378,-0.06673865,-0.24001397,3.2109077! 0.0,3.4949262,0.20494361,-2.9264035,-0.376837,-3.736873,-0.34129766! 0.0,0.0036951117,-3.4502077,-0.87696564,2.3560605,-2.0572953,3.0016909! 0.0,1.4368092,-0.39064518,-0.53777504,-0.14307122,-0.047037557,-1.4322684! #0.0,-0.17639509,0.39999163,0.17926332,1.8208474! 0.0,0.070931144,0.06692346,2.8450737,-0.04934932! 
0.0,0.66086286,0.6167884,-1.6363628,-0.05362208,-0.3934642,-3.7050812! 0.0,3.7537045,0.31139937,0.45536926,-2.3568296,-3.5737715,-0.6729285! 0.0,2.3196971,-1.827415,1.6525422,-3.176626,-2.8718877,0.04150048! 0.0,1.4115367,-1.6720744,-0.97580445,2.8509028,-0.041137908,4.030492! #0.0,-0.17639509,0.43023506,-1.6111188,1.7731466! 0.0,0.025263619,0.17711121,2.8450737,1.772374! 
0.0,-2.5451655,3.1680377,-1.6671896,-0.62180805,-0.34847182,-1.242733! 0.0,2.1510677,0.13453981,1.3210187,1.8586969,-3.9146414,-0.31532538! 0.0,3.3833466,-3.4502077,1.7042416,-0.46387053,-2.8044558,-1.3507743! 0.0,1.859198,-3.1224651,2.2763166,2.8509028,-3.9022324,-1.623369! #0.0,-0.6845808,0.49987793,-1.5752188,3.9086952! 0.0,1.113308,0.026662469,-1.6825485,0.74720776! 
0.0,0.5810907,0.027796086,-2.196851,0.7718335,-0.24604511,0.62634933! 0.0,2.3289459,0.19613779,-2.9264035,2.3975046,-0.03557664,-0.5853785! 0.0,0.17813814,-0.07930066,1.6695403,-3.176626,-1.3696406,2.99972! 0.0,3.751824,-0.37513924,2.2776918,-2.6053245,-0.4711342,2.8101792! #0.0,-0.2106842,0.4304793,0.8993879,-0.32063386! 0.0,-0.097878195,0.14454925,-1.3618686,0.77480096! 
0.0,-0.027918994,1.756262,-1.6363628,-3.470254,-1.5981554,3.2066112! 0.0,1.9540062,0.19215487,0.51164025,1.3006638,-1.3494183,-0.59456444! 0.0,2.3181903,3.2485092,1.6695403,-2.9342403,2.5822809,-0.03492053! 0.0,-1.4520172,1.6588247,0.6772051,3.3578768,2.191443,2.998838! #0.0,-0.16598287,0.4304793,-2.3325117,-0.26598823! 0.0,-0.21644755,0.0083890855,2.8450737,0.7419472! 
0.0,-0.10209624,-0.085110515,1.7543418,0.7392328,-0.3934642,3.2109077! 0.0,2.0907156,0.23641019,-0.7276596,1.8299581,-0.6682099,-0.42060727! 0.0,2.3399994,3.6863291,-0.8107525,3.1435997,-2.83502,2.126646! 0.0,1.4368092,1.6019535,0.43166184,-0.091429055,-0.06380824,-2.530359! #0.0,-0.20497473,0.3900465,-2.1966915,0.40798193! 0.0,-0.12349711,0.09679801,-1.3618686,-1.618817! 
0.0,0.0073743053,0.027796086,0.7608558,0.051750578,-0.02431244,-1.3106573! 0.0,3.7537045,0.22533594,1.3210187,1.8583862,-1.3229051,-0.6824378! 0.0,2.0652523,-1.827415,1.6695403,-0.0106813125,-2.2162156,2.9676197! 0.0,1.3499033,-0.90710783,-0.50809693,3.795283,-0.01588476,-1.3700539! #0.0,0.17279574,0.50797784,-0.3101543,0.41459122! 0.0,0.1076914,0.07468772,-1.3618686,-0.0010312311! 
0.0,0.0036833286,0.027796086,0.7608558,0.7744069,0.014473744,-1.3106573! 0.0,3.7388263,-0.04389143,1.3210187,-0.29556248,-0.027881924,-0.36494464! 0.0,0.02455796,-1.8444201,1.6695403,-0.0106813125,-2.887981,2.9472482! 0.0,0.5546896,0.6264637,-0.9089027,-0.124339074,-0.38970572,-1.3700539! #0.0,0.17279574,0.50797784,-2.2107348,0.41459122! 0.0,0.01913302,0.07468772,-1.4389421,-0.09322041! 
0.0,-0.16075547,1.7838799,0.6973164,-0.05394166,-2.2916718,3.2373416! 0.0,3.7537045,-0.03772142,0.4713335,1.8583862,-0.016860051,-0.7183754! 0.0,-0.1782093,-0.77093303,-2.503232,-2.610946,-2.8214066,2.9676197! 0.0,0.5880948,1.6468703,2.2321424,-0.124339074,-0.39304617,4.0148864! #0.0,-0.09695542,0.5257686,-0.287709,3.8949456! 0.0,0.13786176,-0.06477024,-1.4417286,0.7419472! 
0.0,-0.09263486,-0.08034419,-3.1650167,1.9305863,-1.5981554,3.1412256! 0.0,0.4431601,0.12280759,0.4764784,2.3866723,-3.5737715,-0.3923397! 0.0,2.0652523,-2.4746304,1.7709504,-1.867199,-2.2056348,2.0435143! 0.0,2.460794,1.3437972,-0.9004311,-0.124339074,-0.06380824,4.0148864! #0.0,-0.1749858,0.46920604,0.58479017,0.40798193! 0.0,0.050099403,0.130102,-1.6080041,0.7554783! 
0.0,-0.11123605,-0.0090390295,0.69888633,0.053650927,-1.6389476,-3.9475455! 0.0,3.0507128,-0.01436412,0.40488595,1.9256554,-3.6150613,-0.63890904! 0.0,0.06852332,-2.510216,1.664307,-2.575639,3.4646068,2.9775264! 0.0,1.3399625,1.3437972,-0.53777504,-2.566627,3.5721745,-1.4013326! #0.0,-0.19178683,0.4231237,-1.5916185,-0.3139156! 0.0,0.070931144,-0.09295497,2.8766248,-1.618817! 
0.0,-1.3128029,1.7264212,0.6973164,-3.0234334,-2.2800274,-2.1721754! 0.0,1.0487065,0.00460111,2.1270037,1.8583862,-0.027881924,-0.81013966! 0.0,2.3329117,-0.77093303,-1.4767585,-3.1229224,-1.325122,2.008708! 0.0,1.8279071,1.6578277,2.2743902,3.795283,-0.3764694,4.0207644! #0.0,-0.18388337,0.4304793,0.66812277,3.9086952! 0.0,0.12743418,-0.03235075,-1.3963528,0.7419472! 
0.0,-1.2764165,-0.085110515,0.7346987,1.9831969,-0.24001397,-3.9561884! 0.0,3.4789083,-0.07964179,1.9790351,1.8299581,-1.284477,-0.42060727! 0.0,2.1026795,-0.7450222,0.5718218,-3.176626,-2.83502,2.9110928! 0.0,1.4312913,1.3437972,-0.6009729,-2.6016357,-0.47966403,3.9948342! #0.0,0.16072688,0.47887737,-1.5992198,-0.24514416! 0.0,-0.041866694,-0.055286355,2.8168693,-0.044912446! 
0.0,0.26917157,1.7437989,-1.6363628,-3.0451777,-0.40274557,-2.1612284! 0.0,3.4949262,-0.06276881,-2.4311318,1.984886,-0.10308088,-0.6763251! 0.0,0.0036951117,-2.510216,-2.4687061,2.3560605,-0.019052576,-1.9352409! 0.0,1.4368092,-0.41686633,-0.4758769,-0.14307122,-2.9380543,-1.4322684! #0.0,-0.19689602,0.50108236,0.17926332,-2.1405082! 0.0,-0.097878195,0.026662469,2.7852268,-0.053682424! 
0.0,-0.20620893,1.7264212,-2.9866269,-0.02480689,-1.2487718,-2.1689553! 0.0,3.7339435,-0.07964179,2.1493254,-0.3558392,-0.037676804,-0.7868598! 0.0,1.9752592,3.7398813,0.011785366,-2.583339,-2.2517924,2.9199798! 0.0,2.4792566,-0.42157462,2.2412968,-2.5975535,3.5537338,4.030492! #0.0,0.17279574,0.4304793,0.60477924,3.942734! 0.0,0.079276696,-0.010119338,-3.7883615,0.72206825! 
0.0,-0.07348342,3.1615372,-3.1925788,0.75436705,-0.39469677,-2.0353172! 0.0,1.9641714,-0.025034238,2.1816428,1.9434541,-3.9435484,-0.66761! 0.0,3.555636,2.0134425,-0.8157198,-2.8999906,-0.046689782,2.3846896! 0.0,-1.9229233,-0.44178024,-0.8784565,-0.17021704,3.5451899,-0.3852648! #0.0,-0.21831803,0.46668324,0.14633122,-0.26598823! 0.0,-0.007798128,-0.07267812,2.8104637,-1.6332006! 
0.0,-3.4757318,-0.09972454,0.782938,0.016651087,-0.3483158,3.202124! 0.0,3.4789083,-0.01436412,0.5458686,1.9407562,-0.015442412,-0.45166123! 0.0,-1.1444528,-2.075543,1.6529666,-3.1388142,-2.2624023,2.9721045! 0.0,-1.9637386,-0.35097635,0.6772051,-0.13318507,-0.38970572,-0.38901296! #0.0,-0.087064356,0.43864363,-3.4733713,1.8051631! 0.0,-0.097878195,0.0083890855,2.8399177,2.9771576! 
0.0,-1.2887275,-0.17525667,-2.9811065,3.6138852,-0.39469677,3.1407824! 0.0,2.0907156,-0.04389143,2.1732426,0.26344934,-3.6620493,-0.61007094! 0.0,2.6610138,3.7034547,1.6786472,-1.5509788,-1.7410285,2.3959925! 0.0,-1.9088244,-0.43990675,3.7956874,-0.17021704,-0.11449149,-1.6709337! #0.0,-0.21953095,0.51733476,-0.3101543,1.8127127! 0.0,-0.04039382,-0.032086156,-1.720975,0.77480096! 
0.0,-0.14703202,-2.718937,0.78767717,2.6915476,-3.8112953,3.0926015! 0.0,1.9971101,-0.0026664436,1.2440195,-1.0955397,-1.2996567,-0.40430105! 0.0,0.02455796,-0.59022444,1.725732,-0.05827146,-2.854491,2.4346902! 0.0,-1.8386959,0.6264637,3.790539,-0.124339074,-2.9179032,-0.37784714! #0.0,-0.16023476,0.46493262,0.6230519,-0.12501767! 0.0,0.042136174,0.096342616,2.8191848,0.77480096! 
0.0,2.9629152,-0.085110515,1.733272,0.02697114,-0.24604511,3.1407824! 0.0,2.157916,0.008393336,-0.6807572,1.9878294,0.0025638267,-0.60582066! 0.0,2.0652523,-0.77518094,1.8043615,-3.1388142,-2.8577633,2.0473511! 0.0,1.31368,-0.36158013,2.2345734,3.795283,-0.4672492,-1.4322684! #0.0,-0.19706081,0.38692153,-1.6348314,1.9388785! 0.0,0.080793515,-0.04371205,-1.3618686,1.7982471! 
0.0,-0.04196443,1.7264212,-3.9856744,2.5400317,-0.3934642,3.1407824! 0.0,2.0907156,0.16566536,0.429897,-2.8552866,-3.6695807,2.2051144! 0.0,2.278182,3.6551166,-0.9304361,-0.031684607,-2.2141685,2.0202818! 0.0,-1.8668829,-0.9402186,2.1964078,-0.12905502,-0.50475395,3.0278635! #0.0,-0.14623421,0.3900465,0.17926332,3.9086952! 0.0,0.070931144,0.08293018,2.8241684,-1.5832406! 
0.0,0.6469469,2.9232216,-1.6720748,3.854127,-1.2131519,-2.1590154! 0.0,2.2338412,0.13096261,0.4713335,1.8586969,-0.01000597,-0.31532538! 0.0,0.02455796,0.5206194,0.03717868,-3.1663718,3.3927436,2.4129875! 0.0,1.859198,-0.39324573,2.2929702,-0.18584459,-2.914101,4.016156! #0.0,-0.14370774,0.48212656,-2.288814,0.40798193! 0.0,-0.014589917,-0.034475453,-1.3562397,0.8142305! 
0.0,0.6469469,0.60434085,0.79083204,0.7661325,-3.5355072,-2.1590154! 0.0,2.1238544,0.28637883,2.111503,1.882455,-0.80453634,-0.7650684! 0.0,2.345529,-1.7398703,1.6483893,3.1450915,-2.2243435,2.9423776! 0.0,3.7154925,-0.42804244,2.2601724,-0.1680742,-0.11242209,0.9549054! #0.0,-0.16023476,0.43023506,0.6644002,1.8051631! 0.0,-0.014589917,0.042601414,2.8191848,1.7755623! 
0.0,-0.12886113,-0.10539891,1.733272,-0.02480689,-0.3759986,-3.9691133! 0.0,2.3289459,-0.015337074,0.51050866,1.9878294,-0.03557664,-0.74853635! 0.0,3.354437,-2.4695137,-0.81810653,2.4329169,-2.2162156,2.3879433! 0.0,-1.9144244,-0.3806844,-0.45679462,2.8480582,3.5451899,-0.3852648! #0.0,-0.13962951,0.32706925,0.16165479,-0.32063386! 0.0,0.03243725,-0.04371205,-1.720975,-0.07923783! 
0.0,-0.15512148,-0.08034419,-3.245573,-0.05362208,-0.3118238,3.1627042! 0.0,0.4431601,0.23641019,1.2723017,2.4955065,-3.5737715,2.1820898! 0.0,2.2566934,-1.7774818,-0.8617071,-0.15721402,-2.2407365,2.9313269! 0.0,1.3356622,-0.9402186,-0.85547626,-0.13318507,-0.34362793,-2.544617! #0.0,-0.18955791,0.5642461,0.5899374,3.8515239! 0.0,-0.12838066,0.19789925,-1.629697,1.7785108! 
0.0,-0.11123605,-0.09972454,1.6348071,-0.02480689,-0.34542462,-3.9475455! 0.0,3.7537045,0.16333139,0.40488595,0.29996708,-0.009530872,-0.63890904! 0.0,-0.1782093,-2.510216,-2.458689,-2.9786158,3.4646068,2.0283346! 0.0,0.5880948,1.3437972,2.2321424,-2.566627,-0.01588476,4.029188! #0.0,-0.19689602,0.46920604,-0.30298126,-0.2167489! 0.0,0.1076914,-0.03304848,-1.400088,-0.09322041! 
0.0,-1.2664155,3.4588373,0.75227386,-0.037353016,-1.2438676,3.1417718! 0.0,2.25823,-0.123634815,2.1221373,-1.0389409,-0.66317534,-0.68515044! 0.0,0.17203766,-2.4746304,1.6695403,-3.1636276,-1.3696406,2.4129875! 0.0,-1.482801,0.6264637,0.6772051,-0.124339074,0.7514586,-0.34072727! #0.0,0.17848076,0.4172955,0.6243219,1.8132344! 0.0,-0.21644755,-0.017634679,2.851158,-1.6332006! 
0.0,2.9629152,-2.6764324,-2.9653714,-1.0633135,-0.24604511,-1.3150415! 0.0,3.4322984,0.16333139,-0.6807572,-2.4023628,-3.5737715,3.3467548! 0.0,0.09097481,-1.7802224,2.2150173,-2.7030678,2.6160488,3.3715444! 0.0,-1.9403257,1.645043,-0.9112358,-0.091429055,0.008339718,0.9814796! #0.0,-0.19689602,0.4584868,-3.0005212,3.9086952! 0.0,0.080793515,-0.036615193,2.8203714,-0.1782087! 
0.0,-0.10209624,-0.13334273,-2.9311523,-0.050280135,-0.39469677,3.1627042! 0.0,1.995347,-0.091050774,1.2440195,-1.3592077,-3.569671,-0.7314721! 0.0,2.3570218,-3.4502077,1.725732,3.1347356,-1.7410285,2.4555552! 0.0,1.4147276,-0.40100732,2.232796,2.8506308,-0.42397872,-0.3852648! #0.0,-0.23443529,0.46668324,0.7437738,0.020311832! 0.0,-0.063116,0.051032968,2.8091958,0.7815651! 
0.0,-0.04845524,-2.8098917,-2.962253,1.9211459,-0.3437916,1.1236589! 0.0,3.7924893,0.16333139,1.9645445,1.8255467,-3.4025502,-3.13374! 0.0,2.2669215,-3.4502077,1.6897285,-2.425487,-0.7752857,2.4400158! 0.0,-0.010172844,0.9508362,1.05971,0.4992876,-0.3764694,2.541387! #0.0,1.625134,0.6766577,0.5903645,3.9086952! 0.0,0.045012474,-0.029648423,-1.3618686,-3.691677! 
0.0,-0.14695713,-0.08034419,-2.196851,-3.0451777,-2.2400875,3.1627042! 0.0,2.3302827,-0.05084781,0.468208,-1.4766388,-3.955297,-0.3818819! 0.0,2.3570218,-3.4502077,0.063388705,-0.05827146,-2.2162156,-2.212242! 0.0,1.3314642,0.6264637,3.790539,-2.6053245,-0.38970572,-2.5317078! #0.0,-0.16273186,0.403774,0.59350634,-0.32063386! 0.0,0.01913302,0.016296893,-1.3618686,-0.02789409! 
0.0,-0.14703202,-0.10539891,0.74632937,2.6915476,-2.2800274,0.58009666! 0.0,3.4789083,0.14985102,-1.3901367,2.0383024,-0.12995724,-0.6959587! 0.0,-0.54929435,-0.59022444,-1.4767585,3.1450915,-2.854491,2.3846896! 0.0,0.5739148,2.2730849,-0.96326864,-0.16854094,0.7547814,-0.38518828! #0.0,-0.17764352,0.41676098,0.6737029,-3.5973806! 0.0,-0.13289233,0.0083890855,-3.0450535,0.7419472! 
0.0,-2.7423706,1.7498267,0.7963691,2.4961689,-1.5588808,3.2744088! 0.0,2.0907156,-1.9353687,2.1431587,-1.3963578,-3.557017,-0.34678292! 0.0,2.368057,-2.8824587,1.6492732,-2.9786158,1.9203782,-1.9352409! 0.0,-1.9191785,-0.40214077,0.7135111,3.7144828,2.3639865,0.91951656! #0.0,-0.26787192,0.48552763,0.17926332,2.0778942! 0.0,0.050099403,0.15223885,-0.08447838,-0.02789409! 
0.0,-0.050796278,-3.3632677,-1.6363628,-3.0611212,-0.02431244,-2.1721754! 0.0,2.2938735,0.14345193,-2.375401,2.3975046,-0.6441675,-0.7868598! 0.0,1.9752592,3.2322237,1.7154471,0.019802615,-2.8745077,2.4594061! 0.0,-2.4187074,1.3437972,-0.97465396,-0.21000496,3.634063,-2.4928012! #0.0,-0.083724536,0.4761741,0.5835369,1.8439478! 0.0,-0.08226986,0.05783115,-1.3448781,1.7789018! 
0.0,-0.07348342,2.9227977,-1.6720748,-0.3916545,-2.3162858,-1.2809714! 0.0,2.0907156,0.13453981,1.2440195,2.4955065,-3.6695807,-0.28153396! 0.0,2.3382523,2.0347214,1.7042416,-3.1663718,-2.8044558,3.0078523! 0.0,1.859198,-0.091358215,2.2343726,-2.6412709,-2.909475,2.967531! #0.0,-0.14452244,0.49987793,0.14986466,3.9086952! 0.0,-0.09344834,-0.08800425,-1.6825485,-1.5832406! 
0.0,-0.04845524,-0.19603118,0.71483004,-0.050280135,-0.2902127,-1.2749743! 0.0,0.4431601,0.22577849,1.3524497,-1.3850205,-3.5737715,-0.6959587! 0.0,3.555636,3.2494366,-0.7979852,-2.3853292,-1.3696406,2.3846896! 0.0,3.697949,-0.42249206,-0.56361246,0.71739835,-0.3764694,-2.52428! #0.0,-0.19688258,0.4761741,-0.32685798,-0.2500076! 0.0,-0.064463586,0.10858624,3.632726,0.73187447! 
0.0,-0.04834046,-0.03470767,0.80141485,-3.0611212,-0.3437916,-3.9515193! 0.0,3.7924893,0.18987194,-0.6807572,-1.0029234,-0.12995724,-0.7695137! 0.0,1.9788122,2.0031605,1.6897285,-0.09937146,-0.1422579,2.3846896! 0.0,-1.9378914,-0.42102075,-0.8997068,3.7144828,-0.49482232,4.030492! #0.0,-0.13386104,0.4974003,0.6231502,0.43408787! 0.0,-0.041866694,-0.029648423,3.630075,1.7458638! 
0.0,-0.20620893,3.4795866,-2.9866269,-3.0611212,-1.2438676,-2.1689553! 0.0,3.4789083,-0.01436412,2.1341844,-1.4054362,-0.7832525,-0.7868598! 0.0,1.9752592,-1.827415,0.59851754,-2.9818034,-0.1422579,0.93485284! 0.0,1.3702677,1.706084,2.2412968,-0.124339074,2.191443,4.030492! #0.0,-0.17639509,0.4482819,0.60477924,0.020311832! 0.0,0.050099403,0.03161259,-1.3448781,-0.0866597! 
0.0,1.8601606,-0.13605194,-2.4399357,0.9514003,-3.2613506,-2.1721754! 0.0,-1.6545429,0.16333139,1.3711772,3.633541,2.503985,-0.6673665! 0.0,3.1069846,3.2485092,1.6588875,3.1347356,-2.2115855,2.0194185! 0.0,-1.8950591,-0.36855456,-2.9103408,2.80295,-0.49281445,-2.2264705! #0.0,1.2080188,0.3902244,0.7437738,-1.9713688! 0.0,0.045012474,1.9407301,-0.9404712,-0.12755579! 
0.0,-0.11123605,-0.09972454,-1.6363628,-0.02480689,-0.36168802,-2.0577476! 0.0,2.1675823,0.16333139,2.1508002,0.29996708,-0.074018046,-0.63890904! 0.0,0.43049216,-2.510216,1.6881787,-3.176626,3.4646068,0.06959383! 0.0,0.59853303,1.9839168,-0.53777504,-0.1558815,3.5721745,-0.4013164! #0.0,-0.19689602,0.4231237,0.7437738,-0.2500076! 0.0,0.025263619,-0.36452177,2.8428178,-0.09322041! 
0.0,-0.14695713,3.4795866,0.71483004,0.021286793,-0.24604511,0.44557604! 0.0,3.3874502,0.14913863,2.1745124,-1.3496119,0.0025638267,-0.47044837! 0.0,2.7053876,-1.7617412,-0.85736656,-3.1177285,-2.2243435,-3.9344783! 0.0,-0.55651987,1.6588247,-0.8983755,-2.7507024,0.7514586,0.9257793! #0.0,-0.087064356,0.4584868,0.63410604,-0.2712111! 0.0,0.050099403,0.07048602,2.75216,3.0019643! 
0.0,-0.16075547,-0.031933878,-2.196851,-3.0451777,-0.31791675,3.1407824! 0.0,2.3289459,0.23641019,0.41466156,2.5199983,-0.03557664,-0.60582066! 0.0,0.027772035,3.7318232,-0.94734806,-3.1781385,2.6160488,-2.2537417! 0.0,1.388852,1.645043,-0.5977271,3.7619655,-0.48182547,4.006561! #0.0,-0.2106842,0.38803944,0.17926332,-0.32063386! 0.0,-0.08469576,0.043645076,1.2333106,-0.1782087! 
0.0,-0.04845524,-0.15318492,0.71483004,1.9305863,-1.2199885,-3.9691133! 0.0,3.4799678,-0.10149054,1.9893413,0.2725634,-2.954572,-0.66761! 0.0,1.9870937,-1.8066754,1.695024,-2.3485363,-2.1904604,2.4346867! 0.0,3.697949,-0.32437477,2.2426338,-2.787833,-0.3764694,-0.3165474! #0.0,-0.20497473,0.4761741,0.14633122,0.42691085! 0.0,0.0800001,0.0083890855,2.7881155,2.933049! 
0.0,0.5819312,0.60434085,0.99937016,0.727538,-2.1041844,3.1493! 0.0,3.4377244,0.19945714,2.1341844,-1.3592077,-2.2561293,2.1964931! 0.0,-0.24485724,-0.5806757,0.56369466,-0.030198697,3.4757528,2.3781633! 0.0,1.4029813,-0.41525117,-0.5977271,-0.124339074,-0.48957822,-1.3916229! #0.0,-0.11545174,0.4400074,0.62163997,-0.16212875! 0.0,0.048939288,-0.008734234,-1.3618686,0.8142305! 
0.0,0.5849097,-0.10530001,-3.9856744,0.7670942,-2.2800274,3.1407824! 0.0,3.4377244,0.31139937,-0.97853947,-2.8552866,-3.6695807,-0.6959587! 0.0,2.2732449,3.6551166,-0.9304361,-0.031684607,-1.1208134,2.3497195! 0.0,1.4368092,-0.9402186,2.2321424,3.7619655,0.7558276,-0.37948748! #0.0,-0.14623421,0.5205236,0.17926332,1.8132344! 0.0,-0.041866694,0.09492246,2.8241684,-1.5832406! 
0.0,-0.10209624,-3.3632677,1.7543418,-3.0611212,-0.3934642,-2.1721754! 0.0,2.0907156,0.23641019,-0.7276596,2.4217074,-0.6682099,-0.417428! 0.0,2.3399994,3.6907678,-0.8107525,-0.11491066,-2.8745077,2.4888294! 0.0,1.4368092,1.6019535,-0.58121634,-0.17099914,-0.3764694,-2.530359! #0.0,-0.20497473,0.4761741,-2.1966915,1.88716! 0.0,-0.12349711,0.09679801,2.7480361,1.7708036! 
0.0,0.38103437,-3.2164912,1.7995539,2.313521,-1.675911,-1.1290598! 0.0,0.2696824,-0.03772142,1.4263692,1.907026,0.028133392,-3.4296203! 0.0,2.3399994,3.6907678,-2.6090508,-0.04071474,3.52394,2.9252977! 0.0,0.34742308,2.101439,-3.894034,-1.9007282,1.0555639,-3.5311832! #0.0,-3.9194138,-1.7501183,-2.5516768,-3.792995! 0.0,-0.046376158,-1.7918139,-1.4105325,3.8807979! 
0.0,0.6206034,-2.6764324,0.7963691,1.9701046,-0.24001397,-2.1921031! 0.0,0.4431601,0.23641019,2.9481347,1.8299581,0.051794983,-0.6959587! 0.0,2.0513952,3.2494366,-0.7979852,0.016881391,-2.8718877,3.0245366! 0.0,1.4407045,-0.39310688,-0.56361246,-0.16115847,-0.045869507,-2.530359! #0.0,-0.1848859,0.49310663,-0.32685798,0.36144248! 0.0,-0.080553785,0.10858624,-1.3618686,0.73187447! 
0.0,-0.14695713,0.027796086,-2.196851,0.76737094,-0.24604511,0.62634933! 0.0,3.4363225,0.23641019,-2.9264035,2.3975046,-0.03557664,-0.42060727! 0.0,2.0652523,-0.7450222,1.6881787,-3.176626,-2.2322383,2.3879433! 0.0,-0.5701224,1.3437972,2.230452,-2.6149766,-0.06380824,3.9948342! #0.0,-0.2106842,0.54147357,0.9118538,1.8051631! 0.0,-0.041866694,-0.04371205,2.8450737,-0.044912446! 
0.0,-1.216699,-0.10582636,-3.189703,-0.041091006,-1.595028,-2.1689553! 0.0,3.81812,0.20142011,0.3985402,1.8417802,-1.2996567,-0.3046814! 0.0,2.0187197,-1.7398703,1.791547,-0.10921164,2.6438465,2.0283346! 0.0,-0.0133486055,1.3437972,-0.5977271,3.4220638,2.191443,-2.5248425! #0.0,-0.15326232,0.4996016,-0.3101543,0.34022897! 0.0,-0.082111605,0.0064873435,2.800161,0.68187356! 
0.0,-0.2104984,-0.09512545,0.7963691,1.9306626,0.8156773,-3.9561884! 0.0,3.4377244,-0.0137183,2.1341844,1.8758931,-0.639251,-0.6410865! 0.0,2.3616645,-2.4695137,1.6744472,3.148572,-2.8044558,1.9954096! 0.0,3.6922343,-0.4337417,-0.904755,2.8509028,-0.39304617,2.998838! #0.0,0.18421078,0.44892415,-1.5992198,1.9388785! 0.0,0.0117825195,0.36054564,-2.3410265,-1.6872598! 
0.0,-0.07348342,2.9219944,-2.9311523,1.8127428,-1.2438676,-1.242733! 0.0,2.1510677,0.13453981,0.41595063,0.26344934,-3.5737715,-0.7183754! 0.0,2.2599082,2.0032682,-0.81810653,-3.1216702,-1.3546356,3.0656216! 0.0,1.3788458,-3.1224651,2.232796,-0.20324391,-2.909475,4.0148864! #0.0,-0.16848616,0.49987793,0.62163997,0.4384036! 0.0,0.07856975,0.07868031,-1.6051637,0.71740216! 
0.0,1.8087139,-3.3545809,-3.0352113,-0.037353016,-0.34542462,3.2567794! 0.0,0.99511445,0.19945714,2.0686145,-1.4766388,-0.1217913,-0.6959587! 0.0,-0.24485724,-0.5806757,-1.4677706,-0.11491066,-2.8745077,2.9721045! 0.0,1.3793871,-0.41525117,-0.5977271,-2.566627,-0.48957822,-0.34834212! #0.0,-0.16023476,0.4400074,0.62163997,2.9095447! 0.0,-0.08226986,0.37444702,2.7755532,-1.6168635! 
0.0,-0.36987114,1.7084035,2.9580784,0.7392328,-3.842144,3.2109077! 0.0,2.3537421,-0.03772142,2.1341844,-1.0718055,-0.027881924,-0.6824378! 0.0,1.9870937,-0.77093303,-0.838236,-0.0106813125,-0.09614611,2.976597! 0.0,-2.4369333,0.6264637,2.230452,3.7619655,-0.01588476,-2.5233598! #0.0,0.21544163,0.45052162,-1.6470451,0.020311832! 0.0,-0.084886804,0.042601414,-1.4389421,-1.6319355! 
0.0,-0.16075547,-0.08034419,-2.9638608,0.7661325,0.8957928,3.2109077! 0.0,3.9122176,0.2113922,2.1341844,0.2725634,0.0025638267,-0.60582066! 0.0,2.6593702,-1.6936522,1.6525422,3.5297174,-2.2243435,2.4816458! 0.0,1.4115367,1.4191281,3.7956874,-0.1558815,0.0071955994,2.8101792! #0.0,-0.20497473,0.403774,0.6644002,1.8703594! 0.0,0.070931144,-0.03086591,1.2825395,-0.051360544! 
0.0,1.7690797,3.4795866,-3.157612,2.313521,-0.3934642,-2.0613883! 0.0,2.25823,-0.07964179,2.1508002,-1.1426225,-1.3517238,2.1964931! 0.0,2.33576,-3.1143084,1.7919289,-2.9342403,0.9623904,2.4090502! 0.0,-1.0105422,-0.40214077,-3.3163862,-2.662253,-3.2367449,-0.36990005! #0.0,-0.1273733,0.4747333,-3.1607828,-3.792995! 0.0,-1.0482588,2.6778145,-3.0154803,-1.6332006! 
0.0,-0.16075547,3.4415004,-2.962202,0.7661325,-2.2800274,3.2109077! 0.0,3.7537045,-0.092965655,1.2440195,1.8583862,-1.2590656,-0.7183754! 0.0,-0.1782093,-0.77093303,-0.81810653,-3.1216702,-0.08030065,1.9824433! 0.0,1.2706605,1.6468703,2.2321424,-2.6248558,-2.9380543,4.004202! #0.0,-0.19211857,0.54428715,-0.3101543,3.8949456! 0.0,-0.14486355,-6.4319745E-4,-1.4417286,0.7419472! 
0.0,-0.04196443,-3.3632677,-3.1925788,-3.0611212,-0.34542462,-2.1721754! 0.0,2.1299613,0.13096261,0.5081853,1.1781998,-0.6441675,-0.6969726! 0.0,-0.62855136,-0.8049784,-0.85736656,-0.07077558,-2.8745077,2.4121215! 0.0,-0.6190857,-0.9402186,-0.89885426,-0.17099914,-0.08453101,-0.39639223! #0.0,-0.083724536,0.45636582,0.62073857,1.88716! 0.0,-0.08226986,-0.06469749,2.7480361,0.77480096! 
0.0,0.024215605,0.027796086,0.7608558,-0.44203743,-0.39469677,-1.3106573! 0.0,3.7388263,-0.092965655,1.3210187,-0.29556248,-3.536623,-0.36494464! 0.0,2.3461277,3.7034547,-2.4672363,0.0053038895,-2.1990407,2.0727766! 0.0,1.4147276,-0.90710783,2.232796,-0.17021704,-0.39304617,-0.3852648! #0.0,0.17279574,0.50797784,-2.2107348,0.41459122! 0.0,-0.063116,0.07468772,-1.3618686,-0.0010312311! 
0.0,-0.20620893,-3.3857455,-1.6720748,-3.0611212,2.1540437,-2.1721754! 0.0,1.0288216,-0.1371213,2.1663027,-0.3558392,0.051794983,-0.63802326! 0.0,2.368536,1.9127973,1.6146426,-2.93405,-0.1422579,-1.9352409! 0.0,1.7851176,1.6588247,2.2412968,-2.801517,-0.50475395,-0.39639223! #0.0,-0.14370774,0.4304793,0.6230519,0.098373495! 0.0,-0.039644543,0.035116263,1.0595877,-0.07888024! 
0.0,-0.07348342,-0.08034419,-2.9694805,1.9305863,-3.842144,-3.9691133! 0.0,3.9122176,0.23641019,1.9893413,-1.0955397,-2.9455748,-0.6824378! 0.0,1.9870937,3.7318232,-0.77290815,-3.139286,-2.2691293,2.3846896! 0.0,1.4201545,1.6419681,2.2602577,-2.787833,3.4392478,-0.3102604! #0.0,-0.22889858,0.45569062,3.513116,1.8132344! 0.0,0.070931144,-0.008734234,2.8091958,-0.073019! 
0.0,2.6938114,-2.5549862,-2.9811065,-0.8701148,-3.8276305,-1.9398551! 0.0,1.9554335,-0.04389143,2.1861243,-2.532134,-0.6020077,0.55729485! 0.0,0.4327029,-1.899282,-2.4672363,-2.3117886,-0.03963709,3.9974089! 0.0,-2.4124646,-1.9026551,-0.8983755,-0.20142856,-0.49281445,-0.59615993! #0.0,-0.23231737,-1.8592739,0.14633122,-0.16320267! 0.0,-3.5509815,-0.09763479,2.8439653,-2.7749524! 
0.0,-1.298799,1.7389926,-3.9856744,-3.0765212,0.78798336,3.2109077! 0.0,3.4377244,0.16566536,0.3593737,1.8647348,-3.882272,-0.34678292! 0.0,0.18298301,-2.9682505,1.6578844,-0.062385995,3.5997708,3.0064623! 0.0,-1.9061073,-0.4692749,-0.5977271,2.8076136,-0.12681296,-0.37948748! #0.0,-0.18217757,0.53283256,0.17926332,1.8132344! 0.0,0.039695434,0.09080556,-2.3410265,-0.08519946! 
0.0,0.62158865,-0.10539891,-3.909499,-3.198274,-1.5981554,-2.1652954! 0.0,1.0127763,-0.0013035536,1.3210187,1.1601473,-0.10149403,-0.64521784! 0.0,2.0652523,3.322107,-2.5250556,-1.8813295,2.6438465,-2.191801! 0.0,1.4029813,1.3437972,2.2220106,-2.566627,-0.10022741,0.9814796! #0.0,-0.18013059,0.45636582,0.17926332,3.9086952! 0.0,-0.041866694,0.10858624,-1.720975,-0.15619926! 
0.0,0.10319805,-3.6990867,-2.9311523,2.9957728,-1.2032313,3.1407824! 0.0,0.48726273,-0.026142597,0.3839232,0.24080515,1.8182521,-0.45661336! 0.0,2.254613,-0.7450222,1.791547,0.4467616,1.2849522,-1.9352409! 0.0,1.4147276,0.28535652,2.232796,-2.8213463,-0.10022741,4.0148864! #0.0,0.39071608,0.49972185,-1.6348314,3.8949456! 0.0,0.014121845,2.7172103,2.0591125,-0.09725809! 
0.0,0.26917157,-0.085110515,2.9580784,0.7392328,-3.842144,-2.200928! 0.0,2.3537421,-0.03772142,0.45536926,1.882455,-0.7832525,-0.42060727! 0.0,1.9870937,-2.4576478,-0.838236,3.1435997,-0.09454688,2.9594796! 0.0,-2.4369333,1.6741128,2.230452,3.7619655,-2.9380543,3.9948342! #0.0,0.15118414,0.54147357,-1.5992198,1.8051631! 0.0,-0.084886804,-0.055286355,-2.3390317,-1.6319355! 
0.0,-0.22924943,3.4795866,0.7659006,1.9305863,-1.5588808,3.1627042! 0.0,1.0127763,-0.081623994,2.1341844,-1.0955397,-3.5703661,-0.3923397! 0.0,2.3570218,-3.4502077,1.6897285,-3.1149335,-0.110000186,0.0060825273! 0.0,-2.4369333,1.3632287,-0.97465396,-2.7414272,3.4392478,4.030492! #0.0,-0.1343411,0.48552763,0.17926332,3.9236605! 0.0,0.07516684,0.1978042,-1.6398884,-0.09322041! 
0.0,-0.19581652,-3.695499,0.80141485,-3.0611212,1.7453206,0.43245316! 0.0,3.2847142,-1.7518787,-2.620194,-3.1290512,-2.3014112,-0.7695137! 0.0,3.5510335,2.042705,-2.0005054,-0.16030413,0.5863352,2.8166428! 0.0,-3.0777893,-0.36158013,-3.3828812,-0.29150057,-0.49482232,1.471118! #0.0,-3.6942105,1.884974,0.17926332,0.7191572! 0.0,-0.041866694,-2.724886,3.6338503,2.713377! 
0.0,-0.11123605,-0.09972454,3.0150068,-0.02480689,-0.34542462,3.1407824! 0.0,2.2121916,0.21313602,0.4488353,0.29996708,-2.2718143,-0.63890904! 0.0,0.027777664,-1.7398703,-0.80193365,3.239772,2.6710327,2.4535909! 0.0,-1.9637386,-0.40100732,2.2374344,-2.566627,3.5721745,4.029843! #0.0,-0.087064356,0.4231237,0.7437738,-0.2500076! 0.0,0.070931144,-0.36452177,2.899827,-2.4820616! 
0.0,-0.14703202,1.7084035,0.79083204,2.6915476,-3.8112953,3.3229878! 0.0,1.0487065,-0.0026664436,0.3593737,-1.0955397,-1.3185215,-0.34678292! 0.0,2.3193665,-2.9682505,1.6991165,-0.05827146,3.5997708,2.3846896! 0.0,-1.8386959,-1.6720744,3.790539,2.8076136,-0.12681296,-0.37784714! #0.0,-0.16023476,0.35955834,0.17926332,1.8132344! 0.0,0.039695434,0.15535773,1.0458399,0.77480096! 
0.0,-1.1405859,-0.09512545,-2.9311523,-3.0451777,-0.32537174,3.1627042! 0.0,0.97883266,-0.029841524,1.2663339,-1.3253059,-3.6583204,-0.665446! 0.0,0.4327029,-2.4746304,1.8193694,-1.8813295,-0.068510234,2.4555552! 0.0,-1.9088244,-0.35749888,-0.8983755,-0.20259756,-0.37255555,-0.37472743! #0.0,-0.23443529,0.43395418,0.7645952,-0.1906092! 0.0,-0.046376158,0.09452791,-1.4105325,-1.5832406! 
0.0,-1.244844,-2.718937,0.74822164,1.9527359,-1.6507297,3.330786! 0.0,2.078411,-0.028300509,0.41595063,-1.0728066,-1.252291,-0.3408652! 0.0,2.3461277,1.9418437,1.836511,-2.583339,-2.2243435,2.4175282! 0.0,-1.4753902,1.3437972,-0.4789113,-0.20350091,3.4737296,-1.6506087! #0.0,-0.18217757,0.49310663,-1.6111188,-0.3162065! 0.0,-0.10088644,0.114696845,-1.6051637,0.7851782! 
0.0,0.62158865,-0.09285861,1.5895032,0.031779215,-2.2800274,-2.1921031! 0.0,0.40570378,0.1470487,0.4118097,1.840315,-1.284477,-0.6490584! 0.0,0.06656554,-0.77093303,1.725732,-0.0106813125,-2.2162156,2.0530934! 0.0,0.5880948,1.6437436,-0.87848336,3.795283,-0.01588476,4.030492! #0.0,-0.19689602,0.46920604,-0.3101543,-0.2167489! 0.0,0.1076914,-0.03304848,2.8168693,-0.044912446! 
0.0,-1.2744186,-0.08034419,-3.1522064,-3.0375924,-1.5981554,3.1627042! 0.0,0.4431601,-0.01436412,2.1341844,2.3866723,-3.5737715,-0.36196157! 0.0,2.2863326,-1.827415,-0.8107525,-2.9342403,-2.2056348,2.0194185! 0.0,1.4029813,1.706084,-0.9004311,-0.13318507,-0.06380824,-1.4013326! #0.0,-0.15748543,0.403774,0.58479017,0.020311832! 0.0,-0.21644755,0.018784951,2.8747327,0.7419472! 
0.0,-0.155072,2.040917,1.698811,-3.198274,-0.28770828,-2.1519156! 0.0,3.8580313,0.21038911,-3.3759856,1.7954621,0.2777996,-0.80388814! 0.0,0.18298301,1.5435958,1.791547,3.9511962,-2.2243435,2.9423776! 0.0,0.0686845,-2.7723236,2.2719994,-0.1558815,3.961482,-1.9046321! #0.0,-0.14370774,1.0283132,0.63410604,3.9086952! 0.0,0.80024815,-0.76746887,-2.3785062,-1.6318023! 
0.0,-0.052207153,-0.08034419,0.71483004,-3.470254,-1.595028,-2.1590154! 0.0,2.0043647,-0.01436412,1.3525513,-1.8371087,-0.0763835,-0.7771988! 0.0,0.22236916,-0.699422,-3.922993,-1.6187159,-2.2021987,2.4058523! 0.0,3.697949,-0.4779671,2.2345734,-0.15696985,-0.051879715,-2.5248425! #0.0,-0.14370774,0.4304793,0.17926332,0.2697243! 0.0,-0.06933424,0.02616939,-1.3877279,-2.3902876! 
0.0,-0.07511522,3.1615372,2.1136987,0.7670942,-0.21157898,3.2109077! 0.0,3.8120968,0.19613779,2.1341844,-1.0728066,-0.030238647,-0.6729285! 0.0,3.5227072,-2.4992936,-0.8157198,-3.176626,-2.8044558,-2.191801! 0.0,1.4029813,-0.40214077,2.2321424,-0.16041587,-0.50475395,2.8101792! #0.0,-0.17639509,0.403774,0.14633122,1.8051631! 0.0,0.0037546605,-0.08635532,2.8104637,0.71892023! 
0.0,-2.2621512,1.7437989,-2.962253,0.017855305,2.1540437,-2.1721754! 0.0,3.7924893,0.16333139,1.9645445,1.8255467,-0.12995724,-0.3046814! 0.0,2.368536,-3.4502077,1.6897285,-2.5780315,1.9662461,-1.9352409! 0.0,1.7851176,-0.42804244,-0.97465396,3.7965336,-0.3764694,-0.39639223! #0.0,-0.14370774,0.47756475,0.6231502,0.098373495! 0.0,-0.039644543,0.0083890855,-1.3618686,-1.6065943! 
0.0,-2.8776197,-0.1341258,1.0074015,1.9305863,-0.24604511,-2.2348554! 0.0,2.165309,0.16566536,1.2440195,1.9878294,0.0025638267,-0.5839663! 0.0,0.06852332,-3.4502077,1.6991165,3.1681445,2.623797,-0.068165064! 0.0,0.62429196,1.6707046,2.232796,-2.59937,-0.39304617,3.9834023! #0.0,-0.14370774,0.49061066,0.6302736,-0.1610107! 0.0,0.019222576,-0.04371205,2.8399177,-0.0027689934! 
0.0,-1.1802413,1.7498267,-1.6271682,0.7392328,-2.2117069,3.2744088! 0.0,2.049835,-0.029841524,2.1431587,-1.3963578,-1.3090618,-0.6805091! 0.0,2.3319955,-2.8824587,1.8175844,-2.9786158,-2.2517924,3.0245366! 0.0,-0.4869113,-0.40214077,3.4751558,3.7144828,-0.047037557,-0.36990005! #0.0,-1.6919594,0.36801994,0.17926332,2.475128! 0.0,-0.006067045,0.06692346,-0.08974772,-1.5899749! 
0.0,-0.14695713,-3.3768399,0.7963691,-0.050280135,-0.02431244,3.1892045! 0.0,2.157916,-0.091050774,-2.4020247,-0.3558392,-3.6831808,-0.7868598! 0.0,2.3570218,-3.4502077,1.725732,0.019802615,-2.180913,2.4555552! 0.0,-2.4187074,-0.40100732,-0.97465396,-0.1558815,3.5997536,-2.4928012! #0.0,-0.20497473,0.36801994,0.60477924,0.020311832! 0.0,0.009727236,0.051032968,-1.3380629,-0.09322041! 
0.0,-0.16075547,-2.6764324,-1.6363628,-3.007146,-2.1836445,3.1407824! 0.0,2.2166972,0.1696305,0.4488353,1.8758931,-2.2718143,-0.5558164! 0.0,0.69872963,-1.7434367,0.03947015,3.1599302,3.3927436,1.9930714! 0.0,-0.2813528,-0.36900774,2.2345734,-0.1558815,-0.3764694,-2.5509737! #0.0,0.18421078,0.4029566,-2.288814,-0.1951855! 0.0,-0.15103227,0.10890505,2.8777804,-1.5300459! 
0.0,3.8717966,1.7084035,-0.53059953,-3.385367,-3.8838124,2.848621! 0.0,1.0127763,0.14664526,2.0338376,0.26344934,-1.2906694,-0.3983226! 0.0,2.3402786,-1.7398703,-3.3599086,1.1194596,1.6417613,3.2489743! 0.0,-2.4187074,0.77753067,-0.9004311,2.747221,-3.734568,-0.38524526! #0.0,-0.04687977,0.4231237,-1.8931701,2.793994! 0.0,2.712017,-0.14557339,2.799698,-1.5259849! 
0.0,-0.16075547,-0.085110515,-2.9653714,-0.124342605,-3.8235247,3.1407824! 0.0,3.490976,-0.078043185,0.4764784,2.0383024,-0.12693581,-0.36494464! 0.0,2.3489847,-2.4085445,1.664307,-3.139286,-1.6931413,3.0245366! 0.0,1.31368,-0.40214077,-0.97465396,-2.6248558,-0.39919797,3.0407503! #0.0,-0.20524037,0.50797784,-1.5778341,3.9086952! 0.0,-0.041866694,-0.09956707,2.8147047,0.7419472! 
0.0,-2.9840846,3.4710572,3.0150068,1.9305863,-0.41403636,3.4841049! 0.0,1.0518312,-0.07878339,-2.7158208,1.984886,-3.5703661,-0.7885313! 0.0,0.012161344,3.2485092,1.6697001,-3.139286,-2.1993954,-2.2255225! 0.0,3.0094478,-0.41686633,-0.4758769,0.048678696,-2.9380543,-0.4013164! #0.0,-0.19689602,0.3473,0.0686392,1.8132344! 0.0,-0.097878195,0.089448825,2.8807974,-1.5832406! 
0.0,-3.463734,-0.09575819,-2.938093,0.05479831,-1.6775008,-2.1921031! 0.0,2.0907156,0.13453981,1.3210187,1.1781998,-3.6896343,-0.6959587! 0.0,2.253396,3.2494366,-0.7979852,-2.9688604,-2.7745402,3.0245366! 0.0,1.4407045,-0.39310688,-0.56361246,-2.566627,-0.5322202,-2.5234861! #0.0,-0.1848859,0.54843414,-2.2107348,0.36144248! 0.0,-0.064463586,0.07868031,3.632726,-0.051360544! 
0.0,1.8087139,-3.3632677,-2.196851,-3.0451777,-0.34542462,-2.0577476! 0.0,3.3874502,-0.01436412,0.5081853,-2.3413951,-0.03557664,-0.72192967! 0.0,0.06656554,-0.07930066,-1.4767585,-3.176626,-2.8745077,2.3846896! 0.0,-2.3767319,1.6524713,-0.9146912,2.8480582,-0.15582944,3.9357498! #0.0,-0.20537446,0.49310663,0.14633122,-0.32063386! 0.0,-0.08226986,0.37444702,-1.3618686,-0.07923783! 
0.0,-0.04812588,-0.085110515,1.7543418,0.7392328,-0.21157898,3.2109077! 0.0,3.8120968,0.19613779,2.1341844,1.8299581,-0.030238647,-0.42060727! 0.0,2.2984533,-3.4502077,-0.8107525,3.1435997,-3.9197686,2.126646! 0.0,1.8279071,-0.44178024,2.2321424,-0.16041587,-0.01588476,-2.530359! #0.0,-0.20497473,0.49310663,-2.1966915,0.40798193! 0.0,-0.12349711,-0.07267812,-1.3618686,0.7884667! 
0.0,0.24503835,3.1865559,-1.6190256,-0.07240093,-3.842144,-3.9691133! 0.0,2.3537421,-0.075956285,2.0317454,1.882455,-0.7832525,-0.6026814! 0.0,1.9870937,-1.7398703,-0.838236,-2.610946,-0.051225144,2.976597! 0.0,1.4001127,1.6741128,2.230452,-0.04918537,-2.9380543,2.984594! #0.0,-0.20497473,0.39410573,-1.6470451,0.020311832! 0.0,-0.084886804,0.042601414,-2.3390317,0.006403558! 
0.0,0.26917157,-0.07690361,1.6363505,-0.3916545,-2.2052188,3.1405764! 0.0,2.1231368,-0.05332059,1.2611688,-2.3413951,-2.9930186,-0.42060727! 0.0,2.345529,1.9483442,1.6695403,0.015315674,-2.2568111,2.9734507! 0.0,-1.8386959,1.6741128,-0.85547626,-0.15980843,-0.35500574,3.985044! #0.0,0.20145015,0.42763415,-1.6718178,-0.25181112! 0.0,-0.07630956,-0.08716388,-1.3618686,1.7024198! 
0.0,-0.16075547,-0.039343555,0.66991794,0.70332706,-0.24001397,-2.1921031! 0.0,3.9122176,0.2113922,2.9237,1.8299581,-2.9182494,-0.3460807! 0.0,2.3329117,-1.693065,-0.8107525,3.09792,-2.2243435,2.4816458! 0.0,1.4368092,1.6419681,-0.5238462,-0.16076224,-2.91495,-2.530359! #0.0,-0.09405573,0.40026307,-2.1966915,1.8387572! 0.0,-0.12349711,0.09679801,-1.3618686,-1.669332! 
0.0,-0.20620893,0.60434085,0.75227386,1.9568565,-2.1234996,-2.0613883! 0.0,2.25823,0.28637883,2.1221373,-2.3413951,-3.6831808,-0.7695137! 0.0,2.707726,-1.7617412,1.6695403,-2.9342403,2.623797,2.4346867! 0.0,-1.482801,1.7130672,0.7086298,-0.124339074,-0.39304617,2.998838! #0.0,-0.11545174,0.4172955,-2.3445425,1.8132344! 0.0,-0.21644755,-0.017634679,-1.3618686,-1.6332006! 
0.0,-0.16075547,-0.085110515,-2.962253,1.9776986,-0.31791675,3.1407824! 0.0,1.9630563,0.23641019,0.41466156,1.9059281,-2.9455748,-0.42060727! 0.0,2.0280116,-0.7450222,-0.9304361,-3.1781385,-2.7868996,0.04150048! 0.0,1.4445833,1.3437972,2.230452,3.7619655,-0.06380824,-0.37948748! #0.0,-0.24975406,0.54147357,-1.5992198,1.7925514! 0.0,-0.041866694,-0.055286355,2.8091958,-0.1782087! 
0.0,-0.16419536,1.7084035,1.6970916,0.017855305,-0.24604511,-2.0577476! 0.0,2.1299613,0.18596508,1.9887428,2.3866723,0.0025638267,-0.40669882! 0.0,2.6593702,-1.7765975,1.7400444,-3.1012945,-2.2576234,2.0283346! 0.0,1.4029813,1.4191281,-0.89885426,-0.1558815,3.44355,2.8101792! #0.0,-0.17639509,0.403774,0.7207989,1.8559537! 0.0,-0.07236691,0.07729621,2.8450737,2.9771576! 
0.0,-0.04196443,1.7498267,-3.1925788,0.75436705,0.83990395,-3.9475455! 0.0,2.1299613,0.109895796,0.3985402,2.3866723,-1.2996567,-0.70635706! 0.0,2.6593702,3.2332082,-0.85736656,-2.9342403,-1.706525,2.009934! 0.0,1.3500313,-0.40214077,-0.89885426,-0.1558815,3.469661,2.8101792! #0.0,-0.1634188,0.45636582,0.17926332,-0.26598823! 0.0,-0.034457352,0.10087487,2.8104637,0.67177635! 
0.0,-1.2744186,0.62149495,1.7080743,0.017855305,-3.844833,-3.9395397! 0.0,2.110311,0.31139937,1.9894116,-1.0856782,-1.3125796,-0.40669882! 0.0,2.3196971,1.9418437,1.6836865,-0.11549206,-2.2576234,0.06959383! 0.0,1.4090066,1.706084,-0.90586835,2.8509028,-0.39601877,-2.5022492! #0.0,-0.19009227,0.403774,0.6362172,-0.16212875! 0.0,0.025263619,-0.085751146,1.2333106,-0.15619926! 
0.0,-0.04196443,-0.08034419,-2.196851,-3.0451777,-3.8708172,3.1627042! 0.0,2.3289459,-0.0137183,-2.9264035,2.4955065,-3.9631548,-0.60582066! 0.0,0.015045825,3.2332082,0.024773423,-3.176626,1.9135624,-2.2252884! 0.0,-1.8982948,-1.6981051,-0.8585408,-3.0067253,-0.48182547,2.9568253! #0.0,-0.19689602,0.46493262,0.21795885,1.9379042! 0.0,0.01913302,0.10087487,1.2333106,2.7890682! 
0.0,-0.11123605,-0.09972454,2.1157763,0.010472409,-0.34542462,-2.1689553! 0.0,3.4568048,0.12691584,0.41768575,-1.0955397,-3.882272,-0.63890904! 0.0,3.555636,-2.510216,1.791547,-2.4505453,-2.28376,2.4129875! 0.0,1.3613681,1.3437972,-0.53777504,-0.124339074,3.5721745,-0.4013164! #0.0,-0.087064356,0.4231237,0.7437738,-0.2500076! 0.0,0.070931144,-0.36452177,2.8399177,-0.09322041! 
0.0,-0.155072,-0.10539891,1.7312142,-0.06673865,-1.6377212,3.2298405! 0.0,-1.1307836,0.11095505,-2.4020247,-3.793676,-3.6583204,-3.707605! 0.0,-1.8774033,-0.77093303,1.7240936,3.105045,-2.2061596,0.015366375! 0.0,1.4469972,-0.43645677,2.1852994,-2.5813236,-0.047037557,-3.8712893! #0.0,-0.104738474,0.43649188,-1.929774,2.475128! 0.0,0.0723325,0.07468772,-1.720975,-0.18337396! 
0.0,-0.119157895,0.5774274,1.6970916,0.029140133,-3.7942784,-2.0577476! 0.0,1.0127763,-0.01436412,1.9633574,-2.3568296,-0.12995724,-0.3046814! 0.0,2.3196971,1.9418437,1.6897285,-3.1388142,-2.2021987,0.04150048! 0.0,-0.58233356,-0.32437477,-0.90586835,2.8509028,-0.3921166,-2.4958663! #0.0,-0.17639509,0.403774,0.6231502,-0.21197373! 0.0,0.10154672,0.17932373,-1.3618686,0.7572456! 
0.0,-0.10209624,-0.10539891,-3.1650167,1.9305863,-0.36428058,3.1141896! 0.0,3.4789083,0.14027624,2.1341844,-1.0464996,-0.7832525,-0.4409855! 0.0,3.3471687,-3.4502077,0.59851754,-2.9342403,-2.2517924,0.06959383! 0.0,1.4029813,1.3437972,-0.9004311,3.394104,2.191443,3.9817758! #0.0,-0.17639509,0.403774,0.17926332,0.020311832! 0.0,0.034616858,0.018784951,-1.6364949,-0.02789409! 
0.0,2.971367,-0.10239108,-2.9811065,-0.06673865,-0.31795374,3.2029421! 0.0,3.4984648,0.16333139,0.45536926,-2.3568296,-3.6878161,-0.34129766! 0.0,0.18298301,3.2485092,1.725732,3.1353545,-2.2210023,3.0016909! 0.0,-1.9088244,-0.3347961,-0.8983755,-0.17099914,-0.047037557,-0.36990005! #0.0,-0.17639509,0.39999163,2.6642842,1.7778326! 0.0,0.047392137,0.09452791,2.8450737,-0.12755579! 
0.0,-0.16075547,3.4604266,-2.9873378,1.9305863,-3.8671286,-3.9691133! 0.0,3.473926,0.18431386,1.2440195,-1.0955397,-1.2751307,-0.6824378! 0.0,1.9870937,-1.8255441,-0.81810653,-3.139286,-2.2162156,2.4346867! 0.0,-2.4369333,-0.44347724,-0.5327854,-2.787833,3.4392478,4.030492! #0.0,-0.19211857,0.45569062,0.16165479,1.8387572! 0.0,0.03243725,0.0083890855,-1.6398884,-0.118905276! 
0.0,-1.2744186,3.1615372,0.7492185,0.75436705,-0.21157898,-1.8470855! 0.0,3.8120968,-0.07964179,2.1341844,-1.1045874,-0.030238647,-0.7486146! 0.0,2.1026795,3.7398813,-0.8157198,-2.51461,-3.9201775,-2.191801! 0.0,1.4312913,1.6524713,2.2321424,-2.571763,-0.47966403,2.8562317! #0.0,0.16072688,0.49310663,0.1881603,-0.24514416! 0.0,0.070931144,-0.026618477,2.8168693,0.7884667! 
0.0,-0.16075547,-0.08034419,0.71483004,0.7655721,-0.41403636,-2.1921031! 0.0,0.40570378,0.0427709,2.150934,-2.2627766,-3.6620493,-0.36196157! 0.0,2.3399994,1.9621053,1.6697001,-2.9804158,-1.3696406,2.0530934! 0.0,-1.0105422,-0.41791388,3.7442856,3.7619655,-0.4573437,-0.40192476! #0.0,-0.1885084,0.47993243,-1.6111188,0.40798193! 0.0,-0.10283986,0.14454925,2.8807974,-1.6332006! 
0.0,-0.16075547,-0.08034419,1.5761284,0.7661325,-2.2052188,3.3005054! 0.0,3.933627,0.19613779,2.1341844,1.1781998,-2.9182494,-0.42060727! 0.0,0.02455796,-1.693065,1.6525422,-3.100145,-2.2407365,-3.8123806! 0.0,-1.9088244,1.6419681,0.7086298,-2.566627,0.77071553,2.8101792! #0.0,-0.11158003,0.538045,0.6644002,1.8387572! 0.0,0.070931144,-0.028624762,-1.720975,-0.051360544! 
0.0,-0.14695713,-3.3768399,0.99937016,-0.041091006,-0.02431244,3.1892045! 0.0,3.81812,0.14345193,0.3985402,-0.3558392,-0.04366289,-0.7868598! 0.0,2.658382,3.2485092,0.5718218,0.019802615,2.684726,0.93485284! 0.0,-1.482801,1.3437972,-0.5977271,-0.1558815,3.5997536,2.8088682! #0.0,-0.16635232,0.43649188,-0.2257756,-0.26598823! 0.0,0.009727236,0.114696845,-1.3448781,0.7617871! 
0.0,1.8194709,-0.085110515,0.99937016,-0.050280135,-3.8276305,3.1627042! 0.0,3.8580313,0.21038911,1.2440195,-1.3592077,-3.6831808,-0.6904348! 0.0,2.3570218,-3.4502077,1.725732,3.1347356,-2.180913,2.9423776! 0.0,-0.57998216,-0.43645677,2.2719994,-0.1558815,-0.46151048,-0.32047328! #0.0,-0.23443529,0.36801994,0.63410604,3.9086952! 0.0,0.06737688,0.0196626,1.1441818,-1.6318023! 
0.0,-2.4187133,-3.3632677,-1.6363628,-3.0611212,-0.24604511,3.202124! 0.0,2.2938735,-0.01436412,0.5081853,2.3975046,-0.6441675,-0.45166123! 0.0,2.2893465,-0.8049784,1.6529666,-2.9786158,-2.2243435,-0.026888866! 0.0,-1.9637386,-0.35097635,-0.5327854,-0.13318507,-0.3764694,0.89506036! #0.0,-0.083724536,0.43864363,0.61518866,1.8051631! 0.0,0.042136174,0.042601414,2.7480361,1.7708036! 
0.0,-0.20620893,-3.3768399,-2.9866269,0.75436705,-0.21157898,-1.8470855! 0.0,3.7537045,0.19613779,2.1341844,-1.0728066,-0.030238647,-0.7486146! 0.0,2.2984533,3.2485092,0.011785366,-2.9818034,-0.1422579,0.93485284! 0.0,1.8428526,1.6588247,2.2321424,-2.801517,-0.01588476,2.8101792! #0.0,-0.083724536,0.49310663,0.14633122,-0.26598823! 0.0,0.070931144,0.035116263,2.8104637,-0.07888024! 
0.0,-0.16075547,-2.6764324,-3.9856744,0.016651087,-0.24001397,3.202124! 0.0,3.4789083,0.23641019,2.9481347,1.8299581,-0.6277271,-0.75870967! 0.0,2.0652523,3.6755412,0.011785366,0.016881391,-2.8595989,2.0779927! 0.0,1.3399625,-0.36068353,2.230452,-0.17771792,3.469661,-2.530359! #0.0,-0.20497473,0.49310663,0.114676036,-0.26598823! 0.0,-0.097878195,0.09042376,-1.3618686,0.7884667! 
0.0,-1.298799,-0.13334273,-3.023817,0.7392328,-0.41403636,3.2109077! 0.0,2.138057,0.16566536,2.1508002,-2.3413951,-3.6620493,-0.73218435! 0.0,2.707726,-2.9682505,-0.85736656,-0.0055191666,-1.781456,3.0064623! 0.0,-1.9378914,1.7428411,0.7086298,2.8076136,-0.12681296,-1.6709337! #0.0,-0.2830324,0.35591352,0.14633122,1.8132344! 0.0,0.039695434,0.14832023,-1.7793953,0.69218796! 
0.0,-0.14695713,1.7640765,-3.006785,-0.11101205,-0.40274557,3.2365863! 0.0,2.078411,-0.028300509,-0.6807572,-1.1126884,-1.252291,-0.45166123! 0.0,1.9788122,-3.4502077,-2.458689,-2.583339,-0.068510234,2.4175282! 0.0,3.0094478,-1.6725607,-0.4758769,-0.04453769,3.4737296,-1.6506087! #0.0,-0.20685267,0.50023144,0.17926332,3.9086952! 0.0,0.1755693,-0.108250305,-1.7793953,0.7851782! 
0.0,-0.16075547,-0.085110515,0.7963691,0.7392328,-0.24001397,3.2204256! 0.0,1.044136,-0.022266924,2.9481347,-2.3413951,0.051794983,-0.7771988! 0.0,0.036280155,2.0134425,1.7204409,0.016881391,-2.8273163,2.0283346! 0.0,1.4368092,-0.41525117,2.230452,-0.14845052,-0.01269481,-2.530359! #0.0,0.16715589,0.49310663,-2.1691043,-2.1184492! 0.0,-0.080553785,0.108240925,2.8168693,-2.3518329! 
0.0,0.5819312,1.7498267,0.8086786,0.7392328,-1.237332,3.2567794! 0.0,1.0945773,-0.11077355,2.0686145,-1.0389409,-0.12995724,-0.68515044! 0.0,0.02455796,-2.4746304,-0.85736656,-0.060122233,3.4757528,2.3879433! 0.0,1.3793871,-0.41525117,-0.93945795,3.7350035,0.7514586,-1.3916229! #0.0,0.17848076,0.403774,0.6243219,2.94144! 0.0,0.042136174,0.17661342,2.8191848,-1.6168635! 
