30.675516,150
0.0,-0.022240598,0.027796086,-0.10530937,0.058929075,-0.24604511,0.6448753! 0.0,-0.7577486,0.16333139,1.9887428,2.3975046,-1.3229051,-0.38545656! 0.0,0.18298301,-1.827415,1.6881787,-2.5306935,-2.8044558,2.9852474! 0.0,-0.5701224,-0.37513924,2.2744336,2.8758183,3.5451899,-1.3700539! #0.0,-0.12780148,0.5962618,-1.9042552,0.3451128! 0.0,0.009959199,0.0,2.8450737,-0.9347143! 
0.0,-0.105910555,-0.08034419,1.6348071,1.9306626,-1.2305036,-2.188112! 0.0,0.9932693,2.7636464,1.2440195,0.2786172,-1.3229051,-0.7611864! 0.0,-0.0031555034,-0.09149686,-0.8646499,-3.0900204,-1.3255529,-2.3611844! 0.0,1.83518,-0.41429088,-0.90586835,-2.6034162,0.026441704,-2.5022492! #0.0,-0.15640046,0.49611568,0.15217127,3.9321148! 0.0,-0.21644755,0.1604532,-1.7398584,-0.07923783! 
0.0,-0.13871703,3.4863157,0.7636878,2.6876311,-1.2032313,0.4896474! 0.0,3.9122176,2.76116,1.3487257,1.9402804,-0.6206561,-0.43191677! 0.0,-0.5808788,-1.7171472,1.7132875,-0.0689946,-1.3250595,-2.2809207! 0.0,-1.9088244,1.6588247,2.1921885,-0.14010413,3.420729,-2.4988778! #0.0,-0.074792296,0.4730319,-1.8056854,-0.22947532! 0.0,0.045175184,-0.011331566,2.9099817,-0.07923783! 
0.0,-0.04069497,1.7002548,0.7136843,-0.07933596,-2.2800274,-3.9227393! 0.0,3.7537045,0.16566536,2.033299,1.8417802,-1.3278111,-0.3535197! 0.0,0.02660849,3.7242944,1.6875973,-3.0911357,-2.2137327,2.9138038! 0.0,3.747608,1.3632287,-0.9089027,-2.7930183,-2.891524,-0.40122628! #0.0,-0.16906324,0.4247185,-2.2906454,3.8949456! 0.0,-0.09890036,0.1242879,-1.3618686,-1.6292309! 
0.0,-0.17804614,1.6452698,-2.9518805,0.010472409,-3.7942784,0.4896474! 0.0,1.0677974,-0.030466802,1.3487257,0.3188067,-1.3718774,-0.3728042! 0.0,1.0542397,-1.7171472,1.4480308,-2.610946,-2.3074331,0.92117614! 0.0,-1.4734414,1.7093067,2.1491926,-2.84902,-0.38539195,-1.3700539! #0.0,-0.074792296,0.48317206,-0.3101543,-0.22947532! 0.0,-0.12349711,0.016296893,-3.0421286,-1.6001048! 
0.0,-0.155072,1.7236899,2.068701,-3.477247,-3.8852494,-3.8928108! 0.0,3.4789083,0.18431386,2.1688774,2.4955065,-2.9561055,-0.3923397! 0.0,-0.5348941,-0.09149686,-0.85736656,-3.1774924,-2.8420532,2.4441855! 0.0,1.4445833,1.6957188,-0.9089027,2.7477953,-2.605712,3.984784! #0.0,3.606367,3.1367638,0.59593815,2.6030657! 0.0,-0.072315075,0.015228804,-1.720975,-1.6332006! 
0.0,0.59523934,0.11876695,0.74822164,0.7744069,-1.1477072,-3.8814378! 0.0,1.0127763,0.19613779,2.990708,-1.3602655,-1.2607862,-0.6441244! 0.0,1.9603084,-1.6919086,1.7043687,-3.101653,-0.1422579,2.4555552! 0.0,-0.0133486055,-0.37760672,2.2717102,-2.5825233,-0.38970572,3.0409791! #0.0,-0.21536157,0.4231237,0.17926332,0.37697232! 0.0,-0.06695205,0.11768867,3.6611745,-1.6403964! 
0.0,-0.15740275,-0.08034419,0.7432115,0.027544975,-0.2668229,-3.9966516! 0.0,2.157916,-0.045835156,2.0386724,1.897514,-3.5737715,-0.61007094! 0.0,2.2845576,-2.9799316,-2.51545,-0.0106813125,-1.2843021,0.9169201! 0.0,1.8451978,1.663487,2.275329,2.752671,-0.36017185,2.992288! #0.0,-0.23443529,0.48753744,-3.1815667,0.38294372! 0.0,0.013507307,0.09042376,2.9099817,-0.10683742! 
0.0,-0.04303192,3.4863157,1.7089496,1.9303715,-0.39469677,-2.1438801! 0.0,2.1476226,0.23550387,2.150934,0.31354657,-0.12693581,-0.76236254! 0.0,2.2108803,-3.318582,1.6827089,-3.1149335,3.6604407,2.0414722! 0.0,1.3788458,-0.9304069,-0.8590703,2.8111827,0.034939017,-0.4853084! #0.0,-0.15341732,0.49310663,-1.5935792,3.9548905! 0.0,-0.09344834,-0.0482978,1.0292399,-0.9347143! 
0.0,-0.14695713,1.7127811,1.5761284,0.04704861,-2.2800274,3.2040315! 0.0,3.7757757,0.30164388,2.1748621,-1.5208822,-3.7262664,-0.28303578! 0.0,2.2845576,-1.7178333,-2.541727,-3.0606637,-0.019052576,2.0530934! 0.0,1.4445833,-0.39310688,0.647056,-2.5451233,-0.39304617,-2.5022492! #0.0,-0.124338344,0.39999163,0.17926332,-2.0437126! 0.0,-0.036616404,0.006024208,2.8378596,-1.6388613! 
0.0,0.0036833286,-0.030805524,-0.11439228,-1.8759189,-1.5346045,-3.9312048! 0.0,0.36998364,-0.030466802,2.3488145,3.8411407,-1.5553164,2.184174! 0.0,-2.430963,1.6526151,-0.8107525,-3.0798106,-2.2448413,2.4767346! 0.0,1.8883152,1.3632287,-2.517877,-0.6283102,-0.49185476,3.8710384! #0.0,-0.10733789,0.5010692,-0.5725894,0.3543879! 0.0,0.01913302,-0.15897942,-1.0287881,1.232945! 
0.0,-0.14703202,1.7498267,0.8364645,0.021728605,-1.2865105,-2.149975! 0.0,3.7324734,2.76116,0.31959432,-0.31522012,-0.027789198,-0.28752157! 0.0,2.2108803,-3.4502077,1.7046281,-3.1609237,-0.09279208,2.0530934! 0.0,-1.8950591,1.6900575,2.2411368,2.7764316,-0.40209073,-0.40122628! #0.0,-0.21831803,0.49310663,0.5906499,2.1024005! 0.0,0.0045518987,-0.034475453,-1.4394757,0.83645! 
0.0,0.00405455,-0.08215583,-2.9641821,0.07913039,-3.8852494,-1.3106573! 0.0,3.497325,0.21477373,2.1298113,1.8287717,-2.9561055,-0.3923397! 0.0,-0.5348941,2.0107644,1.7451408,-0.03435833,-2.1283436,0.93485284! 0.0,1.8428526,-0.39310688,2.2719994,-0.18245533,-0.38970572,3.984784! #0.0,-0.19211857,0.50797784,-1.5600127,0.40798193! 0.0,0.022677701,0.17932373,-1.3618686,0.012192741! 
0.0,-0.14695713,-0.07561895,-2.116436,0.02292807,-1.5588808,-3.9561884! 0.0,2.0782094,0.23550387,2.1184032,-1.0599256,-1.3571473,-0.31618187! 0.0,2.723323,1.942516,1.6939157,-0.03435833,-2.849985,2.9110928! 0.0,0.56455964,-0.9304069,-1.0296708,-0.13135299,-0.057644818,-1.6772176! #0.0,-0.15154749,0.39464185,0.22565562,-0.2791715! 0.0,0.08288341,-0.05618077,-1.7550144,-0.0010312311! 
0.0,-0.15740275,1.6899312,-3.023817,1.885537,-0.36938807,-3.9558976! 0.0,2.1476226,-0.11195004,1.9887428,-1.8371087,-3.8963726,-0.68687! 0.0,2.2845576,-1.7617412,-2.51545,-3.1509373,-2.849985,0.9169201! 0.0,-1.8774867,1.6441135,2.2719994,-0.18245533,0.0071955994,2.967531! #0.0,-0.1664967,0.42997545,0.6586403,2.6030657! 0.0,-0.13456602,0.09042376,2.927175,-1.5578169! 
0.0,-0.15740275,3.4795866,-2.9485428,1.9306626,-1.2305036,-3.9691133! 0.0,1.0389658,-0.123634815,1.9226075,1.8912396,-3.5737715,-0.61007094! 0.0,2.2845576,-0.09149686,-2.51545,-3.0900204,-2.7812524,0.87924045! 0.0,-1.9061073,1.6441135,2.2256248,-2.6034162,-0.3451296,2.967531! #0.0,-0.2662444,0.471156,0.6782153,3.9321148! 0.0,-0.041866694,0.1604532,-1.4389657,-1.6283329! 
0.0,0.00405455,-0.011664074,-3.2577267,2.7747035,3.6387634,3.1982288! 0.0,-3.6392055,-0.052302767,2.387644,1.8299581,-0.6441675,-0.41327375! 0.0,-0.5348941,0.16666365,-2.8224535,-0.1049943,-2.8044558,-0.046134394! 0.0,1.4612799,-0.39891198,-0.4758769,-0.1558815,-0.5328541,0.90135235! #0.0,-0.15813851,0.4980782,0.33546925,3.9575567! 0.0,0.07387654,0.06348137,2.7719762,-3.7024808! 
0.0,1.3923731,-0.103538685,-2.9715698,1.7468157,-3.9032845,-3.9691133! 0.0,3.4789083,-0.48573732,2.150934,0.2725634,-3.5737715,-0.80388814! 0.0,-0.55025935,-1.8187386,1.7451408,-2.8397017,-1.366781,2.0194185! 0.0,1.8428526,-0.32437477,2.1491926,2.7969275,-1.7325397,-2.5022492! #0.0,-0.15704249,0.49310663,0.6586403,2.6030657! 0.0,-0.072315075,2.9510865,-1.3618686,-1.6332006! 
0.0,-1.81458,-0.030805524,1.6348071,-0.81370497,-1.57989,-0.3880396! 0.0,2.049264,-0.055042397,3.8882089,1.8341203,-0.10968068,-0.7179889! 0.0,-0.9858551,1.6526151,-0.75794345,-3.1384892,2.8682222,1.2869725! 0.0,1.4441965,-2.1963162,3.517942,-0.15980843,-0.38539195,3.999923! #0.0,-2.733934,-1.0997319,0.14633122,3.2060328! 0.0,0.033922672,-2.9622297,-3.2193694,-0.07923783! 
0.0,-0.15740275,1.7498267,0.7760698,1.9306626,-0.24001397,-2.143847! 0.0,1.0620759,0.20752625,1.2753358,-1.4907984,-0.03557664,-0.5622855! 0.0,2.2845576,3.7577796,-0.7521363,-3.1784606,-2.869461,2.471543! 0.0,1.4579113,1.6458033,0.6772051,-0.09554775,0.0071955994,-2.530359! #0.0,-0.22889858,0.4477074,-1.6293254,0.40798193! 0.0,0.05304709,-0.03086591,2.8124714,-0.083252035! 
0.0,-1.3347534,3.4795866,-2.9860826,1.9306626,-3.8852494,3.202124! 0.0,2.1660428,-0.04389143,2.1688774,0.2725634,-1.2908664,-0.3728042! 0.0,-0.5348941,-1.827415,-0.94617844,0.016881391,-2.3074331,2.9138038! 0.0,1.4445833,2.5538454,-0.9075083,2.815254,0.0071955994,-2.4796188! #0.0,-0.11913432,0.44446146,-1.9042552,-0.18140528! 0.0,-0.08949444,0.1268933,-1.3755343,0.7286018! 
0.0,-0.11403315,-3.0196092,1.574049,0.7494707,-0.32256427,0.52058125! 0.0,1.0127763,-0.08272443,1.3402991,1.9643338,-1.2940291,-0.61551434! 0.0,3.555636,-1.8187386,1.5679176,-3.1388142,2.633785,0.93485284! 0.0,1.3511382,-0.40214077,2.3249876,3.7535758,-0.3663492,1.6979537! #0.0,-0.15813851,0.49972185,0.6792408,3.946518! 0.0,-0.22500291,0.086289644,2.8836975,-0.07888024! 
0.0,-0.14695713,-0.11461054,1.00414,1.1514511,-1.5588808,-3.9561884! 0.0,2.113039,-0.04389143,2.1762385,1.8396156,0.051794983,-0.6410865! 0.0,2.2816594,3.7869642,1.5679176,-3.1306753,-2.8488455,2.9110928! 0.0,-1.8899883,-0.12190512,-0.9004311,-0.1739673,-0.38970572,-2.5022492! #0.0,-0.2054219,0.47853377,0.22706228,-0.25383782! 0.0,-0.122274324,-0.034475453,-1.4743712,-1.6563736! 
0.0,1.8194709,3.3913586,1.574049,1.1315782,-0.32701376,-3.9561884! 0.0,3.7537045,0.095214054,0.6161599,0.25193688,-0.03557664,-0.42015895! 0.0,3.520046,-1.7131695,-2.8224535,-3.1669657,-2.2448413,-0.04139609! 0.0,3.7276897,1.3986794,2.3249876,-0.124339074,-0.06039347,0.90135235! #0.0,-0.12667263,0.46668324,0.17926332,3.8794906! 0.0,0.030065142,0.09679801,2.8091958,-1.6460742! 
0.0,-0.021482855,-0.10908198,-3.9856744,-0.0065798983,-1.1820897,3.202124! 0.0,0.9646584,2.76116,2.1407044,1.8622887,-0.16005346,-0.62813455! 0.0,2.6788485,3.7582574,-0.80774975,0.030383762,2.5901203,2.959436! 0.0,2.460794,-0.40214077,2.2208312,-0.09554775,-0.39304617,-0.37948748! #0.0,-0.1664967,0.49310663,-1.6111188,0.3283767! 0.0,0.0075104795,-0.013128493,3.632726,1.772374! 
0.0,-0.21572807,-3.3857455,-2.9715698,1.9306626,-2.300984,3.1659093! 0.0,3.9122176,0.19613779,1.3847585,0.2725634,0.067638285,-0.7564183! 0.0,2.0652523,3.6902332,-0.7521363,-3.1564903,-1.7775812,2.9579735! 0.0,1.5058889,-0.39891198,-0.9089027,-0.12863715,-2.8675437,2.824814! #0.0,0.1374236,0.42997545,0.63410604,0.40798193! 0.0,-0.10305003,0.115266524,1.0041203,0.8781842! 
0.0,0.58916265,1.6843343,-3.023817,1.9306626,-1.2032313,3.1627042! 0.0,2.1476226,-0.11195004,1.9543371,-1.8371087,-3.8963726,-0.76236254! 0.0,3.555636,-0.07930066,1.725732,-2.6312125,-2.2137327,-2.2809207! 0.0,-1.8532892,-0.41525117,0.44083017,-2.7798305,0.0071955994,3.999923! #0.0,-0.15748543,0.42997545,0.7437738,3.944838! 0.0,-0.034457352,0.09042376,-1.720975,-1.5104948! 
0.0,-0.022010708,-0.030805524,-1.4935203,1.9306626,2.4332519,2.2696834! 0.0,2.3583975,3.845222,1.9218645,-0.961823,-1.3337979,-0.5622855! 0.0,-0.0031555034,1.6526151,1.725732,-3.1149335,-2.2448413,2.4304128! 0.0,-3.4431767,-1.7815661,0.6772051,-2.8583183,-3.8875003,-0.41271582! #0.0,0.26946354,0.4477074,-3.1371222,0.40798193! 0.0,-1.6473475,1.6466255,-1.5655338,-0.07923783! 
0.0,-0.25493136,0.088783525,0.74822164,0.7744069,-1.2865105,-3.9840827! 0.0,2.1760485,0.19613779,0.44800738,-1.3602655,-1.3337979,-0.6441244! 0.0,1.9788122,-1.7666847,1.725732,-2.4814107,-2.3287203,2.4555552! 0.0,-0.0133486055,-0.37760672,2.2717102,-2.5825233,-0.38970572,3.0409791! #0.0,-0.107737005,0.4231237,3.513116,0.37122416! 0.0,-0.12349711,0.11768867,3.6611745,-1.6403964! 
0.0,-0.022240598,3.3602242,1.5641654,-3.040751,-0.24604511,-4.0296125! 0.0,3.8699384,0.31139937,0.51031256,1.8299581,-1.3921974,-0.38545656! 0.0,0.18298301,1.608797,1.6697001,3.140765,-2.8044558,2.4555552! 0.0,3.757777,-0.44043934,2.2621176,-2.5528634,3.5451899,-1.3700539! #0.0,-0.20497473,0.4902922,-0.29728684,-0.2756836! 0.0,0.009959199,0.105662555,2.8178415,0.7122092! 
0.0,-1.2744186,1.6899312,-0.17007083,2.4732811,-2.2800274,-3.9312048! 0.0,0.9870696,-3.0473166,2.1508002,1.8786329,-0.03557664,-2.1794376! 0.0,1.6146812,-0.54545164,-2.4672363,-3.1509373,2.633785,-0.04139609! 0.0,1.8451978,-0.41525117,-0.5997895,-2.84902,-2.891524,3.999923! #0.0,-0.15704249,0.40555772,-0.29728684,-0.26598823! 0.0,-0.043859072,0.09679801,2.927175,-1.626006! 
0.0,-1.2152486,0.1236698,-1.714127,0.7661325,-0.3638957,-3.9123023! 0.0,3.8699384,0.16744837,0.512898,-2.609367,-0.12995724,-0.41327375! 0.0,-0.5348941,1.5515273,-0.8646499,-3.1638744,-1.7410285,2.4555552! 0.0,-1.9482279,-0.37513924,-0.8773378,-2.8818693,0.9249339,0.90135235! #0.0,-0.18358774,0.4493419,-1.6300625,-0.22947532! 0.0,0.009046622,0.12280458,2.8178415,-0.10977682! 
0.0,-0.21572807,0.015268585,-3.1650167,2.6915476,-0.21897791,-1.5548515! 0.0,3.703727,-0.09047624,2.1688774,-2.609367,-2.9392657,-2.1794376! 0.0,2.0652523,1.5515273,-0.85901403,-3.1163967,-2.2072895,2.9816685! 0.0,-1.9482279,-0.39891198,2.274754,-2.787833,-0.07302593,-1.3721105! #0.0,-0.15704249,0.50108236,3.8232555,-0.26578027! 0.0,0.030065142,0.09679801,2.8091958,-2.519865! 
0.0,-0.024411973,0.5774274,0.7241278,0.07913039,-3.8852494,-1.3348013! 0.0,0.9818492,0.08877073,2.0340464,1.8417802,-2.9561055,-0.6874411! 0.0,2.383231,3.207864,1.6697001,3.0793927,-2.2427816,2.393629! 0.0,1.4445833,-0.39310688,2.1491926,2.886802,-0.39904046,-1.3639399! #0.0,-0.20537446,0.49972185,3.503142,0.40798193! 0.0,0.022677701,0.179355,-1.720975,-0.084188014! 
0.0,0.0036833286,-0.030805524,0.80105823,1.9306626,-2.412456,2.6069036! 0.0,-1.3928914,-0.30789042,2.115922,0.13356054,-1.3337979,3.055367! 0.0,2.7242134,-3.3537986,1.6827089,-3.1784606,-2.3203402,-2.869862! 0.0,1.8428526,1.6441135,2.232796,1.4378762,0.0071955994,-1.3801912! #0.0,-0.15813851,0.49972185,3.9694562,-0.23355804! 0.0,-0.08318944,-0.011237621,2.5472703,-0.071082175! 
0.0,2.2461872,3.4795866,0.8004115,0.054873753,-1.2687303,-2.1497977! 0.0,3.7388263,3.4116812,2.1318743,-1.4907984,-1.3304638,-0.6435806! 0.0,2.3688078,3.7211974,1.725732,-2.9497166,-2.2775981,0.93485284! 0.0,1.8428526,1.6017044,-0.50769573,3.766809,-0.4260946,-0.38515726! #0.0,-0.1910189,0.4477074,0.12482984,3.8883364! 0.0,-3.0321207,-0.0096785985,1.116375,0.60669655! 
0.0,-0.16075547,0.027796086,-3.1663592,1.4057255,-0.24604511,-2.143847! 0.0,3.497325,0.109895796,1.3231472,-0.31522012,-0.019304473,-0.37580222! 0.0,1.1957773,3.6309035,-7.0184097E-4,-3.1682975,3.9011679,0.93485284! 0.0,2.4690006,-0.19723415,3.6600528,2.8758183,2.9158401,-2.4932635! #0.0,-0.5735011,0.49972185,-1.5935792,0.3451128! 0.0,0.098161,0.09679801,0.4764185,-0.08375995! 
0.0,-1.1875284,1.7859912,0.69987005,-0.079136886,-0.21897791,-3.947476! 0.0,2.0920296,0.13921185,2.9212868,0.2725634,-1.3298539,-0.76236254! 0.0,2.079893,-1.7348212,-0.7521363,-2.9342403,-1.1252841,2.9513423! 0.0,1.9340746,-0.40214077,-0.8686724,-2.879812,-0.06039347,0.90135235! #0.0,-0.22889858,0.50108236,-1.5858312,1.857992! 0.0,-0.12349711,-0.03086591,2.8178415,-0.051903185! 
0.0,-0.13443202,-0.11461054,0.99937016,-3.0468638,-3.9116623,-3.9560902! 0.0,2.1921518,0.20752625,2.0621374,-1.3602655,-0.06939619,-0.3923397! 0.0,2.707634,-1.7802224,-0.9355611,3.1347356,-2.2463439,3.001128! 0.0,1.3608874,1.9430653,-0.55414134,-0.14734991,3.3847196,4.0306816! #0.0,-0.15813851,0.43888134,0.17926332,0.34021986! 0.0,-0.122274324,0.11768867,2.8919547,-0.07781102! 
0.0,0.5816491,-0.034693327,1.0416803,1.0190244,-1.3082646,-3.9691133! 0.0,2.0754454,0.26415238,2.1298113,1.8053912,0.2963527,-0.60582066! 0.0,2.33396,-2.9967384,1.6875973,-0.03435833,-0.07067414,2.9138038! 0.0,-1.8950591,1.3983918,-0.9932648,-2.7930183,-0.06039347,-1.3646523! #0.0,-0.16025381,0.3611053,-1.6142409,-0.22947532! 0.0,-0.013488688,-0.054448072,2.8919547,-0.008065239! 
0.0,-1.3132961,-0.08034419,0.7608558,2.511419,-3.7942784,-3.9207542! 0.0,2.1760485,0.17477328,1.885384,-1.8371087,-0.027881924,-0.39925897! 0.0,-2.638936,2.0107644,1.7451408,-3.1388142,-1.2843021,2.4555552! 0.0,1.3750567,0.6753101,3.778919,-0.17538834,0.0071955994,-1.3760954! #0.0,-0.23443529,0.49972185,-1.6111188,-0.0022154227! 0.0,-0.053686842,0.09974024,2.8532524,-0.07923783! 
0.0,-0.020425897,-3.403068,0.7432115,-0.02480689,-0.24604511,-2.1845005! 0.0,2.1921518,0.109895796,2.010671,0.36769888,-1.3229051,-0.72603! 0.0,0.18298301,-1.9044756,1.7686152,-2.5306935,-2.2215548,2.393629! 0.0,-0.5701224,1.9117508,-0.55414134,-0.16829681,-0.38970572,-2.4954457! #0.0,-0.23443529,0.47853377,-2.2107348,-0.2791715! 0.0,-0.06380522,-0.069820955,2.8168693,-0.06278612! 
0.0,0.5316879,3.431156,-3.3771133,-3.0043573,-2.2140756,-3.405838! 0.0,0.14084816,2.4080076,2.1508002,2.459192,-0.10968068,2.207591! 0.0,-2.0405965,-3.126644,3.7134004,3.625566,-3.6487699,2.3846896! 0.0,-3.71143,1.3607697,3.1329417,2.3415854,-0.40209073,-1.3700539! #0.0,1.0603582,0.47951314,3.513116,-0.49179268! 0.0,0.042838983,-2.467288,-1.4105325,2.3750243! 
0.0,-0.063045785,-0.107449345,-3.3333006,-2.9836657,-0.3986122,-1.289687! 0.0,2.1420639,0.23647267,2.1490395,-1.5208822,-0.10968068,-0.6874411! 0.0,0.0042764954,-1.9375017,1.670153,3.625566,-2.8468738,2.3846896! 0.0,1.8025724,1.3607697,2.2411368,2.8509028,-0.38970572,-2.5400474! #0.0,-0.09482244,0.47951314,0.6086307,0.38947678! 0.0,0.042838983,-0.055155154,-1.4105325,0.8142305! 
0.0,-1.1802413,3.4948742,0.7994618,1.0190244,-2.24579,-1.5902431! 0.0,3.7602432,0.14040552,2.0548236,-1.0985556,-1.3049704,-0.65472496! 0.0,3.555636,3.658479,0.090677865,0.062377993,2.607142,0.0060825273! 0.0,1.8308034,-0.37953362,2.2719994,-0.124339074,-3.912818,-2.530359! #0.0,-0.15813851,0.54595715,-0.27221265,0.3416159! 0.0,-0.025268462,0.09679801,2.8091958,-0.03998887! 
0.0,-0.050429165,-0.15683077,-2.1609964,0.058929075,-1.5588808,-1.3621925! 0.0,2.0782094,0.11842379,2.1508002,-1.4659339,0.051794983,-0.31618187! 0.0,2.723323,-3.3537986,1.5679176,-3.0438185,-0.082289875,-3.9344783! 0.0,1.4579113,1.7428411,-0.91159946,-0.17538834,-0.10214451,-1.6772176! #0.0,-0.15748543,0.40561813,0.7437738,-0.13457158! 0.0,-0.08318944,0.09042376,2.8844378,-0.07174316! 
0.0,-0.065085016,1.7437989,1.5641654,-3.9584894,-2.0137324,2.8551137! 0.0,3.8699384,-1.8366866,2.1688774,1.8299581,-0.06939619,-0.72759956! 0.0,2.3382523,-1.6829774,1.6697001,-3.7223568,-0.10041186,2.4372501! 0.0,-1.5149813,1.667443,-0.86895305,2.0366278,2.9158401,-1.3700539! #0.0,-0.18781671,0.4902922,-1.6440742,-0.25383782! 0.0,-0.097878195,0.18932521,-2.9855008,0.7122092! 
0.0,-0.057233315,-0.08497499,-1.8165612,0.8170804,-1.2305036,-3.9279947! 0.0,3.8699384,0.2113922,2.9481347,-0.32787424,-0.6441675,-0.41327375! 0.0,2.292556,-2.9682505,-0.80774975,3.552081,-2.244697,2.016335! 0.0,1.4067684,-0.39891198,-0.9597409,-2.7507024,-0.367118,-1.3812273! #0.0,-0.12818651,0.3927407,0.13481176,0.027562916! 0.0,-0.072315075,0.14454925,-3.0450535,0.19871044! 
0.0,2.2461872,3.4795866,3.609974,-0.002210185,-1.5975871,-4.0296125! 0.0,3.8699384,3.43791,0.9578314,-2.381471,-0.05253309,-0.79004145! 0.0,3.555636,1.4012494,0.04078357,-2.9497166,-2.849985,0.8860002! 0.0,1.8428526,1.641269,2.2719994,3.766809,-0.42724955,-2.897707! #0.0,-0.12014443,0.4902922,0.6586403,-0.25383782! 0.0,-0.099852346,-0.069820955,-1.3369157,0.8142305! 
0.0,-0.25493136,1.6899312,0.9590702,0.7744069,-1.1823888,-3.988547! 0.0,3.7537045,-0.11195004,2.1508002,1.8786329,-1.3337979,-2.1794376! 0.0,2.4192052,-1.7403141,1.725732,-3.101653,-2.2448413,2.4555552! 0.0,3.699566,-0.41525117,2.2717102,-0.18245533,-0.39304617,3.999923! #0.0,-0.21536157,0.5496418,3.513116,-0.26598823! 0.0,-0.13456602,0.09679801,2.927175,-1.6403964! 
0.0,1.8194709,3.4948742,-3.24659,0.028434902,-3.844833,2.8103876! 0.0,0.9870696,-0.091050774,2.0338376,1.9901862,-1.3278111,-0.31292528! 0.0,2.3825195,-1.6829774,-2.4672363,3.545578,-1.7927616,2.5958557! 0.0,3.747608,-0.3228074,-0.5981269,-2.556105,2.9158401,3.9357498! #0.0,-0.16906324,0.36357966,0.17926332,3.861707! 0.0,-0.072315075,-0.02311828,-1.3618686,-2.5755332! 
0.0,-1.216699,0.5774274,0.72256315,0.05832131,-1.2305036,3.1139395! 0.0,2.1921518,0.18431386,1.3847585,-1.4766388,-1.2996567,-0.72014415! 0.0,-0.47419956,3.6902332,1.9700612,3.5499039,-2.2137327,2.093581! 0.0,-0.58233356,1.681737,-0.55414134,-2.556105,-0.015780404,0.94812! #0.0,-0.20537446,0.5496418,0.17926332,0.44321534! 0.0,-0.072315075,0.17932373,-1.3618686,-1.6283941! 
0.0,-0.11123605,0.5924797,0.78751135,0.07913039,-1.6160856,-1.3348013! 0.0,0.9818492,0.08877073,2.0340464,-0.3974807,-1.2996567,-0.64847004! 0.0,2.3661544,-1.7823745,1.6881787,-3.212823,-2.2801626,2.9110928! 0.0,-1.8950591,-0.39310688,2.2660458,2.851907,-0.39471048,-2.5400474! #0.0,-0.15704249,0.51103085,3.503142,0.40798193! 0.0,0.022677701,0.17932373,-1.3618686,-0.051903185! 
0.0,-0.057233315,-0.122463636,0.99937016,0.8170804,-3.9116623,-4.017967! 0.0,2.1760485,0.2113922,2.9726405,-1.3602655,-0.06939619,-0.41327375! 0.0,2.292556,-2.9682505,-0.80774975,3.1347356,-2.1786208,2.0100625! 0.0,1.3608874,-0.39064518,-0.49659455,-2.7507024,3.3847196,0.90135235! #0.0,-0.181191,0.43888134,0.13481176,0.027087353! 0.0,0.098161,0.14454925,-1.3695714,0.19871044! 
0.0,-0.14894287,1.7574197,2.0837545,0.012797281,-2.2682486,-3.8928108! 0.0,3.7883403,-0.081623994,2.0621374,-1.5208822,-3.7262664,-0.23569834! 0.0,2.2845576,-0.09149686,-0.8558851,-3.1605308,-2.8719225,2.0530934! 0.0,1.8025724,1.6957188,0.647056,-2.79085,-0.1063633,-0.37948748! #0.0,3.606367,3.1367638,0.59593815,2.0778942! 0.0,-0.041866694,0.015228804,2.8378596,-1.6460742! 
0.0,-0.022240598,3.4795866,1.7507881,0.77106416,-0.3986122,0.6448753! 0.0,-0.7577486,0.31139937,2.1508002,-2.6133332,-1.3921974,-0.38545656! 0.0,0.18298301,1.5515273,1.6578844,3.140765,-2.1786208,2.986478! 0.0,-0.5701224,-0.34220216,-0.4789113,2.8758183,-2.9380543,-1.3700539! #0.0,0.17279574,0.5962618,-1.9328011,0.060390633! 0.0,0.009959199,-0.07404867,2.9134982,-0.9347143! 
0.0,-1.1766863,3.4557395,1.5761284,0.7115182,-0.36938807,-1.3621925! 0.0,3.703727,0.13921185,2.0333152,-2.609367,-0.12693581,-0.72759956! 0.0,2.0652523,-3.3537986,-0.85901403,-2.9342403,-1.3255529,-0.04139609! 0.0,1.4579113,1.6525916,-0.9004311,-0.17538834,0.0071955994,-0.40284318! #0.0,-0.16696133,0.40561813,3.8232555,-0.22947532! 0.0,-0.08318944,0.09679801,2.8091958,-0.07174316! 
0.0,0.5316879,-0.096163735,1.0416803,0.8170804,-1.2305036,-2.1497977! 0.0,3.8571594,2.76116,2.9481347,1.8299581,-0.6259865,-0.33765543! 0.0,-0.5348941,3.7160077,1.725732,-3.1149335,-2.2775981,-2.276843! 0.0,1.4445833,-0.39891198,-0.6334641,-2.79085,-0.06039347,0.865517! #0.0,-0.13386104,0.44256824,-1.6300625,3.9189897! 0.0,-0.072315075,0.14454925,1.2462307,0.19871044! 
0.0,-1.1802413,3.194405,-2.9485428,1.9306626,-1.30851,3.1331825! 0.0,0.7267989,2.7636464,-1.7019758,0.23938897,-3.5737715,-0.7611864! 0.0,3.5733838,-0.055139188,-0.8646499,-2.6526759,-2.8125908,-0.84629726! 0.0,-1.9061073,-0.41429088,-0.90586835,0.793859,-0.36657095,1.7031059! #0.0,-0.19689602,0.471156,0.6782153,3.9321148! 0.0,-3.2184975,0.1604532,-1.4389657,-1.6283329! 
0.0,0.00405455,1.7437989,0.74822164,-0.042189088,0.90705824,3.226582! 0.0,2.1498182,0.18431386,2.1688774,0.2725634,-1.3298539,-0.73304415! 0.0,2.386323,-1.827415,1.725732,0.016881391,-2.154471,-2.2809207! 0.0,2.6698985,2.5538454,-0.9075083,-0.13862821,-0.06039347,-2.4796188! #0.0,-0.20537446,0.42434323,-1.6023885,1.7651634! 0.0,-0.041866694,-0.0482978,-1.3721381,-0.9347143! 
0.0,-0.057233315,3.4948742,-3.2577267,0.8170804,-1.2305036,-3.9279947! 0.0,3.852916,0.2113922,2.1688774,1.8299581,-0.04168149,-0.41327375! 0.0,2.292556,-1.6829774,1.6717829,-3.1628015,-2.1786208,2.0100625! 0.0,-1.8668829,-0.36053354,-0.9909847,-2.7507024,-0.367118,3.9357498! #0.0,-0.20537446,0.40090904,0.13481176,3.861707! 0.0,-0.072315075,0.14454925,1.2549323,0.19871044! 
0.0,-0.0922714,1.7498267,0.99937016,-0.04495028,-1.577693,-1.1512204! 0.0,-3.1433015,0.007942677,0.53574425,1.8469652,-3.141573,1.0075083! 0.0,-1.1366221,1.927331,0.66952384,-2.9342403,-2.8044558,-1.1185513! 0.0,-1.2262864,2.7217107,-0.4758769,-2.153367,3.3847196,-1.3700539! #0.0,1.2255726,-2.0597892,-1.4809518,-3.8493338! 0.0,4.035773,0.550776,-0.93633986,-0.08432956! 
0.0,-0.15222043,3.468546,0.7608558,-0.044146705,-1.1651062,-3.9986696! 0.0,3.7388263,0.109895796,0.31959432,1.9104805,-0.03557664,-0.72603! 0.0,2.2867813,-1.7617412,-0.7521363,3.0793927,-2.227633,2.9110928! 0.0,1.5180521,-0.12190512,0.43166184,-0.16366655,0.0071955994,-1.3812273! #0.0,-0.21912453,0.4597584,-2.180947,-0.298737! 0.0,-0.10283986,0.09679801,2.8124714,0.78295887! 
0.0,0.5548682,-3.3475983,1.7508045,1.9306626,-2.300984,3.1331825! 0.0,2.0768843,0.13825041,1.354556,-2.16357,-1.3298539,-0.39925897! 0.0,-0.5348941,3.7587547,-2.4796185,-2.6254668,-1.3255529,2.4762301! 0.0,-0.61580944,0.70405155,2.2932081,-2.84902,0.014161538,-1.4123406! #0.0,-0.14516716,0.42213243,2.596312,1.849638! 0.0,-0.046886142,-0.02510155,-1.720975,0.67177635! 
0.0,-0.03476037,1.6899312,1.5761284,-2.9995441,-3.7942784,-1.242733! 0.0,3.7041366,0.21407138,2.0338347,0.30134803,-1.3368721,-0.4115962! 0.0,1.6146812,-1.7617412,1.4975471,0.0864586,-2.8367653,2.9110928! 0.0,-0.61580944,-1.7449552,-2.3611279,-2.6053245,-0.0025327504,-2.5202906! #0.0,-0.20537446,0.48657373,3.8747034,-0.12661876! 0.0,-0.049030047,0.085571915,2.836416,-1.5760875! 
0.0,0.53926116,-3.403068,0.7973059,-2.9710188,-1.2305036,3.1770625! 0.0,2.2386968,0.18145844,-0.5947928,-1.0057229,-1.3229051,-0.37635538! 0.0,0.18298301,-1.827415,1.71415,-3.1805854,-2.285188,2.393629! 0.0,-0.5701224,-0.37513924,-0.9089027,2.8087432,-0.42741272,3.0320084! #0.0,-0.23443529,0.5962618,-1.9042552,-2.140493! 0.0,0.039568804,-0.060787275,-1.4697204,0.67177635! 
0.0,-0.1440613,-3.403068,0.79083204,-0.026627382,-3.8852494,0.6448753! 0.0,2.1760485,-0.10149054,2.0981126,1.9035108,0.051794983,-0.72603! 0.0,0.18298301,-1.827415,1.71415,-2.5306935,2.633785,2.393629! 0.0,-0.5701224,-0.9131593,-0.55414134,-0.16708359,3.47938,-2.5400474! #0.0,-0.23443529,0.4231237,0.1990667,-0.2791715! 0.0,-0.06380522,-0.069820955,-1.3334322,-0.06278612! 
0.0,-0.09074122,3.4645305,0.7608558,0.05832131,-0.39903265,3.2434494! 0.0,1.9921186,-0.08272443,2.1490395,1.8299581,-1.3433037,-0.61007094! 0.0,3.555636,1.5515273,1.6578844,-3.1784606,-2.8357975,2.986478! 0.0,1.8025724,1.6441135,-0.4789113,3.760328,-0.42397872,0.90135235! #0.0,-0.118940145,0.49972185,0.17926332,-0.25383782! 0.0,-0.072315075,-0.055155154,-1.356535,0.67177635! 
0.0,-0.13750397,3.4795866,3.609974,1.9260769,-3.7942784,-3.8995914! 0.0,2.1921518,3.4116812,0.31959432,-1.4907984,-1.3304638,-0.72603! 0.0,3.555636,-1.7823745,-0.5972514,0.016881391,-2.849985,0.93485284! 0.0,1.828695,1.6441135,2.2719994,3.766809,-0.11922498,-1.3760954! #0.0,-0.1910189,0.49972185,-1.6111188,-0.25383782! 0.0,-3.0321207,-0.069820955,-1.4448689,0.60669655! 
0.0,0.00405455,-0.15385395,1.7810638,-0.042189088,3.136907,-0.9266777! 0.0,-0.943007,-2.8120408,1.9900775,0.19628811,-0.027789198,-0.37719488! 0.0,2.29412,-2.2904868,-3.4764557,-1.5659966,-3.3603053,-2.2809207! 0.0,-1.9231524,-2.9091039,1.3369851,-2.7977579,-0.10214451,-0.39569372! #0.0,-0.15704249,2.5760856,-0.32951787,2.775969! 0.0,-1.0860139,-1.6378417,-1.4389421,-0.09317541! 
0.0,0.58916265,1.9901757,1.7182217,3.803936,-3.8852494,3.1139395! 0.0,-2.932898,-3.9461908,3.201632,2.542152,-0.12693581,2.2707233! 0.0,3.7965395,-3.3537986,3.2786489,2.1524715,-2.2691293,-3.1698885! 0.0,1.8428526,-0.43645677,-0.4789113,-2.2277908,-0.07363216,-1.2394571! #0.0,-0.15341732,2.9064407,0.6586403,1.4489226! 0.0,-0.5581579,0.030443313,2.927175,0.7007011! 
0.0,-0.25950098,1.9901757,3.0994349,0.7871318,-1.8722234,-3.405838! 0.0,3.4789083,2.4080076,2.580721,-0.98991394,-0.12693581,3.4337711! 0.0,3.8669078,-3.1564822,1.6554261,0.1847967,-1.3255529,3.351369! 0.0,-0.939384,-0.7670877,3.1329417,-0.08727974,3.235105,3.0424497! #0.0,1.0587611,2.757445,-2.2107348,-0.2597574! 0.0,-0.061988037,-2.467288,-3.9420805,2.3750243! 
0.0,-0.10482207,1.6830281,-2.9641821,0.07913039,-3.8852494,3.1061306! 0.0,1.0127763,0.20752625,1.3487257,1.8287717,-2.9561055,-0.64803255! 0.0,-0.5348941,3.2332082,1.6881787,-0.03435833,-1.781456,2.4294634! 0.0,0.6022905,-0.9304069,-0.8654355,-0.124339074,0.018936234,3.9357498! #0.0,-0.14501572,0.5010692,-1.5762168,0.020577759! 0.0,-0.10438792,0.17932373,-1.727399,-0.07923783! 
0.0,-0.063045785,3.4557395,1.5309103,0.77106416,-2.2800274,-1.3621925! 0.0,2.0920968,-0.08272443,2.0333152,-1.4659339,-0.12693581,-0.32432994! 0.0,2.1993468,1.5515273,1.7132875,-2.9342403,-1.7410285,-3.9344783! 0.0,1.8025724,-0.37513924,-0.61459273,-2.79085,-0.38970572,-0.39639223! #0.0,-0.12667263,0.39970097,0.6086307,-0.22183068! 0.0,-0.013488688,-0.055155154,2.8919547,-0.07174316! 
0.0,-0.0922714,1.7498267,0.99937016,1.0190244,-1.2032313,3.1982288! 0.0,3.3525267,0.20752625,2.1298113,-1.4842747,-1.3337979,-0.4115962! 0.0,2.33396,-0.7555926,-2.8224535,-2.9342403,-2.8044558,-0.046134394! 0.0,1.4951879,-0.9304069,-0.9932648,-0.13135299,0.0071955994,-1.3801912! #0.0,-0.22977161,0.536547,-1.6300625,-0.2930834! 0.0,-0.10139248,-0.03086591,-1.6151128,0.012192741! 
0.0,-0.14894287,1.7127811,0.7896161,1.9306626,-3.781676,-2.1689553! 0.0,3.7757757,0.30164388,1.354556,-1.5208822,-3.7211607,-0.28303578! 0.0,-0.5348941,-3.4502077,1.725732,-2.9507895,-2.1740758,2.0530934! 0.0,1.8025724,1.4121197,0.647056,-2.79085,-0.11922498,-0.37948748! #0.0,-0.124338344,0.39999163,0.6412602,2.0778942! 0.0,-0.041866694,-0.02510155,2.8378596,-0.07923783! 
0.0,0.4263854,-0.05073595,1.6970916,1.9306626,-3.781676,3.1239302! 0.0,3.7537045,0.095214054,0.6161599,0.2725634,2.5401714,-0.61551434! 0.0,3.4993498,-1.7131695,1.6971555,-3.172782,-2.2448413,-0.04139609! 0.0,3.766483,1.3986794,2.2744336,2.8758183,0.0071955994,-1.3721105! #0.0,-0.12667263,0.44827083,-0.27221265,1.9089601! 0.0,0.030065142,0.0,2.8450737,-1.6460742! 
0.0,-0.105910555,0.088783525,0.99937016,1.9306626,-1.1823888,-2.188112! 0.0,2.1969054,0.19613779,1.3210187,-1.3602655,-1.3337979,-0.6441244! 0.0,-0.0031555034,1.6526151,1.725732,-2.9737477,-2.3287203,-2.3205194! 0.0,1.8428526,-0.33170748,2.232796,-2.5825233,-0.39304617,-2.5022492! #0.0,-0.21536157,0.49611568,0.14633122,-0.26598823! 0.0,-0.21721356,0.11768867,-1.6151128,-0.07923783! 
0.0,-0.05434212,-0.041982,-1.8165612,-4.774183E-4,-3.9116623,-3.9986696! 0.0,3.7388263,0.20752625,1.3699222,-0.32787424,0.40738153,-0.6736657! 0.0,3.555636,3.6907678,-0.90296847,3.1347356,-2.2463439,3.001128! 0.0,1.3608874,-0.39064518,-0.49659455,-0.124339074,-0.10022741,4.0306816! #0.0,-0.12818651,0.3927407,0.62668383,3.8806806! 0.0,-0.07397632,0.09679801,-3.0450535,-2.519865! 
0.0,-0.15222043,-0.069468506,0.7896161,0.7744069,-2.2800274,-1.5548515! 0.0,1.0620759,0.109895796,2.9014242,1.8299581,-0.03557664,-0.731738! 0.0,-0.5348941,3.7577796,-0.7521363,3.1147819,-2.2448413,2.9110928! 0.0,1.8451978,-0.41525117,-0.97580445,-0.09554775,0.0071955994,-1.3721105! #0.0,-0.15704249,0.4597584,-1.6293254,1.8051631! 0.0,-0.10283986,0.09679801,2.8124714,-1.626006! 
0.0,0.4263854,-0.11461054,-2.9518805,2.6593199,-3.8426316,3.1331825! 0.0,3.7870305,0.13825041,1.9226075,0.25802922,-1.3718774,-0.36194998! 0.0,2.707634,3.2836611,1.5679176,-2.610946,3.6222126,2.4762301! 0.0,-1.4734414,1.6674569,-0.9089027,-2.84902,-0.38539195,-1.3700539! #0.0,-0.20497473,0.46668324,0.16163135,-2.129072! 0.0,-0.087638736,0.016296893,2.8091958,-0.08138199! 
0.0,-0.17804614,1.6452698,1.7259796,-0.018667735,-2.2362416,0.4896474! 0.0,2.1760485,-0.08004928,1.9529197,0.3188067,0.052387893,-0.3728042! 0.0,2.707634,-2.9967384,-0.8025715,-0.0689946,-0.12227347,2.4628282! 0.0,-1.0105422,1.6352365,2.1491926,-0.13119543,-2.8725803,-1.3700539! #0.0,-0.074792296,0.48317206,-1.5866324,-0.2500076! 0.0,-0.08532563,0.010488715,2.8532524,-1.6001048! 
0.0,0.49604735,3.477927,0.74822164,-0.44203743,-2.2052188,3.1486113! 0.0,1.0127763,0.20752625,2.990708,-2.3413951,-1.2607862,-0.4115962! 0.0,2.4126573,-1.7179067,0.090677865,-2.610946,2.6561527,-1.9379511! 0.0,2.4279783,1.5811325,-0.9004311,-0.12114069,-0.38970572,-0.38515726! #0.0,-0.15748543,0.47951314,0.17926332,0.38729563! 0.0,-0.1443955,-0.03086591,-0.07409048,0.7644861! 
0.0,-1.3347534,1.6899312,-2.9715698,1.9306626,-1.2305036,-1.3106573! 0.0,3.7757757,0.14082795,2.0340464,-2.3413951,-1.3466731,-0.36194998! 0.0,2.2816594,3.6907678,1.6697001,-2.8653436,-1.3302865,2.992561! 0.0,-0.5708046,-0.43958834,0.4611059,3.3465915,-0.12226768,2.998838! #0.0,-0.15792489,0.36357966,2.6301212,3.8794906! 0.0,-0.11030374,-0.02311828,2.8747883,-0.9347143! 
0.0,-1.216699,-3.3890061,-2.196851,0.010472409,-1.2441292,-2.1398015! 0.0,2.1760485,2.76116,1.3851345,-2.3413951,-0.12693581,-0.43191677! 0.0,2.6788485,1.942516,1.6881787,-0.0689946,-1.366781,-1.9379511! 0.0,0.6022905,1.7428411,2.1927915,-0.09554775,-0.10214451,3.984784! #0.0,-0.15748543,0.46448138,-2.2107348,-0.298737! 0.0,0.08288341,0.19862553,3.632726,-0.110634476! 
0.0,-0.15740275,3.4795866,1.6348071,1.9306626,-0.39903265,-3.9312048! 0.0,1.9921186,0.2113922,2.1490395,-1.4907984,-1.3337979,-0.61007094! 0.0,-0.5348941,1.5515273,1.6963459,-3.0936303,-2.2365146,2.0110586! 0.0,1.8025724,-0.39310688,-0.9004311,3.760328,-0.52493876,3.9357498! #0.0,-0.19211857,0.49972185,-1.6111188,0.40798193! 0.0,0.022677701,0.17932373,-1.4389421,-0.07888024! 
0.0,1.8194709,-0.10530001,0.69561255,1.9306626,-0.3081752,3.210174! 0.0,1.0127763,-0.091050774,-0.6435567,-2.3796751,-0.12693581,-0.71388364! 0.0,2.292556,-0.07541454,1.7614152,0.0018523075,-1.1252841,2.4386714! 0.0,1.4244552,-0.32437477,-0.89049727,-2.7853997,0.0071955994,0.89506036! #0.0,-0.22889858,0.5223049,-0.29728684,1.787691! 0.0,-0.036616404,-0.008734234,3.632726,1.7982471! 
0.0,0.0036833286,3.3602242,1.6348071,1.9306626,-1.5923909,3.1231766! 0.0,3.7322898,0.31139937,1.3357577,-2.2981656,-1.3940581,-0.57284456! 0.0,-0.0031555034,1.608797,-3.0012107,3.140765,-2.8044558,2.4628282! 0.0,1.862104,-0.34220216,2.2621176,2.8758183,-0.38000962,3.9970198! #0.0,-0.20497473,0.43679762,-1.6306314,0.40798193! 0.0,0.009959199,0.105662555,2.8178415,-0.07923783! 
0.0,-0.25493136,-0.06610693,0.99937016,0.78044647,-1.5185361,3.1486113! 0.0,2.1870089,-0.06281025,2.0338347,-0.376837,-1.3337979,-0.6441244! 0.0,1.9788122,-1.7802224,1.725732,-3.101653,-2.3287203,2.9417498! 0.0,-0.58233356,-0.32437477,2.2717102,-2.5825233,-0.39304617,-2.5400474! #0.0,-0.18551719,0.5496418,3.513116,-0.17729662! 0.0,-0.12349711,0.09088269,-1.4394757,-0.06685173! 
0.0,-1.1802413,-0.07657282,1.6970916,1.9306626,-2.300984,3.1486113! 0.0,3.8699384,0.2511148,1.3847585,2.4955065,-2.9075398,-0.74489784! 0.0,2.0652523,3.6902332,-0.7521363,-3.1564903,2.6551375,2.9579735! 0.0,-0.5768232,-0.32437477,-0.9089027,-0.1558815,-0.38970572,2.9603164! #0.0,0.1374236,0.3902244,0.589887,-0.17729662! 0.0,0.098161,0.047859583,-0.07409048,0.7419472! 
0.0,-0.11401737,0.027796086,-3.1650167,-2.9244356,-0.3390587,-1.2848468! 0.0,2.0997212,-3.1658597,2.150934,1.8417802,-1.8978801,-0.644836! 0.0,2.437829,0.51138765,1.725732,-1.4246793,-2.845304,2.9138038! 0.0,-0.9463579,-0.44163167,-0.89049727,-2.5518608,-0.38539195,3.999923! #0.0,0.17279574,0.47850445,-1.4487014,0.068842545! 0.0,-0.055476133,0.016296893,3.628302,-1.626006! 
0.0,-0.03063637,-0.12065591,0.80105823,0.74907124,-0.22670877,-1.5548515! 0.0,3.5171137,0.2340446,2.1240184,2.0067568,0.051794983,-0.29233682! 0.0,2.6784348,0.5183501,1.5437628,-3.0606637,-2.2072895,-0.013290456! 0.0,-2.3958726,-1.7538437,2.230452,2.861933,-0.39304617,-2.5248425! #0.0,-0.15761551,0.5962618,-1.6111188,1.8520964! 0.0,-0.05409753,0.007676147,-1.3908728,-1.6388613! 
0.0,-0.16093382,1.6830281,-2.9311523,0.7561322,-3.8852494,-1.3106573! 0.0,2.0810425,-0.10149054,2.0333152,-2.846988,-3.9446044,-0.34425583! 0.0,3.7527137,-2.9682505,-0.94617844,-3.000192,-2.066108,2.9541123! 0.0,1.4445833,3.1342192,-0.89049727,2.815254,-0.015780404,-1.3700539! #0.0,-0.12667263,0.44446146,0.1990667,3.8806806! 0.0,-0.08949444,0.1268933,-1.3277996,-1.6001048! 
0.0,-0.13871703,-0.07695386,0.74700916,1.9306626,-2.2964225,3.1486113! 0.0,1.05823,2.76116,2.1460161,-0.31522012,0.067638285,-0.36194998! 0.0,-0.5348941,-1.8331048,1.9147384,-3.1154714,2.633785,2.9816685! 0.0,1.4199619,1.6588247,-0.9597409,-2.7507024,-0.40209073,-2.4988778! #0.0,-0.15342912,0.5702432,-1.8056854,0.40798193! 0.0,-0.1443955,0.115266524,-1.6151128,-1.5266051! 
0.0,-0.038474154,3.4795866,0.69561255,-0.002210185,-1.2487718,3.1486113! 0.0,3.8699384,0.13453981,2.990708,2.4955065,-2.9075398,-0.682898! 0.0,0.1287488,3.7211974,-2.4172823,-2.8999906,2.6551375,0.93485284! 0.0,-1.8681488,-0.32437477,-0.9089027,-0.148994,2.9636528,3.9792943! #0.0,-0.18551719,0.471156,0.589887,-0.2500076! 0.0,0.098161,0.09679801,-0.07409048,0.6759169! 
0.0,-0.071753845,-0.07224092,1.00414,1.1514511,-1.5185361,3.1627042! 0.0,3.9122176,-0.006824851,2.1508002,-1.1259394,-0.14849885,-0.43191677! 0.0,2.3688078,3.7211974,1.5679176,-0.0689946,2.6561527,-2.2809207! 0.0,1.4445833,1.641269,2.1921885,-0.14010413,3.420729,-0.40591335! #0.0,-0.074792296,0.4730319,0.1990667,-0.22947532! 0.0,-0.16569176,0.25515348,-0.07409048,0.781994! 
0.0,-0.021519508,0.5299029,0.7241278,-4.7176518E-4,-0.2794794,-1.3621925! 0.0,3.7583501,0.09611328,-0.77873945,-0.39571482,-2.9455748,-1.0244493! 0.0,0.018818788,0.74379635,0.03947015,-2.951735,3.6222126,2.963587! 0.0,1.3847802,1.4191281,2.2517993,2.886802,-0.37923804,-1.3639399! #0.0,-0.20537446,0.35944298,0.8505365,0.027562916! 0.0,-0.072315075,0.179355,-2.335125,-1.6460742! 
0.0,-0.03063637,-0.08340894,0.7608558,0.71121424,-1.2032313,-1.2818781! 0.0,3.9122176,-0.10149054,1.3402991,-1.1259394,-2.9075398,-0.68602437! 0.0,3.555636,-1.8770118,-0.7826329,-3.1149335,-0.1422579,3.068411! 0.0,1.3608874,-0.40017807,2.1606889,-0.17672007,3.5949662,-1.4161564! #0.0,-0.15699467,0.3902244,0.60193783,3.9575567! 0.0,-0.072315075,0.09974024,-3.0450535,0.7419472! 
0.0,-0.14295189,-0.15683077,-2.1609964,0.02292807,-1.5588808,-3.9691133! 0.0,2.0782094,-0.09205577,2.1688774,1.8417802,-1.8978801,-0.7647424! 0.0,2.723323,0.51138765,1.725732,-3.1735308,2.607142,2.9138038! 0.0,1.4579113,1.6629121,-0.91159946,-2.5518608,-0.10214451,-1.6772176! #0.0,-0.15748543,0.47850445,0.629765,-0.16212875! 0.0,-0.082111605,-0.05618077,2.8844378,-1.6619129! 
0.0,-0.022240598,-0.11461054,0.77546436,0.058929075,-0.24604511,0.6448753! 0.0,-0.7577486,-0.04883598,1.9887428,-1.5208822,-1.3433037,-0.32432994! 0.0,2.0652523,-2.9682505,1.6578844,-2.5306935,-1.7410285,2.393629! 0.0,1.8025724,-0.37513924,2.2744336,-0.1558815,-0.38970572,-1.3700539! #0.0,0.17279574,0.39970097,-1.9042552,0.38947678! 0.0,-0.10111394,-0.055155154,2.8919547,-0.07781102! 
0.0,-0.005286593,-0.12805295,-3.1663592,0.78044647,-1.6333102,3.1000397! 0.0,2.1476226,0.22414073,0.36741692,0.23938897,-1.2996567,-0.72603! 0.0,2.707634,-1.7802224,1.725732,-3.139286,-2.8718877,-3.818799! 0.0,1.4579113,1.6341509,-0.55414134,-2.56042,-0.38970572,-1.3700539! #0.0,-0.08843848,0.49980262,0.589887,0.050354417! 0.0,-0.082111605,-0.33097696,2.8919547,0.6944726! 
0.0,0.52073723,3.4948742,-3.2577267,-0.042612303,-1.2305036,3.3319921! 0.0,3.7537045,0.18145844,2.1688774,1.8058734,-0.03557664,-0.69675595! 0.0,2.2867813,-2.0684073,1.7144974,-3.0911357,-1.7927616,2.638626! 0.0,-1.8668829,-0.29611388,-0.9089027,-2.7930183,2.9158401,3.9357498! #0.0,-0.12245411,0.4247185,-1.6300625,3.861707! 0.0,-0.080553785,-0.02311828,-1.4701544,-2.519865! 
0.0,-0.065085016,1.7437989,1.5641654,-0.06673865,-1.557296,-4.0296125! 0.0,3.8699384,2.76116,2.1460161,1.8299581,-0.06939619,-0.34678292! 0.0,-0.5348941,-1.8331048,1.6697001,-2.9342403,3.59352,0.93485284! 0.0,-1.8719648,-0.44043934,-0.9597409,-2.7507024,-0.42724955,-1.3700539! #0.0,-0.15813851,0.4902922,-0.29728684,-0.25383782! 0.0,0.045175184,-0.011331566,-3.0211327,-0.07923783! 
0.0,-1.2744186,-2.2744923,0.7886918,2.5338645,-1.579114,3.3298695! 0.0,2.1405604,0.31139937,0.9053464,-2.7912712,-1.3298539,0.43144086! 0.0,-0.5348941,-1.7348212,-0.7521363,3.5447884,-1.1252841,2.9513423! 0.0,-1.9101636,-0.41124603,-0.90586835,2.8850555,3.3847196,-2.530359! #0.0,-0.086087376,0.50797784,-2.2065005,1.857992! 0.0,-0.21644755,0.087014005,2.8124714,-0.13149536! 
0.0,-0.07643879,-0.08215583,-2.9641821,0.07913039,-0.3986122,-1.3106573! 0.0,1.9921186,0.22638519,2.1298113,1.8287717,-2.959394,-0.70272356! 0.0,2.0652523,-2.0939271,1.723042,-3.1784606,-2.1786208,-0.013290456! 0.0,1.8428526,-0.9304069,-0.8958757,-0.12635984,-2.9380543,-2.5022492! #0.0,-0.19211857,0.39145237,0.23639289,0.40798193! 0.0,0.027185604,0.110506475,2.8946366,0.012192741! 
0.0,-0.155072,1.7236899,2.0837545,-3.434217,-3.8565884,-3.8928108! 0.0,3.7814693,-0.081623994,2.1508002,1.8287717,-1.2996567,-0.75867707! 0.0,-0.5348941,-0.09149686,1.9700612,-3.1823058,-2.8607635,2.6063173! 0.0,-1.8950591,1.6957188,-0.9089027,-2.7507024,-2.605712,3.984784! #0.0,-0.15813851,0.49972185,0.59593815,0.40798193! 0.0,-0.05368754,0.015228804,-1.720975,-0.086853765! 
0.0,-0.05430766,-3.3857455,1.7259796,0.024180166,-1.2474277,2.857439! 0.0,3.480383,9.0406835E-4,-0.5869469,-2.7912712,-2.9561055,-0.78789055! 0.0,3.555636,-2.9546418,1.7163116,3.5447884,-0.1422579,-1.9379511! 0.0,1.4579113,-0.39891198,2.1921885,-0.15543923,3.4704823,3.984784! #0.0,0.12356123,0.4231237,-2.2326035,0.10271311! 0.0,-0.21644755,-0.017361812,-1.305326,-0.11366207! 
0.0,-1.1802413,-2.668229,-2.9738274,1.9306626,-1.2305036,0.84806585! 0.0,0.9932693,2.7636464,1.2440195,0.23938897,-2.0501146,-3.2872086! 0.0,3.5733838,3.16721,-3.0825171,-3.9838,-2.8125908,2.0379157! 0.0,1.7118478,-1.009099,-0.90586835,1.3885689,1.8586745,0.9549054! #0.0,-0.65319395,0.471156,0.6782153,3.104854! 0.0,-0.041866694,1.0195818,-3.5025787,3.3391223! 
0.0,-0.11400815,-0.11461054,1.7259796,0.78044647,-1.2474277,3.1000397! 0.0,3.480383,0.22414073,0.31959432,1.9661841,-1.34216,0.43144086! 0.0,2.3329117,-2.9936233,1.6935877,-2.9342403,-1.7410285,2.9497104! 0.0,-1.9292003,1.9428347,-3.6763384,-2.79085,-2.9483812,-0.43995395! #0.0,-0.1510364,0.4231237,0.17926332,0.10271311! 0.0,-0.122274324,-0.28166226,-1.305326,-0.11366207! 
0.0,-0.11401737,2.3759515,-3.1650167,-2.9707487,-3.472752,-3.9691133! 0.0,2.049264,-0.07583113,2.1688774,1.8417802,-1.8510586,-0.36194998! 0.0,2.437829,3.7711992,1.7124374,-3.1448674,2.607142,0.92117614! 0.0,-1.4734414,-0.39310688,-0.89049727,-0.17538834,-0.38539195,3.999923! #0.0,-0.12667263,0.459679,0.629765,0.068842545! 0.0,0.039568804,-0.060787275,3.632726,0.67177635! 
0.0,-0.15222043,1.7261413,0.7608558,-2.9710188,-1.2032313,-3.9986696! 0.0,3.7537045,0.30343336,0.59035325,-1.0057229,-1.32925,-0.71057844! 0.0,2.2845576,-1.7617412,1.7111585,3.0660238,-2.331348,2.9110928! 0.0,1.3499033,1.6006017,-0.9089027,2.8087432,-0.39092425,3.9936996! #0.0,-0.08233684,0.4597584,0.17926332,-2.140493! 0.0,-0.10283986,-0.04360452,2.8124714,0.78295887! 
0.0,-0.18529955,1.4511232,1.5281518,-0.0021369904,-1.5975871,-4.0296125! 0.0,0.3860118,-0.081623994,2.0333152,-2.819839,-3.9446044,-0.7932483! 0.0,3.7226627,3.7711992,-0.85736656,3.0793927,-2.066108,3.0454557! 0.0,-0.58233356,1.641269,-0.89049727,-2.5081773,-0.015780404,0.93551975! #0.0,-0.08867365,0.4902922,0.6586403,-0.25383782! 0.0,-0.087638736,0.07163903,2.245101,-1.7006602! 
0.0,-1.2744186,1.7498267,2.2410975,2.265531,-1.2032313,3.1231766! 0.0,2.1405604,0.27842066,-2.622747,1.383791,-1.5957103,-0.76236254! 0.0,-3.6472936,-3.758263,3.4427352,-3.1149335,0.624503,-3.0613523! 0.0,1.4579113,-1.1297483,1.4727337,1.0444674,0.0071955994,-2.827468! #0.0,-0.22889858,-1.4746213,-1.5858312,-1.2900271! 0.0,-0.12349711,-2.7093859,-3.2839665,1.0345306! 
0.0,0.5548682,1.7498267,-3.5638244,-3.0006323,-0.52046156,3.1486113! 0.0,3.699482,-2.8138046,1.2841569,-1.4930568,3.6889086,-3.4162707! 0.0,-1.4232097,-0.87386227,1.6993215,0.04334943,-2.2517924,2.9110928! 0.0,3.5803165,-0.44971964,-0.90800273,0.969223,2.260281,-1.6264157! #0.0,2.120182,0.4477074,-1.6306314,-0.16212875! 0.0,-3.0413947,1.295279,-3.098083,-2.8369617! 
0.0,-0.07348342,1.7009742,1.6293416,1.0190244,-2.2800274,-1.5902431! 0.0,2.0907156,0.18431386,2.0548236,-2.2981656,-1.3230602,-0.79573476! 0.0,3.555636,0.5113219,1.6881787,-3.1306753,-2.2407365,2.4346867! 0.0,1.4445833,-0.32437477,2.1491926,2.7477953,-0.41122255,-0.36990005! #0.0,-0.17504503,0.45448163,0.6586403,-2.0211565! 0.0,-0.06695205,0.09042376,-1.720975,-0.15491804! 
0.0,-0.022240598,0.06307322,-3.1663592,0.028199565,-0.2794794,2.6650772! 0.0,3.5006666,0.88914716,-2.9041984,-0.39571482,-0.019304473,2.2284405! 0.0,2.292556,0.74379635,-2.1885958,-3.16462,3.9011679,2.0530934! 0.0,2.4455988,-0.40214077,3.6600528,2.886802,0.0071955994,-2.4932635! #0.0,-0.20537446,0.35944298,0.8505365,0.3451128! 0.0,0.098161,0.179355,-2.335125,2.3724117! 
0.0,0.5436912,-0.039343555,0.99937016,2.6915476,0.8957928,-3.9312048! 0.0,2.1760485,0.21436556,0.44800738,-1.3602655,0.052387893,-0.43191677! 0.0,0.1287488,-1.7802224,-0.85736656,-3.1485753,-2.3287203,2.4555552! 0.0,3.699566,-0.37760672,-2.359013,-2.5825233,-0.06039347,-1.3700539! #0.0,-0.11135985,0.42916194,3.513116,0.47286773! 0.0,-0.09845204,0.054642715,2.8367949,-1.7006602! 
0.0,-0.1475783,3.4310884,1.5222163,1.1489604,1.713512,-2.7127638! 0.0,-0.24545765,-0.03772142,2.1341844,-2.3308115,-1.3614005,-0.034953594! 0.0,2.707634,-1.3205857,-2.5074801,-1.287641,-2.1839275,-3.4863057! 0.0,1.4087831,-0.3152113,2.3249876,2.861933,2.6931038,0.8566078! #0.0,2.2478724,3.5054183,3.5756874,3.946518! 0.0,0.05304709,-2.7246737,-0.59718084,-0.09322041! 
0.0,0.0036833286,-0.030805524,-2.9811065,0.7561322,-1.2865105,-2.1689553! 0.0,3.7388263,-0.08272443,1.3210187,-1.4539585,-1.3337979,-0.7179889! 0.0,2.3329117,1.6526151,1.6146426,-2.9342403,-1.3696406,2.4628282! 0.0,1.8717594,-0.44653335,2.232796,3.766809,-0.11922498,-1.3801912! #0.0,-0.15813851,0.4699801,-1.6111188,-0.27314734! 0.0,-0.08318944,0.15852283,-1.4389421,0.67177635! 
0.0,-1.2307177,1.7956493,0.7896161,-0.03690575,-2.2052188,3.1982288! 0.0,1.0199988,0.20752625,1.2225373,1.847096,-3.8873653,-1.0244493! 0.0,2.4224281,-1.8946354,-0.80186415,-2.5957372,2.6561527,2.3846896! 0.0,2.4279783,1.5811325,-0.9004311,-0.12340911,-0.11449149,3.999923! #0.0,-0.15837961,0.40716627,3.4750683,-0.13775697! 0.0,-0.1443955,-0.03086591,2.7939005,-0.09322041! 
0.0,-1.2456121,-1.4594646,-2.83751,1.0190244,-2.2800274,-3.7346811! 0.0,2.0907156,-0.087124564,-3.492453,-1.0119467,-1.3230602,-0.6763251! 0.0,-3.808096,0.5113219,0.090677865,3.83243,-1.3696406,3.2066107! 0.0,1.3511382,1.6458033,2.232796,3.1224976,-3.8786716,-0.36990005! #0.0,1.8409653,-0.46890497,-0.27221265,-2.0211565! 0.0,-0.06695205,-2.9428027,2.8091958,-0.15491804! 
0.0,0.00405455,1.7437989,0.74822164,2.495978,-2.6561093,3.2434494! 0.0,3.4789083,-3.9461908,2.9802704,-0.33959204,-1.3298539,-0.73304415! 0.0,3.8408017,3.7349765,1.6554261,0.15950394,-1.3255529,1.9954096! 0.0,2.6308374,-0.40214077,-0.8464012,-2.7977579,3.5451899,-0.39569372! #0.0,-0.20537446,0.42434323,-1.6023885,1.7801322! 0.0,-0.041866694,-0.0482978,2.7668238,-0.9836686! 
0.0,-0.071753845,-0.15686938,1.00414,-0.02480689,-1.2662268,3.1627042! 0.0,2.157916,0.18431386,2.1821923,2.470478,0.09457825,-0.78789055! 0.0,2.723323,3.7211974,-0.0353253,-3.093798,-2.285188,3.0245366! 0.0,-1.8950591,-0.32437477,2.2412968,-2.79085,-0.06039347,-1.3639399! #0.0,-0.23443529,0.39464185,0.1990667,1.8520964! 0.0,0.12990502,-0.33607045,-1.4334962,-0.008065239! 
0.0,-0.105910555,1.7437989,0.74822164,-0.042189088,-1.2305036,3.2434494! 0.0,2.5399466,0.18431386,2.1688774,0.30431497,-1.3298539,3.3843899! 0.0,2.386323,0.51138765,1.725732,0.67720735,-2.154471,3.0245366! 0.0,1.4579113,1.6588247,-0.89049727,-0.13963898,-0.13607019,0.90135235! #0.0,-0.14307079,0.42434323,-1.6023885,0.087244794! 0.0,-0.041866694,-0.3408327,-1.3522681,-0.9347143! 
0.0,0.00405455,-0.20044115,0.7659006,-0.075623974,-1.5923909,-0.3922372! 0.0,3.8001516,0.18431386,2.9692917,-0.376837,-1.3304638,-0.28303578! 0.0,0.7211655,2.0475583,1.6939157,0.051242333,-0.09279208,0.93485284! 0.0,-1.9231524,1.7892957,2.29077,-0.16366655,-0.12506528,-0.39569372! #0.0,-0.15704249,0.4837499,-0.26689786,-0.1467093! 0.0,0.08491411,-0.055155154,-1.4389421,-1.7006602! 
0.0,-1.1802413,-0.10908198,1.6970916,-0.050280135,-2.2592704,3.202124! 0.0,3.7388263,0.2511148,1.3847585,-2.3662996,-1.3712642,-0.3364708! 0.0,2.3308604,3.7582574,-0.7521363,0.006638352,2.5901203,2.959436! 0.0,-0.5768232,-0.48847014,2.2695131,2.2592905,-2.8675437,-0.4145508! #0.0,-0.1664967,0.37857708,2.6322598,1.8459003! 0.0,-0.16569176,0.09080556,-1.395335,0.8143437! 
0.0,-1.1802413,-0.034092266,1.7508045,1.9306626,-1.2305036,-3.9813163! 0.0,2.0768843,0.13825041,1.2440195,0.23938897,0.052387893,-0.7611864! 0.0,3.5733838,2.0303507,0.009503774,-3.1216702,-1.3255529,2.4762301! 0.0,-0.61580944,0.70405155,-0.90586835,-2.6034162,-0.026584499,-1.4123406! #0.0,-0.19689602,0.51103085,0.6782153,-0.2500076! 0.0,-0.046886142,0.1604532,-1.4389657,-1.6193922! 
0.0,-0.25493136,0.088783525,1.7259796,0.028434902,-1.2474277,-3.9312048! 0.0,2.1760485,0.19400261,0.44800738,-1.3602655,-1.3337979,0.43144086! 0.0,1.9788122,-2.963624,1.725732,-3.101653,-0.1422579,-1.9379511! 0.0,-1.8642486,-0.37760672,2.2717102,-2.5825233,-2.9848473,3.984784! #0.0,-0.21536157,0.5496418,3.513116,0.44805783! 0.0,-0.12349711,0.11768867,-1.6151128,-1.6403964! 
0.0,-0.21572807,3.419357,0.78751135,1.9306626,-3.8276305,0.6257939! 0.0,1.05823,-0.04815379,0.31959432,-0.3372378,0.067638285,-0.6277282! 0.0,2.3661544,-3.3537986,-0.8617071,-2.8981285,-1.3255529,-2.3205194! 0.0,1.4579113,1.9994887,-0.53777504,-2.6921,0.0071955994,-2.5022492! #0.0,-0.15341732,0.49124724,0.1896884,1.919249! 0.0,-0.1443955,0.016296893,-1.3618686,0.79511696! 
0.0,-0.021519508,3.4948742,0.99937016,-3.0468638,-3.9116623,-3.9687626! 0.0,1.0379053,0.20752625,0.45536926,-2.3308115,-0.06939619,-0.3923397! 0.0,2.7903183,-2.8950388,-0.90296847,3.1347356,-2.2463439,3.001128! 0.0,1.3608874,-0.39064518,-0.6273974,-0.14734991,-0.015780404,0.89506036! #0.0,-0.17471185,0.48984596,0.21592546,1.787691! 0.0,0.081857,0.14268534,-1.6151128,1.7982471! 
0.0,-3.0973268,-0.089361936,-1.8165612,0.009288788,-1.577693,-3.9986696! 0.0,3.7388263,0.34655407,1.3699222,-0.32787424,0.40738153,-0.6736657! 0.0,3.555636,1.927331,0.7078471,3.552081,-1.4511614,-3.8051898! 0.0,-1.2262864,2.7217107,2.1491926,-0.124339074,-1.109539,-1.3812273! #0.0,-0.12818651,-2.0597892,-2.22067,-3.8493338! 0.0,-0.10283986,0.09679801,-0.93633986,-1.6776183! 
0.0,-2.5417972,-3.495407,-0.43418625,0.047714233,2.378263,-1.902462! 0.0,1.8350153,-0.023133632,-2.7258844,-3.7976217,2.5401714,-1.5936747! 0.0,2.045774,-3.0666747,-0.24070168,1.589757,0.86832905,3.657424! 0.0,-1.8194405,-0.027574062,-0.9089027,-2.5721083,-1.9368334,2.0692172! #0.0,-2.6545808,2.6053324,0.7723272,3.4760165! 0.0,3.495514,0.09042376,0.10845804,1.7546954! 
0.0,-0.21572807,0.015268585,-2.9715698,0.012797281,-1.2305036,-1.3106573! 0.0,2.1760485,-0.09047624,2.9669533,1.8417802,0.10067776,-0.4115962! 0.0,2.292556,3.6948004,-0.8617071,-3.1154714,2.619299,-0.046134394! 0.0,1.5115738,-0.41525117,2.2717102,-2.7930183,-0.07302593,-1.3639399! #0.0,-0.15342912,0.43888134,-2.2906454,0.027562916! 0.0,-0.082111605,0.11768867,-3.0450535,-2.519865! 
0.0,-0.105910555,-0.10924604,1.733272,0.77106416,-0.3419304,3.2434494! 0.0,0.97190964,0.27842066,1.3503937,0.30431497,-0.6441675,-0.6551656! 0.0,2.3616645,-1.7617412,-2.8224535,-3.1669657,-2.1786208,2.986478! 0.0,1.8025724,1.6905205,-0.4789113,-0.118067026,-0.37119675,0.90135235! #0.0,-0.15704249,0.44123974,0.58787215,0.060390633! 0.0,-0.013488688,-0.055155154,2.8414946,-0.07983352! 
0.0,-0.050429165,0.5299029,1.5761284,1.9306626,-1.2032313,2.857439! 0.0,2.7571878,0.1724851,-0.77873945,0.3188067,-1.3712642,-0.70778644! 0.0,2.6608822,-1.827415,0.03947015,-3.1149335,-2.2137327,2.914785! 0.0,1.4579113,1.4191281,2.2412238,-0.124339074,-0.37923804,0.894783! #0.0,-0.189105,0.5496418,0.63410604,3.9575567! 0.0,-0.1443955,0.17932373,-1.6151128,-1.5578169! 
0.0,-0.15740275,-0.08734283,0.7432115,0.78044647,-0.24001397,-3.9691133! 0.0,2.1921518,-0.06281025,2.0338347,-0.376837,-3.5737715,-0.682898! 0.0,2.4271827,-1.7802224,-2.51545,-2.9342403,-2.8983061,0.9169201! 0.0,1.8428526,1.6441135,-0.9004311,2.8303196,-0.3451296,-2.5400474! #0.0,-0.18551719,0.5496418,0.17926332,2.5634513! 0.0,-0.072315075,0.09088269,-1.4394757,-0.06685173! 
0.0,-2.9798832,0.039351568,-0.5296917,3.218871,-0.24604511,0.015464306! 0.0,-0.85937023,-3.846005,0.47185618,-3.3779197,-2.9561055,0.029935837! 0.0,1.6645803,-0.4125657,-2.320714,-3.1371365,-2.8064024,2.0530934! 0.0,-1.1647453,-1.0163321,0.99148846,-3.5409245,-1.0684137,1.0634432! #0.0,-0.16042261,0.34871197,3.9794197,3.9086952! 0.0,-0.12349711,-0.0605464,0.93497896,-0.053682424! 
0.0,-0.063045785,-0.043823447,1.7746502,0.77106416,-0.3986122,-1.289687! 0.0,2.1420639,-0.09756024,2.1490395,-1.5208822,-3.6157913,-0.6874411! 0.0,2.383231,-2.0684073,1.7207165,-3.1784606,-2.1786208,2.0110586! 0.0,1.8025724,1.6905205,0.3937111,2.8111827,-0.38970572,3.9357498! #0.0,0.17279574,0.49310663,0.16200799,0.38947678! 0.0,0.027185604,-0.055155154,-1.4063627,0.858642! 
0.0,-0.100728184,3.4795866,0.7432115,0.99163234,-0.39903265,-2.1659844! 0.0,3.4789083,0.23550387,2.0047767,-1.4907984,-1.3433037,-0.56325436! 0.0,2.0652523,1.5515273,1.6578844,-2.9786158,-2.8357975,1.9954096! 0.0,1.3095269,-0.37513924,2.2744336,-2.6538694,3.5451899,3.9357498! #0.0,-0.22977161,0.5962618,-1.5762168,0.3451128! 0.0,-0.043859072,-0.04939649,-1.4637487,-0.08938663! 
0.0,-0.065085016,1.7437989,0.7608558,0.07177029,-1.5794802,-4.0296125! 0.0,3.9122176,-0.08358871,2.0338347,-1.1259394,-0.08313234,-0.72759956! 0.0,2.2845576,3.6902332,-2.8224535,-2.9342403,3.59352,2.4372501! 0.0,3.757777,-0.44043934,-0.86895305,2.8079226,-0.42724955,-1.3802025! #0.0,-0.18781671,0.3902244,3.44953,3.9575567! 0.0,-0.097878195,-0.026443651,-1.3285803,0.7122092! 
0.0,-0.09074122,-3.3857455,-3.2577267,0.7561322,-1.2032313,-3.9691133! 0.0,3.9122176,-0.081623994,0.34782422,1.8299581,-3.913984,-0.79376745! 0.0,2.2845576,3.7711992,-2.8224535,-3.1149335,-2.1910868,3.0471752! 0.0,1.4579113,-0.39891198,2.1921885,-2.84902,3.47938,0.8930296! #0.0,0.12356123,0.4597584,-0.29728684,-0.25383782! 0.0,-0.12349711,-0.03086591,-1.3369157,-2.540968! 
0.0,0.01732907,-0.08497499,0.7241278,-0.07231858,-0.41403636,3.1331825! 0.0,3.8001516,0.18431386,2.0340464,-0.39571482,-1.3304638,-0.5622855! 0.0,2.292556,0.74379635,1.6697001,-3.1663718,-2.2388685,2.0100625! 0.0,-1.482801,-0.40214077,2.2717102,-0.16366655,-0.40209073,-1.3639399! #0.0,-0.21831803,0.3780363,0.8505365,0.3451128! 0.0,0.10374944,0.17932373,-2.369289,-1.6391284! 
0.0,-0.11123605,-0.11461054,1.7746502,0.7648511,-0.36428058,0.6448753! 0.0,2.0920968,-0.08272443,2.1490395,-1.5208822,-1.3433037,-0.32432994! 0.0,2.0652523,-1.7823745,1.6578844,-2.862178,-1.7410285,2.393629! 0.0,1.4445833,1.9117508,-0.61459273,-2.825895,-0.38970572,-0.43995395! #0.0,0.17279574,0.39970097,0.5822444,-0.17729662! 0.0,-0.013488688,-0.055155154,1.2462307,0.71762663! 
0.0,-0.11116764,-0.07657282,1.00414,1.9306626,-3.781676,3.2434494! 0.0,2.1760485,0.30164388,2.1748621,-1.1259394,-2.9075398,-0.682898! 0.0,3.555636,3.7211974,-2.830175,-3.1149335,2.6561527,-2.3205194! 0.0,-0.58233356,1.6588247,2.2412968,2.8193197,3.47938,-2.5022492! #0.0,-0.22889858,0.39464185,3.4750683,-2.0774503! 0.0,-0.036616404,-0.037474692,-1.3285803,0.7644861! 
0.0,-0.02100468,1.6899312,0.7886918,2.5338645,-1.579114,-4.020852! 0.0,3.8355978,-0.10149054,0.9053464,-2.7912712,-1.3368721,0.43144086! 0.0,1.6146812,-3.3406801,1.4975471,3.5447884,-2.285188,2.4594061! 0.0,-0.61580944,-1.7449552,-0.90586835,-2.6053245,3.3847196,0.9549054! #0.0,-0.20537446,0.48657373,0.17926332,-0.12661876! 0.0,-0.13456602,0.08634102,2.836416,-0.13149536! 
0.0,-0.15740275,3.4795866,0.7432115,0.058929075,-0.2736363,-3.9691133! 0.0,2.1480372,-0.123634815,1.9226075,1.8528888,-3.56971,-1.0244493! 0.0,2.3334587,-1.827415,-0.85736656,3.5297174,-0.055247243,-3.9344783! 0.0,1.8428526,1.6441135,-0.6018815,2.7969275,-0.3451296,2.967531! #0.0,-0.2662444,0.45448163,0.6586403,1.919249! 0.0,-0.072315075,0.09042376,-1.3587346,0.7727554! 
0.0,-0.13871703,-3.3974662,-0.077091545,1.1315782,-3.7823267,-3.8995914! 0.0,3.7537045,0.095214054,0.31959432,0.2725634,-0.03557664,-0.72603! 0.0,3.520046,-1.7823745,0.009503774,-2.9342403,-2.285188,-0.03963089! 0.0,1.3079602,0.6753101,2.3249876,-0.124339074,-2.8725803,-1.341723! #0.0,-0.15559572,0.49046597,-1.6111188,-0.2791715! 0.0,0.030065142,-0.069820955,2.8091958,-0.07340072! 
0.0,-0.16075547,3.4310884,0.8004115,0.06917849,0.44927162,-3.8180385! 0.0,3.534492,0.16333139,1.4036628,0.2725634,-2.8908744,-0.6959587! 0.0,-3.8328266,-0.7996864,1.7017597,-2.9342403,-1.2356919,-0.3984413! 0.0,3.7276897,1.3986794,-2.5591881,-0.124339074,-2.5315928,2.9706278! #0.0,-0.13386104,0.4542258,-1.6260153,2.1184616! 0.0,0.014765345,0.07755184,3.5630298,0.7286018! 
0.0,-0.11401737,-0.15385395,0.7896161,0.7744069,-1.5923909,-4.001678! 0.0,3.4905221,0.19782558,1.9974687,-0.376837,-0.03557664,-0.5580126! 0.0,2.2845576,2.0475583,-0.7521363,-3.1609237,-0.019052576,2.450747! 0.0,1.4579113,1.6458033,2.2226093,-2.7977579,0.0071955994,-2.530359! #0.0,-0.22889858,0.4597584,-0.29874402,1.857992! 0.0,-0.053686842,-0.03086591,2.8124714,-1.5921357! 
0.0,-1.216699,0.09406954,-3.1241715,-2.9710188,-0.3419304,3.1407824! 0.0,2.2101438,-0.0537845,-1.8756871,-2.3413951,-0.12693581,-0.32098892! 0.0,2.2816594,-3.3794389,-3.2856574,-3.1448674,-1.3255529,-2.3205194! 0.0,-1.9482279,-0.96343726,-0.4789113,-0.13091536,0.9249339,-0.4087956! #0.0,-0.2054219,0.5366456,0.16200799,-0.22947532! 0.0,-0.17217624,-0.034475453,2.7842114,-1.6294641! 
0.0,-0.063045785,-0.11461054,0.7896161,0.751048,-2.2800274,0.6448753! 0.0,3.6837294,2.76116,1.2841569,-1.4930568,-1.3433037,-0.32432994! 0.0,2.0652523,3.7711992,1.7046281,-2.862178,-2.2517924,2.393629! 0.0,1.4147276,-0.44971964,-0.90800273,-2.79085,3.4958305,-0.2736022! #0.0,-0.15813851,0.4477074,-1.6306314,0.38947678! 0.0,-0.013488688,-0.055155154,-1.3277996,-0.07781102! 
0.0,-0.07348342,1.7072114,-2.7005837,0.78829336,-0.30425712,3.1331825! 0.0,2.1480372,0.095214054,2.0621374,-1.0985556,-3.856799,-0.36194998! 0.0,-0.4991826,3.2836611,-0.85736656,3.1009822,-1.3337592,0.92117614! 0.0,-1.9088244,-0.40214077,-0.8554067,-2.5667143,-0.11242209,0.90135235! #0.0,-0.22889858,0.47537133,0.20806816,-2.129072! 0.0,0.030065142,-0.064169854,2.93097,2.9771576! 
0.0,1.8194709,3.4795866,0.7896161,-0.042189088,-0.37492606,-3.1293826! 0.0,3.497325,-0.07014848,2.1131854,2.5419598,-1.3298539,-0.3561105! 0.0,0.044668134,-2.0644715,-3.3042665,3.1504076,3.5669708,-2.8822079! 0.0,-1.2808323,1.3632287,2.2399707,-2.566627,1.7269912,-0.39569372! #0.0,-0.15704249,0.4662405,2.4683328,-2.33351! 0.0,-0.013488688,0.024647683,-1.3618686,-1.7006602! 
0.0,-0.06718431,-0.08215583,-2.9641821,0.07913039,-0.3390587,-1.3106573! 0.0,2.5374937,0.22638519,-0.6435567,1.8287717,-2.9555798,-0.7440128! 0.0,-0.5348941,-2.0939271,-2.5213656,0.016881391,-2.244697,2.3846896! 0.0,1.3788458,-0.4605157,-0.8654355,-2.7930183,-0.015780404,2.983956! #0.0,-0.116718575,0.5223049,-1.5762168,-0.26598823! 0.0,0.022677701,0.17932373,-1.7550144,0.012192741! 
0.0,-1.216699,1.653399,0.72256315,0.79233754,-1.5573027,3.1201696! 0.0,2.1921518,0.19704859,0.3708828,-2.3308115,-1.2996567,-0.38545656! 0.0,2.707634,1.6212082,-0.8177528,-2.9342403,-2.6977983,2.4555552! 0.0,1.8322834,-0.32437477,0.3937111,-0.08745694,-0.11922498,-1.3639399! #0.0,-0.12850362,0.55640316,0.603924,2.0778942! 0.0,0.030065142,0.09042376,-1.4394757,-0.016048037! 
0.0,-1.2744186,3.2207599,2.2410975,0.7115182,-2.2800274,-1.3106573! 0.0,0.3004837,-2.0109372,-2.622747,-1.3602655,-0.039691024,-0.78789055! 0.0,-3.6472936,-3.758263,1.7316931,-3.1448674,0.6057639,2.0194185! 0.0,1.361056,-1.1297483,0.43166184,1.0444674,0.0071955994,-2.827468! #0.0,-0.22889858,0.42654032,0.22249754,-1.2900271! 0.0,-0.0023745708,0.03969496,-3.2839665,-0.10683742! 
0.0,-0.16075547,-0.14115055,-0.13674553,2.4743948,-0.4312026,-2.143847! 0.0,3.497325,0.13286734,2.0338376,-0.31522012,-2.9075398,-0.37580222! 0.0,1.6146812,-0.54152524,-2.4672363,-3.1682975,-2.154471,0.93485284! 0.0,1.8428526,-0.39310688,2.2719994,-2.84902,-2.891524,0.92551947! #0.0,-0.15704249,0.49972185,-2.2107348,3.9450223! 0.0,0.01913302,0.09679801,2.7882707,-0.11370744! 
0.0,-2.849606,-0.12006061,0.78751135,0.7561322,-1.2865105,0.6448753! 0.0,2.1480372,-3.1658597,2.033385,-1.4539585,-0.12693581,-0.682898! 0.0,2.3329117,-1.7802224,1.7107486,3.5436902,3.5886402,-3.8051898! 0.0,1.3079602,-0.40974292,2.2185378,-2.6921,-0.4935526,-1.3700539! #0.0,-0.15748543,0.39671502,0.1896884,-0.24750753! 0.0,-0.08318944,0.016296893,-1.3618686,0.67177635! 
0.0,-0.022240598,3.3602242,0.7896161,-3.040751,-0.24604511,-1.2675586! 0.0,-0.7577486,0.31139937,2.1341844,-2.6171236,-1.3921974,-0.3923397! 0.0,0.18298301,2.0778878,-3.3042665,3.1504076,-0.019052576,2.4555552! 0.0,-1.9231524,1.7634906,2.2621176,2.8758183,3.5451899,-0.35050708! #0.0,-0.15704249,0.4837499,-1.9239061,0.3451128! 0.0,0.009959199,0.024647683,-1.3618686,-0.9347143! 
0.0,-2.8715124,1.9841275,-3.0419612,-0.09431949,-3.1247802,-2.5917292! 0.0,0.9646584,2.76116,2.851035,1.8758931,-2.7996473,-0.62813455! 0.0,2.6788485,-2.9285283,3.8796768,-0.1458726,-1.366781,-1.1356335! 0.0,1.9217706,-0.40214077,1.6728091,-3.593185,-2.9763951,3.984784! #0.0,1.3693705,0.49310663,2.0196133,-0.298737! 0.0,-0.36361217,3.6113462,0.5504589,-0.07923783! 
0.0,-0.1440613,-3.3857455,1.7399348,-0.3916545,-3.7993383,-2.131694! 0.0,2.1044834,0.16566536,2.0981126,1.9578518,0.051794983,-1.5841614! 0.0,3.573446,1.6116883,-0.899043,-3.0688891,2.633785,2.9110928! 0.0,-1.8798971,-0.9131593,2.1786594,-0.12635984,3.47938,0.5434243! #0.0,-0.14401679,0.4231237,0.17926332,-0.23355804! 0.0,-0.08318944,-0.03086591,2.3395019,-0.050767843! 
0.0,0.00405455,1.7437989,-2.9311523,-0.026627382,-3.8852494,3.1922348! 0.0,2.0810425,0.18431386,1.3665004,-0.376837,-1.343283,-0.3728042! 0.0,2.386323,-2.9682505,-0.94617844,0.67720735,-2.3074331,2.9110928! 0.0,1.4445833,-0.41927624,-0.8464012,-2.7977579,-0.13607019,-0.39569372! #0.0,-0.20537446,0.44446146,0.1990667,-0.22947532! 0.0,-0.041866694,-0.0482978,-1.3277996,-0.9347143! 
0.0,-1.3347534,-0.1092054,1.6348071,2.4961689,-0.3390587,-3.977297! 0.0,3.5005083,-0.06582035,1.3210187,1.8012108,-0.03675639,-0.7179889! 0.0,-0.0031555034,-2.0939271,-0.78151387,0.045497585,-2.6977983,2.4628282! 0.0,1.8451978,-1.7551296,2.2048402,-0.15980843,-2.95885,-1.3700539! #0.0,-0.16023476,0.5084399,3.5074575,0.3451128! 0.0,-0.21644755,0.0407352,2.8747883,-0.09322041! 
0.0,-0.155072,3.431156,1.7023358,0.010472409,-1.1990621,-3.9521885! 0.0,2.0484154,-0.091050774,1.3487257,-2.369876,0.052387893,3.3843899! 0.0,0.6493765,-2.8593194,1.6802613,-2.862178,-1.7927616,2.352503! 0.0,1.4368092,-0.3228074,-0.8778869,3.3465915,3.420729,2.8101792! #0.0,-0.074792296,0.36357966,0.6412602,3.8698142! 0.0,0.098161,0.19862553,-3.0421286,-2.5755332! 
0.0,-0.25493136,0.06744878,0.7896161,-0.042189088,-0.3419304,-1.2675586! 0.0,2.1760485,0.21522498,0.44800738,-1.3602655,-1.3298539,-0.3923397! 0.0,2.2816594,-1.7802224,-3.3042665,3.1504076,-2.328205,2.4555552! 0.0,-1.9231524,1.7761296,2.2399707,-2.5825233,-0.37119675,-0.39569372! #0.0,-0.15704249,0.5496418,-0.27221265,0.44805783! 0.0,-0.013488688,0.024647683,-1.6151128,-1.7006602! 
0.0,-0.14695713,-0.18238072,-2.9289007,0.02292807,-2.2964225,-3.9368653! 0.0,3.7713423,-0.04389143,2.0340464,-1.1275743,0.051794983,-0.37635538! 0.0,2.2845576,-2.0684073,-0.8617071,-3.0911357,-1.366781,2.9816685! 0.0,1.3499033,1.7428411,-0.91159946,-0.12863715,-0.10214451,-1.6772176! #0.0,-0.15342912,0.39464185,0.22565562,-0.16212875! 0.0,-0.080553785,-0.05618077,-1.3307041,-1.6294641! 
0.0,0.01671746,-0.030805524,1.6827413,1.9306626,-3.472752,3.1231766! 0.0,2.0093608,0.20752625,2.1688774,1.8637638,-1.8978801,-0.5622855! 0.0,-0.0031555034,0.51138765,1.725732,-3.0691319,-2.2448413,2.9138038! 0.0,1.8451978,-0.40214077,-0.89049727,-0.15980843,-0.38539195,3.999923! #0.0,0.13372034,0.47850445,-1.6306314,0.068842545! 0.0,-0.082111605,0.016296893,3.628302,-1.6619129! 
0.0,-1.1802413,1.7002548,1.7508045,2.6915476,-2.2800274,-3.9312048! 0.0,0.9870696,0.16566536,2.0338376,2.0285716,0.052387893,-0.3855593! 0.0,0.02660849,3.7242944,-2.4672363,3.545578,-1.3255529,2.4392488! 0.0,-0.61580944,1.3632287,-0.5981269,2.861933,-2.891524,-0.39921382! #0.0,-0.14516716,0.47853377,0.17926332,-0.2500076! 0.0,0.098161,0.1242879,2.8532524,-1.6292309! 
0.0,0.4263854,0.088783525,-2.9109633,0.75627285,-1.1823888,3.1331825! 0.0,2.1760485,-0.030466802,0.39431053,-1.0985556,-1.3337979,-1.5895629! 0.0,1.5973002,3.6907678,1.427819,-2.610946,-2.3287203,2.4555552! 0.0,3.6500478,1.7093067,-0.8512067,-0.1558815,-0.39304617,-0.33025274! #0.0,-0.21536157,0.5496418,3.513116,0.44805783! 0.0,-0.12349711,-0.08780338,2.8091958,0.7892292! 
0.0,-0.04069497,3.477927,0.7136843,0.74766725,-2.2800274,-3.9312048! 0.0,0.9870696,-0.052302767,2.990708,1.9638331,-1.2607862,-0.5038727! 0.0,2.6807418,3.7242944,0.090677865,3.545578,-0.1422579,-1.9379511! 0.0,-0.0133486055,0.6844334,-0.5981269,-2.556105,-2.891524,3.0409791! #0.0,-0.16906324,0.4231237,0.17926332,3.8949456! 0.0,-0.06695205,-0.007138964,-1.3618686,-1.6292309! 
0.0,-0.092993386,-3.403068,0.7432115,1.9328414,-0.21897791,-3.8976278! 0.0,2.1921518,2.76116,-1.8756871,-2.609367,-0.6441675,-0.41327375! 0.0,-0.5348941,1.5515273,-2.8557293,0.016881391,-2.285188,2.0100625! 0.0,1.8428526,-0.39891198,-0.9597409,-0.16708359,-0.33055967,0.88066113! #0.0,-0.118940145,0.50108236,0.65966207,-0.2791715! 0.0,-0.06380522,0.14454925,2.8178415,0.83645! 
0.0,-0.068585634,1.7498267,-2.9860826,0.7744069,-1.2032313,-4.001678! 0.0,2.1420639,-0.042104788,2.0333152,1.847096,-0.03557664,-0.5214114! 0.0,2.7255921,-1.8946354,-0.7521363,-2.998513,-0.019052576,2.471543! 0.0,1.4579113,-0.39310688,-0.90586835,-0.09554775,0.0071955994,3.999923! #0.0,-0.22889858,0.4597584,0.7039883,1.857992! 0.0,-0.04449606,-0.007138964,2.8124714,-0.09322041! 
0.0,-0.07348342,1.6568149,1.733272,-3.0732243,-3.8852494,3.2434494! 0.0,3.4789083,-0.08272443,2.1508002,1.8912396,-1.3433037,-0.6551656! 0.0,2.3616645,3.2332082,1.6578844,-3.1306753,-2.1880946,2.986478! 0.0,1.8025724,-0.32437477,2.1491926,2.7477953,-0.39304617,3.984784! #0.0,-0.17504503,0.53498745,0.6586403,0.060390633! 0.0,-0.072315075,0.09042376,-1.720975,-1.6332006! 
0.0,-0.38395983,-0.05131674,0.80105823,-0.03286996,-3.9563673,-1.5548515! 0.0,2.1760485,-3.1896286,0.31959432,-1.0698488,-3.9146414,-3.4244566! 0.0,-0.8253939,3.6907678,-3.2493958,-3.0910132,-2.8718877,-3.3390646! 0.0,-1.8950591,1.4191281,3.9219108,-2.5528634,3.5721745,-0.3102604! #0.0,-0.2054219,0.48657373,0.17252491,-0.35769105! 0.0,0.045175184,3.9397092,-1.6151128,0.72233963! 
0.0,0.01732907,-0.10473506,1.6348071,-0.07231858,-1.5514555,-0.3922372! 0.0,3.8001516,-0.030466802,0.57158506,-1.1259394,-2.9896228,-0.698577! 0.0,0.7211655,-2.099342,1.6146426,0.051242333,-2.2388685,0.93485284! 0.0,1.8883152,1.3256902,2.2631376,-0.16366655,-0.49185476,-1.3812273! #0.0,-0.25739235,0.3780363,-0.26689786,0.3451128! 0.0,0.10374944,0.17932373,-1.7793953,0.7158016! 
0.0,0.0036833286,-0.08034419,0.7508151,0.71967405,1.9811125,3.2718828! 0.0,3.7388263,-0.08272443,1.2471117,-0.6804085,-1.3337979,-0.7179889! 0.0,3.555636,1.6526151,1.6939157,-3.1784606,-2.2890697,2.4628282! 0.0,1.8428526,1.6778917,-2.3611279,-0.13571881,-0.11922498,-0.34923652! #0.0,-0.15589005,0.49972185,-0.29728684,-0.26598823! 0.0,1.3513169,-0.014926016,2.7939005,0.6712669! 
0.0,-0.8810897,3.4583836,3.0228481,-0.02480689,-3.8276305,3.3895783! 0.0,1.6160235,-2.5861583,3.847279,-2.3413951,-0.12693581,-2.4238286! 0.0,2.3661544,-3.3537986,-1.7740874,-2.8981285,-1.3255529,-3.5939255! 0.0,-2.363943,1.7735411,-1.6170092,1.6803246,0.0071955994,2.0109162! #0.0,-0.15341732,-2.9762106,0.1896884,1.919249! 0.0,-2.673944,0.016296893,-3.833273,0.79511696! 
0.0,-0.10190275,-0.11461054,1.7508045,-0.050280135,-3.781676,3.240297! 0.0,0.4034667,0.16566536,0.4820216,-2.3413951,-0.03557664,-0.80388814! 0.0,2.3960173,2.0303507,1.4975471,-2.9001176,-1.7410285,2.393629! 0.0,-1.5041184,-0.96343726,-0.53777504,-2.801517,-0.380927,0.57077736! #0.0,-0.16023476,0.5084399,0.14964558,1.849638! 0.0,-0.013488688,-0.02510155,2.3395019,-0.114363834! 
0.0,1.8194709,-0.1268815,0.7896161,1.9306626,-3.781676,-1.3621925! 0.0,1.0127763,0.30164388,1.354556,-1.4659339,0.052387893,-0.69358563! 0.0,1.9752592,-3.4502077,1.725732,-2.9419398,3.599925,2.4628282! 0.0,1.5049529,1.4121197,-0.89056504,-0.122241795,-0.38970572,-1.3679976! #0.0,-0.189105,0.49611568,0.17926332,-0.16212875! 0.0,0.009959199,0.0,2.8378596,0.79146373! 
0.0,-3.0292702,-3.4753342,-2.9715698,-0.042189088,-1.5923909,3.1922348! 0.0,3.3525267,0.23647267,1.3222673,1.8469652,-2.9543424,-0.3046814! 0.0,1.9358829,3.2396731,-0.81488705,0.29522228,-2.6977983,-2.2809207! 0.0,-1.9231524,1.7574991,-0.9004311,-0.124339074,-2.9380543,-2.5913777! #0.0,-0.09482244,0.4837499,0.68621564,-0.2500076! 0.0,-0.053686842,0.12474288,-1.3618686,-1.7006602! 
0.0,-1.1802413,3.4695737,1.7508045,2.6915476,-0.2794794,3.1331825! 0.0,3.7583501,0.13825041,2.0450368,0.2725634,0.052387893,-0.39925897! 0.0,2.292556,2.0716465,1.6883649,-3.1663718,-2.8577633,2.0100625! 0.0,1.4345424,0.6589192,-0.57095385,2.861933,-0.026584499,-1.3245254! #0.0,-0.20537446,0.5111789,0.8505365,0.027562916! 0.0,-0.046886142,0.179355,-2.335125,-1.6460742! 
0.0,-0.005286593,-0.15683077,-3.1663592,0.02292807,-1.6333102,-3.9561884! 0.0,2.1476226,-0.04389143,2.1508002,0.25362724,0.057257142,-0.72603! 0.0,3.428055,-2.9873316,1.725732,-3.139286,-0.082289875,-3.818799! 0.0,1.4579113,1.6256207,-0.90586835,-2.5849504,-0.10214451,-1.6772176! #0.0,-0.12518978,0.39464185,0.589887,-0.16212875! 0.0,-0.082111605,-0.05618077,2.8844378,0.6944726! 
0.0,-0.09074122,3.4872463,-2.7005837,0.05832131,-0.24604511,3.105483! 0.0,3.9122176,0.2113922,2.0333152,1.9104805,-3.913984,-1.0244493! 0.0,3.555636,-1.827415,-2.8224535,3.5297174,-0.055247243,2.4637008! 0.0,1.4579113,-0.40214077,2.1689906,-0.124339074,-0.44522223,-1.4104158! #0.0,-0.189105,0.47537133,-1.6300625,-0.25383782! 0.0,-0.12349711,-0.03086591,2.8378596,-0.050767843! 
0.0,0.59523934,0.09406954,0.74822164,-0.44203743,-1.2865105,-1.5548515! 0.0,1.0127763,-0.052302767,0.62734014,2.0067568,-2.9392657,-0.29233682! 0.0,2.7255921,0.5183501,1.725732,-3.1448674,-2.2072895,-1.9379511! 0.0,-2.3958726,0.6844334,2.230452,-0.12548907,-0.38970572,-0.29240096! #0.0,-0.107737005,0.4231237,0.17926332,0.38729563! 0.0,-0.05409753,-0.007138964,1.2333106,-0.0010312311! 
0.0,0.5548682,-3.3475983,0.69987005,1.9306626,-2.3399963,3.1331825! 0.0,3.5283773,0.18431386,0.46885195,-2.16357,-2.9392657,-0.29233682! 0.0,-0.5348941,3.7587547,1.725732,-2.610946,-1.7410285,-0.013290456! 0.0,-2.3958726,-0.40440843,2.230452,-0.12548907,0.013825018,3.9357498! #0.0,-0.2054219,0.5962618,-1.6111188,1.849638! 0.0,-0.0030106716,0.015738545,-1.720975,-0.071082175! 
0.0,-0.21572807,3.4863157,-2.9312882,1.9306626,-1.5872136,-3.9561884! 0.0,1.0127763,0.19613779,2.0340464,-0.31522012,0.046879537,-0.35373223! 0.0,2.6608822,3.689326,-0.81263244,3.1306827,-2.2072895,2.9816685! 0.0,1.4579113,-0.39891198,2.2208312,-0.12863715,-0.07302593,2.8101792! #0.0,-0.21097222,0.5496418,-1.6111188,-0.23679861! 0.0,-0.05409753,0.115266524,-1.7119493,-1.5266051! 
0.0,0.53926116,1.7261413,1.7259796,0.028434902,-1.2305036,3.1486113! 0.0,1.0127763,0.18145844,-0.5947928,-1.1259394,-2.9561055,-0.37635538! 0.0,2.6788485,-2.0684073,1.7207165,-3.176626,-1.3337592,0.92117614! 0.0,-0.05464163,1.5584899,-0.9089027,2.8247209,-2.9487333,-0.36990005! #0.0,-0.18551719,0.4231237,0.17926332,-2.140493! 0.0,0.039568804,-0.060787275,3.632726,0.7644861! 
0.0,0.52073723,3.439906,0.7079522,-0.042612303,-3.7942784,-3.9813163! 0.0,2.1760485,0.18145844,1.354556,1.8338901,-0.03557664,-0.39925897! 0.0,2.3472173,-1.8770118,1.6875973,3.0793927,-2.2137327,2.9110928! 0.0,1.3499033,0.6753101,-0.9089027,-2.6053245,3.5949662,-1.3760954! #0.0,-0.14115553,0.46668324,0.8045905,-0.0022154227! 0.0,-0.080553785,0.06426094,-1.5142249,-2.519865! 
0.0,-0.15740275,0.05547803,0.72433144,1.9494816,-0.3390587,-2.143847! 0.0,1.05823,0.20752625,2.150934,2.3975046,-1.3304638,-0.644836! 0.0,3.555636,-0.8251586,-0.9269039,-1.4246793,-2.849985,2.9138038! 0.0,2.460794,-0.44163167,0.6772051,-0.111435466,-3.4121294,-0.38515726! #0.0,-0.14623421,0.4477074,-1.6111188,0.40798193! 0.0,0.05304709,0.11735505,-1.4389421,-1.626006! 
0.0,-1.166398,-0.07695386,1.7508045,1.9306626,-2.2964225,3.1486113! 0.0,1.05823,0.13825041,1.354556,-0.31522012,0.06298869,-0.39925897! 0.0,2.707634,3.689326,0.009503774,-3.1154714,2.633785,2.4762301! 0.0,1.4579113,-0.39891198,-0.57095385,-0.12863715,-0.03975507,2.8101792! #0.0,-0.14516716,0.5496418,0.17926332,-0.2500076! 0.0,-0.046886142,0.115266524,-1.6151128,-1.5266051! 
0.0,-1.2594042,-0.07618134,-3.1663592,1.1183329,-1.2487718,3.1486113! 0.0,3.8699384,0.18431386,0.44706213,2.4955065,-2.9075398,-0.36194998! 0.0,-0.4991826,3.7211974,-0.7767656,3.5357075,2.6551375,3.0245366! 0.0,1.401819,-0.41525117,-0.9089027,-0.148994,-0.38970572,-1.336421! #0.0,-0.18551719,0.3902244,0.589887,-0.17729662! 0.0,0.03823572,0.07566576,-0.07409048,0.7419472! 
0.0,-0.07348342,1.7009742,1.733272,0.03743064,-3.8852494,-1.1820068! 0.0,3.4789083,0.18431386,-0.15342045,1.8912396,-2.9561055,-0.80388814! 0.0,-1.1550894,3.2332082,1.6528485,-0.82680035,-2.1954105,-1.1185513! 0.0,-1.2262864,-0.32437477,-0.31053296,-2.153367,-1.109539,1.9108291! #0.0,-0.17504503,0.45448163,-1.4809518,2.6030657! 0.0,3.9898276,0.09042376,-1.720975,-1.6332006! 
0.0,-0.07348342,-0.08034419,-3.1693254,0.8170804,-3.8852494,-4.048546! 0.0,2.1476226,0.31139937,1.3210187,-0.39571482,-2.949089,0.5764308! 0.0,3.428055,-2.9873316,0.03947015,-3.15227,2.7859743,-3.818799! 0.0,1.4579113,1.6256207,-0.90586835,-2.56042,3.3847196,-0.35708645! #0.0,-0.12518978,0.50797784,0.589887,0.050354417! 0.0,-0.08083928,0.09679801,-1.8443279,0.6944726! 
0.0,2.9052033,3.1413612,3.4148798,3.0808287,2.1777005,2.058143! 0.0,2.1760485,0.17477328,-3.8733897,1.8417802,-3.6034904,0.4806819! 0.0,-0.91377115,0.8157225,2.2255845,2.5429835,-0.12227347,-2.69174! 0.0,-1.9865642,0.6753101,-1.3159513,0.037832737,3.5949662,-2.1398225! #0.0,-3.9645271,2.861043,0.8045905,2.1599789! 0.0,-0.10920231,2.7947264,-2.1037798,-2.519865! 
0.0,-0.14703202,1.7498267,-1.4935203,-2.205627,-1.2944481,-2.149975! 0.0,2.3950205,3.845222,1.9463115,-0.34019968,2.5401714,-0.38569945! 0.0,2.3661544,-1.7823745,1.7046281,-3.1564903,-2.2215548,-3.8028677! 0.0,-3.46035,1.6900575,-0.120747566,-0.16366655,-3.9229722,0.03903818! #0.0,-0.21831803,0.46703258,0.5906499,-0.16212875! 0.0,-1.6527958,0.058999553,-3.488457,-2.0027862! 
0.0,0.0036833286,-0.030805524,0.7608558,2.511419,-1.5923909,-3.9813163! 0.0,3.7388263,0.17477328,1.354556,1.8417802,-3.566131,-0.35224605! 0.0,2.3275986,1.6526151,1.6939157,3.0793927,-0.12227347,2.4628282! 0.0,1.3079602,0.6753101,2.232796,3.766809,-0.11922498,-1.3760954! #0.0,-0.20582467,0.46668324,-1.6111188,-0.26598823! 0.0,-0.21644755,0.09974024,2.8532524,-0.07923783! 
0.0,-0.19859987,1.7498267,0.7608558,0.05832131,-0.24001397,-3.9543097! 0.0,1.05823,0.20752625,1.2975361,-1.4471925,-1.3304638,2.1873393! 0.0,3.555636,3.2155137,-0.85901403,3.552081,-2.2137327,0.93485284! 0.0,2.460794,-0.40214077,-0.4758769,3.8119667,-2.891524,0.90135235! #0.0,-0.14623421,0.4477074,-2.2906454,0.40798193! 0.0,0.05304709,0.11735505,-1.3913625,-1.626006! 
0.0,-0.07348342,-0.036968417,0.72256315,-3.0732243,-3.8183274,-1.3106573! 0.0,2.1921518,0.18431386,1.3847585,1.8299581,-1.2996567,-0.80388814! 0.0,3.555636,3.6902332,1.6881787,-3.1306753,-2.2137327,2.4441855! 0.0,1.4579113,-0.32437477,2.1491926,-0.12863715,-0.39304617,3.984784! #0.0,-0.17504503,0.45448163,0.17926332,2.6030657! 0.0,-0.072315075,0.09042376,-1.4394757,0.19871044! 
0.0,1.8194709,-0.10530001,0.8120045,1.9306626,-3.8023992,-2.0577476! 0.0,1.0183371,-0.08004928,1.3487257,-2.2915912,-0.12693581,-2.0635571! 0.0,-0.5348941,-3.3537986,1.725732,0.019802615,-2.1934946,-0.9554672! 0.0,-0.5708434,1.641269,0.466549,-0.122241795,-3.6378012,2.8101792! #0.0,-0.22889858,0.42109382,-0.27110395,1.7499995! 0.0,-0.053333696,0.14268534,3.632726,1.7982471! 
0.0,-0.13443202,-0.030805524,-3.023817,-0.016057856,-1.5923909,-1.3106573! 0.0,2.1760485,-0.14637831,0.65785545,-1.3602655,-1.3090677,-0.4115962! 0.0,2.292556,3.7720954,1.5083026,-0.11549206,-2.2448413,2.0194185! 0.0,1.8451978,-0.41429088,-0.87266636,-2.5849435,-0.40209073,-1.3639399! #0.0,-0.181191,0.39844927,0.6268625,3.861707! 0.0,0.03823572,0.036722157,3.8604255,-1.5534948! 
0.0,-0.13443202,1.6899312,0.99937016,-2.9995441,-3.7942784,-4.0354266! 0.0,3.809315,-0.075384066,2.0621374,2.4069066,-1.3368721,-0.3923397! 0.0,1.6146812,3.6907678,-0.90296847,3.1407588,-2.2463439,3.001128! 0.0,-0.61580944,-0.39064518,-0.94762224,-2.6053245,3.3847196,-2.5202906! #0.0,-0.181191,0.48657373,0.17926332,3.8806806! 0.0,-0.13456602,0.085571915,-1.6151128,-1.5760875! 
0.0,3.0539222,1.367876,-2.9485428,1.9306626,-2.992063,-0.1283493! 0.0,0.9932693,0.9470105,-1.476635,-0.03839588,-3.5737715,3.232377! 0.0,3.5733838,-0.09149686,-0.8646499,-3.1055663,-1.8569765,2.7544136! 0.0,-2.9698973,-0.41429088,2.6283946,2.4655685,-0.12825276,1.9074879! #0.0,-0.19689602,-2.431798,-3.7873135,2.1684217! 0.0,3.1936264,2.1683815,-1.4389657,-1.0623307! 
0.0,0.4263854,-3.3685646,0.7608558,0.021644484,-3.781676,3.094354! 0.0,3.7870305,0.16566536,1.3847585,1.8299581,-1.3718774,-0.76236254! 0.0,3.555636,3.6902332,1.4977125,-2.610946,-2.2215548,2.986478! 0.0,-1.4734414,-0.39055008,-0.4789113,-0.118067026,-0.42397872,0.90135235! #0.0,-0.20497473,0.53498745,-0.3588495,-2.129072! 0.0,-0.08789731,-0.02510155,2.815018,0.67177635! 
0.0,-0.105910555,1.7437989,0.69987005,0.07177029,-3.7340333,-3.9561884! 0.0,3.8699384,-0.1313026,0.4820216,0.2725634,-1.3298539,-0.64803255! 0.0,2.0187218,3.7587547,-0.9506923,-2.9342403,3.59352,2.992561! 0.0,3.757777,-0.39126626,-0.8437338,-0.124339074,-0.42724955,-1.3700539! #0.0,-0.11822125,0.46668324,-0.29728684,1.849638! 0.0,-0.097878195,-0.034475453,-3.0211327,-0.10683742! 
0.0,-0.11123605,-0.08034419,1.574049,1.1514511,-0.36428058,0.6448753! 0.0,2.1270037,-0.08358871,2.0341206,-1.1259394,-0.03557664,-0.61551434! 0.0,3.520046,-1.7823745,1.5720607,-2.9342403,-2.2448413,-0.04139609! 0.0,3.7276897,1.3986794,2.3249876,-2.5951843,0.0071955994,-1.3721105! #0.0,-0.12667263,0.4542258,0.5822444,0.43757796! 0.0,-0.0044054817,0.016296893,2.8091958,0.71762663! 
0.0,0.00405455,1.7437989,0.74822164,-0.042189088,-1.5923909,-3.9691133! 0.0,2.049264,-0.08004928,2.1688774,-0.376837,-1.8978801,-0.7647424! 0.0,2.386323,0.51138765,1.6560024,0.67720735,-2.154471,2.9138038! 0.0,2.6308374,-0.40214077,-0.8464012,-2.5518608,-0.38539195,3.999923! #0.0,0.17279574,0.42434323,-1.6023885,0.068842545! 0.0,-0.041866694,0.016296893,-1.3522681,-0.9347143! 
0.0,-1.216699,-2.698269,0.7899453,-2.205627,-1.5588808,3.1407824! 0.0,2.2358031,3.845222,2.1825724,-0.961823,-3.0104265,-0.017969131! 0.0,2.2108803,-3.3794389,0.718245,3.1265268,2.772356,-2.3205194! 0.0,-3.4431767,-0.96343726,-0.120747566,-2.8583183,-3.8875003,-0.40122628! #0.0,-0.18824452,0.5366456,-3.1371222,0.69971704! 0.0,-1.6527958,1.6466255,-3.4906373,-2.0027862! 
0.0,-0.12515159,-3.3745897,1.7508045,-0.042612303,-3.781676,3.240297! 0.0,2.0907156,0.16566536,0.46190518,-2.3413951,-0.03557664,-0.64803255! 0.0,2.0187218,2.0303507,1.4975471,-2.9755473,-1.712967,2.4346867! 0.0,3.7199957,-0.96343726,-0.89049727,-2.841258,0.0082886,3.091134! #0.0,-0.11822125,0.42916194,0.14964558,1.849638! 0.0,0.04392203,0.036475167,2.3395019,-0.10683742! 
0.0,-1.216699,1.640462,0.7432115,0.010472409,-1.2487718,-3.9312048! 0.0,3.497325,-0.091050774,0.34027016,-2.369876,-0.03557664,-0.41712198! 0.0,0.65526026,-1.803165,-0.85736656,-3.139286,-1.7927616,2.0530934! 0.0,1.4368092,-0.3228074,2.2740757,3.3465915,-0.5389645,0.89506036! #0.0,-0.089074254,0.5084399,0.63410604,3.9086952! 0.0,0.098161,-0.06477024,2.850995,0.7419472! 
0.0,0.5548682,-0.039498415,0.69987005,1.9306626,-2.3410661,3.1331825! 0.0,3.7388263,0.18431386,1.3210187,-2.16357,-1.3672825,-0.7179889! 0.0,-0.5348941,3.7587547,-2.5250556,-3.1784606,-1.7410285,2.4628282! 0.0,1.8428526,1.6441135,2.232796,3.766809,-0.023725096,-1.3801912! #0.0,-0.15813851,0.49972185,2.5971873,1.849638! 0.0,-0.21644755,0.015738545,-1.720975,0.83645! 
0.0,-1.216699,-0.103538685,1.7174705,-0.02480689,-2.2800274,0.6448753! 0.0,3.759808,-0.48573732,0.31959432,1.8383007,3.9058175,1.4226115! 0.0,2.3477175,2.7589836,1.7416514,-2.8445923,1.0066286,-3.7336497! 0.0,1.8428526,3.0744033,-0.55414134,-2.79085,-1.6836306,2.8101792! #0.0,-0.14370774,0.49972185,-1.6141019,2.0778942! 0.0,-0.053686842,2.9510865,-1.4394757,-0.07781102! 
0.0,-0.105910555,3.4310884,1.6348071,1.9306626,-0.42769596,-2.188112! 0.0,2.1969054,-0.03772142,1.3210187,-2.3308115,-1.3229051,-0.7179889! 0.0,-0.0031555034,1.657208,1.6764796,-2.966636,-0.12227347,-2.36862! 0.0,1.8428526,-0.37513924,2.232796,2.9225001,0.026441704,0.8566078! #0.0,-0.15006065,0.49611568,0.14633122,-0.26598823! 0.0,0.05304709,-0.029600602,-1.7398584,-0.07923783! 
0.0,-0.13871703,3.1413612,0.7432115,3.0808287,-0.3638957,-3.8995914! 0.0,2.1921518,-0.10441295,1.3450611,-2.3228307,-0.6563535,0.4806819! 0.0,2.3390012,0.7698431,2.2255845,-2.9039824,0.8554387,2.393629! 0.0,-0.9463579,-0.39310688,-0.55414134,2.8900425,-0.4672492,-2.1398225! #0.0,-3.9645271,2.861043,3.1916041,-0.2791715! 0.0,0.016111642,-0.069820955,-2.1037798,0.69671303! 
0.0,0.003455434,3.439906,-3.9856744,1.9306626,-3.8852494,-3.9813163! 0.0,3.761168,-0.030466802,2.1584175,-2.323471,-3.569671,-0.4115962! 0.0,2.0679464,3.7221801,-0.80774975,0.019802615,-2.2215548,2.959436! 0.0,1.4612799,-0.46002817,2.2695131,2.219688,-0.39304617,-0.37948748! #0.0,-0.15813851,0.4980782,0.66805285,0.34022897! 0.0,0.093957976,0.031913996,2.7719762,1.772374! 
0.0,-0.105910555,3.439906,0.71483004,0.7386282,-1.2305036,3.3119426! 0.0,0.98523754,-0.08272443,2.1688774,1.8417802,-0.03557664,-0.3535197! 0.0,2.2867813,-2.0684073,1.6578844,-3.0911357,-2.2137327,2.986478! 0.0,1.3499033,1.6905205,-0.9089027,-2.7930183,-0.5026176,-1.3700539! #0.0,-0.16025381,0.4247185,0.58787215,0.060390633! 0.0,0.027185604,-0.055155154,2.9134982,0.67177635! 
0.0,-0.05459898,3.4557395,-2.196851,0.058929075,-0.36938807,-1.3621925! 0.0,2.1334589,0.11842379,1.3851345,-1.4659339,-0.12693581,-0.72759956! 0.0,2.1900434,-3.3537986,1.7132875,-0.0689946,-1.3535743,2.9294426! 0.0,1.4579113,-0.37513924,0.44083017,-0.17538834,-0.10214451,-0.39639223! #0.0,-0.12667263,0.49310663,0.7437738,-0.22947532! 0.0,0.08288341,0.19862553,-1.4334962,-0.04021549! 
0.0,-0.05434212,-0.089361936,-1.8165612,-0.044146705,-1.5923909,-3.9986696! 0.0,2.1026514,-0.042104788,0.49469346,-2.2948725,0.40738153,0.6515091! 0.0,-0.010109037,-1.7802224,-2.4672363,-3.1306753,-2.244697,0.0060825273! 0.0,1.4479177,-0.12190512,-0.90638113,-0.08930851,-0.4935526,-1.3679935! #0.0,-0.10879387,0.3927407,0.68621564,0.43903285! 0.0,-0.10283986,0.09679801,-3.0450535,0.79511696! 
0.0,1.2752643,-0.10473506,0.7886918,-0.07231858,-0.41403636,-0.3922372! 0.0,3.8001516,0.18431386,0.9189746,-1.1351006,-1.3304638,0.43144086! 0.0,0.7211655,-2.099342,1.6146426,3.5447884,-2.285188,0.92852485! 0.0,-1.9065896,-0.41124603,2.29077,2.8509028,3.3847196,-1.3812273! #0.0,-0.21831803,0.50797784,-2.2035952,1.8051631! 0.0,-0.21644755,0.09679801,2.8378596,-0.13149536! 
0.0,0.5548682,1.7498267,0.80105823,0.7534737,-2.3399963,-1.5548515! 0.0,3.699482,0.21642703,0.62734014,-1.4930568,-3.7262664,-0.3106668! 0.0,0.14379425,3.7711992,1.7496642,0.04334943,-2.2517924,-0.013290456! 0.0,-2.3958726,-0.09092179,2.230452,-0.05780788,3.4958305,-0.3262189! #0.0,-0.2054219,0.5962618,-1.6111188,-0.16212875! 0.0,-0.09906046,0.13989347,1.2333106,-0.071082175! 
0.0,0.5816491,-3.6597376,0.13500547,0.7871318,-0.29924816,-3.405838! 0.0,0.1130499,-0.09047624,2.580721,-0.98991394,-3.9146414,2.207591! 0.0,-2.0405965,3.6948004,3.7134004,3.1347356,-2.2137327,3.351369! 0.0,1.5115738,-0.79463506,2.2717102,-2.7930183,-0.39304617,2.386814! #0.0,-0.181191,0.39395145,1.6429896,-0.23382944! 0.0,-2.0338302,-2.467288,-3.9420805,2.3750243! 
0.0,-0.03063637,-0.12065591,1.0416803,-0.04813737,-0.22670877,-3.9813163! 0.0,2.1760485,0.2340446,1.9036392,-1.4561502,0.052387893,-0.39925897! 0.0,2.6784348,-2.9967384,1.5679176,-3.0606637,-0.12227347,2.4816458! 0.0,1.3079602,0.6585384,-0.8342657,2.861933,-2.8725803,-2.5535767! #0.0,-0.15559572,0.39464185,-1.560868,-0.2500076! 0.0,-0.08532563,0.054642715,-1.3908728,-1.6388613! 
0.0,-1.216699,0.09406954,0.7899453,0.7534737,-1.2865105,-3.9561884! 0.0,2.110311,0.21642703,0.62734014,0.2725634,-2.9392657,-0.5869901! 0.0,2.2108803,0.5183501,1.6939157,-3.1448674,-2.1771877,2.0414722! 0.0,1.3788458,-0.12190512,2.230452,-0.12548907,-0.12067099,-0.4509183! #0.0,-0.2502935,0.5962618,-1.6069767,-0.22947532! 0.0,-0.05409753,1.5091896E-4,-1.7619567,-1.6294641! 
0.0,-0.13871703,1.7498267,0.69987005,0.028434902,-2.24579,3.1811793! 0.0,2.1405604,0.14040552,1.2753358,-1.0985556,-1.3298539,-0.64803255! 0.0,2.345529,-1.7348212,-0.78717715,0.062377993,2.606983,0.0060825273! 0.0,1.4579113,-0.4153509,-0.8787999,-2.5667143,0.0071955994,-2.530359! #0.0,-0.20214951,0.6148076,-1.5858312,0.3416159! 0.0,-0.12349711,-0.03086591,2.8124714,-0.03998887! 
0.0,-0.16075547,3.4613008,-2.9715698,1.0190244,-0.31197453,3.1453035! 0.0,1.0127763,-0.09368558,2.150934,-0.31522012,-1.3230602,-0.60582066! 0.0,3.555636,0.5113219,1.9237477,3.1306827,-1.3696406,1.995287! 0.0,-1.9088244,1.6458033,2.232796,-0.124339074,2.9158401,0.90135235! #0.0,0.15670659,0.62336975,-0.27221265,-0.298737! 0.0,-0.06695205,-0.034475453,2.8091958,-0.1899209! 
0.0,-1.2594042,-3.3857455,-3.0830784,0.05832131,0.014473744,2.857439! 0.0,3.7870305,0.18431386,-0.6981165,-1.0057229,-3.9446044,-0.31917983! 0.0,-0.4991826,3.2836611,1.6146426,3.5357075,-2.2137327,2.0503302! 0.0,1.3906341,-0.3878404,2.1921885,-2.7770896,3.47938,-1.3639399! #0.0,-0.13354672,0.49987793,-1.6300625,3.944838! 0.0,0.03823572,0.07566576,-1.3618686,-0.051903185! 
0.0,0.01732907,-0.09434084,0.7896161,-0.06067639,-0.24001397,-0.3922372! 0.0,1.0127763,0.18431386,2.0581598,-1.1259394,-2.9561055,-0.5622855! 0.0,0.0042764954,-1.8066922,1.6146426,0.051242333,2.6514146,0.93485284! 0.0,-1.4989946,-0.28731412,2.29077,-0.16366655,-0.14862585,-1.3812273! #0.0,-0.21831803,0.3780363,-0.26689786,0.39775962! 0.0,0.10374944,0.17932373,2.8378596,-0.07923783! 
0.0,-1.1802413,-0.11461054,0.7241278,0.012797281,-3.8426316,-3.9813163! 0.0,2.1760485,0.16539946,1.354556,-1.3602655,-3.9446044,-0.39925897! 0.0,2.707634,0.5183501,1.5679176,3.1347356,3.6222126,2.4762301! 0.0,1.401819,1.6588247,2.356137,-2.5528634,-0.40209073,-1.3639399! #0.0,-0.19211857,0.43888134,0.17926332,0.027562916! 0.0,0.03823572,0.11768867,-1.6151128,-1.6460742! 
0.0,-0.105910555,-0.08034419,0.71483004,-0.07015465,-3.781676,3.2434494! 0.0,3.6899173,2.7636464,2.133945,0.23938897,-0.12693581,-0.5560776! 0.0,2.3616645,-0.09149686,-0.8646499,-3.0900204,-2.8125908,2.0194185! 0.0,-3.026721,-0.41429088,1.4639711,-0.118067026,-0.11242209,0.9549054! #0.0,-0.19689602,0.471156,0.6782153,3.9321148! 0.0,-0.041866694,0.1604532,-1.3618686,-1.6283329! 
0.0,-1.2108418,-0.10530001,1.7556493,1.9306626,-0.3642923,0.68573284! 0.0,2.1270037,-0.09368558,1.9893413,0.31354657,-0.12693581,-0.76236254! 0.0,2.3616645,-3.318582,-0.0353253,-3.0949445,-2.285188,2.4113307! 0.0,1.513659,1.6326795,-0.56361246,-2.5669723,-0.41168302,-2.5043416! #0.0,-0.15813851,0.49310663,0.218068,-0.2329327! 0.0,-0.09353327,-0.33607045,-1.4394757,0.19871044! 
0.0,-2.8715124,2.0251355,-3.0419612,-0.047976494,-3.7942784,-2.5917292! 0.0,-2.106062,-3.781674,2.8963013,0.2725634,0.052387893,-1.2151804! 0.0,2.7073228,3.0313182,0.022750523,-0.008863596,-2.285188,-1.1356335! 0.0,1.9217706,0.6753101,1.6607841,-3.593185,-2.8725803,1.0084405! #0.0,1.3693705,0.43475464,-1.6111188,-0.2791715! 0.0,-0.36361217,3.6113462,0.5504589,-0.07340072! 
0.0,-0.13443202,-0.13334273,-2.9935575,-3.0468638,-1.2662268,-3.9687626! 0.0,2.157916,0.20752625,2.09283,-1.3602655,-0.06939619,-0.78789055! 0.0,2.723323,-1.9187675,-0.90296847,3.1347356,-2.285188,2.4113307! 0.0,-1.8950591,-0.39064518,-0.49659455,-0.14734991,-0.06039347,-1.3639399! #0.0,-0.181191,0.43888134,0.62668383,1.8520964! 0.0,0.12547679,0.11768867,-1.4634057,-2.519865! 
0.0,-3.8216805,-2.9479523,-1.7843685,1.1514511,-1.516499,-2.1497977! 0.0,3.563406,3.0019112,2.021864,0.21992254,-0.7896495,-0.33765543! 0.0,2.6608822,3.689326,2.8840785,-2.9342403,2.633785,3.638946! 0.0,3.0505533,1.3632287,-1.8746734,-1.9891729,-0.4260946,-0.36990005! #0.0,-3.9055696,0.4542258,3.8628173,-0.17729662! 0.0,-3.4808254,0.11735505,-1.8975396,2.4643693! 
0.0,-0.11401737,-2.2744923,-3.1656337,-2.9244356,-3.472752,3.3298695! 0.0,2.049264,-0.08004928,0.9053464,1.8417802,-1.8978801,-0.7647424! 0.0,2.3329117,0.51138765,1.725732,-3.1448674,-2.285188,2.9138038! 0.0,-1.9065896,1.6629121,-0.89049727,-2.5518608,3.3847196,0.9549054! #0.0,-0.10310509,0.47850445,-2.2035952,0.068842545! 0.0,-0.082111605,0.016296893,3.628302,-0.13149536! 
0.0,-0.09074122,-3.3857455,0.7608558,0.0972612,-3.7942784,2.857439! 0.0,3.9122176,0.13825041,1.354556,1.9104805,0.052387893,-0.39925897! 0.0,2.7063313,3.6902332,0.023202192,-3.1216702,-2.1910868,2.4762301! 0.0,-0.61580944,0.70405155,2.1921885,2.861933,3.5021665,-1.4544994! #0.0,0.12356123,0.51103085,0.13305293,-0.21879463! 0.0,-0.046886142,-0.02510155,1.2333106,-0.050767843! 
0.0,-0.063045785,3.4863157,-2.1856766,0.8170804,-1.5588808,-1.3878614! 0.0,3.8342762,1.7402177,1.3210187,-1.5208822,-1.3433037,0.5764308! 0.0,2.0652523,-2.0684073,0.03947015,-3.1784606,2.8103046,2.0100625! 0.0,3.2360146,-2.379982,0.3937111,2.8111827,-0.40209073,3.8933089! #0.0,0.17279574,0.50797784,-3.2571712,-1.1181374! 0.0,0.027185604,-0.055155154,-1.4389421,1.825398! 
0.0,-1.1802413,-0.14115055,-0.17926815,1.0190244,-0.39469677,-1.5902431! 0.0,2.0411458,-3.0473166,2.0338376,0.32342687,-1.2751426,-0.6763251! 0.0,3.555636,0.5113219,-2.4672363,-3.139286,2.633785,2.4346867! 0.0,1.3511382,1.3632287,-0.5981269,-2.84902,-3.8786716,-0.36990005! #0.0,0.21003272,0.5949726,-2.181951,-2.0211565! 0.0,-0.06695205,0.09679801,2.7882707,-0.08293166! 
0.0,0.53926116,1.7002548,0.78518146,0.7561322,-2.2800274,-3.9312048! 0.0,3.7537045,0.16566536,2.0338376,2.0391176,-1.32925,-0.31292528! 0.0,0.02660849,3.7242944,1.7207165,-3.1805854,-2.2517924,2.4392488! 0.0,3.747608,1.3632287,-0.94284564,2.8087432,-0.42387688,3.0656292! #0.0,-0.12667263,0.47853377,0.17926332,3.8949456! 0.0,0.098161,-0.060787275,3.632726,0.67177635! 
0.0,0.0036833286,-0.030805524,1.6348071,1.9306626,-1.5514555,-3.9312048! 0.0,3.787098,-0.030466802,0.44706213,-1.0057229,-3.9726787,-0.698577! 0.0,-0.0031555034,3.2836611,-0.8107525,3.5357075,-2.8718877,0.92117614! 0.0,1.401819,1.3632287,2.2631376,-0.15980843,-0.49185476,-1.6772176! #0.0,-0.10733789,0.49987793,0.14633122,0.3543879! 0.0,0.01913302,0.07566576,-1.7793953,-0.07923783! 
0.0,-0.16087054,1.7380918,0.7896161,0.012797281,-2.2800274,-1.3106573! 0.0,0.9926357,0.16539946,2.9669533,0.20838091,-3.532616,-0.4115962! 0.0,-0.56625205,1.5974219,-0.798545,3.1347356,-2.8718877,2.9110928! 0.0,1.401819,-0.41525117,-0.9597409,-0.124339074,0.0071955994,-1.3721105! #0.0,-0.181191,0.5359073,0.62668383,1.8051631! 0.0,0.03823572,0.14738359,-1.6151128,-1.6460742! 
0.0,-0.16075547,3.4795866,3.609974,-2.769483,-0.3081752,-2.143847! 0.0,1.0127763,0.23647267,0.9578314,-1.4907984,-0.10968068,-0.38563487! 0.0,3.555636,-0.11478188,-2.5213656,-2.9497166,-2.6977983,2.4555552! 0.0,1.8428526,1.6441135,-0.89049727,-2.7853997,-0.11922498,0.9171686! #0.0,-0.1910189,0.5223049,0.20806816,-0.25383782! 0.0,-3.0170221,-0.069820955,1.116375,0.60669655! 
0.0,-0.11401737,2.3759515,0.8004115,1.1514511,-3.472752,-3.9773114! 0.0,2.049264,-0.08358871,2.068528,-1.1259394,-1.2996567,-0.7647424! 0.0,2.437829,-1.7985004,1.725732,-2.9342403,2.607142,0.93485284! 0.0,1.4445833,-0.49057287,-0.9382535,-2.5518608,-0.38539195,-2.5400474! #0.0,0.18010642,0.4542258,0.629765,0.068842545! 0.0,-0.082111605,0.016296893,1.2462307,0.71762663! 
0.0,-1.1802413,-0.0919317,0.7608558,1.122357,-3.8426316,-3.9687626! 0.0,2.2041128,0.13825041,1.354556,1.8299581,-1.3337979,-0.76236254! 0.0,3.6003041,-1.7946695,1.725732,-3.103254,3.6222126,2.4762301! 0.0,3.699566,1.6790928,2.2068088,-2.5350425,3.47938,-1.3700539! #0.0,-0.15417162,0.46668324,0.17926332,1.8520964! 0.0,-0.07721424,0.11768867,-1.6151128,-2.4743888! 
0.0,-0.11401737,2.3759515,-2.9518805,2.6593199,-3.7942784,-3.9691133! 0.0,3.7870305,-0.08004928,1.9226075,-1.0057229,-1.3718774,-0.7647424! 0.0,2.437829,3.2836611,1.4480308,-2.610946,-2.2215548,0.92117614! 0.0,-1.4734414,1.7093067,-0.89049727,-2.5518608,-0.38539195,3.9357498! #0.0,0.17279574,0.5064355,0.629765,-2.129072! 0.0,-0.082111605,0.016296893,3.5888214,-1.6619129! 
0.0,0.0036833286,-0.1644234,1.0260816,1.9247319,-0.3081752,3.248229! 0.0,1.011597,0.21066144,2.0621374,-2.3308115,-0.06939619,-0.7179889! 0.0,2.7903183,-0.07541454,-0.7752335,-3.1149335,-2.2463439,3.001128! 0.0,-0.03768781,-0.32437477,0.3937111,-0.14734991,3.3847196,4.0306816! #0.0,-0.181191,0.5010692,0.62668383,-0.26598823! 0.0,0.01913302,0.11768867,-1.6151128,-0.12389609! 
0.0,0.4263854,-0.07618134,-2.9518805,-0.04495028,-1.5923909,3.1331825! 0.0,3.3525267,0.20752625,1.9226075,-1.0057229,-1.3337979,-0.36194998! 0.0,1.9926527,3.2836611,1.725732,-2.9342403,-2.8044558,-0.046134394! 0.0,-1.4734414,-0.39310688,-0.4758769,-2.5528634,3.3847196,-1.3700539! #0.0,-0.181191,0.4980782,0.68621564,-0.2930834! 0.0,-0.10139248,-0.0096785985,2.8091958,-0.13051055! 
0.0,-0.021482855,-0.096163735,0.7896161,-0.050280135,-0.32701376,3.202124! 0.0,3.8259025,2.6891947,2.9481347,-2.3662996,-3.569671,-0.41327375! 0.0,2.285407,-2.9682505,-2.825182,0.019802615,-2.2243435,2.959436! 0.0,2.460794,-0.4769493,3.8107777,2.2592905,-0.0146515,-0.42830086! #0.0,-0.118940145,0.46668324,2.656292,0.34022897! 0.0,-0.16569176,0.17932373,-1.3695714,-1.6292309! 
0.0,-0.11401737,2.3759515,-3.1650167,-3.8292599,-0.3785027,-3.9691133! 0.0,3.480383,-0.08004928,0.9053464,-1.4766388,-1.8978801,-0.7647424! 0.0,2.437829,0.51138765,-0.9269039,-2.9342403,-0.03567632,2.9093697! 0.0,-1.8642486,1.6629121,-3.7243183,-0.13135299,-0.14242676,3.999923! #0.0,0.17279574,0.44256824,0.62552905,0.068842545! 0.0,-0.0806644,0.016296893,3.628302,-1.6619129! 
0.0,1.8194709,3.4948742,-3.2577267,-2.9710188,-2.2964225,2.857439! 0.0,3.852916,-0.091050774,2.1688774,1.8058734,0.067638285,-0.37635538! 0.0,2.3825195,-2.0684073,1.6717829,-3.0911357,-1.366781,2.9816685! 0.0,1.3499033,-0.3228074,-0.53777504,0.85432196,-0.083383664,3.9363706! #0.0,-0.15342912,0.49310663,-1.6300625,3.861707! 0.0,-0.080553785,-0.02311828,1.2549323,-2.5755332! 
0.0,-0.03063637,-0.12065591,0.7129234,2.511419,-3.7942784,-3.9813163! 0.0,1.05823,0.17477328,1.354556,-1.0985556,-3.6034904,-0.5622855! 0.0,2.345529,3.6902332,0.009503774,-2.4971728,3.59352,2.992561! 0.0,1.3079602,-0.44043934,-0.86895305,-2.5997884,-0.38539195,-1.3700539! #0.0,-0.14623421,0.4428289,-1.6306314,0.05421367! 0.0,-0.10920231,0.09557488,2.8532524,-2.519865! 
0.0,-1.2804265,-3.403068,0.7896161,-1.7733002,-0.24001397,3.1432006! 0.0,-3.971239,0.20752625,2.0764184,-2.3413951,-2.9561055,-0.64803255! 0.0,1.4697714,-1.8066922,0.10906744,0.016881391,2.607142,-0.022272361! 0.0,1.8428526,-0.32437477,0.14115143,0.52518797,0.43059874,-0.020222664! #0.0,-0.12518978,0.47396326,-1.6306314,2.007584! 0.0,-0.1443955,-1.8476043,-1.4389421,-0.07923783! 
0.0,1.3923731,-3.4326248,-2.196851,0.02292807,-1.6775008,-1.7595782! 0.0,2.0671465,-0.5160241,1.9887428,1.7959428,-0.6607455,-0.3923397! 0.0,-0.57867336,2.7589836,1.7451408,-2.8397017,-0.082289875,-3.7336497! 0.0,1.8428526,1.7428411,2.2719994,2.8297849,-0.10214451,-0.3764151! #0.0,-0.19652,0.49310663,-2.1885233,-3.2112036! 0.0,0.08288341,-0.05618077,2.856257,-0.07923783! 
0.0,-0.100728184,-0.07561895,0.72433144,1.9494816,-0.3390587,-1.2682403! 0.0,2.0674891,-3.1658597,2.150934,2.3975046,-1.3571473,-0.6904348! 0.0,2.287631,-1.862852,-0.908849,-1.4246793,-2.849985,2.9131734! 0.0,1.3788458,-0.9304069,3.8497531,-0.13135299,0.0071955994,-1.3590766! #0.0,-0.122853935,0.4738137,-1.6148658,1.7731466! 0.0,-0.046308722,-0.08446511,-1.720975,0.03391459! 
0.0,-0.13443202,1.7437989,0.74822164,-0.042189088,-1.2305036,-1.3106573! 0.0,2.5374937,0.16539946,1.3646554,-0.376837,-1.3298539,-0.4115962! 0.0,2.386323,-0.0949218,-0.80774975,0.67720735,-2.8718877,-0.046134394! 0.0,2.6308374,-0.40214077,-0.9597409,-2.5528634,-0.40209073,-0.39569372! #0.0,-0.20537446,0.45187387,-1.6023885,0.027562916! 0.0,-0.041866694,0.11768867,-1.6151128,-1.6460742! 
0.0,0.5942656,3.477927,0.74822164,-0.44203743,-0.3118238,-2.1042519! 0.0,1.0127763,-0.052302767,0.31959432,0.34901848,-0.12693581,-0.76236254! 0.0,2.3616645,-1.7179067,0.090677865,-2.4814107,-0.1422579,-1.9379511! 0.0,-0.0133486055,1.6326795,-0.8597446,-0.12114069,-0.41168302,-2.5501325! #0.0,-0.15341732,0.47951314,0.218068,0.38729563! 0.0,-0.06695205,-0.007138964,-1.4394757,-0.07923783! 
0.0,-0.037124652,3.4310884,1.7431489,1.148877,-1.5923909,-3.9986696! 0.0,3.534492,0.34655407,1.4036628,0.2725634,-3.5737715,-0.61551434! 0.0,3.3969283,-1.8239293,1.7017597,3.0793927,-0.1422579,-0.3984413! 0.0,3.7812877,1.3986794,-1.4303217,2.8918002,-0.32124853,4.0306816! #0.0,-0.13386104,0.50797784,-1.6260153,1.7885463! 0.0,0.014765345,0.09679801,-3.0450535,0.7286018! 
0.0,-0.057233315,-3.9184413,-3.2577267,0.055762213,-1.2305036,-3.9279947! 0.0,3.761168,-0.030466802,-0.15342045,-3.0252023,-0.6441675,-0.41327375! 0.0,-0.546802,1.927331,-2.8224535,-3.1669657,-2.1734004,2.9625707! 0.0,1.4612799,-0.39891198,-0.9089027,-0.1558815,-0.5389645,1.9108291! #0.0,1.2255726,0.4980782,0.74123514,3.9575567! 0.0,0.07387654,0.550776,2.7719762,0.81927097! 
0.0,-0.057233315,-0.08497499,1.6348071,1.9247319,-1.2305036,-3.9279947! 0.0,3.8699384,0.23647267,2.9481347,-2.3308115,-0.10968068,-0.41327375! 0.0,2.292556,-0.02558579,-0.7754925,-3.1149335,-2.1411014,2.0100625! 0.0,1.4067684,-0.39891198,0.3937111,-2.7507024,-0.38970572,0.89506036! #0.0,-0.20537446,0.38841859,0.11772585,-0.26598823! 0.0,0.01913302,-0.07635867,3.632726,-0.07923783! 
0.0,-0.14703202,1.7498267,0.79141444,-0.07231858,-1.2865105,-2.149975! 0.0,3.7388263,2.76116,0.31959432,-0.31522012,-1.3304638,-0.5622855! 0.0,2.3661544,-2.099342,1.6146426,0.051242333,-2.2215548,-3.8028677! 0.0,-1.8950591,1.6900575,2.29077,-0.16366655,-0.12506528,-1.3812273! #0.0,-0.21831803,0.3780363,-0.23994178,-0.16212875! 0.0,0.12949605,0.17932373,2.8378596,0.83645! 
0.0,-0.15740275,-0.030805524,0.7432115,1.9306626,-0.39903265,-2.188112! 0.0,2.1969054,0.17640018,2.1490395,0.2786172,-1.3433037,-0.61007094! 0.0,-0.0031555034,1.6526151,1.6578844,-2.9737477,-1.3255529,-2.3205194! 0.0,1.8025724,-0.37513924,2.2719994,2.8758183,0.026441704,3.9357498! #0.0,-0.15006065,0.49972185,0.15474136,-0.26598823! 0.0,0.05304709,-0.055155154,-1.6952862,-0.07923783! 
0.0,-0.25493136,0.088783525,0.99937016,0.0039083473,-1.5923909,-3.9312048! 0.0,2.1760485,0.19613779,0.44800738,-1.3602655,-0.12693581,-0.59902084! 0.0,2.2108803,-1.7802224,1.725732,-3.1306753,-2.3287203,2.9110928! 0.0,-1.8899883,-0.37760672,-0.9004311,-2.5825233,3.5949662,-0.33025274! #0.0,-0.17617488,0.5496418,3.513116,-0.25383782! 0.0,-0.12349711,-0.034475453,-1.4394757,-1.6403964! 
0.0,-0.16075547,1.720235,1.7303902,-0.050280135,-3.781676,3.198644! 0.0,2.5867019,0.16566536,-0.6435567,-2.3413951,-3.9181404,-0.76236254! 0.0,2.0440729,3.6902332,1.4975471,0.016881391,-1.781456,2.4346867! 0.0,-1.4734414,-0.96343726,0.44083017,-2.7930183,-0.015780404,2.983956! #0.0,-0.116718575,0.42916194,0.14964558,-0.26598823! 0.0,-0.046466205,-0.02510155,2.3395019,-2.540968! 
0.0,-0.14703202,3.4142509,1.7421862,1.9306626,-0.36938807,-2.149975! 0.0,3.7388263,2.76116,2.0333152,-0.31522012,-0.12693581,-0.72759956! 0.0,2.3501854,-3.3537986,1.7046281,-2.9342403,-1.2927947,-3.9344783! 0.0,-1.8950591,1.7138112,0.44083017,-0.17538834,-0.401407,-0.39639223! #0.0,-0.12667263,0.40561813,0.5906499,-0.22183068! 0.0,-0.08318944,0.09042376,-1.3585011,0.83645! 
0.0,-1.2744186,-0.039343555,-0.077091545,2.6915476,-1.2798548,-3.9813163! 0.0,2.1760485,0.13825041,2.1508002,1.8287717,-0.04639212,-0.38563487! 0.0,-0.5348941,-3.4152904,0.009503774,3.6086545,-2.2463439,2.4441855! 0.0,-0.58233356,-0.39310688,2.3250227,2.815254,0.0071955994,-1.3760954! #0.0,-0.22889858,0.46668324,-1.6111188,0.3712962! 0.0,0.022677701,0.17932373,-1.720975,-1.6460742! 
0.0,-0.11400815,1.7498267,0.72256315,1.9306626,-3.8183274,-2.149975! 0.0,2.1921518,0.22414073,0.31959432,-0.31522012,-1.2996567,-0.7076162! 0.0,2.3661544,-1.7802224,1.7046281,-2.9342403,-2.2373018,-3.8028677! 0.0,-1.8950591,1.6900575,-0.55414134,-2.79085,-0.35646233,-0.43995395! #0.0,-0.21831803,0.40603957,0.5906499,-0.12820412! 0.0,-0.122274324,-0.33097696,2.8919547,-0.058187265! 
