23.09889,90
0.0,0.47689128,0.6043344,0.7303194,0.18476576,0.9545612,0.17046475! 0.0,-0.75113964,0.34971923,0.73133856,-0.6197725,0.2761472,-0.42846185! 0.0,-0.5888426,0.7708477,0.8312669,0.09232247,-0.01915529,0.17072117! 0.0,0.8437865,0.58445144,-0.7148348,0.47266108,-0.38389182,-0.12754479! #0.0,0.10841091,-0.07798287,0.52047694,0.045714498! 0.0,0.29901057,0.092817426,-0.8255154,-0.15831244! 
0.0,-0.8030539,-0.33100381,0.64662534,0.14657898,0.9545612,0.8803035! 0.0,0.7941357,0.785589,0.69059277,-0.84541154,-0.10959494,-0.7319841! 0.0,-0.60785216,-0.19927701,0.19127093,-0.3718751,0.24592793,-0.13123749! 0.0,-0.73819566,0.66351676,0.19540346,0.5589518,0.47232834,-0.6174032! #0.0,0.13718243,0.033929326,0.13075411,-0.88582057! 0.0,-0.43291938,0.30360547,0.5936848,-0.15831244! 
0.0,0.018109925,-0.39405498,-0.9105173,-0.36302647,-0.692859,-0.8988086! 0.0,-0.8051725,0.93463653,-0.41312858,-0.74489015,-0.72098756,-0.55211806! 0.0,0.1282791,-0.15819725,-0.3971218,0.28480017,0.09555967,0.5108803! 0.0,0.7436259,-0.9802718,-1.0214314,0.9931161,0.17901184,-0.27184027! #0.0,0.024139097,0.033983294,0.5099283,0.8524718! 0.0,-0.46075892,0.16840369,0.81711507,-0.06432778! 
0.0,0.47689128,-0.47156957,0.6943486,0.6913933,-0.8940108,0.4594034! 0.0,-0.81934226,0.7519751,0.6113802,0.47647667,-0.41344917,-0.40335417! 0.0,0.93203264,-0.93709975,-0.3488449,0.074474216,0.23018998,0.57199913! 0.0,-0.6596561,-0.025639817,-0.9409829,-0.2099324,-0.3414792,-0.6446556! #0.0,0.10502727,0.31713203,-0.33158088,0.92466223! 0.0,-0.41068622,0.04990256,0.5936848,0.0918393! 
0.0,0.98906505,-0.33880198,0.0768609,-0.55779934,-0.6277472,0.4456339! 0.0,0.93697715,0.72630596,0.8044176,-0.74489015,0.09784654,-0.1507996! 0.0,-0.5888426,0.6623229,-0.85972846,-0.47106677,0.26754084,0.66048217! 0.0,-0.8005,-0.6392812,-0.9592447,0.14441314,0.36097437,0.5202803! #0.0,0.07283226,0.25265276,0.6942568,0.90766925! 0.0,-0.42215058,0.31258115,-0.8107837,0.13305545! 
0.0,0.7796354,-0.3914198,0.028189812,-0.6069496,0.4927709,0.12892567! 0.0,-0.85479575,-0.9006226,0.28878856,-0.74489015,-0.39870006,-0.7610763! 0.0,-0.5888426,0.6546926,0.54041576,0.17190816,0.0039120913,0.43099394! 0.0,0.082626164,0.92000306,0.19623111,0.3176546,0.30699804,0.56551427! #0.0,0.48858762,0.022773098,-0.83866584,-0.44365782! 0.0,-0.38528118,0.294087,-0.9946827,0.024262954! 
0.0,0.9763705,0.8588519,-0.45841616,-0.19827074,0.520309,0.676959! 0.0,0.85207546,0.8806074,0.8448477,0.49504834,0.3685359,-0.61192524! 0.0,0.8612238,-0.31353116,-0.36283335,0.7127269,0.2606382,0.57199913! 0.0,-0.071818545,0.34678796,0.058507945,-0.38697526,0.84791934,-0.61384845! #0.0,0.71001214,-0.0639487,1.0920441,-0.10943028! 0.0,0.37328932,0.37424374,0.5936848,-0.17248666! 
0.0,0.9565993,-0.83254385,-0.094364926,-0.60418755,-0.14117932,0.28178567! 0.0,0.89609206,0.2327632,0.28878856,-0.16301446,0.6974039,-0.36549038! 0.0,0.26573753,-0.19322594,-0.06506424,-0.33645377,0.2389133,-0.008013964! 0.0,0.31462353,-0.9802718,-0.72217774,0.7200998,0.865368,-0.73920876! #0.0,0.50316286,0.36566836,0.5828593,0.86296755! 0.0,-0.42215058,0.286525,-0.4728279,-0.20970428! 
0.0,0.7484363,0.74114776,0.17046665,-0.38794336,-0.800565,-0.85232764! 0.0,1.0090499,0.8470622,-0.8975132,-0.55354494,-0.12879726,-0.3993229! 0.0,0.83829683,1.0086268,-0.49841866,0.822253,0.5772101,-0.12374176! 0.0,-0.68290216,-0.08197641,-0.7931716,0.5804798,0.7043277,-0.50546134! #0.0,0.13478579,-0.13387814,0.5703751,-0.43947706! 0.0,-0.32764855,0.62427187,-0.100437924,0.024262954! 
0.0,0.18244028,-0.53114057,-0.5106015,0.61562145,0.24531639,-0.012070049! 0.0,0.7941357,0.80030686,-0.46917406,-0.45237663,-0.5122342,-0.3674815! 0.0,-0.61654407,0.78550947,0.19127093,0.8919529,0.8381004,-0.29921007! 0.0,-0.13478799,0.93322515,0.43312848,0.4600317,0.41911602,0.108726874! #0.0,0.030807983,0.33370906,0.083006494,0.86972445! 0.0,0.3340027,0.2688559,-0.5692488,0.8599244! 
0.0,-0.3721887,-0.441442,0.20208967,-0.34423873,-0.7376059,0.0118440315! 0.0,0.25065976,0.76316327,0.5475841,-0.64173293,-0.08895822,-0.36577958! 0.0,0.30932686,0.37032962,-0.8817901,0.7382749,0.2405359,-0.29921007! 0.0,0.3848484,-0.6253716,-0.017653076,0.42948794,0.3948177,-0.07350406! #0.0,0.12111226,0.33616263,1.0477792,-0.72897786! 0.0,0.5067126,0.226274,0.62092716,0.024097115! 
0.0,-0.24329317,-0.08268106,-0.055758707,0.13767207,-0.80809534,-0.9715992! 0.0,-0.34019458,-0.025818188,0.36113095,-0.11443472,0.077789366,-0.8765913! 0.0,0.19090402,0.60884994,0.9234594,-0.3328159,0.10824454,0.98548055! 0.0,0.6701036,0.6078741,0.41015017,0.45779625,-0.21257448,-0.519952! #0.0,-0.16013455,-0.6034194,-0.8003719,0.5674931! 0.0,-0.3440286,0.3093907,0.5436941,-0.54554814! 
0.0,0.018109925,0.024726953,0.23641706,-0.038933408,0.9042716,-0.7826911! 0.0,-0.41573524,0.81763494,-0.46033347,-0.44655374,-0.06362243,-0.8194587! 0.0,0.28096604,-0.42368424,0.8606914,0.8855307,-0.11950031,-0.16733812! 0.0,0.44465807,0.6757095,-0.868034,0.48061448,0.1754812,-0.70391303! #0.0,0.10513173,0.36411396,0.18673345,0.29210877! 0.0,0.5523462,0.013801418,-0.08085689,0.6169728! 
0.0,0.8267038,-0.38162544,0.0013235733,-0.0679341,-0.97266185,0.49395704! 0.0,0.9261844,0.85824823,0.5421862,0.473691,0.32165685,-0.2620262! 0.0,0.95371604,0.78794754,-0.58529717,0.37638068,0.5177725,0.61863106! 0.0,-0.8904604,0.9007655,-0.7650294,0.521605,-0.9670335,0.6208526! #0.0,-0.059155535,0.34518847,0.29183736,0.81129986! 0.0,-0.3966814,0.226274,-0.79069954,0.8067434! 
0.0,0.90138054,0.74114776,0.66060764,-0.34242085,0.5344964,-0.04100602! 0.0,0.9087798,0.81647617,-0.31643432,-0.4247021,-0.2047511,-0.6822782! 0.0,-0.037280537,1.0240415,0.2678157,-0.2972349,0.70631903,0.48155338! 0.0,-0.0764799,-0.07564988,-0.726573,-0.5052516,0.40450272,0.09769012! #0.0,0.024139097,0.33758384,0.5455502,-0.74806! 0.0,0.048974294,0.27825946,-0.5741459,-0.5915008! 
0.0,0.7550862,0.3601683,0.082114995,-0.656652,-0.92183006,0.1277857! 0.0,0.83044034,-0.34858108,-0.062280893,-0.65638745,-0.57121265,-0.58027047! 0.0,0.35077262,-0.7975999,0.7430489,-0.36407924,0.53087723,0.93250734! 0.0,0.85110474,0.8426424,-0.8290125,0.7011909,-0.16017224,-0.55644244! #0.0,0.012219276,-0.04513935,-0.78301466,-0.85576624! 0.0,-0.31916168,-0.942477,-0.25653917,0.086089596! 
0.0,0.8587802,-0.35534832,0.6577003,-0.5863347,0.8830944,0.48025984! 0.0,-0.8746375,0.755611,0.5936264,0.06373902,0.72328407,-0.76099175! 0.0,0.24339771,-0.19322594,-0.22625026,-0.5639651,0.10824454,0.6765523! 0.0,0.29833114,0.9656408,0.13015975,1.0036175,0.4095037,-0.6799712! #0.0,0.11375539,0.16481678,-0.32325295,-0.21508148! 0.0,0.08200237,0.45884705,-0.86781925,0.06884586! 
0.0,-0.010343926,-0.45467404,0.68651175,0.25900507,0.9042716,0.6896938! 0.0,-0.43883884,-0.05249865,-0.44003463,-0.4692707,-0.39870006,-0.46837336! 0.0,0.29177493,0.60884994,0.93219924,-0.72233236,-0.14000116,0.3892359! 0.0,0.70211875,0.93697375,0.19623111,0.5181717,0.9734673,0.108726874! #0.0,0.16052428,0.17591703,0.16916041,1.0260513! 0.0,-0.31295466,0.32554194,0.5542044,-0.47609338! 
0.0,0.9832436,0.85591793,0.68196297,0.2160791,-0.26252586,-0.27637976! 0.0,-0.8133193,0.9572912,0.9396347,-0.5806733,-0.10879724,-0.19756994! 0.0,-0.6361822,-0.15819725,-0.86046666,-0.3970461,-0.7756033,0.7783622! 0.0,0.8257828,0.4746631,0.43193218,0.47266108,0.9734673,-0.74797446! #0.0,0.047797777,0.39312056,0.47377113,0.8330384! 0.0,-0.44383162,0.28466177,-0.80112934,0.7881357! 
0.0,0.808931,-0.5733501,-0.07297863,0.7687471,0.520309,-0.7837708! 0.0,-0.21563458,0.83653164,0.69133407,0.26474968,0.46742135,0.9526314! 0.0,-0.5888426,-0.93709975,0.1141745,-0.70852673,-0.041777417,0.4491846! 0.0,0.768821,-0.6392812,-0.8339312,0.5554896,-0.3733251,0.5202803! #0.0,0.12371552,0.2453266,-0.86595017,-0.96874756! 0.0,-0.3514135,0.31258115,-0.031245776,-0.65088123! 
0.0,-0.5626133,0.74114776,0.8610717,-0.009999901,0.120147824,0.4594034! 0.0,-0.60031414,0.96760315,-0.3939659,-0.6788917,-0.013660356,-0.65975785! 0.0,-0.6637924,-0.9708046,-0.661319,-0.39889523,0.5740905,-0.16733812! 0.0,-0.13388717,-0.6124702,-0.7056633,0.50426143,0.20181942,0.6097963! #0.0,0.12216528,0.014866948,-0.34777033,0.9278501! 0.0,-0.40110064,0.3093907,-0.8255154,0.8593292! 
0.0,0.8587802,0.71781486,0.6577003,-0.27672774,0.12574403,-0.84502476! 0.0,-0.85479575,0.9234765,0.5936264,-0.6788917,-0.05182397,-0.61765313! 0.0,0.4240931,-0.7402311,0.8615912,-0.084437296,0.10824454,0.50680786! 0.0,0.7760194,0.32110894,-0.7056633,1.0036175,0.20181942,-0.48919564! #0.0,0.051934548,0.16481678,-0.32325295,0.96955305! 0.0,0.08200237,0.45884705,-0.86781925,0.68835175! 
0.0,0.16124976,0.16114467,-0.5038941,-0.38794336,0.520309,0.17314672! 0.0,0.9087798,0.8021596,0.62137955,0.28809893,0.6974039,-0.6504612! 0.0,0.639871,-0.19322594,-0.5652711,0.7127269,-0.0018098392,0.48155338! 0.0,0.11655033,-0.9802718,0.021373682,-0.2841201,-0.3139593,-0.5737818! #0.0,0.13848233,-0.0615934,0.5828593,-0.20879173! 0.0,-0.46075892,0.4550415,0.5936848,-0.017426554! 
0.0,-0.9276954,0.6834686,0.64234364,-0.5089677,-0.17883095,-0.9181366! 0.0,0.9745711,0.38688493,-0.71385175,-0.94062966,0.72827965,-0.7319841! 0.0,0.9348148,-0.3298071,-0.23280656,-0.37707603,-0.19540107,0.041560203! 0.0,0.6662927,0.90401375,-0.97170603,0.615136,0.96643066,-0.8622452! #0.0,0.61778104,0.0017179251,-0.657212,-0.8948277! 0.0,-0.30592832,0.2561965,0.52836657,-0.016438603! 
0.0,0.9763705,-0.39320922,0.5887624,-0.7269039,0.520309,0.17314672! 0.0,-0.60031414,0.83653164,0.40517473,-0.89418745,0.5101666,0.9526314! 0.0,0.028942376,-0.9502564,-0.48256123,0.87530094,0.49232867,0.3577602! 0.0,0.768821,0.6757095,0.19623111,-0.29420143,0.865368,0.5202803! #0.0,0.09265646,-0.23722927,-0.46381006,-0.96874756! 0.0,-0.32497084,0.2688559,-0.47123954,0.33406267! 
0.0,-0.32693243,0.21644413,0.6676729,-0.052776314,-0.9085871,0.42353746! 0.0,0.9207797,0.8088484,-0.3935361,-0.4471575,-0.10879724,-0.3443045! 0.0,-0.5556796,-0.14400744,0.14631234,0.15474853,-0.03609991,0.04242245! 0.0,-0.6076621,-0.8888196,-0.94207567,-0.43759605,0.29417133,-0.21611936! #0.0,0.64288825,0.35806358,-0.8473524,0.27754116! 0.0,-0.30592832,0.22256379,0.01278026,-0.017426554! 
0.0,0.9763705,-0.39320922,-0.31759843,-0.62355167,-0.80809534,0.6443234! 0.0,-0.46453723,0.81763494,0.0780706,0.8432403,0.05044253,-0.587361! 0.0,-0.8318582,0.1876065,0.8606914,0.2318419,-0.16030084,0.43348843! 0.0,0.14079814,0.6078741,0.060930334,-0.2841201,0.1754812,-0.11130643! #0.0,-0.4544497,0.0017179251,0.70434755,-0.29266548! 0.0,0.4242066,-0.012729313,-0.29429305,0.7207685! 
0.0,0.9763705,-0.27017072,0.59696263,-0.6380239,-0.29589307,0.418378! 0.0,-0.7936617,0.93463653,0.65978575,-0.9381956,-0.72098756,-0.4948346! 0.0,-0.82681054,-0.976911,0.54041576,0.87530094,0.05289671,0.3577602! 0.0,0.7436259,-0.8847345,-0.974135,0.9931161,0.17901184,0.39620015! #0.0,0.19273075,0.033983294,0.5099283,0.8524718! 0.0,0.5523462,0.2688559,-0.7833646,-0.5525821! 
0.0,-0.018115696,-0.58219814,0.72629756,0.6332544,0.8519627,0.383641! 0.0,-0.62757975,0.7303767,-0.9316979,0.017884254,-0.42053562,-0.11681378! 0.0,0.95371604,0.7971867,-0.8381836,0.18742543,-0.07169366,-0.11751743! 0.0,0.11655033,-0.01181335,-0.48143196,0.46211252,-0.3733251,-0.6326525! #0.0,0.12111226,-0.27305567,-0.7998356,0.82094747! 0.0,0.1425966,0.4718101,0.81711507,-0.07555321! 
0.0,0.7484363,0.5570749,0.23697197,-0.38794336,-0.06884539,-0.7733929! 0.0,-0.32229272,-0.25890172,-0.29778045,-0.55354494,0.7791709,-0.7226758! 0.0,-0.61654407,1.0086268,-0.35704795,0.26578796,0.26435888,-0.12374176! 0.0,0.76212,-0.58311814,0.10011672,0.5391235,0.14455637,-0.50546134! #0.0,0.92454433,0.014866948,0.17688283,-0.84879994! 0.0,0.7462151,0.19848104,0.6114015,0.024262954! 
0.0,-0.3931733,-0.40295967,-0.38316137,-0.4289063,-0.6784121,-0.61854595! 0.0,0.84212565,0.80802876,0.61459994,-0.64660835,-0.10879724,-0.2949835! 0.0,0.9875586,0.8494821,0.85936016,0.36793655,0.2191591,-0.048875302! 0.0,0.7436259,-0.9802718,0.13185969,0.7032133,0.87205255,0.78164434! #0.0,0.087046325,0.028635278,-0.8083834,0.9126849! 0.0,-0.42215058,0.31258115,-0.4738466,-0.36718535! 
0.0,-0.47578594,-0.38855204,0.20585322,0.0779407,-0.9430486,-0.04100602! 0.0,0.12717211,-0.9369515,-0.9793986,-0.6788917,0.74280035,-0.713486! 0.0,-0.8536608,-0.5314727,-0.92353976,0.56429625,-0.48169684,0.70205116! 0.0,0.046506908,0.32110894,-0.954259,-0.4626392,-0.9304547,-0.05210949! #0.0,0.111494154,-0.4425769,-0.29933107,-0.74806! 0.0,0.026015282,-0.35159898,0.7959547,-0.3246605! 
0.0,-0.34174836,-0.40512967,0.9295635,0.33357167,0.4118818,0.69415355! 0.0,-0.6039406,-0.93745387,0.99080944,0.30147597,-0.413027,0.65442324! 0.0,-0.20354173,0.7203053,0.2594507,0.8611057,0.0667899,0.38565528! 0.0,-0.16663909,0.9820154,0.63708794,0.19312096,-0.25910854,-0.9570502! #0.0,0.39337775,0.044009686,0.50917983,0.026475787! 0.0,-0.34205702,0.3787317,0.81711507,0.70084965! 
0.0,-0.5626133,0.71781486,0.68196297,-0.27672774,0.120147824,0.4594034! 0.0,-0.85479575,0.96760315,0.0780706,-0.14502501,-0.05182397,-0.61765313! 0.0,-0.2502389,-0.93709975,0.9754088,-0.2871647,0.30235896,0.50680786! 0.0,0.81291056,0.6519735,-0.7056633,0.5333533,-0.38039225,0.6097963! #0.0,0.051934548,-0.4547609,-0.83866584,0.045714498! 0.0,-0.34347716,0.217628,-0.5305681,0.8593292! 
0.0,-0.018115696,-0.1936377,0.8610717,-0.79262286,0.46212786,-0.369277! 0.0,0.89609206,0.7088573,0.61441153,-0.6788917,-0.87279534,-0.51127124! 0.0,-0.06344518,0.779699,-0.50225854,0.7057701,-0.78737247,-0.38720083! 0.0,-0.8631389,-0.9211454,-0.9592447,0.9903767,0.19971807,0.56551427! #0.0,0.14066291,0.25265276,-0.037509006,0.8440729! 0.0,0.38602376,0.31665182,0.0020170435,0.8220281! 
0.0,0.9763705,0.04376521,-0.45841616,-0.7269039,0.520309,0.418378! 0.0,-0.7936617,0.93463653,0.8448477,-0.4692707,-0.26350844,-0.6504612! 0.0,0.639871,-0.30006194,0.14809379,0.87530094,-0.036162615,0.3577602! 0.0,0.69044465,-0.025249746,0.032364815,-0.2099324,0.32587895,0.39620015! #0.0,0.13097745,-0.0639487,-0.46381006,-0.95566654! 0.0,0.5523462,0.2688559,-0.12519318,-0.5525821! 
0.0,0.97508246,0.6631374,0.7397817,-0.28015777,0.95004547,-0.21672249! 0.0,-0.8133193,0.95934266,0.8093201,0.6103661,0.56525314,-0.18521841! 0.0,0.82779753,-0.15819725,0.54041576,0.7382749,-0.15390089,0.7783622! 0.0,0.8900895,0.4677272,0.10011672,0.47266108,0.20181942,-0.7350415! #0.0,0.4951858,0.17591703,0.55297273,0.7658014! 0.0,-0.3706869,0.3093907,-0.82334,0.7881357! 
0.0,0.728824,0.5014234,-0.085518554,-0.038933408,0.08696278,0.6896938! 0.0,-0.41573524,0.9572912,-0.46033347,-0.5806733,-0.10879724,-0.8194587! 0.0,-0.78187275,-0.37633067,-0.86046666,-0.3970461,-0.1331242,-0.16733812! 0.0,0.6943996,-0.9802718,0.43356866,0.48061448,0.37054762,-0.70391303! #0.0,0.10513173,0.39312056,0.14572844,0.8330384! 0.0,0.4050595,0.28466177,-0.08085689,0.6169728! 
0.0,-0.4765716,0.9044863,-0.01254179,0.7687471,-0.9351988,0.4220132! 0.0,-0.32947993,-0.09243281,-0.45339978,-0.40880063,0.49887142,-0.65975785! 0.0,-0.8186509,0.60884994,-0.31082243,0.7818389,-0.015779251,-0.29921007! 0.0,0.7436259,0.90545934,-0.81181324,0.42805058,-0.40768722,-0.58961374! #0.0,-0.092601985,-0.002249729,1.0446243,0.79589885! 0.0,0.28950697,0.25957978,0.5345561,-0.65088123! 
0.0,0.42399043,0.69747174,0.92695373,-0.5688343,0.5344964,-0.8574692! 0.0,0.30298012,0.785589,-0.31643432,-0.63094187,-0.2047511,-0.7233264! 0.0,-0.037280537,-0.20943885,-0.34092534,0.3359867,0.26038828,-0.15449362! 0.0,-0.0764799,0.57283974,-0.98305154,0.6128505,0.40450272,-0.019634105! #0.0,0.08251543,0.36114362,0.70823145,-0.74806! 0.0,0.34521267,-0.35159898,0.58654356,-0.58563846! 
0.0,0.8587802,-0.17178896,0.6912722,-0.8401741,0.49327207,0.4882873! 0.0,0.7941357,0.9717361,0.621123,-0.8939861,0.72328407,-0.97211957! 0.0,-0.77686584,-0.067909345,-0.7624069,-0.5501743,0.6267399,0.3577602! 0.0,0.7436259,-0.025249746,-0.8577703,-0.40302557,0.9243945,-0.6326525! #0.0,0.027992845,-0.007297242,-0.47239667,0.56753016! 0.0,-0.3440286,0.45884705,-0.86216027,0.74019647! 
0.0,-0.11570157,-0.33100381,0.28659606,-0.60418755,-0.65057504,0.1908879! 0.0,-0.36995447,0.2724959,0.6113802,0.023783,0.41853863,-0.65975785! 0.0,-0.5888426,0.976123,0.12324985,-0.30732495,-0.75483,-0.19072503! 0.0,0.29833114,0.9054301,0.2814481,1.0395005,-0.3733251,-0.12754479! #0.0,0.10850252,0.27472925,-0.34740043,0.9381104! 0.0,0.13596478,0.22135288,-0.85878253,-0.7997108! 
0.0,0.48127863,-0.17519045,-0.074034,-0.022483569,-0.9430486,0.5937816! 0.0,0.7099927,-0.5276982,0.6113802,-0.40880063,0.5284292,-0.043712612! 0.0,-0.03291364,0.6496635,-0.30587223,-0.34496674,0.3473675,-0.15449362! 0.0,0.6259115,-0.061929177,-0.75711405,0.52821946,-0.3478892,0.6097963! #0.0,0.45512226,-0.06423628,0.24520242,0.75699323! 0.0,-0.35218218,0.19059709,-0.8323059,0.84818983! 
0.0,-0.32693243,-0.40755033,0.28659606,-0.38794336,-0.9085871,0.38924524! 0.0,0.89609206,0.8021596,-0.34950745,-0.4471575,0.7708718,-0.53514725! 0.0,-0.38544667,-1.0325103,0.18227172,-0.9136876,-0.03609991,0.4719584! 0.0,-0.6076621,-0.8849247,0.54650867,-0.43759605,0.29417133,-0.59084594! #0.0,0.12604268,0.0017179251,-0.75733566,-0.6719161! 0.0,-0.22168311,0.22256379,-0.34329093,-0.017426554! 
0.0,0.47689128,-0.46916592,0.6611723,-0.52146065,0.1244483,0.034045935! 0.0,0.953051,0.7690737,-0.96461445,-0.45119262,0.46431172,-0.7049405! 0.0,-0.034998097,-0.15353113,0.9754088,0.09232247,0.5318587,0.8807655! 0.0,0.70211875,-0.00866092,-0.7148348,0.522068,-0.7413357,-0.39543533! #0.0,0.2962323,0.36228615,-0.925064,0.42103082! 0.0,-0.35218218,0.24052359,-1.0159981,-0.2796226! 
0.0,-0.1316277,-0.83254385,0.86678547,-0.59756356,-0.65057504,0.30944178! 0.0,-0.3248617,0.24562696,0.28878856,-0.6197725,0.42748564,-0.36549038! 0.0,-0.6361822,0.976123,0.12324985,0.2573585,-0.75483,-0.19072503! 0.0,0.29833114,-0.944953,0.06628943,-0.8113066,0.38968518,-0.06506693! #0.0,0.123983726,0.13522387,-0.34777033,0.96955305! 0.0,-0.40586257,0.19848104,-0.4728279,-0.017426554! 
0.0,0.8587802,-0.33100381,0.28659606,0.7932447,-0.80809534,0.38454065! 0.0,-0.25934207,-0.052734643,0.6113802,-0.84775954,0.38194603,-0.587361! 0.0,0.19090402,-0.17621396,0.6363222,-0.3328159,0.11701558,-0.13457724! 0.0,-0.15943767,0.6078741,0.2814481,0.5589518,0.9734673,-0.15684418! #0.0,0.667765,0.31713203,-0.32971022,0.5674931! 0.0,0.7014616,0.3093907,-0.85878253,-0.54554814! 
0.0,0.84409046,-0.38884243,-0.5400771,0.18476576,0.041365623,0.09961173! 0.0,0.8917345,0.9348828,-0.96461445,-0.5533242,-0.41837054,-0.42846185! 0.0,-0.5848572,-0.15353113,0.82444185,0.21661985,0.22958614,0.32486498! 0.0,0.66888785,-0.6389778,-0.7148348,0.53136647,0.35631415,-0.7958299! #0.0,0.10045027,0.36228615,-0.6809449,-0.5853853! 0.0,0.41141674,0.30798128,-0.100437924,-0.15831244! 
0.0,-0.041326653,0.69219196,0.42469513,-0.89686596,0.1244483,0.44935936! 0.0,0.33465984,0.7360105,-0.4347334,-0.92287266,0.30449992,-0.061344214! 0.0,-0.6637924,-0.10267034,0.9699178,-0.3970461,0.5740905,0.22093713! 0.0,-0.17201948,0.44632038,0.8107337,0.19071007,-0.7413357,-0.18339731! #0.0,0.70605314,-0.13028489,-0.98858494,0.8596027! 0.0,0.63570595,0.3093907,-0.37512946,-0.17899695! 
0.0,0.4352157,0.6043344,0.29519117,-0.038933408,-0.2796453,0.0775541! 0.0,-0.36458492,0.34971923,0.7605493,0.32741612,0.5044141,-0.4661133! 0.0,-0.03291364,0.7084847,-0.81802005,-0.30344713,0.2606382,0.14103997! 0.0,0.763171,-0.09156513,-0.7438423,0.13116118,-0.3183018,0.6097963! #0.0,0.10841091,0.31556296,0.24520242,0.7767316! 0.0,-0.36425218,0.5030299,-0.45176092,0.84818983! 
0.0,0.7212726,0.12805116,-0.04476857,-0.04630341,-0.800565,0.5860399! 0.0,-0.32229272,0.8601617,-0.86067265,-0.55354494,-0.7260487,-0.4969525! 0.0,0.83829683,0.36730194,-0.7842446,-0.5305558,0.26435888,-0.12374176! 0.0,0.723111,0.80204237,-0.76530886,0.5391235,0.91820866,-0.73920876! #0.0,0.11375539,0.014866948,0.17688283,-0.59081143! 0.0,-0.3709934,0.19848104,-0.13930026,0.024262954! 
0.0,0.8224368,-0.37369576,0.12110561,0.7687471,0.45654795,-0.8767283! 0.0,-0.86675555,-0.09243281,-0.29557902,-0.6564877,-0.5815917,-0.65975785! 0.0,-0.8186509,0.97849697,0.628664,0.2318419,0.138581,0.5351652! 0.0,-0.091051,0.90545934,-0.78159136,-0.4626392,0.35839415,-0.05210949! #0.0,-0.092601985,0.25265276,1.0446243,0.79589885! 0.0,0.048974294,-0.33015403,0.5345561,-0.5895736! 
0.0,0.9565993,-0.1563252,-0.094364926,0.96156293,0.070782185,0.008110404! 0.0,0.89609206,0.109696984,-0.36822137,-0.92272866,-0.38367748,-0.1507996! 0.0,0.25096563,-0.949534,-0.09870291,-0.37658346,0.40403116,-0.6047164! 0.0,0.58400774,-0.6392812,-0.14327359,-0.90549314,0.55515766,0.78164434! #0.0,0.20888966,0.05317974,0.5828593,0.9123167! 0.0,-0.42215058,0.8840107,-0.8255154,-0.20970428! 
0.0,0.7628088,-0.3805798,-0.04476857,-0.6701462,-0.94164413,-0.56581265! 0.0,-0.81934226,0.32719052,-0.33523336,-0.40578404,-0.1689656,-0.37783015! 0.0,0.9875586,0.6987596,0.7369904,-0.40408176,0.22355266,0.7276818! 0.0,-0.39495075,-0.061929177,-0.66306317,0.52821946,-0.88602483,-0.58961374! #0.0,-0.09178729,0.10363269,0.24823925,-0.6464622! 0.0,0.33660328,0.2688559,-0.74341357,0.71176946! 
0.0,0.018109925,-0.14022979,0.59696263,-0.049264025,-0.71743464,0.49785382! 0.0,0.31360343,0.77412987,0.70662415,0.47899276,-0.07712668,-0.57479435! 0.0,-0.7904127,0.06901477,-0.642989,0.06581168,-0.5045621,0.61926144! 0.0,0.9403332,0.891529,0.83574,0.1980881,-0.089731246,-0.3286022! #0.0,0.06214888,0.113236,0.5099283,-0.67034876! 0.0,-0.41634688,0.19848104,-0.09079185,0.61451805! 
0.0,0.06835687,-0.36306652,0.18622346,-0.83486605,-0.26769066,0.12972169! 0.0,-0.81934226,0.9572912,0.76144445,-0.51780176,-0.052791476,-0.08486317! 0.0,-0.46076787,-0.9054762,-0.3489262,0.06581168,-0.901958,0.7114991! 0.0,0.28819263,0.55045015,0.5010674,-0.50679743,0.87327003,0.6038439! #0.0,0.1545027,0.0035527945,0.1169163,-0.16784322! 0.0,-0.7262579,0.6547542,-0.008862972,0.09167117! 
0.0,0.7628088,0.04376521,-0.04476857,0.013508067,-0.94164413,-0.7826911! 0.0,-0.81934226,0.9280024,-0.4578321,-0.64324254,-0.15659568,-0.40335417! 0.0,-0.8112484,-0.18478703,0.104414165,0.7433423,-0.0052045956,0.3842306! 0.0,0.4205594,0.34678796,-0.7650294,0.9382612,0.30699804,-0.6538707! #0.0,0.21722701,0.017198414,-0.46381006,0.35051763! 0.0,0.7260925,0.24284741,-0.76288575,0.0509642! 
0.0,0.044066556,-0.37369576,-0.90496695,-0.038933408,-0.80809534,0.6896938! 0.0,-0.45579135,-0.24852455,-0.40154058,-0.6788917,0.058956504,-0.55211806! 0.0,-0.6361822,-0.65939134,-0.77856874,-0.084437296,-0.18043038,0.8012517! 0.0,0.7760194,0.28857443,-0.9287312,0.50426143,-0.42549598,0.6097963! #0.0,0.020014782,0.19576222,0.14572844,0.29210877! 0.0,0.4242066,-0.019515928,-0.047645535,0.8593292! 
0.0,0.018109925,-0.39320922,0.12110561,0.28906432,-0.94164413,0.12892567! 0.0,-0.43883884,-0.09243281,-0.25116584,-0.38271418,-0.15659568,1.0071832! 0.0,-0.066428654,-0.93709975,-0.92353976,-0.40408176,0.0039120913,0.7276818! 0.0,0.7436259,-0.10681076,-0.829852,0.9811853,0.18204246,-0.58961374! #0.0,-0.47251138,-0.012767624,0.66500133,-0.8805754! 0.0,0.048974294,-0.019515928,-1.005841,0.7207685! 
0.0,0.8587802,-0.40025896,0.6577003,0.05270535,-0.78340584,0.4594034! 0.0,-0.853032,0.22176303,0.5936264,0.06373902,0.07695004,-0.1507996! 0.0,0.4240931,-0.949534,-0.85838425,-0.609976,0.10824454,0.82032436! 0.0,0.58400774,0.32110894,-0.75428355,0.6602643,-0.16892706,-0.4422775! #0.0,0.085553184,0.16481678,0.5828593,-0.8805754! 0.0,0.07490499,0.43146834,-0.86781925,-0.20970428! 
0.0,-0.19156086,0.59576297,0.6653883,-0.10756299,-0.24273838,0.38924524! 0.0,-0.3425167,-0.37018988,0.5447388,0.47647667,-0.51360035,-0.4661133! 0.0,-0.39695084,-0.19322594,-0.34092534,-0.87041724,-0.8943263,0.57008135! 0.0,0.7436259,0.57423156,0.54650867,0.6128505,-0.7039423,0.5438734! #0.0,0.0701166,0.4008834,-0.34777033,-0.8589353! 0.0,0.29079682,0.22145106,-0.37590995,0.48622417! 
0.0,0.8486239,-0.38855204,0.4002573,-0.08319416,-0.40405598,0.122926235! 0.0,-0.60031414,0.83653164,0.69133407,-0.4039482,0.46742135,-0.39227876! 0.0,-0.64590037,-0.326455,0.08126258,-0.72233236,0.53087723,0.34901246! 0.0,0.70211875,-0.6392812,0.86243427,0.98441786,0.18353774,0.5202803! #0.0,0.09265646,0.05882633,-0.8735881,-0.96874756! 0.0,-0.3709934,0.2688559,-0.8255154,0.35169208! 
0.0,0.22790423,0.4064868,-0.04476857,-0.029762812,-0.2862447,0.71057206! 0.0,0.6572493,0.18991545,0.9396347,-0.3447733,0.21119507,-0.16567317! 0.0,-0.7549317,0.85140973,-0.59153616,-0.084437296,0.045622837,0.043097325! 0.0,0.80625796,-0.16894983,0.80087066,-0.81032234,0.95188606,0.04779305! #0.0,0.16849004,-0.0338048,-0.8488249,0.41362965! 0.0,-0.36810714,0.28339043,-0.4000432,0.8114507! 
0.0,0.90138054,0.09042704,0.6473488,-0.038933408,0.27561602,-0.71195626! 0.0,0.30298012,0.81647617,-0.7087164,-0.705568,-0.74247366,-0.7233264! 0.0,-0.08972573,1.0240415,0.2678157,-0.39889523,0.5735949,0.10405803! 0.0,-0.0764799,-0.07564988,-0.7549693,-0.5052516,-0.3733251,0.0063661076! #0.0,-0.040751934,0.33616263,0.17465273,-0.74806! 0.0,0.6770209,-0.35159898,-0.8255154,-0.30413532! 
0.0,0.8835522,-0.3814311,-0.04476857,0.7276103,0.45654795,0.98198426! 0.0,0.83044034,0.86506724,-0.698568,-0.6610061,-0.42770448,-0.7944607! 0.0,-0.6789305,-0.17289862,-0.7662974,0.17190816,0.0039120913,0.6957816! 0.0,0.724262,0.34678796,-0.8290125,0.1357774,-0.37481564,-0.50512964! #0.0,0.16886988,0.013922475,0.17688283,-0.8805754! 0.0,0.3194486,0.294087,-0.904556,0.0010922607! 
0.0,0.93012244,0.42427087,-0.13094403,-0.8134463,-0.24273838,0.12892567! 0.0,-0.853032,0.8021596,-0.44670415,-0.13509943,0.482178,-0.37783015! 0.0,0.30802935,-0.93709975,-0.5855427,-0.2972349,-0.03609991,0.48155338! 0.0,0.059537806,0.97607833,-0.059069082,-0.2841201,0.34247085,0.097888425! #0.0,0.50316286,0.0017179251,-0.6809449,-0.20879173! 0.0,-0.4397707,0.2024613,0.22080779,-0.017426554! 
0.0,0.51760864,-0.36937782,-0.034652274,-0.86150646,0.9025362,0.44935936! 0.0,0.33465984,0.39963546,-0.4347334,-0.92287266,0.2629368,-0.592588! 0.0,-0.7549317,-0.10267034,-0.513425,-0.3970461,0.2606382,-0.13457724! 0.0,-0.43004704,0.44632038,-0.76672953,0.64950746,0.43991697,-0.18339731! #0.0,0.10521549,-0.13028489,-0.34777033,0.8596027! 0.0,-0.40586257,0.28339043,-0.33158347,-0.20970428! 
0.0,0.1838217,0.5555278,0.9653731,-0.075154185,-0.26252586,0.4545858! 0.0,0.94077796,0.8430284,0.69158584,0.8519593,0.8572146,-0.7142706! 0.0,-0.057520397,-0.8904428,0.90368044,0.714272,-0.8895708,0.4761786! 0.0,0.7436259,0.66352177,0.8653798,-0.13622811,0.37054762,-0.6895643! #0.0,0.060641717,0.06438279,-0.34777033,-0.059495393! 0.0,-0.35218218,0.22145106,-1.0585353,-0.60305494! 
0.0,-0.9276954,0.6834686,-0.41499114,-0.33694756,-0.22779787,-0.9181366! 0.0,0.8917345,0.7690737,-0.6764177,-0.6917541,0.3625924,-0.65975785! 0.0,-0.024788022,-0.33613932,-0.23280656,-0.37707603,-0.19540107,0.4761786! 0.0,0.093892336,0.7242004,-0.12350726,0.5285395,-0.7413357,-0.8622452! #0.0,0.58740866,0.36228615,0.52047694,-0.8948277! 0.0,0.4242066,0.2561965,0.52836657,-0.6057636! 
0.0,0.58805555,0.15068135,0.6884735,0.6332544,0.39060938,-0.27551115! 0.0,0.9219164,-0.09243281,-0.37888238,-0.45119262,0.482178,-0.7049405! 0.0,-0.092616275,-0.6138444,-0.77765465,-0.72233236,-0.80721724,0.8807655! 0.0,-0.584966,-0.04006499,0.13893184,0.9677196,-0.99259675,-0.58961374! #0.0,0.08538643,-0.15432692,0.5099283,1.0260513! 0.0,-0.43291938,0.28339043,-0.86216027,-0.15831244! 
0.0,0.7484363,-0.3805798,0.8486071,-0.6380239,-0.5659479,-0.85232764! 0.0,-0.7168939,0.32719052,0.8093201,-0.40578404,0.56525314,-0.4948346! 0.0,-0.007993653,0.976123,0.7369904,-0.72233236,0.26038828,0.57199913! 0.0,0.69044465,-0.7660835,0.477278,0.52821946,-0.7413357,-0.50546134! #0.0,0.16566147,0.3457658,0.5828593,-0.6464622! 0.0,-0.45481887,0.19848104,-0.45176092,0.5847365! 
0.0,0.7796354,-0.47786173,-0.42411685,-0.05137031,-0.24273838,0.48795563! 0.0,-0.38420802,0.8430284,0.312514,0.84931445,-0.33006918,-0.7142706! 0.0,-0.73862845,-0.19322594,0.12809062,0.75536305,-0.8895708,-0.08499162! 0.0,0.7436259,0.025546145,0.90056205,0.4486138,-0.3325929,-0.48000205! #0.0,0.019635469,0.06438279,0.70434755,0.75699323! 0.0,-0.35218218,0.22145106,-1.0585353,-0.60305494! 
0.0,0.8224368,0.28602782,0.028189812,-0.10899496,-0.800565,-0.85232764! 0.0,-0.32229272,0.8117661,-0.8975132,-0.64660835,-0.6082955,-0.7610763! 0.0,0.11159764,1.0398664,-0.49590063,-0.11228013,0.29308867,-0.12374176! 0.0,0.6334497,1.0169877,-0.9592447,0.34769404,0.65398705,-0.50546134! #0.0,0.13478579,0.7484802,0.17688283,0.9832883! 0.0,0.050188184,0.21813387,-0.9946827,0.024262954! 
0.0,0.16124976,0.55166024,0.47345757,-0.5549628,-0.702968,-0.73290867! 0.0,-0.7608831,0.7724479,-0.9647777,-0.6156976,0.1224397,-1.0160766! 0.0,0.26773834,0.64528507,-0.5313108,-0.3297689,0.553612,0.57008135! 0.0,0.7288984,-0.13762131,-0.8844037,0.46864173,0.8871052,-0.4460539! #0.0,0.47029725,0.23107716,-0.75733566,0.2704214! 0.0,0.29079682,0.28434095,-0.7036553,0.38543227! 
0.0,-0.5626133,0.71781486,0.5887624,-0.08319416,0.120147824,0.4582892! 0.0,-0.85479575,0.96760315,0.6563965,-0.4039482,0.46742135,-0.61765313! 0.0,-0.8306495,-0.9502564,0.8615912,-0.609976,0.30235896,0.50680786! 0.0,0.7760194,-0.6392812,-0.7056633,0.50426143,0.865368,0.5294838! #0.0,0.09265646,-0.25927487,-0.86595017,-0.96874756! 0.0,-0.40110064,-0.21821517,-0.8384806,0.81413394! 
0.0,0.035988007,0.70468223,-0.04476857,-0.55441403,-0.85331315,-0.8767283! 0.0,-0.8133193,0.77735204,0.66534305,-0.5913532,-0.13535623,-0.51248646! 0.0,-0.5437337,-0.81831217,-0.44162548,-0.5126861,0.8875538,0.37908247! 0.0,-0.6753756,-0.7660835,0.1819903,0.929289,-0.27283978,-0.48834476! #0.0,0.019975364,0.14276394,-0.13434815,1.0260513! 0.0,0.34675634,0.27689078,-0.7368349,-0.17438027! 
0.0,0.47127748,-0.40025896,0.19721952,0.89554334,0.520309,0.008110404! 0.0,-0.3115499,0.93463653,0.61994827,-0.5969217,-0.07422614,-0.43817186! 0.0,-0.5888426,-0.9175907,0.5818517,-0.5874766,-0.49069822,-0.008013964! 0.0,0.7436259,-0.87470436,-0.73468083,-0.17905258,0.865368,0.6097963! #0.0,0.20888966,0.19268812,0.15747795,0.9278501! 0.0,0.3340027,0.226274,-0.8704607,-0.27682805! 
0.0,0.051960994,0.52191603,0.6611723,0.7330711,-0.71743464,0.025690556! 0.0,0.83044034,-0.16971791,0.25493404,-0.76893735,-0.6082955,-0.7049405! 0.0,-0.5888426,0.66646814,0.8034665,0.7478637,-0.5300369,-0.5815979! 0.0,-0.93250775,-0.050675463,-0.88298786,0.9677196,0.30699804,-0.39543533! #0.0,0.2962323,-0.002249729,-0.925064,0.4970925! 0.0,0.3194486,0.57400787,-0.01710549,0.82646483! 
0.0,0.018109925,-0.27017072,0.59696263,-0.36302647,-1.0837532,0.49785382! 0.0,-0.7936617,0.81763494,0.65978575,-0.45360214,0.5101666,-0.55211806! 0.0,0.29184306,0.6868922,-0.3971218,0.87530094,0.10078856,0.42359087! 0.0,0.44465807,-0.8847345,-0.974135,-0.59345865,0.1754812,-0.70391303! #0.0,0.053838033,0.37672314,-0.46381006,0.8207026! 0.0,-0.3709934,0.013801418,-0.7833646,0.7207685! 
0.0,0.018109925,-0.4785441,0.68651175,0.19853866,0.87451375,0.6896938! 0.0,0.12717211,0.81763494,-0.44003463,0.6475177,-0.39870006,-0.21310544! 0.0,-0.8536608,-0.4288519,0.9088819,0.56429625,-0.48169684,0.34901246! 0.0,0.70211875,-0.4430442,-0.69735676,-0.6022209,-0.009571433,0.26050293! #0.0,0.4947654,-0.4425769,0.17688283,0.8468814! 0.0,0.41508546,0.02109763,0.7959547,-0.3840184! 
0.0,0.9763705,-0.38855204,-0.074034,-0.02642076,0.520309,-0.04100602! 0.0,0.28113335,-0.08774898,-0.4110035,-0.52029896,-0.2047511,-0.713486! 0.0,-0.037280537,1.0240415,-0.41081548,-0.5501743,0.31295723,-0.12374176! 0.0,0.5601474,-0.6392812,-0.9592447,-0.4626392,0.20181942,-0.05210949! #0.0,0.13478579,0.021267597,0.47633484,0.96955305! 0.0,0.048974294,-0.26741657,-0.8107837,-0.6057636! 
0.0,0.4352157,-0.38855204,0.69569427,-0.07944055,0.596811,0.122926235! 0.0,-0.60031414,-0.37018988,0.69133407,0.51756775,0.0903877,0.9526314! 0.0,-0.5888426,-0.15175761,-0.34092534,-0.609976,0.5247395,-0.16733812! 0.0,0.7436259,0.57423156,0.90056205,0.6128505,-0.7413357,0.5202803! #0.0,0.09265646,0.4008834,-0.34777033,-0.8589353! 0.0,-0.32497084,-0.21821517,-0.031245776,0.33406267! 
0.0,0.7484363,0.16114467,-0.90496695,0.85119796,-0.32018268,-0.85232764! 0.0,-0.03636706,0.95934266,0.8093201,-0.38031167,-0.4138751,-0.55211806! 0.0,-0.007993653,0.976123,0.26217762,-0.28385648,-0.41231287,0.16335559! 0.0,-0.54136395,-0.86052793,0.9523504,-0.8113066,-0.42549598,-0.50546134! #0.0,0.17275435,0.31331837,0.5828593,0.91534376! 0.0,-0.41634688,0.17345354,-0.45176092,-0.12320936! 
0.0,0.42732757,-0.74457335,0.2849884,-0.6882271,-0.75960535,0.58115804! 0.0,-0.51074314,0.9234765,0.5710043,-0.10843876,0.74760044,-0.73466736! 0.0,-0.7111426,0.76749355,-0.11053693,0.06581168,-0.88697857,0.05732286! 0.0,-0.21978962,-0.012494396,-0.7602445,1.0036175,0.031806577,-0.73920876! #0.0,-0.6549876,-0.18189049,-0.28209257,-0.86088276! 0.0,0.2970422,0.538555,-0.86781925,0.7881357! 
0.0,0.90138054,0.74114776,0.6389502,-0.6380239,0.5344964,-0.04100602! 0.0,0.30298012,0.81647617,-0.31643432,-0.47170928,-0.2047511,-0.7233264! 0.0,-0.14234926,-0.9483087,0.2678157,-0.72233236,0.26038828,0.06060385! 0.0,0.69044465,-0.7660835,-0.7549693,0.52821946,0.40450272,-0.25955343! #0.0,0.17291047,0.3555208,0.24823925,-0.787882! 0.0,0.28368807,0.22281611,-0.12519318,0.71176946! 
0.0,0.7796354,-0.5377597,-0.42411685,-0.00855387,-0.95507526,0.342804! 0.0,-0.62757975,0.7303767,0.5447388,-0.7855309,-0.33006918,-0.97799563! 0.0,-0.73862845,-0.38798928,0.12809062,0.75536305,-0.0017597973,-0.16733812! 0.0,0.7436259,-0.01181335,-0.48143196,0.52821946,-0.3325929,-0.48000205! #0.0,0.019635469,-0.0050885417,0.70434755,0.75699323! 0.0,-0.31295466,0.35364968,-1.0398587,0.011651844! 
0.0,0.47689128,-0.30456746,0.68196297,-0.027559124,0.9545612,-0.8151581! 0.0,0.8874438,0.7330821,0.65978575,-0.1308357,-0.022628512,-0.5595038! 0.0,-0.82681054,0.647768,-0.87707984,-0.2972349,0.08174361,0.15334454! 0.0,0.35408735,-0.6253716,-0.829852,-0.2841201,-0.9304547,-0.4969407! #0.0,0.40922877,0.0017179251,0.5099283,-0.74806! 0.0,-0.566969,0.17487687,-0.83202153,-0.017426554! 
0.0,0.7550862,-0.39320922,-0.8023367,-0.67893773,-0.14117932,-0.8435333! 0.0,-0.7943708,-0.16971791,-0.9103675,-0.65638745,-0.57121265,-0.4847796! 0.0,-0.55268615,0.38023782,0.0014608502,-0.7966697,-0.6297152,0.93250734! 0.0,0.35408735,0.8426424,-0.27767524,0.7644687,-0.94731367,-0.58961374! #0.0,0.16111735,0.18386194,-0.8112203,-0.11951695! 0.0,0.38301173,-0.942477,-0.25653917,0.060139462! 
0.0,0.93012244,0.42427087,0.23576868,-0.4289063,-0.7760488,0.12892567! 0.0,-0.853032,0.72630596,0.0780706,-0.4016504,-0.10879724,-0.37783015! 0.0,0.30802935,-0.942212,0.12850514,-0.0068506747,-0.1331242,0.80457544! 0.0,-0.6596561,-0.89346796,-0.829852,-0.29420143,0.30961463,-0.70391303! #0.0,0.023110915,-0.023187935,-0.6809449,0.90766925! 0.0,-0.4397707,0.15989198,-0.4819789,0.0918393! 
0.0,0.8691532,-0.35534832,-0.56636536,0.21076462,0.8810219,0.69415355! 0.0,-0.853032,0.84236085,0.5936264,0.051415928,-0.40135133,-0.76099175! 0.0,0.4240931,-0.7402311,0.82444185,-0.5639651,0.10824454,-0.13123749! 0.0,0.29833114,0.32110894,-0.7148348,1.0036175,0.3811854,-0.7958299! #0.0,0.38570467,0.19088227,-0.32325295,0.96955305! 0.0,-0.4903195,0.24052359,-0.5485438,-0.17766012! 
0.0,0.97508246,0.8666782,0.7240643,-0.62355167,0.9065262,0.17046475! 0.0,-0.34019458,0.18991545,0.8093201,-0.6591561,-0.10879724,-0.18521841! 0.0,-0.6361822,-0.93709975,0.54041576,-0.084437296,0.53087723,0.474123! 0.0,0.83283114,-0.63086116,0.80087066,0.7032133,0.9820375,-0.74797446! #0.0,0.16849004,0.014652982,0.52047694,-0.79303956! 0.0,0.7665967,0.19848104,-0.4000432,0.8114507! 
0.0,0.47689128,-0.33100381,0.28659606,0.093370885,0.1244483,0.17046475! 0.0,-0.8814552,0.34971923,0.69133407,-0.94999486,0.38194603,-0.42846185! 0.0,0.23026387,-0.17621396,-0.45757905,-0.609976,-0.0099437125,-0.13457724! 0.0,-0.15943767,-0.06816815,-0.969439,0.7032133,-0.3733251,0.5851119! #0.0,0.1676785,0.31713203,0.70434755,0.27754116! 0.0,0.7014616,0.26006728,-0.85878253,-0.16321702! 
0.0,-0.48281336,-0.58240485,0.64633673,0.0779407,-0.9430486,-0.04100602! 0.0,0.28113335,0.72630596,-0.4110035,-0.6788917,0.7425576,-0.713486! 0.0,-0.80612636,1.0240415,0.2678157,0.06581168,-0.9120278,-0.16733812! 0.0,0.046506908,0.32110894,-0.954259,-0.4574023,-0.9304547,-0.05210949! #0.0,0.06798336,0.021267597,0.20777988,0.36577928! 0.0,-0.3514135,-0.35159898,-0.8107837,-0.6057636! 
0.0,0.91849476,-0.18430355,-0.43655547,-0.038933408,-0.40487328,0.43482614! 0.0,-0.38420802,0.7790956,-0.6616822,0.84931445,0.83524173,-0.7361171! 0.0,0.26022643,-0.6138444,0.12809062,0.783446,-0.8895708,-0.08499162! 0.0,0.7436259,0.66352177,-0.8195779,0.4634959,-0.99259675,-0.6895643! #0.0,0.09622967,0.0017179251,-0.34777033,-0.5607418! 0.0,0.3273289,0.8876878,-1.0585353,-0.60305494! 
0.0,0.8224368,0.74114776,0.7826654,-0.011414558,0.44797304,0.5860399! 0.0,-0.8133193,0.9016529,0.61994827,-0.6602918,-0.8290944,0.9953829! 0.0,-0.14885652,0.6623229,-0.5900999,-0.3925018,0.26754084,0.7040645! 0.0,-0.8631389,0.5964947,-0.022856893,0.74086845,0.20181942,-0.47352076! #0.0,0.035463452,-0.0338048,-0.86121297,0.9278501! 0.0,0.23101522,0.27825946,0.919802,0.7814454! 
0.0,0.49742907,0.6403024,0.0066837184,0.9184408,0.57120085,-0.0055747405! 0.0,-0.81934226,-0.66345656,0.8044176,-0.6355591,-0.10652588,0.59304935! 0.0,-0.6236971,0.7203053,0.9793675,0.6481754,0.03702754,0.023751259! 0.0,-0.13388717,0.22356193,-0.8290125,-0.26743245,-0.45003295,0.5673655! #0.0,0.004563909,0.014866948,0.4505217,0.8139225! 0.0,-0.5190313,0.2583538,-0.8244088,0.6227069! 
0.0,-0.5140971,0.11352329,0.9323739,-0.34461105,-0.71743464,0.025690556! 0.0,0.08871341,-0.21059287,0.4007585,0.47899276,-0.5343782,-0.5703832! 0.0,-0.048269868,-0.4586134,0.9006902,0.06581168,-0.5446261,-0.56537795! 0.0,0.5370972,0.891529,0.93000257,0.1980881,-0.050524842,-0.5754322! #0.0,0.6607381,-0.5208092,0.8082647,-0.9959649! 0.0,-0.7118343,0.6248612,0.44379616,0.65074515! 
0.0,0.43565568,0.8325832,0.79434234,-0.36302647,0.1244483,0.5832668! 0.0,-0.32229272,-0.99165505,-0.34950745,0.07226454,-0.26581398,-0.28841925! 0.0,-0.6361822,-1.0740442,-0.05462495,0.05092034,0.5637705,0.32729506! 0.0,0.6386832,0.32829785,0.06628943,-0.8113066,-0.7413357,-0.0377028! #0.0,0.14677748,0.7825221,0.2258271,0.96955305! 0.0,-0.40586257,0.19848104,-1.016012,-0.78384566! 
0.0,0.84902656,-0.34216055,0.6134164,-0.90131086,-0.98921925,-0.27551115! 0.0,0.93383116,0.7790956,-0.7065328,0.51756775,-0.15392572,-0.55211806! 0.0,0.2726403,-0.93709975,0.95098597,-0.8497955,-0.18908882,-0.9831147! 0.0,0.69044465,0.55891746,-0.8485358,-0.9324857,0.09249406,0.5860823! #0.0,0.06214888,-0.015374266,0.19655138,0.8765267! 0.0,-0.38861728,0.6475166,-0.76778203,0.20104158! 
0.0,0.8092168,-0.38855204,-0.04476857,0.72804,-0.692859,-0.87424517! 0.0,0.19338386,0.9147352,-0.698568,0.8894038,0.09883802,0.19715929! 0.0,-0.7396223,0.16251214,-0.36283335,-0.37862596,0.53087723,0.36707094! 0.0,0.7436259,-0.6392812,-1.0077375,0.9811853,-0.38326383,0.09769012! #0.0,0.13478579,0.19852781,0.5964498,-0.29266548! 0.0,-0.46075892,0.19508149,-0.86216027,-0.007496286! 
0.0,0.91611254,0.09042704,0.9672922,-0.6701462,-0.8002341,0.43238708! 0.0,0.30062327,0.39863703,-0.7066654,-0.59595275,-0.74247366,0.38820052! 0.0,-0.2502389,0.6911427,-0.3621605,0.26861668,0.5557557,-0.16733812! 0.0,-0.38514173,-0.061929177,-0.75244105,-0.05353093,0.35631415,-0.4286397! #0.0,0.06798336,0.20531756,0.3009683,0.7658014! 0.0,-0.3514135,0.34336114,-1.0387385,-0.017426554! 
0.0,0.39323583,0.10886169,0.2764496,-0.83486605,0.27561602,-0.0128139! 0.0,0.94439816,0.8275106,-0.47477004,0.47647667,0.482178,-0.7049405! 0.0,-0.584102,0.632819,-0.642989,0.2799164,0.34668258,0.75449747! 0.0,0.8902178,0.34678796,0.8262252,1.0023648,0.13875283,-0.58961374! #0.0,-0.079792395,-0.02777027,0.5099283,0.75699323! 0.0,0.29079682,0.26710507,0.19441965,-0.2570539! 
0.0,0.9763705,-0.37369576,0.12110561,-0.8863161,0.9042716,-0.04100602! 0.0,-0.7936617,-0.09243281,-0.29557902,-0.64308405,-0.5815917,-0.466401! 0.0,0.29184306,-0.42368424,0.8606914,0.8974664,-0.1331242,0.3577602! 0.0,-0.10762635,-0.10681076,-0.829852,-0.59345865,0.39563486,-0.70391303! #0.0,0.06214888,0.36411396,0.66500133,0.29210877! 0.0,0.048974294,-0.33015403,-0.08085689,-0.65137845! 
0.0,0.86907053,0.61158586,-0.41420585,-0.5168978,0.44293872,0.12892567! 0.0,-0.85844696,0.7185961,0.79505813,-0.6788917,-0.35893345,-0.40335417! 0.0,0.39305383,-0.93709975,-0.9513021,-0.10430398,-0.1331242,0.57226163! 0.0,-0.6596561,-0.025639817,-0.7931893,0.6737879,0.91026086,0.18438369! #0.0,0.19750182,0.18253878,-0.8428751,0.7243441! 0.0,0.33660328,0.23942113,-1.0180378,0.0918393! 
0.0,-0.3721887,-0.07383266,-0.07297863,0.006240003,-0.90766126,-0.024105087! 0.0,-0.60031414,0.7519751,0.6113802,-0.6197725,-0.41344917,-0.8194587! 0.0,0.4240931,-0.3515328,0.5818517,-0.63287514,0.22912084,0.4491846! 0.0,-0.118525766,0.28857443,-0.8219436,-0.4982518,-0.3733251,-0.6326525! #0.0,0.1069941,0.241916,-0.47239667,0.91688484! 0.0,0.59039104,0.04990256,0.5936848,-0.5687912! 
0.0,0.7796354,0.59576297,-0.43679214,-0.038933408,0.8942127,0.43482614! 0.0,-0.38420802,0.8601617,0.312514,0.84931445,0.8572146,-0.7142706! 0.0,0.95371604,0.8218179,-0.8381836,0.7017098,-0.9161153,-0.11751743! 0.0,-0.97209543,0.7178171,0.90056205,0.4442842,-0.3325929,-0.6722511! #0.0,0.12111226,0.06438279,-0.34777033,0.82094747! 0.0,-0.35218218,0.4718101,0.686365,-0.07555321! 
0.0,-0.14399302,-0.40582842,0.71219456,0.7548455,-0.34370148,0.10558368! 0.0,-0.19305533,0.9471218,-0.96044254,-0.6156976,0.46359706,0.41615245! 0.0,-0.7228748,-0.45997727,-0.34092534,-0.34936666,0.5772101,0.32486498! 0.0,-0.6515345,-0.08197641,-0.8844037,0.72774196,0.55463976,-0.39543533! #0.0,0.10142577,-0.13574314,0.37994087,-0.43041027! 0.0,0.41141674,0.30798128,0.58335567,0.9750273! 
0.0,0.8661011,0.71781486,-0.28381553,-0.27672774,0.120147824,0.38533762! 0.0,0.19338386,0.9318146,0.6233026,-0.64660835,0.48294696,-0.61765313! 0.0,-0.8306495,0.7569755,0.8615912,-0.084437296,0.30235896,0.50680786! 0.0,0.7760194,-0.6124702,-0.7931716,0.8832426,-0.9279231,0.6097963! #0.0,0.040830553,-0.14579928,-0.83866584,0.07954112! 0.0,-0.44383162,0.4242935,-0.6088422,0.8593292! 
0.0,0.019867264,0.6631374,-0.90496695,0.34138244,-0.82292044,0.6432402! 0.0,-0.81934226,0.8601617,0.7477642,-0.6788917,-0.5253418,-0.18521841! 0.0,-0.6361822,-0.65939134,0.26217762,0.72976315,0.230613,-0.13362026! 0.0,-0.6076621,-0.05804056,-1.0015839,0.38639167,-0.7286544,-0.56867635! #0.0,0.020014782,0.14442444,-0.10394193,0.79589885! 0.0,0.6087758,0.15740472,-0.8255154,0.581036! 
0.0,0.4954037,0.8666782,0.29519117,0.2160791,-0.8173305,0.17046475! 0.0,0.7941357,0.39942273,0.8093201,0.04180684,-0.10879724,-0.37783015! 0.0,0.95973986,0.7461012,0.54041576,0.87530094,0.53087723,0.8012517! 0.0,0.8257828,0.7178171,-0.6344414,-0.49623466,-0.3183018,-0.708537! #0.0,-0.114077985,0.20531756,-0.8428751,0.96955305! 0.0,0.3449872,0.19848104,-0.80112934,0.5955602! 
0.0,-0.5463761,-0.8007424,0.67158645,-0.8863161,-0.7850368,0.91591585! 0.0,0.1766659,-0.9365845,-0.8173348,-0.4692707,-0.055633187,-0.6404397! 0.0,-0.7104832,0.49175987,0.8606914,0.87530094,-0.69772065,-0.25036204! 0.0,0.39909694,0.53470683,0.1617248,-0.59345865,0.1754812,-0.70391303! #0.0,-0.24327075,0.36478117,-0.46381006,0.29210877! 0.0,0.5523462,-0.047161818,-0.6416333,0.7207685! 
0.0,0.12285283,0.69219196,0.43960622,-0.5863347,0.4007421,-0.87424517! 0.0,-0.3115499,0.77128965,0.3322666,-0.63525796,-0.073023394,-0.3990836! 0.0,-0.7794939,-0.15819725,0.97515416,-0.43119156,0.31295723,0.25631654! 0.0,0.5759622,-0.061929177,0.49911445,0.6803844,0.8301522,-0.84192276! #0.0,0.0450803,0.19911331,1.0477792,0.3021509! 0.0,0.31858078,0.226274,-0.3596255,0.0922935! 
0.0,-0.5626133,-0.49117208,-0.43679214,-0.6701462,-0.78340584,0.67292285! 0.0,0.89609206,0.39863703,-0.3558525,-0.3447733,-0.6082955,-0.61765313! 0.0,-0.06344518,0.6987596,0.9754088,-0.609976,0.23283225,0.57008135! 0.0,-0.7883947,-0.9802718,-0.9592447,-0.49623466,-0.3183018,-0.47800076! #0.0,0.2962323,0.022773098,-0.32325295,0.36889476! 0.0,0.69049525,0.23022193,-0.86216027,0.5955602! 
0.0,0.85063297,-0.38162544,-0.9105173,0.9417254,-0.692859,0.008110404! 0.0,-0.5683754,0.95943975,-1.1033088,0.47647667,-0.10959494,-0.3283346! 0.0,0.1282791,0.034388572,-0.6219592,0.75536305,0.24592793,0.48155338! 0.0,-0.13388717,-0.9802718,-0.09785046,-0.29180238,0.37054762,-0.66698927! #0.0,0.02344347,-0.031796403,0.15747795,0.7253697! 0.0,-0.46075892,0.2573362,0.81711507,-0.04242806! 
0.0,0.98906505,0.024726953,0.23641706,-0.83486605,-0.6277472,-0.0128139! 0.0,0.9483472,0.81763494,0.8044176,-0.40545595,-0.07712668,-0.6694924! 0.0,-0.06344518,0.976123,-0.85972846,0.5044352,-0.78737247,0.48155338! 0.0,-0.748664,-0.8823898,-0.80472964,-0.59345865,0.36097437,-0.70391303! #0.0,0.33788234,0.2640366,-0.8428751,0.90766925! 0.0,0.39709482,-0.019515928,0.0020170435,0.8157549! 
0.0,0.029389363,-0.37369576,-0.90496695,0.34138244,-0.80809534,0.63693446! 0.0,-0.81176424,0.8601617,0.6113802,0.051204212,0.058956504,-0.55211806! 0.0,-0.5888426,-0.65939134,-0.45757905,-0.084437296,-0.03609991,0.8012517! 0.0,0.7760194,0.9054301,-1.0015839,0.50426143,-0.42549598,0.6097963! #0.0,0.69098,0.31713203,-0.32066286,0.9214048! 0.0,0.7014616,0.28339043,-0.8255154,0.8593292! 
0.0,0.85959,-0.36789766,0.42469513,0.742988,-0.24273838,-0.8816493! 0.0,-0.853032,0.76316327,0.84693474,-0.6788917,0.56525314,-0.65975785! 0.0,0.30932686,0.7710279,-0.8817901,0.87530094,0.5740905,-0.16877161! 0.0,0.3400125,-0.6253716,-0.7740823,0.42948794,-0.7413357,-0.07350406! #0.0,0.019975364,0.33616263,-0.95450866,-0.72897786! 0.0,0.5891936,0.226274,-1.0256664,0.21903679! 
0.0,0.12285283,0.2101183,-0.35724926,0.7392737,0.7402079,0.0118440315! 0.0,-0.3115499,0.5225612,-0.44280213,-0.5969217,-0.0941807,-0.3990836! 0.0,-0.62812877,0.55998933,0.97515416,0.6807889,-0.8020741,-0.33249044! 0.0,0.16005266,-0.94793963,-0.5061626,0.49046612,0.06974864,0.64390874! #0.0,-0.2375114,0.17382367,0.59821427,-0.015808899! 0.0,-0.06574212,0.02705574,-0.3596255,-0.8507658! 
0.0,0.49742907,0.4401293,0.66060764,0.9184408,0.5344964,-0.04100602! 0.0,-0.81934226,0.29101825,-0.31643432,-0.43905362,-0.10652588,0.22322318! 0.0,-0.037280537,-0.19119048,0.9754088,-0.5210271,0.0039120913,0.04549885! 0.0,-0.0764799,-0.07564988,-0.9592447,-0.5052516,-0.45003295,-0.019634105! #0.0,0.14066291,0.36353213,-0.8428751,0.9278501! 0.0,0.048974294,0.2670858,-0.5533839,-0.5915008! 
0.0,0.18244028,0.47388566,0.88911057,-0.5688343,0.24531639,-0.8574692! 0.0,-0.83842367,0.785589,-0.5062094,-0.66999125,-0.51360035,-0.36433426! 0.0,0.95371604,-0.20943885,0.90368044,0.8039949,0.8381004,-0.15449362! 0.0,0.7791478,0.57283974,-0.98305154,0.6128505,0.41911602,0.59165114! #0.0,0.088367045,0.33370906,0.12101919,0.86972445! 0.0,0.38715956,0.20940392,-0.29072365,-0.58563846! 
0.0,0.8796526,-0.38162544,0.59696263,-0.022483569,-0.06884539,-0.7733929! 0.0,-0.82510465,0.83414125,-0.3512438,0.473691,0.32165685,-0.42846185! 0.0,-0.65347004,-0.21408415,-0.36283335,0.87148726,-0.006247379,0.7450177! 0.0,0.76606065,0.34678796,-0.7437271,-0.38046432,0.14455637,0.5484748! #0.0,0.92454433,0.34869388,-0.76290834,-0.83399534! 0.0,-0.3966814,0.4946933,-0.75295925,0.8067434! 
0.0,0.7811479,-0.34956187,0.11961649,-0.83486605,0.45477605,-0.7826911! 0.0,0.6619221,-0.09243281,-0.29557902,-0.65244544,-0.5815917,-0.713486! 0.0,-0.5888426,0.16251214,-0.92353976,-0.5210271,0.31295723,0.5351652! 0.0,-0.10344641,-0.1367943,-0.80270976,1.0085249,0.87327003,-0.05210949! #0.0,0.4885717,0.25265276,0.21774617,0.5951741! 0.0,0.048974294,-0.33015403,-0.008862972,0.06267998! 
0.0,0.89434695,-0.3805798,0.6884735,-0.90131086,-0.96623284,-0.27551115! 0.0,0.9611018,0.7790956,-0.3864902,-0.92272866,0.07965716,0.20421875! 0.0,0.9348148,-0.6248755,-0.63813686,-0.5438003,0.34877867,-0.9831147! 0.0,0.7771101,0.51947594,0.018642327,-0.5776916,-0.043513894,-0.30420482! #0.0,0.0025165565,0.0017179251,0.7052784,0.8765267! 0.0,-0.45725945,0.27825946,-0.5692488,0.24470975! 
0.0,1.0316774,-0.47048962,0.035186455,-0.38794336,0.4405346,-0.21672249! 0.0,0.28068268,0.8649661,-0.8975132,-0.4247021,0.68883544,-0.389393! 0.0,0.26573753,-0.7837256,-0.90546876,-0.72233236,0.19305092,-0.11108138! 0.0,-0.68420696,0.991329,-0.7071643,0.4233818,0.44137058,-0.70391303! #0.0,0.04649586,0.057978738,-0.7002238,-0.60440487! 0.0,-0.3709934,0.28339043,-0.58181226,0.0982234! 
0.0,0.8613828,-0.45467404,-0.07297863,-0.6069496,0.9545612,0.17046475! 0.0,0.83044034,0.93463653,-0.46033347,-0.64660835,0.7519142,-0.7610763! 0.0,-0.5888426,-0.17621396,-0.45757905,0.17190816,0.0039120913,-0.13457724! 0.0,-0.12102508,0.88906455,0.15918891,0.3176546,0.30699804,-0.12754479! #0.0,0.667765,0.01401002,0.17688283,0.64493537! 0.0,0.7014616,0.2166948,-0.9478821,-0.7997108! 
0.0,-0.1564616,-0.38855204,0.71219456,0.80131793,0.48258463,0.8237102! 0.0,0.88176954,0.45825562,0.8094137,-0.3185861,0.22841701,-0.37783015! 0.0,-0.22354405,0.8509077,-0.50225854,-0.01079585,-0.036162615,-0.16733812! 0.0,-0.12102508,-0.6392812,-0.6344414,0.700267,-0.3183018,-0.4286397! #0.0,0.33761084,-0.0338048,-0.3047996,-0.8050522! 0.0,-0.13981915,-0.2199179,0.58335567,0.08251047! 
0.0,0.8224368,-0.38162544,-0.9105173,0.92246044,-0.692859,0.008110404! 0.0,-0.5683754,0.93463653,-0.36822137,-0.92272866,0.482178,-0.35172072! 0.0,0.25096563,-0.17535277,-0.661319,0.7908874,0.2389133,-0.008013964! 0.0,0.58400774,-0.9802718,-0.9761138,-0.90549314,-0.3139593,0.09769012! #0.0,0.024139097,0.014866948,0.5828593,-0.44365782! 0.0,-0.42215058,0.31441835,0.81711507,-0.20970428! 
0.0,0.05717973,-0.38162544,0.0039966404,0.0779407,-0.9295689,-0.045718756! 0.0,0.19338386,0.785589,-0.34024525,-0.5932914,-0.3126818,-0.7378865! 0.0,-0.017792031,1.0243855,-0.77765465,0.06581168,0.34877867,0.8807655! 0.0,0.6429238,0.8978712,-0.8485179,-0.2604183,0.5441014,-0.73920876! #0.0,-0.3852675,-0.15432692,0.5099283,0.7658014! 0.0,0.7260925,0.28339043,-0.86781925,0.7881357! 
0.0,0.90138054,-0.3805798,0.7397817,-0.038933408,-0.96623284,-0.8767283! 0.0,0.9483472,0.81647617,-0.3864902,-0.4247021,-0.2047511,-0.7233264! 0.0,-0.037280537,1.0240415,0.29310042,-0.609976,0.8532086,0.10405803! 0.0,0.7771101,0.61421865,-0.7549693,-0.46930134,0.5182008,-0.30420482! #0.0,0.0025165565,0.33616263,0.7052784,-0.295228! 0.0,0.048974294,0.27825946,-0.5692488,-0.5915008! 
0.0,0.8587802,-0.47048962,-0.43870622,0.7392737,-0.9549953,0.5860399! 0.0,-0.7930712,0.76316327,0.621123,0.5205463,-0.7260487,-0.42878658! 0.0,0.23407736,-0.19322594,-0.06506424,-0.40408176,-0.54772055,-0.290166! 0.0,0.11655033,0.9656408,-0.8460301,-0.90549314,0.9246421,-0.56867635! #0.0,0.11375539,0.34308377,-0.6809449,0.41104978! 0.0,0.3531674,0.226274,-0.9956074,0.0660896! 
0.0,0.8224368,-0.33100381,0.2512114,-0.038933408,0.1244483,0.6526404! 0.0,-0.25934207,0.34971923,0.6113802,0.051204212,-0.054374125,-0.65975785! 0.0,-0.5888426,-0.93709975,-0.45757905,0.02700105,0.26874554,-0.16733812! 0.0,-0.13388717,-0.8548736,0.2814481,0.5589518,-0.3733251,-0.12754479! #0.0,0.64986694,0.2836031,0.15747795,0.27754116! 0.0,0.7429629,0.289436,-1.0256664,-0.7997108! 
0.0,0.5884469,-0.3453745,-0.34581926,0.6332544,-0.66985375,0.6896938! 0.0,0.43696594,0.81763494,0.0780706,0.8894038,0.48183137,-0.49336913! 0.0,0.07210887,0.1876065,-0.46038115,0.5044352,-0.036162615,-0.012662806! 0.0,0.12137369,-0.04006499,0.060930334,0.9677196,0.1754812,-0.38781425! #0.0,0.2916353,0.37068996,0.20777988,-0.95566654! 0.0,0.4613592,0.2997607,-0.8255154,-0.2625273! 
0.0,-0.481668,-0.36937782,-0.41420585,0.093370885,-0.80809534,0.342804! 0.0,-0.858506,0.7088573,-0.43282813,-0.6788917,-0.35893345,-0.97799563! 0.0,0.24873956,-0.65939134,-0.642989,-0.10430398,0.10824454,0.74642754! 0.0,0.67108303,-0.025639817,-0.81181324,0.3719285,0.87657285,-0.6908018! #0.0,0.21073118,0.104987904,1.0446243,-0.67034876! 0.0,-0.3591444,0.26716524,0.58654356,-0.021414384! 
0.0,-0.48281336,-0.39320922,-0.04476857,0.62465656,-0.94164413,0.25960875! 0.0,0.9420528,0.72630596,0.68256897,-0.6317533,0.7425576,-0.40335417! 0.0,-0.80612636,0.78550947,0.13322301,0.7671374,0.0039120913,0.57008135! 0.0,-0.10344641,-0.03876531,-0.22552794,0.5333533,0.8161832,-0.45932087! #0.0,0.06798336,0.3826756,0.5099283,0.41104978! 0.0,0.7260925,0.2688559,-0.8107837,-0.017426554! 
0.0,0.808931,-0.5733501,0.028189812,0.7687471,0.41442588,-0.7837708! 0.0,-0.21563458,-0.9006226,-0.10356083,0.26474968,0.2761472,-0.4948346! 0.0,-0.79707915,-0.93709975,-0.5847409,0.75536305,-0.026136208,0.4491846! 0.0,0.059537806,-0.04966006,-0.8339312,-0.2841201,-0.34763235,0.78164434! #0.0,0.12371552,0.2453266,0.20129088,-0.4867589! 0.0,-0.3514135,0.2434463,-0.8255154,0.92579347! 
0.0,0.8224368,-0.3728579,0.12110561,-0.052776314,-0.70758134,-0.04100602! 0.0,0.28113335,0.45825562,-0.4435519,-0.64308405,0.07965716,0.2297685! 0.0,-0.037280537,0.97849697,0.09119356,0.1480338,-0.036162615,-0.71049535! 0.0,-0.10762635,-0.6554773,-0.78159136,-0.4626392,0.6067651,-0.42779887! #0.0,0.33761084,0.25265276,0.66500133,-0.99123544! 0.0,-0.13812286,-0.33015403,-1.005841,-0.65137845! 
0.0,0.48294613,0.09042704,0.9997819,-0.038933408,-0.80809534,0.17046475! 0.0,-0.25934207,0.9183832,0.62390316,0.051204212,0.38194603,0.38820052! 0.0,-0.07131493,0.632819,-0.48256963,0.28999415,-0.03609991,-0.54092264! 0.0,-0.15943767,0.76280165,0.2814481,0.5589518,-0.99122906,-0.12754479! #0.0,0.667765,0.31713203,-0.32066286,0.27754116! 0.0,0.67037374,0.26006728,-0.85878253,-0.7997108! 
0.0,0.47127748,0.16114467,0.18622346,-0.83486605,0.4954851,0.05128307! 0.0,-0.8133193,0.95934266,0.62137955,0.4726815,-0.052791476,-0.587361! 0.0,-0.5888426,-0.9175907,0.93219924,0.06581168,-0.9120278,0.57199913! 0.0,-0.12102508,0.92968816,-0.017653076,-0.83052987,0.87327003,0.62519526! #0.0,0.12488097,-0.12465878,-0.9153758,0.7767316! 0.0,0.3340027,0.22982204,-0.008862972,4.90848E-4! 
0.0,0.05717973,-0.42606568,-0.004951168,-0.10899496,0.5098627,-0.87424517! 0.0,0.19338386,-0.9814476,-0.4347334,-0.5932914,-0.3126818,-0.7610763! 0.0,0.4240931,-0.7402311,0.5818517,-0.11228013,0.31295723,0.43099394! 0.0,0.6386832,1.0169877,-0.7602445,-0.2604183,0.34220302,-0.73920876! #0.0,-0.3852675,-0.064097404,0.5099283,0.9832883! 0.0,0.050188184,0.3093907,-0.86781925,0.7807197! 
0.0,0.06835687,-0.037036777,0.68196297,0.2160791,0.95004547,0.17046475! 0.0,-0.7792159,0.5934005,0.8093201,-0.51780176,0.30047548,-0.18521841! 0.0,-0.48828834,-0.38192904,0.54041576,0.90621424,-0.15390089,0.474123! 0.0,0.805959,0.64960563,0.5010674,0.42837456,-0.5848081,0.82993203! #0.0,-0.20375502,0.014652982,0.14552426,-0.79303956! 0.0,-0.7262579,0.42950663,-0.36052442,0.04424429! 
0.0,0.12285283,-0.33100381,-0.12402622,0.006240003,0.4007421,0.0118440315! 0.0,0.84212565,0.8071728,0.5475841,-0.5599634,-0.10879724,-0.4552109! 0.0,0.81431615,0.55998933,0.8312669,-0.43119156,-0.12476283,0.4761786! 0.0,0.65231776,0.58445144,-0.94012946,0.7800335,-0.3733251,-0.84192276! #0.0,0.050933845,0.19911331,1.0477792,0.947575! 0.0,0.31858078,0.26861423,-0.7959673,0.0626409! 
0.0,0.44889152,-0.47156957,0.29519117,-0.63163894,-0.95507526,-0.5738413! 0.0,-0.37845364,0.9145648,0.5447388,-0.7855309,-0.80090976,-0.97799563! 0.0,-0.73862845,0.7042304,0.8995565,-0.5601307,-0.00408341,-0.16733812! 0.0,0.7436259,0.84026486,-0.41042337,0.52821946,-0.3325929,0.57466847! #0.0,-0.004463954,-0.08381465,-0.8428751,0.36889476! 0.0,-0.30901438,0.5245955,-1.0398587,0.5955602! 
0.0,-0.93589294,-0.1321968,0.59696263,-0.038933408,-0.6319245,0.49785382! 0.0,-0.65364814,0.7961944,0.5123286,0.84931445,-0.95975864,-0.5254673! 0.0,0.350752,-0.6195704,-0.81802005,-0.039727807,-0.39899188,-0.16173881! 0.0,0.7436259,-0.87470436,0.90056205,0.042809606,-0.76957726,-0.70391303! #0.0,0.670344,0.5346176,-0.14011493,-0.88283134! 0.0,-0.41634688,0.19848104,0.2890408,0.11043072! 
0.0,-0.481668,-0.36895478,0.42469513,-0.83486605,-0.80809534,0.342804! 0.0,-0.17390382,0.6750215,-0.34950745,0.8736526,0.40102196,-0.55211806! 0.0,-0.5888426,-0.93709975,-0.642989,-0.44392946,-0.61780655,0.7560181! 0.0,-0.6076621,0.6078741,-0.81181324,0.19071007,-0.19772351,-0.0377028! #0.0,-0.092601985,0.104987904,-0.95450866,-0.67034876! 0.0,-0.3591444,0.30595142,0.58654356,-0.021414384! 
0.0,0.018109925,0.69219196,0.43960622,-0.36302647,-1.0516317,0.0118440315! 0.0,-0.8051725,0.77128965,0.65978575,-0.5969217,-0.72098756,-0.417688! 0.0,-0.80763936,0.55998933,0.97515416,-0.43119156,-0.12476283,0.42359087! 0.0,0.8587012,-0.061929177,-0.94012946,0.7800335,0.17901184,-0.22284071! #0.0,0.0450803,0.19911331,0.5099283,0.947575! 0.0,-0.339722,0.19848104,-0.3596255,-0.09362669! 
0.0,-0.04579556,0.69219196,-0.04476857,0.72804,0.45654795,0.44935936! 0.0,0.33465984,0.86506724,-0.698568,-0.6156976,0.2629368,-0.56643176! 0.0,-0.8054303,-0.10267034,-0.7662974,0.3359867,-0.01915529,0.22093713! 0.0,0.675169,0.34678796,-0.8290125,0.1357774,-0.3361329,-0.20842741! #0.0,0.16886988,0.022738814,0.6928148,-0.8805754! 0.0,0.72404206,0.28339043,-0.37512946,-0.19863977! 
0.0,0.4445091,0.71781486,-0.48402727,-0.27672774,0.120147824,0.4594034! 0.0,0.9691519,0.9145648,0.0780706,-0.74489015,0.07695004,-0.38041428! 0.0,-0.8306495,-0.93709975,0.5818517,-0.4785055,0.30235896,0.12733327! 0.0,0.71962297,-0.6124702,-0.7056633,-0.2841201,0.20181942,-0.112615414! #0.0,0.051934548,-0.064090446,-0.83866584,0.06706706! 0.0,-0.41634688,0.19637597,-0.9956074,-0.603994! 
0.0,0.018109925,-0.37369576,0.18622346,0.25900507,0.9042716,0.6896938! 0.0,-0.43883884,-0.09243281,-0.44003463,0.4919266,-0.2047511,-0.20331255! 0.0,-0.048877325,-0.33319277,0.93219924,-0.4964142,0.0115452595,-0.29921007! 0.0,-0.584966,-0.8823898,0.19623111,0.52975,-0.3572846,0.108726874! #0.0,0.14589584,0.1625982,0.16916041,0.64493537! 0.0,0.41508546,0.20768467,-0.24116063,-0.15831244! 
0.0,0.035988007,0.04376521,-0.5587075,-0.65784353,-0.29589307,0.25960875! 0.0,0.24290206,-0.52353203,0.68256897,-0.4692707,-0.2047511,0.22369793! 0.0,-0.80612636,0.8494821,0.54041576,0.87530094,0.05289671,0.89259064! 0.0,0.24493481,0.71189016,0.23167054,0.46057758,0.32587895,0.39620015! #0.0,0.3011731,-0.06423628,0.5099283,0.40527457! 0.0,-0.3885951,0.2688559,-0.16604099,-0.517127! 
0.0,0.7384384,-0.79837346,0.6611723,0.7094733,-0.69400156,0.91591585! 0.0,0.9219164,-0.8973296,0.29992118,-0.45119262,-0.055633187,-0.73670274! 0.0,-0.7538759,0.66646814,0.6753814,0.7681486,-0.69772065,-0.25036204! 0.0,0.8902178,0.5489084,0.15899396,-0.39436972,0.5441014,0.34156975! #0.0,-0.24327075,-0.18984142,-0.4346788,0.7658014! 0.0,-0.35218218,-0.047161818,-0.6416333,-0.2796226! 
0.0,-0.8321748,-0.38884243,0.0039966404,-0.43385184,1.0037423,0.034045935! 0.0,-0.7567437,-0.52857584,0.5954681,-0.64838177,-0.8290944,-0.65975785! 0.0,-0.5888426,-0.7402311,0.54050773,0.06581168,0.10824454,0.4761786! 0.0,0.2811255,0.7242004,-0.7602445,0.041964643,-0.7413357,-0.73920876! #0.0,0.4307687,0.36228615,0.5099283,-0.6464622! 0.0,0.4242066,0.29027057,-0.7959673,-0.6057636! 
0.0,-0.155018,-0.83254385,0.86678547,-0.60418755,-0.6766968,-0.8459181! 0.0,-0.853032,0.1974254,0.28878856,0.06373902,0.42748564,-0.76099175! 0.0,0.21627486,0.9452698,-0.22625026,-0.5639651,0.10824454,0.82032436! 0.0,0.29833114,-0.9802718,-0.7931893,1.0395005,0.4095037,-0.73920876! #0.0,0.123983726,0.13522387,-0.32325295,0.900546! 0.0,0.08200237,0.22135288,-0.86781925,0.6697888! 
0.0,0.55169123,0.024726953,0.23641706,0.6332544,0.16601086,0.6896938! 0.0,-0.41573524,-0.34593323,-0.96194524,-0.40578404,-0.17455478,-0.8194587! 0.0,-0.6361822,-0.37633067,-0.77856874,-0.9231031,0.053808935,-0.8029409! 0.0,0.6943996,0.28857443,-0.9287312,0.44254592,-0.90029895,-0.70391303! #0.0,0.10841091,0.17810035,0.14572844,0.25239268! 0.0,0.4242066,-0.019515928,-0.75480485,-0.55221856! 
0.0,0.96923155,0.47015345,-0.10486387,-0.52146065,0.1244483,0.02771585! 0.0,0.8917345,0.9572912,-0.14230414,0.8894038,-0.10879724,-0.70157546! 0.0,-0.8315099,0.16251214,0.8312669,0.09232247,-0.78737247,0.6655146! 0.0,0.70211875,0.92000306,-0.8407604,0.522068,0.35095403,0.014709402! #0.0,0.4307687,-0.012767624,0.50917983,0.46583208! 0.0,-0.41927934,0.24052359,0.36964107,0.36668092! 
0.0,0.91611254,0.4018878,0.9090004,0.95667434,0.4118818,0.9191154! 0.0,-0.62443316,-0.4738752,-0.978397,0.32000852,0.29485428,-0.7532774! 0.0,-0.78187275,-0.023031235,0.31133723,0.076730646,0.56031275,0.38565528! 0.0,-0.68290216,-0.9802718,0.63708794,0.19312096,0.35631415,-0.70391303! #0.0,-0.7106658,-0.07472846,0.4365341,0.7088757! 0.0,-0.44383162,0.27516073,-0.92196727,0.41556647! 
0.0,0.89094776,0.78150266,0.19790804,-0.38794336,0.107158124,0.6896938! 0.0,0.7402837,0.8649661,-0.8706741,-0.40578404,-0.10879724,-0.5566839! 0.0,-0.6361822,-0.93709975,-0.77856874,-0.72233236,0.26435888,-0.13053566! 0.0,0.6943996,0.28130072,-0.9287312,0.4233818,0.37054762,-0.26357102! #0.0,0.10513173,0.16481678,0.17688283,0.20445001! 0.0,-0.3709934,-0.019515928,-0.58181226,0.6169728! 
0.0,0.7628088,0.67515504,-0.04476857,-0.36302647,0.120147824,0.12892567! 0.0,-0.81934226,0.22785027,0.6233026,-0.6788917,-0.14757115,-0.61765313! 0.0,-0.8306495,-0.93709975,0.8615912,0.7433423,-0.041933276,0.50680786! 0.0,0.7760194,0.34678796,-0.9998393,0.50426143,0.20181942,0.6097963! #0.0,0.16849004,-0.012767624,0.5099283,0.41104978! 0.0,-0.40110064,0.28339043,-0.8466155,0.0509642! 
0.0,0.8587802,-0.35534832,0.666777,0.80131793,0.8810219,0.71057206! 0.0,-0.853032,0.9234765,0.7684871,0.06373902,0.72328407,-0.76099175! 0.0,0.4240931,0.8240645,-0.22625026,-0.5639651,0.10824454,-0.16733812! 0.0,0.29833114,0.32110894,-0.59689903,0.9795977,0.4000565,-0.4286397! #0.0,0.10145863,-0.0338048,0.15412906,-0.8050522! 0.0,0.69049525,0.21604216,-0.86781925,0.68835175! 
0.0,1.0316774,-0.3805798,0.666777,0.5212718,-0.96623284,-0.8288868! 0.0,0.28068268,0.8158843,-1.083636,-0.92272866,0.20978366,-0.389393! 0.0,-0.5888426,-0.80489594,-0.8709715,0.23082757,0.19305092,0.40797937! 0.0,0.7771101,0.95052946,-0.031282112,-0.5776916,0.4095037,-0.70391303! #0.0,-0.027583223,0.033929326,0.7052784,-0.5853853! 0.0,0.69049525,0.26369575,0.12982878,0.041781425! 
0.0,0.84409046,-0.3805798,0.6558359,0.03789544,0.52792364,0.48795563! 0.0,-0.34019458,0.9348828,-0.91299236,-0.6156976,0.46359706,0.2066207! 0.0,-0.16068934,-0.92486554,-0.34092534,-0.34936666,0.22540689,-0.5471411! 0.0,0.7436259,-0.059764985,-0.8844037,0.019533549,0.35631415,-0.519952! #0.0,0.10045027,-0.110461265,0.24823925,-0.43041027! 0.0,-0.3059246,0.30798128,-0.100437924,0.7170307! 
0.0,0.465773,-0.109265,-0.3433855,-0.34296626,0.4007421,0.17046475! 0.0,-0.32229272,0.7519751,-0.1659255,-0.6064667,-0.09161827,-0.42846185! 0.0,0.4240931,-0.8904428,0.9754088,0.224298,0.26333505,0.32576132! 0.0,0.57197386,-0.87470436,-0.9592447,0.41494077,0.7178216,-0.095510766! #0.0,0.1405524,0.31713203,-0.47239667,0.9455792! 0.0,-0.48656768,0.19848104,-0.80112934,0.36668092! 
0.0,0.49742907,0.09042704,0.15847576,-0.7269039,0.57120085,0.4456339! 0.0,0.46478793,0.191805,0.83351666,-0.6126575,-0.10652588,0.9526314! 0.0,-0.015871592,0.62228364,0.9754088,-0.5210271,0.0039120913,0.023751259! 0.0,0.11655033,-0.04006499,-0.9592447,1.0069406,0.865368,0.5673655! #0.0,0.2962323,0.014866948,-0.8428751,0.75253624! 0.0,0.37502503,0.2997607,-0.8138003,-0.2625273! 
0.0,0.39323583,-0.34107062,0.29519117,-0.83486605,0.902791,0.47042355! 0.0,0.7941357,0.7636868,0.0780706,-0.50184226,-0.28195524,-0.49336913! 0.0,-0.79482704,-0.82579803,-0.6328015,-0.18756092,-0.1331242,0.3328045! 0.0,0.9314116,0.9041501,-0.829852,0.4600317,0.30961463,-0.70391303! #0.0,0.09658617,-0.007297242,0.13075411,0.07518339! 0.0,-0.37754878,0.34362087,0.08553469,0.015544292! 
0.0,-0.8030539,-0.53114057,0.29519117,0.6913933,-0.80210006,-0.9185274! 0.0,0.7941357,0.785589,0.69059277,0.44683707,-0.10959494,-0.6504612! 0.0,-0.8112484,-0.9883615,0.08126258,-0.3718751,0.24592793,0.36649424! 0.0,0.69044465,-0.11998287,0.23123649,0.3176546,0.30931777,-0.4654771! #0.0,0.20250617,-0.07740671,-0.8862353,0.20441008! 0.0,-0.43291938,0.33886105,-0.90311193,0.40632576! 
0.0,0.90138054,0.06357269,-0.43283984,0.6760057,0.6280538,-0.8277325! 0.0,-0.5316491,0.8649661,-0.9336965,-0.92272866,-0.20110226,-0.539422! 0.0,-0.80612636,-0.93709975,0.2678157,-0.72233236,0.26435888,-0.008013964! 0.0,0.73161775,-0.58311814,-0.7071643,0.14441314,0.36097437,0.5202803! #0.0,0.0025165565,0.014866948,0.70434755,0.20445001! 0.0,-0.3709934,0.27825946,-0.58181226,0.70913! 
0.0,0.8224368,0.4401293,0.0024793074,0.9184408,-0.9430486,0.4456339! 0.0,0.28113335,0.32261476,0.8044176,-0.6788917,-0.2047511,0.22322318! 0.0,-0.037280537,1.0343794,-0.9222203,-0.5501743,0.31295723,0.023751259! 0.0,-0.13388717,-0.025639817,-0.9592447,-0.4626392,-0.45003295,0.5673655! #0.0,0.004563909,0.014866948,-0.8428751,0.9278501! 0.0,0.29719833,0.2670858,-0.8138003,0.6227069! 
0.0,0.8224368,-0.37369576,0.12110561,-0.038933408,0.5439693,0.1467681! 0.0,0.31695345,-0.09243281,0.5833092,-0.28706375,-0.80851054,1.0071832! 0.0,-0.037280537,0.809711,-0.92353976,-0.609976,0.0039120913,-0.13457724! 0.0,-0.39495075,-0.087300226,-0.78159136,-0.4626392,0.35839415,-0.43420792! #0.0,0.06214888,0.25265276,-0.34777033,0.5951741! 0.0,0.048974294,0.23506585,-0.85878253,-0.20970428! 
0.0,0.5436728,0.060613394,-0.1545062,0.4500426,-0.6319245,0.06266487! 0.0,0.89609206,-0.62878156,-0.66551554,-0.74489015,-0.95975864,-0.5254673! 0.0,0.350752,-0.14832127,0.39074612,-0.039727807,-0.42105365,-0.0801918! 0.0,-0.739444,0.016745806,-0.9037236,0.753718,0.27771285,0.8413197! #0.0,0.16475308,0.5010042,-0.12035632,0.90766925! 0.0,-0.42215058,-0.20045388,0.2890408,0.2584064! 
0.0,0.029214025,0.024726953,0.42469513,-0.038933408,0.08696278,0.5832668! 0.0,-0.17390382,-0.24852455,-0.34950745,0.8736526,0.40102196,-0.8194587! 0.0,-0.6361822,-0.37633067,0.9699178,0.6373837,-0.1331242,0.7783622! 0.0,-0.6076621,0.18225145,-0.96781737,0.19071007,-0.19772351,-0.0377028! #0.0,0.13299468,0.16481678,0.14966044,0.29210877! 0.0,-0.25684,-0.019515928,-0.99511886,0.6169728! 
0.0,0.98906505,-0.36937782,0.59696263,-0.36302647,-1.0516317,-0.34861654! 0.0,-0.8051725,0.7088573,0.65978575,-0.6788917,-0.72098756,-0.57472956! 0.0,-0.82681054,0.6827891,-0.50225854,0.28480017,0.054425843,0.42359087! 0.0,0.29833114,-0.9802718,-0.974135,0.9807403,0.36097437,-0.47800076! #0.0,0.21073118,0.25265276,0.7406531,0.8524718! 0.0,-0.3709934,0.19848104,0.034569208,-0.06432778! 
0.0,0.7796354,0.59576297,-0.90496695,0.3614365,-0.8049194,0.43482614! 0.0,-0.38420802,0.85108006,0.312514,-0.6788917,0.058956504,-0.7142706! 0.0,0.26022643,-0.19322594,0.12809062,0.74167866,-0.84539795,0.7895031! 0.0,0.7760194,-0.037172113,0.90056205,0.4486138,-0.42549598,-0.66275537! #0.0,0.060641717,0.06438279,-0.34777033,0.75699323! 0.0,-0.35218218,0.28339043,-0.8255154,0.8593292! 
0.0,-0.1564616,-0.38855204,0.71219456,-0.6370715,-0.95507526,0.48795563! 0.0,-0.38420802,0.45825562,-0.48233712,-0.74148005,0.10307945,0.2297685! 0.0,-0.73862845,-0.38798928,0.09119356,0.1480338,-0.036162615,-0.12703492! 0.0,-0.12102508,0.025546145,-0.9592447,0.700267,-0.3325929,-0.48000205! #0.0,0.33761084,-0.08381465,-0.3047996,0.75699323! 0.0,-0.30901438,0.554643,-1.0398587,0.011651844! 
0.0,0.46086463,-0.4355346,0.5769266,-0.43385184,0.596811,0.418378! 0.0,0.7941357,0.8158843,-1.0884045,-0.40578404,-0.82753396,-0.4661133! 0.0,-0.8306495,0.78550947,0.761086,0.8694525,0.26038828,0.4121054! 0.0,-0.10344641,0.66351676,-0.99257517,0.52821946,-0.88602483,0.39620015! #0.0,0.0701166,0.10662281,0.6673782,-0.5853853! 0.0,-0.36425218,0.21987343,-0.37590995,0.024262954! 
0.0,0.16124976,-0.38162544,-0.88337564,-0.38794336,0.9621246,0.63335836! 0.0,0.9394029,0.8021596,0.8093201,-0.55354494,0.07965716,-0.6965504! 0.0,0.15448815,-0.20329136,-0.36283335,0.2799164,0.28942487,0.47898805! 0.0,0.059537806,-0.86052793,0.116855025,0.55599135,-0.3139593,0.1002706! #0.0,0.0356443,0.0017179251,0.5828593,-0.77732974! 0.0,-0.36833668,0.9308938,0.22080779,-0.017426554! 
0.0,0.06835687,-0.3618192,-0.14171743,0.9825419,-0.26769066,0.15419376! 0.0,0.5219791,0.785589,0.76144445,0.44984257,0.30047548,-0.06378567! 0.0,-0.46076787,-0.38192904,0.19127093,-0.3718751,-0.901958,0.6289016! 0.0,0.14785004,0.64960563,0.19540346,0.3176546,0.30931777,-0.48290852! #0.0,-0.20375502,0.038594257,0.11959627,-0.16784322! 0.0,-0.39033985,0.4670751,-0.36052442,0.04424429! 
0.0,-0.0938154,-0.44125286,-0.04476857,-0.83486605,-0.26252586,-0.34861654! 0.0,0.33465984,0.97166425,-1.0937327,-0.7526706,0.29485428,-0.061344214! 0.0,0.24339771,-0.19322594,-0.06506424,0.4605862,0.88584256,0.67425615! 0.0,-0.24866045,0.9656408,-0.9592447,-0.13622811,0.36097437,-0.6799712! #0.0,0.15836865,0.25265276,-0.6809449,0.9278501! 0.0,0.3531674,0.23022193,-0.9489235,0.10544968! 
0.0,0.98449165,0.64721143,-0.2971252,0.742988,-0.934075,-0.87424517! 0.0,-0.7943708,0.9572912,0.0780706,0.8894038,0.29485428,-0.70157546! 0.0,0.35077262,-0.8322124,0.794696,-0.32641813,0.4935853,0.12733327! 0.0,0.85110474,0.92000306,-0.8290125,-0.3202199,0.35095403,-0.55644244! #0.0,0.07283226,-0.04513935,0.52047694,-0.85576624! 0.0,-0.31916168,0.24052359,-0.96758884,0.36668092! 
0.0,0.9763705,0.42427087,-0.3433855,-0.34323478,0.6280538,-0.21672249! 0.0,0.7402837,0.83526105,-0.10628512,-0.74489015,0.6786315,-0.1507996! 0.0,-0.80612636,-0.93709975,0.104414165,-0.025983538,-0.03584931,0.4761786! 0.0,0.14192113,-0.025639817,-0.7071643,0.7197393,-1.0078226,0.592035! #0.0,0.11273658,0.018527977,-0.47239667,-0.67034876! 0.0,0.7313258,0.04990256,-0.8107837,0.37423396! 
0.0,0.47689128,0.57101053,-0.07297863,0.18476576,0.93072724,0.69415355! 0.0,-0.43883884,0.8227709,-0.96461445,-0.19559771,0.077789366,-0.545632! 0.0,0.26773834,-0.1744,0.11154043,0.5378864,0.2606382,-0.13457724! 0.0,-0.12102508,-0.014680773,0.5193633,-0.57820165,-0.22089557,-0.12754479! #0.0,-0.061598677,-0.22376543,1.0920441,0.2704214! 0.0,-0.3385628,0.2166948,-0.85878253,-0.7997108! 
0.0,0.47689128,0.1250785,-0.055758707,0.25900507,-0.80809534,0.342804! 0.0,0.32957274,0.81763494,0.0780706,0.8894038,0.5117235,-0.55211806! 0.0,-0.5888426,-0.93709975,-0.642989,0.5044352,-0.16030084,0.7560181! 0.0,0.6701036,0.6078741,-0.81181324,0.3719285,0.9734673,-0.45718554! #0.0,-0.4691113,0.0017179251,1.094186,-0.29266548! 0.0,0.39864394,-0.012729313,0.58654356,-0.021414384! 
0.0,-0.53608674,0.71781486,-0.51003957,-0.5523879,0.0781054,-0.82266617! 0.0,-0.85479575,0.79836506,0.6233026,-0.6788917,-0.05182397,-0.06722434! 0.0,-0.75845027,-0.93709975,0.8615912,-0.084437296,0.30235896,0.50680786! 0.0,0.73682916,-0.6069159,-0.7056633,0.53136677,0.20181942,-0.17701592! #0.0,0.051934548,0.18386194,-0.83866584,0.41104978! 0.0,0.59039104,0.28339043,-0.84471583,0.8593292! 
0.0,0.91611254,-0.47156957,-0.2503606,-0.5688343,-0.3135809,0.412686! 0.0,1.0090499,0.95939434,-0.33502364,-0.3447733,-0.6082955,-0.3830821! 0.0,0.35384822,-1.0069761,-0.661319,-0.5210271,0.10824454,-0.16583037! 0.0,-0.39495075,-0.08197641,-0.7931716,0.44445315,0.9027437,-0.70391303! #0.0,0.25490117,-0.13387814,-0.8428751,-0.4181503! 0.0,-0.44383162,0.62427187,-0.3296165,-0.6067169! 
0.0,0.5370625,0.46691978,0.23641706,-0.5168978,-0.24273838,0.38648212! 0.0,-0.43883884,0.76792884,-0.057195302,0.49101418,-0.51360035,-0.49336913! 0.0,-0.066428654,-0.19322594,0.85519737,-0.9136876,-0.1331242,0.57008135! 0.0,0.70211875,-0.025639817,0.54650867,0.90925723,-0.7039423,0.5673655! #0.0,0.11273658,0.0017179251,0.5763563,-0.6719161! 0.0,0.4242066,0.27825946,-0.08085689,0.48622417! 
0.0,0.6584749,-0.32024664,-0.88337564,-0.38794336,-0.24273838,0.67506635! 0.0,0.9087798,0.7636868,0.0780706,-0.74489015,0.482178,-0.49336913! 0.0,0.1282791,0.16799445,-0.5652711,-0.0068506747,-0.03609991,0.48155338! 0.0,0.059537806,-0.9802718,-0.017653076,-0.2841201,0.30961463,-0.70391303! #0.0,0.024139097,0.16481678,0.13075411,-0.20879173! 0.0,-0.37754878,0.1995927,-0.4819789,0.7207685! 
0.0,0.8587802,-0.1321968,-0.43870622,-0.62355167,-0.9549953,0.5860399! 0.0,-0.7930712,0.9234765,0.5936264,0.5205463,0.72328407,-0.4948346! 0.0,0.4240931,0.36730194,-0.21037379,-0.5639651,-0.54772055,0.82032436! 0.0,0.7436259,-0.5614934,-0.86114585,-0.47322094,0.91820866,-0.46466526! #0.0,0.16849004,0.16481678,-0.84573823,0.41104978! 0.0,0.08200237,0.226274,0.6769808,-0.008685328! 
0.0,0.47689128,-0.27017072,-0.08784607,0.742988,-0.35099915,-0.7677917! 0.0,0.9691519,0.75122184,0.8093201,-0.6356298,0.6831221,-0.20331255! 0.0,-0.5888426,0.13238294,-0.87707984,-0.72233236,-0.7719749,0.15334454! 0.0,0.70211875,-0.58311814,0.849538,0.9658251,-0.9304547,-0.4969407! #0.0,0.40922877,-0.021407891,-0.8735881,-0.74806! 0.0,-0.566969,0.17487687,-0.83202153,0.35169208! 
0.0,0.9565993,-0.40025896,-0.38316137,-0.63163894,-0.80304694,-0.6118746! 0.0,0.88006735,0.9145648,0.61994827,-0.29723155,-0.10879724,-0.7320415! 0.0,0.9875586,0.7042304,0.85936016,-0.5156244,-0.043461744,-0.026841396! 0.0,0.7436259,0.9183242,-0.9592447,0.7032133,0.87205255,0.5352477! #0.0,-0.09531077,0.20531756,-0.8428751,0.8769387! 0.0,-0.30334392,-0.21924749,-0.8255154,0.5955602! 
0.0,-0.018115696,0.5849091,-0.06759182,0.72804,-0.77440876,0.342804! 0.0,-0.7927605,0.9430201,-0.698568,0.8894038,0.36180878,-0.42846185! 0.0,-0.7396223,0.16251214,-0.36283335,0.2573585,0.53087723,0.17072117! 0.0,0.8900895,0.9073731,-0.96770024,0.9811853,-0.38326383,0.5860823! #0.0,0.13478579,0.16481678,-0.7056968,0.98707885! 0.0,0.7136285,-0.9090605,-0.80112934,0.835375! 
0.0,0.06835687,-0.4264096,0.8542923,-0.46468496,0.52150106,0.15419376! 0.0,-0.038194656,0.5934005,-0.7029469,-0.51780176,0.30047548,0.71875334! 0.0,-0.47208214,-0.17171519,-0.3489262,0.54106987,-0.38946712,0.5152215! 0.0,0.84662163,0.64960563,0.5098212,-0.05320561,-0.5848081,0.79219747! #0.0,-0.9185883,0.5570904,0.77864146,0.5917902! 0.0,-0.7262579,0.4670751,-0.36052442,0.11715412! 
0.0,-0.16628596,0.5570749,0.29519117,-0.17503953,-0.5117568,-0.7733929! 0.0,-0.8140266,-0.25890172,0.8803214,-0.07912515,-0.9749863,-0.42846185! 0.0,-0.61654407,-0.8351898,0.80741143,0.3007228,0.24187586,0.7040645! 0.0,-0.943534,-0.8612393,-0.76536953,-0.38046432,0.14455637,0.56551427! #0.0,0.92454433,-0.007974181,0.594615,-0.83399534! 0.0,0.7462151,0.59751284,-0.34329093,0.5319861! 
0.0,-0.34939075,-0.74457335,0.2849884,-0.32704306,-0.36461473,-0.06954825! 0.0,-0.51074314,0.05304098,0.5710043,-0.5518805,-0.66709495,0.63782644! 0.0,-0.75234175,-0.028525352,-0.14585829,0.102835625,-0.07169366,0.57199913! 0.0,-0.21978962,0.472942,-0.99589014,-0.90071833,0.058390334,-0.6386544! #0.0,-0.6549876,0.14228086,-0.46381006,0.6079606! 0.0,-0.31105578,-0.12819922,0.015524,0.32340968! 
0.0,0.12285283,0.69219196,0.028189812,0.7392737,0.4007421,0.67292285! 0.0,-0.85479575,-0.9006226,0.5784538,-0.74489015,-0.06312093,-0.6896161! 0.0,-0.79707915,0.37032962,0.97515416,-0.43119156,-0.1256755,0.5157104! 0.0,0.026868213,0.92000306,-0.9986012,0.7800335,-0.18533926,-0.80428684! #0.0,0.016626181,0.022773098,1.0477792,0.947575! 0.0,-0.38528118,0.18900523,-0.8255154,0.0626409! 
0.0,0.3271556,0.024726953,0.21002762,-0.038933408,0.08696278,0.87674594! 0.0,-0.41573524,0.5225612,-0.46033347,0.96891177,-0.10879724,0.14422679! 0.0,-0.63074887,-0.37633067,-0.77856874,0.8629079,-0.8020741,-0.17421058! 0.0,0.16005266,0.28857443,-0.9287312,0.48061448,0.06974864,-0.70391303! #0.0,0.10513173,0.16481678,0.59821427,-0.007266283! 0.0,-0.042877316,-0.019515928,-0.08085689,-0.8507658! 
0.0,0.78243005,0.6043344,0.8424127,-0.8436947,-0.30158553,0.43238708! 0.0,-0.36458492,-0.007604599,0.8093201,-0.6092919,0.6649101,-7.818639E-4! 0.0,0.9141263,-0.45620275,-0.81802005,-0.2972349,0.2606382,0.17072117! 0.0,0.6259115,-0.74833786,-0.7028742,0.13116118,0.38883197,0.6097963! #0.0,0.10841091,-0.50713766,0.2574,0.96955305! 0.0,0.24772203,0.726009,0.772959,-0.95492125! 
0.0,0.90138054,-0.06969317,0.66060764,-0.038933408,-0.8940108,-0.010915574! 0.0,0.30062327,0.8237415,0.6113802,-0.46508497,-0.41344917,-0.587361! 0.0,-0.040118683,-0.3515328,0.5794446,0.21362671,0.70631903,-0.12763251! 0.0,0.5916909,-0.07564988,-0.8219436,-0.2099324,0.40450272,-0.019634105! #0.0,0.14066291,0.33616263,0.6319082,-0.67034876! 0.0,-0.41068622,0.04990256,-0.5533839,-0.5915008! 
0.0,0.035988007,0.015608549,-0.5587075,0.62465656,0.1244483,0.25960875! 0.0,0.27423146,-0.042841315,0.68256897,-0.77355707,-0.33641922,-0.7845954! 0.0,-0.80612636,0.8774202,0.28296745,-0.5575075,0.0074833035,0.45381892! 0.0,0.24003312,0.6899816,-0.22552794,-0.98372483,-0.7413357,-0.48340487! #0.0,-0.17510843,-0.4357345,0.5099283,0.150316! 0.0,0.7576746,-0.47509074,0.0012112334,0.08491672! 
0.0,0.7628088,0.108154304,-0.43679214,0.013508067,-1.0641221,0.71057206! 0.0,-0.7936617,0.93463653,-0.10628512,-0.4692707,-0.33006918,-0.18521841! 0.0,0.26022643,-0.18478703,0.7818968,0.87530094,0.05289671,0.3577602! 0.0,-0.45068908,-0.9802718,0.8608515,0.4486138,-0.23201108,-0.62866807! #0.0,0.042928725,0.017198414,-0.46381006,0.35051763! 0.0,0.5523462,0.22145106,0.6396967,0.03345405! 
0.0,-0.3721887,0.6604041,0.5887624,-0.08319416,-0.9818031,0.418378! 0.0,-0.60031414,0.83653164,0.66929805,-0.4039482,-0.10879724,0.9526314! 0.0,-0.5871045,-0.9502564,0.8413548,0.7382749,0.23018998,-0.13123749! 0.0,-0.6076621,-0.6392812,-0.7650294,0.47806862,0.19041014,0.5202803! #0.0,0.070929065,-0.13387814,0.15747795,0.9103817! 0.0,-0.32497084,-0.21821517,0.92973346,0.00920951! 
0.0,0.8267038,-0.6087172,0.004757125,0.0045608766,-1.0641221,0.0118440315! 0.0,-0.7943708,0.93463653,-0.43282813,-0.7731201,-0.14007092,-0.23917714! 0.0,0.95371604,0.78794754,-0.58529717,-0.43119156,0.5177725,0.0851043! 0.0,-0.89989096,0.90401375,-0.7650294,0.10805389,-0.94589263,-0.58961374! #0.0,-0.07896953,-0.45406795,0.29183736,0.78721696! 0.0,0.33586305,0.30711094,0.6461561,0.77895087! 
0.0,-0.8030539,-0.37860316,0.0024793074,-0.038933408,-0.8454579,-0.9185274! 0.0,0.7941357,0.93463653,0.69059277,0.47647667,-0.10959494,-0.3772233! 0.0,-0.6637924,-0.9883615,-0.661319,-0.3718751,0.24592793,-0.16733812! 0.0,0.69044465,0.66351676,0.8107337,-0.86756283,-0.7662301,-0.4654771! #0.0,0.12216528,0.014866948,0.13075411,-0.5853853! 0.0,-0.43291938,0.30360547,0.5750067,0.4020096! 
0.0,-0.8030539,-0.4479701,-0.3420431,-0.6039096,-0.27440026,-0.77158594! 0.0,-0.34019458,-0.0579044,-0.40154058,-0.6788917,0.32392123,-0.37635022! 0.0,0.95371604,-0.93709975,-0.60143775,-0.084437296,0.53739643,0.95657134! 0.0,-0.6596561,-0.6389778,0.8513998,0.14127705,0.9530133,-0.87002957! #0.0,0.16849004,0.3405395,-0.6686373,0.41362965! 0.0,0.7260925,0.28339043,-0.4000432,0.6529112! 
0.0,-0.0068228766,0.16114467,-0.04476857,-0.36302647,-0.94164413,0.46670148! 0.0,-0.8133193,0.8601617,-0.4578321,0.28809893,-0.15659568,-0.43430716! 0.0,0.29184306,-0.93122333,-0.50225854,0.5534786,-0.0143378675,0.57008135! 0.0,0.7436259,0.34678796,-0.9691147,0.9811853,-0.37870008,0.0022823326! #0.0,0.16849004,-0.012767624,0.5828593,0.7767316! 0.0,0.7260925,0.2688559,-0.8107837,-0.84874743! 
0.0,-0.19156086,0.74114776,0.009879004,0.86858445,-0.5117568,0.028509974! 0.0,-0.66237235,0.8811257,0.88319266,-0.05987079,-0.9749863,-0.39942926! 0.0,-0.61654407,-0.8730961,0.80741143,-0.9463454,0.22018337,0.5184778! 0.0,-0.943534,0.7948762,0.54650867,0.4600317,0.86928654,-0.47304806! #0.0,0.035463452,-0.02258864,-0.6402607,-0.5853853! 0.0,0.38602376,0.27535146,-0.3080984,0.5319861! 
0.0,0.55169123,0.09042704,0.15847576,-0.7269039,0.520309,0.418378! 0.0,0.66861236,0.89175916,0.40517473,-0.45119262,-0.113016814,-0.46893317! 0.0,-0.56703526,-0.98454547,0.9754088,0.31093025,0.5318587,-0.08671202! 0.0,0.11655033,0.86611825,-0.88298786,0.9677196,0.865368,0.5979392! #0.0,-0.034826946,0.37517115,-0.8715902,0.7658014! 0.0,0.37502503,0.25809366,-0.8255154,-0.23271228! 
0.0,0.7628088,-0.34216055,0.7096108,-0.016779115,-0.24273838,-0.7826911! 0.0,-0.7936617,0.93463653,0.17269678,-0.427926,-0.6329249,-0.18521841! 0.0,0.26573753,0.976123,0.7818968,-0.5438003,0.32518047,0.6372901! 0.0,0.9782701,0.9340988,-0.50861466,0.4170749,0.4095037,0.56787956! #0.0,0.06214888,-0.11086869,0.16944967,-0.67034876! 0.0,-0.4879135,0.2688559,0.68730414,0.6565991! 
0.0,0.8224368,-0.38162544,0.40756014,0.9417254,0.1244483,0.6526404! 0.0,-0.6174078,0.93463653,0.8534057,0.8736526,0.482178,-0.3747254! 0.0,0.1282791,-0.15819725,-0.661319,-0.39889523,0.5740905,-0.16733812! 0.0,-0.10278098,-0.8975686,-0.09785046,-0.2595715,-0.3139593,-0.30525148! #0.0,0.70605314,0.20042527,-0.95450866,-0.5970619! 0.0,-0.46075892,0.31441835,-1.0256664,-0.03817966! 
0.0,0.035988007,-0.534398,-0.07297863,0.006240003,0.13093631,-0.024105087! 0.0,0.2913924,0.8071728,0.68256897,-0.77355707,-0.2047511,0.21312448! 0.0,-0.80612636,-0.19005957,-0.77856874,-0.5860939,0.0074833035,0.4491846! 0.0,-0.118525766,0.28857443,-0.22552794,0.46057758,-0.3733251,-0.59082246! #0.0,0.3011731,0.23870365,0.52047694,0.91688484! 0.0,0.59039104,0.24052359,0.0012112334,-0.5687912! 
0.0,-0.3721887,-0.07383266,-0.42491055,0.6913933,-0.8940108,0.0118440315! 0.0,0.25065976,0.77128965,0.5360945,0.47647667,-0.44636708,-0.5602478! 0.0,-0.19819045,-0.3515328,-0.5900999,0.21362671,0.23018998,-0.12763251! 0.0,0.6056161,0.35003728,-0.8219436,-0.2099324,-0.20618248,-0.84192276! #0.0,0.15109168,0.028635278,1.0758193,-0.5562308! 0.0,-0.41068622,0.30599776,0.5936848,0.33155677! 
0.0,0.9120251,-0.38855204,0.17046665,-0.5688343,-0.20145686,0.122926235! 0.0,-0.60031414,0.7724479,-0.9796007,-0.6156976,0.46742135,0.9526314! 0.0,-0.5888426,-0.9502564,0.041265562,0.822253,0.53087723,0.7095307! 0.0,0.768821,-0.08197641,-0.7810542,0.8835379,0.08917748,-0.70391303! #0.0,0.09734486,-0.25927487,-0.86595017,-0.96874756! 0.0,-0.44383162,0.62427187,-0.031245776,-0.6067169! 
0.0,0.49742907,0.4735757,-0.49596426,0.6913933,-0.9004685,-0.80822664! 0.0,0.34443167,0.7519751,0.6113802,-0.74489015,-0.41344917,-0.587361! 0.0,0.40625948,-0.94982576,0.5818517,0.21362671,0.23018998,0.72448933! 0.0,-0.6596561,0.9402006,-0.8219436,-0.2099324,-0.3733251,-0.6326525! #0.0,0.09589754,0.31713203,0.555785,0.045714498! 0.0,-0.41068622,0.28339043,0.5936848,0.35613376! 
0.0,0.43565568,-0.82142127,0.75300574,-0.36302647,-0.47161478,0.69415355! 0.0,0.31360343,0.17429197,0.8093201,-0.427926,0.07965716,-0.33068636! 0.0,-0.6361822,0.6048799,-0.092390925,0.7830169,0.22958614,0.33576372! 0.0,-0.12102508,-0.01181335,-0.50141895,0.4490603,-0.7413357,0.8051872! #0.0,0.34495768,0.17315987,-0.8195496,0.96955305! 0.0,-0.40586257,0.3787317,0.81711507,0.04502871! 
0.0,0.47689128,-0.37599686,-0.42411685,0.3119751,0.55167603,0.907861! 0.0,-0.052665234,0.8430284,-0.96461445,-0.64838177,0.8572146,0.6469858! 0.0,-0.5888426,-0.17913805,0.8827439,0.09232247,0.26038828,-0.12703492! 0.0,0.70211875,0.7242004,-0.7357414,0.522068,-0.7413357,-0.48000205! #0.0,0.4307687,-0.064097404,0.52047694,0.75699323! 0.0,0.4242066,0.24052359,-0.7959673,-0.32769763! 
0.0,0.4816498,-0.37369576,0.18622346,-0.3752701,0.97273546,-0.7648986! 0.0,-0.8133193,-0.09243281,-0.27445388,-0.6393411,-0.2047511,-0.20331255! 0.0,-0.7794939,0.55998933,0.97515416,-0.49565026,0.0115452595,-0.29921007! 0.0,0.3902873,0.93697375,-0.7740823,0.9811853,0.3133467,0.108726874! #0.0,0.11375539,0.3238041,1.0790579,0.061344694! 0.0,0.5093746,0.28579745,-0.24116063,0.0626409! 
0.0,0.029389363,-0.37369576,-0.90496695,0.34138244,-0.80809534,0.021113556! 0.0,0.9691519,0.9145648,0.0780706,-0.71825385,0.07695004,-0.55211806! 0.0,-0.6361822,-0.6347336,0.5818517,-0.51556796,-0.06059254,0.8012517! 0.0,0.7760194,-0.05804056,0.849538,0.50426143,-0.42549598,0.6097963! #0.0,0.020014782,-0.064090446,-0.8217413,0.9214048! 0.0,-0.40110064,0.28339043,-0.8255154,-0.603994! 
0.0,0.029389363,0.024726953,0.23641706,0.34138244,0.08696278,0.63693446! 0.0,-0.81176424,0.8601617,-0.46033347,-0.6788917,0.058956504,-0.55211806! 0.0,-0.60712016,-0.6982622,-0.77856874,0.828779,0.30235896,-0.16733812! 0.0,0.7760194,0.24218243,-0.9287312,0.48061448,-0.42549598,0.6097963! #0.0,0.10513173,0.103889294,-0.83866584,0.9214048! 0.0,0.40155587,0.28339043,-0.8255154,0.6169728! 
0.0,0.47689128,-0.38884243,-0.04476857,-0.52146065,-0.9037631,0.26920834! 0.0,0.8917345,0.7690737,-0.698568,-0.64838177,-0.13323057,-0.67823917! 0.0,-0.5888426,-0.15353113,-0.59153616,-0.5219219,0.26038828,-0.16733812! 0.0,-0.59026855,0.7242004,-0.7148348,0.9708429,-0.7237848,0.014709402! #0.0,0.4307687,0.17220232,-0.34777033,-0.9771645! 0.0,0.7260925,0.24052359,-0.86216027,-0.6057636! 
0.0,0.18912166,-0.53114057,-0.055758707,0.61562145,0.24531639,-0.8767283! 0.0,-0.24987106,0.80030686,-0.5062094,-0.6599997,0.49887142,-0.65975785! 0.0,-0.8186509,-0.21408415,0.90368044,0.2318419,0.138581,-0.29921007! 0.0,0.7379414,0.93322515,-0.81181324,0.52975,0.9436495,0.108726874! #0.0,0.053751957,-0.002249729,0.13245672,0.86972445! 0.0,0.5523462,0.20940392,0.5345561,0.8599244! 
0.0,-0.7715138,-0.4500285,-0.8023367,-0.43385184,-0.14117932,-0.39567408! 0.0,0.7521813,0.73328865,0.61994827,-0.45237663,-0.14930624,-0.3674815! 0.0,-0.81208193,0.55998933,-0.025604893,0.8694525,0.26038828,-0.5471411! 0.0,0.8778137,0.66351676,0.43312848,-0.29555893,0.91866106,-0.8421987! #0.0,0.124091625,0.06054909,0.24520242,0.91688484! 0.0,0.4673342,0.2688559,-0.04584991,0.0626409! 
0.0,0.8224368,0.57101053,0.28270733,0.87631446,-0.18646845,-0.8569271! 0.0,-0.5561658,0.77412987,0.16658285,-0.031214781,0.34858948,-0.40145168! 0.0,-0.6236971,0.976123,-0.642989,0.5378864,0.27700567,0.6149079! 0.0,-0.13388717,-0.0057931915,-0.50963765,-0.45803726,-0.04532837,-0.492182! #0.0,0.06214888,0.0015813112,1.0920441,0.36577928! 0.0,-0.3885951,0.26710507,-0.99981946,-0.78337866! 
0.0,0.43565568,-0.3805798,0.75300574,-0.36302647,-0.49271584,0.12259751! 0.0,-0.32229272,0.17429197,0.8093201,-0.40578404,-0.26350844,-0.0481503! 0.0,-0.14234926,-0.9257813,0.7369904,0.2573585,0.5637705,0.32729506! 0.0,-0.12102508,0.34353346,0.19540346,0.52821946,-0.88602483,-0.112615414! #0.0,0.11189607,0.16481678,0.50917983,0.96955305! 0.0,-0.40586257,0.19848104,-0.80112934,0.71176946! 
0.0,0.54676706,0.6631374,-0.43283984,-0.83486605,-0.8467353,0.56995565! 0.0,-0.78654563,0.22176303,-0.11298144,-0.6223291,0.56525314,-0.587361! 0.0,-0.06344518,-0.9175907,-0.90858245,0.06581168,0.2183121,-0.008013964! 0.0,0.7604511,-0.68328655,-0.4624588,-0.8481514,0.87327003,0.5202803! #0.0,0.12488097,0.19852781,-0.9153758,-0.29266548! 0.0,-0.31295466,0.27825946,-0.7368349,0.065468386! 
0.0,0.4652219,0.6752149,0.8009801,0.4936582,0.57120085,0.04002161! 0.0,-0.81934226,0.29101825,0.8044176,-0.6126575,-0.10652588,0.22322318! 0.0,-0.6236971,-0.19119048,0.9754088,0.5996828,-0.03846972,-0.15119052! 0.0,-0.6791153,0.27790484,-0.8388268,-0.26743245,0.37054762,0.5836828! #0.0,-0.37186375,0.014866948,0.4505217,0.9278501! 0.0,-0.4933242,0.2670858,-0.8138003,0.024495013! 
0.0,0.7628088,-0.39320922,-0.43679214,-0.6069496,-0.94164413,-0.56581265! 0.0,-0.7755175,0.93463653,-0.33523336,-0.40880063,-0.44180062,-0.7610763! 0.0,0.9875586,0.6546926,0.85936016,-0.4110155,-0.024247188,0.7276818! 0.0,0.7094554,-0.061929177,-0.6344414,0.3176546,-0.3183018,0.56551427! #0.0,0.48531076,-0.012767624,0.5099283,-0.8805754! 0.0,0.33660328,0.29776827,-0.78158545,0.024262954! 
0.0,0.9763705,0.16114467,-0.45841616,-0.7784311,0.520309,0.1525371! 0.0,0.89609206,0.83716935,-0.118916914,0.28809893,0.6974039,-0.6504612! 0.0,-0.5975203,-0.19322594,0.14809379,0.7127269,-0.06312136,-0.008013964! 0.0,0.11655033,-0.07099797,-0.72217774,0.7032133,0.865368,0.78164434! #0.0,0.50316286,0.36566836,0.5828593,-0.95566654! 0.0,-0.42215058,0.4550415,0.5936848,-0.17248666! 
0.0,0.9763705,-0.39320922,0.75300574,-0.40499175,0.520309,0.67292285! 0.0,0.43696594,0.17781134,0.8044176,-0.47659823,-0.26581398,-0.039743345! 0.0,0.07210887,0.2575462,0.9754088,0.029062252,-0.036162615,0.3577602! 0.0,0.09969221,0.6757095,0.19461685,-0.29420143,-0.69869816,-0.64140946! #0.0,0.01708229,0.36411396,-0.46381006,-0.95566654! 0.0,-0.40586257,0.3093907,-0.8255154,0.024495013! 
0.0,0.7389031,0.69219196,-0.07834382,-0.022483569,-1.0011364,-0.92255485! 0.0,0.17392564,0.7360105,-0.4347334,-0.92287266,0.2629368,-0.43837413! 0.0,-0.8054303,-0.10267034,-0.40627173,-0.5210271,-0.01915529,-0.18403544! 0.0,-0.59890044,0.44632038,-0.76672953,0.10805389,0.36097437,-0.18339731! #0.0,0.10521549,-0.13028489,-0.42125478,0.8596027! 0.0,-0.37456772,0.28339043,-0.37140867,-0.067578085! 
0.0,0.9301402,-0.40582842,0.71219456,-0.038933408,0.5344964,0.67292285! 0.0,-0.868828,0.0040233135,0.8044176,-0.4247021,-0.2047511,-0.7233264! 0.0,-0.04880433,-0.45997727,0.2678157,-0.5501743,0.29891592,0.477073! 0.0,-0.6515345,-0.07564988,-0.88298786,0.72774196,0.35722446,-0.019634105! #0.0,0.29914814,0.5825827,0.37994087,-0.74806! 0.0,-0.21062523,0.22920755,-0.5533839,-0.5915008! 
0.0,0.7628088,-0.41782802,-0.04476857,-0.6701462,-0.94164413,0.16515858! 0.0,-0.81934226,0.22785027,-0.4578321,-0.41863993,-0.1689656,-0.37783015! 0.0,0.9875586,0.6987596,0.85936016,0.7433423,0.2606382,0.57008135! 0.0,0.7436259,0.38749874,-0.6344414,0.9811853,-0.3733251,-0.5869752! #0.0,-0.09531077,-0.012767624,0.5099283,-0.8785579! 0.0,0.35723135,0.2688559,-0.78158545,0.0509642! 
0.0,0.91433716,0.5894041,-0.04476857,0.72804,-0.94122463,-0.4037097! 0.0,-0.7943708,0.8158843,-0.70318633,0.8894038,-0.82753396,-0.6640599! 0.0,0.91958296,0.16251214,-0.025604893,-0.40408176,0.53087723,-0.582752! 0.0,0.7436259,0.92000306,-0.96770024,0.9811853,-0.38326383,0.5860823! #0.0,0.014684398,0.06438279,0.16916041,0.91688484! 0.0,0.7136285,0.30599776,-0.86220646,0.024262954! 
0.0,0.8224368,0.69219196,0.6519695,0.85119796,-0.9430486,-0.8816493! 0.0,0.2581992,0.17429197,-0.60354376,0.8722374,-0.44868124,-0.389393! 0.0,-0.7549317,0.2534263,0.4405997,-0.01079585,0.29532176,0.6372901! 0.0,0.6536136,0.9340988,0.6795474,-0.90549314,0.34220302,0.5924482! #0.0,-0.54713434,-0.56800675,-0.14906666,-0.29266548! 0.0,0.5474249,0.95997715,0.33552438,0.08251047! 
0.0,0.9401753,-0.39320922,0.5885122,0.72804,-0.9430486,0.025653679! 0.0,0.9165726,0.7519751,0.6838447,0.51756775,0.48294696,-0.6640599! 0.0,-0.7549317,0.2534263,0.95098597,-0.8321946,0.53087723,-0.040127635! 0.0,0.7436259,0.92000306,-0.9592447,0.11600825,-0.41717842,0.5860823! #0.0,1.0254494,0.15686767,0.50418514,-0.72392106! 0.0,-0.38861728,0.12512898,-0.76778203,-0.6067169! 
0.0,0.018109925,0.024726953,0.23641706,-0.038933408,0.08696278,0.418378! 0.0,0.22589798,-0.24852455,-0.7155924,-0.40578404,0.89015317,0.5474624! 0.0,-0.6361822,-0.37633067,0.5211963,0.828779,-0.12476283,-0.16733812! 0.0,-0.59026855,0.28857443,0.14670208,-0.29420143,0.37054762,-0.61028147! #0.0,0.10513173,0.0017179251,0.14572844,-0.5607418! 0.0,0.14836158,0.3539383,-0.08085689,0.5896391! 
0.0,0.9565993,-0.40755033,0.29519117,0.39078185,-0.56084126,0.4594034! 0.0,0.7941357,0.8811257,-0.4963843,-0.07912515,0.07695004,-0.39942926! 0.0,-0.61654407,-0.8730961,0.80741143,-0.609976,0.24187586,-0.16733812! 0.0,-0.943534,-0.8612393,0.54650867,0.4600317,-0.19786906,-0.4422775! #0.0,0.04649586,0.15042885,-0.6809449,-0.5853853! 0.0,-0.54470587,0.59751284,-0.34329093,0.5319861! 
0.0,0.7883691,0.55825984,-0.42411685,-0.6370715,-0.95507526,0.48795563! 0.0,0.94439816,0.7724479,0.5447388,-0.6156976,-0.33006918,0.2066207! 0.0,-0.73862845,-0.38798928,0.09637498,0.75536305,0.26038828,0.57008135! 0.0,0.56973255,-0.08197641,-0.8844037,-0.9550621,-0.37860674,-0.48000205! #0.0,0.019635469,-0.13574314,0.70434755,-0.4424667! 0.0,-0.30901438,0.5245955,-0.100437924,0.38543227! 
0.0,0.91611254,0.74114776,0.75300574,-0.36302647,-0.18019733,0.4748897! 0.0,-0.32229272,0.17429197,0.8093201,-0.6156976,-0.24258,-0.3993229! 0.0,-0.6361822,0.55589086,-0.66151726,0.2573585,0.5637705,0.32729506! 0.0,-0.12102508,-0.08197641,0.06628943,-0.8113066,0.08917748,-0.112615414! #0.0,0.11189607,-0.13387814,0.5703751,0.96955305! 0.0,-0.44383162,0.19848104,-0.1412402,-0.6067169! 
0.0,0.65332264,-0.37369576,0.12110561,-0.5688343,-0.8940108,-0.86614704! 0.0,0.28113335,-0.09243281,-0.29557902,-0.6231332,-0.5815917,1.0071832! 0.0,-0.5888426,0.6048799,-0.85919803,0.6927142,0.0039120913,0.5351652! 0.0,-0.68290216,-0.10681076,-0.91495246,-0.4626392,0.35839415,-0.57847375! #0.0,0.10266245,0.25265276,0.66500133,0.045714498! 0.0,0.38715956,-0.33015403,0.58654356,-0.58563846! 
0.0,0.018109925,-0.47786173,-0.42411685,-0.6370715,0.08696278,0.48795563! 0.0,-0.38420802,0.8820833,0.5447388,-0.8168986,-0.10879724,-0.97799563! 0.0,-0.6361822,-0.37633067,0.12809062,0.75536305,-0.1331242,-0.12703492! 0.0,0.6943996,0.28857443,-0.41042337,0.52821946,0.37054762,-0.70391303! #0.0,0.10513173,0.16481678,0.14572844,0.29210877! 0.0,0.4242066,0.5227948,-0.08085689,0.6169728! 
0.0,0.7796354,-0.40176365,-0.4332893,0.94453305,-0.692859,0.71057206! 0.0,-0.3425167,0.22176303,-0.4963843,-0.87360924,0.07695004,-0.1507996! 0.0,0.1282791,-0.95737267,-0.85838425,-0.609976,0.23140338,0.48155338! 0.0,0.059537806,-0.55057293,-0.7518327,0.6602643,-0.21492888,0.0974851! #0.0,0.20888966,0.19852781,0.5828593,-0.8805754! 0.0,-0.54470587,0.31258115,-0.7368349,-0.20970428! 
0.0,0.49742907,0.4401293,-0.094364926,0.9184408,-0.7760488,0.4456339! 0.0,-0.853032,0.72630596,-0.43354154,-0.13509943,-0.10652588,0.22322318! 0.0,0.30802935,-0.19119048,0.9754088,-0.2972349,0.0039120913,0.80457544! 0.0,-0.13388717,0.97607833,-0.72217774,-0.29420143,-0.45003295,0.5673655! #0.0,0.50316286,-0.012767624,-0.8428751,0.90766925! 0.0,0.29719833,0.2670858,-0.5692488,0.0918393! 
0.0,0.018109925,-0.46740818,0.68651175,0.72870344,-0.26252586,-0.27637976! 0.0,-0.43883884,0.81763494,-0.44003463,-0.5806733,0.25081587,-0.19756994! 0.0,-0.78187275,-0.43877473,0.90133584,-0.3970461,-0.78737247,0.7783622! 0.0,-0.61087394,-0.9802718,0.43193218,-0.13125995,-0.3572846,0.26050293! #0.0,0.05780697,0.3839928,0.17688283,0.64493537! 0.0,-0.44383162,0.28466177,0.016334813,-0.26286343! 
0.0,0.035988007,0.70468223,-0.88337564,-0.55441403,-1.0516317,-0.8767283! 0.0,0.84161675,-0.88243824,0.6533447,-0.5969217,0.49887142,-0.7195804! 0.0,0.17432073,0.976123,0.19685753,-0.51382023,-0.14000116,0.3901914! 0.0,-0.6753756,0.93697375,0.1819903,0.45833123,0.35050657,0.09769012! #0.0,0.019975364,0.15686767,0.70434755,1.065018! 0.0,0.2957009,-0.18667543,-0.9946827,-0.17438027! 
0.0,-0.8030539,0.16114467,-0.3420431,0.17718062,-0.531447,0.0775541! 0.0,0.7941357,-0.0579044,0.69059277,-0.40880063,0.58708316,-0.4661133! 0.0,-0.03291364,-0.21408415,0.56375873,-0.8098845,0.33017278,0.5821995! 0.0,-0.8631389,0.57423156,0.8513998,0.6128505,-0.7545515,-0.87002957! #0.0,0.094521016,0.3457658,-0.6809449,0.7767316! 0.0,-0.36425218,0.081959546,-0.88121504,0.84818983! 
0.0,0.90138054,-0.5140492,0.68196297,0.7392737,-1.0516317,0.49785382! 0.0,0.33465984,0.755611,-1.0937327,-0.1579724,0.6974039,-0.42878658! 0.0,-0.82681054,0.6827891,0.8643922,-0.2972349,0.88584256,-0.19218253! 0.0,0.10648179,0.9656408,-0.829852,-0.90549314,0.20181942,-0.6799712! #0.0,0.10305201,-0.023894878,-0.6809449,-0.21508148! 0.0,-0.39774516,0.21030454,-0.4819789,-0.017426554! 
0.0,0.32549486,-0.017088752,0.67144084,-0.038933408,0.11928813,0.6896938! 0.0,-0.41573524,-0.2449825,-0.6944976,-0.9586729,0.7739946,-0.8194587! 0.0,0.9348148,-0.93709975,0.7818968,0.828779,-0.11728671,-0.16733812! 0.0,0.69044465,0.90401375,-0.9287312,-0.9507446,0.33281705,-0.70391303! #0.0,0.07203613,0.16180445,0.14572844,0.3360913! 0.0,-0.30592832,0.6555059,-0.09048743,0.6169728! 
0.0,0.8006808,-0.13399832,0.051335327,-0.00855387,-0.66985375,0.48795563! 0.0,-0.38420802,-0.8903178,-0.7450732,-0.7855309,-0.413027,-0.33799607! 0.0,-0.5888426,-0.76185024,0.28296745,-0.27138692,-0.8895708,-0.12703492! 0.0,-0.6515345,0.7300601,-0.7013363,0.52821946,-0.33849132,0.75525665! #0.0,0.39337775,-0.06423628,-0.7998356,0.7456124! 0.0,-0.34205702,0.22920755,0.8576997,0.90186197! 
0.0,-0.018115696,-0.1936377,-0.43870622,-0.62355167,-0.9549953,0.4594034! 0.0,-0.79076475,0.76316327,0.621123,0.5205463,-0.8290944,-0.4948346! 0.0,-0.81548303,0.36730194,-0.6207068,0.3310928,0.6656487,-0.290166! 0.0,0.7436259,-0.9211454,-0.8725687,1.0141044,0.91820866,-0.609258! #0.0,0.14066291,0.10363269,-0.037509006,0.8440729! 0.0,0.38602376,0.226274,-0.21538006,0.8220281! 
0.0,0.7508876,-0.3789416,0.028189812,-0.4289063,0.4057829,0.67292285! 0.0,-0.85479575,-0.8532933,0.28878856,-0.4016504,-0.10879724,-0.49336913! 0.0,-0.79707915,0.37032962,-0.63879216,0.75536305,0.27989882,0.4761786! 0.0,0.70211875,0.92000306,-0.829852,-0.59345865,0.30961463,-0.70391303! #0.0,0.024139097,0.16481678,-0.83866584,0.07518339! 0.0,-0.38528118,0.20456675,-0.8255154,0.7207685! 
0.0,0.728824,0.5014234,-0.055758707,0.742988,-0.96623284,0.1440362! 0.0,0.89609206,0.94773424,0.90059626,-0.5806733,0.09784654,-0.1507996! 0.0,-0.78187275,0.66290903,0.104414165,-0.609976,-0.78737247,0.7783622! 0.0,-0.6276933,-0.9802718,0.018642327,0.14441314,0.9734673,0.5944482! #0.0,0.11273658,0.39312056,0.4365341,0.90766925! 0.0,-0.44383162,0.28841436,0.016334813,0.0918393! 
0.0,0.7796354,-0.6087172,-0.047670078,-0.063267946,-0.95507526,0.49395704! 0.0,0.9261844,0.8430284,0.5421862,-0.7855309,-0.33006918,-0.22874264! 0.0,0.95371604,-0.38798928,0.12809062,0.75536305,0.5177725,-0.12703492! 0.0,0.7436259,0.90401375,-0.80850446,-0.6055956,-0.3325929,-0.58961374! #0.0,-0.07177367,-0.08381465,0.29183736,0.75699323! 0.0,-0.395902,0.3093907,-0.9979088,0.105989255! 
0.0,-0.3721887,-0.5156563,-0.0701451,0.9417254,-0.8002341,0.342804! 0.0,0.89609206,0.9616682,-0.43282813,-0.427926,0.077789366,-0.5921009! 0.0,-0.6383844,-0.93709975,-0.60349196,0.2799164,0.10824454,0.78702545! 0.0,0.6429238,-0.59232605,0.8262252,1.0023648,-0.34039724,-0.47304806! #0.0,0.11449589,0.104987904,1.0446243,-0.8560535! 0.0,-0.3591444,0.31691775,0.58654356,-0.039752826! 
0.0,0.52107227,0.3684104,0.6134164,-0.038933408,0.8519627,0.013628159! 0.0,-0.708903,-0.09243281,-0.88783824,0.51756775,-0.5815917,1.0071832! 0.0,0.95371604,0.97849697,-0.8381836,0.73172617,0.049180117,-0.11751743! 0.0,-0.10762635,0.7178171,0.1409796,-0.4626392,0.35839415,-0.6326525! #0.0,0.06214888,0.25265276,-0.75158226,0.5951741! 0.0,0.1425966,-0.33015403,-1.005841,-0.65137845! 
0.0,0.7796354,-0.47156957,-0.43679214,-0.6701462,-0.702968,-0.85130495! 0.0,0.30062327,0.39863703,-0.978397,0.89314693,0.8351212,-0.7142706! 0.0,-0.84833074,-0.18861881,0.12809062,-0.5156244,-0.92416716,-0.08499162! 0.0,0.7436259,0.66352177,-0.6344414,0.4486138,0.35631415,-0.47457322! #0.0,-0.09531077,0.06438279,-0.22549829,0.36889476! 0.0,0.69049525,0.293031,-1.0420717,-0.60305494! 
0.0,0.4954037,0.3684104,0.71219456,0.7067992,-0.34370148,0.008750331! 0.0,-0.7305839,0.0040233135,0.8044176,0.51756775,-0.3732475,0.4047886! 0.0,-0.7885811,-0.45997727,-0.8381836,-0.8479053,-0.07169366,0.4721131! 0.0,-0.6515345,0.7178171,-0.88298786,-0.5857025,0.33809277,-0.39543533! #0.0,0.2897761,0.5825827,0.36280382,0.5809295! 0.0,0.1425966,0.4718101,0.58335567,0.06467725! 
0.0,0.7493909,-0.34179124,0.5887624,-0.046441432,0.52584344,0.122926235! 0.0,-0.60031414,0.80457217,0.69133407,-0.4039482,0.46742135,0.9526314! 0.0,-0.5888426,-0.9502564,-0.30587223,-0.5210271,0.31295723,0.72980475! 0.0,0.768821,-0.6392812,-0.7650294,0.52821946,-0.3478892,-0.6326525! #0.0,0.09265646,-0.25927487,0.70434755,0.75699323! 0.0,-0.28588074,0.2688559,-0.06522742,0.33406267! 
0.0,0.7796354,-0.019532323,0.47345757,-0.53845763,0.4057829,0.67292285! 0.0,-0.85479575,0.22176303,0.28878856,-0.74489015,0.058956504,-0.6896161! 0.0,-0.73980427,0.37032962,-0.60212195,0.75536305,0.27989882,0.5157104! 0.0,0.7771101,0.92000306,-0.9592447,-0.28166723,-0.28225476,0.4764683! #0.0,-0.13272807,0.19852781,-0.83866584,-0.39811504! 0.0,-0.4080871,0.27825946,-0.7237644,0.0626409! 
0.0,-0.481668,0.11352329,0.68196297,-0.83486605,-0.79223883,0.021125644! 0.0,0.4200355,0.95934266,-0.43282813,-0.427926,0.103850484,-0.58656776! 0.0,0.9817448,0.08146425,-0.642989,-0.42034164,0.09532733,-0.5815979! 0.0,-0.8867127,0.88990027,0.83574,0.1980881,0.19381632,-0.3286022! #0.0,-0.092601985,0.108023755,0.15701231,0.37304416! 0.0,0.33660328,0.31691775,0.58654356,0.61451805! 
0.0,0.7550862,0.3601683,0.30852056,-0.67893773,0.4169762,0.418378! 0.0,0.94439816,-0.16971791,-0.062280893,-0.65638745,-0.57121265,-0.7049405! 0.0,-0.59927595,0.38023782,0.93219924,-0.7949373,0.34668258,0.93250734! 0.0,0.62549233,0.8426424,0.8262252,1.0023648,-0.9318022,-0.6372584! #0.0,0.16111735,-0.06699659,0.5099283,0.75699323! 0.0,0.24178879,-0.942477,0.22080779,0.060139462! 
0.0,-0.9241647,0.6834686,-0.057296257,0.006240003,0.9545612,-0.9181366! 0.0,0.86554,0.41099566,-0.6764177,0.8527099,-0.15586929,-0.44083574! 0.0,-0.024788022,-0.33613932,-0.23280656,-0.37707603,-0.2152693,0.4761786! 0.0,0.093892336,0.58445144,0.8113682,0.54508674,-0.3733251,-0.12754479! #0.0,0.61778104,0.20327947,-0.6445147,-0.9257224! 0.0,0.42541534,0.2561965,0.5774152,-0.016438603! 
