42.118725,350
0.0,-0.69281816,0.22066307,-3.3319087,2.385131,-2.3059382,-0.4946048! 0.0,-0.77310085,-3.0339055,1.2630134,3.6430187,1.8596492,-3.043654! 0.0,-0.4914083,1.2197452,3.8606436,-2.7062798,3.7938273,0.31128398! 0.0,1.4578397,-2.681357,-2.1781,-1.2490759,3.7042284,3.2851067! #0.0,-3.2463727,-0.22980115,-0.87127113,-1.436832! 0.0,-1.9146023,-0.86166716,-0.9456582,3.9915214! 
0.0,-3.906652,0.19402933,0.56048155,3.5763533,2.2827983,2.0906405! 0.0,2.5905738,0.111611366,-2.9255395,-2.1337113,0.47607386,-3.219371! 0.0,-0.30737212,-2.9339309,3.3971803,2.4172058,0.1538186,1.082387! 0.0,-3.5807266,-1.1904653,-0.47532701,-2.8943639,3.3357406,2.186726! #0.0,-0.4637208,2.4434557,-2.8182595,0.78742754! 0.0,1.7861934,1.7770796,2.7009315,-1.1590371! 
0.0,3.8786092,3.573038,1.0754528,2.3386707,-2.8682852,0.7600665! 0.0,-0.81555605,-2.514213,-2.8351283,-3.1795287,0.40590245,3.2403922! 0.0,-2.1702008,-1.0502725,1.3288822,-2.459982,-2.9181728,3.0233064! 0.0,0.77299976,-2.6690426,-0.4723263,-0.07635212,-2.7173574,-1.7665874! #0.0,-0.4637208,-3.337183,-3.953827,-2.8614588! 0.0,1.9280429,1.2529831,-1.8666989,-0.15836881! 
0.0,-2.7277756,3.573038,-1.7878485,-1.068129,-0.9643742,2.4661102! 0.0,0.7323928,-0.054173164,-3.2860484,-0.3497944,3.169073,-2.307346! 0.0,0.9366565,2.3306632,-2.228458,2.017185,-2.0671287,1.5930295! 0.0,0.5420685,0.8389864,-2.253941,-1.8112592,-3.8093264,-3.5229502! #0.0,-3.396531,2.0276809,-1.7183299,-0.205701! 0.0,0.6914191,4.0316257,0.0949956,1.9895645! 
0.0,1.3029432,-1.081959,2.188469,-0.86702394,-2.743292,-3.9314995! 0.0,3.3635807,0.9560795,-3.945313,-3.057859,0.21327353,0.77852154! 0.0,2.1801348,2.5557423,-0.67821455,-3.9752002,-2.0285149,-3.076562! 0.0,3.998538,3.2456636,-1.4639897,-0.083450794,-2.1962614,-2.257989! #0.0,2.8161397,3.629259,-1.4956656,1.1420045! 0.0,-2.2627616,0.71537733,2.4184904,-3.6475506! 
0.0,3.669366,3.1618133,-3.0924215,-1.3666587,-2.0250273,2.2863193! 0.0,-2.9451623,-1.307878,-0.87512445,-3.7381678,0.5633707,-3.043654! 0.0,1.0003246,-1.6300349,-3.3151593,-1.909121,2.6583495,2.3142571! 0.0,-0.5580434,-3.9319987,0.5078926,-0.43876743,0.40834093,1.115583! #0.0,-0.3000102,-1.6798606,0.29578018,-0.7791422! 0.0,0.92164564,-3.0974636,-3.2797291,-0.94849396! 
0.0,2.8362122,0.3446915,-3.1774714,0.46312046,-1.1460202,-1.7956226! 0.0,-0.91178805,0.19227251,1.2779512,-2.3005655,1.6704947,-0.36770916! 0.0,2.4271207,1.3990116,2.2618628,1.8929148,-3.2901034,2.6092982! 0.0,1.9059438,-2.6503778,3.9533806,1.409122,-0.6682661,-1.2742672! #0.0,1.0538533,2.1494722,-3.9343839,-1.7459145! 0.0,1.4985018,1.2228422,3.9036064,-3.9712186! 
0.0,1.307517,-3.5804534,-0.8893333,-2.0998182,-3.8742566,0.42890644! 0.0,-1.4334712,3.8002372,-2.88577,2.9600472,2.5025396,-2.8002386! 0.0,-3.148738,0.61315477,-0.10815768,2.608258,-0.68082637,3.6505165! 0.0,0.68370295,-2.681357,-1.0520983,0.34671307,3.641427,-2.7880325! #0.0,2.6857753,-0.19874716,2.8426366,-0.45385218! 0.0,2.8330956,2.1608431,2.7038808,0.77642107! 
0.0,2.3006945,-3.4981785,2.8412728,3.738955,1.4480624,-0.72987366! 0.0,-2.6306462,-2.6508045,2.1895337,-0.6025586,1.2804337,-2.2344027! 0.0,2.197308,-2.899519,-0.7894554,-3.3026066,-3.984014,1.2182984! 0.0,-2.2719693,-0.19395018,-2.79284,1.2708087,3.5903578,-1.6769409! #0.0,0.8865752,1.6556501,-0.13106203,1.6882582! 0.0,-1.1634884,-0.76941586,0.6428503,-1.379888! 
0.0,-3.2953439,0.70142126,0.03495258,-0.3309126,-3.8742566,-2.6820817! 0.0,3.3461108,3.4358578,-0.25708592,2.4426355,0.5218651,-1.4722171! 0.0,1.7078633,-2.6926608,2.7758386,-3.7995038,-3.883734,-2.9060817! 0.0,-1.587396,1.2131935,-0.5320015,-0.40641168,-2.1781187,-2.7880325! #0.0,-0.43548918,3.3038776,2.8426366,3.4362924! 0.0,0.68477654,-0.55888987,2.592187,1.0624427! 
0.0,-2.7277756,2.4318075,1.9139118,-2.0367799,-0.9154145,2.1195538! 0.0,2.5905738,3.5086927,-2.1399975,0.76583815,-0.4942999,-3.760723! 0.0,2.1895046,2.5146575,1.8020449,2.787582,-2.1738167,-3.3092484! 0.0,0.17066288,1.6522875,-1.5095887,1.8857913,0.64200926,2.6685443! #0.0,-3.396531,3.9442081,2.788447,0.74818265! 0.0,0.43414116,-0.03756237,-3.5731378,-0.024683136! 
0.0,-2.8566608,-1.1384941,-1.1991795,2.1932392,0.84171724,2.7285314! 0.0,-1.4334712,-3.5618153,-1.3059797,-0.100395426,-0.21989536,-2.6235933! 0.0,0.9157872,2.3306632,1.6025848,-1.0607281,0.6244383,-2.9060817! 0.0,2.9325304,3.6615958,2.4840956,-3.2304296,-3.8424728,-1.774756! #0.0,-0.28487253,-0.2569065,-1.9291787,-0.24765041! 0.0,-1.9188962,-1.934742,3.76375,1.165102! 
0.0,2.947576,-1.023648,-1.5307349,-0.86702394,-3.9422054,1.919099! 0.0,-0.82405233,3.4358578,-3.945313,0.31268215,2.1671424,-2.3282862! 0.0,2.1801348,1.6401281,1.776536,2.017185,-2.0285149,2.283583! 0.0,-3.8554368,3.21129,-0.27264977,-0.083450794,-3.8057382,3.3563967! #0.0,2.7259507,3.629259,-1.1279078,-0.19766378! 0.0,1.2190766,1.9946656,2.4515893,2.5997906! 
0.0,-0.6467047,2.901113,-1.0630035,1.2604251,2.6669612,-3.3053849! 0.0,-2.3246536,-2.452784,0.7712002,-2.760302,-3.4896674,-0.9049344! 0.0,2.4271207,3.7011971,-3.1278596,2.914415,0.8749466,-3.55305! 0.0,-3.083169,0.30451822,0.7312918,-0.9931467,-0.10638666,2.5156898! #0.0,3.5607066,-2.3847985,-2.7895103,3.7930636! 0.0,-0.40387774,2.6329842,0.9652424,-0.121785164! 
0.0,-1.5779314,3.8370254,0.9351468,-0.32826853,3.5840845,1.9310608! 0.0,2.6368709,-0.8595886,-0.25496054,-0.6287427,0.3111024,-0.4948163! 0.0,-0.83232546,-2.1534605,1.7206221,0.7757306,-3.6948056,1.7054029! 0.0,1.8478932,0.735641,-3.5008006,3.0053644,-0.5721135,3.1816475! #0.0,-1.2610683,-0.36966515,-2.6402192,2.8479586! 0.0,-2.521739,0.08330631,0.8132163,-0.3664217! 
0.0,-1.4857731,1.8991973,-0.8939871,3.5763533,-1.5067251,-0.72987366! 0.0,-2.580943,-0.6413313,-2.9255395,3.2356668,3.169073,-3.1992147! 0.0,3.0963259,-2.9339309,-3.310914,2.4172058,-1.5299754,-2.6805143! 0.0,1.4669377,-3.3030748,0.9787054,-0.037788946,3.1548867,1.2130322! #0.0,-0.58096313,-2.5123334,-1.3611593,-0.16575886! 0.0,-1.461156,2.556289,3.76375,-2.4542496! 
0.0,-0.18005419,0.98654616,-2.7465801,2.8363805,-0.54253674,-3.4836326! 0.0,3.3461108,-0.57687235,-2.9025035,-0.8780122,0.07154989,-1.8250575! 0.0,-1.3719616,-0.99752283,2.8246508,0.7757306,-1.4738318,3.7798576! 0.0,0.93577033,-1.9862351,-1.6390333,0.9583678,-1.5252061,0.56260586! #0.0,-0.43548918,1.2747049,-1.4225183,3.2559032! 0.0,2.1308904,-0.48045114,-3.1693025,-0.07853365! 
0.0,3.6476774,-3.8550162,3.7476225,-2.1305203,-0.47111607,0.11403082! 0.0,3.7039309,-3.091552,3.129571,2.2930644,-1.5523435,-3.6625857! 0.0,2.8505962,-0.877998,-3.3956966,-2.7975821,2.638826,0.64837265! 0.0,-1.5140171,0.0047303624,-0.7571101,-3.0253763,3.9673977,-0.86980295! #0.0,2.100181,1.6025885,-3.2641153,1.4581952! 0.0,0.92618656,0.75053644,-3.4472284,-0.13544905! 
0.0,-3.3161578,2.8061528,3.341817,-0.43772554,0.37999868,0.71388143! 0.0,-2.6336558,0.17756258,2.935814,-0.12188617,-1.5308738,-1.5818868! 0.0,-0.14926004,-3.8561864,-1.0232916,-1.7209544,-2.706509,3.0767758! 0.0,3.7351344,2.4737635,3.2144043,0.013208628,-0.5776376,2.6657944! #0.0,-1.5287409,-2.5562773,2.1012497,2.6253452! 0.0,0.25300646,1.1356059,-2.8940191,3.6868668! 
0.0,3.626489,-1.1038494,1.2082465,-3.0907912,2.801321,-0.4946048! 0.0,-2.66467,1.4831614,-1.290579,-2.8346882,0.09763336,2.0933738! 0.0,2.9937592,-3.8561864,-2.726,-2.365715,2.8808799,-0.7952771! 0.0,1.9169664,3.1631696,3.0713463,-0.94506216,-1.2568976,2.4445636! #0.0,1.1719899,-1.6798606,2.908579,1.2399473! 0.0,0.92529774,-3.6174746,1.6068995,1.165102! 
0.0,2.4972944,3.1396427,-1.1855197,1.2326069,0.5391078,2.2588725! 0.0,-2.0878801,3.6099381,2.0476146,1.0728593,3.8449929,-2.105318! 0.0,-0.30240858,-0.14922905,-0.108682156,-0.85952955,1.4694357,-1.5059924! 0.0,-0.7393136,-2.1120474,2.7575998,-2.4215653,3.542858,-3.7510543! #0.0,2.0910068,0.6368809,1.172522,2.9889925! 0.0,2.668439,2.556289,-3.19134,1.077055! 
0.0,-0.6467047,0.12666991,-1.0630035,1.2004819,1.0402765,-2.3310175! 0.0,-1.7260168,1.5306826,3.201527,-0.9250146,2.668353,-3.2584648! 0.0,0.93937016,2.2666674,0.1855669,0.15146971,-1.2917585,-0.4582096! 0.0,-1.0071628,0.3837786,-0.85946226,-1.7886537,0.038437366,-3.6830883! #0.0,-1.2677369,2.5420098,2.3395824,-2.9047766! 0.0,0.31859267,-2.276522,0.87456703,-3.1497364! 
0.0,-3.7339096,0.61450624,-1.4177155,-2.1914449,-0.35115656,-3.42944! 0.0,2.0144877,-2.9881635,0.27057505,2.4898357,-1.6228704,-1.3821859! 0.0,1.3247919,-3.457088,1.637958,2.873847,-0.53178644,-1.5633354! 0.0,0.7708287,3.6687217,2.7063642,-2.507185,3.6774144,-2.420895! #0.0,2.9356728,-2.2351704,2.590435,2.6015215! 0.0,2.989605,-1.648005,-2.0320096,2.8840227! 
0.0,3.183096,1.9029633,-1.3340194,-3.5365267,0.40007144,-2.9795008! 0.0,-1.5543799,-2.8693445,-1.7824335,-1.6308775,-1.2840614,-2.0260289! 0.0,2.8626063,1.6680945,2.834662,-1.8439789,-3.2901034,3.8702683! 0.0,2.0521796,-3.9319987,1.8884245,3.1145773,-0.65240985,0.42513996! #0.0,3.2045045,-0.1716919,-1.1279078,-1.7083752! 0.0,0.92529774,2.2205057,1.8672161,-2.3437338! 
0.0,-3.5561724,-2.1221766,1.3478807,3.0285697,1.7878628,-2.4690208! 0.0,-1.3998351,-2.8865452,0.08207989,-3.765751,-3.2514048,-2.7180119! 0.0,-2.4332573,-0.15252352,-0.8862796,2.017185,-3.2682433,2.2595105! 0.0,-0.3125615,2.704502,0.6747618,-1.8112592,0.022536755,1.2721062! #0.0,2.012339,-0.08157997,3.168377,0.45059824! 0.0,-2.5084903,-0.0858299,-3.9246063,1.7234812! 
0.0,0.40779066,3.8528876,-0.46556997,2.3485208,1.0965734,3.0814886! 0.0,1.2045374,0.190485,3.7563882,0.44461632,2.8777657,-1.7433367! 0.0,2.9937592,-1.6607423,-3.7017713,-0.16818619,1.4681687,2.1517332! 0.0,0.78405905,0.6349978,-2.1590009,-0.31630707,3.4083047,-2.1226354! #0.0,0.67448854,1.6261401,2.7670631,2.896052! 0.0,1.7695513,-3.2925463,1.6560125,-3.6543283! 
0.0,3.4049764,2.7294335,2.215612,-0.43772554,0.9675769,2.6913152! 0.0,-2.334429,-2.8693445,2.1281543,0.53269184,-1.2840614,2.0933738! 0.0,-1.7027364,-1.4829769,3.1420927,-2.459982,-3.2901034,0.345006! 0.0,0.5031071,2.8568187,-1.4202969,-3.4498723,-1.0161763,0.41119528! #0.0,-3.21763,1.5105773,-0.66593325,2.037766! 0.0,0.95748216,0.40883988,3.3717885,-1.9190181! 
0.0,1.7192845,-2.3444653,-3.0924215,-1.87428,2.812623,1.5641909! 0.0,-2.9451623,-2.4475942,3.3521004,-3.7381678,2.668353,2.070877! 0.0,3.2364068,-1.6300349,-3.3151593,-1.9810872,2.7334442,1.2971745! 0.0,-1.064807,1.2425512,0.5078926,-0.9791999,-0.569314,1.115583! #0.0,-3.5661507,2.5420098,3.5435047,2.8479586! 0.0,0.47896862,2.1214461,2.243578,-0.94849396! 
0.0,3.7100658,-1.7140942,3.4865432,2.8363805,-0.54253674,-1.6880295! 0.0,1.0285921,-0.57687235,-1.3059797,-2.6721532,-2.2718246,-1.8286287! 0.0,3.0963259,-0.99752283,1.6453979,-1.8439789,-1.4848127,3.7564683! 0.0,-1.5140171,1.3861618,-0.55287087,2.6234035,0.9859514,-3.4741588! #0.0,0.095541,-1.9269543,-1.4225183,3.2559032! 0.0,2.1308904,1.1236343,-3.1693025,-3.3620815! 
0.0,-2.1779215,-1.2432673,3.8452249,3.5904984,0.9372014,-2.0077229! 0.0,-2.9657784,1.2501854,-1.3059797,3.2163959,1.8825402,-0.79615164! 0.0,3.6459446,1.9890056,2.8592706,0.26639557,-1.5800352,1.4366388! 0.0,-2.190936,-1.7534943,1.3639922,-0.42251205,-3.5613966,-3.3711948! #0.0,-3.895853,1.7858939,-0.4411316,2.3561444! 0.0,0.44721603,-2.7628279,1.6560125,0.005567286! 
0.0,3.2067022,2.3054807,3.341817,-0.5703146,3.6262558,-0.4946048! 0.0,-0.002254963,1.039361,1.5979117,3.260634,-2.272615,-0.06304766! 0.0,2.4271207,2.7104874,1.8261217,3.1150625,1.7028503,3.2222729! 0.0,3.751905,0.36121416,3.244113,-0.0630393,3.736672,-3.7933266! #0.0,2.100181,-0.17359084,-3.271167,-3.9215455! 0.0,-2.2582545,-0.5984692,-3.2797291,-1.2648959! 
0.0,-0.1000433,0.61450624,-1.4283005,-2.1914449,-2.7424698,2.2863193! 0.0,-2.0676398,-2.4475942,1.9402909,2.4898357,0.5901246,-1.3821859! 0.0,1.2789794,-1.6300349,-3.3151593,-1.9810872,0.15595436,2.3142571! 0.0,0.7708287,2.2182894,-3.4389777,-2.507185,-0.569314,1.115583! #0.0,-3.5565968,3.2805405,2.590435,2.1958246! 0.0,-2.4593468,-1.648005,2.243578,2.8840227! 
0.0,2.7633913,-1.246851,0.56048155,3.5763533,-0.8947464,1.9587836! 0.0,-3.1629627,-3.0041912,-3.2860484,3.2356668,3.169073,-3.1992147! 0.0,-1.9739838,1.3990116,-3.310914,2.4172058,-1.5588698,3.1305866! 0.0,-0.59035015,-0.8943677,1.8940382,-0.40379414,3.1548867,3.35138! #0.0,1.4739914,3.3038776,-2.8182595,3.4362924! 0.0,1.7861934,1.7770796,-2.3111115,-2.4852571! 
0.0,1.9309616,3.1618133,-0.3726573,-1.8753719,1.7484946,0.02134943! 0.0,-1.2765609,-1.307878,-0.25496054,-0.8780122,-2.272615,-2.5547028! 0.0,1.0495906,0.83481264,2.8233652,0.7757306,2.6583495,1.7054029! 0.0,-0.5580434,-0.81364346,3.8786721,-1.897522,-2.4207814,0.58353806! #0.0,-0.40641573,-1.6798606,0.29578018,-0.7652956! 0.0,0.92164564,2.1214461,-1.6336682,-2.0024476! 
0.0,2.4972944,-2.3420787,-2.7465801,-3.1078844,0.9039115,-3.1215324! 0.0,-2.086031,3.1775346,-0.25496054,1.5860318,-3.1073332,-0.36770916! 0.0,0.876101,-3.1777077,-2.2281942,0.7757306,1.4694357,1.5447586! 0.0,1.7282615,-2.2846284,-1.4269267,-3.0480855,1.3245578,-3.2553024! #0.0,3.7522454,-0.36966515,2.393921,0.34171677! 0.0,2.5803254,-2.5582876,3.9036064,0.39785767! 
0.0,3.2589862,-2.0396793,-1.5366759,-0.4811415,2.2817194,-2.9795008! 0.0,-0.82405233,0.8061967,-3.945313,-2.3254337,0.21327353,2.9490511! 0.0,2.1801348,1.6401281,-2.9526224,-2.3648777,-2.0285149,3.086842! 0.0,1.9438479,3.891201,-0.57512856,2.5037346,3.2265663,2.8409815! #0.0,-0.04532385,3.5829165,-2.0960717,-1.8023205! 0.0,-0.7736276,1.9946656,3.76375,0.31518936! 
0.0,-2.8761296,0.70142126,0.24277273,-1.7447944,1.0286419,-2.6820817! 0.0,3.3461108,-3.0324712,-0.25708592,1.4563595,-3.1332264,-3.7024677! 0.0,1.7078633,-0.38498384,-2.900075,-1.0607281,-2.4717968,-2.9060817! 0.0,3.859786,1.2131935,-3.1047788,-0.40641168,-1.5700711,-0.84915954! #0.0,-0.43548918,3.284767,3.5649807,2.8718123! 0.0,2.3375697,-0.65316963,2.5573819,-2.0353246! 
0.0,-1.1802502,-3.118003,-2.360785,0.8668175,-3.9422054,-1.1973476! 0.0,-1.5765953,0.915853,-2.9025035,-0.84522504,-2.5018373,-1.8250575! 0.0,-0.78463984,-0.99752283,-0.03366518,-1.9712294,-2.7741575,-3.1287897! 0.0,-2.7077217,3.6860805,0.11476517,-2.435072,1.7520723,-0.030888107! #0.0,3.7233434,-1.9269543,-1.4225183,3.2559032! 0.0,-3.3234353,-0.5210457,1.5947342,2.4583318! 
0.0,3.6476774,-0.7746097,-0.46556997,1.6556997,-0.69913554,2.700395! 0.0,-1.5063434,-3.9439225,3.129571,-0.31447983,2.323971,-3.6251862! 0.0,-3.385988,0.5759854,-2.4812937,-2.5342727,3.484087,2.2401938! 0.0,-3.556673,0.35276794,-1.1560907,2.487753,0.25236094,-2.9474282! #0.0,-1.3968301,-1.6456623,-3.2641153,0.54186654! 0.0,-2.5198917,-3.2925463,-0.20432287,-3.6694412! 
0.0,-2.8761296,0.70142126,0.05810404,-0.5703146,0.9935527,-2.6820817! 0.0,-1.4857641,1.4831614,0.50254774,0.31268215,2.1195254,-2.2860346! 0.0,1.7078633,-2.899519,-3.8403416,-1.8734269,-3.5787542,1.4741467! 0.0,-0.87572944,-1.5228589,-0.8053551,-1.3726792,3.888409,-2.9474282! #0.0,2.1027331,-0.3697335,-3.2641153,3.4653552! 0.0,0.68477654,-0.298419,2.592187,-2.3627224! 
0.0,3.2067022,-3.8722527,-3.1338391,2.1932392,0.84171724,1.8878983! 0.0,-1.5543799,3.1775346,-0.25496054,-2.8346882,-2.0843544,-1.4264556! 0.0,0.9157872,-0.32835722,-2.900075,0.8237483,-0.17191458,-0.5292878! 0.0,2.900879,-1.4909675,1.6897454,-1.897522,-1.5252061,3.3563967! #0.0,0.8635068,-0.29286337,-3.6377506,0.6104646! 0.0,0.9969955,2.1214461,-3.2809913,-0.74174166! 
0.0,1.6805091,1.7278624,1.3086419,-1.87428,2.6995387,-3.933195! 0.0,-3.0720463,-0.8829274,-0.25496054,-0.8780122,3.6180625,-0.5303588! 0.0,2.254448,-3.0277858,-2.6237574,-1.6978288,2.1590338,-3.491528! 0.0,3.3838267,-2.6524272,-0.6435833,3.5544252,-3.2400098,-2.1226354! #0.0,0.67448854,-3.9064078,-2.5340853,2.8104053! 0.0,1.4880563,1.2027445,3.8010273,-2.0353246! 
0.0,0.40779066,3.8528876,-0.86824346,-3.804995,0.40007144,1.7278948! 0.0,1.1467528,0.190485,-1.7824335,0.31131357,-1.2840614,-1.9763687! 0.0,-0.29143628,-0.8731146,0.42276525,3.7034283,2.7439182,2.1517332! 0.0,2.0521796,-3.1822703,-0.6435833,3.5378618,3.4083047,0.42513996! #0.0,0.67448854,3.8199415,-0.66593325,2.896052! 0.0,0.92618656,-0.298419,1.8672161,-2.3437338! 
0.0,-0.6467047,1.9090803,2.0248208,3.61866,0.82583123,2.955461! 0.0,-2.3246536,-2.494851,-2.9255395,3.2163959,3.169073,-2.5085905! 0.0,2.8626063,1.8181915,-3.1593814,-0.9114171,0.8749466,-0.5292878! 0.0,-3.8922117,0.35276794,1.3378977,-0.94506216,3.641427,0.5010532! #0.0,3.5607066,-2.3847985,3.0103636,-1.660435! 0.0,0.92529774,4.0316257,1.0485332,3.5585246! 
0.0,-0.68065864,1.9090803,3.341817,-2.3171656,3.3361936,2.853417! 0.0,3.1633525,-0.62478495,-2.9255395,3.2163327,-1.5067178,-2.8330817! 0.0,0.6859293,1.9775257,0.28292087,-2.7199574,2.6116235,3.0865877! 0.0,3.6696188,2.4204936,1.392775,-2.0874434,-1.2386655,-3.5271502! #0.0,-1.5287409,-0.19319358,3.0103636,2.315857! 0.0,0.73654413,4.0316257,1.0716777,2.3012342! 
0.0,0.40779066,0.98654616,-2.7465801,-1.9042944,-3.1587725,0.74623245! 0.0,1.8180223,-0.8829274,-0.25496054,-0.8780122,0.07154989,3.4362512! 0.0,3.2364068,-0.8458433,2.8246508,3.8543196,-2.3283353,-3.491528! 0.0,0.94888544,-1.9832352,-1.6390333,-2.051022,-1.5252061,-2.1226354! #0.0,-0.43548918,-0.16869552,0.22445066,2.8479586! 0.0,0.9861584,-0.52054834,3.8010273,3.2031121! 
0.0,-3.2142873,-0.37716556,-1.2119601,2.385131,-0.7451577,2.7069306! 0.0,0.14537239,-3.7544115,-0.87512445,0.44461632,3.4241714,2.7128348! 0.0,-2.2564054,-1.2795012,-3.0422788,1.3147612,2.6521962,-1.6043077! 0.0,-2.8930864,2.4729757,-3.2202082,-1.2921786,3.9083934,1.3853631! #0.0,-1.3968301,-0.1716919,3.7904682,1.4508586! 0.0,2.4158895,1.9558927,-1.068017,2.3208306! 
0.0,-2.1141558,-1.1211891,2.6592293,-1.5432186,0.48990023,-1.3269672! 0.0,-2.8082066,0.08520398,-3.0757985,-1.6308775,2.7392912,-3.8190365! 0.0,2.4734192,2.5491524,-3.0620332,-0.43451166,0.1538186,-2.655285! 0.0,2.8075364,-1.1667104,-2.8806982,-3.034778,2.4478462,-1.686112! #0.0,-1.001102,-3.3320298,-2.6214304,-2.7827005! 0.0,2.668439,1.2529831,-0.20432287,-0.88465166! 
0.0,-3.2953439,2.716576,-0.9278545,-2.6778834,-3.8742566,-1.1909859! 0.0,-1.239928,3.4358578,-1.3412131,2.4426355,2.1195254,-3.6923962! 0.0,3.6696103,3.3607392,2.7332225,1.3531637,-3.8708158,0.9852667! 0.0,1.372519,-2.70436,-0.6508603,-2.4215653,3.3853676,-2.775224! #0.0,-3.6573324,3.3038776,2.2227216,-3.0453272! 0.0,1.5715742,-0.55888987,2.592187,1.0624427! 
0.0,-1.2049375,3.740644,-3.359409,0.671772,-2.7136316,3.5948224! 0.0,2.678938,-0.8522544,2.746935,-1.2956891,-2.9408946,-0.8863377! 0.0,0.851068,-3.4265609,-1.6364622,1.290647,-3.0489988,2.5063477! 0.0,-1.0549679,-0.88896036,1.7516418,-1.5006804,-1.7410378,-3.5874462! #0.0,1.8798075,3.9537735,-3.2623634,0.66068506! 0.0,-1.0666113,-0.24865675,-2.2664328,0.6719928! 
0.0,-3.2142873,-0.33079618,0.03495258,-0.29433438,-3.9422054,2.7069306! 0.0,3.3461108,-3.7544115,-0.25708592,0.31268215,0.5218651,-1.4689337! 0.0,1.7078633,-0.8731146,-3.004671,-1.0607281,-3.883734,-3.100141! 0.0,-1.587396,1.2131935,-3.2202082,2.114896,3.9083934,2.228662! #0.0,-0.43548918,0.56304365,3.7904682,2.8479586! 0.0,-1.9952416,2.834398,-1.068017,-2.0824072! 
0.0,3.68818,-2.3444653,1.3494949,1.2004819,1.0402765,2.2863193! 0.0,-2.9451623,-2.4475942,3.3521004,-3.7381678,0.5633707,-3.232635! 0.0,0.93937016,-1.6300349,-2.6652384,1.1260223,0.15595436,-0.42945337! 0.0,-2.2104516,1.3004491,0.47325528,-0.9791999,2.4404378,-3.6830883! #0.0,-3.5473554,3.2805405,2.7613707,2.1958246! 0.0,-2.4593468,1.9281592,3.74269,-0.94849396! 
0.0,-0.18005419,-3.4478087,3.4865432,2.3513474,-1.9811678,1.5974853! 0.0,3.3461108,1.039361,-0.25496054,-2.6431317,-2.2718246,3.4362512! 0.0,3.2364068,-1.7003295,1.6825671,0.7757306,-2.3283353,-3.1299658! 0.0,-1.5140171,-1.9862351,-1.6377469,-2.051022,0.9859514,-3.5094981! #0.0,0.095541,0.40589333,0.2719407,0.57033396! 0.0,1.6075301,2.8575168,-1.6380296,3.2031121! 
0.0,-3.7670157,-2.4294155,0.11375734,3.5592399,-1.9811678,2.6799805! 0.0,2.5905738,1.039361,-3.2860484,2.268444,3.169073,3.4482837! 0.0,3.384876,-1.4891119,3.9313574,-1.8439789,-2.5162742,3.1305866! 0.0,-0.6116779,0.38522056,-2.2299628,-3.498899,0.48855925,-3.55883! #0.0,-3.396531,2.0276809,1.1717035,-0.19766378! 0.0,0.6914191,-3.1682656,-3.0512178,0.9998731! 
0.0,2.7633913,-1.246851,0.56048155,0.46312046,3.0015943,2.2123523! 0.0,0.9950955,3.0593314,1.7568693,0.12853959,-3.1073332,1.3862019! 0.0,-2.8034377,1.3990116,-3.310914,1.8929148,-3.4878812,2.6387563! 0.0,-3.8549244,-2.6503778,3.9533806,1.409122,-0.6682661,-0.3368821! #0.0,2.7259507,3.3038776,-3.182538,3.4362924! 0.0,1.7765871,2.7327666,-0.9067812,-0.7529925! 
0.0,-3.544517,0.94266224,-3.481112,-0.43772554,-2.1131964,2.7654142! 0.0,-2.24769,-0.66800517,2.9022589,-0.5745568,0.15484238,-2.8330817! 0.0,1.3432178,0.4349032,-1.6959314,-3.518846,3.1627994,-3.422923! 0.0,-0.9976015,-2.4850137,3.4120965,3.219617,2.5172276,-3.5271502! #0.0,1.6612387,1.3636522,-2.7448158,3.3323572! 0.0,-3.6282463,2.8834066,1.9498525,1.9845705! 
0.0,3.2312388,-1.376029,-1.5366759,1.6393111,-1.1855774,-3.2144277! 0.0,-0.82405233,-3.6204972,2.6830556,1.5678222,2.440565,-1.4722171! 0.0,2.184293,1.6401281,3.8606436,-0.8689704,-2.0285149,-3.076562! 0.0,3.998538,3.891201,-0.57512856,-0.083450794,0.1392171,1.9757053! #0.0,0.47921753,2.4773746,2.7510667,2.6181655! 0.0,2.2655244,-2.0141098,2.4184904,2.5997906! 
0.0,3.626489,-0.9157572,1.2082465,-3.0907912,0.37999868,0.71388143! 0.0,-1.4334712,0.17756258,2.8866014,-0.7265134,3.3406184,-1.5818868! 0.0,-2.2719564,-3.8561864,-2.6778607,-1.7209544,2.8590956,-0.16006136! 0.0,3.535388,-0.72775316,3.1933975,0.038604144,-1.2386655,3.504169! #0.0,1.4739914,-2.5123334,2.8671486,2.6253452! 0.0,-3.508905,-3.1889381,-2.540495,1.165102! 
0.0,-3.5561724,-2.09445,0.22766738,-2.642539,1.7878628,-2.822032! 0.0,0.5474066,0.08652046,0.08207989,-0.37304434,3.169073,-3.2371998! 0.0,-2.4223366,-1.6607423,-0.8862796,2.017185,3.655972,0.76746535! 0.0,0.8389869,-0.0041534193,-0.89213514,-1.8112592,-1.177059,3.4840374! #0.0,2.8455615,-0.12621772,-3.7378798,-3.2601414! 0.0,-2.5581536,-2.2292032,-3.9246063,-0.74174166! 
0.0,-1.4553505,3.9548616,-0.04299736,-3.5758371,-0.5451813,-1.0506958! 0.0,2.6742759,-2.785046,-3.2860484,-0.12188617,3.1441944,3.174264! 0.0,2.4139478,-2.895186,1.4873495,-0.8630886,-3.2901034,3.6019635! 0.0,1.4669377,-1.0331273,2.276978,-0.94506216,-0.6682661,0.8972626! #0.0,0.8865752,-2.334819,-1.3295507,0.7524619! 0.0,-1.461156,-0.016957607,-0.31781673,3.5585246! 
0.0,-3.3161578,2.767922,1.0233526,2.67383,3.6593628,2.853417! 0.0,-2.672768,-2.9282982,-2.8945584,3.260634,-3.534502,-0.06963488! 0.0,-2.1906824,2.5227973,-1.0232916,3.2196507,3.1650243,3.0767758! 0.0,-2.5092187,1.3265924,-1.177134,-0.68766594,-0.5776376,2.6349893! #0.0,-3.0072455,3.7473092,-1.3295507,-2.7640805! 0.0,0.73654413,1.1356059,-3.19134,3.6868668! 
0.0,3.2067022,1.8914447,-1.1809086,-1.3666587,-1.9811678,-1.8283097! 0.0,-1.5220491,3.0593314,1.7568693,-1.6308775,-3.1073332,-0.36770916! 0.0,2.8626063,1.6680945,2.834662,1.8929148,1.4922618,2.6092982! 0.0,0.55710053,-2.6503778,1.9107981,1.409122,-0.6682661,-3.7572198! #0.0,2.7259507,3.3038776,-1.1279078,-1.660435! 0.0,1.4985018,2.1918974,3.8942664,-1.2388968! 
0.0,-1.4857731,-1.4510131,-1.0630035,-2.1099367,-0.5482214,2.955461! 0.0,-2.6306462,-2.452784,-1.3059797,-2.4142203,3.1787608,1.912889! 0.0,3.0963259,-2.899519,2.3233428,-1.6738316,0.8749466,3.8702683! 0.0,1.9111382,0.35276794,1.3378977,-0.037788946,-0.6682661,1.2130322! #0.0,0.9292881,-2.5123334,-1.3611593,-0.20413998! 0.0,0.95751387,2.5974326,3.76375,3.5585246! 
0.0,-2.1724553,-1.0092816,-3.3188868,-2.3745632,0.6295662,-2.0077229! 0.0,-0.16496086,-1.4503098,-3.2860484,1.9234428,-1.5115037,1.0923963! 0.0,1.7078633,3.6732523,2.2618628,0.26639557,-0.17191458,1.4366388! 0.0,-2.190936,-0.65900564,-1.0037302,-3.2960982,-3.5613966,3.348319! #0.0,-3.895853,-0.2569065,-0.4411316,0.56181914! 0.0,0.44721603,-2.8018343,-3.301909,0.63200474! 
0.0,3.2067022,-2.0678656,-1.1809086,-1.370919,1.7878628,-2.9795008! 0.0,-1.5543799,0.045502074,0.041804016,2.9706602,-2.272615,-3.7573235! 0.0,-2.4223366,1.6680945,2.834662,2.017185,1.4922618,-2.6478927! 0.0,-0.3125615,-3.9319987,0.6747618,-1.8112592,0.40834093,1.2721062! #0.0,2.8455615,-0.2078293,-1.1279078,-1.660435! 0.0,-2.5084903,0.097289085,3.76375,-0.74174166! 
0.0,1.9149466,-0.72732973,-0.89958686,-1.9404349,3.1964927,-0.96447086! 0.0,1.0285921,-2.229437,-1.3059797,3.110692,2.5592365,3.5697088! 0.0,-1.5442748,0.5803571,-0.10815768,-1.0318274,-0.97432804,-2.087872! 0.0,0.68370295,-0.107002735,2.2409701,-0.033310365,-1.8061771,-3.43611! #0.0,2.6857753,-0.22382745,1.3030286,0.38633108! 0.0,2.7648098,0.056190014,3.9006166,0.6801921! 
0.0,-1.2690797,2.118167,-2.6463447,2.367962,-2.3897762,-2.8597207! 0.0,0.8350334,0.42001265,-1.7567784,-2.6785004,0.9098873,1.8656888! 0.0,-3.345136,1.7197003,-1.5124764,-3.165073,2.0225668,0.43824545! 0.0,1.4325032,-2.663497,-2.3299766,-3.0394826,-3.8253176,-2.8469048! #0.0,-1.3153968,-0.26916075,1.7917328,-3.0416894! 0.0,-1.8362017,-1.2203808,0.67533207,-1.1542003! 
0.0,-1.648882,-3.1741033,-3.148809,-1.3843703,-1.3765569,2.0982335! 0.0,-1.6502099,-3.2865047,-0.2922063,-0.31447983,-1.5486628,-1.2643485! 0.0,2.4271207,0.6110635,-2.4812937,-2.8810327,1.9967675,2.2401938! 0.0,1.9059438,0.35276794,1.9107981,2.5571442,-0.38731337,-3.0958335! #0.0,-3.1161327,-1.6798606,-3.2641153,-1.7174106! 0.0,-3.3828976,0.097955704,-0.20432287,-1.3217964! 
0.0,-0.6467047,3.3373604,1.5048411,-0.2978258,-1.6940325,2.7069306! 0.0,-1.4334712,1.4831614,-0.7942138,-0.5745568,-0.21989536,-2.8330817! 0.0,-3.296526,2.3306632,1.6025848,-1.0607281,0.5811341,-3.0807111! 0.0,-0.9582684,0.35276794,-2.1590009,2.570188,1.8747191,-3.5271502! #0.0,1.9541769,-1.6798606,-1.2206771,-0.24498518! 0.0,-1.9952416,2.089046,-1.068017,1.165102! 
0.0,-0.83556205,-0.6571274,-3.859867,2.367962,-2.3897762,-2.8597207! 0.0,-2.6336558,-1.4895142,-1.7824335,0.12853959,0.87388223,-1.553062! 0.0,-1.6643112,2.3306632,3.9550018,0.5654907,2.0225668,0.47004604! 0.0,2.9089484,-2.663497,-2.3299766,-1.0381823,1.7198973,-2.8469048! #0.0,1.1482286,-2.40242,-2.2342782,-0.57781553! 0.0,-2.042809,-0.24236965,-0.9067812,-1.189107! 
0.0,-3.7236025,0.9385147,-0.8939871,0.93643856,-2.9670804,2.1839042! 0.0,-1.4347506,-2.7388396,-1.3059797,-0.53150225,-1.5970023,-3.7730646! 0.0,3.4511118,3.7988257,0.1855669,2.873847,-0.53178644,2.6953511! 0.0,-3.4884295,0.0169034,-3.8521166,1.9509773,3.6774144,0.71414614! #0.0,0.053173386,-2.2351704,-2.6851873,-1.4912896! 0.0,0.68477654,1.520003,2.592187,-2.3627224! 
0.0,2.3955488,-1.0092816,-2.133534,2.8972816,-0.5913291,-2.0077229! 0.0,-0.16496086,-1.6653705,2.2877638,1.9234428,-2.923193,1.5496308! 0.0,3.9908524,-0.46489188,1.2972913,0.26639557,-3.1433978,-0.83653116! 0.0,-2.190936,0.01866293,3.1470418,-0.42251205,-1.002274,-3.3711948! #0.0,-3.895853,1.4449501,-0.4411316,0.7524619! 0.0,0.92529774,-2.7628279,2.2189913,0.92180634! 
0.0,-3.906652,1.8991973,0.56048155,-1.3666587,-1.9811678,2.0906405! 0.0,-1.5543799,-0.6413313,-1.3059797,3.2356668,3.1608682,-3.7282457! 0.0,-0.2748206,-2.9339309,-3.310914,-3.4428997,-1.5299754,2.5498176! 0.0,-3.5807266,2.8401403,0.8847542,-0.40379414,3.141412,2.186726! #0.0,-0.58096313,1.6261401,-2.8182595,0.57033396! 0.0,0.92618656,1.7770796,3.76375,-2.3627224! 
0.0,1.9309616,0.22066307,-3.3319087,2.385131,-1.9811678,0.02134943! 0.0,-0.77310085,-3.0205295,1.2965031,3.6430187,-2.272615,-3.043654! 0.0,-0.4914083,0.6110635,2.8233652,-2.7062798,3.7938273,3.8702683! 0.0,1.475625,-3.9319987,3.8786721,-0.43876743,3.7042284,3.2851067! #0.0,-3.2463727,-0.22980115,0.29578018,-0.7791422! 0.0,-1.9146023,-3.0974636,-0.9456582,-1.2648959! 
0.0,3.2312388,0.092850685,-1.5366759,-0.86702394,-1.1855774,2.8516188! 0.0,0.8065776,1.039361,-3.945313,1.6058049,-2.0492303,-1.1209664! 0.0,2.1801348,1.6401281,-2.9526224,-2.3648777,1.9967675,0.99668115! 0.0,3.998538,-2.275592,-0.13414283,2.7779033,0.3939807,2.8409815! #0.0,0.4796794,-0.179231,1.3030286,3.465811! 0.0,1.2190766,2.1918974,2.4184904,-2.8408766! 
0.0,3.5706277,3.573038,0.56048155,2.1499646,-3.8394198,0.14259052! 0.0,0.75285995,-1.5387384,0.071287185,0.12853959,-1.3600211,-2.4932501! 0.0,-1.0553217,-0.06896535,2.7616043,-0.052281857,-2.0671287,-0.57045525! 0.0,-3.8549244,0.8389864,1.6897454,-3.2960982,1.4690213,2.9272056! #0.0,-0.024922457,2.411868,-1.7183299,0.6104646! 0.0,1.7765871,1.2635798,1.8199573,-1.8153377! 
0.0,-3.7339096,2.7205052,0.56048155,1.264399,-3.8394198,2.2123523! 0.0,-3.4134102,-2.7388396,0.27057505,-0.53150225,-1.6228704,1.3862019! 0.0,2.6653862,2.2219787,-0.7161908,2.873847,-0.53178644,2.552046! 0.0,-3.8549244,3.6687217,3.5021544,-1.0381823,3.6774144,0.71414614! #0.0,0.6754818,2.411868,-2.6838582,-0.57781553! 0.0,1.7765871,2.7327666,-0.9067812,0.382329! 
0.0,2.9776099,-3.8011906,-3.1724586,2.5013871,-1.5067251,-3.9501991! 0.0,-1.5063434,0.8723238,0.35308653,1.5680449,2.1195254,0.89340645! 0.0,0.80527353,-0.019066334,1.776536,-1.9870844,-1.5149775,-3.1377573! 0.0,-3.8554368,2.7777696,3.7097218,3.7519135,-3.850698,3.1696558! #0.0,1.2986057,-0.3003231,-1.1105126,-3.9215455! 0.0,-1.4787929,2.0275497,1.836524,-2.5281796! 
0.0,-3.2142873,-0.7746097,-1.2119601,-0.29433438,-3.9422054,2.6574368! 0.0,0.14537239,-0.037213326,-1.290579,2.8094227,2.323971,-3.7730646! 0.0,-3.338869,-0.8731146,-2.517944,1.3147612,-1.3889098,-3.1418083! 0.0,-3.530395,0.0042170584,-1.6008399,3.7519135,-2.0336027,2.228662! #0.0,-0.33105496,-1.2739085,-3.287919,3.2594302! 0.0,-2.0103607,1.9334786,2.776308,-4.4701248E-4! 
0.0,2.6750703,2.1055827,-1.2206006,0.4392642,0.94255924,0.9481268! 0.0,0.14537239,1.039361,3.96248,-2.4161835,1.095437,-2.6235933! 0.0,-1.2858808,-0.8731146,2.834662,-3.544084,-1.784266,-0.5029707! 0.0,1.7282615,3.2949076,3.1470418,2.6234035,-3.8424728,-3.530917! #0.0,-2.8497531,1.6261401,2.393921,0.34171677! 0.0,-3.6282463,-1.934742,2.2189913,-2.3113961! 
0.0,0.40333176,-2.09445,1.4128022,0.44845745,2.1515346,-2.2518258! 0.0,2.6107962,0.915853,0.08207989,-2.3254337,0.17737007,-3.741077! 0.0,-2.2719564,-1.6233076,-0.80279946,-2.8236594,3.655972,-2.6478927! 0.0,-0.3125615,-0.0329152,0.6747618,2.5037346,3.2805126,1.2130322! #0.0,-0.04532385,1.5736339,2.182361,1.6185646! 0.0,-2.5084903,2.556289,-3.9246063,-0.74174166! 
0.0,2.9871001,-1.1413918,-1.2206006,2.8347063,0.84171724,0.92861307! 0.0,1.4035788,3.449266,-1.6863313,1.8452454,-3.0233095,2.7386737! 0.0,0.9157872,1.8181915,-0.34028673,-1.1184263,-3.3059325,-3.1187444! 0.0,2.900879,-0.65900564,1.8210896,-1.937748,-2.4207814,-2.699119! #0.0,-1.6005006,-0.27372554,2.912259,-0.7652956! 0.0,1.4599514,0.20405388,-3.2611604,-3.8316946! 
0.0,-2.8818278,-0.72732973,-3.0924215,-1.9404349,-3.015103,2.2863193! 0.0,-2.9451623,-2.229437,3.3521004,0.21064328,-2.0578933,2.070877! 0.0,1.282846,0.5803571,-0.10815768,-1.9810872,-3.2901034,2.3142571! 0.0,0.68370295,2.2182894,1.7398238,-1.0082319,-0.569314,1.115583! #0.0,2.6857753,3.2805405,2.7613707,-0.45385218! 0.0,2.7314336,-1.3213959,1.571372,-0.94849396! 
0.0,-2.1604824,-1.0092816,-1.968605,-2.3745632,0.6295662,-2.0077229! 0.0,-1.5765953,0.915853,2.2616963,-0.7955198,-1.5115037,-2.2860346! 0.0,-0.78463984,-2.2243602,-0.03366518,-1.9712294,-2.7406652,1.4366388! 0.0,-2.190936,0.01866293,0.11476517,-2.435072,-1.0034037,-3.3711948! #0.0,-3.895853,2.051557,-3.1499138,2.3749857! 0.0,0.44721603,2.7790422,-3.809632,2.4583318! 
0.0,2.947576,-2.248231,0.9351468,-0.32826853,-1.7749033,1.9310608! 0.0,-2.3682942,-3.0355468,-3.249082,-0.6287427,-1.9017675,-1.4264556! 0.0,-0.83232546,-1.5190356,1.7206221,-0.7413511,1.8116231,1.4380916! 0.0,1.4615443,2.8568187,-3.834624,3.0053644,-1.5025234,3.3563967! #0.0,0.821773,-0.29286337,-3.9577541,-3.581388! 0.0,-1.6452148,2.0275497,0.84630775,-0.74174166! 
0.0,-2.1604824,-1.0092816,-1.1855197,-2.3745632,0.6295662,2.2588725! 0.0,0.6284065,-1.4503098,2.3029592,0.6486465,3.8449929,-1.2136812! 0.0,1.6691484,-0.14922905,2.8592706,0.26639557,-1.5800352,1.4366388! 0.0,-2.190936,0.06862092,2.7575998,-1.9046879,-3.5613966,-3.7510543! #0.0,-3.895853,2.0749812,-0.4411316,2.9889925! 0.0,2.668439,-2.7628279,-3.8862178,-1.0454321! 
0.0,2.8368902,-0.8883047,0.24277273,-1.3843703,1.7413669,1.5641909! 0.0,-1.6774849,0.15534413,-0.22777843,-2.7856548,-3.17021,-3.6166284! 0.0,2.4271207,-1.4891119,-2.5528362,2.5307639,2.1590338,-1.9713488! 0.0,-0.59035015,3.6977382,-1.6021912,2.6049063,-0.38731337,1.6605859! #0.0,-3.1161327,2.1494722,3.4583957,2.8479586! 0.0,2.598503,2.1918974,1.8956585,-0.9215958! 
0.0,-3.7550526,2.8169508,3.1852813,3.5592399,0.40007144,1.7091558! 0.0,1.1467528,-3.7275834,-0.94637686,-0.3497944,0.76656055,-1.9763687! 0.0,-0.6152425,-0.8731146,-3.0419302,-0.8227242,-3.2901034,2.6935067! 0.0,0.5420685,2.5128868,-3.7514372,1.8857913,-0.65240985,3.0072484! #0.0,3.1628268,-2.0671287,-0.66593325,-2.8570008! 0.0,0.92618656,-0.309441,1.8672161,1.9895645! 
0.0,-2.1141558,-1.1038494,1.0754528,-2.1581726,0.4639988,-1.1925874! 0.0,-2.66467,-3.2998986,-2.8644686,-3.1795287,0.44782114,2.0933738! 0.0,2.9937592,-3.82023,-2.5072768,-1.909121,-3.2901034,-0.7952771! 0.0,0.77299976,3.2030392,-0.44855246,-0.94506216,0.55586004,3.5127864! #0.0,-0.4637208,-3.337183,-3.3617747,2.5341263! 0.0,-0.7527003,-3.8834038,3.3717885,-2.5945656! 
0.0,-2.7277756,1.2279297,1.3494949,1.2004819,-3.9889812,-3.5467217! 0.0,3.15898,0.5724764,3.6636424,-3.3170705,2.668353,-3.760723! 0.0,2.2060452,-1.3858867,-2.7094295,2.787582,1.4694357,1.2971745! 0.0,-0.92793036,-2.490405,-3.9554198,1.8857913,3.7042284,2.8748105! #0.0,-1.2677369,1.0001082,-3.4143772,-2.9047766! 0.0,0.41358846,4.0316257,-0.53270006,-0.010297298! 
0.0,2.9497323,-0.33079618,-1.2119601,-3.5675275,-3.9422054,-3.968708! 0.0,-2.4242127,-3.7544115,2.934332,1.5680449,-2.0843544,1.4407905! 0.0,2.4271207,-0.32835722,-3.004671,1.3147612,-1.4814966,3.8692174! 0.0,2.1359062,0.0042170584,-0.07477834,-1.2613411,-1.7315111,0.49608326! #0.0,0.8635068,-0.25064787,-0.8259979,-3.9215455! 0.0,-1.9952416,2.0275497,-2.8967452,-0.74174166! 
0.0,0.40333176,-2.0396793,1.4128022,0.43036518,2.1432815,-2.2518258! 0.0,-1.2410669,3.449266,3.412595,-2.3254337,0.17523454,-3.760723! 0.0,-2.2719564,3.0214226,-0.80279946,3.5722756,2.5570626,-0.16006136! 0.0,-3.8183098,-0.72775316,3.0824022,2.5037346,3.2608078,1.8514766! #0.0,1.4739914,1.0001082,2.908579,2.0716882! 0.0,-0.11244305,-1.8772932,-3.5731378,-0.60402775! 
0.0,2.3372023,-0.61418295,1.2021408,3.6281831,-1.5067251,0.06472778! 0.0,2.9496617,-2.229437,-1.3059797,1.835284,1.5282488,1.904901! 0.0,2.1724322,3.3010163,-3.692616,-2.8289263,3.252483,-2.6805143! 0.0,-1.5140171,3.6696424,-0.7571101,-0.7376321,2.900292,1.2130322! #0.0,0.1580553,2.7703357,-2.3324304,-1.8468347! 0.0,-1.461156,0.7622614,-2.4602976,-2.3331518! 
0.0,3.1923275,0.686429,-1.6214714,-3.5365267,3.6593628,-0.70318556! 0.0,3.4380739,-1.5571665,0.034031868,2.313046,-1.3186646,-1.9738712! 0.0,2.3368325,1.753418,-1.3980498,-0.8630886,-3.4878812,-0.4768076! 0.0,1.9169664,3.1017966,3.213911,-0.99989176,0.29932308,2.7011776! #0.0,-1.7641363,-3.3007026,-1.998498,-2.5436058! 0.0,-1.2294136,2.556289,0.43126774,-0.7529925! 
0.0,-1.4553505,-0.7585149,-1.1604195,-3.5758371,-1.5067251,-1.0506958! 0.0,-0.81555605,-3.2630262,-3.2860484,-3.1795287,0.44782114,-1.0296583! 0.0,1.2088447,-3.82023,1.4873495,1.0393201,3.252483,-2.6805143! 0.0,0.77299976,-1.0331273,-0.47532701,2.085331,-0.6682661,-1.5305123! #0.0,0.8865752,-3.337183,1.8995929,2.5341263! 0.0,-1.461156,-3.8834038,-0.31781673,-2.0433993! 
0.0,-2.8322854,-0.72732973,2.2962623,-3.1078844,2.1268115,0.3901599! 0.0,-1.5543799,-2.229437,-1.3059797,0.21064328,-3.229758,-3.7730646! 0.0,2.9030743,-1.6607423,2.834662,-2.8236594,2.9116015,-2.0823593! 0.0,2.0747695,-0.107002735,2.8670206,2.6234035,2.6204612,-3.43611! #0.0,-0.7696581,-0.19773364,1.3030286,-0.45385218! 0.0,-2.2582545,-1.8026085,1.571372,-3.3620815! 
0.0,-0.6467047,3.573038,1.1633173,1.1037354,-3.6107106,-0.4946048! 0.0,-2.66467,0.036226615,-1.3871431,-2.0815463,2.0269864,0.7240882! 0.0,2.9937592,1.0442414,-2.5072768,3.599909,-3.2901034,-0.7952771! 0.0,1.9169664,3.1749976,3.1817877,-0.3650458,-3.8424728,3.5127864! #0.0,1.1719899,-2.508689,2.158966,3.2222147! 0.0,1.9280429,-3.6174746,-2.1974273,-1.189107! 
0.0,-2.8566608,-2.09445,1.3478807,-0.2978258,1.7878628,2.6745856! 0.0,-1.4334712,1.4831614,-0.7942138,-0.100395426,-0.21989536,-2.6235933! 0.0,-2.4223366,-1.6607423,1.6025848,-1.0607281,0.6244383,-2.6478927! 0.0,-0.3125615,-0.0041534193,0.6747618,-1.8381312,-1.5819459,-0.06878424! #0.0,2.8455615,-0.12621772,-1.2206771,1.6185646! 0.0,-2.5084903,2.089046,-3.9246063,1.165102! 
0.0,-2.8818278,-1.1413918,-1.2206006,2.1932392,0.5430412,0.92861307! 0.0,1.4035788,3.449266,-1.6863313,-1.6158714,-2.2718246,1.0561185! 0.0,0.9157872,-0.8731146,-3.571609,-1.8439789,-0.17191458,-3.1187444! 0.0,-2.9461102,2.4579968,3.244113,2.1007652,-2.4207814,1.8253894! #0.0,-1.4074636,-0.27372554,2.912259,-1.0818458! 0.0,-2.225199,-1.934742,-2.8940191,-1.704438! 
0.0,-2.8178363,-0.6465817,-1.928318,-0.33649397,-3.553069,-1.1973476! 0.0,2.5933962,1.039361,2.5930648,-2.6431317,-1.9322972,-3.0526667! 0.0,2.8325944,-1.4891119,3.9313574,-0.45995808,-0.07338604,3.076589! 0.0,-0.59035015,0.38522056,2.9053373,-2.445138,1.0277315,-0.8136857! #0.0,2.6318812,3.2891529,1.1717035,3.030691! 0.0,-1.3595338,0.75053644,-3.0512178,1.0198324! 
0.0,0.4116578,3.8370254,-1.6962838,-1.87428,3.8057008,0.041754246! 0.0,3.5441637,-3.3812938,-0.25496054,-0.65200853,0.37835565,-1.357346! 0.0,-2.6785173,1.128305,-2.900075,0.7757306,-1.1375465,1.7054029! 0.0,1.8478932,0.90253925,2.793367,0.6809168,-3.02958,3.1816475! #0.0,1.2894605,-3.4431157,-3.6377506,-2.1794572! 0.0,2.5638905,-3.7600894,-1.6380296,-2.0353246! 
0.0,-3.7339096,-3.4981785,2.8412728,1.1988373,1.4480624,2.1536293! 0.0,2.0595436,-2.7388396,-2.3767953,-0.6025586,2.1229954,-2.1660955! 0.0,2.6653862,-3.2662244,-0.7894554,-3.3026066,-2.371014,1.2182984! 0.0,3.3772388,3.6519895,2.7063642,0.07077265,3.2833786,-3.691698! #0.0,1.7459259,-2.2351704,-2.6851873,-1.4912896! 0.0,-1.1634884,-0.76941586,0.1413312,0.382329! 
0.0,0.80792713,2.4947433,-1.3340194,1.9579189,-1.7789273,-1.763989! 0.0,-3.35155,-2.229437,2.6712794,0.31131357,-3.263564,-0.010486603! 0.0,-2.646121,1.420497,0.19995362,3.2453003,1.7028503,0.9171531! 0.0,-1.4725542,3.5884295,-1.5270586,2.3238635,-0.65240985,-3.5271502! #0.0,3.8868244,-3.1729531,0.7240162,-1.8007698! 0.0,-3.508905,2.562588,3.2342038,1.5850824! 
0.0,2.947576,-1.246851,-1.2259159,3.64519,-2.9231567,-1.7469487! 0.0,2.6368709,-2.2399435,2.60476,-2.3005655,2.1195254,-3.0526667! 0.0,-2.8264751,-0.019066334,3.753888,2.017185,-2.4682462,2.639525! 0.0,-3.8554368,2.7777696,3.9533806,1.409122,1.0277315,3.3563967! #0.0,2.7259507,3.320879,-1.1049582,3.4362924! 0.0,1.4985018,-3.637127,-3.3251815,2.2017853! 
0.0,1.307517,-3.5804534,1.3494949,-2.0998182,1.0402765,0.42890644! 0.0,-1.4334712,-2.9154449,-2.913692,2.5065413,2.5100863,-3.2584648! 0.0,-3.148738,-2.302731,-2.6652384,1.1260223,2.7334442,-2.0841799! 0.0,0.68370295,1.2717606,-0.85946226,2.699955,2.4404378,-3.6830883! #0.0,-1.2677369,2.5420098,3.2088194,-0.45385218! 0.0,2.7648098,1.9281592,3.74269,1.0151834! 
0.0,2.8362122,-0.61418295,-0.31346655,-1.3843703,-3.6597924,-2.166666! 0.0,2.9496617,-2.2496357,-3.809397,1.835284,3.0535216,-1.553062! 0.0,1.3754812,1.007142,-2.9967058,0.64621544,2.038798,2.726025! 0.0,0.5049782,3.6696424,0.8847542,-1.3449001,1.8650262,0.9063205! #0.0,1.0356984,2.1494722,2.9136267,-3.5653434! 0.0,-1.7102194,0.1464918,-2.4746888,-0.8885179! 
0.0,-2.5524983,0.36108714,-2.6907184,-1.3168192,1.533561,-2.2654967! 0.0,-1.5079472,-2.5450778,-1.1180669,3.6760287,-3.7440405,1.8656888! 0.0,2.4271207,2.3497972,3.9550018,-3.6571548,-1.3889098,0.47004604! 0.0,-3.0081747,0.0169034,3.4843585,2.5037346,-1.1290886,0.49608326! #0.0,3.5607066,2.1494722,-2.7126732,3.7598782! 0.0,-0.11244305,-1.8188586,-1.1157598,-2.3627224! 
0.0,1.7192845,3.8370254,-2.751378,-1.0362921,2.723988,-0.44913793! 0.0,0.75285995,-0.8595886,-0.25496054,2.345458,-1.8444886,-1.553062! 0.0,-2.4223366,-2.1534605,-2.228458,0.7757306,-1.1375465,1.7054029! 0.0,1.8478932,0.8389864,-0.5511261,-3.0394826,-1.5252061,3.1816475! #0.0,1.2894605,-2.5123334,3.0585868,2.8479586! 0.0,-1.6469108,4.0316257,-1.6380296,-2.0353246! 
0.0,3.2067022,-1.246851,-3.1774714,0.46312046,3.0015943,-1.7956226! 0.0,0.9950955,-2.229437,1.7568693,2.2598212,-3.1073332,-1.1209664! 0.0,-2.8034377,-2.5612524,2.834662,-2.7650986,2.6583495,2.726025! 0.0,2.0102696,-2.275592,3.8786721,-0.10133248,-0.6682661,-3.5094981! #0.0,2.7259507,0.40589333,2.3240895,3.4362924! 0.0,1.4985018,2.0281184,3.9036064,-3.9712186! 
0.0,1.0720754,-1.376029,-0.9176665,-2.1121857,2.145238,-3.0522776! 0.0,-2.0392408,0.8061967,-1.3059797,-2.4161835,2.440565,-3.4044266! 0.0,3.0963259,-3.4932623,-1.6794591,-3.544084,0.32048512,1.5274134! 0.0,-2.3800225,1.3729649,3.1470418,-1.740583,-0.22354269,0.41119528! #0.0,-2.8497531,1.6283438,0.8273978,1.127144! 0.0,-3.1818047,-1.934742,2.2189913,-2.3130038! 
0.0,0.40333176,2.118167,-1.3880577,1.9052157,0.5391078,2.9444103! 0.0,-1.4856932,0.915853,-1.5143609,3.1384263,0.38365936,-3.1779985! 0.0,1.7859011,2.5983524,1.7950244,1.7162905,-3.647899,1.8869418! 0.0,1.4325032,2.816135,-0.5334526,-1.0752907,-1.6386619,-1.1981535! #0.0,-0.7313261,1.5716696,-0.7773938,-3.0416894! 0.0,-0.11244305,-0.45752096,0.67533207,-2.0692298! 
0.0,3.6176867,1.9090803,2.0366004,-1.0362921,0.84171724,0.9758935! 0.0,3.206909,3.4358578,-2.919726,-1.6158714,-2.9766297,-2.5472007! 0.0,1.7078633,-0.3262458,1.776536,0.60344696,-0.17191458,1.3972253! 0.0,2.9285061,-0.65900564,1.8592452,-3.2960982,-2.6191392,3.3563967! #0.0,-1.4795693,-0.2569065,-1.9291787,-1.660435! 0.0,-1.6209655,4.0316257,-3.301909,0.63200474! 
0.0,3.9576955,-0.61418295,0.56048155,2.385131,-0.7451577,2.0906405! 0.0,-3.7325873,-0.6413313,-0.87512445,0.44461632,-3.1073332,2.7128348! 0.0,-2.2564054,-1.2795012,-3.310914,-1.7462363,-1.5299754,2.5498176! 0.0,-3.5807266,2.4729757,1.8940382,-1.2428002,3.9448614,2.186726! #0.0,-0.58096313,2.4434557,-2.8182595,0.803349! 0.0,2.3879533,1.7770796,0.7680702,-2.4852571! 
0.0,-2.5524983,2.8443925,1.0233526,2.0618815,-0.5713552,3.9218864! 0.0,-3.198781,3.726539,-0.25496054,-0.8780122,3.7991862,3.4362512! 0.0,-3.3196416,-2.1534605,2.8246508,3.7351103,-2.3283353,3.543211! 0.0,0.94888544,-1.9862351,-1.177134,-0.656035,-1.5006812,0.66109467! #0.0,-3.1161327,-3.7660952,0.7507763,2.8479586! 0.0,-0.041736126,2.8575168,-1.6380296,-0.68014526! 
0.0,-0.1000433,0.12666991,-2.7465801,-1.87428,1.7413669,-3.42944! 0.0,-2.0676398,-2.9881635,1.9402909,2.5391252,3.8975115,-3.0006433! 0.0,1.3247919,-3.457088,1.637958,-2.3186069,-2.4920511,-1.5633354! 0.0,-0.7301307,1.5709414,-1.6390333,-2.507185,3.9673977,-2.8754826! #0.0,2.9356728,-0.7690525,-3.6377506,2.6015215! 0.0,2.989605,-1.648005,-1.6380296,2.8840227! 
0.0,-2.8566608,3.3373604,-1.1991795,-0.2978258,-3.9422054,0.21408749! 0.0,0.6284065,1.4831614,-0.7942138,-0.100395426,-3.4581404,-2.6235933! 0.0,2.4271207,2.3306632,3.9313574,-1.0607281,1.9967675,-1.1891036! 0.0,0.78405905,-3.4160972,-2.1590009,2.114896,1.9045601,-0.06878424! #0.0,-0.28487253,1.6023784,-1.2206771,-0.23643017! 0.0,-1.9952416,2.1273668,-0.9351897,1.165102! 
0.0,-1.709589,1.2280045,-1.6214714,-3.0266585,-1.7431283,-3.5535207! 0.0,3.1633525,0.5724764,0.034031868,2.6036067,2.668353,-0.7328396! 0.0,0.2986107,-1.6607423,-1.3980498,2.746266,-2.841711,1.2971745! 0.0,3.061963,3.1017966,-0.26957327,0.34671307,2.4164796,0.4920869! #0.0,-0.16093561,-3.3007026,3.5435047,-1.6347417! 0.0,0.68477654,-3.8699312,-0.53270006,1.0151834! 
0.0,2.947576,-2.248231,2.215612,-3.5758371,-1.7749033,2.6913152! 0.0,-2.3682942,-3.5618153,-3.2860484,-1.8173003,-3.9229517,-1.4264556! 0.0,3.0992603,-1.4829769,0.28292087,-0.7413511,1.8116231,1.4380916! 0.0,-1.0117612,2.8568187,-3.7973866,0.28712034,2.4164796,3.3563967! #0.0,0.84641516,-0.29286337,-0.40812492,1.9595317! 0.0,0.47896862,2.0275497,2.5773826,1.0151834! 
0.0,-2.9137774,-0.2768221,-0.7364526,0.8627815,1.7413669,-0.8697033! 0.0,-3.2078156,3.1775346,-2.5103526,-1.0807157,-0.48357773,-0.23819923! 0.0,3.2529423,-3.947791,1.1599245,0.7673745,-2.0353212,0.32900715! 0.0,1.4204168,2.5435252,2.8845868,-1.9198663,1.907217,2.2219367! #0.0,1.791101,1.9760156,-2.5842571,2.8479586! 0.0,1.590982,2.0750644,3.0531898,1.6834631! 
0.0,2.8362122,-2.1185408,1.0699563,-1.3843703,-2.8682852,0.62013245! 0.0,0.46171808,-3.7275834,1.4645224,-2.8346882,3.0320926,2.5075836! 0.0,-3.9132288,1.007142,0.83095074,0.9166918,2.1573172,-0.19214821! 0.0,0.5049782,-0.032144547,2.4461656,-1.3449001,1.8650262,2.9333334! #0.0,-2.4938083,2.1494722,-2.25279,-0.23643017! 0.0,-2.1775875,2.0183978,2.7925444,-3.5115209! 
0.0,3.8786092,1.2280045,-1.7427672,-2.3171656,-1.7431283,-0.49141884! 0.0,2.6960073,-0.62478495,-2.9255395,3.2163959,3.169073,-2.512124! 0.0,0.2986107,1.9890056,1.8596439,1.1260223,2.7334442,3.0865877! 0.0,-3.8922117,-2.457,4.0267215,0.76023036,-2.4383414,-3.6469195! #0.0,-1.2677369,2.5420098,3.0123618,-2.8313777! 0.0,0.70801306,-1.4650341,1.9327867,-2.35669! 
0.0,3.9576955,-3.4952009,-2.6375585,1.1988373,-0.7451577,0.59915066! 0.0,-3.7325873,3.7486386,-2.3767953,-0.6025586,-3.1073332,2.7128348! 0.0,-2.2564054,-1.2795012,-3.9395952,-1.7462363,2.6521962,-1.6043077! 0.0,3.3772388,-0.19395018,-2.1056492,-1.2921786,3.2833786,-3.691698! #0.0,1.7459259,-0.1716919,-2.3324304,3.3778002! 0.0,-1.1634884,-0.76941586,0.6586933,-1.379888! 
0.0,-3.7339096,-1.8026587,-0.7364526,-1.723818,1.7413669,1.5641909! 0.0,2.0595436,-2.7388396,-0.25496054,-0.53150225,-1.6228704,-0.79600877! 0.0,3.2364068,3.219792,1.1599245,0.7673745,-0.53178644,0.23742056! 0.0,0.94888544,3.6687217,2.7063642,0.07077265,3.6774144,0.6793269! #0.0,1.791101,-0.2239418,-2.6851873,-1.4912896! 0.0,2.0352488,2.1214461,-2.8088522,-2.2018073! 
0.0,2.4972944,-1.1038494,1.2082465,2.8972816,0.5391078,2.2588725! 0.0,-2.0878801,3.6099381,2.0476146,-2.8346882,3.7991862,-2.1552823! 0.0,-0.30240858,-3.1859903,-2.5072768,-0.85952955,1.4694357,0.9171531! 0.0,0.12743473,3.2026882,3.1817877,-0.94506216,3.583897,3.5127864! #0.0,2.0910068,-1.6798606,-3.3617747,3.2222147! 0.0,2.6505806,-3.6174746,3.3717885,1.1255648! 
0.0,2.7633913,1.8543409,-3.1774714,2.0388327,3.0015943,-2.6820817! 0.0,0.9950955,1.039361,3.96248,-0.7670319,-2.0843544,-1.8950963! 0.0,2.871542,-1.4891119,2.2618628,-1.0607281,1.9967675,3.1305866! 0.0,0.78405905,-2.6503778,-0.12962365,1.409122,-1.2991571,-3.2553024! #0.0,2.7259507,3.3038776,2.3240895,-0.22303724! 0.0,2.2358773,2.0275497,3.855035,-3.9712186! 
0.0,-3.3297796,-0.8497783,3.341817,-0.43772554,0.5391078,2.8976555! 0.0,2.1779103,-3.7835588,-0.20768976,-2.4552555,2.1195254,-0.06963488! 0.0,1.1747952,-0.33485803,-1.0232916,0.6588683,2.0225668,1.407652! 0.0,-0.86848354,2.9964218,2.5736442,2.0646799,-2.8556666,2.6657944! #0.0,-3.21763,0.59228754,-0.7597227,-3.9215455! 0.0,0.56790257,1.1531868,-2.8940191,0.74002266! 
0.0,-3.5561724,-1.0393476,-1.5366759,-2.642539,1.7878628,2.8410892! 0.0,0.5474066,2.7147582,0.08207989,-3.897493,0.21327353,2.9985523! 0.0,2.1801348,1.6401281,-2.9526224,-2.3648777,-2.0285149,-2.6478927! 0.0,3.998538,-0.040718008,-0.21963358,-0.083450794,0.022536755,2.8409815! #0.0,2.8455615,3.629259,2.7285442,-1.8023205! 0.0,-2.5084903,0.13666059,2.4184904,2.5997906! 
0.0,1.3029432,1.1682496,-0.7364526,-2.1671991,1.7413669,-3.9314995! 0.0,3.3635807,3.1831856,0.024323463,-0.39875937,2.865841,-0.79600877! 0.0,3.2364068,2.5557423,-0.67821455,0.7673745,0.7747836,-2.2911258! 0.0,0.94888544,-0.88928366,2.9267616,-2.7893958,-2.1962614,2.2219367! #0.0,2.8161397,-0.69377327,-1.4956656,1.1420045! 0.0,-3.254769,0.71537733,-2.8004022,-3.6475506! 
0.0,-2.8818278,-0.73088294,-1.0258884,-2.0919533,-1.9811678,-0.72987366! 0.0,-2.6306462,1.039361,-1.3059797,-2.4142203,-2.2718246,1.912889! 0.0,1.6325293,-0.8731146,2.3233428,-1.6799227,-3.6370711,3.0455313! 0.0,-1.5140171,-3.3030748,3.9390683,-0.034668155,-0.6682661,-3.5094981! #0.0,0.9292881,0.44655418,-1.3611593,0.57033396! 0.0,-1.461156,2.556289,-3.6900425,-3.3620815! 
0.0,3.626489,1.1766295,-1.6962838,3.2425265,3.8057008,0.041754246! 0.0,3.5441637,-3.4212723,2.9371939,-0.65200853,-0.5350189,2.988411! 0.0,-2.6785173,-0.90866476,-2.6778607,1.5811777,2.8808799,-0.16006136! 0.0,3.2165842,-0.72775316,3.1105256,0.6809168,-3.02958,2.3824694! #0.0,1.4739914,0.61026907,2.908579,-2.1794572! 0.0,0.99611807,-1.8408487,-3.5987058,1.2048376! 
0.0,-3.906652,1.8991973,2.8412728,3.5763533,-0.8947464,0.59915066! 0.0,2.5905738,3.1575618,-2.9255395,-0.6025586,3.169073,-2.2344027! 0.0,0.26563644,-2.9339309,-0.7894554,-3.3026066,-1.5299754,2.5498176! 0.0,-3.5807266,2.8401403,1.8940382,1.2708087,3.1548867,-3.691698! #0.0,-0.58096313,2.4434557,-0.13106203,1.6882582! 0.0,-1.1634884,-0.76941586,0.6586933,-1.379888! 
0.0,-0.18005419,-2.3804204,0.11375734,3.5592399,1.7413669,2.6696393! 0.0,3.3461108,3.1775346,-0.25496054,-0.3497944,0.07154989,3.4362512! 0.0,0.9366565,-2.1534605,2.8246508,0.7757306,-2.5162742,0.38007954! 0.0,0.5420685,-1.9862351,-2.2299628,-1.8112592,-1.5252061,-3.5229502! #0.0,-0.43548918,2.0276809,0.2719407,2.8479586! 0.0,0.6914191,-3.6487715,1.8097565,3.2031121! 
0.0,3.254471,3.1618133,-1.8439827,-1.3666587,0.45809078,1.487144! 0.0,-1.5543799,2.529148,2.8765335,1.8452454,2.8226032,-3.043654! 0.0,-1.6473956,1.2197452,2.834662,-0.45995808,-3.3059325,3.076589! 0.0,-0.59035015,-0.37162733,3.8786721,-1.937748,0.40834093,-2.7929626! #0.0,-0.3000102,-2.5515814,0.29578018,0.57033396! 0.0,2.709518,2.1918974,0.6700883,3.5624464! 
0.0,3.2067022,1.9029633,-1.1809086,-1.3666587,-2.9231567,-2.9795008! 0.0,2.6368709,0.048743773,2.572945,-1.6308775,-2.272615,-3.043654! 0.0,2.8325944,1.6680945,-1.6449572,-1.8439789,-2.4920511,3.8702683! 0.0,0.55710053,-3.9319987,1.9107981,-2.445138,1.0277315,-3.7572198! #0.0,-0.13852234,3.2992218,-1.1279078,-1.660435! 0.0,0.90682894,2.1918974,3.7642303,-1.2648959! 
0.0,0.8171071,-0.78944516,2.0706348,1.6121957,-1.3765569,0.42556143! 0.0,-1.5063434,-3.2740698,-0.2922063,0.74379444,2.323971,1.4397691! 0.0,-2.646121,0.6110635,2.5951562,-2.866049,-2.118669,-3.5804195! 0.0,-1.4725542,3.5884295,1.9107981,2.487753,-2.0336027,-3.1440191! #0.0,-0.33105496,-3.1729531,-3.2641153,-1.8007698! 0.0,-3.7965074,-1.4019041,3.2342038,-1.3217964! 
0.0,1.3029432,1.1682496,2.188469,-2.1671991,-2.76758,-3.9314995! 0.0,3.3635807,0.9560795,0.024323463,2.4918396,2.5025396,0.77852154! 0.0,-1.486557,0.5803571,-0.67821455,-3.9752002,0.7747836,-2.0841799! 0.0,0.42981148,-2.681357,-1.5005841,0.34671307,3.641427,-1.7116423! #0.0,2.6857753,0.61026907,3.566482,1.1420045! 0.0,2.7648098,0.71537733,-1.7722106,0.6801921! 
0.0,-3.906652,1.8991973,1.4887047,3.6440325,-2.8682852,2.0906405! 0.0,2.57781,0.45814678,-2.9255395,3.2356668,3.169073,-3.056158! 0.0,-0.30737212,-0.8250535,-1.0232916,-2.459982,-1.5299754,0.64837265! 0.0,-0.9200755,2.8401403,2.9053373,-0.40379414,3.1429172,2.186726! #0.0,-0.58096313,1.5532651,-2.8182595,0.803349! 0.0,-1.7103008,1.7770796,-1.8666989,-2.4852571! 
0.0,-2.7891974,1.8890214,1.2021408,0.8394754,-1.5067251,0.06472778! 0.0,-2.6306462,-2.2451727,3.9622915,2.2930644,-3.2575135,1.912889! 0.0,2.1724322,-0.90376294,1.8084065,-2.8289263,3.252483,-2.6805143! 0.0,3.7022374,-3.3030748,-0.7571101,-0.39923048,-0.6682661,-3.3618274! #0.0,-0.31579483,-2.3161726,-3.4150095,-2.7671888! 0.0,3.4559689,-1.9371809,-3.3071842,-1.2648959! 
0.0,3.4120371,-2.248231,2.215612,-0.26193666,-1.6272087,2.6913152! 0.0,-2.334429,-2.3898935,0.16116917,-1.1720946,-1.5523435,-3.6625857! 0.0,3.298934,-0.8797176,3.1420927,-0.7413511,2.7112904,0.345006! 0.0,-1.5140171,-0.02957837,-0.7571101,1.656151,0.24554926,3.5191183! #0.0,1.1719899,-1.5566292,3.300623,2.037766! 0.0,-1.6560597,0.75053644,3.3717885,-1.9190181! 
0.0,-2.7277756,2.902546,-1.4070644,-1.0516114,2.6669612,-3.2869234! 0.0,3.5366669,2.6112757,3.6636424,0.76583815,-0.5007312,-3.760723! 0.0,-2.0227904,3.7011971,2.2775521,2.787582,1.9977379,3.086842! 0.0,-3.083169,2.8881836,-3.9554198,-2.408584,1.5014668,2.5156898! #0.0,-3.396531,1.0001082,-2.7895103,-2.5417953! 0.0,-0.40387774,4.0316257,-3.9710698,-0.121785164! 
0.0,-3.7339096,1.2280045,1.5405002,1.2004819,1.0402765,2.1839042! 0.0,-3.2905288,-2.7388396,0.27057505,-0.9223676,2.668353,-3.2584648! 0.0,0.93937016,3.219792,-2.6652384,1.1352655,-0.5536185,2.6953511! 0.0,0.52235985,3.6687217,2.7063642,0.07077265,2.4404378,-3.6830883! #0.0,-1.2677369,-2.2351704,3.2088194,-1.4912896! 0.0,0.52788794,1.9281592,0.1413312,0.3740295! 
0.0,0.5860393,-2.077397,1.4128022,1.9052157,2.285069,2.9444103! 0.0,-1.4856932,0.96203846,1.119544,-2.3254337,-3.5967844,2.9198368! 0.0,2.2532744,-3.4932623,1.7950244,0.5807345,0.32048512,1.8869418! 0.0,3.751905,3.891201,-0.5379685,3.1145773,-3.1383657,-2.4020517! #0.0,-0.7313261,1.5716696,-2.0960717,3.7930636! 0.0,-0.7736276,-0.06641044,0.1208913,-3.8887753! 
0.0,-0.83556205,-3.897128,-2.6907184,2.37329,-2.3897762,-2.8597207! 0.0,-2.6336558,0.42001265,-1.7567784,1.7175322,0.9098873,1.8656888! 0.0,-3.296526,2.3562148,3.9550018,-1.7691808,2.0225668,0.47004604! 0.0,2.9089484,-2.663497,-2.3299766,-3.0394826,-3.8253176,-2.8469048! #0.0,-3.21763,-2.40242,1.7917328,-1.8357071! 0.0,-2.042809,-0.24236965,-1.1157598,-1.189107! 
0.0,3.6347275,2.6971214,-2.4229224,-2.0538194,0.9675769,-0.4946048! 0.0,3.6551208,-3.9439225,-3.788263,0.53269184,-3.1332264,3.2403922! 0.0,-0.14926004,1.753418,1.2972913,-3.5486512,2.0225668,0.93184155! 0.0,-3.8554368,2.7777696,-2.1948533,-1.576807,0.23846646,-0.1696682! #0.0,1.1719899,1.6261401,-3.2544332,2.315857! 0.0,0.92529774,-0.56042963,1.0487995,2.998888! 
0.0,-1.6970534,-3.8550162,-0.3726573,-1.3666587,-3.5835497,-2.9795008! 0.0,-2.7365718,-3.1202846,0.17538299,0.48429298,-1.5523435,-3.043654! 0.0,3.3449178,1.6857954,2.834662,-2.7505696,-0.48907828,3.086842! 0.0,0.6757207,-0.02847024,2.8670206,-0.28108156,0.40834093,-3.7572198! #0.0,-0.04532385,-3.2370343,3.300623,-0.16416945! 0.0,0.92529774,-0.5989546,-3.4472284,-1.2648959! 
0.0,2.4495888,-0.6465817,-1.6240475,-2.0998182,1.7413669,1.5641909! 0.0,-1.239928,3.4358578,2.1312985,2.4426355,0.3111024,-3.7025697! 0.0,3.6696103,2.7301128,-2.900075,0.7757306,2.1956477,2.740501! 0.0,3.7382402,2.5373545,-0.5320015,0.4172914,-0.95561814,2.1772647! #0.0,-0.43548918,3.3038776,-3.6377506,3.4362924! 0.0,-0.6404605,-0.55888987,-1.6380296,1.0624427! 
0.0,-0.6467047,-2.4428606,0.3997388,-0.43772554,-2.1537385,2.7654142! 0.0,-2.24769,-1.1676946,2.934332,3.6399956,-1.329597,-1.6741457! 0.0,-1.0829872,-0.9502673,2.2704134,-1.1184263,2.8007274,1.9542432! 0.0,0.4412363,0.49237394,-3.531405,-2.944408,1.8747191,-3.5271502! #0.0,1.9541769,-1.0203195,-0.20014429,-1.0043535! 0.0,-3.6282463,-1.5602763,-2.3511505,0.2150774! 
0.0,-3.7550526,-0.9157572,-2.6907916,3.5592399,-3.9422054,-1.9456043! 0.0,0.75285995,1.4831614,-0.94637686,-0.3497944,-0.5350189,-3.0526667! 0.0,-0.6152425,2.2997556,-3.0419302,-2.365715,-3.5700436,-0.16006136! 0.0,3.535388,2.5128868,3.0824022,1.9509773,-1.2386655,3.0072484! #0.0,1.4739914,1.0001082,0.7240162,-0.689785! 0.0,-1.7251234,-1.8408487,3.76375,2.0024738! 
0.0,1.9309616,3.1618133,-0.04299736,-1.3666587,3.6593628,0.02134943! 0.0,-2.6336558,-1.5571665,2.934332,2.313046,-2.272615,-1.9738712! 0.0,1.0039107,1.753418,2.8233652,-1.909121,-3.4878812,-0.4768076! 0.0,-0.5580434,-2.357284,1.4213576,-0.43876743,3.641427,3.3563967! #0.0,3.5607066,-2.5548007,0.29578018,0.7975006! 0.0,0.9104682,-3.0974636,-3.2797291,-1.2648959! 
0.0,1.3639593,0.9973903,-0.3726573,-1.3666587,1.7413669,0.02134943! 0.0,1.5610993,-1.307878,-0.25496054,-3.3056335,0.3111024,-3.0006433! 0.0,3.2364068,0.6110635,-0.8437352,-1.909121,2.6583495,3.8702683! 0.0,-0.5580434,-3.2794616,-1.6390333,-1.897522,0.40834093,-3.3310843! #0.0,-0.3000102,-0.36966515,0.29578018,-0.7791422! 0.0,2.3535755,2.6354685,2.4160733,-1.2648959! 
0.0,2.4752903,2.8288455,-3.1724586,-2.130579,-3.6004684,-3.968708! 0.0,-1.6767242,3.7486386,0.35308653,2.1171372,0.1305046,-3.7484527! 0.0,3.0963259,2.596207,1.6499314,-1.9792452,3.6064253,3.543211! 0.0,-0.8348775,3.325312,2.837924,2.5043502,-3.850698,3.1302497! #0.0,-3.1161327,-2.5123334,-1.1279078,-3.9215455! 0.0,2.5404978,2.0275497,3.76375,-2.3627224! 
0.0,3.1757221,3.1712763,-0.3726573,-1.3666587,0.05995512,-1.6880295! 0.0,-1.5650812,-0.8800235,-1.3059797,-2.8346882,-0.48357773,-0.23819923! 0.0,-1.9588885,3.7988257,0.56372106,3.3134212,-3.1433978,0.32900715! 0.0,-1.5140171,2.5435252,3.8989935,1.3853221,0.40834093,-3.5753412! #0.0,-0.3000102,1.9760156,-2.5842571,-0.22874975! 0.0,1.590982,-0.72008276,3.76375,-2.3627224! 
0.0,0.32186154,3.9548616,3.4702518,-1.3666587,-1.6844618,-2.6820817! 0.0,-1.4854085,1.039361,0.39291567,-0.7670319,3.3382099,3.174264! 0.0,2.4139478,-1.4891119,3.8606436,-0.8630886,-3.2901034,3.1305866! 0.0,0.78405905,-1.1157427,2.276978,-0.94506216,-1.2991571,-3.5094981! #0.0,3.233062,-1.6798606,3.8910942,0.7524619! 0.0,2.2358773,-3.2050455,-2.9029577,-3.3620815! 
0.0,-2.8761296,0.682165,0.03495258,-0.32826853,1.0286419,-2.6820817! 0.0,3.3461108,-3.0355468,1.939879,0.31268215,-1.883069,-1.6927165! 0.0,-0.83232546,-1.2566657,-2.900075,-1.0318451,-3.9119415,-2.9060817! 0.0,3.1863332,0.53904057,-0.26957327,3.0053644,-1.5700711,2.3620152! #0.0,-0.43548918,1.0672946,-2.6402192,3.52255! 0.0,-2.521739,2.834398,2.5573819,-2.0353246! 
0.0,-2.8818278,-0.73088294,-1.0258884,-1.8928012,-1.9811678,-1.6880295! 0.0,2.6368709,-0.8595886,-0.25496054,2.345458,0.3111024,-0.4948163! 0.0,-2.4223366,-0.8731146,1.6825671,3.498304,-1.8688583,1.676769! 0.0,-1.5140171,0.735641,3.9390683,-1.8418837,0.9859514,-3.5589166! #0.0,0.095541,-0.36966515,-3.6377506,2.8479586! 0.0,2.5821152,2.9023538,-1.6380296,-2.0353246! 
0.0,0.1713891,-2.9167256,-0.20009851,-2.0998182,2.1872654,-1.2766356! 0.0,1.4098043,-2.9154449,-0.73449373,1.4525962,2.5025396,-2.8002386! 0.0,-1.945591,3.3427022,-1.2009892,1.8964859,-3.8948529,-3.783181! 0.0,0.68370295,3.1837897,3.9145818,0.34671307,1.5349054,-1.7116423! #0.0,2.7302592,0.61026907,3.566482,-0.97660756! 0.0,3.8146605,1.3382521,0.47099447,0.6801921! 
0.0,2.7633913,-1.246851,-3.1774714,0.46312046,3.0015943,-1.7956226! 0.0,-0.9456772,3.0593314,1.7568693,0.12853959,2.0616179,-1.553062! 0.0,-1.6643112,2.2219787,2.2618628,1.8929148,2.6583495,-2.8578346! 0.0,2.0102696,-2.6503778,-2.3299766,-1.0381823,1.7198973,-1.2742672! #0.0,1.1482286,3.3038776,-2.2342782,3.4362924! 0.0,2.709518,-0.55888987,-0.9067812,-3.9712186! 
0.0,-2.5524983,2.8443925,1.0402079,2.0618815,2.2827983,3.8828619! 0.0,-0.81555605,3.726539,1.7732931,-2.1337113,0.47607386,3.0410047! 0.0,3.4569817,-1.6607423,1.6499314,-0.43451166,3.1554506,3.543211! 0.0,0.77299976,-1.2005289,-1.177134,-2.8943639,3.3357406,0.66109467! #0.0,-0.4637208,-3.337183,-0.43963924,-1.3575282! 0.0,1.4071684,-1.6448293,2.7009315,-0.68014526! 
0.0,0.1713891,-2.9167256,-2.678636,0.24647999,2.1872654,-1.2766356! 0.0,-1.2410669,-3.7275834,-0.73449373,1.4525962,0.76656055,-2.4146452! 0.0,-1.945591,3.3893461,-1.2009892,-1.1184263,2.5869143,-3.1187444! 0.0,-3.592042,2.5128868,3.9145818,1.8361936,-2.4207814,3.0072484! #0.0,-3.2383847,1.0001082,0.6466694,-0.5791354! 0.0,3.8146605,1.3382521,0.47099447,1.9755521! 
0.0,3.6476774,-3.8469312,-3.3343134,-1.0874324,-0.7451577,-1.1973476! 0.0,3.6551208,-2.8373938,3.129571,3.4940305,-1.2840614,-3.6175342! 0.0,2.8359904,1.9890056,-3.9424167,-1.9712294,1.5178249,-1.5546508! 0.0,-3.556673,0.565176,-1.1634343,-1.576807,0.23112932,0.41119528! #0.0,1.2565417,-1.2739085,-3.2467973,-0.95891285! 0.0,0.92618656,-3.2925463,0.7680702,-3.6543283! 
0.0,-0.6467047,-2.4294155,1.2082465,2.8972816,-0.9643742,2.6799805! 0.0,2.5905738,-0.054173164,-3.2860484,-2.8346882,3.169073,2.0933738! 0.0,2.9937592,2.3306632,-2.5072768,2.017185,-3.2901034,-0.7952771! 0.0,1.9169664,2.8717444,-2.1870735,-0.94506216,-3.8093264,3.5127864! #0.0,-3.396531,-1.6798606,-3.2641153,-0.19766378! 0.0,0.92529774,-3.637127,3.3717885,1.9895645! 
0.0,-2.8818278,0.7214583,-2.6907916,-1.9404349,-1.2758727,-3.3355985! 0.0,1.0285921,-2.229437,-1.3059797,3.6108823,-3.4057965,-3.7730646! 0.0,2.9030743,-0.833147,-0.10815768,3.7102203,-3.2901034,-2.199669! 0.0,0.68370295,-0.107002735,1.7398238,-0.033310365,3.5903578,-3.43611! #0.0,2.6857753,-0.19773364,-1.1198502,-0.45385218! 0.0,2.7648098,-1.9899898,1.571372,1.165102! 
0.0,-3.3161578,2.7358084,3.341817,2.8363805,-0.54253674,-3.4836326! 0.0,-2.6336558,-2.9018707,2.935814,3.260634,-1.5308738,-0.06963488! 0.0,-0.14926004,-1.748792,-3.062808,1.1762795,2.0225668,3.0767758! 0.0,3.7351344,3.6860805,-1.754653,2.1007652,1.7520723,2.6657944! #0.0,-3.21763,-1.9102281,2.1078312,-2.7640805! 0.0,2.1308904,-0.5210457,-3.1693025,-0.07853365! 
0.0,2.7633913,-3.197481,0.26205924,2.6761608,-3.9407668,2.9312675! 0.0,-1.4857641,2.529148,0.50254774,-3.276266,2.1195254,-2.2860346! 0.0,1.7152579,-2.899519,-3.7325366,1.104317,-1.12646,2.726025! 0.0,-0.87572944,-0.99576616,3.9690294,2.5043502,-3.1625504,1.6502111! #0.0,-1.4795693,3.3038776,-3.2641153,-1.7174106! 0.0,1.5265665,-3.6730034,2.592187,1.0624427! 
0.0,-2.9185069,-1.2890363,3.8452249,3.61866,0.9372014,-0.49141884! 0.0,-1.5739912,0.048743773,-1.3059797,-2.8346882,2.1195254,-0.7466761! 0.0,3.6459446,3.752908,0.56901217,2.984107,2.7150702,3.8702683! 0.0,-3.8992822,-1.7534943,0.8847542,3.921836,0.40834093,3.7228467! #0.0,-3.1958258,1.6261401,0.29578018,-2.8313777! 0.0,0.92618656,4.0316257,1.6560125,0.005567286! 
0.0,3.8786092,1.2280045,-2.7465801,-1.87428,3.3361936,1.9092088! 0.0,3.1917827,-0.62478495,-2.9255395,-3.361909,-0.93080616,-3.3011408! 0.0,3.2321358,-1.6607423,-2.6379554,-2.7199574,2.7334442,3.0865877! 0.0,-2.2104516,2.2279434,-2.074747,-1.897522,3.7042284,0.56260586! #0.0,3.7522454,-0.19319358,3.0103636,2.8479586! 0.0,-1.6209655,2.1214461,1.0716777,1.0151834! 
0.0,3.4049764,-2.248231,-2.6907184,2.367962,-1.7749033,2.6913152! 0.0,-2.334429,0.42001265,2.1281543,-1.1720946,-3.9963894,1.8656888! 0.0,-3.256465,2.3306632,3.9550018,-1.7691808,1.8246276,0.47004604! 0.0,2.9089484,-2.663497,-3.7973866,-3.4897485,0.19648662,-2.8469048! #0.0,-3.2163618,-2.40242,1.7917328,2.037766! 0.0,-1.6438704,-0.24236965,3.3717885,-1.189107! 
0.0,4.026577,-3.4591424,3.4865432,1.1988373,1.4480624,-1.7932811! 0.0,2.9329567,3.1575618,-1.9671206,2.8537874,2.1202707,-2.2344027! 0.0,-1.1022444,-3.2662244,-0.7894554,-1.8439789,1.3484256,2.076764! 0.0,2.0319273,0.3439148,-2.7867808,-2.3784313,3.2987013,-0.2951691! #0.0,-0.23677903,1.6556501,-0.13106203,3.9932165! 0.0,-1.1625171,-0.76941586,2.2690845,-3.047993! 
0.0,1.3029432,-3.544909,2.218098,-2.1671991,-2.76758,-3.9314995! 0.0,3.3635807,-3.232152,0.024323463,2.3465667,0.7993212,0.77852154! 0.0,-1.486557,3.2820306,0.29852533,-3.9752002,1.0620136,-1.6105633! 0.0,0.42981148,2.659894,-1.3534918,3.0950537,-2.9361882,-1.6542916! #0.0,2.8161397,-0.69377327,-1.4956656,-1.3362703! 0.0,-2.0155854,0.8502865,-1.6151571,-3.6475506! 
0.0,2.4972944,3.1396427,-1.1855197,-3.5365267,-1.3579144,2.2588725! 0.0,-2.0878801,3.6099381,0.09799433,1.0728593,3.7991862,-2.0776772! 0.0,-0.30240858,-0.13120049,-0.07992697,-0.85952955,1.4694357,-1.5059924! 0.0,0.12743473,-3.164585,2.7575998,-2.4215653,3.9528174,-3.7510543! #0.0,2.0910068,3.82439,1.1605163,2.9889925! 0.0,2.6426485,-1.8026085,-3.19134,-1.0454321! 
0.0,2.2892742,-1.1067244,3.4865432,-0.4811415,-2.8682852,3.747459! 0.0,1.4035788,-1.5365701,-3.0757985,0.39939916,0.76656055,3.2403922! 0.0,0.9157872,1.8181915,2.834662,-2.459982,2.9116015,3.9810462! 0.0,1.0708041,-0.45079777,1.6897454,3.8393574,-2.7070808,-3.5000162! #0.0,0.7292731,-0.22577251,-1.9291787,2.7381012! 0.0,2.5236137,-1.8188586,-0.43773842,2.3012342! 
0.0,3.8180273,-3.5804534,1.2021408,-1.87428,1.7413669,1.5251372! 0.0,3.15898,0.5724764,-3.2860484,-3.4011927,2.668353,1.912889! 0.0,-3.148738,0.5803571,2.3233428,0.7757306,2.7334442,1.2971745! 0.0,1.5055143,1.2425512,1.7398238,-1.897522,-0.6682661,0.56260586! #0.0,-1.2677369,2.5420098,-1.3611593,2.8479586! 0.0,0.47896862,2.556289,-0.53270006,1.0151834! 
0.0,-0.6467047,-0.6571274,1.5048411,-0.43772554,-1.6940325,2.7654142! 0.0,-0.92425823,-0.66800517,2.934332,-0.5745568,2.0616179,-2.8330817! 0.0,-1.6643112,2.2219787,-3.5110128,-1.1014494,-2.7098565,-3.0807111! 0.0,-0.9589014,0.35276794,-2.3299766,2.570188,1.7198973,-1.2742672! #0.0,1.1482286,-1.6791078,-2.2342782,2.0068746! 0.0,2.709518,-0.55888987,1.9498525,-3.8809018! 
0.0,-3.0981154,1.2280045,-1.8398886,2.8347063,0.45809078,1.5015112! 0.0,-3.2905288,-2.8498273,3.201527,-0.9223676,2.668353,2.7867188! 0.0,0.93937016,2.7219448,-0.34028673,1.691927,-3.3339274,-0.12461662! 0.0,-2.2104516,1.3004491,0.1926074,2.699955,0.2782383,-3.6830883! #0.0,-1.2677369,2.5420098,-3.336865,0.07314952! 0.0,1.4599514,0.20405388,-3.3069205,3.54843! 
0.0,-2.8178363,3.3373604,-1.1991795,3.6440325,-3.553069,2.7069306! 0.0,-1.4334712,1.4831614,2.60476,-2.6431317,-0.21989536,-3.0526667! 0.0,-3.296526,2.3306632,1.6025848,-0.45995808,0.6244383,3.076589! 0.0,0.78405905,3.6615958,2.9053373,-2.445138,-1.5819459,-2.7929626! #0.0,-0.28487253,0.5160468,-3.5264897,-0.45385218! 0.0,-1.3595338,0.75053644,-1.068017,1.1748997! 
0.0,2.3372023,2.038186,-0.31346655,1.8970795,-3.656058,2.664422! 0.0,-0.34576893,-2.2496357,3.085929,1.835284,-0.30932474,-2.5539227! 0.0,1.2415085,3.3010163,2.1398764,3.6293764,2.4384127,2.726025! 0.0,0.1441164,-0.9218278,1.7679591,-0.7376321,2.900292,-2.0692725! #0.0,0.1580553,-1.2826142,-0.60972977,-3.543423! 0.0,-0.37864065,1.3470994,-2.4602976,2.3216696! 
0.0,2.7103262,-0.72732973,3.6212435,3.788143,2.8554845,-1.6880295! 0.0,1.8074536,-3.7275834,-0.94637686,1.6099272,-2.2451887,1.0428152! 0.0,-0.6152425,2.5491524,-3.0419302,-1.1184263,2.5570626,-3.1187444! 0.0,-3.592042,2.5045743,1.8067942,1.8857913,-2.4207814,3.0551467! #0.0,-1.4074636,-2.5562773,2.912259,-1.0818458! 0.0,-0.50146437,-1.934742,-1.068017,-3.1051278! 
0.0,-2.9004598,-0.61418295,-0.2751766,1.1475979,-0.23379326,-1.6880295! 0.0,-0.38313723,-2.2496357,-1.3059797,2.629521,1.5282488,-1.553062! 0.0,1.3754812,2.4845233,-3.692616,0.64621544,-3.6731157,2.726025! 0.0,-1.0117612,2.7764344,1.7595445,-1.6467447,2.900292,-1.2742672! #0.0,-3.6252272,1.6261401,-2.3324304,-3.590248! 0.0,-2.1852894,2.1315498,3.76375,2.3216696! 
0.0,-2.7277756,-0.2768221,-1.3365995,-1.0083734,-1.36561,-0.8697033! 0.0,0.75285995,-0.08492255,-2.5224428,1.5457182,-0.48357773,-1.484468! 0.0,-1.9840871,-1.6607423,-2.228458,3.3134212,-2.4717968,0.32900715! 0.0,1.4204168,2.5435252,2.8670206,1.3853221,1.907217,1.1950631! #0.0,-3.7533035,-1.9583817,2.2227216,-0.72893816! 0.0,1.590982,-0.72008276,1.8199573,1.6834631! 
0.0,1.9893017,0.19402933,2.215612,-3.5758371,2.2827983,2.6913152! 0.0,-0.78302956,-3.8914847,-3.2860484,-1.8173003,-3.9656148,1.8766824! 0.0,3.0992603,-1.4829769,1.4398403,1.3951076,1.8116231,2.3050666! 0.0,1.4615443,2.1214867,2.949797,2.7956762,-2.2717285,3.6196055! #0.0,0.84641516,0.92257357,-0.43963924,-3.581388! 0.0,-0.5978184,-3.7415009,3.773643,-0.74174166! 
0.0,1.2697903,-1.2133478,-3.1774714,0.46312046,3.0015943,-1.763989! 0.0,0.9950955,-2.229437,1.7568693,0.36041752,-3.1073332,1.0561185! 0.0,-1.9739838,1.4305538,2.2147064,1.8929148,2.6583495,0.9171531! 0.0,0.09984121,-2.6503778,3.9533806,1.409122,-0.65240985,-3.2553024! #0.0,2.7259507,3.3038776,2.3240895,3.4362924! 0.0,-3.508905,2.556289,3.9036064,1.5850824! 
0.0,2.7633913,3.039527,0.26205924,-1.3666587,-1.9811678,1.8878983! 0.0,-1.4857641,2.5385046,0.50254774,-3.3056335,-2.272615,-3.043654! 0.0,1.7152579,0.6110635,2.8360062,-1.909121,2.6457794,1.4741467! 0.0,-0.5580434,-3.9319987,-0.8053551,-0.41970503,0.40834093,-3.5143876! #0.0,-1.4898144,3.3038776,-3.2641153,3.4362924! 0.0,1.4992015,-3.0974636,2.592187,1.0624427! 
0.0,-1.1802502,-3.118003,1.4887047,3.6191044,1.533561,-1.1973476! 0.0,-1.5765953,0.9007085,2.60476,-0.3497944,0.9098873,-2.2860346! 0.0,2.8325944,-0.8731146,-0.03366518,-1.9712294,-2.4920511,0.64837265! 0.0,-0.8348775,0.39620426,2.9053373,2.5037346,1.0277315,-0.09598851! #0.0,-2.9177923,-3.1788502,-3.2450094,-1.8390074! 0.0,-1.3595338,2.7790422,-3.347101,2.4583318! 
0.0,2.947576,-2.4294155,1.1633173,1.1037354,-3.9422054,-2.1313722! 0.0,-1.5063434,-3.611174,-3.2860484,-2.091408,1.985177,-2.3282862! 0.0,2.9937592,-0.019066334,1.776536,3.599909,-0.20158467,2.2836816! 0.0,-3.8554368,2.7777696,-2.3299766,3.7413342,-3.8402088,3.3208287! #0.0,1.2565417,-2.5089996,-1.1766891,-0.19766378! 0.0,1.9280429,-3.637127,1.836524,-1.189107! 
0.0,2.3666925,-0.4890534,-0.3726573,-3.034092,-1.4320645,-3.968708! 0.0,-0.77310085,0.036226615,-3.5390277,3.7480369,-3.2293148,3.4534574! 0.0,-1.7692256,1.1962396,1.776536,-1.4116397,-2.9437711,-1.7895777! 0.0,3.7017956,1.3414922,-3.4281967,0.5424776,2.224999,-3.3618274! #0.0,-1.3094244,1.7858939,-3.4150095,-2.7671888! 0.0,3.4559689,1.628304,-3.3071842,-0.7066698! 
0.0,2.8362122,0.7214583,-2.3961391,-2.6444082,-1.1460202,0.18038759! 0.0,3.5178018,-1.0970535,2.1895337,-2.8346882,-3.4581404,2.077568! 0.0,0.82496256,-0.833147,3.9313574,2.56219,1.9967675,-2.199669! 0.0,0.78405905,-3.4160972,1.8645039,2.403294,1.9459971,-1.2742672! #0.0,1.2565417,1.6023784,2.2415726,-2.8570008! 0.0,-0.6123681,-3.112594,1.8631516,1.165102! 
0.0,3.2067022,3.1263285,-2.7177498,-0.8439588,-1.1855774,2.8410892! 0.0,-0.82405233,2.6984205,-0.25496054,-2.8346882,0.21327353,2.9985523! 0.0,3.2364068,1.6401281,-2.9526224,-2.3648777,-3.1843333,3.8702683! 0.0,3.998538,3.21129,-0.17090783,-1.897522,-1.5252061,2.8409815! #0.0,0.47921753,-0.36966515,-3.6377506,-1.8023205! 0.0,1.2190766,2.1214461,2.4184904,2.5997906! 
0.0,2.6750703,3.1140308,-1.2206006,0.4392642,-3.3557825,0.9481268! 0.0,-1.7014537,1.039361,3.96248,2.268444,1.095437,3.8453145! 0.0,-1.2858808,-1.0850973,2.834662,-1.1184263,-1.7349852,-0.5029707! 0.0,1.7282615,0.2194395,1.1196909,-3.2234917,1.1834431,-3.5094981! #0.0,3.723781,0.41185272,2.4135973,0.34171677! 0.0,-3.6282463,-2.425644,1.0243754,0.39785767! 
0.0,-3.952586,-0.58828115,2.9492733,-0.025279045,0.37999868,-3.4678326! 0.0,2.6368709,0.45113516,2.9845686,-0.15704843,-1.2840614,2.047204! 0.0,-0.30952597,-0.5179758,-0.25911522,-0.8439145,-1.1696806,2.6935067! 0.0,-1.0117612,-2.663497,-1.5959173,0.013208628,-3.8424728,-0.3020172! #0.0,-1.5287409,-3.1882834,3.0491538,-3.8738542! 0.0,-2.0103607,1.1674253,1.8672161,0.591609! 
0.0,4.026577,-0.6465817,-2.2654698,0.07083893,-1.9811678,-1.1973476! 0.0,-1.5424814,1.039361,-1.266355,2.315053,1.3899083,1.522017! 0.0,3.384876,0.11044836,3.9313574,1.4736629,1.753047,3.7575803! 0.0,3.6331491,2.186759,1.5841713,-3.498899,-3.724815,-0.80354595! #0.0,2.6318812,0.6064677,-2.945622,2.9889925! 0.0,-0.8871044,-3.141508,-3.0512178,1.2226701! 
0.0,-1.1061453,-1.1038494,-3.859867,1.8697996,-3.824686,3.747459! 0.0,0.5400649,-2.554515,-3.2860484,0.12853959,2.0616179,-1.553062! 0.0,-1.7027364,2.5320582,1.776536,1.062764,-2.6996748,-2.8161943! 0.0,-3.8549244,-2.3643274,-2.3299766,-1.0381823,1.7198973,-1.2742672! #0.0,1.3110429,0.55474395,-3.953827,-0.45385218! 0.0,1.9280429,-0.55888987,3.3667946,-2.3413813! 
0.0,-2.8761296,0.6837985,-0.8704611,-2.1121857,2.1110594,-1.721448! 0.0,-0.36809596,1.4831614,3.7563882,-2.4161835,2.8777657,2.7128348! 0.0,3.137898,-0.8731146,-3.7017713,-0.16818619,-3.6731157,-0.83653116! 0.0,-2.3800225,3.2949076,3.1470418,-0.31630707,4.003187,1.2130322! #0.0,-0.28487253,1.6566613,2.5950089,-0.95891285! 0.0,1.0744768,-1.934742,-2.8867002,-3.6798353! 
0.0,-2.8566608,3.3373604,-1.1991795,-1.3843703,-3.9422054,2.736696! 0.0,-1.4334712,-3.7275834,0.055434536,-2.8260992,-0.21989536,-1.2643485! 0.0,-3.9132288,1.0008107,-3.0816453,0.9166918,2.038798,-2.9060817! 0.0,0.78405905,3.6615958,0.8847542,-1.363033,-1.5819459,-0.06878424! #0.0,-0.28487253,0.5160468,-1.2206771,-0.22303724! 0.0,-1.7102194,2.089046,-0.9351897,1.1867503! 
0.0,2.961594,-3.7837825,-1.5366759,-0.86702394,-1.1855774,-3.9501991! 0.0,-1.6132449,2.6984205,0.33904222,1.5680449,0.1305046,2.9985523! 0.0,0.80527353,1.6401281,-2.9526224,-2.3648777,-1.5299754,-3.076562! 0.0,1.4669377,0.35276794,3.7097218,-0.083450794,0.14739418,2.8409815! #0.0,0.47921753,3.629259,2.7510667,-3.9215455! 0.0,1.2190766,1.9946656,2.4184904,2.5997906! 
0.0,2.4972944,-2.812581,-1.1855197,-3.5365267,-1.1867943,-3.0522776! 0.0,-2.0392408,0.8061967,2.0476146,1.0728593,2.4504793,-3.4044266! 0.0,-2.0783296,-3.1859903,3.8587298,0.601665,0.32048512,1.5274134! 0.0,0.12743473,1.3729649,-0.57512856,-2.4215653,-0.22354269,-3.7510543! #0.0,2.0910068,3.82439,3.043785,-2.943801! 0.0,2.643527,-3.5304937,-3.19134,1.077055! 
0.0,2.7633913,-1.246851,-0.6523559,-3.7739363,3.0015943,-1.7956226! 0.0,0.9950955,3.0593314,2.9769425,-2.3005655,-3.1073332,-2.0637364! 0.0,-2.8034377,1.3990116,2.2366047,1.8929148,2.6583495,1.9646277! 0.0,1.9174747,0.5996275,3.9533806,1.409122,0.22465706,-3.2553024! #0.0,3.0550346,-2.9915428,2.3240895,0.66010666! 0.0,3.0399399,1.9580607,-1.86269,-2.4450383! 
0.0,-2.1604824,2.7205052,1.0699563,-0.43772554,0.6295662,-0.9751406! 0.0,-0.16496086,2.9845858,2.2616963,2.3280144,-1.3600211,-1.23162! 0.0,-1.0553217,3.6463876,2.8592706,0.26639557,-1.5800352,1.4366388! 0.0,0.5049782,0.01866293,2.6670527,-0.42251205,-3.5613966,2.9830992! #0.0,-3.895853,1.5532651,2.9136267,2.3749857! 0.0,1.7861934,-2.7628279,-1.8838788,0.92180634! 
0.0,3.626489,-0.9157572,-2.6907916,-3.0867808,1.4480624,-2.6820817! 0.0,-1.4334712,1.4831614,-2.3767953,-0.6025586,-0.5350189,2.9720876! 0.0,1.2397418,-0.8731146,-2.6778607,-2.365715,2.8808799,1.2182984! 0.0,3.3772388,-0.19395018,-2.79284,1.9509773,3.2833786,2.4245467! #0.0,1.4739914,0.61026907,2.908579,1.2399473! 0.0,-3.508905,-1.8408487,0.6586933,1.165102! 
0.0,-2.5524983,3.9548616,-0.04299736,2.0932157,-0.5367718,3.9218864! 0.0,-1.4854085,-2.548672,-0.14217281,-0.12188617,3.3382099,3.174264! 0.0,-3.3196416,-1.6607423,-3.1660504,-0.8630886,-3.2901034,3.543211! 0.0,3.6696188,-1.1157427,2.276978,-0.94506216,3.641427,0.667657! #0.0,-3.1161327,-1.6798606,3.8910942,-3.835522! 0.0,0.8878591,-3.2050455,-3.3234324,-0.68014526! 
0.0,-3.7339096,0.686429,1.5405002,-3.0266585,1.0566998,2.1839042! 0.0,2.0595436,-2.7388396,0.034031868,2.6036067,-1.6228704,-0.7328396! 0.0,2.3368325,3.219792,-0.66623294,2.873847,-0.53178644,2.6953511! 0.0,3.0189862,3.6687217,2.7063642,-0.99989176,0.29932308,0.71414614! #0.0,0.6754818,-3.3007026,-1.998498,-2.5436058! 0.0,2.0352488,-3.8699312,0.43126774,-1.5784125! 
0.0,-3.445157,0.104741566,0.24277273,3.738955,-1.3075942,1.9587836! 0.0,0.59308577,-2.6508045,2.1431358,3.6108823,-3.1332264,-3.7024677! 0.0,-1.9582707,-0.38498384,3.9313574,2.4172058,-2.4717968,-2.199669! 0.0,0.5608948,-0.72830534,3.3015275,3.1145773,3.5903578,-1.7078916! #0.0,1.4739914,3.284767,0.003212452,-0.8464823! 0.0,-0.6123681,-1.9896231,-0.294302,3.3388839! 
0.0,0.16322899,-1.1413918,-3.3188868,2.1932392,0.84171724,-1.51303! 0.0,1.4035788,-3.5618153,-1.3472109,0.6302085,2.1195254,1.0242376! 0.0,-1.8353043,1.8181915,3.7729988,0.6776312,-3.6731157,2.5187955! 0.0,3.977766,3.337918,2.4840956,-3.2304296,-2.5949154,-1.774756! #0.0,1.4655623,-2.340775,-1.9291787,1.5618353! 0.0,-1.9188962,-1.934742,2.9705348,0.63200474! 
0.0,0.40779066,3.8528876,1.3086419,-1.723818,1.7413669,0.7600665! 0.0,3.3461108,-0.8829274,1.5979117,3.244691,-3.0964253,-0.7693997! 0.0,3.2364068,0.40462255,1.1599245,0.7673745,-1.1375465,-3.491528! 0.0,0.94888544,-0.8199172,-0.6435833,-1.919713,-3.2400098,-2.1226354! #0.0,0.67448854,-0.16869552,-0.4293292,2.8479586! 0.0,0.9861584,2.1214461,3.8010273,-2.2018073! 
0.0,1.0720754,3.659389,-1.050415,-0.48403978,2.310186,3.747459! 0.0,-1.4335877,-2.452784,3.8541126,-0.20812225,-1.5149884,-0.36770916! 0.0,-2.0446637,0.8674736,-1.6543455,0.05845202,-1.3591084,-2.3944209! 0.0,-0.9582684,3.2949076,-0.4242282,-1.8112592,3.1690776,-3.5753412! #0.0,3.0355446,-3.5221434,-0.49730778,-3.8907316! 0.0,-2.5198917,0.75053644,-1.2480121,-2.3872213! 
0.0,-2.5524983,0.3369904,-3.1774714,-0.3309126,1.5289075,-2.8742378! 0.0,-1.1232677,3.4358578,-1.1180669,2.4426355,1.6473105,-3.6923962! 0.0,3.6696103,2.7301128,3.9550018,-1.7691808,-3.8416514,3.6505165! 0.0,-0.8348775,-2.70436,3.5237188,-2.4215653,-2.2113395,3.8100276! #0.0,-2.9177923,3.3038776,2.8351371,3.4362924! 0.0,2.5404978,-0.55888987,-1.1157598,-2.3229399! 
0.0,-2.8818278,2.8169508,-0.3726573,-1.3666587,-1.9811678,1.7091558! 0.0,-1.5543799,0.048743773,-1.7824335,0.31131357,-1.2840614,-2.0263522! 0.0,-0.25731415,-1.0455642,-1.6449572,-0.6423869,-1.7542257,2.5492487! 0.0,-3.8554368,-3.1822703,3.8786721,0.34671307,0.40834093,-3.7572198! #0.0,1.0043511,-0.1716919,-0.66593325,-2.8570008! 0.0,-0.26566982,-0.298419,1.8672161,-2.462798! 
0.0,1.8047256,-0.61418295,-2.6433604,-0.18951273,-0.7451577,2.9312675! 0.0,-0.81611085,3.7486386,-0.87512445,0.72345114,-0.6277704,2.7128348! 0.0,-1.9069037,-1.2503515,-2.9950457,-3.2640147,2.6521962,-1.6043077! 0.0,-2.8930864,2.4729757,-2.1545508,-0.6495714,3.9448614,-3.419499! #0.0,-0.20459235,-0.1716919,-0.96595,3.3778002! 0.0,-1.4568086,-3.2925463,0.7680702,2.3524857! 
0.0,2.2892742,-2.3420787,-0.8939871,-2.094902,2.9687934,-3.1215324! 0.0,0.9950955,3.1775346,-0.25496054,2.2793808,-3.1073332,-0.36770916! 0.0,3.0992603,3.7988257,-2.228458,-0.79651827,2.1590338,2.626295! 0.0,0.91284704,1.2403922,-2.8137858,1.804254,1.3245578,-3.5753412! #0.0,-0.43548918,-0.36966515,-0.90991896,-0.19766378! 0.0,1.4985018,3.9810748,3.8904827,-2.0353246! 
0.0,2.3372023,-3.197481,-1.4731617,1.2004819,1.0402765,2.9312675! 0.0,-3.2905288,-2.8498273,-0.22777843,-3.276266,2.6209219,-3.2584648! 0.0,-3.3196416,-0.14922905,-3.7325366,-0.45261288,2.7334442,2.726025! 0.0,-2.2104516,1.3004491,-0.85946226,2.699955,2.4404378,1.6502111! #0.0,-1.2677369,-1.4659004,3.2088194,-1.7644446! 0.0,-0.7439137,-1.6448293,-2.4602976,1.0151834! 
0.0,2.596115,3.4233708,-0.04299736,-1.3666587,2.6669612,2.955461! 0.0,3.5366669,3.39882,0.7712002,-2.760302,-3.4896674,-0.9049344! 0.0,-2.0227904,-1.6942825,-1.5340371,2.914415,1.9977379,1.4380916! 0.0,-3.083169,-1.1157427,0.7312918,-2.408584,-0.6682661,3.3563967! #0.0,2.6767395,-0.42903757,3.8910942,-2.5417953! 0.0,1.5359923,1.2816092,0.9652424,3.5585246! 
0.0,-1.2132306,1.004652,1.1633173,0.8609452,3.7106423,-0.13178554! 0.0,-2.6306462,-2.2496357,-1.7567784,3.260634,-1.2707766,2.2986784! 0.0,-1.3631411,3.3010163,-2.530829,3.599909,2.4384127,-0.6401248! 0.0,-0.3728218,2.3487616,-2.3299766,-0.37423825,-3.8424728,2.6657944! #0.0,1.2565417,-2.508689,-3.6833186,2.8511958! 0.0,1.9280429,-0.55888987,-2.1974273,1.8728197! 
0.0,3.6476774,1.8890214,3.341817,3.6281831,-0.4689753,-3.3916662! 0.0,0.0060379617,-3.9439225,1.5979117,3.260634,2.1195254,-0.06304766! 0.0,2.1724322,2.7104874,1.6825671,-2.8289263,3.252483,-2.6805143! 0.0,3.751905,0.36121416,3.244113,-0.39923048,-0.6682661,2.6537852! #0.0,2.100181,-2.3161726,-1.3611593,-2.7640805! 0.0,-1.461156,0.7622614,-2.8940191,-2.3145177! 
0.0,-2.8761296,0.70142126,-0.46556997,2.3485208,-1.2758727,-3.6964006! 0.0,3.5178018,-2.6508045,2.1895337,0.44461632,2.8777657,2.077568! 0.0,0.8354907,-0.833147,3.3189135,-0.16818619,2.8808799,3.4077344! 0.0,0.78405905,-0.11941481,3.3015275,-0.31630707,3.5626967,2.4245467! #0.0,1.2565417,-0.9547305,-1.1198502,-0.95891285! 0.0,1.7695513,-1.9899898,1.8631516,-3.6543283! 
0.0,-3.7339096,3.8528876,1.5405002,-1.9042944,-0.331769,0.8056968! 0.0,1.8180223,-0.8829274,0.27057505,3.244691,0.21959604,-2.1898756! 0.0,1.9069691,3.219792,-2.6237574,2.8903587,-1.1375465,-3.491528! 0.0,0.52235985,3.6687217,2.7063642,3.5544252,-3.218698,-2.1226354! #0.0,0.6754818,-0.16869552,-2.6851873,-1.4912896! 0.0,2.0352488,-0.52054834,3.8010273,0.024614278! 
0.0,1.9975829,-1.376029,-1.4341807,0.46312046,-3.894146,-1.7956226! 0.0,0.9950955,3.0593314,2.7263198,-2.3005655,2.440565,-0.36770916! 0.0,1.57306,2.2666674,2.2618628,-0.8689704,-0.5315605,2.917106! 0.0,-1.8116913,-2.6129677,3.9533806,-0.67633295,-0.6682661,1.9757053! #0.0,1.0655354,3.3038776,2.3240895,2.6181655! 0.0,1.4985018,2.0275497,3.9036064,-4.0090656! 
0.0,4.026577,-1.4510131,3.4881568,1.3400116,-1.9811678,-3.194007! 0.0,-2.3246536,-2.452784,-2.4512815,-2.9986792,-1.9323323,1.0561185! 0.0,3.384876,-1.4891119,2.834662,-1.8439789,0.8749466,3.1305866! 0.0,1.9169664,0.35276794,1.3378977,-2.3784313,3.641427,0.5010532! #0.0,2.6343713,-2.3847985,2.2965875,3.4071248! 0.0,0.92529774,2.1559181,0.9652424,1.0624427! 
0.0,-0.6467047,0.12666991,-1.1569811,-3.5758371,3.0823894,-2.3310175! 0.0,-1.7260168,-2.785046,1.5620949,1.5442206,3.161316,-1.0549173! 0.0,1.2088447,2.2666674,1.4873495,0.15146971,-1.2917585,-2.670914! 0.0,1.4669377,-1.0331273,-2.8774748,-1.7886537,0.038437366,-3.1440191! #0.0,-0.7313261,2.810783,2.3395824,2.1975682! 0.0,0.31859267,-0.05785942,-0.31781673,-2.0433993! 
0.0,3.196566,0.092850685,-3.3381236,-3.1078844,2.1268115,-3.5155938! 0.0,0.30953407,0.9531478,2.746935,-1.331368,-3.229758,1.0981574! 0.0,-0.3271842,-2.8021789,3.7246962,-2.8236594,2.9116015,3.086842! 0.0,-1.3142395,1.7463527,2.8670206,2.6234035,-0.36134768,-1.6964393! #0.0,-2.1432257,-0.25305602,1.7148829,-1.0858369! 0.0,-2.2760549,-1.8026085,-0.3958702,0.6719928! 
0.0,2.6830893,3.8528876,1.5300621,-1.9259852,-3.1587725,0.06472778! 0.0,1.8180223,0.45814678,-3.0757985,2.313046,0.21959604,-0.5303588! 0.0,1.9069691,-0.8458433,-2.6237574,-2.459982,-1.1394172,0.64837265! 0.0,3.3838267,-2.6524272,2.9053373,-1.8281989,-2.7070808,3.0072484! #0.0,-3.9465523,-0.16869552,-0.4339182,2.8104053! 0.0,-1.7103008,1.2529831,-1.8666989,2.9182434E-4! 
0.0,-3.7948737,3.1618133,-0.3726573,0.5433607,-1.9811678,0.02134943! 0.0,-0.29816437,2.644827,-0.87512445,1.0618939,-2.9447541,-3.043654! 0.0,-3.2744493,0.6110635,2.7991998,2.047327,2.6583495,3.8742445! 0.0,-0.5580434,-3.9319987,3.8786721,-0.43876743,0.42867514,3.3696299! #0.0,-0.3000102,-1.6798606,-3.735878,-0.7791422! 0.0,-0.99512005,-3.7754986,-3.8699684,-1.4024858! 
0.0,-0.91180706,-3.8469312,-0.98095083,3.365766,-3.9422054,-1.1973476! 0.0,3.15898,-3.5618153,-1.2954904,-3.361909,-1.2840614,-1.553062! 0.0,0.80527353,1.9860504,-0.03366518,1.1260223,1.4962729,1.2971745! 0.0,2.1359062,-2.490405,-1.4148055,0.28712034,2.3881528,0.41119528! #0.0,-1.2677369,-1.2739085,-0.40812492,1.9595317! 0.0,0.92618656,-0.298419,2.5773826,-2.3627224! 
0.0,1.3639593,0.9973903,-2.6907184,-1.87428,1.7413669,1.5641909! 0.0,-2.6336558,2.2664065,-0.28204304,-0.8780122,0.9098873,1.8656888! 0.0,3.2364068,-2.1534605,-0.8437352,-1.7691808,2.0225668,0.47004604! 0.0,2.9089484,-2.663497,-2.3299766,-1.897522,-1.5252061,-3.3310843! #0.0,2.923605,-2.40242,1.7917328,2.8217936! 0.0,-2.042809,2.6354685,2.4160733,-1.189107! 
0.0,0.44885007,3.1263285,-1.6962838,-1.3666587,3.8057008,0.041754246! 0.0,3.5441637,-3.3516665,-0.25496054,-2.8346882,0.33653307,-1.357346! 0.0,3.2364068,1.2197452,0.40252686,0.7757306,-3.1433978,3.8702683! 0.0,-0.59035015,0.92381465,3.8786721,0.6809168,-3.02958,-3.7572198! #0.0,-3.5602145,-3.4431157,-3.6377506,0.57033396! 0.0,0.99611807,-3.7600894,-3.2797291,0.015030384! 
0.0,3.6476774,0.5224509,-0.46556997,-1.0874324,-0.7451577,1.9092088! 0.0,3.6553712,-0.62478495,-2.9255395,3.4940305,-0.93080616,-2.8330817! 0.0,2.8505962,-1.6607423,-3.9424167,-2.5342727,1.4752445,3.0865877! 0.0,-3.556673,0.59616303,-1.1560907,-2.0874434,3.750705,-3.5271502! #0.0,3.734783,2.3813474,-3.2467973,-0.95891285! 0.0,-1.6209655,4.0316257,1.0716777,2.3012342! 
0.0,2.4972944,0.9973903,-1.1855197,1.2326069,-1.3579144,1.5641909! 0.0,2.8638072,2.2664065,-0.25496054,0.64636564,3.8449929,-2.9808693! 0.0,3.2364068,-2.1534605,-0.8437352,0.82235897,1.3527575,0.06358671! 0.0,-0.7393136,-2.1120474,-1.6490304,-1.897522,-1.5252061,-3.3310843! #0.0,3.7969546,0.6368809,2.4037552,2.9889925! 0.0,2.3739884,2.6354685,-3.19134,-1.0454321! 
0.0,-2.8566608,3.3373604,-1.1991795,-0.2978258,2.6964161,0.7600665! 0.0,2.6368709,1.4831614,-0.7942138,-0.100395426,-0.21989536,-2.6235933! 0.0,-3.3372953,2.3306632,1.6025848,0.7757306,-1.1678884,-2.9060817! 0.0,1.8478932,3.6615958,-2.1590009,-1.8418837,-1.5252061,3.1816475! #0.0,-0.28487253,0.5160468,-1.2206771,-0.20615084! 0.0,2.5638905,-1.8188586,-1.6380296,1.165102! 
0.0,0.40779066,3.8528876,1.3086419,-3.5365267,3.6593628,0.7600665! 0.0,-2.6336558,-0.8829274,1.5979117,2.2911835,-1.3186646,-1.9738712! 0.0,1.9069691,1.753418,-1.047035,-0.8630886,-1.1375465,-0.4768076! 0.0,3.3838267,-2.6524272,-0.6435833,3.5544252,-3.2400098,2.7011776! #0.0,3.5607066,-0.16869552,-0.4339182,2.8104053! 0.0,0.9861584,2.556289,3.7763317,0.012338787! 
0.0,-2.8818278,-0.72732973,1.2914346,-1.9404349,-3.015103,0.43747583! 0.0,0.6198118,-2.229437,1.4126968,0.21064328,0.29185247,-3.7730646! 0.0,2.9030743,1.4463415,-0.09500606,-1.3214612,0.80854475,0.7429568! 0.0,0.93491364,-0.107002735,1.7398238,-0.033310365,0.32421002,-3.45946! #0.0,-1.3537416,-0.19773364,1.2735112,-0.45385218! 0.0,2.7648098,-2.1149063,-1.5041947,1.9512725! 
0.0,2.3006945,1.9184822,-1.0258884,-2.0919533,-1.2758727,-0.72987366! 0.0,-1.8733497,1.039361,2.1895337,2.2930644,-2.2718246,1.0561185! 0.0,1.6325293,-0.8731146,3.2697961,-1.6799227,-1.8688583,3.0455313! 0.0,-1.5140171,-3.3030748,3.2705595,2.6444619,0.96002,-3.5094981! #0.0,0.8865752,-0.9547305,0.003212452,-0.8464823! 0.0,-2.2491355,-1.9899898,-3.6900425,-3.3620815! 
0.0,2.7945154,-0.6465817,0.24277273,-1.7510186,-1.9811678,-1.1973476! 0.0,-1.5424814,1.039361,1.2958442,1.4563595,-3.1332264,-3.6643896! 0.0,-1.9739838,-1.4891119,3.9313574,-1.8439789,2.1590338,3.1305866! 0.0,-0.59035015,0.38522056,-1.6021912,-3.498899,-1.5252061,1.7792597! #0.0,-0.45767376,0.40589333,1.1717035,2.8479586! 0.0,2.598503,-3.1521804,-0.294302,1.0198324! 
0.0,3.626489,-1.246851,-3.1774714,0.46312046,-3.9422054,-1.7956226! 0.0,-1.4334712,1.4831614,-1.3370148,-2.3005655,-0.5350189,2.9720876! 0.0,1.2397418,1.3915817,2.2618628,-2.3169127,2.6583495,2.6092982! 0.0,3.535388,-2.6503778,3.0824022,1.409122,-0.6682661,2.4245467! #0.0,1.4739914,0.62288547,2.908579,3.4362924! 0.0,-3.508905,-1.8408487,3.9036064,1.165102! 
0.0,1.7192845,1.2280045,-2.7465801,1.4772508,3.8416188,-1.2686362! 0.0,3.15898,0.5724764,-0.25496054,-3.361909,-0.4815359,-3.3011408! 0.0,3.5700805,0.9194417,3.6443925,0.7757306,1.4473543,0.29957008! 0.0,-3.8283334,1.2425512,1.4213576,-1.897522,2.4164796,0.56260586! #0.0,-1.2677369,2.5420098,-3.686654,2.8479586! 0.0,0.47896862,2.1214461,0.849435,2.3199127! 
0.0,-1.6277072,-0.7746097,-3.148809,1.6556997,-1.3765569,-1.51303! 0.0,-1.5063434,-3.2865047,-0.2922063,0.6302085,2.3401372,1.4397691! 0.0,-1.8353043,0.6110635,3.7729988,-1.0636878,-2.118669,2.5187955! 0.0,-3.8554368,2.8236818,1.7430263,3.882011,-2.0336027,-3.642033! #0.0,-0.33105496,-1.6798606,-3.2641153,1.5618353! 0.0,-3.3828976,-1.4008489,2.9705348,-1.3423228! 
0.0,2.947576,2.7205052,-1.8398886,3.620048,0.45809078,1.487144! 0.0,-3.4134102,-1.5386549,0.10457419,1.8452454,-1.3600211,2.8281431! 0.0,-1.6473956,2.7136557,-3.310914,-0.08017622,-3.4878812,2.552046! 0.0,-0.5688448,-0.37162733,3.5021544,-1.0381823,1.4690213,-2.699119! #0.0,-1.6005006,2.411868,-3.2196832,0.026206493! 0.0,1.7765871,0.20405388,-3.3069205,3.54843! 
0.0,-0.83556205,1.1766295,-1.6962838,3.2425265,-2.3897762,-2.8771763! 0.0,3.5441637,-3.3812938,-1.7567784,1.7175322,0.8733285,1.8656888! 0.0,-3.296526,1.128305,3.9550018,1.5811777,-0.03869438,-2.5486503! 0.0,2.885448,-2.663497,2.793367,0.70419353,-3.0737147,-2.8469048! #0.0,-3.21763,-2.40242,-1.1678481,-1.8357071! 0.0,-2.042809,-0.24236965,-3.5987058,-1.189107! 
0.0,-2.8818278,-0.6465817,-3.1774714,-1.9404349,-3.8742566,0.42890644! 0.0,1.0285921,3.4358578,2.1312985,0.21064328,-2.0843544,-3.7922912! 0.0,3.6696103,2.7301128,2.7332225,-2.7975821,-3.8708158,3.6505165! 0.0,0.68370295,-0.107002735,1.7398238,-2.4215653,-2.2113395,-2.7880325! #0.0,-2.0923715,3.3038776,1.3030286,-0.45385218! 0.0,2.7648098,-2.1149063,2.592187,0.6801921! 
0.0,-2.7277756,-1.376029,-1.7878485,-1.0429804,-1.1867943,-3.0522776! 0.0,0.75285995,0.81857157,1.1030235,2.3421893,1.3960276,-3.4044266! 0.0,-2.1123228,-0.07190037,-2.228458,1.8929148,0.32048512,1.5274134! 0.0,-1.9722366,0.8389864,-0.57512856,-2.9335728,-0.22354269,1.0659575! #0.0,0.11784786,2.4472597,3.043785,-0.72893816! 0.0,-3.2162113,4.072968,2.2690845,-1.285399! 
0.0,-0.68065864,1.8543409,3.4419172,2.0388327,-1.6844618,-2.6820817! 0.0,0.6198118,1.039361,3.96248,1.2273378,2.8230405,-1.8837183! 0.0,0.6859293,-3.8561864,0.28292087,-1.7209544,1.9967675,3.1015832! 0.0,3.6696188,0.8253803,-0.12962365,2.7779033,-1.2991571,-3.5094981! #0.0,3.233062,-1.6798606,-2.8336282,-0.22303724! 0.0,0.2952547,-0.66873807,-1.456463,1.9709731! 
0.0,-1.2576871,-3.1071768,-2.678636,0.94135547,-2.8682852,3.904588! 0.0,3.0828357,1.5306826,-2.8945584,-1.8206306,-3.534502,-1.4486547! 0.0,-2.1906824,2.5491524,1.8247851,0.9166918,3.1650243,3.7865093! 0.0,3.461535,2.5555236,1.8645039,-0.7192417,1.5410981,3.0300167! #0.0,1.0404747,3.7473092,-1.3295507,-3.9215455! 0.0,-1.7443738,1.2529831,-3.5731378,2.255518! 
0.0,-0.6467047,0.94266224,-3.293288,-0.43772554,-1.7363275,0.42890644! 0.0,1.4035788,-0.66800517,2.934332,-0.5745568,-2.9455376,-2.8415196! 0.0,0.9157872,0.4349032,2.7616043,0.60383064,-0.5265684,-3.0807111! 0.0,-0.9582684,-0.65900564,1.7398238,-1.576807,1.8747191,-3.5271502! #0.0,0.7497659,-2.3847985,3.566482,2.0068746! 0.0,-1.1464043,-1.5262356,1.5346568,0.63200474! 
0.0,3.6156578,1.8543409,3.4702518,2.0388327,-1.5963831,-2.6820817! 0.0,-1.4419558,1.8655128,1.4645224,-0.7236981,-2.6626596,2.5075836! 0.0,3.721807,-1.4891119,0.83095074,-1.0607281,2.1573172,-0.19214821! 0.0,3.1905456,-0.032144547,-0.12962365,-0.055131435,-1.2991571,-3.5094981! #0.0,3.233062,3.0451384,-2.25279,-0.19311687! 0.0,2.2358773,2.0183978,-2.9029577,-3.5025601! 
0.0,3.2150295,2.1055827,-2.133534,-1.3168192,-0.5913291,3.5808167! 0.0,-1.4916736,-1.6653705,-1.5143609,-2.8346882,-3.7440405,1.5684085! 0.0,2.4271207,-3.1464763,1.2972913,-3.5118575,-3.1433978,-0.83653116! 0.0,-2.3800225,0.057356928,2.295053,-2.466609,3.1933565,0.41119528! #0.0,3.5607066,1.4449501,-0.20751871,3.7598782! 0.0,-0.11244305,3.6421843,0.1208913,3.5585246! 
0.0,3.1927366,-1.0393476,1.3478807,-0.86702394,1.7878628,-1.0675712! 0.0,0.5474066,0.104893014,0.08207989,2.9706602,0.21327353,-3.741077! 0.0,-2.4223366,-1.6607423,-0.8862796,-2.3648777,-2.0285149,-3.076562! 0.0,3.998538,-0.0041534193,0.70284855,-0.083450794,0.14739418,1.2721062! #0.0,0.47921753,3.629259,-3.7378798,1.6185646! 0.0,-2.5084903,1.9946656,-3.9246063,2.5997906! 
0.0,-2.857498,0.70142126,0.30722466,1.2029159,-0.23379326,-1.6818902! 0.0,-0.3924092,3.181682,-0.25708592,0.31268215,2.1195254,0.61003065! 0.0,-1.3192706,2.4845233,0.5221958,-2.7975821,-3.6731157,-2.9060817! 0.0,-1.0117612,1.2131935,-3.3644075,-0.40641168,-3.8424728,2.4245467! #0.0,-0.43548918,0.56304365,-0.40812492,-0.19766378! 0.0,0.68477654,-1.934742,3.7419105,-3.4157858! 
0.0,2.6375325,3.1618133,-0.3726573,2.1932392,-1.9640017,0.92861307! 0.0,1.5610993,3.449266,-0.87512445,-1.6158714,-2.261284,-3.043654! 0.0,0.9157872,0.6110635,2.8233652,-1.1184263,2.6583495,-3.1187444! 0.0,2.900879,-0.65900564,3.8786721,-0.4249738,0.40834093,1.8253894! #0.0,1.9176546,-0.3032171,0.29578018,-0.7652956! 0.0,-0.50146437,1.2941486,-1.068017,-1.2648959! 
0.0,-3.3297796,-1.8946671,1.0699563,-0.43772554,0.5391078,0.21408749! 0.0,-1.2410669,-3.7275834,2.935814,3.260634,3.0320926,-1.2643485! 0.0,-0.14494674,1.007142,-1.0232916,0.9166918,2.0225668,-1.1420097! 0.0,3.728006,2.6140065,-0.5334526,2.0646799,1.8650262,2.6302319! #0.0,-3.21763,0.17763281,2.9136267,-0.23643017! 0.0,-2.0333073,0.097955704,-2.8940191,-0.8885179! 
0.0,-3.2142873,0.1115542,-2.7877345,-1.87428,-3.9422054,1.5641909! 0.0,2.7869644,-3.7544115,-0.25496054,-0.8780122,0.33232945,-3.0502443! 0.0,-3.296526,-0.8731146,-1.6794591,1.3147612,-1.3889098,-3.1418083! 0.0,-3.530395,1.2403922,-1.6390333,-1.8112592,3.9673977,2.1834219! #0.0,0.96125937,-2.99227,3.7904682,2.8479586! 0.0,-1.9952416,1.9334786,-1.068017,0.03867266! 
0.0,2.8362122,-3.9073381,-2.3961391,-3.5758371,-1.1460202,2.4251766! 0.0,1.5698018,-1.307878,-0.6403694,-2.8346882,-2.0843544,3.458086! 0.0,2.4271207,2.5983524,2.984229,-3.7995038,2.8738346,-1.1891036! 0.0,1.9059438,-1.4003417,-2.8058598,-1.9157817,1.9045601,-1.2742672! #0.0,1.3392715,1.6023784,-1.1279078,-0.24426496! 0.0,-0.859571,-3.102118,-0.9351897,-0.8885179! 
0.0,1.9309616,3.9548616,-0.04299736,-3.0907912,-0.5451813,-2.8090816! 0.0,-1.4854085,-3.2865047,0.39291567,1.6066155,3.169073,3.174264! 0.0,2.4139478,-1.4866524,3.2431781,-0.08679931,1.4525491,0.7211704! 0.0,3.7138157,-1.1157427,3.5237188,0.72233534,3.641427,3.4840374! #0.0,3.524789,-3.8843224,3.8910942,0.7524619! 0.0,-0.87756234,-3.2050455,-3.286497,3.5585246! 
0.0,0.424486,-0.58828115,2.9492733,-2.4123745,-0.97223234,-3.4678326! 0.0,0.8193226,1.039361,2.8515913,2.0951104,3.9984422,-1.1209664! 0.0,-0.30952597,-0.5179758,-0.25911522,-2.459982,-2.7098565,-2.8578346! 0.0,0.7868657,3.6977382,3.2612584,-0.27347347,1.7290044,-0.3020172! #0.0,-0.79902697,1.7803016,-1.1963658,-3.9215455! 0.0,-2.2582545,-1.0381107,-3.6900425,-3.1857848! 
0.0,-0.83556205,-3.897128,-3.859867,2.367962,-3.824686,-2.8597207! 0.0,-0.92425823,-1.5386549,-1.7567784,0.12853959,2.0616179,-1.553062! 0.0,-3.296526,2.3306632,-3.5356474,-1.7691808,2.0225668,0.47004604! 0.0,-3.8549244,-2.3643274,-2.3299766,-3.0394826,-3.8253176,-2.8469048! #0.0,-3.2491145,-2.40242,-2.2342782,-1.8357071! 0.0,2.709518,-0.24236965,-1.1157598,-1.1674495! 
0.0,-1.1061453,-0.6571274,2.215612,1.8697996,-3.824686,2.6913152! 0.0,-0.92425823,3.449266,-3.2971597,0.12853959,-3.9656148,-1.553062! 0.0,-1.6643112,-1.4829769,-3.5356474,-0.7413511,1.8578863,1.4702151! 0.0,1.4615443,2.8568187,-3.7973866,-1.0381823,-1.5215864,-1.2742672! #0.0,0.84641516,-0.29286337,-2.2342782,-0.57781553! 0.0,-1.6452148,-0.55888987,-0.9067812,-0.74174166! 
0.0,2.6900933,2.6971214,3.6212435,3.6440325,0.5430412,0.06472778! 0.0,-2.6336558,-2.9206507,-1.3059797,2.2930644,0.9098873,1.0561185! 0.0,2.8325944,-0.8731146,-1.0232916,-1.8439789,-2.8785563,0.64837265! 0.0,-0.9200755,-2.625365,2.9517946,-1.8307778,-2.7070808,-0.23459625! #0.0,-3.9465523,1.5358845,2.1463904,-1.0818458! 0.0,-2.225199,1.2529831,-1.8666989,2.2668934! 
0.0,1.8047256,-2.1928096,1.3478807,-2.642539,-1.1417685,-1.0675712! 0.0,-0.7848849,0.08652046,0.08207989,0.72345114,-0.6277704,-1.1861758! 0.0,-2.4223366,-3.6517906,-2.9950457,-3.2640147,3.654028,2.6037273! 0.0,-0.3125615,-0.0041534193,0.6747618,-1.7953936,1.0724559,1.2721062! #0.0,2.8455615,2.261477,-0.96595,-1.7437282! 0.0,-1.4568086,3.4238186,0.8694668,0.31714773! 
0.0,2.7633913,-1.246851,-3.1774714,0.504338,2.9680142,-1.7956226! 0.0,2.672357,-2.229437,1.7568693,-2.3005655,0.9098873,-0.36770916! 0.0,-2.7637794,2.5491524,3.7701445,0.9166918,-2.4920511,1.3025048! 0.0,0.5049782,2.5128868,3.9533806,-2.405907,1.4188175,-3.2553024! #0.0,2.7259507,3.3038776,0.7240162,-0.5791354! 0.0,1.4985018,1.272333,-3.5731378,-3.1055052! 
0.0,-0.15261967,3.8528876,1.3086419,-1.9042944,-3.1587725,0.79787517! 0.0,-1.6502099,0.1975531,-0.22777843,-2.7856548,0.21959604,-0.5303588! 0.0,2.4320018,-2.4812164,-2.5528362,2.5307639,1.9967675,-1.9713488! 0.0,1.9059438,-2.6524272,0.8847542,2.6049063,-3.2400098,1.6605859! #0.0,0.67448854,2.1494722,-0.4339182,-1.7174106! 0.0,0.9861584,-0.52054834,3.8010273,-0.951489! 
0.0,3.6476774,2.2855499,0.24277273,-1.0516114,-3.6004684,2.1195538! 0.0,2.5905738,2.6112757,3.6636424,2.3038492,-0.4942999,-3.760723! 0.0,2.8321283,2.5146575,1.8261217,2.787582,-2.2236114,3.086842! 0.0,-0.92793036,0.36121416,-3.9554198,-0.02912395,3.736672,-3.4037104! #0.0,-3.396531,1.0001082,-0.40812492,-0.20091166! 0.0,-1.9188962,-3.1415544,-3.5703592,3.046376! 
0.0,3.1923275,-0.103522405,0.27970254,-0.56269294,3.8416188,1.7091558! 0.0,1.6724973,-3.9439225,1.5979117,0.53269184,-3.1332264,3.647571! 0.0,3.298934,1.9890056,3.6933732,-0.8630886,1.4473543,0.9742119! 0.0,-3.8372178,-3.946713,1.4213576,-1.576807,0.80467415,0.41119528! #0.0,3.2045045,-2.5548007,-3.2544332,2.315857! 0.0,2.5638905,1.0187588,1.8672161,2.998888! 
0.0,-2.7277756,2.901113,-1.3767651,1.2604251,0.9399332,2.4661102! 0.0,3.5366669,3.39882,3.4388595,-2.760302,1.3960276,-2.4932501! 0.0,-2.0227904,-0.07190037,-1.5340371,2.914415,1.9977379,-3.55305! 0.0,-1.9722366,0.8389864,3.8701262,-2.9449413,-0.0647489,2.5156898! #0.0,-0.04760647,-1.9583817,-2.7895103,-2.5417953! 0.0,-0.40387774,2.6329842,-3.9710698,-0.121785164! 
0.0,0.17588884,0.12666991,-2.794125,-1.87428,1.7413669,1.5641909! 0.0,2.7869644,0.164365,-0.25496054,-0.878893,0.33232945,-2.4146452! 0.0,-1.945591,2.5983524,-1.2009892,-2.3186069,-0.011285305,2.2983706! 0.0,-1.8040237,1.2403922,-1.6390333,-1.8112592,3.9697998,-2.8469048! #0.0,-3.2383847,0.7296548,0.6466694,-0.9448743! 0.0,3.8146605,1.3382521,-1.6380296,-1.1463103! 
0.0,3.6156578,3.7736988,-2.3961391,1.5296621,-1.5963831,0.62013245! 0.0,0.45864105,1.039361,1.4645224,1.350738,-2.6526198,2.5075836! 0.0,-1.2858808,0.83481264,-2.5813503,1.102931,1.7028503,-0.19214821! 0.0,3.1905456,-0.032144547,2.4766908,2.6234035,0.40834093,-1.2742672! #0.0,1.9541769,3.0451384,-2.25279,-0.6467843! 0.0,-2.1775875,0.097955704,2.7925444,-0.8885179! 
0.0,-0.1000433,-0.6465817,-1.928318,-2.1914449,-2.7424698,-1.1973476! 0.0,-2.0676398,-2.9881635,1.9402909,2.268444,3.8975115,3.4482837! 0.0,3.384876,-3.457088,1.637958,-1.8939533,0.8629365,3.1305866! 0.0,0.72578573,1.5709414,-3.4389777,-2.507185,-0.30023003,-2.420895! #0.0,2.9356728,3.284767,1.1717035,2.9889925! 0.0,-0.8871044,-3.142157,-2.0320096,1.0198324! 
0.0,2.6933641,-3.8053803,-2.678636,-3.614904,2.8554845,0.9177203! 0.0,1.5698018,-1.307878,2.4382572,1.655025,0.801644,3.458086! 0.0,-0.6152425,2.5491524,2.984229,-1.1184263,2.5570626,-3.149924! 0.0,3.8717194,2.5128868,1.8067942,1.8857913,-2.4207814,-1.6222819! #0.0,1.3392715,-0.29286337,2.912259,2.0068746! 0.0,-0.859571,-3.102118,-1.068017,-3.1051278! 
0.0,1.9975829,-1.376029,3.4865432,1.6393111,-1.9811678,-3.2144277! 0.0,1.0285921,1.039361,2.7263198,-2.6431317,-2.2718246,1.0561185! 0.0,3.0963259,-1.7003295,3.842804,-0.8689704,-0.0884037,2.917106! 0.0,-1.8116913,3.891201,-0.57512856,2.6234035,0.9859514,1.9950773! #0.0,1.0655354,0.40589333,0.29578018,2.6181655! 0.0,-2.225199,-2.0141098,2.2690845,-0.73365694! 
0.0,1.2697903,-1.9222065,-1.3340194,-3.0266585,-3.3141246,-1.763989! 0.0,3.420138,0.31291103,0.034031868,2.6036067,1.8497744,1.1054761! 0.0,2.3368325,-0.8731146,0.19995362,2.746266,1.7028503,1.8874087! 0.0,0.11125371,-0.94260526,3.8786721,-0.99989176,-0.65240985,0.4920869! #0.0,-1.7641363,0.40589333,-1.998498,-2.5436058! 0.0,-0.4414711,-3.8699312,0.3999372,-1.5784125! 
0.0,3.1793857,-0.092672825,-0.3726573,-0.29433438,-0.5564106,-2.2654967! 0.0,-1.5892744,-3.7544115,0.7413583,2.8094227,3.4241714,-2.6235933! 0.0,2.4271207,-0.83840483,-3.004671,1.3147612,-1.3889098,3.8702683! 0.0,-0.59035015,-3.9319987,2.276978,2.114896,0.40834093,2.228662! #0.0,3.5607066,2.1675105,0.29578018,1.4508586! 0.0,2.9418266,3.018273,-1.068017,0.03867266! 
0.0,-2.1604824,-1.0092816,-1.968605,-2.3745632,-3.9422054,2.7069306! 0.0,0.14537239,-1.4503098,2.2616963,1.9234428,3.4241714,-1.2136812! 0.0,2.2275152,-0.8731146,2.8592706,1.3147612,-1.5800352,-3.1418083! 0.0,-2.190936,-0.026472073,-3.2202082,2.114896,-3.5613966,2.228662! #0.0,-3.895853,2.051557,-0.47937426,1.4508586! 0.0,0.44721603,-2.7628279,-1.068017,0.92180634! 
0.0,2.7633913,-1.2426238,-3.1774714,0.46312046,1.7878628,-1.7956226! 0.0,0.9950955,0.08652046,0.08207989,-2.3005655,-3.1073332,-0.36770916! 0.0,-2.4223366,-1.6607423,2.2618628,1.8929148,3.655972,2.6092982! 0.0,2.0547338,-0.0041534193,0.6747618,1.409122,-0.6682661,1.2721062! #0.0,2.7259507,3.3038776,-3.7378798,1.6185646! 0.0,1.4985018,2.0275497,3.9036064,-0.74174166! 
0.0,-1.738883,-3.8053803,-3.3343134,-0.15473366,-0.61177635,-1.9826488! 0.0,0.5639839,2.644827,-3.0117202,3.5348244,-2.939699,3.9522243! 0.0,-0.6152425,3.5519385,1.6327946,-1.8386799,2.8062549,-0.19981146! 0.0,0.5049782,2.610154,-0.5334526,2.9760232,-2.7070808,3.3696299! #0.0,-1.2406311,-1.9572401,-3.735878,-1.7679367! 0.0,-0.99512005,-1.7407889,-3.8699684,0.2737012! 
0.0,3.8603358,-3.5804534,1.2021408,1.1892488,-1.5067251,-0.49141884! 0.0,2.6960073,-2.7903726,-2.9255395,0.21064328,3.1537478,1.912889! 0.0,-3.148738,1.9890056,2.3233428,-2.7199574,-3.2937078,-2.087872! 0.0,1.5055143,2.2229943,-1.4202969,-0.3810343,-0.6823939,1.2130322! #0.0,-0.16093561,-2.2757423,-1.3611593,-2.8313777! 0.0,-1.461156,4.0316257,1.2334819,-2.35669! 
0.0,3.2067022,1.9029633,0.80627966,3.0285697,-2.7803276,-2.9795008! 0.0,-1.3998351,-2.8865452,-3.7923632,-3.765751,-2.272615,-3.043654! 0.0,-3.7923994,-0.15252352,2.797791,-1.8439789,-3.228486,2.2969894! 0.0,0.55710053,-3.8884428,3.4696298,3.1145773,0.40834093,-2.19726! #0.0,-0.16093561,-0.1716919,3.168377,0.4042723! 0.0,-1.60559,2.221549,-2.62396,-1.2648959! 
