17.875422,165
0.0,-3.4742684,-1.2045355,-1.6002989,-2.5691328,3.4601629,-1.0681443! 0.0,2.063908,1.931998,-2.8411767,0.97194135,3.4875965,2.1041808! 0.0,3.85144,-1.6483965,-2.5935616,-3.3798246,1.2352729,0.59250355! 0.0,-2.1500883,-0.56258726,1.1179438,3.7054396,0.24711499,-0.70729494! #0.0,2.1860948,2.0020337,1.1392708,-3.4623415! 0.0,-0.62710667,0.18773365,2.8173742,-1.939354! 
0.0,-2.7880056,3.8322325,3.6002018,-1.112823,-2.7619565,2.4065094! 0.0,2.493557,2.14373,2.9356875,-0.35169744,3.4932415,-3.1022093! 0.0,1.8136778,1.3007665,-1.0181954,1.2050095,0.612484,-1.2952504! 0.0,2.8696578,3.9956622,2.6478252,-3.2949016,-1.5126723,-1.8844571! #0.0,-2.2146206,3.146514,-2.13772,0.049520493! 0.0,3.7382216,-3.7966943,3.6652265,3.7835221! 
0.0,-1.4732056,3.073327,1.9637675,2.0472827,-3.6955676,-1.6613026! 0.0,-3.0120668,0.84137905,3.3662415,-1.672394,3.2245717,1.9775205! 0.0,-2.079884,1.0525846,1.5820603,-2.6670246,0.57663727,-2.2237387! 0.0,-0.35709333,3.6852465,3.5215802,2.5010796,-3.3389893,1.9330163! #0.0,1.6464216,-2.8709326,-1.009584,-0.5671911! 0.0,2.44341,1.1748946,0.103188515,3.9872928! 
0.0,0.5315833,-1.7574348,3.6442165,-1.8883729,1.5132759,3.8569767! 0.0,2.7288456,-0.9102888,2.1741214,2.9053183,-2.441478,-2.6060977! 0.0,2.2074814,-2.4318144,1.4585595,-0.3400967,2.8110328,-0.7234521! 0.0,3.434682,-3.7568104,2.814258,2.4136634,2.0235033,-2.787746! #0.0,0.79039335,3.309006,1.9855906,3.859472! 0.0,0.19014864,-3.3794432,3.6652265,0.29800177! 
0.0,-2.290205,1.8118105,3.6442165,3.680911,0.3485918,-0.81613064! 0.0,2.7025824,3.433776,0.7811408,-0.35169744,-1.8644567,-1.4314632! 0.0,2.8438377,-2.0608823,1.4585595,-0.4543205,2.5144358,-1.2952504! 0.0,2.6161222,-2.0565486,2.9786592,-2.1648588,-3.678386,1.1133709! #0.0,-2.2146206,-1.3506746,-2.9423776,-2.6394901! 0.0,0.26911512,-0.23824938,3.0671268,0.12130976! 
0.0,0.46919194,-3.1528196,0.6771759,-3.2404232,3.5678062,-3.3556213! 0.0,-2.947175,-0.6950946,-0.6262929,0.42252636,-2.2188778,-3.1217785! 0.0,-0.65901375,-3.593268,0.68075085,3.55937,2.052856,0.41961098! 0.0,0.11861086,-0.4738269,3.3690596,-3.0749564,2.103477,2.07802! #0.0,-0.41850376,-0.13253172,-1.064045,2.4497395! 0.0,-1.2352948,-3.373559,-1.338182,-1.4339852! 
0.0,-3.4536846,-0.8205972,-1.3359213,-2.612331,1.8782616,2.4065094! 0.0,3.67738,2.3250427,-3.1151366,0.7327919,-0.3151927,-0.99210906! 0.0,3.6063948,-1.170413,-3.29523,-0.10807511,0.612484,3.5493593! 0.0,-2.1241088,3.7599678,-3.283544,-3.120705,0.64513904,-0.8976016! #0.0,-0.48127222,-3.8795824,0.73851883,-2.8802404! 0.0,0.12558031,-3.7826817,-3.2759948,2.1161566! 
0.0,-3.4742684,1.6522713,-3.174056,-2.5691328,3.4601629,-1.6613026! 0.0,-2.9112601,2.7859921,3.3783355,-2.475949,3.4875965,0.4422269! 0.0,-3.2204978,-1.6394062,-2.5935616,-3.3798246,1.2352729,0.59250355! 0.0,-2.1500883,2.1212354,3.5215802,3.7054396,3.9207315,-2.9177778! #0.0,-0.803391,1.9741548,-3.6892846,-3.4623415! 0.0,0.58521223,0.18773365,0.103188515,3.9872928! 
0.0,0.9379549,2.2862058,-1.629076,3.196064,-2.2307997,0.0031599998! 0.0,-0.898973,2.5548568,-0.5686822,-2.8666787,2.1672864,0.5046048! 0.0,1.7899556,-0.7795663,3.655624,3.1742015,0.612484,1.3982437! 0.0,2.640276,-0.40248314,3.3386116,-2.1044044,3.5203285,-0.6239691! #0.0,-2.2146206,-1.9501648,0.7318087,-1.9831372! 0.0,-0.069438934,-0.9208384,1.086153,1.4834993! 
0.0,-3.912407,-3.3355968,3.810614,-3.2404232,-1.1894679,-0.8980808! 0.0,3.008326,2.4359226,1.8326582,-3.6589384,0.47668362,2.3646407! 0.0,-3.3824582,0.9747524,1.5820603,-0.8165264,3.555147,0.14619945! 0.0,-2.4627633,-1.3811011,2.4097345,-2.854249,0.7527137,-2.3917413! #0.0,-3.3518372,3.2844062,-1.009584,3.91774! 0.0,-1.1742454,3.407003,-3.9381866,1.3164105! 
0.0,-2.5509067,0.20094818,0.63864994,-1.7500119,3.3105597,0.47229052! 0.0,2.7288456,0.110174656,-3.5005684,2.3032556,0.2004404,3.523305! 0.0,1.9613023,0.4772811,0.46503258,2.1676793,-3.3136044,0.59250355! 0.0,1.0608326,-0.5722413,1.8025622,0.0767521,1.7604451,1.4886103! #0.0,3.066455,1.3139677,0.7545099,3.1562638! 0.0,3.7382216,-0.47099924,-0.2863345,-1.4376917! 
0.0,-1.4858941,-0.51282644,-1.6490376,-1.654911,-3.81256,-1.2432232! 0.0,3.784402,2.943854,-0.66759014,1.9323449,3.061185,-0.028785229! 0.0,1.7127762,1.3050323,1.5641009,-2.4101577,-2.8785505,2.609816! 0.0,1.9395328,1.5269709,3.9800029,3.627246,2.9851718,0.5121379! #0.0,0.3062934,-0.26402634,-2.245531,2.5708566! 0.0,0.88515234,-0.86973715,0.843523,-1.6342258! 
0.0,-1.6592951,0.8057534,3.6233869,-0.4258318,1.0815349,0.92603445! 0.0,1.6910319,-1.6395549,-2.966536,0.79925734,1.7741566,0.5046048! 0.0,-1.1940532,3.2995055,2.1703715,-0.0865469,0.612484,2.6410565! 0.0,2.6110172,-1.3037314,2.79006,3.593811,-1.5126723,-0.48584795! #0.0,1.0656531,2.0318055,0.9136286,3.859472! 0.0,0.83878905,-0.287173,3.6652265,0.9468856! 
0.0,-3.8200412,3.9674497,-2.0030885,2.3848372,-1.7513199,-3.5415788! 0.0,0.30356932,-3.1899867,0.8009882,3.4734406,3.2300663,3.2068567! 0.0,1.1897945,-1.0123663,-0.14766169,2.0360017,-3.2718282,-3.340495! 0.0,1.7550917,-2.9396424,-2.4959092,-1.4318395,-2.1214929,0.80599356! #0.0,-0.84860325,-3.8027487,3.5364723,1.196269! 0.0,-0.4859085,0.8200356,1.9305654,-0.25381804! 
0.0,-2.5052176,3.5701342,-2.6777916,-3.5129995,-1.2037284,2.4065094! 0.0,0.46937132,1.3150082,2.9356875,-0.35169744,3.4932415,0.79489374! 0.0,3.6278732,1.5828203,-1.4988316,0.20825338,-0.29665658,1.3664672! 0.0,-2.1241088,3.9956622,2.762714,-3.2949016,0.64513904,-3.422394! #0.0,-0.8773794,-2.225934,1.8207642,3.859472! 0.0,1.5064859,-3.7634163,0.8128329,3.2835684! 
0.0,-1.4850761,-1.8187566,3.6244402,-3.2332795,1.1628089,2.248523! 0.0,1.6125813,-2.399413,3.7213907,-2.5925155,-2.4216824,0.8349737! 0.0,-2.0922568,1.2677283,-3.8910751,-0.32244822,-0.16414595,-1.7203498! 0.0,-3.191049,-1.3731766,2.5900016,1.7553486,-2.5321069,2.5732164! #0.0,-3.561438,1.3642583,-1.4486006,-1.5961146! 0.0,-2.4658313,-0.5614234,0.99249554,3.7835221! 
0.0,-3.4536846,1.1210909,-2.4888396,-1.9277935,-1.6829455,-0.94664145! 0.0,1.0373597,2.4718814,1.372786,-3.458061,-0.7447231,-2.973536! 0.0,-2.470124,-1.062083,1.0422568,2.8531122,3.3900666,-0.86556864! 0.0,-1.1103287,-0.3026724,2.0683522,-1.9421647,2.8325887,0.29943842! #0.0,1.242008,-1.2155752,3.7337317,0.36685324! 0.0,0.30046892,0.428109,-1.4087372,1.6406404! 
0.0,-1.4850761,-0.6571479,1.9836661,1.9111867,-3.81256,3.2142! 0.0,2.9185584,2.943854,-0.66759014,1.9323449,3.094841,1.4759445! 0.0,-3.253561,-0.18550014,1.5820603,-2.307221,-0.13607784,3.0199468! 0.0,2.636617,-0.39091414,0.038737204,3.6751277,0.16934824,-0.48584795! #0.0,0.3062934,-1.7382922,-3.0239244,-1.5385151! 0.0,3.539062,-0.34347114,-1.7979945,-3.765336! 
0.0,0.91418,3.5944085,-2.3433323,-3.991417,-0.56768924,-3.0974245! 0.0,-3.0488322,0.51986676,3.802473,2.240109,0.42468786,-2.942188! 0.0,2.4636512,1.5594187,0.38402018,-0.19256732,-0.29678583,-2.0118918! 0.0,-0.10679616,2.968347,1.1179438,3.235054,-3.7075086,2.215877! #0.0,-3.338911,1.1590762,0.9061432,-3.349585! 0.0,0.30046892,0.77702236,2.295958,-0.5909629! 
0.0,3.5137532,0.79780245,-1.0522866,-3.2404232,1.9602,-0.8980808! 0.0,1.9489903,2.459155,1.8326582,-0.35169744,1.6370171,1.6629596! 0.0,1.3001457,0.9747524,-2.0880196,-2.6670246,-2.8434708,2.6398525! 0.0,2.6161222,1.1547818,2.4295053,-2.82543,0.7527137,2.5732164! #0.0,1.0932555,2.0318055,-1.4869108,2.2653663! 0.0,-2.2299688,-0.25143763,-3.9381866,-3.1550012! 
0.0,-2.5509067,3.5942664,0.6237718,1.86204,-3.7640958,2.418813! 0.0,1.425889,3.8355262,2.3678055,-1.4402452,-2.2102761,-2.7447367! 0.0,2.2482553,-0.20306024,1.8337677,3.953226,-3.192277,2.4581025! 0.0,1.0169963,0.93320894,-3.8880491,2.6442928,1.9266801,-2.6099505! #0.0,3.2571049,-3.231185,-0.9812808,-0.54840136! 0.0,-0.5443554,-3.5849273,-3.3560681,3.3489337! 
0.0,3.189631,0.79780245,-3.612587,-0.40340376,0.123485565,3.3868062! 0.0,-3.9707222,-0.25957632,-0.923892,2.7859397,-0.4757905,0.7555763! 0.0,3.7571797,0.8810878,1.5901041,-0.8165264,3.5405393,-0.04051447! 0.0,-2.0703502,-1.9562616,2.5738568,-0.6537852,3.6820645,-0.0690546! #0.0,-2.87272,3.420529,0.4514222,-0.5098661! 0.0,0.7983499,-2.373793,2.7925177,0.28523558! 
0.0,-1.3265886,3.5860207,-0.0921205,-1.1527662,-3.3245564,-3.5849326! 0.0,-2.650361,2.4718814,-0.923892,-0.42301735,-3.104465,-3.7009368! 0.0,-2.6975589,-0.20306024,1.8340683,3.4603155,-0.12832503,-1.8328528! 0.0,1.0483797,0.6952977,1.3911433,-2.8615746,-3.7075086,2.5389745! #0.0,0.007835388,3.5549703,0.4514222,1.6456199! 0.0,0.21376084,-3.5644226,1.4683313,-3.765336! 
0.0,-3.5513368,-0.13144255,0.7571664,-0.40340376,-1.4471784,0.5358572! 0.0,1.4627233,-0.25957632,-0.23495531,0.16017437,2.5713215,-2.3626585! 0.0,3.7571797,3.3721118,2.0196443,2.7023153,3.2662835,-0.04051447! 0.0,-1.1103287,-1.9945967,1.582916,-3.846249,-3.1538734,3.0037222! #0.0,-2.87272,3.3517752,-3.561263,-3.0219388! 0.0,-0.0016226768,-1.8281794,2.7925177,-3.02162! 
0.0,1.5111725,3.6035173,-1.629076,3.680911,-3.3963356,2.4065094! 0.0,-0.24497014,-3.047648,1.1001997,-0.7534424,-0.25763458,2.302064! 0.0,-1.155787,3.3315945,-2.9280858,-0.3400967,-2.8048954,3.1905365! 0.0,-3.9020205,-3.47237,-2.214501,0.5239762,1.4985256,2.5732164! #0.0,0.3404993,0.05085139,-2.6905317,2.9023638! 0.0,-2.2097297,-3.6418152,3.6652265,1.1410639! 
0.0,-2.521357,1.6522713,-1.101551,1.86204,-3.6955676,-2.7883759! 0.0,-3.0120668,0.83983,2.3678055,-1.4402452,3.758634,1.6016679! 0.0,-2.307178,-0.20306024,1.9992728,-2.6460629,-3.8698936,2.4935493! 0.0,-0.18361092,2.076021,3.8318071,-2.82543,-3.3389893,-3.047657! #0.0,3.6874247,-2.8709326,-1.009584,0.8664551! 0.0,3.8898525,1.1748946,-3.8573518,1.0921006! 
0.0,1.494576,0.79780245,-2.391239,3.6374393,-1.0851892,2.3299222! 0.0,-3.0636237,0.117572784,-2.573509,-0.16060552,-0.23867664,2.2869034! 0.0,-1.1872984,-2.399023,1.4585595,-2.8934307,-0.4221614,-3.225521! 0.0,-3.8598933,-3.47237,-1.4691339,1.9182265,-1.546974,2.2035024! #0.0,0.3227004,-1.7382922,-2.733799,-1.4482843! 0.0,-2.2145364,-0.23824938,1.5352069,0.39550355! 
0.0,-1.2812939,-0.8205972,-2.0030885,-3.5094194,-1.7513199,-3.5415788! 0.0,-3.372603,2.3250427,-3.1151366,3.4734406,-0.3151927,1.7420516! 0.0,3.6063948,-1.0123663,-0.17245674,2.0360017,-1.7051828,-3.340495! 0.0,2.2203243,-2.9396424,-3.283544,-3.1694188,-2.1214929,-0.8976016! #0.0,-1.544611,-3.8795824,0.7541647,1.196269! 0.0,0.12558031,0.7757354,-2.3844967,2.5492356! 
0.0,-3.5513368,-0.13144255,-3.5729237,-3.1609507,0.123485565,-2.5406325! 0.0,1.4627233,-0.25957632,2.3678055,-1.4003001,-0.4757905,-0.84101534! 0.0,3.7571797,-3.2774682,-0.87133694,-3.195014,3.5405393,-0.04051447! 0.0,1.0608326,-1.9562616,2.5738568,-3.2909312,2.3255334,2.988307! #0.0,0.475657,3.2844062,-3.561263,2.5609365! 0.0,3.8898525,-2.408421,-3.3300018,-3.02162! 
0.0,0.6990735,-1.4615993,-1.101551,1.86204,3.1047168,-2.7818558! 0.0,-0.7058592,-0.57177067,2.3678055,-0.15120904,-3.353532,-2.5406463! 0.0,2.1032715,-0.5756488,1.9992728,-3.2406049,-1.9700594,2.4581025! 0.0,3.3887444,0.4807706,-3.0162187,-0.42187834,-1.2833781,-3.047657! #0.0,-2.0576491,1.8091602,1.6560225,0.8664551! 0.0,-0.24515449,-3.9518256,1.1193378,-3.4448524! 
0.0,1.1882992,-3.4230118,2.1279712,2.8328102,0.3485918,-3.6438353! 0.0,0.31846857,-2.0373073,2.6694875,0.79925734,-2.927053,1.5753223! 0.0,3.5658455,2.1095066,3.7562685,-3.7585325,-0.04304409,1.4854021! 0.0,-2.8504834,0.550334,0.39513588,-2.8327215,0.9952917,1.8485618! #0.0,-0.061964512,0.66889906,0.9532789,1.5071864! 0.0,1.0216169,2.3778045,-1.656898,-1.3007369! 
0.0,0.094848156,3.287189,-1.9839967,0.3501792,0.051291466,-0.5452799! 0.0,-0.28083897,0.60084295,1.5674818,0.17340195,-3.4541109,-3.6046457! 0.0,0.76347685,-3.2987254,0.32510376,0.22727442,-3.8698936,0.60819197! 0.0,1.7672793,-3.7652621,-2.577208,2.4022434,1.8378669,2.4305716! #0.0,-2.516602,0.25816774,-1.4869108,-2.147533! 0.0,3.1451573,2.3412733,1.7120037,-2.718031! 
0.0,1.1918162,0.79780245,-1.6002989,-3.9993124,-0.61081755,-0.94664145! 0.0,-3.0488322,0.47081122,3.8075848,1.9323449,3.2326584,-2.942188! 0.0,3.6809173,3.5121152,-0.89975834,-0.19256732,-0.29678583,0.7804276! 0.0,1.8049064,2.184771,-3.8423588,-2.8420537,2.801855,2.215877! #0.0,1.812642,2.4409344,-0.85110134,0.3034992! 0.0,0.8707127,-0.4252565,2.295958,-0.5909629! 
0.0,0.49313688,-3.8758721,-3.2010617,-2.1762853,1.2012757,-3.3779316! 0.0,1.6125813,-3.700729,-2.334518,-2.5925155,-2.4216824,2.317018! 0.0,-2.8772817,1.2677283,-3.8910751,3.0327587,-0.16414595,-3.617877! 0.0,-0.65701246,3.6320605,2.5900016,1.263618,-1.7166109,-3.64959! #0.0,3.081337,1.9024963,0.37465334,-1.5961146! 0.0,1.9879222,2.5586648,1.3420987,1.2848568! 
0.0,0.18097542,-3.3534775,2.75128,-3.5129995,-3.5653558,2.2896066! 0.0,2.049728,1.348584,2.1741214,1.7682955,-3.0540776,-3.1963542! 0.0,3.5216172,3.3315945,-1.4988316,0.87830734,-2.8679402,-1.2222753! 0.0,2.8696578,-3.46078,2.762714,0.7011392,0.61615056,0.4687532! #0.0,-2.2509909,-2.225934,-0.5019312,-1.8085699! 0.0,-1.7205399,-2.2020254,0.3297626,2.1161566! 
0.0,-0.027320512,-2.2102942,-0.37662172,-0.24767733,0.05608625,-3.7830365! 0.0,-1.8603144,-3.0931063,-3.239829,0.47866058,-2.730216,0.49863744! 0.0,0.7751136,-2.444345,3.6519332,-2.294507,-2.777914,-1.1356568! 0.0,0.30102876,-3.5002103,-3.5244026,-3.340032,-0.7980289,-0.76059556! #0.0,-3.1651998,-0.3114314,-0.45517766,-3.1814508! 0.0,0.26911512,-3.4502969,0.79046726,0.6198869! 
0.0,3.9718354,0.49069768,0.065643474,-0.0019745827,0.123485565,0.5291929! 0.0,1.168356,2.5548568,-0.7733693,-0.7534424,-0.7595358,2.7458196! 0.0,-1.6939812,3.352261,3.8811214,-2.3275201,0.612484,-3.3285146! 0.0,2.6576092,-0.40248314,-1.78356,-3.849512,0.9952917,2.5732164! #0.0,1.0907937,1.221495,-2.672863,-0.6007819! 0.0,1.0220397,-0.2445426,-2.6190186,3.7835221! 
0.0,-3.4536846,-2.1275845,3.7884893,-1.9277935,-1.6829455,2.6427474! 0.0,0.46937132,2.4718814,3.34519,-0.42301735,-3.3181677,-2.973536! 0.0,-3.0589314,3.3143268,-3.1047964,0.9093889,-0.3652625,-1.7966619! 0.0,2.8694108,1.8207021,2.448419,-3.2954173,-1.5604739,-1.2954264! #0.0,-1.5906777,1.6673093,-0.8388915,3.8794222! 0.0,0.30046892,0.428109,-1.4087372,2.084712! 
0.0,-2.1370215,3.563336,0.63864994,-3.6468077,1.0815349,3.3087225! 0.0,-1.5692096,2.1642048,-0.7733693,-0.35169744,-2.6203556,-3.3546715! 0.0,2.6666875,-0.20306024,-3.0728097,1.6677799,1.3332095,3.5845833! 0.0,-2.6125283,3.7777681,-2.1797738,-3.560154,-1.8959503,-0.48584795! #0.0,-0.8621955,0.58073235,1.8336821,2.6093833! 0.0,3.7382216,-0.5614234,-0.5613165,-0.35079277! 
0.0,3.99411,3.073327,-0.4663971,-1.1595922,-2.3015106,-3.166854! 0.0,-2.5951648,3.1831145,-2.1139305,-3.7962856,0.9128208,1.2327566! 0.0,3.9148688,-2.0608823,3.3484197,1.9647164,-0.29753637,2.6794944! 0.0,-0.35709333,3.6992915,0.62602997,3.74927,3.422288,1.9330163! #0.0,1.6464216,3.5474057,-2.13772,-3.972652! 0.0,-1.4249601,3.1770601,2.1805954,-2.6089067! 
0.0,2.9416113,1.19872,-2.4765644,-1.6083131,-2.702114,2.555534! 0.0,1.6911054,0.77743024,2.8532925,-1.1700363,-1.0839739,-2.2444053! 0.0,3.9119806,3.3239474,2.5787153,2.4173992,-1.0936317,-3.965686! 0.0,3.8646464,3.692234,2.631246,-3.3097763,-1.0562778,3.2695627! #0.0,1.2200117,-3.880887,-3.882187,0.8696475! 0.0,2.1424565,2.4172797,-2.2578592,1.6112304! 
0.0,-1.3306069,3.5464184,-0.37662172,2.2223287,1.0700197,1.9979672! 0.0,-1.2121625,2.4757717,3.2120767,1.3789573,2.1755981,2.1545491! 0.0,-3.3495746,-2.4562168,1.4585595,3.2516265,-3.0501735,3.2745628! 0.0,-2.351822,-1.2862725,2.750173,-0.57126904,0.5719974,3.474587! #0.0,-0.048321795,0.12167904,-0.17478657,3.859472! 0.0,1.0216169,-0.5671906,-3.6841087,2.8313913! 
0.0,1.0036745,-2.8523698,-2.890514,-1.6083131,0.047478676,3.2864292! 0.0,3.0130327,1.2081976,1.4814591,-3.2869833,-0.62631035,-3.1137288! 0.0,2.8936214,-3.2713819,1.956265,-2.8834782,0.66397786,3.203496! 0.0,-3.723147,1.9804273,-2.1465762,-2.5364532,-2.4743688,-0.048686292! #0.0,-2.2002935,0.29710436,-2.6683393,-1.9499898! 0.0,-2.6092598,1.9752951,-0.97989464,-2.1083064! 
0.0,-1.3306069,-3.036508,2.550341,2.376491,1.0227975,-3.6381438! 0.0,-1.2121625,2.4757717,2.3886194,-1.8293114,-0.7595358,0.8443999! 0.0,-3.3495746,-2.4318144,1.4922031,-1.0356941,-0.3775692,3.0466342! 0.0,3.434682,-0.9150838,1.3640099,-2.3786516,-3.7075086,2.112102! #0.0,1.9156053,1.5421262,-3.6912122,-0.7865362! 0.0,0.8090755,-0.4194948,-3.4310226,2.7886035! 
0.0,-0.027320512,-2.2102942,2.073565,-0.24767733,0.05608625,2.6427474! 0.0,-1.8603144,-3.0762548,-3.263774,-0.47862792,-2.730216,-0.004872173! 0.0,-1.5622654,-1.8817716,-3.1545122,-2.294507,-2.777914,-2.8635044! 0.0,-2.1926677,1.8207021,1.2532012,-3.7758641,1.8552027,0.73047876! #0.0,-3.5163085,-1.8234924,-3.0770266,0.6770315! 0.0,0.23936534,-2.2299376,1.4683313,-1.6766868! 
0.0,-2.9132586,-1.5693812,-0.41891736,2.3704972,-3.6768894,-3.6438353! 0.0,3.301137,2.5548568,2.3886194,0.79925734,-3.3953524,0.8443999! 0.0,3.5658455,3.318103,3.5780501,-1.0845454,-3.23447,1.4854021! 0.0,-2.4432497,-2.4685092,-3.6450372,-2.8327215,-1.5160913,-2.0580978! #0.0,-0.07816069,0.66889906,-3.6912122,1.5071864! 0.0,1.0216169,-0.23824938,1.7120037,2.1274862! 
0.0,1.494576,0.79780245,-2.391239,3.6374393,-1.9104693,-0.90159553! 0.0,-3.0636237,3.470096,3.8206496,1.7356839,1.3209889,1.4329541! 0.0,-1.1872984,-2.1100464,1.4748471,-1.9703096,1.9364514,0.9421016! 0.0,-2.3754406,-0.1598072,-1.4691339,-3.625865,-1.8721638,2.2035024! #0.0,0.3227004,-1.7382922,1.9867678,-1.4482843! 0.0,0.26911512,-0.23824938,-3.2568488,0.39550355! 
0.0,-2.5052176,3.1062446,-0.0921205,1.86204,-3.7335515,3.678949! 0.0,2.7288456,1.3461326,2.3678055,-0.42301735,-3.4192657,2.696662! 0.0,1.9613023,0.040187836,2.2762227,-0.0692749,-0.29753637,2.4581025! 0.0,1.0169963,-0.40248314,-3.205175,-0.4274951,2.8973193,-3.047657! #0.0,-3.5992095,3.5549703,1.8284504,-0.35374972! 0.0,3.7382216,-3.5447655,-2.8249345,-0.83293986! 
0.0,-3.2290592,3.439094,-2.7278185,-2.0121794,2.5969753,-1.0845537! 0.0,0.15903997,1.953958,-0.748436,-3.771819,-1.4830232,-0.12319708! 0.0,-3.0325904,-0.17121267,3.5016289,1.1847358,3.0492973,1.0012159! 0.0,-3.1174922,3.5965233,0.6131468,-1.2540722,1.42383,3.1926894! #0.0,-2.87272,-0.2533226,-2.6612017,0.29063544! 0.0,2.5308285,1.2914519,1.7535734,0.4287653! 
0.0,-0.027320512,-0.8583565,3.175215,1.7909088,3.4822438,-0.80529153! 0.0,1.813776,-3.6550643,-3.1278195,4.018515,3.1357803,1.6629596! 0.0,-3.398501,-1.3955021,2.2166514,-2.3278046,-0.2352457,2.4491673! 0.0,2.6576092,-0.93608713,2.9786592,-1.2033429,2.1276093,0.5470195! #0.0,0.75610256,-0.7887883,-0.53961754,2.1157088! 0.0,-3.6076272,-1.5257502,-1.7979945,0.12130976! 
0.0,-1.4850761,-2.1275845,0.63864994,-3.6732345,1.0815349,2.4065094! 0.0,2.7037914,-0.8511219,3.34519,-0.35169744,0.41623402,0.39885426! 0.0,3.6264386,3.3143268,-3.1047964,-3.101501,-0.3652625,-2.8635044! 0.0,-2.2090678,-0.40248314,1.2057872,-0.4274951,-1.5604739,-1.2705312! #0.0,-1.5906777,0.58073235,-2.1103368,2.6093833! 0.0,-0.5273709,-0.5614234,-1.8970566,2.084712! 
0.0,-2.4974995,3.8322325,2.3422594,-1.0857236,-2.7619565,-3.154838! 0.0,2.493557,-2.399413,-2.334518,-2.5925155,-2.4216824,-3.1022093! 0.0,1.8136778,1.2677283,-1.0181954,-2.7315989,-3.5779123,-1.2952504! 0.0,-3.191049,-0.15087071,2.6478252,-3.323207,-1.7166109,-3.2224026! #0.0,-3.5345805,3.146514,1.6523309,0.049520493! 0.0,-1.0298448,-3.7966943,0.99249554,1.2848568! 
0.0,-1.4850761,3.1547751,-2.678925,0.8340354,1.9602,1.9979672! 0.0,1.9489903,1.4478492,-1.9313202,1.3789573,-2.6822228,-2.3239412! 0.0,-0.7736686,-0.5651064,2.0398996,-2.254712,3.3735986,2.609816! 0.0,2.6161222,3.8069916,2.4621933,-0.57126904,1.8231272,0.5121379! #0.0,-2.7240481,-1.6408916,-0.024292946,3.8955333! 0.0,0.79331565,-0.25143763,0.17220592,3.1421974! 
0.0,-0.36004257,0.79780245,1.2904186,-2.8415632,1.1922507,3.1812415! 0.0,3.008326,1.7455993,1.1026998,2.7859397,-2.3283277,-0.39018917! 0.0,3.5377154,0.8810878,0.9585767,-2.8834782,0.27445793,2.188795! 0.0,-2.0703502,1.9804273,2.5752943,-0.6537852,2.801855,-0.0690546! #0.0,-3.5479174,3.420529,2.1956959,-0.19095325! 0.0,0.80672973,3.256845,0.44049722,0.89114904! 
0.0,2.5541134,2.715685,-1.1628165,0.35636687,3.0147285,-2.5899835! 0.0,0.27112007,-3.0368443,-3.6584692,1.5132755,-1.7047701,-3.7339735! 0.0,-3.253561,1.4357905,0.33620396,3.8797927,-0.4716916,-0.9530083! 0.0,-2.9433942,-2.3580127,-0.8137169,3.126409,1.8378669,2.4305716! #0.0,-2.7240481,0.075103424,1.9222174,2.2653663! 0.0,2.8234239,0.1103549,2.11685,0.09762408! 
0.0,2.8929815,3.9674497,-3.649601,1.5451584,-3.3963356,-2.8157606! 0.0,0.30356932,2.9225988,0.8009882,-3.5570369,3.2300663,2.302064! 0.0,1.1897945,-3.4658966,-2.9280858,-2.8934307,-2.8048954,-1.0166178! 0.0,1.5002227,2.8235216,-2.214501,-1.4318395,0.37584925,2.1961374! #0.0,-0.84860325,-0.24008247,-2.6905317,1.6602769! 0.0,-2.2097297,-3.6418152,1.5352069,-0.25381804! 
0.0,2.1772308,-1.5771679,3.5802402,3.9306684,-3.6768894,-3.6438353! 0.0,1.168356,2.5548568,2.3129592,1.9011841,-0.17727947,-0.9430485! 0.0,-1.155787,3.3411627,3.6895564,-0.050471198,3.3735986,3.5493593! 0.0,1.0488133,3.9216757,0.8524289,-3.8278403,-1.5126723,-2.4281106! #0.0,0.475657,-2.4722433,2.2365813,3.671967! 0.0,1.0241332,-1.6210389,1.7120037,2.9890127! 
0.0,1.2004218,0.13207531,0.68227005,-0.6953025,-3.8646245,-3.8995662! 0.0,2.7288456,-1.4792285,-3.3682766,2.7648005,0.2004404,0.24683046! 0.0,1.9613023,-2.4264984,0.46503258,-2.676083,2.9962268,-3.9352155! 0.0,1.0608326,-0.5722413,-2.015719,-3.4396372,1.7604451,-3.047657! #0.0,0.51738596,1.3139677,-0.58283997,-0.265975! 0.0,3.064712,1.3687502,-0.31123957,1.8410082! 
0.0,-2.7443223,3.6035173,-1.9635543,-1.1527662,-3.3963356,3.8978376! 0.0,-0.24497014,-0.9102888,1.7698588,-0.16060552,3.2326584,2.302064! 0.0,-2.3640835,-2.399023,-2.9280858,-0.0865469,-2.8048954,-1.6443336! 0.0,-2.3898654,-3.5174897,2.814258,0.22658625,-1.5126723,-2.0532646! #0.0,0.3062934,0.08155441,1.8284504,3.6448183! 0.0,-2.2097297,-3.6418152,1.7120037,-3.765336! 
0.0,-0.027320512,2.5074997,2.7425814,-1.5844603,-2.0032973,-3.6027353! 0.0,1.6910319,2.165269,1.5576816,2.2280602,-2.5864406,2.299097! 0.0,-1.1590887,1.6170912,0.781641,-2.5727048,-3.087685,-2.08538! 0.0,-2.899409,-0.93608713,-0.006327629,0.5853459,-1.1517429,-0.48584795! #0.0,-0.56325257,1.2370698,1.8284504,-1.5385151! 0.0,0.20423721,-0.3844575,-1.6202658,-3.765336! 
0.0,-2.5052176,3.563336,2.7585492,-3.5129995,1.0700197,2.4065094! 0.0,0.46937132,2.4757717,-0.6537036,-1.8293114,-0.7595358,-3.1963542! 0.0,-1.1685536,-2.4318144,-1.4988316,0.20825338,-0.3775692,1.3595563! 0.0,-2.1241088,-1.2862725,2.762714,-3.665686,0.64513904,2.112102! #0.0,1.8079047,-2.225934,-0.5019312,-0.37689984! 0.0,0.8090755,-3.7634163,-3.1130319,2.1161566! 
0.0,-1.2812939,3.8322325,-2.6777916,-1.112823,-2.7619565,-3.1565118! 0.0,2.493557,2.3250427,-3.1151366,-1.623296,-0.3151927,-3.1022093! 0.0,1.8136778,-1.170413,-1.0181954,-3.2709117,-3.5779123,-3.7439375! 0.0,2.6576092,3.7599678,2.6478252,-3.1694188,0.66970444,-0.8976016! #0.0,-1.544611,3.146514,0.7541647,-2.8802404! 0.0,0.12558031,2.2167163,1.4683313,2.5344033! 
0.0,3.5559037,3.1547751,-0.58108574,-3.6268864,1.9271735,0.35424614! 0.0,2.0356998,-2.65062,1.4814591,-0.35169744,1.6847391,2.093707! 0.0,3.4543457,2.8434658,-2.1348338,-3.0775876,2.998982,-1.3349042! 0.0,1.7250684,-0.5148668,2.9702892,0.2501997,0.2822833,0.14362933! #0.0,1.0932555,0.28768015,-1.4869108,-1.5759339! 0.0,3.0595596,-0.25143763,0.17220592,0.079052925! 
0.0,1.2056079,0.15483522,-3.612587,2.811401,0.123485565,2.2896066! 0.0,2.049728,-1.6152521,-1.0768751,1.7120874,3.118075,-1.743175! 0.0,-2.8715985,3.3315945,2.0791469,0.8558453,-2.8895566,-1.6072111! 0.0,2.8696578,1.1333436,1.6066425,0.05215645,3.302129,-2.959409! #0.0,-2.2146206,-3.1358728,2.966674,0.86539793! 0.0,-0.26322937,3.3989646,-1.2223674,-2.088928! 
0.0,3.1311297,2.8812828,-3.2508059,1.6342138,0.35131788,-1.4860147! 0.0,3.7707894,3.824688,-0.7733693,-0.35169744,0.55784464,0.8012046! 0.0,3.6264386,-0.20306024,2.858708,-3.2406049,-3.8698936,2.4581025! 0.0,3.3887444,0.4807706,3.8318071,-0.42187834,0.06879562,-0.48584795! #0.0,-3.8860698,3.4967344,1.2294188,1.8734751! 0.0,2.3692763,-3.5447655,-3.8573518,1.0921006! 
0.0,3.4900641,1.392798,-1.5547482,-1.1527662,-3.3963356,2.3355188! 0.0,-0.24497014,2.9225988,-2.573509,-0.16003431,3.2326584,-1.0623789! 0.0,-2.3640835,-2.399023,-2.9280858,-2.8934307,-0.45387298,1.4854021! 0.0,-3.9020205,2.184771,-3.8850172,0.22658625,0.37584925,2.5732164! #0.0,0.3062934,2.3978825,1.4758844,3.8794222! 0.0,-1.2045565,-3.6418152,1.5352069,-2.747725! 
0.0,-2.3425639,2.4284863,-2.678925,-1.3489172,-3.81256,2.4065094! 0.0,-3.1249657,1.3150082,-2.8664262,-3.787178,-2.711527,-3.925666! 0.0,-0.7736686,3.3315945,2.0398996,-0.5788982,-2.1487045,3.3502269! 0.0,1.7160705,3.8069916,-3.9770377,2.4136634,1.6100516,-0.48584795! #0.0,0.3062934,-0.043438457,-0.024292946,3.8735514! 0.0,3.646602,-0.3844575,0.31013986,-3.8410397! 
0.0,-2.5509067,2.182438,-1.101551,3.1646707,-3.7352242,-2.798678! 0.0,2.7622678,3.824688,-3.263774,-3.5322232,2.167306,1.5689583! 0.0,2.8086143,1.1893158,2.2166514,-1.9703096,-0.3775692,2.4581025! 0.0,3.3887444,-0.5510244,3.8318071,-2.8854377,-3.8421054,-3.001054! #0.0,-3.5332198,1.8091602,1.2294188,0.56206846! 0.0,3.8898525,-3.5447655,3.0749998,0.25850394! 
0.0,2.3432732,-0.798789,2.591641,-1.8616552,-3.9768114,1.0566478! 0.0,0.9675616,1.1981568,3.0826106,-1.4318314,-1.3605137,-2.6023989! 0.0,-3.1064734,2.801556,3.6659064,-0.9867606,-3.572812,0.16200256! 0.0,-0.20446348,-0.39685062,-1.1843214,-2.1188726,-2.703639,3.504428! #0.0,2.6419368,-3.8233142,2.505746,-0.79224634! 0.0,-2.251843,-1.0148053,-0.46651983,0.74545956! 
0.0,-3.8505983,3.5248637,-2.6777916,3.680911,1.2375402,2.4065094! 0.0,2.6722417,-1.7374728,2.9356875,-1.3521447,1.6370171,0.79489374! 0.0,0.26963377,1.6170912,-1.0017407,1.2050095,-0.43321323,1.3664672! 0.0,1.3971834,-0.1628356,1.6520902,-2.27734,1.8945451,2.3992414! #0.0,-0.8773794,2.0082483,1.8207642,3.859472! 0.0,-1.7238078,-0.6109363,0.7801114,3.2835684! 
0.0,-2.5509067,-3.9276872,-1.101551,1.86204,-3.7352242,2.248523! 0.0,1.3760108,3.824688,2.3678055,-3.7222843,3.1357803,1.5689583! 0.0,-2.307178,-0.20306024,2.2166514,-0.32244822,-3.8698936,2.4581025! 0.0,3.3887444,0.4807706,1.6686145,1.7553486,-2.5321069,-3.047657! #0.0,-3.561438,1.8091602,1.2294188,0.8664551! 0.0,-2.4658313,-0.5614234,1.4683313,3.7835221! 
0.0,-2.7443223,-3.080141,-2.006425,3.132214,-1.8396215,-1.8089471! 0.0,0.46937132,-0.87653124,-1.6644917,1.4792777,3.1837018,0.39885426! 0.0,-0.31081414,0.89432573,2.0791469,1.1164236,1.9522966,-1.6443336! 0.0,-2.3898654,2.370851,1.5309314,-1.4674402,2.801855,-1.7354746! #0.0,-0.5503412,0.042940438,1.8284504,3.6448183! 0.0,-3.7487602,1.0504899,-2.8093042,2.084712! 
0.0,3.4925973,3.1338212,-0.57946825,2.2223287,-3.9446487,2.3355188! 0.0,0.42068893,2.7356906,1.4814591,-0.16003431,0.41623402,2.6020098! 0.0,-0.2030268,-0.61847323,-0.9066467,-2.7331347,-0.45387298,-2.8635044! 0.0,2.5842545,2.184771,1.7562261,-3.5933175,-2.6873307,2.5732164! #0.0,1.812642,2.2755847,1.4758844,2.2653663! 0.0,-0.5273709,1.7031126,1.5181841,-2.7779608! 
0.0,-2.5509067,3.5942664,0.6237718,1.901576,-0.2679386,2.455868! 0.0,2.7288456,1.0118151,2.3678055,-1.4633077,3.061185,-1.629749! 0.0,1.9613023,1.5921931,1.8680553,-3.2406049,-3.907411,2.4581025! 0.0,1.0377208,0.4807706,-3.8850021,-0.4274951,-1.5126723,0.73047876! #0.0,0.475657,3.7153096,-3.5439787,3.0404496! 0.0,0.381258,3.9141603,-3.3560681,-3.765336! 
0.0,-2.873252,-2.9597845,2.0369105,2.3704972,3.0099502,1.7039104! 0.0,-2.861649,2.5548568,3.2935457,-1.3157659,0.48444128,3.8355484! 0.0,-2.06109,-2.411169,3.5780501,-1.0845454,-3.23447,-2.9242432! 0.0,-2.431148,-2.4685092,0.8868251,-2.8327215,-1.4762031,-2.0580978! #0.0,1.5867457,-0.0902586,3.3479505,1.5071864! 0.0,2.3389392,-0.26077747,-2.0024948,-1.2703047! 
0.0,-1.4876375,1.2653706,-0.6080022,3.844841,-3.739337,-2.573793! 0.0,3.4140282,-2.8482513,3.6221762,-2.393474,-1.2787395,-1.6160336! 0.0,2.4636512,-2.206292,-0.8862462,3.4087763,2.8050113,-2.8388548! 0.0,-0.8522105,1.2134709,3.668161,-0.82147634,-1.3381758,-0.20208438! #0.0,-2.060101,-1.2155752,-0.4445901,2.973526! 0.0,0.33201003,-0.9357681,-0.057003498,2.2286367! 
0.0,-1.4799867,2.5613956,1.134429,-2.3519886,-2.144515,0.27073383! 0.0,3.008326,3.107676,2.3886194,2.0482094,-2.5864406,0.81423014! 0.0,3.3159747,0.51966953,0.3993955,-1.0356941,-3.5713487,3.0466342! 0.0,-2.4432497,2.2384496,3.3174858,-2.8216848,-3.7075086,-2.0580978! #0.0,-1.843697,-2.267069,-3.6912122,-0.7865362! 0.0,-0.018956184,-0.4194948,-2.305543,-2.586331! 
0.0,-1.3306069,3.563336,3.7884893,-3.6732345,1.0700197,2.4065094! 0.0,0.46937132,-0.8752585,-0.66759014,-1.8293114,-0.7595358,-2.6060977! 0.0,-3.3495746,3.3143268,1.4585595,-3.101501,-0.3652625,1.3595563! 0.0,3.434682,-1.2862725,2.750173,-3.2954173,-1.5604739,2.112102! #0.0,-1.5962957,-1.7382922,-2.1103368,2.1252565! 0.0,-0.5273709,-0.5671906,-3.40174,2.084712! 
0.0,-2.0606022,-2.1275845,0.7571664,0.7953291,-1.4471784,2.6427474! 0.0,1.4627233,2.5787659,-3.5645733,0.16017437,2.5713215,0.39885426! 0.0,-1.8856158,3.3143268,2.0196443,2.7023153,-0.3652625,0.9584632! 0.0,-1.1103287,-1.3128971,1.2057872,2.4772983,-1.5604739,-1.2954264! #0.0,-1.5906777,1.6673093,-2.1103368,2.1211522! 0.0,-0.5273709,-1.8640289,-1.8970566,-2.0671687! 
0.0,-2.49565,-1.5122356,-2.263094,1.1203356,1.907723,3.9346156! 0.0,-2.1133027,1.7205849,-0.9560815,-0.58587974,2.771414,-2.0949907! 0.0,3.8293195,-0.5756488,1.5192995,0.14517307,0.21272707,1.0749135! 0.0,-2.395679,0.550334,2.128543,0.7284007,-1.9375982,-3.3850932! #0.0,1.5458608,-2.840827,-1.5450773,-0.39557093! 0.0,-0.03668785,-0.22772709,-3.0169897,-3.4448524! 
0.0,-2.0606022,-0.424191,0.7571664,3.680911,-1.4471784,0.5358572! 0.0,1.4627233,2.5787659,-3.5645733,1.7654606,1.3295732,-0.5588317! 0.0,-1.8856158,1.6305529,2.0196443,0.1262393,-0.29678583,-1.2952504! 0.0,-1.1103287,-1.3128971,1.620195,-0.44785511,-3.678386,-3.047657! #0.0,1.7072005,-2.128748,2.0317874,1.366487! 0.0,0.30046892,1.8201892,-3.8391588,-2.0671687! 
0.0,-2.4063382,3.9794617,-2.4013474,1.5414805,0.6783848,3.2142! 0.0,-1.4367136,-3.2446594,-1.4503112,2.0476966,-3.1044793,0.38624382! 0.0,-2.8715985,3.3315945,3.6519332,2.712709,0.9794116,1.2632251! 0.0,2.6576092,3.754403,-0.20399067,-3.6658664,3.321516,-3.8987117! #0.0,3.0029912,-3.1358728,-2.2195435,3.8323026! 0.0,-3.116579,-0.5687394,-3.6377506,-0.3186522! 
0.0,-1.4850761,3.5860207,2.073025,0.8340354,-1.6969745,3.678949! 0.0,1.0373597,2.4718814,-0.923892,2.7859397,-2.3283277,0.7555763! 0.0,-1.0877242,-1.062083,1.8340683,3.4603155,-0.12832503,3.203496! 0.0,2.8694108,1.9804273,2.5752943,-2.8615746,-3.7075086,-2.9551184! #0.0,-3.5479174,3.3982277,0.4514222,3.8949358! 0.0,0.83878905,3.256845,-1.447129,0.28523558! 
0.0,-1.4876375,1.3068924,-0.6080022,3.844841,-3.7233894,1.9979672! 0.0,3.1814198,-2.914709,1.5576816,1.533607,-0.89970875,-1.1108509! 0.0,2.4636512,-2.169392,2.2166514,3.4087763,2.8050113,-1.425019! 0.0,2.7500892,-1.1170372,3.6605227,-0.82147634,1.235795,3.5360422! #0.0,3.5201335,-1.2155752,1.8284504,-3.1296725! 0.0,0.30046892,3.9141603,-0.057003498,0.9701195! 
0.0,1.494576,-0.8205972,-1.3359213,-3.5094194,1.8782616,2.3299222! 0.0,-3.0636237,0.117572784,1.9255806,0.7327919,-0.3151927,1.422188! 0.0,-1.1872984,-1.170413,1.4585595,-1.9703096,-0.4221614,-3.2611732! 0.0,2.2067103,3.7599678,-1.4691339,1.9182265,-1.5202194,-0.8976016! #0.0,0.3227004,-3.8795824,0.7541647,-2.8802404! 0.0,0.3097524,-0.28078228,-2.3844967,0.39550355! 
0.0,0.13645789,-2.1275845,3.7884893,0.38150248,3.0067182,2.6427474! 0.0,0.49627674,0.60084295,3.34519,-0.35169744,1.7741566,0.39885426! 0.0,0.76347685,-3.2308807,0.32510376,-0.84795,-1.8889185,0.6537884! 0.0,-2.440641,1.8207021,-2.577208,-3.2954173,-1.5604739,-1.2954264! #0.0,-1.5906777,1.6951289,-1.4869108,-2.147533! 0.0,-0.5273709,3.1019554,-1.4756136,0.9396467! 
0.0,3.3027658,3.8322325,3.7884893,-1.0694157,1.5280269,2.6157677! 0.0,0.46937132,3.2155697,3.34519,0.09675401,3.4932415,-3.1022093! 0.0,1.8136778,-0.6485243,-1.0181954,-3.101501,-3.5779123,-2.8635044! 0.0,2.6576092,3.9774287,1.2057872,-3.2954173,-1.5604739,-1.2954264! #0.0,-1.5906777,1.6673093,-2.13772,0.049520493! 0.0,-0.5273709,-3.7966943,1.4224997,2.084712! 
0.0,-1.4850761,3.563336,1.9836661,3.680911,1.0815349,2.4065094! 0.0,2.7037914,2.14373,-0.7733693,-0.35169744,-0.7595358,-3.7203002! 0.0,3.6264386,-0.20306024,-0.9066467,-3.4241295,-2.8685193,2.43036! 0.0,-2.4331832,-0.3981961,1.6520902,-0.4274951,2.801855,2.5365076! #0.0,-1.3055817,-1.7382922,1.8336821,2.6093833! 0.0,3.7382216,-0.5614234,0.0747959,-0.35079277! 
0.0,-2.3324504,3.563336,-2.6777916,-1.3492302,1.282485,2.4065094! 0.0,2.7037914,-1.7023952,2.1987414,-3.822403,3.4932415,0.79489374! 0.0,3.6264386,3.3315945,-1.0017407,1.2050095,-3.5779123,3.3502269! 0.0,3.5248616,1.5985928,1.6520902,1.7310565,-2.6239188,-3.422394! #0.0,-0.946795,2.3903756,-2.7317734,2.5754852! 0.0,1.5064859,0.48524544,0.7801114,-3.8410397! 
0.0,-3.235331,-0.6571479,-1.6002989,3.0788145,-3.81256,3.8865585! 0.0,2.9185584,1.2352734,-0.66759014,-1.4889832,3.061185,-0.018981185! 0.0,-3.253561,1.3454789,-2.1862016,-3.945901,-0.13607784,2.5071867! 0.0,1.9395328,-0.40248314,0.038737204,3.6785011,1.2909875,0.5121379! #0.0,1.8129267,-0.26402634,-3.0239244,-1.2704077! 0.0,2.0864592,0.13135338,-0.36941624,-3.318204! 
0.0,0.094848156,-0.6268588,2.5635266,-0.40340376,-3.3501744,-3.6381438! 0.0,-3.9707222,2.9450274,1.8129379,1.9532465,-0.4757905,-2.3626585! 0.0,-2.3640835,2.5091913,-0.87133694,-2.8934307,-2.8048954,3.1905365! 0.0,-3.9020205,3.6740236,-3.3089373,1.9461799,-3.6603372,2.1961374! #0.0,0.3062934,3.3517752,-3.5288312,2.1150675! 0.0,-0.0016226768,-3.6418152,3.7230177,3.2970743! 
0.0,2.8929815,-3.1140947,-3.649601,1.5685815,3.5741377,-2.8157606! 0.0,0.30356932,-3.1899867,-2.1819797,-3.5570369,3.2300663,-3.5255704! 0.0,1.1897945,-0.18768597,3.3947453,-2.2080812,-0.7832508,-2.14754! 0.0,2.1643834,2.8235216,-1.9751425,-1.4318395,-1.3365402,2.9057894! #0.0,1.7146654,-0.26751757,-2.1206312,0.6784587! 0.0,-0.4859085,-0.5913129,-0.60891485,-0.25381804! 
0.0,-2.5509067,0.7726507,-1.101551,1.86204,-3.6768894,3.0464375! 0.0,-0.28083897,-1.670227,-1.3916681,-1.4402452,1.7741566,0.491138! 0.0,-1.1940532,-0.20306024,2.1703715,-3.2406049,-3.8698936,2.4974833! 0.0,3.3887444,0.4807706,2.79006,-2.8327215,2.801855,2.655478! #0.0,-2.0576491,2.0318055,1.2637442,0.8664551! 0.0,3.8898525,-3.5447655,-3.2866426,1.0921006! 
0.0,-2.0606022,-0.424191,0.7571664,0.7953291,-1.9333658,0.5358572! 0.0,1.4627233,-1.812789,-3.5645733,1.3367716,2.5713215,2.1214027! 0.0,-3.3026628,3.5912445,-2.1862016,2.7023153,3.2662835,2.4773655! 0.0,-1.1103287,-1.4223509,2.7561936,-0.57126904,-3.1538734,0.5121379! #0.0,-0.061964512,-2.1012602,0.8949995,-2.9509773! 0.0,1.7563939,1.193285,-3.8391588,-3.3025165! 
0.0,3.9523072,-3.0826466,2.0369105,-2.0661337,2.4109106,-0.9781966! 0.0,-2.5951648,-0.16939878,-2.0765047,-1.3157659,2.771414,0.8443999! 0.0,3.9148688,3.3143268,3.3484197,1.9647164,0.21272707,-2.4117062! 0.0,-2.4432497,-2.4685092,0.62602997,0.7284007,3.422288,-2.0580978! #0.0,0.8234916,3.5474057,-0.13582945,0.546134! 0.0,-0.9561157,3.1770601,2.1805954,-2.6089067! 
0.0,0.09202771,-0.6268588,1.9637675,-3.2602277,3.1096919,3.8865585! 0.0,-0.052960873,-1.8068587,-0.66759014,-1.672394,3.2245717,-2.57303! 0.0,-0.65901375,0.9747524,-2.1862016,2.2933288,0.68332225,2.4773655! 0.0,2.8453944,1.9804273,2.7127428,0.71093225,-3.6603372,0.5121379! #0.0,1.7582023,0.17888165,4.282035E-4,-3.454794! 0.0,-0.8007539,-0.73603773,-3.29907,2.9127324! 
0.0,-1.4850761,-1.7574348,-1.1287384,-1.8883729,3.0575125,1.4282837! 0.0,-1.1320618,2.4757717,1.7211475,-0.35169744,-0.58803606,-2.6060977! 0.0,2.2074814,-2.4318144,3.2525465,-0.027531147,-2.0607467,0.96974486! 0.0,0.6614728,2.6945794,2.4498484,-1.1016736,-3.678386,-2.787746! #0.0,-0.9599247,1.8211236,-1.5545186,3.9286153! 0.0,0.8090755,3.5125315,3.6307657,0.29250765! 
0.0,0.094848156,-0.6268588,2.5635266,-3.5129995,3.0969021,-3.6381438! 0.0,0.46937132,1.3150082,1.8129379,1.7672333,-0.4757905,-3.1963542! 0.0,3.5442386,2.5091913,-1.4988316,1.5007739,-0.29753637,-1.1864262! 0.0,-3.820427,-3.5356426,2.762714,1.9487562,0.64513904,0.4687532! #0.0,0.12034908,-2.225934,-0.5019312,-0.37689984! 0.0,-0.019135904,-3.7634163,3.7230177,3.2970743! 
0.0,1.5068715,-1.6499686,1.9836661,3.680911,1.0815349,-1.5157952! 0.0,2.7037914,2.943854,-0.8209363,-1.672394,3.061185,-0.0267593! 0.0,-0.65901375,1.3050323,1.5820603,-2.3284972,1.5624433,2.609816! 0.0,1.3325521,1.5269709,0.038737204,-0.4274951,0.7527137,0.5121379! #0.0,0.3062934,-0.26402634,-2.672863,-1.5385151! 0.0,0.28682557,-0.34347114,-1.7979945,1.7125115! 
0.0,0.9379549,0.15483522,-3.6772547,-3.0825791,-0.61081755,0.043892384! 0.0,3.5339527,0.47081122,-0.9189606,0.79997826,3.061185,-2.942188! 0.0,2.4636512,-0.5309887,0.37951094,-0.19256732,3.5405393,2.0216327! 0.0,-0.10679616,3.8069916,2.8101134,-2.8294802,-3.7075086,-1.996099! #0.0,1.242008,-1.2155752,-0.8388915,-3.349585! 0.0,0.30046892,-0.26035342,1.715233,-0.5909629! 
0.0,0.16194057,-0.6571479,-1.6002989,-3.2404232,-0.18204051,-1.5157952! 0.0,2.9194477,2.943854,1.814774,1.9323449,-3.2176967,1.6629596! 0.0,1.4180045,0.9747524,1.5820603,-3.945901,-0.13607784,2.609816! 0.0,1.9395328,1.1547818,-1.78356,3.645,0.16934824,-2.926694! #0.0,-3.3459687,2.0318055,-3.0239244,-1.5385151! 0.0,3.1685164,3.407003,-3.9381866,1.7125115! 
0.0,-1.5167084,-1.5293515,-0.8451071,2.4925957,-2.5694575,3.3137074! 0.0,-0.77473354,0.07133722,0.7719747,-3.9079032,-2.08124,1.5262623! 0.0,2.8544812,1.6559515,1.8340683,3.4087763,0.8309288,3.0559814! 0.0,2.3939867,-3.183176,1.7652862,1.7670135,1.7077203,-2.6752377! #0.0,-0.7048726,3.12069,-2.0289783,1.1295464! 0.0,-2.4515018,3.8577518,2.5519214,-1.7699232! 
0.0,3.1056557,0.61188745,-2.6982508,-0.4258318,0.123485565,0.92603445! 0.0,1.6910319,2.5548568,0.39029646,-2.7837148,3.2198606,2.7458196! 0.0,-2.6636615,-1.0560056,3.877706,-0.0865469,0.612484,-3.3285146! 0.0,-2.8504834,-1.3037314,-2.3396888,3.593811,0.9952917,1.8485618! #0.0,-3.1906037,1.961175,-0.07326932,3.859472! 0.0,0.9969778,-0.2445426,3.6652265,-3.5635538! 
0.0,-3.2795613,2.5613956,3.8061268,-2.33936,-2.144515,1.9970063! 0.0,1.168356,3.107676,-1.6804132,2.0482094,-1.3888701,0.36479282! 0.0,-3.192812,3.5803418,-2.1862016,2.2852356,-3.5713487,2.4773655! 0.0,-2.0927365,-1.3980495,3.3174858,-2.8216848,0.66970444,0.9742132! #0.0,-0.48127222,-2.267069,1.4758844,-2.502068! 0.0,-0.018956184,1.1519976,3.9376793,-3.3025165! 
0.0,-1.4850761,3.6035173,-1.5547482,1.86204,-3.7352242,2.4065094! 0.0,-0.24497014,2.9225988,-2.573509,-1.4402452,-2.2741063,2.302064! 0.0,-2.3549197,-2.399023,-2.9280858,-2.8934307,-2.777914,3.1905365! 0.0,-3.9020205,-3.47237,-3.8880491,2.5493019,-0.78834724,2.1961374! #0.0,0.3062934,-0.3114314,-2.6905317,-3.1739206! 0.0,3.8898525,-3.5447655,1.5352069,-0.83293986! 
0.0,-2.0606022,-0.424191,0.7571664,1.1203356,0.91320944,2.0958276! 0.0,0.4919548,-0.5459542,-0.9560815,-3.5062218,3.515993,-2.5425718! 0.0,1.573472,-0.5756488,1.5192995,1.8551154,0.767509,-2.1411176! 0.0,1.2875328,0.550334,-3.0578895,-0.048540592,-0.3463812,3.027112! #0.0,1.5458608,-0.8958216,-0.03026247,-3.391899! 0.0,-0.24386427,-3.9518256,3.6810713,-2.0671687! 
0.0,-0.21901178,0.23218472,1.9836661,-4.016403,-1.7328944,3.2142! 0.0,-3.0079713,-3.6186461,2.993491,0.79997826,-0.7595358,2.696662! 0.0,-1.5622654,3.2591434,0.44188774,-0.19256732,-0.1654519,3.0199468! 0.0,-0.11097194,-3.5486,-1.78356,-3.8065915,1.4985256,2.215877! #0.0,-0.56325257,-0.26402634,-1.813602,-3.349585! 0.0,-2.538745,-0.3466926,-1.4518882,-1.6855416! 
0.0,-2.7880056,2.2466063,-2.6777916,-1.112823,-2.7619565,-3.6322374! 0.0,3.6139512,3.2107391,2.9356875,-1.623296,-3.1035743,-3.1022093! 0.0,1.3731494,-0.6485243,-1.0181954,0.20825338,-3.6266716,-1.2952504! 0.0,2.6576092,3.9956622,2.6478252,-2.8356376,0.66970444,-1.8844571! #0.0,-3.561438,3.3889656,1.0515529,1.1800233! 0.0,2.9958832,-3.7966943,-1.0870881,2.1452978! 
0.0,-3.2795613,-0.6551894,-0.57946825,2.2223287,-1.9333658,1.9970063! 0.0,1.9489903,3.144816,1.4814591,1.3367716,1.9278105,2.6020098! 0.0,-3.3026628,3.5803418,-2.1862016,-2.7331347,1.9364514,-2.8635044! 0.0,1.4784245,-1.3851384,2.7561936,-0.57126904,1.8656939,0.5121379! #0.0,-0.061964512,2.2755847,1.4758844,2.3087516! 0.0,1.0216169,-0.25560218,-1.0955801,1.4820518! 
0.0,2.1772308,-2.147629,3.5802402,3.949834,1.5280269,3.2142! 0.0,2.7037914,-2.6878366,1.7261463,0.08736515,3.2326584,0.39885426! 0.0,-2.3640835,-2.4305334,2.0791469,2.1507335,1.9264266,-1.6443336! 0.0,-2.3898654,3.8874826,2.814258,0.9732151,-1.5126723,-2.0532646! #0.0,3.0029912,0.08155441,-2.2195435,3.6448183! 0.0,0.19583648,-1.6210389,-2.3032012,2.084712! 
0.0,1.5111725,3.287189,-0.57946825,0.8340354,0.052479673,-0.5433173! 0.0,1.9489903,3.1764605,1.4814591,0.17340195,-3.4541109,2.6020098! 0.0,-1.8836441,-3.2713819,-3.5861602,-2.7331347,-0.3652625,2.4417753! 0.0,2.6161222,1.8637363,1.7562261,-3.7758641,1.8656939,-1.7712903! #0.0,-2.7240481,0.25816774,0.8416579,2.8983083! 0.0,3.1451573,2.323634,1.7180626,1.4820518! 
0.0,-0.01700449,1.1388965,-0.57946825,-1.7786589,1.9602,-1.8721924! 0.0,-1.9025612,1.4478492,-1.9313202,1.3789573,1.2396653,3.8153648! 0.0,3.3273501,-1.963129,2.7174082,-2.4971638,0.6578706,-0.5569005! 0.0,0.8717036,2.6945794,2.41987,-3.7926311,1.8656939,0.5447376! #0.0,3.4961681,-0.36787462,1.4929804,2.2759683! 0.0,2.5100532,-0.25143763,2.754315,3.948061! 
0.0,3.376133,3.1062446,2.7425814,-2.3497558,0.051291466,-3.1043715! 0.0,2.0554688,3.4582896,2.1552155,1.7672333,-3.4192657,-3.1963542! 0.0,-1.8886814,0.040187836,-1.8355818,-0.0761223,-0.2352457,2.6647158! 0.0,-2.1241088,-0.40248314,-3.3827477,0.6693487,0.64513904,-0.48584795! #0.0,-2.5764036,3.2844062,-0.822073,2.2519197! 0.0,0.58909607,-3.7634163,-3.7548106,2.1161566! 
0.0,-2.0606022,-0.4179934,-2.391239,3.6374393,-1.0851892,0.5358572! 0.0,-3.0636237,0.117572784,-3.5645733,0.16017437,2.5713215,-0.5588317! 0.0,-1.1872984,-2.1100464,1.4585595,2.7023153,-0.43442968,0.9584632! 0.0,2.6161222,-0.1598072,-1.4691339,2.4772983,-1.5202194,2.2035024! #0.0,0.3227004,-1.7382922,0.8949995,-2.9509773! 0.0,1.7534186,-0.23824938,-3.8391588,-2.0671687! 
0.0,0.09792885,3.435343,-0.1479044,1.9341003,-1.1894679,-1.631329! 0.0,3.6377668,-2.914709,-0.64518154,-3.6119597,1.2745624,-3.6287003! 0.0,-1.5622654,-1.8817716,2.9027243,3.4087763,-3.6840148,-0.92909575! 0.0,2.7643228,-3.5002103,-3.5244026,1.7883401,0.6007447,2.4305716! #0.0,-3.561438,-1.4530207,-2.9906087,3.0404496! 0.0,0.30046892,3.6344724,-1.1955042,3.1421974! 
0.0,-1.3306069,-1.4615993,1.4659605,0.9199115,1.0700197,2.0958276! 0.0,-1.2121625,-0.5459542,-0.9560815,-0.11995506,-3.338469,-2.5406463! 0.0,-3.3495746,-0.5756488,1.5192995,-0.3400967,-0.3775692,-3.236617! 0.0,-3.4425015,0.54153025,2.7266483,-0.048540592,-2.7162423,1.994447! #0.0,1.9308167,2.6461325,1.6560225,3.859472! 0.0,-0.26322937,-0.5671906,1.1220384,-3.4448524! 
0.0,1.2071983,-2.374423,-1.581666,-3.6276736,0.8242769,-3.1045065! 0.0,1.417572,-3.4659033,-1.9537153,-1.6789756,3.2326584,-0.6411824! 0.0,-1.4149537,-3.331411,-0.9066467,2.152989,0.48566628,-1.995276! 0.0,0.71491957,2.3985624,2.9200861,2.9799461,2.087031,-2.8235648! #0.0,3.7546692,2.3978825,2.0305395,1.2469792! 0.0,-0.2592392,2.027701,-3.7187943,-0.41792488! 
0.0,1.3969588,3.5944085,-2.701541,3.2178593,1.8233352,3.678949! 0.0,-2.2638683,-3.0638041,3.0079606,2.240109,0.42468786,3.1325152! 0.0,-1.1242709,1.5594187,3.1227293,1.5785208,-2.0942843,-2.6289268! 0.0,1.4964247,-3.5486,2.750173,-3.8065915,1.4985256,-3.631415! #0.0,-0.54088044,1.1590762,0.90954846,0.32696247! 0.0,3.793888,0.77702236,-0.42286682,-1.6855416! 
0.0,3.991128,0.17580748,-1.2749305,-1.7500119,3.3571155,2.539937! 0.0,-0.052960873,0.110174656,-3.5005684,-3.6167684,-3.8974156,3.523305! 0.0,-1.1921234,1.965591,3.1744132,-2.8834782,-3.3211787,3.320911! 0.0,2.7227497,1.9804273,2.973617,-0.6537852,-2.493599,-1.5648413! #0.0,3.3394551,-2.826263,0.7545099,-3.4049673! 0.0,-0.77233267,3.0045152,3.7255688,-1.4376917! 
0.0,-2.534266,3.563336,0.63864994,-3.5129995,1.0815349,2.4065094! 0.0,2.747521,1.3407606,-0.764126,-0.35169744,-3.1035743,-2.951355! 0.0,-1.1685536,-0.20306024,-1.4988316,0.20825338,3.2273517,2.4581025! 0.0,-2.1241088,-3.5356426,2.7358189,-0.42276138,-1.5126723,0.4687532! #0.0,1.8079047,-2.225934,1.8336821,-0.37689984! 0.0,3.7382216,-3.7634163,-3.1130319,2.1161566! 
0.0,-0.29815483,3.1062446,-2.8702984,-0.45569277,-0.53521776,-1.8056784! 0.0,-1.2989984,-2.0723348,1.7032213,-1.4328299,-1.1131692,-0.99210906! 0.0,1.9044309,0.05135441,-0.27181768,-0.10807511,3.9844775,-3.5817513! 0.0,-2.1241088,-0.40248314,-2.0204878,0.02727127,0.62092525,-0.5287674! #0.0,-0.48127222,-2.225934,1.9867678,3.859472! 0.0,1.0261828,1.7738495,-3.3050518,-1.453455! 
0.0,-1.2277536,-3.938757,-0.0921205,-0.24767733,0.35131788,-1.9750603! 0.0,-2.650361,2.7859921,3.3783355,-0.3578887,-2.1067224,-0.6775179! 0.0,-2.6975589,-3.3864455,0.46503258,-0.2555809,3.3487928,0.59250355! 0.0,1.0608326,2.1212354,-3.205175,2.4409277,1.7604451,-1.6942649! #0.0,-3.8656545,3.5882576,-3.6207259,1.6456199! 0.0,0.26911512,3.9141603,-2.8249345,-0.81182855! 
0.0,-3.8459754,-3.347681,-2.678925,-1.112823,3.475617,2.4297917! 0.0,0.46937132,-1.812789,3.6221762,3.906035,-1.8597027,1.5238037! 0.0,-0.7736686,-3.9768536,-1.4678154,-2.8298302,3.3614993,-1.7385826! 0.0,-0.14968427,-0.52529854,2.814258,2.3769808,2.5487676,-2.3802657! #0.0,1.8079047,-0.043438457,-0.5019312,3.9286153! 0.0,-0.44820976,-2.9789557,-1.0870881,-0.2358512! 
0.0,-2.0606022,2.28849,0.7571664,2.811401,-1.4471784,0.53070426! 0.0,1.4627233,2.5787659,-3.5645733,0.16017437,0.5049309,-0.5588317! 0.0,-1.8856158,3.3721118,2.0196443,0.8096134,3.2273517,0.9584632! 0.0,3.4305298,-1.3128971,-0.20399067,2.4772983,-3.7075086,-0.66743225! #0.0,-3.9677162,-2.128748,-1.4869108,-2.9509773! 0.0,-3.1901584,-3.5447655,-3.8391588,-2.0671687! 
0.0,-1.4732056,-1.4615993,1.9637675,-3.2404232,3.1247163,-3.6381438! 0.0,1.2216849,2.895092,1.8026471,-1.672394,3.2245717,-2.57303! 0.0,-3.253561,0.9747524,1.5556039,-2.6670246,4.0025764,-2.1053395! 0.0,2.80645,1.1473864,-3.3089373,-2.7840533,0.7069335,2.215877! #0.0,0.12034908,-2.8385348,-1.009584,3.8107455! 0.0,2.039495,1.1992564,3.7230177,-3.3025165! 
0.0,-1.4850761,2.7714186,-3.7012343,0.3428133,-2.8816295,-1.045876! 0.0,1.4228926,-1.0210009,-2.9671333,-0.48000765,3.1357803,1.6378913! 0.0,-0.83213663,-1.396441,0.781641,-3.049118,3.151267,-3.810482! 0.0,0.60313576,-0.6141058,-0.275558,0.6693487,0.6007447,-2.8719254! #0.0,3.2863088,0.25816774,-0.31055307,-1.5838523! 0.0,0.7998353,-0.25843316,3.9007921,-0.3186522! 
0.0,-2.5052176,3.1062446,2.7425814,-3.5006952,0.051291466,2.4065094! 0.0,1.6910319,1.3150082,1.1001997,2.6144173,-3.4192657,2.696662! 0.0,3.6095614,0.040187836,2.2762227,-0.0692749,-0.29753637,-2.08538! 0.0,-2.8924916,1.6450827,-3.205175,2.4409277,2.8973193,-0.48584795! #0.0,-0.5372723,1.2370698,1.8284504,-0.3614695! 0.0,0.26911512,3.9141603,-1.656898,2.1161566! 
0.0,1.9473672,-3.080141,1.8740716,0.29679918,3.1129317,-1.872426! 0.0,0.51448107,-1.1214533,-0.66759014,-2.313704,1.3295732,3.0686712! 0.0,-0.3421383,-3.593268,3.7592483,-0.10840893,2.0684423,-0.39228296! 0.0,-3.9125853,2.3449683,3.2232103,-3.167035,3.8805747,0.5806813! #0.0,-0.74560213,0.7899369,0.6357501,2.6093833! 0.0,-0.7349906,1.0777376,-1.387269,-1.1323977! 
0.0,1.3969588,3.5944085,-1.5547482,3.2178593,1.8233352,2.4065094! 0.0,-2.2638683,2.9225988,-2.5652127,-0.16060552,2.185786,3.1809387! 0.0,-1.1242709,1.5594187,-2.9280858,1.5785208,-2.8048954,3.2357075! 0.0,-3.9020205,-3.47237,2.798955,3.235054,0.37584925,2.1961374! #0.0,-3.338911,0.06775234,-2.6905317,0.32696247! 0.0,3.793888,-3.6418152,-0.42286682,-0.14940462! 
0.0,-1.4850761,-3.922736,-3.6927323,0.3133502,-2.8816295,2.4065094! 0.0,1.4228926,1.3283806,2.5541334,-0.48000765,-2.711527,-3.9522984! 0.0,-0.83213663,0.5126047,2.0398996,-3.049118,3.151267,-3.8105173! 0.0,-3.6873765,-2.9175694,-0.275558,-3.1294909,1.6100516,-0.33831978! #0.0,0.28686962,-0.043438457,-2.985386,2.2860408! 0.0,-0.45018005,-0.38203242,0.31013986,-0.8284755! 
0.0,0.91418,3.2766562,2.3725877,-3.991417,-0.61081755,-0.94664145! 0.0,-3.0488322,0.47081122,2.267335,-1.1278148,3.061185,-3.9407678! 0.0,2.4636512,3.5251398,0.37951094,-0.19256732,-0.29678583,-2.0118918! 0.0,-0.10679616,3.9613543,1.1179438,-2.8420537,-3.7075086,1.5926628! #0.0,-2.2163281,-3.3766289,-2.4383445,-1.8698945! 0.0,0.30046892,1.9003801,-0.29134703,-0.59387857! 
0.0,-2.4063382,-2.7983842,-1.0652876,1.5414805,3.0147285,-0.3005638! 0.0,2.493557,-3.2446594,-1.0768751,2.0476966,-1.7047701,-3.7339735! 0.0,-2.8715985,3.3315945,-1.9040725,-2.6935387,3.5387323,-0.9530083! 0.0,2.6576092,3.5090156,-2.0144644,-2.3136313,3.3656762,-2.1066961! #0.0,-1.4507604,-3.3255644,1.9222174,2.3745918! 0.0,1.5676551,0.1103549,0.09606394,-0.3186522! 
0.0,3.4925973,1.392798,-2.8702984,-0.45569277,-0.535378,2.3355188! 0.0,0.42068893,-2.0661407,1.7032213,-1.4761914,-1.1131692,-3.5361977! 0.0,1.9044309,0.05135441,-0.27181768,-1.3834503,-0.45387298,-3.5817513! 0.0,1.8049064,-0.85392666,0.8810177,0.02727127,2.1171632,2.870016! #0.0,-2.9311576,1.0662632,1.4758844,-2.395997! 0.0,-1.2045565,1.7738495,1.5181841,-1.453455! 
0.0,0.08446932,0.21288872,3.8509994,2.811401,-1.1894679,3.678949! 0.0,0.99432385,-1.812789,-0.64518154,-0.05988407,-3.3166804,2.696662! 0.0,2.6747336,2.5585046,-2.1862016,-2.572943,3.475707,-1.7966619! 0.0,1.4964247,-1.3851384,2.750173,0.71093225,0.6007447,0.5121379! #0.0,1.7669615,-1.8141941,-3.5439787,3.0404496! 0.0,1.9394636,-0.007999869,-1.1621772,-3.318204! 
0.0,1.5111725,-0.424191,-1.629076,0.7953291,3.282475,-3.6786098! 0.0,1.4627233,-3.0851924,-0.38792592,0.16017437,2.5713215,-0.5588317! 0.0,-1.8856158,3.3721118,2.0196443,2.7023153,3.413424,2.1452446! 0.0,-1.1103287,3.6727757,1.620195,-0.4274951,-3.1538734,-0.69930935! #0.0,1.4654415,-2.128748,1.9867678,3.859472! 0.0,1.7563939,-1.8281794,3.6652265,1.6707457! 
0.0,0.094848156,3.8322325,-0.37662172,2.2223287,-3.5594103,1.9979672! 0.0,1.168356,2.5726042,2.9356875,-1.623296,2.1755981,2.1545491! 0.0,1.8136778,-2.4562168,0.6094432,1.2050095,-3.0501735,-1.2801144! 0.0,-2.351822,2.6945794,2.4259734,-0.57126904,0.6538178,3.474587! #0.0,-3.561438,3.146514,-2.13772,0.049520493! 0.0,3.7382216,-3.4502969,1.4683313,3.2835684! 
0.0,-1.4850761,0.79780245,-1.0522866,-3.2404232,-3.399295,-0.8980808! 0.0,3.008326,2.9225988,1.8326582,-3.6589384,2.2281554,1.6629596! 0.0,-2.356324,0.9747524,1.5455906,-2.6670246,-2.8048954,1.684134! 0.0,1.3325521,1.1547818,-1.78356,0.22658625,0.37584925,2.1961374! #0.0,0.3062934,0.06775234,-2.6905317,3.91774! 0.0,3.1685164,-3.6418152,1.5352069,1.7125115! 
0.0,-1.6592951,0.8057534,-2.5924382,2.2223287,-3.6768894,3.0345988! 0.0,0.42068893,2.7356906,-1.3916681,0.36728472,3.2326584,-1.0623789! 0.0,-1.1940532,-0.59357816,2.1703715,-0.84795,-0.45387298,0.60819197! 0.0,1.7746743,0.0034671985,-3.8423588,-2.8327215,2.801855,2.655478! #0.0,1.812642,2.0318055,1.4758844,3.9246128! 0.0,-1.2045565,1.7031126,-3.2866426,-2.747725! 
0.0,-1.3292916,0.79551077,-2.006425,-3.6268864,1.1168656,1.4282837! 0.0,2.0356998,-2.6247046,2.1741214,-1.8293114,-2.68539,2.7235346! 0.0,3.4543457,-3.672677,1.5204744,-1.3390579,2.8578286,-1.3349042! 0.0,1.6989117,-1.2862725,2.9439826,0.21268511,-2.7162423,-2.7507415! #0.0,-3.8760784,0.28768015,-0.18130445,-2.4130206! 0.0,-0.44117296,-3.1837173,3.8364768,3.2835684! 
0.0,1.5036035,3.563336,3.175215,1.86204,-3.7352242,-0.81613064! 0.0,2.7288456,3.824688,2.3678055,1.7356839,0.55784464,-1.4527888! 0.0,2.8438377,-2.0652611,1.8680553,-3.2406049,-3.907411,-0.39957842! 0.0,2.6161222,-2.0981586,2.9786592,-2.804207,0.066359356,2.2035024! #0.0,-3.5992095,3.7153096,1.8409209,3.859472! 0.0,0.26911512,-3.5447655,1.4962889,-0.83293986! 
0.0,-1.4850761,3.6035173,-1.5547482,1.9111867,-3.3963356,-1.5157952! 0.0,2.9185584,2.9225988,-2.573509,-0.16060552,2.1648738,2.302064! 0.0,-2.3640835,1.3050323,1.5820603,-2.8934307,-2.8048954,3.1905365! 0.0,-3.9020205,1.5269709,-2.214501,3.6785011,0.37584925,2.1961374! #0.0,0.3062934,0.06775234,-3.0239244,3.8794222! 0.0,-2.2097297,-3.6418152,1.5352069,-3.765336! 
0.0,1.64678,-3.3553061,-1.1628165,0.35636687,-2.592842,-2.6354005! 0.0,-0.9548917,1.1273842,1.592393,0.9606929,0.79825807,3.667838! 0.0,-1.7609825,0.6113739,0.8028343,3.8797927,-0.49514636,-1.4531565! 0.0,-2.4627633,2.1942763,-0.8137169,2.976623,-1.4042745,-1.906837! #0.0,-2.7240481,-3.7374773,1.4491315,2.2653663! 0.0,2.8234239,1.6855693,3.7257206,3.1421974! 
0.0,3.376133,3.1547751,-0.57946825,-3.8556323,1.9602,-0.05279253! 0.0,-2.9924245,1.4478492,0.6473314,-2.7788672,-2.952509,-2.3239412! 0.0,0.26502806,-0.5651064,2.7174082,0.010040283,0.66397786,1.4854021! 0.0,-1.1406441,-2.818041,-3.9770377,-0.57126904,2.5332768,0.5447376! #0.0,-2.7240481,2.4178045,1.4758844,2.2759683! 0.0,3.9209735,-1.997015,-3.7732282,-3.895945! 
0.0,0.74480295,-1.5092592,2.3422594,3.6898408,1.1628089,-3.3801618! 0.0,1.6125813,-2.399413,-0.33076906,3.4211307,-2.4216824,2.3238726! 0.0,-0.84249735,1.3119888,-3.0585723,-0.15147781,-0.16414595,-2.6207128! 0.0,-3.191049,-1.9626074,2.5900016,-1.9225302,2.5648103,-3.2224026! #0.0,3.081337,3.681882,1.6523309,3.2683349! 0.0,3.3916924,1.1097713,1.041745,1.3335886! 
0.0,0.3368783,0.17580748,3.6723716,3.680911,3.3105597,0.47131854! 0.0,0.46937132,0.110174656,-3.5005684,-0.7534424,-3.8974156,1.6629596! 0.0,-1.2180299,3.3887327,2.2166514,2.1676793,-3.2948928,3.320911! 0.0,2.6576092,-1.9737544,-1.78356,0.07470999,3.8888576,2.5732164! #0.0,1.0907937,-2.826263,-2.672863,3.1562638! 0.0,3.6802979,3.407003,3.7255688,-1.4376917! 
0.0,0.094848156,3.7915437,0.3453144,-0.40340376,3.0969021,-3.6786098! 0.0,-3.9707222,-3.2549949,1.8129379,1.9532465,3.2069893,-0.6958337! 0.0,0.4739364,1.6305529,-0.9046667,1.5007739,-1.3949051,3.9629264! 0.0,2.6161222,-2.642734,0.8524289,1.7553486,2.606258,-2.3962595! #0.0,0.12034908,3.6825867,-3.0052123,-1.639023! 0.0,-0.0016226768,0.39897302,3.7230177,3.2970743! 
0.0,0.08118928,1.7189493,2.591641,-3.608152,2.2503576,2.040157! 0.0,-0.20689583,1.1981568,3.0826106,-0.11995506,-2.0622644,2.7715707! 0.0,-3.1064734,2.801556,3.6385145,0.8974288,-3.572812,0.16200256! 0.0,-3.421147,-0.40714073,-1.182086,-2.1188726,-3.8421054,3.6427312! #0.0,2.6419368,2.6207323,2.505746,1.2998495! 0.0,-2.251843,-1.0148053,-3.4849706,0.7677403! 
0.0,-1.6592951,-2.2102942,2.073565,-3.146369,-3.6768894,-3.7830365! 0.0,-1.8603144,-3.0762548,-3.2290974,0.36728472,-2.730216,0.03949547! 0.0,-1.5622654,3.2995055,3.6519332,-2.294507,-2.777914,0.60819197! 0.0,3.960662,0.0034671985,-3.5244026,-2.8327215,2.801855,1.9263775! #0.0,1.0656531,-0.3114314,0.9136286,3.3222315! 0.0,0.83878905,-2.2299376,1.4683313,0.9468856! 
0.0,-1.3306069,-1.7080241,3.8387666,-1.8883729,-3.0427837,1.4282837! 0.0,-2.5812688,-1.8442597,1.7019278,-1.8166173,0.6160945,2.7235346! 0.0,2.8438377,3.2995055,-1.4678154,1.8407369,2.8654141,0.94300604! 0.0,3.434682,-0.5148668,2.750173,0.9732151,2.5894387,-2.7507415! #0.0,-3.8760784,2.1646538,-0.18130445,-2.4130206! 0.0,-3.2647805,-3.1837173,-1.0870881,3.2835684! 
0.0,3.096258,3.073327,-1.101551,1.86204,-3.7352242,-2.7883759! 0.0,2.7288456,3.1831145,2.3678055,-1.4402452,3.758634,1.5689583! 0.0,-2.042922,-0.20306024,1.9992728,0.99388313,-3.8698936,-2.2237387! 0.0,3.3887444,0.4807706,3.8318071,-0.42187834,-2.558895,-3.047657! #0.0,-2.0576491,1.8091602,-2.13772,0.8664551! 0.0,3.8898525,-0.9651027,-3.8573518,2.1161566! 
0.0,-0.7348089,0.46293783,1.6781902,2.1476202,0.20779848,1.9201903! 0.0,3.008326,1.8899803,-3.1683526,3.9287698,1.1035151,2.302064! 0.0,-3.0325904,-3.9283123,0.3993955,1.3814001,3.0492973,1.7767072! 0.0,-0.89027643,-1.3478938,3.8318071,2.4349582,0.7990041,-0.01965475! #0.0,3.8170652,1.8091602,-2.6612017,-1.5385151! 0.0,1.1537137,-0.20797777,-1.6202658,-3.3629887! 
0.0,-2.5052176,-3.3534775,-1.083621,-3.5129995,-3.2592134,2.1691866! 0.0,0.46937132,-0.7265692,-3.0157857,2.7258334,-3.1375787,-2.7447367! 0.0,-1.1685536,-2.086913,1.7053566,3.953226,-3.192277,-1.2222753! 0.0,-2.0388908,0.93320894,-3.6056538,2.6437805,1.9266801,0.50661284! #0.0,1.8079047,-3.231185,-0.5019312,-0.54840136! 0.0,-1.2045565,-1.1144457,-3.1130319,3.3489337! 
0.0,-2.5509067,3.3550584,0.63864994,-3.3369284,2.767065,-3.8995662! 0.0,2.7288456,-1.4792285,-1.0192184,1.647138,3.135891,-2.400765! 0.0,-0.8334799,-2.4264984,-1.9148254,1.0760059,-2.1392655,-1.7216334! 0.0,-2.1407108,-0.8242278,1.8025622,-3.4658728,1.7604451,-0.6517968! #0.0,3.42381,3.228127,-1.6573806,2.8823485! 0.0,0.9111085,2.1449294,1.9906578,1.8410082! 
0.0,0.15920639,2.3987632,-3.6523147,1.8820653,-2.9188242,-2.573793! 0.0,3.4140282,-2.399413,2.1452856,-2.393474,-2.4216824,2.2956018! 0.0,-0.84249735,-3.1158285,-3.8910751,1.3757715,-0.16414595,-2.8388548! 0.0,-3.191049,1.2134709,1.0272131,1.4842958,-1.7166109,0.33701754! #0.0,3.081337,1.3642583,-0.4445901,2.956736! 0.0,-1.0091913,-0.9357681,3.0799732,1.2848568! 
0.0,-2.5052176,2.5074997,2.7555244,-1.6083131,-1.1894679,2.4065094! 0.0,-0.16726685,1.3150082,2.8532925,2.1889615,-3.1035743,-3.095136! 0.0,-1.1685536,0.040187836,-1.4988316,0.20825338,-0.29753637,-1.2222753! 0.0,-2.0965085,3.692234,-0.006327629,-0.14308405,0.64513904,1.5368514! #0.0,3.529139,3.1971884,-0.54674137,-0.37689984! 0.0,-1.159426,-0.8047012,-1.1955042,2.1161566! 
0.0,-2.4063382,-1.9253851,2.300324,1.5414805,2.7736359,3.2142! 0.0,2.7300239,-3.2446594,0.7758259,-0.35169744,0.45911524,1.6378913! 0.0,2.6747336,3.3315945,3.6519332,-2.6139317,-0.23549142,3.1905365! 0.0,-2.1747074,-0.5722413,-2.4164343,0.6693487,0.6007447,-2.2981048! #0.0,0.79039335,-3.1358728,-2.2195435,-1.5385151! 0.0,1.9394636,0.47361898,0.09606394,-0.3186522! 
0.0,0.91418,3.2766562,-3.6772547,-2.6393552,2.1818962,-0.09580612! 0.0,1.5970907,0.47081122,3.7723732,-3.3475025,-2.9287791,1.1850109! 0.0,0.4383473,3.5251398,0.40658328,3.5993123,-0.29678583,-1.9735277! 0.0,-3.207687,-2.6559253,-3.9770377,-2.8420537,2.6385186,-2.3962595! #0.0,1.242008,-1.2155752,-0.8388915,-3.349585! 0.0,0.30046892,-0.4252565,-0.27606964,-2.2348402! 
0.0,3.9836848,-3.080141,-0.57946825,0.8340354,-1.8396215,2.6427474! 0.0,1.929836,3.144816,-1.6644917,1.4792777,-3.4662995,2.6020098! 0.0,-0.31081414,0.89036137,-3.1047964,-2.7426858,3.3647084,-3.359962! 0.0,-3.8779345,2.370851,1.5309314,-1.4765892,2.801855,-1.7354746! #0.0,-3.5702379,2.2755847,-1.4869108,-1.3174149! 0.0,-3.7487602,-0.25560218,-1.0955801,-2.3487215! 
0.0,-3.4536846,3.073327,-0.41891736,0.8382944,-3.6768894,-3.6438353! 0.0,1.168356,2.5548568,-2.1051774,-1.9549608,0.9128208,1.9775205! 0.0,-1.155787,3.3411627,3.6551762,0.99388313,-0.29753637,3.5493593! 0.0,2.5784285,3.6992915,0.026240826,-3.8278403,-2.525153,1.9330163! #0.0,1.6464216,-1.8234924,1.9867678,-3.972652! 0.0,-1.4249601,-0.9651027,1.7120037,2.1161566! 
0.0,4.0213423,2.154326,0.45027038,2.8188043,0.31024864,-3.6438353! 0.0,1.168356,2.5548568,-3.263774,-3.5322232,-3.3953524,2.1214027! 0.0,3.5658455,3.3411627,2.2001152,-0.050471198,3.3735986,-0.09835562! 0.0,-2.8504834,0.550334,-1.7820687,-2.798792,-1.5126723,2.1718154! #0.0,-3.5332198,0.66889906,1.2885594,1.5071864! 0.0,1.0216169,2.3778045,3.1027644,0.25850394! 
0.0,1.5111725,1.8248589,-1.629076,2.801978,0.80145836,2.4065094! 0.0,2.6688716,-2.4191349,2.5056314,-3.8569434,-0.17727947,1.6484551! 0.0,-3.1951632,-1.8386883,-2.6282103,2.1940594,-1.2822938,-3.8443341! 0.0,-2.4001493,3.6727757,2.4398832,0.14504719,-0.3716572,2.1931267! #0.0,2.675575,0.25816774,1.5863857,3.842588! 0.0,0.28682557,-0.12849951,-2.3032012,-0.57999134! 
0.0,-2.5509067,-0.021753788,2.001935,-0.6953025,2.5811443,0.25644398! 0.0,0.6361346,2.7930083,2.1925068,1.647138,-0.8876233,0.24683046! 0.0,1.9613023,3.927393,0.46503258,-2.7146168,-3.457172,0.59250355! 0.0,2.2812386,-0.5722413,0.6285871,2.9526958,1.4023361,-3.047657! #0.0,3.066455,1.3139677,-1.6573806,-0.265975! 0.0,3.7382216,2.9185133,-3.80546,-2.868259! 
0.0,-2.7880056,-3.1528196,-2.678925,-3.2263098,3.1502619,0.948781! 0.0,-1.6372323,3.2466764,-2.8664262,0.42252636,1.3295732,-2.5666378! 0.0,-0.65901375,-3.593268,0.68075085,3.55937,2.052856,0.41961098! 0.0,1.3017664,-0.7819691,2.814258,2.4136634,2.1502645,-3.422394! #0.0,-0.8360355,2.5563521,-1.009584,1.1993852! 0.0,-0.26322937,-0.25941753,3.9376793,-1.4339852! 
0.0,-3.2795613,-0.6571479,3.7905467,2.2127182,1.0815349,3.8865585! 0.0,2.9081714,-1.812789,2.657732,-1.4889832,-0.9458914,1.1850109! 0.0,-3.3026628,3.5803418,1.4616987,2.2933288,2.8518946,2.4773655! 0.0,1.4784245,-1.3851384,2.7561936,-0.57126904,-1.5126723,2.2199957! #0.0,-0.049395602,3.3889656,-0.024292946,2.1892745! 0.0,0.26911512,0.021356033,0.17220592,-3.3025165! 
0.0,-3.2781641,-0.6551894,-0.41891736,-1.1321678,-3.6768894,1.9970063! 0.0,1.168356,-1.7771292,2.657732,1.9014642,1.9278105,-0.9430485! 0.0,-1.155787,3.3411627,-2.1862016,2.3363216,1.9364514,2.4773655! 0.0,1.4784245,3.9216757,0.026240826,-0.57126904,-1.5126723,-0.4602901! #0.0,-0.061964512,-1.8573724,1.9867678,2.1892745! 0.0,1.0216169,1.1519976,0.16940418,-3.3436942! 
0.0,2.8929815,-3.2107236,-1.9839967,1.5451584,2.1029396,1.979086! 0.0,0.30356932,0.60084295,1.5576816,-0.35169744,3.186187,3.1812992! 0.0,1.1897945,-3.2308807,-0.120384306,-0.84795,-1.8889185,0.60819197! 0.0,1.5002227,2.8235216,-2.577208,2.4022434,1.8378669,-1.7388177! #0.0,-2.197456,-0.26751757,3.5364723,-2.147533! 0.0,-0.4859085,-0.5913129,-1.4756136,0.9468856! 
0.0,0.13918637,2.777364,0.63864994,2.2690916,2.767065,1.9979672! 0.0,2.7288456,1.0030794,2.1741214,2.660355,0.2004404,0.24683046! 0.0,-3.1823626,-2.4724047,-0.42939615,3.8194578,-3.457172,0.59250355! 0.0,1.1223626,2.6945794,-3.7068367,3.047439,-2.9008374,-3.047657! #0.0,3.066455,-3.3871388,-1.6573806,-0.29969057! 0.0,-0.44117296,-3.1837173,-0.26642767,-3.3025165! 
0.0,0.10130119,-2.6919637,-3.127335,4.01787,3.509845,2.430529! 0.0,-1.1690912,-1.812789,1.7019278,-2.3832803,0.6357411,3.1217318! 0.0,-2.1270075,-0.6940193,-1.4678154,1.8407369,-3.302854,-3.4382102! 0.0,0.62738943,-0.5148668,2.8716197,-3.0214171,2.5487676,0.16319275! #0.0,3.5440912,-0.3249588,3.7822075,3.9286153! 0.0,-3.3637395,-2.9789557,3.55759,3.0824857! 
0.0,-3.8200412,-0.07003102,-0.587976,2.3848372,-1.7513199,-1.0845537! 0.0,-3.372603,0.339437,-1.3130207,3.4734406,-2.8710246,-0.12319708! 0.0,2.6314163,-3.2015543,1.1943834,1.8932588,-1.3315122,-3.340495! 0.0,1.7550917,2.0274773,-2.0663104,2.976623,-2.1214929,-0.7712899! #0.0,3.3370042,-3.8027487,-3.2698088,0.31970644! 0.0,-3.6076272,-3.2933633,0.93404627,-2.2877069! 
0.0,-2.4120538,3.7915437,-3.3810608,-0.17694664,0.3527527,1.4282837! 0.0,-1.8424962,2.4600954,2.993491,-0.3948692,0.5049309,-2.6115532! 0.0,-2.8715985,-1.2987549,1.0727043,3.5993123,-1.5907359,3.3502269! 0.0,3.4305298,1.1333436,-2.5393233,0.05215645,3.9958458,2.2889547! #0.0,-2.1681828,2.2361755,-1.009584,-1.6740019! 0.0,-0.26322937,0.47361898,-1.3907317,-1.6762775! 
0.0,1.5111725,3.2766562,-1.629076,-3.991417,-0.61081755,-0.94664145! 0.0,2.7288456,0.47081122,3.7723732,2.6144173,1.3295732,-2.942188! 0.0,2.4636512,3.5251398,0.8496295,-0.3400967,3.3735986,2.1452446! 0.0,-2.4001493,3.6727757,1.620195,-2.8420537,1.4919107,2.5425477! #0.0,1.242008,3.6825867,-0.8388915,-3.349585! 0.0,0.1892097,-0.23824938,2.295958,-0.6118468! 
0.0,0.91418,3.2766562,-3.6772547,-0.40340376,3.0969021,-3.6381438! 0.0,-3.9707222,0.47081122,3.7723732,0.78633845,3.061185,-2.942188! 0.0,3.5442386,3.5251398,0.37951094,1.4523526,-0.29678583,3.9629264! 0.0,-0.10679616,3.6740236,1.1179438,1.9461799,-3.6603372,3.0037222! #0.0,1.242008,3.3517752,-0.8388915,-3.349585! 0.0,0.26325423,-0.3844575,2.295958,3.2970743! 
0.0,2.377804,-0.798789,0.8312275,-1.8616552,-3.9768114,1.0566478! 0.0,1.0074464,-0.88628674,-0.38792592,0.16410983,-3.4541109,1.9444461! 0.0,0.9911041,-3.2713819,-3.5861602,-0.9867606,-3.8698936,3.674561! 0.0,-0.20446348,-2.9397035,3.668161,1.9182265,-2.703639,3.4831378! #0.0,-2.516602,0.3994422,1.0990624,2.8983083! 0.0,0.99306583,2.3412733,1.7120037,-2.718031! 
0.0,-3.4742684,-1.2000003,-1.6002989,-2.5691328,3.4900503,-1.0203295! 0.0,-3.9145613,-0.09045744,1.7139645,0.97194135,-2.2188778,2.1041808! 0.0,3.85144,2.0263057,0.22428656,3.6062946,1.2352729,1.8947902! 0.0,0.11861086,-0.56258726,1.1179438,3.7054396,-0.26769483,0.17761707! #0.0,2.1860948,2.0020337,1.1392708,2.4497395! 0.0,-0.62710667,0.18773365,-2.6972272,-1.939354! 
0.0,3.595138,-3.4230118,2.7425814,-1.6298131,-1.9668298,0.55105025! 0.0,3.008326,-1.9933205,2.8532925,0.36728472,-1.0839739,-3.7009368! 0.0,2.6747336,-2.7656188,-1.9813533,-2.5727048,-3.1806145,-3.1537457! 0.0,-2.1747074,3.692234,-0.006327629,-3.849512,0.6007447,1.5321915! #0.0,3.529139,3.1971884,-0.5186553,-0.62279916! 0.0,3.7784333,-0.8047012,-2.8093042,-0.2658186! 
0.0,1.1886587,0.15483522,1.9836661,-2.3273625,-1.8754209,2.4065094! 0.0,2.7037914,2.14373,-0.7733693,1.3260765,-2.927053,-1.7723376! 0.0,-1.1685536,0.8810878,1.893495,-0.8165264,0.612484,3.0456479! 0.0,1.0247164,-1.6391567,-1.11626,-3.849512,-3.7075086,-0.4454663! #0.0,1.8079047,3.4247096,-0.5019312,1.2098875! 0.0,2.4573033,-0.3844575,-1.7979945,1.0373882! 
0.0,-1.4850761,-0.8519409,2.3564029,0.912652,-3.7658234,-0.81613064! 0.0,0.4876542,0.069909096,0.7811408,1.3567843,3.1357803,2.5887985! 0.0,3.6648145,1.2228756,-2.2107878,-3.2406049,-3.8698936,-0.79933643! 0.0,-0.32221508,0.4807706,-3.8880491,-0.4148873,-3.9072967,-0.14695598! #0.0,-3.5992095,-1.8088622,2.09651,1.0640993! 0.0,3.8898525,3.1978765,-0.6465244,-0.83293986! 
0.0,-1.1092762,3.5860207,2.015171,3.132214,2.1818962,3.2142! 0.0,3.008326,3.140316,-0.923892,-3.3899927,-0.7595358,-2.785297! 0.0,-1.5622654,3.2591434,0.43596277,1.8415112,3.555908,-2.8120017! 0.0,-0.10679616,-0.40248314,1.3911433,-2.8719833,-1.8827195,2.215877! #0.0,0.007835388,1.0622139,-2.0721786,-0.36704174! 0.0,1.0241332,-2.8642259,-2.8278966,3.7835221! 
0.0,-2.0606022,-0.424191,0.7571664,0.7953291,-0.61081755,-0.94664145! 0.0,1.4627233,0.47081122,-3.5645733,0.16017437,3.061185,-0.5588317! 0.0,2.4636512,3.5251398,0.37951094,2.7023153,-0.29678583,0.9584632! 0.0,-1.1103287,-1.3128971,1.582916,2.4772983,-3.1538734,-0.69930935! #0.0,1.242008,-2.128748,0.8949995,-2.9509773! 0.0,0.30046892,-0.4252565,2.3221252,-0.5909629! 
0.0,-2.5509067,-2.909594,2.550341,-3.1609507,-3.5521512,2.30083! 0.0,1.4627233,3.822357,2.3678055,0.6903634,1.0308871,-0.84101534! 0.0,1.9613023,-2.4318144,1.8680553,-3.195014,-3.8698936,-1.8905935! 0.0,1.0608326,-2.8407524,0.4203682,-3.2909312,2.3255334,0.10044658! #0.0,0.475657,3.2844062,1.3643556,2.5609365! 0.0,-2.23027,-1.4449644,-2.9569445,-0.83293986! 
0.0,0.7368455,0.79780245,-3.22019,1.7438302,1.0815349,1.3728809! 0.0,-3.0636237,3.2143044,1.7269211,2.505931,0.97858906,-3.7009368! 0.0,2.623402,-3.6250985,-3.8033829,-1.0845838,-3.8698936,-0.21565056! 0.0,-2.8504834,-0.4629829,-2.0396876,0.5789189,-2.1688614,1.0965114! #0.0,0.007835388,2.8710812E-4,-3.9143968,-0.2401104! 0.0,1.2623324,3.5689502,-2.3262024,3.3952832! 
0.0,-3.4536846,3.2895057,-3.2010617,-1.9277935,-2.5957189,-0.94664145! 0.0,-2.484652,-3.700729,2.993491,-1.5486956,-3.3181677,-2.973536! 0.0,-2.470124,-1.062083,0.60604525,3.0327587,-2.04149,-3.6286283! 0.0,2.8694108,-1.1585934,2.448419,0.68223476,2.841239,0.29943842! #0.0,0.12556107,1.9024963,-0.8388915,0.16823834! 0.0,0.30046892,0.428109,1.3420987,-2.7363644! 
0.0,-2.290205,-3.4230118,3.6759272,3.680911,0.47267342,-3.6786098! 0.0,-3.0488322,-2.4191349,-2.5936744,-0.35169744,1.7937832,-3.1022093! 0.0,3.6264386,2.1095066,1.4801406,-0.3400967,2.5144358,-1.2952504! 0.0,-0.10679616,-2.642734,1.1179438,-3.849512,-3.678386,1.1133709! #0.0,-2.2146206,-1.3506746,-2.9423776,-2.6394901! 0.0,1.2794719,-0.5614234,1.849194,-3.765336! 
0.0,0.097857475,-1.9348189,-3.174056,1.901576,-0.2679386,-1.631329! 0.0,-2.9112601,1.0611542,3.3783355,-1.4190814,-2.2309957,0.4718681! 0.0,2.6942632,-0.17040008,1.8680553,-2.1008115,-3.8614004,-3.432681! 0.0,1.0670052,2.1212354,3.5215802,0.8418894,3.9207315,-2.933579! #0.0,0.75169545,-3.8372126,-3.6892846,3.3550906! 0.0,0.58521223,3.3752022,-3.3458505,3.969321! 
0.0,-3.8200412,-0.09929085,-2.0030885,2.3848372,-1.7107903,-3.5415788! 0.0,-3.372603,0.339437,-0.28808546,3.4734406,2.0891962,1.7420516! 0.0,-3.7962089,-1.0123663,-0.17245674,2.0360017,2.0848598,-3.340495! 0.0,1.7550917,-2.9396424,-2.0663104,-3.167035,3.8805747,0.5806813! #0.0,2.8531399,0.8149476,-3.2698088,3.562632! 0.0,-2.3692908,0.7757354,0.93404627,2.1884894! 
0.0,-2.5176082,-3.3534775,0.45027038,-3.5129995,-3.0431867,2.4065094! 0.0,0.46937132,2.905117,2.1846893,1.7672333,-3.1526976,-3.2050817! 0.0,2.8086143,1.1893158,2.2166514,0.20825338,-0.3775692,-1.2222753! 0.0,-1.4169886,-0.5510244,-1.7278041,-2.8854377,-3.8421054,-1.3730788! #0.0,1.8079047,-2.225934,3.0918174,0.56206846! 0.0,-3.3158283,-3.7634163,3.0749998,2.1161566! 
0.0,0.49313688,0.79780245,-3.22019,-2.0495949,-1.8396215,2.4065094! 0.0,3.6532202,0.36434156,-0.96597695,2.8700156,-0.50923014,3.6397104! 0.0,3.6506267,1.950264,0.37951094,1.1164236,-2.04149,-2.8120017! 0.0,-0.65701246,3.6320605,2.1450171,0.68223476,2.801855,2.5365076! #0.0,0.07764959,1.9024963,0.37465334,0.15689659! 0.0,1.9879222,2.4875908,1.3420987,-3.765336! 
0.0,-3.3163798,-2.216104,3.8387666,3.9306684,-1.9333658,1.9970063! 0.0,1.1351136,-2.6878366,2.5056314,2.0476966,1.9259623,1.6484551! 0.0,-3.3026628,-0.45169115,-2.1862016,2.2933288,1.9364514,3.2248278! 0.0,1.4784245,-3.46078,-1.78356,1.9896836,-1.8531923,0.4733179! #0.0,3.0029912,3.3889656,-2.2195435,3.671967! 0.0,0.54941654,-1.6210389,-2.3032012,-0.57999134! 
0.0,-3.6174388,1.3068924,-0.6080022,-0.011582851,-3.739337,2.3805375! 0.0,1.3874283,-2.935465,-3.38246,3.7633648,-1.2787395,-3.3743758! 0.0,-0.06657791,0.8900223,-1.8445716,3.4087763,2.8050113,0.9097495! 0.0,0.081516266,1.9910522,3.668161,-2.5925903,2.731803,-2.7420082! #0.0,1.242008,3.69277,3.2510924,-3.0251946! 0.0,0.30046892,-3.2647452,-0.05979811,2.1955428! 
0.0,-1.4850761,3.479919,-0.1479044,-1.24129,-3.739337,2.8674183! 0.0,0.16827536,3.275692,-1.7369313,-1.672394,2.9728265,-3.3743758! 0.0,-2.364625,0.9747524,1.0422568,3.4087763,-3.0054123,0.9421016! 0.0,1.3386102,-1.3674463,-1.122971,-2.82543,-1.8578671,-2.926694! #0.0,-3.3459687,3.393223,-2.9906087,2.8909504! 0.0,0.33470637,1.1992564,1.0143435,1.746657! 
0.0,-0.78965974,1.6522713,-0.0921205,-1.1527662,1.090156,3.2142! 0.0,2.7037914,2.14373,-0.7733693,0.935936,-3.104465,2.6963124! 0.0,-1.5622654,1.0525846,0.34677258,-0.21304849,3.3487928,-3.432681! 0.0,2.8696578,2.1212354,-1.9925146,-0.17787313,-1.5126723,-2.8563051! #0.0,-2.2146206,-3.80437,1.8284504,1.6456199! 0.0,2.44341,-0.12887573,0.103188515,3.9872928! 
0.0,-2.0896544,-2.374423,0.63732624,0.83968204,3.8658876,-0.5623107! 0.0,1.4627233,2.5787659,-3.5696483,0.16017437,3.2326584,-0.6411824! 0.0,-1.8856158,3.3721118,2.0196443,2.682472,3.2662835,-1.995276! 0.0,1.8049064,-1.3128971,1.582916,2.5150142,-0.19661331,-2.8235648! #0.0,1.7072005,-2.128748,2.0305395,-2.9509773! 0.0,-0.2592392,0.7393279,2.2257957,-2.0671687! 
0.0,-0.027320512,2.540872,0.78799266,0.8186404,3.1502619,1.7288413! 0.0,-1.6372323,3.2466764,-0.94400287,-3.4589663,-1.262631,-2.5666378! 0.0,-0.7736686,-0.6485243,2.0791469,-0.62094116,-1.835485,3.1629174! 0.0,3.5248616,-0.59776306,2.814258,0.21475132,-3.1538734,-2.288045! #0.0,-0.8773794,-2.128748,-2.13772,-3.391899! 0.0,-0.24630019,-0.25941753,3.9376793,-2.0671687! 
0.0,-1.4851576,-1.4615993,2.0066571,-3.2404232,3.1247163,-3.6381438! 0.0,1.2216849,2.895092,1.8026471,1.9323449,-2.5864406,0.8443999! 0.0,3.3159747,1.0160137,0.3993955,-1.0356941,4.0025764,-2.1053395! 0.0,2.80645,-0.9150838,1.3640099,-2.82543,-3.7075086,-2.0580978! #0.0,-1.8007088,-2.8385348,-1.0336972,3.848416! 0.0,2.039495,-0.4194948,3.7230177,-3.2963207! 
0.0,-1.4912758,-3.1528196,-2.3862758,-2.4812121,3.5678062,2.4297917! 0.0,-2.9508774,-1.0075684,1.7584925,0.42252636,3.1357803,1.6378913! 0.0,-2.3979666,-2.4330525,3.3260565,-0.08234822,-0.2352457,0.41961098! 0.0,-3.5094573,-0.5722413,1.7652862,3.4038434,-2.9252675,1.510634! #0.0,-2.195352,0.29543588,-2.064907,1.1993852! 0.0,1.0241332,-3.373559,-0.60976076,-1.4339852! 
0.0,-2.5509067,3.361147,0.63864994,-0.6953025,2.7463057,-3.8995662! 0.0,2.7288456,-1.4792285,2.1741214,1.647138,0.2004404,0.24683046! 0.0,1.9613023,-2.4264984,0.46503258,-2.676083,-3.457172,0.59250355! 0.0,1.0608326,-0.5722413,1.8025622,-3.4559922,1.7604451,-3.047657! #0.0,3.066455,1.3139677,-1.6573806,-0.265975! 0.0,3.7382216,1.3345637,-0.2863345,1.8410082! 
0.0,3.4925973,-2.216104,3.616253,3.132214,0.80145836,3.249172! 0.0,-1.3619637,-2.6878366,3.8032923,3.906035,-3.1035743,1.6484551! 0.0,-3.1951632,-0.47655928,-1.4678154,2.1301453,-3.302854,-0.29945374! 0.0,2.6576092,-1.6391567,2.762714,-3.849512,-0.39735937,0.5182978! #0.0,1.8079047,3.3889656,-2.2195435,1.2098875! 0.0,0.83878905,-1.6210389,-2.8093042,-0.59280324! 
0.0,-0.21901178,-2.3946605,-2.701541,2.811401,-1.7328944,3.678949! 0.0,3.2992249,-3.0638041,-0.748436,-0.05988407,-0.31419086,2.696662! 0.0,0.5215354,2.590333,1.8450971,-3.4008813,3.475707,2.8991237! 0.0,-3.1174922,2.0274773,1.3176898,-3.8065915,1.4985256,-3.631415! #0.0,-0.56325257,2.2361755,3.0786123,-2.332982! 0.0,-2.538745,-3.7012172,-1.4087372,-1.6855416! 
0.0,1.2004218,-1.7574348,-2.006425,-1.8883729,-3.8646245,-1.9198079! 0.0,0.5202513,1.0030794,-3.3682766,-1.8293114,1.2934847,0.21995354! 0.0,2.1785944,-2.4305334,-1.0478063,2.5671108,2.9962268,-3.9352155! 0.0,3.434682,-1.2862725,2.750173,-3.4396372,-2.7162423,-2.7507415! #0.0,-3.915185,0.46136475,-0.18130445,1.1560402! 0.0,-0.44117296,-3.1906705,-0.13890743,3.2835684! 
0.0,1.5360794,-1.0493889,-2.006425,1.5414805,1.5053751,3.888382! 0.0,3.1132379,-1.3419809,2.1987414,0.08736515,3.2326584,-3.0070949! 0.0,-2.3640835,-2.4305334,2.3503036,-0.0865469,-2.8679402,-1.6443336! 0.0,0.39628983,3.8874826,2.814258,1.4400496,-0.88191396,-2.0532646! #0.0,-0.56325257,0.08155441,1.8284504,2.602461! 0.0,0.19583648,-0.23824938,-1.7979945,2.1213825! 
0.0,1.2056079,-0.27256784,-3.1706965,3.132214,2.767065,-3.8995662! 0.0,1.6910319,-1.4792285,-0.9189606,1.647138,-0.9458914,0.115986824! 0.0,1.9613023,-2.4264984,1.6884589,0.99388313,-3.457172,-2.8120017! 0.0,1.0608326,0.5480212,-1.7901798,1.867891,1.7604451,-3.047657! #0.0,3.109902,3.4208739,-1.6573806,-0.41842625! 0.0,3.7382216,2.3778045,-0.2863345,1.8410082! 
0.0,-1.2417476,-0.8205972,-1.3359213,-2.56781,1.8782616,3.678949! 0.0,-2.650361,2.3250427,-1.3830025,-0.42301735,-0.3151927,2.696662! 0.0,3.6063948,0.040187836,-3.29523,-3.2709117,-0.29753637,-3.7439375! 0.0,-2.1241088,-0.40248314,-3.283544,2.4409277,-1.6602244,-0.8976016! #0.0,-1.544611,3.5549703,1.8284504,-2.8802404! 0.0,0.26911512,2.2167163,-2.3844967,2.0773196! 
0.0,-1.4732056,0.47773457,1.9637675,2.8188043,-3.6768894,0.5291929! 0.0,1.168356,0.84137905,-0.66759014,-2.7635155,3.2198606,-1.7010273! 0.0,-1.155787,-0.5651064,3.877706,-2.6363556,3.3735986,1.4854021! 0.0,1.0247164,1.1547818,0.026240826,-2.8327215,0.9952917,-2.926694! #0.0,-0.013473984,1.961175,0.602258,3.8794222! 0.0,1.0046163,1.1992564,-2.6190186,1.0584755! 
0.0,3.575306,3.287189,-0.2696538,3.7496972,3.2862687,0.7096033! 0.0,1.0930238,-0.6465111,-2.559897,1.1644721,-1.8180867,2.051384! 0.0,-1.1212382,2.356117,0.29797328,2.4059281,3.7145643,-2.1507883! 0.0,-2.7297974,-3.8636014,-1.7547027,3.465536,0.16934824,3.1081576! #0.0,1.4005613,0.9396024,3.2344983,-1.5385151! 0.0,-0.7275529,-2.98398,1.7120037,2.0913124! 
0.0,-1.2812939,-0.8205972,-1.3359213,-3.5094194,3.7809782,2.3805375! 0.0,3.67738,2.3250427,-3.1151366,0.7327919,-2.782843,3.1070747! 0.0,-0.06657791,-1.170413,-3.29523,-3.2709117,0.9974537,0.9097495! 0.0,2.2067103,1.9910522,-2.1628141,-3.1694188,2.731803,-0.8976016! #0.0,2.509935,-3.8795824,0.7541647,-3.0251946! 0.0,0.12558031,2.237354,-1.2365017,2.1955428! 
0.0,1.0036745,-2.2348151,-0.57946825,-0.034455776,0.047478676,-2.9620442! 0.0,3.0173726,1.4478492,-1.0418448,1.3961792,1.6370171,-2.3239412! 0.0,-3.5802083,-0.53067243,1.956265,1.5286298,-0.5694995,1.4854021! 0.0,-3.723147,-3.727427,1.7562261,-0.57126904,2.7085176,1.8485618! #0.0,-2.7240481,0.29710436,1.4758844,-1.9499898! 0.0,1.6328292,1.9752951,-0.97989464,3.1421974! 
0.0,-0.37928772,-3.080141,1.8740716,0.29679918,3.1129317,-1.8089471! 0.0,-0.49503267,-1.1214533,-0.81332415,-3.3475025,1.3295732,-0.6958337! 0.0,-0.3421383,-3.593268,1.8196267,-0.10840893,3.399168,-3.359962! 0.0,-3.9125853,2.370851,0.05750751,0.05215645,2.606258,-2.3962595! #0.0,-2.2146206,0.7392287,0.65101385,-1.639023! 0.0,0.7998353,1.0777376,-1.0641255,0.29800177! 
0.0,1.5036035,3.563336,-1.6136854,-3.1999497,3.8658876,2.3355188! 0.0,-3.0488322,3.433776,0.7811408,1.9323449,3.2326584,-0.6411824! 0.0,3.6809173,-2.0608823,1.4585595,-3.4245338,-0.25890875,-0.40504026! 0.0,2.6161222,2.184771,-3.8423588,0.5360718,2.8499687,2.4952428! #0.0,1.812642,2.3978825,2.09651,2.124958! 0.0,0.26911512,-0.23824938,1.4962889,-3.765336! 
0.0,-1.4850761,0.79551077,2.876721,-2.6007242,1.1168656,2.4297917! 0.0,2.0356998,-2.65062,-3.3901153,-3.9079032,-1.3072658,2.093707! 0.0,3.4543457,3.2995055,1.5204744,3.409047,-0.2352457,-1.3349042! 0.0,-3.5975459,-0.472672,1.7652862,1.7670135,0.2822833,-2.66731! #0.0,-3.5443163,-1.1702113,-1.4486006,1.1295464! 0.0,3.0109863,0.8215084,2.5519214,-3.1468606! 
0.0,-2.4397497,-0.22639799,-0.9535284,-2.3355002,-0.18204051,-3.424952! 0.0,0.5139437,2.5548568,1.3171921,-1.672394,3.2245717,3.789404! 0.0,-1.5458283,0.9747524,-3.8000245,-2.6670246,-1.1036,0.6659983! 0.0,1.9748287,0.550334,-2.8526115,-2.82543,2.1599813,-3.6930084! #0.0,-0.061964512,1.221495,-0.90272045,-1.3686547! 0.0,0.28418806,-3.5741205,0.8854203,2.1274862! 
0.0,0.90817463,3.2766562,-3.6772547,3.132214,0.123485565,-0.7891903! 0.0,-3.0013258,0.47081122,3.7723732,0.79997826,3.061185,-3.1385045! 0.0,3.7571797,-2.7656188,0.37951094,-0.8165264,-3.1806145,-2.0118918! 0.0,-0.15091655,3.8069916,0.036609124,-2.8420537,3.6926947,2.215877! #0.0,1.242008,3.1971884,-0.8388915,1.0595393! 0.0,0.30046892,-2.4180472,2.2743187,-3.02162! 
0.0,-2.290205,-2.1048143,-3.22019,-0.39887825,1.5280269,3.888382! 0.0,0.46937132,0.3684497,1.7698588,0.08736515,3.2326584,3.6397104! 0.0,-0.43963215,-2.4305334,2.0791469,-0.0865469,1.9264266,3.4757862! 0.0,-3.0078502,3.8874826,2.814258,-2.1180472,-1.5126723,-2.0532646! #0.0,-3.5702379,0.08155441,-2.2356405,3.5950627! 0.0,1.2794719,-0.23824938,1.7120037,-2.3772302! 
0.0,0.9646621,1.4201989,1.4659605,-3.2404232,0.35131788,1.760961! 0.0,-3.1249657,0.8624964,-3.2363205,1.3696777,-2.677041,3.7830667! 0.0,-3.2296789,0.9747524,-2.095161,2.1965508,3.2957602,-3.3021364! 0.0,1.4991426,3.6290493,2.5037975,0.9385123,-1.7315619,2.112102! #0.0,-0.56022,0.08155441,-3.530107,0.56206846! 0.0,2.039495,1.7157824,-1.8979812,2.9729164! 
0.0,0.3435936,-2.8217528,-3.9775486,1.7909088,-3.260798,0.8885927! 0.0,0.4999106,-2.7727652,-0.39820546,-0.5426798,3.1357803,-1.3740807! 0.0,-1.1902981,3.7974668,-0.552968,-0.4482088,-0.4446887,-0.40504026! 0.0,0.6393056,3.6727757,2.9786592,1.8767948,0.048757076,-3.3850932! #0.0,-2.7240481,-0.7887883,-1.5450773,0.86539793! 0.0,-2.256596,-1.5257502,1.4742336,0.60252523! 
0.0,-3.4941926,-3.8041267,3.115304,0.8334938,-3.9340415,-1.0146861! 0.0,-1.779181,-1.812789,2.657732,-0.29007816,0.17840052,1.5200114! 0.0,-3.253561,0.03689766,-1.7982059,1.1855941,3.4386878,2.4773655! 0.0,0.062152863,2.4739404,-2.8423762,0.71093225,-1.8531923,0.5121379! #0.0,-2.0635338,0.73396254,-0.024292946,-0.26620245! 0.0,-0.8007539,0.8137312,0.37203646,2.9127324! 
0.0,3.1056557,3.8322325,-2.6982508,-1.112823,1.0815349,-3.166854! 0.0,1.6910319,0.60084295,2.9356875,0.79925734,3.4932415,-3.1022093! 0.0,1.8136778,-0.6485243,-1.4678154,-0.0865469,0.612484,2.6729422! 0.0,2.6576092,-1.3037314,2.6584177,3.593811,0.66970444,-1.8844571! #0.0,-3.561438,3.146514,-0.07326932,0.049520493! 0.0,3.7382216,-0.287173,1.4683313,3.2835684! 
0.0,-1.4850761,-2.8523698,3.9384212,0.8376065,-3.8862755,2.4297917! 0.0,1.4360307,2.1996665,-1.577846,-3.9079032,-1.3072658,1.5262623! 0.0,2.8264709,3.2995055,-2.1862016,3.4087763,0.68332225,2.4773655! 0.0,-3.5975459,-0.472672,2.7127428,0.7608411,-1.8531923,0.5121379! #0.0,1.8079047,-1.1702113,-0.024292946,-3.454794! 0.0,-0.8007539,-0.30228698,0.17220592,-3.1468606! 
0.0,-2.8266218,0.84986025,3.6002018,-3.146369,1.0815349,3.0345988! 0.0,-0.28083897,-1.670227,-1.3916681,0.36728472,1.7741566,0.5046048! 0.0,-1.1782013,1.3007665,1.4585595,-0.84795,3.3893785,-1.2952504! 0.0,2.6161222,0.0034671985,1.6686145,0.5239762,2.801855,2.655478! #0.0,-2.2146206,3.6825867,0.9292706,3.859472! 0.0,0.888217,-0.5614234,3.6652265,3.7835221! 
0.0,3.595138,-3.3534775,2.7425814,-1.65015,-1.9668298,2.4065094! 0.0,-0.16726685,1.3150082,2.8532925,1.7672333,-3.0990481,-3.206544! 0.0,2.6747336,0.040187836,-1.4988316,0.20825338,-3.1806145,-1.2222753! 0.0,-2.1241088,-3.5356426,-0.006327629,-0.14308405,0.64513904,1.5368514! #0.0,1.8079047,-2.225934,-3.5439787,1.0595393! 0.0,-1.2045565,-3.7634163,-3.1130319,2.1161566! 
0.0,-2.9132586,-3.036508,2.0369105,2.376491,1.5280269,2.586784! 0.0,0.46937132,1.1165833,1.7698588,3.906035,-3.1451473,0.39885426! 0.0,2.1931586,0.51966953,2.0791469,-1.0356941,1.9264266,-1.6443336! 0.0,-2.4432497,-0.40248314,2.814258,0.9732151,-1.8827195,0.52504164! #0.0,-1.8007088,1.5421262,1.8284504,3.6777534! 0.0,3.454267,3.6618876,1.7092277,-2.7922602! 
0.0,1.9457895,-0.09929085,0.62902355,-0.39887825,-2.1329632,-1.872426! 0.0,0.51448107,-3.030013,1.9872651,0.08736515,2.0891962,0.39885426! 0.0,-2.3640835,-2.4305334,2.0490782,-0.0865469,1.9500265,-0.39228296! 0.0,-2.3898654,3.8874826,3.2232103,0.93787134,3.8805747,-2.0532646! #0.0,-0.5934619,0.8149476,-3.2792606,3.6448183! 0.0,-0.7511808,0.024120474,1.7120037,2.1273215! 
0.0,3.9836848,3.6015918,-0.57946825,-1.1527662,-3.3963356,2.6427474! 0.0,1.9489903,2.9225988,-2.5938954,-0.53722566,2.185786,2.6020098! 0.0,-2.3640835,-1.1229486,-3.1047964,-2.8934307,-2.8048954,3.1905365! 0.0,-3.9020205,-3.47237,-2.2617593,-3.7758641,0.37584925,2.1961374! #0.0,-2.7237418,0.06775234,-1.4869108,3.8794222! 0.0,-0.5273709,-0.25560218,-1.0955801,1.4820518! 
0.0,0.5315833,3.9674497,-3.649601,-0.25882176,-3.3245564,-1.9750603! 0.0,2.7288456,3.7853417,0.8009882,-3.5570369,3.2300663,2.051384! 0.0,1.1897945,-0.20306024,-0.14766169,-3.2406049,2.8110328,-1.0166178! 0.0,2.286016,-3.7605224,-3.8880491,-1.4318395,2.0235033,-3.047657! #0.0,3.0720408,-0.26751757,-2.0687609,-0.39557093! 0.0,3.7382216,-3.3512344,-2.3784416,-0.9179196! 
0.0,1.0036745,-1.6883264,-2.8542166,-0.034455776,3.8658876,-2.9620442! 0.0,3.040882,-3.2549949,-1.0418448,-3.2869833,-2.952509,1.0203662! 0.0,0.4383473,0.577348,-1.8355818,1.5286298,-0.5694995,2.2720566! 0.0,-3.723147,-2.7799852,-2.1308393,-3.6008282,2.7085176,1.8485618! #0.0,-2.2002935,2.4178045,1.3878479,-1.9499898! 0.0,3.9209735,1.9752951,-0.97989464,-3.895945! 
0.0,-2.5052176,3.1062446,-0.0921205,-3.3369284,-1.8690982,1.3261633! 0.0,0.8232188,1.3150082,-1.3830025,-0.42301735,-3.4192657,-2.400765! 0.0,3.6095614,0.13814926,2.2857842,1.0760059,-0.29753637,-1.2222753! 0.0,-2.1407108,-0.8242278,-0.012073856,0.04954195,2.6356502,-0.48584795! #0.0,3.42381,3.5549703,-0.9551425,-0.3614695! 0.0,0.2890184,2.1449294,-2.8249345,2.1161566! 
0.0,-1.4912758,1.1122637,-2.3862758,0.3501792,-0.3043842,-3.6381438! 0.0,1.2216849,2.9438522,1.7584925,1.9532465,-0.43063974,-2.57303! 0.0,-3.253561,-2.0152225,0.68075085,0.02910757,4.0025764,3.1905365! 0.0,3.0678406,-0.5081749,3.3426847,0.22658625,2.103477,1.5418019! #0.0,-2.195352,0.4812953,-2.7877045,-3.434875! 0.0,-0.59808207,-0.3844575,3.7230177,-1.4339852! 
0.0,1.2056079,-3.1528196,0.38922963,3.7224107,3.594182,2.2896066! 0.0,-2.9523444,-0.6950946,-0.66759014,1.7356839,1.3295732,1.4227986! 0.0,-0.65901375,-3.593268,0.68075085,3.55937,2.052856,3.0559814! 0.0,1.3017664,-2.069013,1.631427,-3.4399962,2.103477,2.112102! #0.0,-2.2146206,2.5563521,-1.009584,3.6871636! 0.0,0.39264393,-3.373559,1.7120037,-2.0793266! 
0.0,-2.9132586,-3.036508,-3.9775486,2.376491,3.2862687,-3.6786098! 0.0,2.7288456,1.1165833,2.3971684,3.906035,1.3295732,-3.1963542! 0.0,3.5925436,0.51966953,1.0422568,-1.0666611,-3.23447,1.5620756! 0.0,-2.2203846,-0.40248314,1.620195,-2.4264908,-1.8517796,0.4934867! #0.0,-2.2146206,3.6825867,2.0317874,1.366487! 0.0,3.454267,3.6618876,-1.0870881,-2.7922602! 
0.0,-2.9132586,0.79780245,2.0369105,3.1670456,1.5120711,-3.6381438! 0.0,-3.0488322,-0.90897024,2.3886194,-1.623296,3.078905,-0.0015738383! 0.0,3.6809173,2.5091913,0.37951094,-3.4241295,-3.23447,3.0466342! 0.0,-2.4432497,3.8069916,1.1179438,-0.42187834,-3.7065978,2.5365076! #0.0,-0.4295139,3.420529,-2.0687609,-0.7865362! 0.0,0.19583648,-0.3844575,-2.305543,2.1618748! 
0.0,0.094848156,-0.6571479,0.78799266,-3.1609507,-0.32717705,2.3355188! 0.0,0.72667265,2.7356906,-0.94400287,-3.5502446,2.1815922,1.4431381! 0.0,2.696955,1.1381841,-1.6541734,-0.027531147,-0.45387298,3.1905365! 0.0,-1.0754749,-3.0754972,-3.8423588,0.19516854,-3.1538734,-2.8184884! #0.0,0.475657,1.8211236,-2.9906087,-3.391899! 0.0,-1.3061602,1.7031126,-1.9430859,-2.747725! 
0.0,0.3638347,3.1338212,-1.2749305,-1.7500119,3.3105597,2.6427474! 0.0,-0.5450816,0.110174656,-3.5005684,2.3530474,-3.8974156,3.523305! 0.0,3.5014763,0.4772811,-3.1047964,-2.7331347,-3.2948928,3.320911! 0.0,2.6161222,1.8207021,0.3141011,0.06289148,1.8656939,1.4886103! #0.0,-2.7240481,2.2755847,0.7545099,2.2653663! 0.0,-1.1475749,-0.47099924,3.7255688,-1.4376917! 
0.0,-2.5509067,2.8812828,-0.0921205,-2.56781,-3.7352242,-2.7883759! 0.0,-2.650361,3.824688,-1.3830025,-0.42301735,-3.4192657,2.696662! 0.0,-2.307178,-0.20306024,2.2762227,-0.0692749,-0.29753637,2.4495778! 0.0,-2.1241088,-0.40248314,-3.205175,-0.42187834,2.8973193,-0.48584795! #0.0,-0.56325257,1.8091602,1.8284504,0.8664551! 0.0,3.8898525,3.9141603,-2.8249345,1.0921006! 
0.0,3.4889832,-2.3088784,2.5080595,-2.5957289,3.8658876,-1.126286! 0.0,0.42068893,-1.7956219,3.9713287,1.4046435,3.2326584,-1.0623789! 0.0,-1.7873278,0.6113739,-0.9066467,3.2689373,-0.45387298,-0.9958987! 0.0,1.8049064,2.184771,0.8524289,2.161738,-2.6873307,-1.906837! #0.0,1.812642,0.08155441,1.4758844,3.9231677! 0.0,1.0241332,1.7031126,-0.22736597,-2.7746608! 
0.0,3.1056557,-1.4615993,-0.41891736,-1.1321678,-3.3245564,-3.1717389! 0.0,1.168356,2.5548568,2.3129592,-0.35169744,-3.3953524,3.7830667! 0.0,-2.4320433,3.3411627,-2.8365867,-0.050471198,-3.8698936,3.5493593! 0.0,2.5784285,-0.40248314,0.059250336,-0.048540592,-3.7295527,-3.047657! #0.0,0.4714815,-1.7382922,1.9867678,1.5071864! 0.0,-0.26868787,-3.5447655,1.7120037,3.3743668! 
0.0,-3.6152318,3.1062446,2.7425814,-0.011582851,0.051291466,2.4299026! 0.0,-3.0636237,1.6635695,-3.38246,1.9011841,-2.782843,-0.99210906! 0.0,-0.06657791,0.040187836,-1.8445716,2.9974732,0.9974537,0.9097495! 0.0,-2.1241088,-0.40248314,-1.9939878,0.14367867,0.64513904,-2.7420082! #0.0,2.509935,3.7177496,3.8257113,-3.0251946! 0.0,-3.3076205,-3.7634163,-1.2365017,2.1161566! 
0.0,-2.1059806,-0.424191,0.45027038,3.1646707,-3.0431867,2.9194055! 0.0,3.8098617,2.5787659,-3.5645733,-3.5322232,2.167306,-0.5588317! 0.0,2.8086143,1.1893158,2.2166514,-1.9703096,-0.3775692,0.91368216! 0.0,-1.1103287,-1.3128971,1.582916,-2.8854377,-3.8421054,-0.69930935! #0.0,-3.5332198,-2.128748,0.8808023,0.56206846! 0.0,1.7969927,0.185301,3.0749998,0.25850394! 
0.0,-2.5509067,2.8812828,-1.101551,3.7055583,-1.6994468,2.4065094! 0.0,2.7288456,-3.0763052,2.3678055,-0.7534424,-0.23867664,1.5689583! 0.0,-1.155787,3.3315945,2.0097136,-3.2406049,-3.8302777,2.4581025! 0.0,3.3887444,0.4807706,2.7686343,-0.42187834,-1.2833781,2.5732164! #0.0,-2.0576491,1.2273077,1.2294188,0.8664551! 0.0,3.8898525,-3.5447655,3.6652265,1.0921006! 
0.0,3.9028807,-3.2200274,-1.9839967,0.3501792,3.0067182,1.979086! 0.0,-0.31995064,1.1273842,-1.3130207,2.852975,1.7741566,-0.12319708! 0.0,0.76347685,-3.2015543,0.32510376,-0.84795,-1.8889185,0.60819197! 0.0,-2.4843154,2.0274773,-2.5781574,2.4022434,1.8757061,-0.7242265! #0.0,3.3370042,1.7361646,-1.4869108,0.31970644! 0.0,-3.6076272,-3.2933633,-1.4756136,1.362206! 
0.0,0.92910916,-1.6883264,1.9836661,-4.016403,1.5132759,3.8569767! 0.0,0.46937132,-3.6186461,2.0803227,2.9053183,3.061185,3.7725947! 0.0,-1.516087,-2.712413,0.42893565,-2.1530566,2.800962,-0.7234521! 0.0,2.2686174,-0.40248314,2.814258,-2.8719833,2.0715747,2.215877! #0.0,0.7449266,3.309006,-3.0182183,-2.7174191! 0.0,3.6802979,-0.3844575,-1.7979945,3.7835221! 
0.0,-1.4876375,3.563336,-0.64052236,3.844841,-3.739337,-3.3895044! 0.0,-1.2121625,2.4757717,3.6221762,1.7396252,-0.7595358,-2.6060977! 0.0,-3.3495746,-2.169392,1.4585595,3.4087763,-0.3775692,1.3595563! 0.0,3.434682,-1.1170372,3.668161,-1.0664911,-2.7162423,-0.20208438! #0.0,1.9156053,-1.2155752,3.2510924,3.859472! 0.0,0.30046892,-0.5671906,-3.4310226,2.8313913! 
0.0,1.1886587,-3.938757,-0.0921205,-2.3273625,1.042213,3.2142! 0.0,-2.650361,2.14373,-0.923892,1.3260765,-2.927053,-3.7009368! 0.0,-1.5622654,1.6170912,0.51430154,-1.4162078,0.612484,3.0199468! 0.0,1.0483797,0.73722434,1.3911433,-0.42187834,-1.5126723,2.5389745! #0.0,-2.2146206,3.5549703,-2.672863,1.6456199! 0.0,0.81014395,-3.5644226,1.4683313,1.0373882! 
0.0,-1.4850761,1.8703088,2.073565,0.8340354,3.321121,-3.0181842! 0.0,1.9489903,1.4478492,-1.9313202,1.3789573,1.6370171,-2.3239412! 0.0,0.26963377,0.6254655,-3.3307157,1.551157,0.66397786,-3.1170502! 0.0,2.6161222,3.6444538,1.7562261,2.961946,-3.8421054,0.5447376! #0.0,-2.7240481,-1.6408916,1.4758844,2.2992423! 0.0,1.6328292,-0.25143763,0.17220592,-3.765336! 
0.0,3.096258,-0.8205972,-1.3359213,0.8382944,-2.3015106,-1.8145642! 0.0,3.7035327,2.3250427,-3.1151366,-1.9549608,0.9128208,1.6176419! 0.0,3.6063948,-1.170413,-1.8547621,-3.2709117,-0.29753637,-2.2237387! 0.0,-0.35709333,3.6992915,-3.283544,2.5010796,-1.6602244,1.9330163! #0.0,1.6464216,-3.8795824,-2.13772,-2.8802404! 0.0,-1.4249601,2.2167163,-2.3844967,2.1161566! 
0.0,3.1147876,3.5942664,0.6237718,1.86204,-1.8690982,2.4065094! 0.0,2.7288456,0.12744522,-0.9705272,-1.4402452,3.135891,-2.951355! 0.0,1.9613023,-0.20306024,1.8680553,1.0760059,-3.907411,-1.7216334! 0.0,1.0305834,-0.8242278,-3.8880491,-0.4274951,2.6356502,-0.6517968! #0.0,3.42381,3.228127,-0.9425616,2.8823485! 0.0,3.7382216,2.1449294,-3.3560681,-2.599279! 
0.0,3.991128,-0.424191,3.9384212,-1.6083131,-3.9340415,3.9914994! 0.0,-0.052960873,0.8236208,1.4814591,-3.6167684,-1.1125318,-3.1738787! 0.0,1.5838604,3.8384824,2.0196443,-2.8834782,0.767509,-2.1411176! 0.0,-1.0668077,1.9476354,-0.006327629,-2.5364532,-0.3463812,3.014136! #0.0,3.5037982,-0.8958216,-0.03026247,-3.454794! 0.0,3.7784333,-0.12887573,-3.2575083,-2.0671687! 
0.0,3.2020712,-1.7574348,3.6233869,2.2722175,3.5003285,1.403953! 0.0,2.0554688,-1.670227,-1.4364879,0.36728472,1.7741566,3.7997952! 0.0,-2.5178044,-2.4318144,-1.0478063,-1.3390579,3.3893785,0.60819197! 0.0,2.6161222,0.0034671985,2.750173,0.73682547,-2.759677,-2.787746! #0.0,1.0656531,2.2553663,-0.23033339,3.3179836! 0.0,0.83878905,3.5125315,-3.2866426,3.2716894! 
0.0,0.18097542,-1.4615993,1.937999,3.680911,-3.5653558,2.4066434! 0.0,3.9886742,-2.5865607,1.1001997,-0.7534424,3.137295,-3.1963542! 0.0,-1.155787,3.3315945,1.5820603,0.87830734,-2.8679402,1.3982437! 0.0,2.6161222,-2.2409484E-4,2.8728004,0.5239762,1.4985256,2.5732164! #0.0,-2.2146206,1.1978424,1.9867678,2.886319! 0.0,0.26911512,-0.23824938,0.3297626,1.1410639! 
0.0,1.9888344,1.8570766,-2.7091756,0.74647236,-2.9188242,-3.3322396! 0.0,3.4140282,2.860291,0.52221155,-2.4398606,1.7344575,2.036954! 0.0,3.091401,0.031190872,3.1596315,1.3757715,2.539307,-2.8388548! 0.0,-0.8522105,1.2134709,1.0272131,1.4842958,-1.3381758,0.33701754! #0.0,2.867114,-2.5506444,-3.9851708,2.973526! 0.0,-3.8173242,-0.9357681,-1.9575481,2.2286367! 
0.0,-2.9132586,-2.2348151,2.0369105,2.3704972,0.047478676,-2.9620442! 0.0,3.3194299,1.2081976,2.3886194,-1.3157659,-3.3953524,1.5262623! 0.0,2.1931586,3.318103,3.5780501,-1.0845454,-3.23447,1.4854021! 0.0,-3.7105982,-3.727427,-3.6450372,-3.6008282,2.7085176,1.8485618! #0.0,-1.8007088,-1.7754263,-3.6912122,1.5071864! 0.0,1.0216169,1.9752951,1.7120037,-2.1083064! 
0.0,-0.9652362,-1.4615993,3.0333424,-3.2404232,0.26678732,-1.8475332! 0.0,0.16827536,3.275692,1.8026471,-1.672394,3.2245717,-2.57303! 0.0,-3.253561,0.9747524,1.5556039,-2.6670246,1.5636386,0.6659983! 0.0,2.80645,1.1961774,0.05750751,-2.82543,0.7527137,2.215877! #0.0,-3.3459687,-2.8385348,-1.009584,3.848416! 0.0,2.039495,1.1992564,1.0314779,1.746657! 
0.0,1.3969588,-0.61206573,-2.3433323,3.1754475,-2.7397056,-3.0974245! 0.0,-1.1373847,3.470096,-2.9962702,2.240109,0.42468786,3.1809387! 0.0,-1.1242709,1.5594187,0.781641,-0.027531147,-2.0607467,-2.617846! 0.0,-2.7926426,2.6945794,-3.7151198,3.235054,0.5394426,0.5121379! #0.0,-2.2920246,1.8443797,0.9061432,2.2653663! 0.0,3.793888,3.6618876,-0.42286682,-0.75777674! 
0.0,3.991128,-0.98795843,-3.240099,3.0788145,-2.8579464,2.539937! 0.0,-0.052960873,1.2352734,1.4814591,-3.6167684,0.47668362,1.4164066! 0.0,-2.0769415,1.9260716,1.5781945,-2.893269,0.68862367,-2.3207445! 0.0,1.4836277,-0.40248314,2.9978573,-0.68093646,-2.540692,0.5121379! #0.0,1.8129267,3.3889656,-0.024292946,-3.4049673! 0.0,2.0864592,3.0045152,1.3119578,-3.318204! 
0.0,-1.3306069,3.563336,2.550341,0.96605235,1.0700197,2.4065094! 0.0,-1.2121625,3.140316,-0.66759014,-1.8293114,-0.7595358,-1.0623789! 0.0,-3.3495746,0.8810878,-1.4678154,-0.8165264,-3.302854,-0.29945374! 0.0,3.434682,-1.2862725,2.762714,-3.849512,-2.7162423,0.5182978! #0.0,1.9156053,3.3889656,-0.5019312,3.859472! 0.0,0.8356196,-0.5671906,-3.4310226,2.8313913! 
0.0,0.094848156,-3.1528196,2.5635266,-2.4812121,3.0969021,-3.6381438! 0.0,-2.9508774,-1.0075684,1.8129379,0.42252636,-0.4757905,-2.3626585! 0.0,3.5442386,2.5091913,-0.87133694,3.55937,-3.3214688,0.41961098! 0.0,3.0678406,3.6306593,3.3690596,1.9461799,-3.6603372,3.0037222! #0.0,-2.195352,3.3517752,-3.5090137,1.1993852! 0.0,-0.59808207,-3.373559,-0.60976076,3.2970743! 
0.0,1.5036035,-0.424191,3.175215,-3.1999497,-1.4471784,0.5358572! 0.0,2.0554688,2.5787659,-3.5645733,0.16017437,-1.8644567,-0.58636! 0.0,2.8438377,3.3974006,1.4585595,-0.4482088,3.2662835,-0.40504026! 0.0,2.6161222,-2.0981586,2.9786592,2.4772983,0.048757076,2.2035024! #0.0,1.7072005,2.4178045,0.8949995,-2.9509773! 0.0,1.7563939,-1.8281794,-3.8391588,0.12130976! 
0.0,3.1056557,3.9674497,-3.649601,-0.4258318,1.0815349,-2.8157606! 0.0,1.6910319,-3.1899867,-2.966536,-3.5570369,3.2300663,0.8349737! 0.0,-2.6636615,-1.0560056,-0.14766169,1.029808,0.612484,-1.0166178! 0.0,-2.8504834,-1.3011032,2.6584177,-1.4318395,-1.5126723,-1.7153422! #0.0,-0.84860325,3.0566154,-0.07326932,1.6602769! 0.0,0.9969778,-0.287173,1.9305654,-3.5635538! 
0.0,-1.4850761,-0.6571479,-0.41891736,1.9111867,-3.7965803,-3.6438353! 0.0,1.168356,2.5548568,-0.66759014,1.9323449,-3.3953524,2.135079! 0.0,-3.253561,3.3411627,1.6884589,-3.945901,3.3735986,2.609816! 0.0,1.9395328,0.59101164,-1.7820687,-2.8327215,-1.5126723,2.2035024! #0.0,0.3062934,0.66889906,-3.0239244,1.5071864! 0.0,0.28682557,2.3778045,-3.2669327,-3.765336! 
0.0,-1.3306069,-0.6571479,-2.006425,-1.8883729,-3.0427837,1.4282837! 0.0,-3.1249657,1.0030794,-0.61925244,-1.8293114,3.0407476,2.7235346! 0.0,2.1785944,-2.4305334,-1.0478063,-3.945901,2.8654141,2.5926228! 0.0,3.434682,-1.2862725,2.750173,3.6949687,-2.7162423,-2.7507415! #0.0,0.3062934,0.08155441,-3.0239244,-1.5385151! 0.0,0.28682557,-0.34347114,2.8080623,3.2835684! 
0.0,-3.235331,3.563336,2.711017,3.132214,-1.1894679,2.6427474! 0.0,-2.8900638,0.59173846,-0.7992217,-0.50070345,-0.72320616,2.6020098! 0.0,-3.4309165,-1.8817716,-3.1545122,-0.3400967,-0.23854208,-2.8635044! 0.0,-2.130329,1.8284417,1.2057872,1.1533852,-1.8519969,0.73047876! #0.0,1.7795511,-1.8234924,-0.5412155,3.859472! 0.0,-0.5567014,-0.76946235,-3.2866426,-1.6277089! 
0.0,0.09202771,-1.458573,1.4659605,-3.2602277,3.1333008,-3.1717389! 0.0,3.7472558,2.895092,-0.9560815,-1.672394,1.4435859,-2.57303! 0.0,-0.65901375,0.9747524,3.2261772,-2.8934307,-0.10672328,0.6659983! 0.0,-0.35709333,0.550334,-2.251498,-2.8615746,-3.4570694,2.2638385! #0.0,-1.646143,-2.822956,1.6560225,2.1303465! 0.0,0.79331565,-0.3844575,-3.29907,-2.2348402! 
0.0,-2.4063382,-2.7983842,-2.4013474,0.31816405,2.7736359,-3.6381438! 0.0,2.7384684,-3.2446594,-1.0768751,2.0476966,0.45911524,0.38624382! 0.0,-3.253561,2.5091913,3.6519332,0.05669632,4.0025764,3.1603792! 0.0,1.2338552,-0.5081749,3.3426847,0.22658625,3.321516,-2.2981048! #0.0,3.0029912,-3.1358728,-2.2195435,-3.434875! 0.0,2.0277696,-0.3844575,0.07903898,1.3613154! 
0.0,1.4711978,-3.036508,-2.567661,-0.031495173,1.5120711,-3.6082592! 0.0,3.6629725,1.1165833,2.1581857,0.36588812,-2.5864406,-1.0623789! 0.0,1.3731494,0.51966953,0.3993955,0.20555967,-3.23447,-2.8509429! 0.0,-2.4432497,-0.9150838,2.7747664,-2.3786516,-3.7075086,2.3432972! #0.0,-1.783569,3.3889656,-3.6912122,-0.7865362! 0.0,2.9958832,-3.3176184,-2.305543,2.1452978! 
0.0,-1.2812939,-0.8205972,1.9797366,-3.2404232,1.8782616,-1.8145642! 0.0,3.67738,2.895092,1.8026471,-1.672394,-0.3151927,1.6176419! 0.0,-3.253561,-1.170413,-3.29523,-2.6670246,-1.6714239,-2.1053395! 0.0,2.2067103,3.7599678,-3.3089373,-2.82543,-1.6602244,-0.8976016! #0.0,-1.544611,-2.8385348,0.7541647,3.848416! 0.0,0.12558031,2.2167163,-2.3844967,2.5793128! 
0.0,-0.36004257,-1.438858,1.2904186,-2.8415632,0.051291466,3.1812415! 0.0,-3.8077798,1.7275083,1.1026998,-1.7698627,-1.139591,2.696662! 0.0,3.5377154,0.112932205,2.2762227,2.309917,2.67864,-1.2222753! 0.0,3.3896837,-0.40941676,1.8495011,1.1579533,2.8973193,-0.48584795! #0.0,-0.261034,-3.4226165,1.8284504,-0.3614695! 0.0,0.26911512,-2.3924685,0.47774887,0.89114904! 
0.0,1.2056079,3.7210722,-0.41891736,0.955943,-3.7229054,2.8687449! 0.0,0.4876542,2.5548568,1.8135654,1.3567843,-3.3953524,2.586505! 0.0,3.6648145,3.3411627,1.6677353,1.8094606,-2.5900674,-0.79933643! 0.0,3.400786,1.3598685,-1.7820687,-2.8327215,-3.6839108,-0.99564505! #0.0,-2.166625,-1.8088622,1.2885594,1.5071864! 0.0,-2.506751,3.1978765,-0.6465244,2.1274862! 
0.0,3.9836848,-3.6977482,3.7884893,0.8221904,-3.9446487,3.678949! 0.0,-2.8900638,3.1585362,1.4814591,-0.5023604,-3.104465,2.6020098! 0.0,-2.6975589,-1.1229486,-3.1047964,-2.7331347,-0.3652625,-2.8635044! 0.0,2.6161222,1.8207021,-3.2427886,-3.7758641,1.8552027,-2.5850525! #0.0,-2.7240481,2.2755847,1.8284504,2.2653663! 0.0,-0.5273709,0.5273485,-1.0955801,1.6406404! 
0.0,-2.0606022,-0.424191,0.7571664,0.7953291,3.4822438,3.3777485! 0.0,0.7359662,2.5787659,-3.5645733,-1.8457241,-2.3443816,-2.903418! 0.0,-0.4578433,-2.2992358,2.0620275,2.7023153,3.4377372,-0.69639397! 0.0,-1.1103287,1.9804273,1.582916,2.4772983,2.8595085,1.3685985! #0.0,-0.20353553,3.7411942,1.476697,-2.9509773! 0.0,1.7563939,-1.0286736,-3.8391588,0.4114213! 
0.0,-1.1911726,1.6522713,1.9836661,3.680911,-3.5653558,-1.6867166! 0.0,3.801449,2.14373,-0.7733693,0.935936,-0.7595358,1.6629596! 0.0,-1.5622654,1.0525846,1.8726013,-0.2555809,-1.835485,1.3982437! 0.0,2.6576092,-3.46078,1.5735941,0.8418894,-1.5126723,-1.7048731! #0.0,-2.2146206,2.0318055,-2.672863,1.8734751! 0.0,2.44341,3.407003,-1.7944762,3.7835221! 
0.0,3.5661962,3.1547751,-0.6211118,0.8340354,1.9602,2.012835! 0.0,-0.052960873,1.4478492,-1.9313202,1.3789573,-0.72502106,-2.3239412! 0.0,2.9028196,-0.57640743,2.7174082,-2.5727048,-3.1806145,-1.6443336! 0.0,2.6161222,2.6945794,1.7562261,-0.57126904,1.9132267,-0.48584795! #0.0,-2.7249725,3.3405807,1.8540075,1.0447726! 0.0,1.6235121,-0.28027707,0.17220592,0.61769295! 
0.0,1.2071983,-2.374423,0.63732624,0.25279713,3.8658876,-1.8089471! 0.0,-2.1179676,-3.3214498,-1.9537153,-3.5427938,1.3295732,-3.1022093! 0.0,-1.4149537,-3.593268,-0.9113456,-0.10840893,3.399168,-1.9774979! 0.0,1.8049064,2.4259524,0.05750751,2.9799461,2.2687387,-1.7751305! #0.0,-0.74560213,2.3978825,0.65101385,2.0742016! 0.0,-0.2592392,0.7393279,2.2257957,-0.41792488! 
0.0,-3.031085,-0.021753788,2.3564029,-2.5026665,-3.7658234,0.29650122! 0.0,0.6825595,0.069909096,3.243115,1.3567843,-3.3605103,2.5887985! 0.0,3.6648145,1.2228756,-2.2107878,-3.5340548,0.3021121,-0.8069962! 0.0,2.2812386,-1.9641542,1.2017093,3.3275619,1.4023361,-3.2246513! #0.0,-2.166625,-1.8088622,-0.040995117,-1.8432169! 0.0,-2.0918612,3.1978765,-3.80546,-1.7874913! 
0.0,-1.4850761,0.79780245,2.300324,3.2657747,-1.6290082,3.3868062! 0.0,3.0479646,1.0118151,0.7758259,-0.35169744,3.1357803,1.6378913! 0.0,-1.1910821,-2.0278363,1.5901041,-2.6139317,-0.23549142,-0.9550358! 0.0,-2.0703502,-0.5722413,2.5752943,0.6693487,0.6007447,-0.0690546! #0.0,0.79039335,3.420529,0.4514222,-0.5098661! 0.0,1.9394636,-0.30228698,3.1614313,-1.683003! 
