19.194193,275
0.0,-3.3768315,-3.514606,2.4370852,-1.3189273,-2.4893641,3.2101655! 0.0,-0.38363424,-2.4935527,-2.119288,-2.2866664,1.8347782,-3.6211877! 0.0,1.7766376,0.36648154,0.81224394,-1.7186761,1.1149135,2.636799! 0.0,-1.8285356,0.73133767,1.3432746,0.102493435,3.1846714,-2.6133385! #0.0,0.18743944,-0.21561718,-1.0795298,-1.7811664! 0.0,-2.0956888,-3.677878,3.4512568,3.9614778! 
0.0,-0.38649756,3.3280983,3.4854946,-1.7827435,-1.8855462,1.171368! 0.0,-0.48278666,2.463345,2.7551246,-3.1512733,-1.8671114,-0.2777915! 0.0,0.34262896,-0.11762328,-1.2989516,3.2414505,2.1232386,-0.4820394! 0.0,3.6063714,2.5653977,3.1154833,-3.1364841,-2.2872043,-2.2101116! #0.0,-2.1965346,-1.2687788,0.2347643,-0.9240866! 0.0,3.086258,0.09139881,-0.3007655,3.1298563! 
0.0,2.9454262,2.3950844,-1.8908162,-2.1089244,-1.3283856,3.6752276! 0.0,-2.5580478,-3.8732293,-3.0284677,2.382918,-3.8789492,1.5272603! 0.0,3.917642,0.63013375,-1.2485329,-3.2772455,-3.8216956,0.16613346! 0.0,3.0678122,-1.4844894,-0.09232105,3.2849612,-3.3899488,1.5887618! #0.0,0.60907507,-0.017000917,-1.5057869,-1.9765105! 0.0,2.3546643,0.11482923,3.5695806,-3.7802782! 
0.0,-0.25066608,3.5166953,3.8941855,1.2004582,1.2239617,-1.3273382! 0.0,-1.6133317,2.457901,2.9822683,2.2946823,1.6521125,1.809031! 0.0,-1.8748302,0.1729547,-1.8217516,-2.5845952,2.1704843,-0.4410138! 0.0,3.678804,2.5205336,1.6016426,3.1376019,2.748462,0.81049776! #0.0,-0.586627,-0.37011862,1.8707749,-2.1597779! 0.0,-0.17431898,2.032546,-0.25738913,0.3824873! 
0.0,-0.40852472,3.3280983,3.4481874,3.6439004,-0.4853878,1.171368! 0.0,3.1156607,2.457901,2.98355,0.18035012,-2.9361436,1.9109913! 0.0,0.34262896,-1.3610922,0.99010324,0.55617523,2.1450315,1.933989! 0.0,-2.7309146,2.588011,3.1154833,0.56733364,-1.8688178,-1.8459573! #0.0,0.5962036,-2.13556,-0.53470564,3.304019! 0.0,0.36713776,-0.86340684,-0.041430112,3.1298563! 
0.0,2.4512942,-3.4561787,3.9501495,-1.1812407,2.6164935,2.6146536! 0.0,0.25982782,2.457901,-0.8814206,-3.2059255,1.5865426,-1.0436181! 0.0,1.7005153,-2.0915456,1.4224019,-3.87424,-2.3003554,0.77767897! 0.0,-0.19248581,3.260157,-1.4144106,-1.8266044,-2.3065224,0.9274914! #0.0,0.9117875,-0.18897678,-1.845655,0.94102424! 0.0,0.112479374,0.11639779,2.8215747,-2.499637! 
0.0,-0.36777875,-2.8193812,2.1894197,-0.4048339,3.4957662,-1.1864176! 0.0,-3.8719187,1.7452908,-3.0284677,-3.191965,-0.07090187,3.8922677! 0.0,0.33448315,0.56983423,-1.3055545,1.0117278,1.1149135,0.8228831! 0.0,-2.4094853,3.544485,-1.7702676,3.94567,0.9188404,-2.6322327! #0.0,-1.2529266,3.4772453,-3.348041,2.2972398! 0.0,0.32468894,2.005557,-2.1810253,-2.3363936! 
0.0,2.9454262,-1.0337181,2.1627324,-2.1089244,-1.3283856,3.7127686! 0.0,-1.5173135,2.457901,-2.983174,-2.7732873,-3.423787,-2.428084! 0.0,2.9787588,1.7654711,-1.2485329,-3.2772455,2.9121022,1.1413436! 0.0,2.217309,-0.5633435,2.587139,0.4208827,-0.6318679,1.125759! #0.0,2.4946108,-0.017000917,-1.7460599,-1.632318! 0.0,0.31949058,0.11482923,-1.334479,-3.018905! 
0.0,2.9454262,-2.1150455,-3.2523355,-0.044424083,1.2239617,-3.8635602! 0.0,-3.7626705,2.4558458,-3.1781368,-2.1420975,0.3070321,1.6461024! 0.0,1.117631,0.6366477,-3.8656924,-0.71479094,-0.23535214,-1.1519256! 0.0,3.678804,2.497704,-1.495424,3.2849612,3.6543348,-3.4411428! #0.0,-1.2813007,3.092867,2.5001678,-3.726305! 0.0,-0.7130399,0.086142,3.0341864,-2.3660421! 
0.0,3.9640503,-0.8713902,2.7992306,3.369865,-3.6962633,-1.1937878! 0.0,-2.4484763,2.826037,-3.06711,3.2224422,-3.423787,-1.8133636! 0.0,1.3762779,0.37320948,3.8357434,-0.9643912,-0.032028418,-0.70422775! 0.0,3.7820158,0.47733426,-0.95213556,-0.31512403,3.9045482,-2.5098019! #0.0,0.23687983,-2.235363,0.32783163,-3.726305! 0.0,-1.4862025,-0.9978964,0.9422838,1.6932817! 
0.0,-3.161224,-0.8965826,0.6472306,-0.47541428,-0.15780783,0.95554256! 0.0,3.3718214,-1.4921026,-3.06711,1.7657423,-3.423787,-3.501421! 0.0,-1.8816471,-3.500832,3.8357434,-0.9643912,1.6397429,-0.44953442! 0.0,-1.7058376,3.5494423,-1.7308278,-0.926671,3.9045482,-2.5098019! #0.0,-0.26418686,-2.235363,-2.463817,-3.726305! 0.0,0.17297831,-3.2048512,0.9422838,1.2990985! 
0.0,-0.8628864,-3.7377162,1.0262461,-1.7827435,-0.6477151,-3.9807599! 0.0,3.2678428,3.7345657,-0.18465376,-2.9234142,1.4830722,-1.0439793! 0.0,1.7766376,-0.14639221,0.51599216,-3.0676513,1.6484747,1.5613356! 0.0,3.021884,-3.0746846,0.67802644,3.669341,-2.8095822,-2.4897318! #0.0,-0.39263868,2.3185794,-2.6234338,-0.27188507! 0.0,-3.6412706,-1.71947,3.1871965,1.2490158! 
0.0,-2.3845859,-3.4249692,3.889049,-1.9493442,-3.3648324,2.7201836! 0.0,-0.81795406,-2.4935527,-2.476314,-0.80543387,-2.9387197,2.0499973! 0.0,0.96968555,1.2052832,-1.7936373,-2.0480638,2.1232386,1.8174275! 0.0,0.6598108,-1.0626006,-1.7192448,3.414205,-3.0201654,-2.2101116! #0.0,-2.8470693,-1.8272353,-1.4363807,2.6949925! 0.0,-0.17431898,0.12979841,2.660349,3.2375808! 
0.0,0.299747,-3.3518896,-0.6753745,-2.0596204,-1.9830852,-2.4087577! 0.0,3.0855398,2.457901,2.5712,2.8048067,2.478332,-2.711434! 0.0,1.4269964,1.4442449,0.81224394,1.0117278,-0.2705598,-0.4820394! 0.0,-0.2179122,0.14668512,1.3277724,3.2849612,-0.64666253,3.754232! #0.0,2.6695237,3.1870484,-3.0605493,-3.7494242! 0.0,0.36880308,-3.1811366,-0.26969576,1.9987316! 
0.0,3.0101957,3.6149023,-0.9329343,3.6439004,-0.4853878,3.715741! 0.0,3.1156607,-2.0732613,2.98355,0.18035012,-2.9361436,1.9046583! 0.0,2.2987013,0.4999447,1.4224019,0.55617523,2.1450315,2.6860971! 0.0,-0.3301649,-3.4529235,-0.013475459,-0.7958603,-1.8688178,3.4644754! #0.0,0.5732987,-1.8658819,-1.7849363,0.9192855! 0.0,0.36713776,2.6275675,-0.46812916,-3.565023! 
0.0,2.4359002,3.1778107,0.40003872,-3.431131,-2.634674,0.51299524! 0.0,1.8761702,1.2676501,-3.1781368,-2.7000222,-3.2898207,1.0615617! 0.0,-0.97705746,-3.500832,-1.2152524,3.8392859,-1.50495,1.1337509! 0.0,-3.0044875,-1.5476885,1.487905,2.5303445,-1.6019616,-0.23110723! #0.0,2.4946108,1.350483,-3.8219995,-0.32990694! 0.0,3.0221796,-0.31720367,-2.6824207,2.086999! 
0.0,-3.9882207,0.36173534,2.4370852,1.3592049,3.6003737,-0.886106! 0.0,2.1367364,-2.12353,0.08649826,0.21076488,-0.07090187,-1.703629! 0.0,0.5465622,2.1057103,-1.0061159,0.84895706,2.222836,2.6370397! 0.0,-1.8285356,-2.8842318,-0.22464615,-0.4613719,-1.1272194,1.7170995! #0.0,0.76604795,0.8455615,-2.4093852,0.97494894! 0.0,0.07345581,0.22963524,-3.823151,1.6956029! 
0.0,2.230402,-0.8965826,-0.40451145,1.3164141,2.7568073,-1.2224383! 0.0,-3.1282024,-2.3419123,-2.142412,2.4673963,1.0053449,1.2514544! 0.0,2.9787588,-3.500832,-2.951564,-3.0614414,-2.6827183,-3.775475! 0.0,-1.8285356,-2.7842922,-0.22661781,2.0122004,-0.4475242,-1.1757293! #0.0,1.7594837,3.5697646,-0.5449787,-1.7692192! 0.0,1.5498366,-1.1349095,2.548562,4.0022244! 
0.0,-2.39593,-0.06781581,3.8941855,-2.4951997,2.9985595,-3.3028471! 0.0,-2.3797836,2.994153,-3.2384057,3.7568836,1.6521125,-1.470418! 0.0,-0.161345,0.18836834,-3.751283,3.347304,3.3105807,3.2144635! 0.0,-2.8443232,-3.1998708,-0.14802456,-3.4202867,-2.2657104,0.81049776! #0.0,-0.586627,-2.1002216,-3.7566895,-1.7845398! 0.0,2.2680526,2.032546,4.0432673,1.6592579! 
0.0,-2.8551059,0.5416498,-2.822485,2.285151,0.1696639,2.0417523! 0.0,0.8888395,-3.995946,-2.5200543,1.0012541,-1.5119238,-1.0384567! 0.0,-0.3002238,1.3995056,-1.2989097,-3.0614414,1.6960888,-1.1941633! 0.0,-3.065637,1.8402338,2.610269,0.8499937,-1.1272194,-2.2928405! #0.0,-2.4756453,-0.95983267,-3.7634463,0.94102424! 0.0,0.112479374,-0.41059923,3.5695806,-3.0786836! 
0.0,-0.36777875,-2.1610057,3.9568882,1.4103302,-0.45522892,2.7033272! 0.0,3.1156607,-1.5824375,3.8942766,-2.1420975,-0.024754722,1.9381871! 0.0,-3.0478482,-1.8460236,-3.5909514,0.9747305,2.1450315,1.0125146! 0.0,-2.733683,-1.3512564,-1.2693924,3.94567,-2.9643483,2.1072974! #0.0,-1.7760181,-0.7690503,0.52624655,-1.5415082! 0.0,-0.7386318,-0.09734994,-2.214179,2.4841304! 
0.0,1.9591703,-0.31617048,2.488794,1.2004582,-2.4893641,-1.3273382! 0.0,-1.6133317,2.457901,2.9822683,2.2492366,2.7397552,-2.599069! 0.0,-1.8748302,0.1883632,-1.8217516,-1.7186761,1.1149135,1.418937! 0.0,-1.8190438,2.5205336,1.3432746,-3.7572312,3.1846714,3.5419853! #0.0,-1.1915106,-0.37011862,-1.0795298,-2.1597779! 0.0,-0.17431898,0.12979841,-1.352752,1.2214266! 
0.0,3.922155,3.3427286,2.4858103,1.3986497,-0.38113642,0.8963117! 0.0,2.970602,0.24358225,3.2779398,2.1415896,-2.7174606,2.6603627! 0.0,-0.36289644,-0.14786959,-2.5414124,-0.46505928,-3.9322395,1.0155749! 0.0,-3.5265856,2.1951175,-1.951293,-0.6508689,-1.9139214,1.4934406! #0.0,-1.1150527,2.235282,3.1917367,-1.4557071! 0.0,-2.7272077,-0.4171219,-0.981163,-2.9489818! 
0.0,-2.395413,-1.8986132,3.965329,-2.5094914,-0.30744886,1.1119003! 0.0,0.563467,-1.309711,-0.04220846,-2.8290415,-0.07090187,1.0378524! 0.0,0.25732142,0.20360047,2.804565,-3.0539432,-3.2666304,2.531502! 0.0,-1.8285356,-2.151331,-2.6003144,1.5920603,1.0565853,-0.23110723! #0.0,0.5046002,-0.33725333,-2.299848,-0.38768673! 0.0,-0.06453705,1.0171914,3.4840107,-0.2360735! 
0.0,2.230402,-2.1150455,0.40003872,-0.044424083,-3.3317137,-3.8635602! 0.0,-3.0864258,0.99432325,-3.1781368,-3.2785118,0.33471888,-3.8864532! 0.0,-1.9536452,0.6366477,0.18995428,-0.46364075,-0.2705598,1.041701! 0.0,-1.4542127,-2.7842922,-1.495424,3.2849612,3.1507592,1.1873795! #0.0,-1.2529266,2.163649,-3.9593308,-0.051227093! 0.0,0.31949058,0.086142,-1.3369393,-2.3660421! 
0.0,-3.5738196,-3.479929,-2.0662084,1.1384534,2.9985595,-1.3218783! 0.0,-2.3797836,-2.2179618,-2.119288,-2.5490985,1.0829635,0.4994278! 0.0,1.7597247,-1.7335734,2.8343997,0.9747305,-0.42082357,1.5932279! 0.0,2.8257437,-3.1375608,-3.471692,2.5960412,0.3511181,-3.9395971! #0.0,0.08912897,0.44354892,-3.9593308,-1.5762043! 0.0,-1.6816454,-1.0339799,-0.29144144,-1.3167081! 
0.0,2.7280242,1.0731459,2.1894197,3.409051,-0.20061779,3.6752276! 0.0,-3.7626705,2.908205,3.6994448,-3.191965,-0.07090187,3.8922677! 0.0,-2.5430365,2.2575622,-1.2039995,1.0117278,1.1149135,1.0436683! 0.0,3.0678122,-1.3271542,-1.7702676,3.94567,-0.8250313,2.3711686! #0.0,-1.2529266,-3.20638,-3.8670723,-3.4191098! 0.0,0.31949058,-3.8782892,-2.1810253,-2.3363936! 
0.0,-2.7977333,0.12678242,-3.2523355,3.7100687,-2.5854995,-0.5836406! 0.0,2.2204175,-2.359461,-0.8231535,3.235269,2.2239203,-3.611288! 0.0,-2.222464,2.7438092,-1.2152524,-0.89947605,3.9109244,-1.716153! 0.0,-1.6570239,0.5700865,3.948697,-1.5572686,-2.8285208,1.8879828! #0.0,2.3153303,-0.34655952,-2.97818,-0.32990694! 0.0,1.7487783,-2.8149977,1.8056412,0.841921! 
0.0,-2.5116148,3.6316156,0.42582685,2.7308698,-3.0910268,-1.3218783! 0.0,1.153079,1.1466279,1.5840795,0.4730897,3.537519,1.0615617! 0.0,-0.7498889,2.60685,-2.0032012,-1.1497183,1.7275195,1.0058465! 0.0,-1.0126437,-3.0501552,2.3985581,0.37714672,1.5252147,2.1455264! #0.0,0.28244543,-2.7315214,2.053131,-0.36476278! 0.0,2.5650716,1.0553036,-0.27710497,1.2817692! 
0.0,-2.3692074,3.4740868,2.859496,-3.5098069,-3.4697998,3.4506662! 0.0,-1.9811798,0.54100704,-3.2384057,3.7568836,1.6521125,0.5391059! 0.0,-1.6233377,0.1883632,-3.7102966,3.347304,3.3105807,-3.8508782! 0.0,-1.8646064,-1.9228816,1.8452213,-0.4835515,0.5020938,0.9444095! #0.0,-2.615433,-0.37079793,0.036551952,3.6359344! 0.0,2.2499218,2.032546,0.20464516,-3.1258073! 
0.0,1.0404596,-0.8965826,1.0262461,2.435388,-0.034639835,-0.9464885! 0.0,1.2349796,2.4977713,0.10750866,-3.1845574,-2.7948103,1.9796348! 0.0,1.8111367,1.4825401,-3.5253932,0.3539583,-3.5210402,-1.202889! 0.0,-3.7212467,0.9162613,-2.3394492,-3.1475194,1.4824305,1.2059383! #0.0,-2.1441324,3.2979407,0.036551952,-3.3298008! 0.0,-3.6412706,-1.1349095,3.57551,-2.364709! 
0.0,2.5556946,-0.8965826,2.1894197,-1.7466223,2.2106562,2.5213184! 0.0,1.1098509,2.2611496,-0.012163516,1.7657423,-3.4181497,-1.4465256! 0.0,1.742521,-3.500832,3.8357434,2.5995693,0.1481185,2.102275! 0.0,-1.8349586,0.46814013,-1.103406,3.2849612,-0.64666253,0.93665516! #0.0,3.0550737,-1.9253726,-3.8670723,-0.9240866! 0.0,1.8182559,0.09550923,0.9422838,-3.114812! 
0.0,3.0101957,0.12678242,-0.9329343,-0.96870446,2.9406106,2.7033272! 0.0,-3.654366,-2.0688832,-0.4448886,-0.75772953,2.7656326,1.9046583! 0.0,-0.84221697,-0.13046551,-0.7543165,-3.0614414,-0.034793377,2.6860971! 0.0,-0.3301649,1.0607343,3.0571113,-0.7958603,2.4536686,3.4644754! #0.0,1.2431858,-1.8658819,3.7509794,0.9192855! 0.0,-0.7154423,2.6649885,-0.5122827,-3.565023! 
0.0,2.4512942,-2.1150455,-3.2523355,-1.5767089,-1.3283856,2.6146536! 0.0,-3.7626705,2.0204048,-3.1781368,0.1939738,0.3070321,1.6461024! 0.0,-1.9304957,0.2193422,1.4224019,-3.5190828,0.3300603,3.0796857! 0.0,-0.3301649,3.2176566,-2.761538,3.2849612,-2.2930489,0.9274914! #0.0,0.9117875,-1.2280955,2.5001678,-0.99500245! 0.0,-2.0956888,0.086142,-3.24861,-2.5367517! 
0.0,2.230402,2.9037995,0.40003872,1.3128564,2.6164935,3.6147928! 0.0,-3.0956926,0.99432325,3.6301007,-3.2785118,1.8347782,-3.8864532! 0.0,-2.3126693,2.082456,0.18995428,-1.2793983,2.4123092,1.041701! 0.0,-1.4542127,1.0607343,3.9948776,-0.4835515,3.3893738,-0.3330965! #0.0,0.097958505,2.1503358,1.9985437,-0.051227093! 0.0,-0.56459343,3.1565127,2.548562,3.9445632! 
0.0,-0.25066608,3.3280983,-3.0778584,1.5973334,-3.5166426,-3.0167792! 0.0,3.463373,-0.78505707,3.9943013,-0.75772953,-2.981158,1.9381871! 0.0,1.8101178,-0.5830159,-1.2152524,0.3079772,2.1232386,0.69651586! 0.0,1.4888678,-0.3392439,3.1112137,0.5046999,3.7852798,-2.5579019! #0.0,-0.60803556,-1.6727414,-1.4775904,2.8309467! 0.0,-0.17431898,-0.5609622,-0.3007655,2.0457094! 
0.0,1.9591703,-0.31617048,0.497005,-2.522021,1.9337436,-0.28270912! 0.0,-0.3813333,2.8641462,-0.12523152,-3.135072,2.7400746,-0.33386517! 0.0,-2.2951837,2.082456,0.81224394,3.5873275,2.6339269,3.1818068! 0.0,-1.1750543,0.76394516,-1.8048853,-0.14180334,3.3893738,-3.4847903! #0.0,-1.2132529,-1.7038764,2.5001678,-0.010809325! 0.0,-0.10485199,-0.2429061,-2.2277122,-3.0499659! 
0.0,-2.9132771,-1.0567179,3.9501495,3.3184972,-1.7164161,-1.317225! 0.0,2.9010296,2.8911214,-0.17050028,-0.9737677,-0.055250756,3.1995115! 0.0,2.6874819,-3.2159872,-1.4776182,-3.0614414,2.8033943,1.8133177! 0.0,-0.05353737,-1.3512564,-1.7192448,-3.7558222,1.5596609,1.2962775! #0.0,0.71246725,-0.20118585,-0.6354866,-0.38768673! 0.0,1.637053,-3.5811632,-3.8169541,-2.3488822! 
0.0,-0.25066608,-3.0236495,3.9501495,-1.8005879,1.2684327,3.1045527! 0.0,-3.0089362,3.7345657,2.9822683,-2.0579085,2.7397552,1.809031! 0.0,1.117631,-3.1014078,-3.8656924,1.6154346,0.114966065,2.6370397! 0.0,3.678804,3.0250783,-1.964772,1.6184483,3.6543348,-2.7051296! #0.0,0.7323127,3.092867,-3.8219995,-2.1355643! 0.0,-0.7130399,-2.2134848,3.0341864,1.2797189! 
0.0,-1.3804855,0.1131571,-0.9302195,-1.7466223,1.2239617,1.865325! 0.0,-3.654366,3.7345657,-0.1857812,-0.75772953,2.7397552,1.809031! 0.0,-3.4311204,-3.4606402,0.7876949,-3.0676513,0.114966065,2.6370397! 0.0,1.5125151,-2.5308344,-3.9338923,1.6184483,3.6543348,-2.456431! #0.0,0.76604795,3.100598,-1.9202695,-0.33327857! 0.0,-0.7130399,-0.9654516,3.0341864,2.4841304! 
0.0,2.4005046,-0.8965826,2.1894197,-0.47541428,2.6164935,-1.337746! 0.0,-2.4484763,-1.4921026,-0.26456833,1.7657423,2.7629385,1.2514544! 0.0,0.21061611,-3.500832,-1.2029827,-1.8812991,2.107262,-1.1785074! 0.0,-1.6676192,-2.6953802,3.064774,-0.4835515,-2.2930489,-2.5004075! #0.0,-0.30211735,-2.235363,-2.463817,-3.726305! 0.0,3.4321759,-0.9978964,0.9422838,1.2490158! 
0.0,2.9454262,-2.1150455,3.9568882,-2.0596204,-2.1883435,3.6752276! 0.0,2.1192198,2.4475882,-3.2581844,1.6738701,0.010267727,3.8896909! 0.0,-1.600857,1.4442449,3.0710058,-3.0614414,2.9121022,3.006145! 0.0,-2.733683,-1.3869497,0.8858768,3.2849612,-0.64666253,3.754232! #0.0,-1.7760181,-1.9253058,-3.8670723,-3.7494242! 0.0,0.36880308,-0.06459379,-2.214179,-2.3660421! 
0.0,0.90957177,-1.8562427,0.24443123,-3.486547,1.8188477,3.811164! 0.0,-0.4258275,3.6522279,3.7437453,-0.9707527,1.9304348,-0.0016283989! 0.0,-2.863473,2.1099916,3.4306293,2.3104105,2.9050608,1.0646539! 0.0,0.79270416,1.7949464,-1.0262485,2.3825507,2.6626167,0.7424493! #0.0,-0.6281147,-0.8411246,0.39543343,-2.639431! 0.0,0.112479374,2.0075774,-2.6279683,2.5375962! 
0.0,2.9454262,-2.1150455,3.885687,-2.0596204,2.2547243,1.2057095! 0.0,2.6578999,2.2266016,-0.14887366,-3.3459291,3.9145546,1.7271699! 0.0,2.9787588,3.5182781,-1.2719012,2.5513973,-2.5906496,2.102275! 0.0,-1.8646064,-3.886004,-0.09232105,3.3136487,-0.66936934,3.754232! #0.0,-1.2529266,3.4772453,2.0381572,-0.9240866! 0.0,0.3254269,0.11482923,-1.3369393,-2.3660421! 
0.0,-2.1103234,-1.936234,1.1814389,-3.4842281,-0.30744886,2.5213764! 0.0,0.5208255,1.2378397,-0.04220846,-0.75772953,-0.07090187,-3.6211877! 0.0,-1.8113065,0.11540238,-1.7440791,-1.744154,-0.290476,1.2521467! 0.0,-1.8285356,-2.2672634,-3.9338923,1.5920603,-0.09917457,-3.0176036! #0.0,-1.2004511,1.3211044,1.037179,-0.6518793! 0.0,3.087359,1.27487,2.4193928,1.2817692! 
0.0,-0.38649756,3.3280983,3.4854946,-0.6797867,-2.4955943,1.171368! 0.0,-1.6129816,1.6045799,2.7551246,-0.79014796,3.4993472,-0.018349648! 0.0,-3.0146456,0.04896307,0.99010324,-1.7186761,-2.958552,1.7598399! 0.0,-1.2483754,2.588011,-3.31639,1.9505615,2.7667317,3.5169683! #0.0,-1.7324296,-2.13556,2.036098,3.348555! 0.0,-2.9821002,-0.83429956,-2.364763,3.1298563! 
0.0,-1.3345844,-1.3568639,2.9228168,-0.47541428,1.8922251,2.1603918! 0.0,0.563467,1.2403822,3.706828,-2.8290415,-2.9387197,3.8922677! 0.0,1.4269964,-3.500832,0.81224394,-0.7226505,0.1481185,1.0125146! 0.0,-0.2179122,1.0607343,-0.0104055405,-1.4087162,2.4536686,-3.4436424! #0.0,-3.6821651,-1.7038764,2.5001678,-0.39293236! 0.0,0.36713776,2.5289922,1.7715702,-0.267505! 
0.0,2.4359002,3.1778107,0.40003872,1.5973334,-0.4894452,-3.0011344! 0.0,-0.87154496,-0.78505707,-3.1781368,-0.75611126,2.2809215,1.0615617! 0.0,1.8232977,-0.5830159,-1.2152524,0.3079772,2.1215847,1.0362599! 0.0,1.4888678,-0.3392439,-2.361508,1.4260726,3.7852798,-2.5136836! #0.0,-0.63196015,3.2731023,-3.1499617,2.8187566! 0.0,-3.643409,-0.53876543,-2.9444013,1.9987316! 
0.0,-3.4955993,2.9998558,2.9228168,1.5973334,-3.2457623,3.1045527! 0.0,-0.87154496,1.5836065,-3.7590263,-2.4137785,2.2888663,-0.54947805! 0.0,1.8232977,2.7891655,3.9871087,-1.8730052,3.9109244,-3.8134637! 0.0,1.4888678,-0.3392439,-0.115780085,0.8499937,3.7852798,-1.7134352! #0.0,-1.2864113,-0.95983267,-1.0406027,2.8187566! 0.0,-0.98969364,-0.5609622,-0.91343164,3.201068! 
0.0,1.9876571,-1.0624517,3.9501495,3.3184972,-2.520179,2.8471627! 0.0,-3.9042857,-3.780971,3.706828,-0.86397266,-2.8539197,-1.0439793! 0.0,1.3762779,2.1318698,-0.75849766,3.9510922,-1.7887655,-2.4215012! 0.0,-0.03820185,2.7384887,-2.035066,3.687841,1.5596609,1.2962775! #0.0,2.1232781,-2.6321363,-2.3020267,-3.2975247! 0.0,-2.9939647,-2.0221581,-1.8408003,-2.3488822! 
0.0,2.4143887,-2.1150455,0.497005,-0.87260866,2.6164935,-3.6351652! 0.0,-3.7626705,2.8641462,-0.1676836,1.0987229,2.7607605,1.7271699! 0.0,-2.2754018,0.6366477,0.37402624,1.0117278,2.6339269,3.1818068! 0.0,3.0678122,1.0607343,3.3809197,3.2849612,3.3893738,1.8879828! #0.0,-1.2529266,3.3116703,1.9985437,-0.010809325! 0.0,0.31949058,0.11482923,-1.0430617,-3.0499659! 
0.0,-0.25066608,-3.1060224,0.6472306,1.607997,-0.15780783,-1.3273382! 0.0,3.3718214,2.457901,0.9769354,2.800065,-2.143786,1.809031! 0.0,-1.8816471,0.1883632,-1.8217516,-2.5845952,1.6397429,1.0125146! 0.0,3.678804,2.5205336,-0.87135553,-0.926671,-3.6119528,2.9665208! #0.0,2.6218472,-3.477357,-2.1947222,-2.4709625! 0.0,-0.17431898,-3.2048512,-3.9993138,1.2990985! 
0.0,-2.6611452,-0.67021275,-3.6658654,-3.1231756,2.6164935,2.078111! 0.0,-3.1282024,0.91720057,2.1759534,-3.1301906,3.534738,-1.5128465! 0.0,-0.161345,0.1883632,-1.2152524,1.0677204,2.4016905,2.506529! 0.0,-0.31242275,0.26147032,1.4083266,-0.79407704,-2.2872043,-1.8459573! #0.0,0.1022439,-0.27222314,1.7096443,-0.051227093! 0.0,2.5650716,0.7209611,3.5695806,-3.2458835! 
0.0,-0.25066608,-3.0236495,-0.9302195,-2.5148652,-1.7418602,3.7182152! 0.0,0.563467,3.7345657,2.9822683,-2.1420975,1.9257967,1.0378524! 0.0,1.117631,-3.1014078,-3.8656924,-3.0539432,0.13778831,2.6370397! 0.0,3.678804,0.5700865,-1.964772,1.6184483,1.0649858,-2.456431! #0.0,0.5046002,-0.37210953,-2.299848,-2.1597779! 0.0,-0.7130399,-0.9843392,3.0341864,-0.2360735! 
0.0,2.9454262,3.6149023,-0.9329343,-0.044424083,2.90167,-3.8635602! 0.0,-3.7626705,2.4558458,-0.48265743,0.19944611,2.7890062,1.9046583! 0.0,-1.9536452,0.4999447,2.1990123,3.8034682,-0.2705598,-1.1519256! 0.0,-0.2846325,-3.4954,3.0571113,3.2849612,3.1507592,-3.4440548! #0.0,-1.2529266,-1.8658819,2.4671302,-3.726305! 0.0,-0.76085985,2.6649885,-0.46812916,-2.3584135! 
0.0,2.0771961,2.8341541,-1.4251409,1.1384534,1.4111265,-1.6698804! 0.0,-0.054790497,1.0620785,-3.1781368,-1.5760287,-1.3046666,2.578908! 0.0,1.418983,0.05324478,-1.7621727,-0.7593595,1.1149135,0.27152804! 0.0,-1.194902,0.76394516,0.53157616,2.8467808,3.3685932,-2.52982! #0.0,0.12289338,0.4821437,-3.9593308,2.3692927! 0.0,-2.2512484,-3.9293482,2.626296,2.957878! 
0.0,-3.9882207,3.2236853,-0.16241574,-1.7466223,3.6003737,-0.93534374! 0.0,-0.38363424,0.0056037903,3.2779398,0.21076488,-0.07090187,2.626653! 0.0,0.3373971,-0.75545895,-1.0061159,-2.554381,-3.7819448,-1.5848861! 0.0,3.130803,-0.7058133,-0.6808963,3.265377,-1.1272194,1.6922121! #0.0,3.0550737,2.163649,2.5001678,0.97494894! 0.0,-2.7272077,-3.597059,-0.46812916,2.4841304! 
0.0,4.0116453,3.873711,2.4370852,1.3592049,-3.6962633,-0.93534374! 0.0,-0.41682482,-0.039568163,-3.6024017,3.2716308,-0.07090187,-1.703629! 0.0,1.4230034,0.37320948,-2.4011202,-2.597558,-0.032028418,-0.6977377! 0.0,3.7820158,0.880461,-0.22464615,-0.18207315,-3.247557,1.3931789! #0.0,0.76604795,2.1718497,2.5001678,0.97494894! 0.0,0.07345581,-3.5811632,2.880843,2.4841304! 
0.0,-2.774001,-3.5901647,-1.8429537,3.926095,-1.8207445,-3.5501904! 0.0,-1.0200477,0.13076258,-3.214881,-0.75772953,-3.8790636,-0.25745705! 0.0,1.8588514,1.5567899,-1.2152524,3.5920548,3.9627242,-3.0491512! 0.0,-3.6171713,0.76394516,-0.3406334,3.6057892,1.5663689,-2.5579019! #0.0,-3.6676817,-2.4305828,-3.1369421,-3.726305! 0.0,-0.99101067,2.5289922,3.0844853,0.26202917! 
0.0,-0.2667411,-1.0337181,-0.9687172,-2.1089244,1.2239617,1.865325! 0.0,-3.1020384,3.7345657,2.9822683,-2.1420975,2.7397552,1.809031! 0.0,2.9787588,1.7654711,-1.2485329,-3.2772455,0.114966065,2.6370397! 0.0,3.0678122,2.5413084,-0.09232105,3.2849612,3.6543348,1.1497431! #0.0,0.76604795,0.014434278,3.7492552,-2.5213723! 0.0,0.31949058,0.11482923,-1.334479,-3.018905! 
0.0,-0.25066608,-1.5711644,-0.40451145,2.756294,-1.3283856,-3.357956! 0.0,3.727916,-2.3419123,-3.1781368,2.4673963,0.3070321,1.6461024! 0.0,0.2490344,-3.5632129,2.1990123,-3.0614414,-2.6827183,-1.1519256! 0.0,3.021884,0.76394516,2.4196234,3.3150713,3.1507592,-1.1757293! #0.0,1.7594837,-1.6552129,-0.49609873,-3.726305! 0.0,3.7101984,-0.07417011,2.9546187,3.9865334! 
0.0,2.9454262,-3.385736,2.9228168,-0.07507982,-1.3283856,-3.8635602! 0.0,-3.7626705,0.13076258,-3.1781368,0.1939738,0.3070321,-0.25745705! 0.0,1.8232977,-3.500832,-1.2152524,3.5920548,0.7713485,-3.0395083! 0.0,3.021884,0.77888876,-1.495424,3.2849612,3.1507592,-3.4411428! #0.0,-1.2529266,-2.4305828,2.5001678,-3.726305! 0.0,0.31949058,2.4869194,-0.3007655,-0.3535571! 
0.0,3.80827,3.3280983,2.9228168,1.5973334,3.1965098,-0.14494514! 0.0,-3.3233972,-0.78505707,3.9943013,1.055858,1.578084,2.7896824! 0.0,1.8232977,-3.0362887,1.0225425,0.3079772,3.7305484,3.5337267! 0.0,1.4888678,-3.5374193,0.83618116,0.4732899,3.7852798,2.4223328E-4! #0.0,-0.63167477,-3.421556,-3.1499617,-2.5865364! 0.0,0.7629201,-3.8074355,-2.2236934,1.3737645! 
0.0,3.462821,0.4022689,3.924901,2.1527238,-2.9660115,3.7509203! 0.0,-2.1776109,2.457901,1.7490354,-0.57449657,1.4871136,1.197557! 0.0,2.356687,0.30928898,-0.72559094,1.0479141,2.9121022,-0.11481762! 0.0,3.6063714,1.7270112,-0.4185233,-3.1475194,-3.2150612,1.3935415! #0.0,3.0060449,-1.9320601,3.320035,-0.02893114! 0.0,2.5112104,0.12979841,0.3589878,-2.4944217! 
0.0,3.9640503,3.873711,2.7992306,3.369865,-3.6962633,-3.1504345! 0.0,-0.41682482,2.826037,-3.6024017,3.2224422,0.63612986,-1.101007! 0.0,-3.4311204,-3.4606402,0.7876949,-3.0676513,3.9152613,-0.6977377! 0.0,1.5125151,0.880461,-3.9338923,1.7597194,-3.2150612,1.3931789! #0.0,-0.5931334,-0.39645094,0.33013478,-0.32990694! 0.0,-1.4862025,2.5289922,0.19798183,2.4841304! 
0.0,2.5556946,-0.90322495,-3.03324,-1.7466223,2.2106562,3.4886904! 0.0,2.6578999,-1.004315,-0.11149148,-0.6924717,3.9145546,-1.4233084! 0.0,-1.5471478,0.21458197,-3.5370078,1.0117278,-2.4494982,2.102275! 0.0,-1.8646064,-3.886004,-1.103406,1.2225406,-1.2027073,1.5974274! #0.0,-1.2433354,-0.18341182,-2.2089047,1.1509417! 0.0,1.3221179,-0.7574026,0.837203,-3.114812! 
0.0,-0.25066608,0.15459616,-2.6703887,1.5003219,0.3661995,1.865325! 0.0,-3.1020384,3.746519,-1.406703,-2.815587,1.2627859,-2.428084! 0.0,1.117631,-3.1014078,-3.8656924,0.9333927,0.114966065,-0.62947416! 0.0,-0.7806587,-0.5633435,-2.7018306,2.2242298,-0.6318679,-2.456431! #0.0,0.76604795,3.092867,-1.7460599,-2.1597779! 0.0,-0.7130399,-1.9271222,3.0341864,-2.1769743! 
0.0,2.9454262,-0.8965826,2.4742994,-0.47541428,-1.3283856,2.5213184! 0.0,1.1098509,2.457901,3.6756942,0.21076488,-3.3920121,1.2514544! 0.0,2.9787588,-3.500832,3.8357434,-1.0009942,0.1481185,-3.6470869! 0.0,2.1682093,-1.3512564,-0.062535286,3.2849612,-0.64666253,0.93665516! #0.0,2.4539638,3.4772453,-3.8670723,-1.5415082! 0.0,-0.6046733,-0.10687414,0.29209435,0.58846664! 
0.0,3.80827,-3.514606,-1.0151317,3.4393182,3.2156472,-3.34698! 0.0,3.7159166,-1.6471381,-3.7419705,1.074632,1.5829444,2.7896824! 0.0,1.429117,-3.0362887,3.7638855,-1.7626389,3.7305484,0.70874834! 0.0,-2.696004,-3.5374193,0.83618116,1.2809339,-2.5344954,1.1894951! #0.0,-1.4820342,-0.73473716,-2.1017914,-2.5865364! 0.0,2.2326937,-3.8074355,1.0002465,1.3737645! 
0.0,-0.2655596,-1.5810475,-0.054225445,-2.5094914,3.2156472,-0.14494514! 0.0,-3.0089362,-1.633982,-3.1781368,1.4611492,-3.3313255,1.0615617! 0.0,0.2313793,-3.5632129,1.0225425,-3.0614414,3.7305484,1.933989! 0.0,-1.7985824,-3.5374193,2.449849,1.2809339,-3.9760427,-1.1757293! #0.0,2.5330462,-3.421556,-3.8653777,-2.5865364! 0.0,-2.0354517,1.2913895,3.000091,1.3737645! 
0.0,-3.4955993,-3.9169383,0.40003872,1.5973334,-3.2510116,1.9027685! 0.0,1.0611222,-0.78505707,3.9943013,-0.9737677,1.8347782,-3.6547601! 0.0,-3.4243803,1.667109,0.3850255,0.3079772,1.7690245,1.0058465! 0.0,1.4888678,-0.3392439,-2.3201344,1.1520259,2.5132723,-2.5579019! #0.0,3.1583395,1.0516665,-3.1499617,-1.5415082! 0.0,-0.98969364,3.0720353,2.5740066,3.0995178! 
0.0,-2.923213,2.4118106,3.889049,-2.064553,-3.5443027,0.46844816! 0.0,-1.072617,2.457901,-3.0284677,-3.4988108,3.64328,1.5503162! 0.0,3.917642,1.7654711,-0.87671655,-3.2275867,-3.8216956,1.1413436! 0.0,3.0678122,0.85019726,0.5374079,-2.6141853,-1.3011847,1.1497431! #0.0,2.880512,2.259183,-3.8670723,-2.5213723! 0.0,-0.529191,0.11482923,-0.56243706,-3.018905! 
0.0,-0.25066608,3.3280983,2.4742994,1.2189022,-1.2137319,-3.8635602! 0.0,-0.38363424,2.4558458,-3.1628854,0.1939738,2.3524232,3.723484! 0.0,-1.9536452,3.5182781,2.1990123,-0.71479094,-0.2705598,-1.1650499! 0.0,-1.8646064,-3.081826,-2.6003144,2.636145,3.1507592,-3.4411428! #0.0,3.0550737,-0.37011862,2.5001678,-0.35270697! 0.0,-0.036336064,0.086142,-1.3369393,-3.578192! 
0.0,3.361174,-1.936234,0.32741642,-3.4842281,-0.30744886,-1.1864176! 0.0,0.5208255,-2.7132735,-0.04220846,0.29661417,-0.07090187,3.558207! 0.0,-1.456516,0.1705681,-1.6188321,1.7272062,3.3168328,0.8228831! 0.0,-1.8285356,-2.151331,-2.6003144,1.5920603,0.9188404,-3.0176036! #0.0,-0.77647877,-3.3902512,-3.348041,-0.6518793! 0.0,-0.75534296,2.005557,2.6985216,1.2817692! 
0.0,-3.4955993,0.65628195,-0.9329343,-1.016118,2.90167,3.715741! 0.0,3.0424654,-2.0288315,-3.0284677,-1.5472445,2.7890062,-3.6840725! 0.0,0.9477744,0.49377263,-0.73624945,0.3079772,2.9221077,3.5337267! 0.0,-0.3301649,2.6281626,3.1154833,-0.35926017,-2.8095822,2.8133202! #0.0,1.2431858,-1.8430275,-1.7849363,3.3235373! 0.0,2.3008618,2.6649885,1.2419019,-3.565023! 
0.0,-3.1991098,-3.514606,-0.89474064,-1.7827435,-1.8855462,-1.337746! 0.0,-1.6133317,2.8799105,-2.2739844,-1.3699691,-2.9387197,1.0615617! 0.0,-3.6816697,-0.11762328,1.9731574,3.5920548,2.1232386,2.7367702! 0.0,3.2200184,3.0657923,-0.9938741,-3.1204493,-2.2872043,-1.0108829! #0.0,-0.7435818,-0.2787487,0.2347643,3.454557! 0.0,-3.5982435,0.12979841,-0.3007655,-2.5049605! 
0.0,2.4359002,-2.1593645,-3.0778584,-3.8383458,-3.5166426,-1.6750659! 0.0,2.9010296,-2.4935527,-0.1676836,1.6942432,-2.959222,1.9554161! 0.0,-3.2178812,0.13680482,-1.6188321,0.8331466,-2.739531,0.69651586! 0.0,1.4354129,-2.174953,-3.31639,-1.810514,-2.9643483,-0.74396324! #0.0,-0.39263868,-1.7021928,-1.4775904,-0.0023474991! 0.0,-3.022481,0.12979841,-2.2217488,-3.0499659! 
0.0,2.9454262,0.06401253,-1.9236708,-2.1089244,-1.3283856,2.6930256! 0.0,0.10456085,2.457901,2.0566545,-3.1511364,-3.8789492,1.5272603! 0.0,2.9787588,-1.3987117,-1.2485329,-3.2772455,2.9121022,-0.4820394! 0.0,3.365459,-1.2349672,-0.09232105,-0.77147174,-0.64666253,1.5887618! #0.0,1.9233532,-0.017000917,-3.8670723,3.304019! 0.0,0.31949058,-3.6799111,2.824608,-3.018905! 
0.0,-3.7612042,2.9998558,-2.434637,-2.5094914,1.2239617,1.865325! 0.0,-1.6133317,1.5836065,-3.8017128,-2.1420975,2.7397552,1.809031! 0.0,1.1332078,-3.1014078,-3.8656924,-1.8730052,-3.2372837,-3.8134637! 0.0,2.071094,2.5205336,-1.964772,0.8832749,-1.8472933,-1.7134352! #0.0,0.76604795,-0.95983267,3.7492552,-2.1597779! 0.0,2.16008,3.2369742,3.0341864,3.201068! 
0.0,2.1804204,-2.977178,3.2763824,-3.0045478,0.1696639,-3.5562282! 0.0,0.563467,-3.745306,-2.5200543,0.5555515,2.7817798,-2.2365432! 0.0,0.87647533,1.3995056,0.38934994,1.6547799,0.1481185,-1.1941633! 0.0,-3.065637,1.0954648,1.3230672,2.2351635,1.0565853,0.62635136! #0.0,-2.4938736,3.8791237,-3.7634463,-0.0737896! 0.0,-1.0225813,1.3989015,-1.0430617,3.7046514! 
0.0,2.4359002,1.6401154,1.6266899,2.8394375,-3.0950856,3.1045527! 0.0,-3.0089362,3.766367,-3.1781368,0.334208,1.0829635,2.578908! 0.0,-1.8444948,-1.7335734,2.8343997,-0.21139956,1.1404505,1.7598011! 0.0,-3.5980387,-3.1375608,-3.471692,3.416777,0.3511181,-2.7051296! #0.0,0.7323127,-0.2697275,-3.8336623,-0.38768673! 0.0,-1.6816454,0.19198704,1.0018864,-1.3167081! 
0.0,-2.395413,-2.1150455,1.1814389,-3.4711459,-0.30744886,1.1119003! 0.0,0.5208255,2.486629,-0.04220846,0.25593445,-0.07090187,1.6461024! 0.0,-1.9536452,0.6366477,-1.6188321,-1.744154,3.3168328,2.531502! 0.0,-1.8285356,0.76394516,-1.495424,1.5920603,-1.0935463,-3.0176036! #0.0,-1.2529266,-1.6552129,2.5001678,-0.6518793! 0.0,0.31949058,0.086142,3.4840107,-2.3660421! 
0.0,-3.1991098,-1.2526293,1.5551138,1.0555973,-2.4456165,1.3196478! 0.0,-1.6133317,-1.3635616,2.6706672,-3.4522882,3.5530715,1.0615617! 0.0,1.4269964,-0.38576746,-2.0032012,-1.7626389,1.1062865,-1.5356901! 0.0,1.1461196,-2.7361207,2.9169655,-0.31515884,0.5226941,-1.2362142! #0.0,-1.1759634,2.2003083,-3.186489,-1.5462656! 0.0,-2.5536237,-0.9386397,1.6721449,-2.0843158! 
0.0,1.9646912,0.7945118,-2.6703887,1.5003219,0.8247299,2.920857! 0.0,3.757769,3.582386,-1.406703,-0.7967043,1.2627859,-1.763475! 0.0,0.22708511,1.9318771,1.3276944,0.5299773,-0.30810404,-0.62947416! 0.0,-2.1239653,-0.5633435,-3.328917,2.2242298,3.3908544,-1.3002764! #0.0,-0.9709911,-1.9393475,-1.8907151,-1.62209! 0.0,-3.49927,-1.9271222,-0.8918648,-0.52249193! 
0.0,-3.1991098,-3.514606,-0.9108034,-2.6124115,1.8856082,3.4899874! 0.0,-1.6133317,1.853582,-0.4448886,3.802455,-2.9387197,1.0615617! 0.0,-3.6816697,-0.13046551,0.3703308,3.5920548,-0.034793377,2.7367702! 0.0,-2.733683,3.0657923,-0.9938741,3.3835068,0.5226941,-1.0108829! #0.0,1.4924902,-0.2787487,3.7509794,3.2739482! 0.0,0.36713776,0.12979841,1.6632202,-0.11084518! 
0.0,-0.25066608,3.3280983,2.4742994,1.2004582,1.2239617,-1.352711! 0.0,-1.6133317,2.457901,2.9822683,2.2929516,2.7397552,2.1785228! 0.0,-1.8748302,3.1783972,-1.8217516,-2.5845952,2.166472,1.0125146! 0.0,3.678804,-2.151331,3.0677133,-0.7958603,2.2285297,-0.23110723! #0.0,-2.1518373,-0.40393525,2.4677603,-2.1597779! 0.0,2.16008,-1.4852976,3.4840107,0.3824873! 
0.0,-0.20401171,-3.3880973,-0.6753745,-2.522021,2.4212947,2.6146536! 0.0,-0.3813333,-1.5824375,2.5712,-3.191965,1.5688252,1.7496742! 0.0,1.4269964,2.9103098,0.81224394,-0.691616,-3.1204114,-0.4820394! 0.0,3.6063714,0.14668512,1.3277724,0.56733364,3.381717,1.2236199! #0.0,-2.1374302,-1.160666,0.2347643,-3.6456542! 0.0,2.896294,0.07252598,3.9877172,1.9987316! 
0.0,-0.25066608,-2.6455493,3.9568882,-1.8079605,-1.8855462,3.6752276! 0.0,2.9010296,2.8911214,-0.17598543,0.30066288,-2.9387197,1.1679335! 0.0,3.917642,2.1057103,0.3703308,-3.6161842,0.3300603,1.1413436! 0.0,-3.6171713,-1.4414083,-0.17631719,-3.1667159,-0.53534746,0.91133595! #0.0,2.323193,-0.7690503,-3.1594083,-1.5415082! 0.0,1.674893,-1.0158938,-2.432026,3.6036959! 
0.0,2.8234363,-3.9169383,0.40003872,-0.88071144,-3.2294588,1.9027685! 0.0,1.0611222,2.4594738,-2.119288,-0.9737677,1.8227054,-3.6211877! 0.0,-3.4243803,1.6632135,0.3850255,3.667211,1.7831874,1.0058465! 0.0,-0.97484446,-2.151331,-2.361508,1.1520259,2.5132723,-1.8459573! #0.0,3.1102548,1.0516665,-0.5254364,-1.5415082! 0.0,-3.643409,3.118391,2.5740066,3.0995178! 
0.0,-2.9539332,-2.1393402,1.1780524,3.775231,-3.4697998,-1.8838897! 0.0,1.150805,1.5836065,1.1208701,0.19582576,2.7477088,-3.611288! 0.0,-1.6233377,2.958034,-3.705061,0.20734352,1.7484995,3.068668! 0.0,3.7373958,-0.9735017,-2.7177076,0.41765547,2.2285297,-0.042184353! #0.0,-1.8470813,-3.8859396,-1.6233649,-3.726305! 0.0,0.22575092,1.2260976,3.8539796,3.8234906! 
0.0,2.28085,-1.8005452,3.8941855,0.44115782,-0.41636944,0.55655! 0.0,1.7996974,3.3315442,-3.2384057,3.2883573,1.6521125,0.5705243! 0.0,-2.9926677,-2.5296497,-1.9705834,-1.1739898,3.3105807,-0.4410138! 0.0,2.413546,2.3354042,0.17333078,3.1376019,-3.961834,0.81049776! #0.0,0.091189384,-2.1002216,2.4431002,-0.9240866! 0.0,0.18910408,2.146677,-0.46672297,3.0883873! 
0.0,3.917904,-3.5400574,-1.5718398,1.5120959,-0.38113642,2.205276! 0.0,3.743979,0.24358225,1.1880131,2.1415896,-2.7174606,-1.9053273! 0.0,0.3373971,-0.14786959,-2.5414124,1.9772882,-3.9322395,1.0155749! 0.0,-3.4952157,2.1951175,-1.951293,0.46412754,-2.9239058,-1.8184896! #0.0,2.607355,-2.2895474,3.0938041,0.26513624! 0.0,-2.7272077,-0.38534644,1.0289736,0.83638096! 
0.0,1.7504587,-0.8965826,2.1894197,-0.47541428,-1.3283856,-1.1937878! 0.0,0.69558907,3.199514,-1.90482,-3.4969242,-3.4200044,1.2514544! 0.0,-1.2572451,-3.500832,3.8712022,-0.9643912,0.1481185,-1.1519256! 0.0,-1.6676192,0.47733426,-0.4637742,-0.31512403,0.41848814,1.5826645! #0.0,-0.26418686,-2.235363,-2.463817,3.6816473! 0.0,1.8350186,-2.4079752,0.42895144,-3.1381373! 
0.0,-0.7287636,-2.1150455,3.8793902,-2.0596204,-1.3283856,-0.886106! 0.0,2.1367364,-2.12353,0.08649826,0.087769985,0.3070321,3.0241985! 0.0,2.9787588,-2.2757936,-0.9595197,1.0117278,-3.5632539,-0.3742423! 0.0,3.092401,-2.100871,0.5563946,3.2849612,3.271254,-2.756752! #0.0,-1.2321873,0.8034754,-2.687767,2.1254601! 0.0,-0.718801,0.11482923,-1.3369393,-2.3660421! 
0.0,-0.38649756,-2.6455493,-1.4518719,1.3164141,-1.3283856,-1.2224383! 0.0,-3.0838804,1.2459183,-2.119288,3.601427,-0.07090187,-2.4653902! 0.0,3.4728258,-0.09347335,0.3703308,-1.0060353,-2.764392,-1.1519256! 0.0,2.217309,-2.7842922,-1.8048853,2.0122004,2.7667317,1.1894951! #0.0,-3.8968554,3.5097246,-1.5057869,3.3179386! 0.0,2.327087,3.6056762,-1.8187351,3.382587! 
0.0,2.2642136,-1.8005452,1.0965934,2.2322192,-3.4697998,0.55655! 0.0,1.8389978,-3.4850907,1.8993464,3.2883573,1.6521125,3.1863594! 0.0,-3.0038188,0.027935982,-1.9705834,-1.1460425,1.7076299,1.0397452! 0.0,3.021884,2.1909754,0.17333078,-1.7033501,-3.961834,-3.2074008! #0.0,0.057258934,0.58808184,2.4254642,-0.9240866! 0.0,1.1671826,-1.773683,-1.8187351,-2.6200404! 
0.0,2.0086408,-3.385736,3.9087627,-0.6797867,1.0564615,-3.5501904! 0.0,-0.87154496,-0.95821106,-2.119288,-0.9737677,2.7282064,-1.4403312! 0.0,-0.14976062,0.1705681,-1.2152524,0.9815025,1.7831874,-0.4410138! 0.0,-1.1595796,0.76394516,-2.361508,0.11474037,2.5516033,-2.5579019! #0.0,-0.6138289,-1.7803469,-3.1369421,-0.9240866! 0.0,0.41405106,2.4810762,2.5740066,3.0883873! 
0.0,-3.219818,-1.0567179,-1.0879462,-3.467902,-2.4955943,2.8541336! 0.0,-3.828911,-2.7408555,-2.1145616,-0.86397266,2.74853,-0.0016283989! 0.0,1.8522034,-0.57861435,-1.4776182,-1.3201871,-0.21555662,1.933989! 0.0,-0.1014878,2.588011,1.9043548,2.3825507,-1.3591309,0.9014635! #0.0,2.909378,1.3118784,-2.8097582,3.6501656! 0.0,-0.75024647,2.0075774,-3.873293,-3.7557983! 
0.0,-3.7612042,-2.1150455,-3.575499,-0.6536989,-3.2737234,-2.4087577! 0.0,3.0881302,2.457901,-3.2581844,2.8048067,2.6409438,2.1785228! 0.0,-0.24396658,3.1783972,3.0710058,1.000383,-3.2372837,-1.1519256! 0.0,3.411529,-2.151331,-3.080156,1.7722759,-0.64666253,-0.23110723! #0.0,2.6695237,3.1870484,-3.8670723,-1.1245165! 0.0,0.36880308,-0.11006136,-1.3369393,-2.3660421! 
0.0,-0.20401171,3.2236853,3.2763824,-1.1538134,3.1863213,2.8556685! 0.0,0.2252863,-1.5824375,0.72342056,-3.191965,1.5688252,0.13410044! 0.0,-0.21005619,0.3066491,-3.5232658,0.13082013,1.824944,0.0040655136! 0.0,3.6063714,-0.7790861,2.6633744,0.56733364,-3.2150612,0.7360139! #0.0,-3.8281713,-1.2687788,0.051870774,-2.4515834! 0.0,1.416398,-2.2469416,3.9877172,3.0989056! 
0.0,0.7705631,3.346469,-0.16241574,-1.7466223,-3.439703,3.7747917! 0.0,-1.6133317,2.457901,3.2779398,3.585287,2.7397552,1.809031! 0.0,0.3373971,0.1883632,-1.8217516,3.667211,2.1704843,-1.5848861! 0.0,3.678804,2.5205336,-0.6808963,3.265377,-2.3266237,2.422093! #0.0,3.087137,2.235282,2.5001678,3.5125713! 0.0,-0.17431898,0.122750215,-0.46812916,0.3824873! 
0.0,-1.4922132,0.89944506,-2.8565845,3.0708346,0.3661995,-3.9943151! 0.0,-2.2299657,-2.9262877,-3.8793898,3.7014198,1.8509696,0.4661293! 0.0,-1.0931058,3.3239584,-3.64114,-3.8496704,-2.3720708,3.7836924! 0.0,-2.0724506,-1.9233036,3.0571113,1.0989327,-1.7557712,2.9247227! #0.0,-2.1647902,-2.7561827,2.1100006,3.7900934! 0.0,2.35455,-2.473868,1.9065862,-0.058778286! 
0.0,-0.8628864,-0.8965826,1.0262461,-3.0059566,-0.6477151,3.7675376! 0.0,1.1098509,2.76542,-0.012163516,-3.1845574,-3.423787,1.2514544! 0.0,1.7766376,2.1318698,3.8643124,0.3539583,-3.5210402,-0.054770947! 0.0,2.217309,2.7384887,0.67802644,-1.3373337,0.8405037,1.2059383! #0.0,-1.9644003,2.3229995,0.25718498,-1.8107066! 0.0,-3.6412706,-2.6486478,-1.0317097,-2.3993554! 
0.0,3.9640503,3.873711,2.7992306,3.369865,1.4068733,-3.1504345! 0.0,-0.41682482,1.0620785,-0.84581137,3.2224422,2.267796,-2.631352! 0.0,1.3762779,0.37320948,-1.7621727,-2.446406,2.4564095,-0.6977377! 0.0,2.3633895,2.0347142,-0.95213556,1.7662122,-3.2150612,1.3998775! #0.0,2.2020206,0.47396326,1.2317325,2.3692927! 0.0,-1.4862025,-3.375455,2.626296,1.7364881! 
0.0,2.1804204,2.179359,3.2763824,-3.0045478,-2.634674,3.811164! 0.0,0.563467,3.6522279,3.7437453,2.092144,1.4054484,3.3289485! 0.0,-2.863473,3.8486028,3.6202059,-2.0197773,0.1481185,1.0646539! 0.0,0.8079233,1.0954648,1.3230672,2.2351635,2.6626167,-1.7421803! #0.0,-3.695468,-0.8411246,-1.0406027,-2.639431! 0.0,-1.4490108,1.3989015,-1.0430617,-0.2360735! 
0.0,-1.4922132,-0.031737804,-0.987062,3.0708346,2.171214,3.9599347! 0.0,-1.6695726,-2.9425602,-3.5684702,3.7014198,-1.358602,-0.018349648! 0.0,-1.6920753,0.04896307,-3.64114,-3.8496704,-0.97418493,1.7598399! 0.0,-2.0724506,2.9479957,2.8301506,-1.810514,3.3953176,2.9247227! #0.0,-1.7760181,-1.9346697,-3.064827,3.7900934! 0.0,-3.022481,3.6334286,-2.3225696,0.03993712! 
0.0,2.4143887,-2.1150455,2.1894197,1.7332649,-2.634674,-3.6351652! 0.0,-3.7626705,2.457901,-3.0284677,-3.191965,0.3070321,1.7271699! 0.0,0.34262896,0.6366477,-1.3172822,1.0117278,2.9121022,-1.1933295! 0.0,3.0678122,0.53284055,3.4281235,3.2849612,-1.6106845,1.8879828! #0.0,-1.2529266,3.4772453,-3.8670723,-0.32990694! 0.0,0.31949058,0.11482923,-1.0430617,-2.3660421! 
0.0,2.9454262,0.0915556,2.1894197,-2.3352876,-0.34811258,3.6752276! 0.0,3.3433843,2.76542,-2.0216546,-1.8117304,0.6911776,1.7271699! 0.0,-2.4522128,0.6366477,-3.9777102,-3.6758935,-3.597004,-1.1519256! 0.0,-0.3104701,1.1280084,-2.59067,-0.4835515,0.8405037,-1.0720177! #0.0,-1.2529266,-1.8272353,0.25718498,-1.8107066! 0.0,1.1428051,0.12979841,-1.0189452,-0.10486555! 
0.0,-1.565164,-3.5602589,-2.4169517,-3.3297849,3.6281285,3.1045527! 0.0,-2.3797836,-3.8167186,-3.1781368,-0.46923256,-1.3046666,2.578908! 0.0,1.4269964,2.048316,0.81224394,-0.66907406,-0.84951115,0.27581596! 0.0,-1.194902,0.76394516,-1.495424,0.30933762,3.3685932,-3.9395971! #0.0,0.3686061,3.9021425,-3.4761953,1.1287533! 0.0,0.9382518,-3.9313774,-0.8295989,0.9962559! 
0.0,2.7570763,-1.0337181,2.4370852,-1.3189273,-2.4893641,-2.5693336! 0.0,-2.4157548,1.2403822,-2.119288,-3.1512733,-3.8789492,-2.599069! 0.0,3.6673365,0.24777889,0.80948555,-1.7186761,-2.968089,-0.25753593! 0.0,-1.8285356,-3.9815774,1.3432746,0.63554865,3.1846714,-3.2074008! #0.0,-1.2004511,-3.2163935,0.78629065,-2.8378925! 0.0,1.1668764,0.11639779,2.8569164,1.2214266! 
0.0,-0.25066608,0.8272189,2.4370852,-3.0059566,3.1863213,1.9027685! 0.0,3.2678428,-2.4935527,-2.119288,0.21076488,1.4871136,1.9381871! 0.0,1.8255906,0.13680482,-1.6188321,0.8176153,2.9121022,-1.190283! 0.0,1.4504985,-0.5277581,3.1112137,0.110888034,-2.2872043,-3.2074008! #0.0,3.3222523,0.4281986,-1.4775904,-3.726305! 0.0,-0.17431898,0.12979841,-1.3673058,1.9987316! 
0.0,-2.395413,-1.936234,1.1814389,-3.4842281,-0.30744886,2.4238844! 0.0,0.5208255,-2.7132735,0.91138047,-2.3521588,-1.8943739,1.0160772! 0.0,-1.456516,-2.0915456,-1.9118848,-1.744154,3.3168328,2.531502! 0.0,3.107182,1.367825,-1.4144106,1.5920603,-0.45427322,1.9416227! #0.0,-3.667924,2.3556514,-2.9357157,1.1839728! 0.0,-1.2293954,3.2369742,3.4840107,1.2817692! 
0.0,-0.9116252,3.0278478,-3.6658654,0.014180046,0.58579165,3.150719! 0.0,-0.49505568,-0.95821106,0.8579304,-3.9436693,3.0792003,1.7271699! 0.0,1.5504085,-2.8464575,0.5224366,-0.6668334,-3.7819448,0.69651586! 0.0,-1.8934324,-2.4826388,-0.115780085,2.2689638,0.7782019,-1.7134352! #0.0,2.1232781,3.5697646,-1.1475748,0.21651745! 0.0,-1.4351822,-1.1349095,0.837203,-3.76295! 
0.0,-3.5647707,-1.7847095,-1.8908162,3.4067476,-1.3283856,3.6752276! 0.0,-1.072617,0.51968956,-3.0284677,-3.191965,-3.8789492,-1.971808! 0.0,1.5956364,0.5935817,-1.2485329,2.830944,2.9121022,1.1413436! 0.0,3.0678122,0.85019726,-0.09232105,3.2849612,-0.64666253,3.56888! #0.0,2.9230766,2.5691671,-3.8670723,-2.4763036! 0.0,0.31949058,-3.685441,0.1504612,-3.018905! 
0.0,-0.8478589,-3.513728,0.5138056,1.3026972,-2.634674,-0.28270912! 0.0,-3.7626705,2.0706496,-3.0284677,-3.191965,0.3070321,1.7271699! 0.0,0.34262896,2.798032,-1.3172822,-1.7626389,2.6339269,-1.5356901! 0.0,3.0678122,0.5700865,4.000122,3.2849612,-1.6088908,-0.3330965! #0.0,-1.4996669,3.5007412,-3.8670723,-0.11754322! 0.0,-0.49875546,0.11482923,1.6276294,-2.3896728! 
0.0,-0.8628864,-3.479929,1.1209986,-3.0059566,-1.3219402,0.054257452! 0.0,2.6725223,-3.652761,-2.476314,-3.4969242,1.4871136,0.35280037! 0.0,-1.8102226,-3.5632129,-0.75027895,-3.1107848,-2.5231938,-0.18403292! 0.0,2.217309,3.352737,2.4196234,3.687841,-0.55159134,1.2385831! #0.0,0.7212398,0.7595315,0.0856905,3.3177106! 0.0,-2.0354517,-1.1349095,0.43525377,-3.475133! 
0.0,2.9454262,-2.1393402,2.2138083,2.7789502,-3.4697998,3.6752276! 0.0,1.150805,1.5836065,1.5203605,-3.191965,2.7477088,-3.611288! 0.0,1.6703472,0.6246252,0.9924224,0.20734352,1.7484995,-1.1519256! 0.0,-1.5161941,-1.0148267,-2.3394492,-0.40580988,3.6478388,-1.8426359! #0.0,-1.2529266,-1.8272353,2.5474157,-1.1200091! 0.0,0.31949058,0.12979841,-2.9109247,-2.3660421! 
0.0,-2.3692074,-0.90322495,3.8941855,-2.5094914,-3.4697998,-2.4087577! 0.0,-3.1020384,-2.1043336,-0.088451385,0.25593445,1.6521125,0.5391059! 0.0,1.3762779,0.1883632,-2.0032012,-1.744154,-3.009857,-0.4696994! 0.0,2.413546,-3.117946,1.6016426,-3.0914283,-3.8986669,-0.25328442! #0.0,-0.586627,-2.1002216,1.6375482,-0.9391773! 0.0,0.36713776,-1.3162684,-0.46672297,1.2490158! 
0.0,3.5145388,-0.8965826,-3.2523355,-0.47541428,-1.3283856,-3.8635602! 0.0,1.1098509,-3.9098148,-3.1781368,0.1939738,3.641624,1.2648251! 0.0,3.917642,0.6366477,3.8643124,0.3539583,-0.2705598,-0.4820394! 0.0,3.021884,0.73655295,-0.09232105,3.2849612,-0.64666253,-1.8459573! #0.0,2.4946108,-1.6552129,2.5001678,3.140871! 0.0,0.36713776,-1.120661,-1.3369393,-2.3660421! 
0.0,-0.38594303,-2.6455493,3.9501495,-3.0059566,1.9363592,-1.3218783! 0.0,3.2678428,2.8911214,-3.0284677,-0.57449657,1.4871136,-1.0439793! 0.0,1.8255906,0.30928898,3.2271414,1.0117278,0.35358426,-0.11481762! 0.0,-2.733683,3.2176566,-1.7192448,-3.1475194,-3.2150612,1.3935415! #0.0,0.71246725,0.37858236,-0.6354866,-3.7450922! 0.0,1.3493402,0.12979841,0.3589878,-2.4944217! 
0.0,-2.0552201,1.4633055,-2.8599858,3.9529896,-0.12505865,0.90222836! 0.0,-3.1020384,-3.3879185,-0.88481283,-2.9184594,-1.5896664,-1.4192204! 0.0,0.56865835,-3.5945535,2.1683445,-0.44724226,-1.5005422,-2.2081428! 0.0,-1.0212646,1.9162517,-1.3495278,-0.22672367,-2.7500844,0.571232! #0.0,-0.39263868,2.466194,-2.323441,0.124818325! 0.0,0.3599062,-0.072886944,-3.4500947,0.45347786! 
0.0,-2.3692074,-3.514606,-1.0151317,1.3026972,-1.3283856,-3.34698! 0.0,-3.7626705,2.4558458,-3.1781368,-3.9040122,0.68749046,0.5391059! 0.0,-1.9536452,3.8620737,2.1990123,-0.71479094,1.2307644,-1.1519256! 0.0,3.021884,0.76394516,-1.495424,3.2849612,3.1507592,1.1894951! #0.0,-1.2529266,-1.6552129,-2.1017914,0.44788775! 0.0,2.2326937,1.9791474,-0.46672297,-2.3660421! 
0.0,-2.9539332,3.2932982,3.2763824,-0.6797867,-3.2294588,1.9027685! 0.0,-2.4157548,1.2257484,3.86516,-0.9737677,2.7282064,-1.0037079! 0.0,-3.0146456,0.1705681,3.0297084,0.9815025,-0.37327293,-0.4410138! 0.0,1.6773344,-2.151331,-1.3010402,3.3260403,1.4219404,2.0915089! #0.0,-0.6138289,-1.7803469,-2.5723534,-0.9240866! 0.0,-0.7130399,-0.9654516,3.9877172,3.0883873! 
0.0,-3.219818,-1.0567179,-1.5718398,1.3986497,-2.5086164,2.8541336! 0.0,-3.921461,0.10440683,1.1762061,-0.86397266,-2.8295803,-1.9053273! 0.0,1.842488,3.2964864,-1.4776182,-1.3201871,-0.21555662,1.0155749! 0.0,-3.5265856,-3.774394,2.4891229,0.46412754,-1.3591309,-1.8184896! #0.0,2.9426594,-0.80171305,3.1425905,-2.6854203! 0.0,-2.8903537,2.0075774,-3.873293,0.83638096! 
0.0,-1.9796181,3.8195477,2.4370852,-1.3189273,-2.4545336,2.0614257! 0.0,1.6821194,0.94401675,2.1759534,-3.133669,-3.039178,-0.6790557! 0.0,-0.161345,-1.0781016,-2.7150052,-1.7186761,2.4016905,2.636799! 0.0,-1.8285356,0.6976331,1.4547807,-0.79407704,-2.2872043,-1.8459573! #0.0,-1.2709274,-0.4464469,2.5315652,3.8045838! 0.0,1.4471884,-3.677878,1.8169417,0.081246376! 
0.0,-0.36777875,-1.2526293,1.5551138,1.0555973,-3.87035,3.6752276! 0.0,2.9010296,-1.3635616,-2.119288,0.21076488,3.3604698,1.9462327! 0.0,-0.15758823,2.1057103,0.3703308,-3.0614414,-3.419984,1.1535785! 0.0,1.1461196,-1.4668143,-2.234871,-0.31515884,3.9938512,-1.2362142! #0.0,3.368618,-0.7690503,-1.4775904,-1.5415082! 0.0,-0.63626534,-0.9269018,2.899786,2.4681! 
0.0,-2.208994,0.49873176,2.1894197,-2.5094914,-3.2551174,-1.1937878! 0.0,-2.4484763,-1.4921026,-3.06711,1.7657423,3.537519,1.1098742! 0.0,-1.8263302,2.8180056,3.8357434,-1.8532113,-0.97209454,-1.1424229! 0.0,-1.6676192,0.47733426,2.3985581,-3.8016634,2.5132723,-0.7081246! #0.0,2.6176906,-2.235363,2.3416052,-0.24408245! 0.0,2.896294,-0.9978964,-0.27710497,-0.8096461! 
0.0,-0.25066608,-3.0236495,1.5551138,-2.5094914,1.2239617,1.3196478! 0.0,-2.8526683,-1.3922725,2.6706672,-2.1420975,2.7397552,-2.7425609! 0.0,-1.7269835,-3.1051848,-2.5262523,0.9333927,-3.4443064,-2.5310807! 0.0,1.1461196,-1.7973367,-2.234871,-0.31515884,3.9938512,-2.456431! #0.0,3.3224096,3.092867,-3.1854947,-1.5955982! 0.0,-0.7130399,-0.9269018,2.899786,-1.9704933! 
0.0,1.9576097,0.10278383,-1.0151317,-2.8543077,-0.17483902,3.6752276! 0.0,3.0855398,2.457901,-3.2581844,-1.4562726,-2.9992619,2.2827487! 0.0,3.4527678,1.4442449,3.0710058,0.99616134,0.62006664,3.9402947! 0.0,3.411529,0.9570279,0.87363034,3.2849612,-0.6037175,3.754232! #0.0,2.6695237,3.1870484,-0.28153563,-2.7920413! 0.0,0.36880308,-2.9785666,-1.1005387,-2.3660421! 
0.0,1.5354686,-0.89856887,1.1148243,-3.466944,-3.3830624,-3.0384717! 0.0,-3.1020384,3.199514,-1.902522,0.21076488,0.043658733,0.8328142! 0.0,0.96968555,1.6106963,-3.5118756,-2.118666,3.4479437,1.8133177! 0.0,-1.7779384,2.4826777,-1.7192448,-0.7958603,-2.2872043,1.5826645! #0.0,0.18743944,3.89532,-2.2686093,3.6816473! 0.0,1.8350186,0.12979841,-2.5639734,-3.2302184! 
0.0,-2.7977333,-1.6848054,2.9228168,-1.5460877,1.0564615,-1.337746! 0.0,-1.7407273,1.615015,-3.214881,-0.75772953,-2.9733706,1.0136964! 0.0,0.23410405,-3.500832,-1.2029827,3.5920548,2.107262,2.6454492! 0.0,-3.6171713,0.76394516,-3.9357016,0.11474037,-2.2930489,-2.5579019! #0.0,-0.60803556,-2.4305828,-3.1369421,-3.726305! 0.0,0.41405106,-2.2400386,-0.28703073,-0.3535571! 
0.0,2.1804204,-2.977178,3.2763824,-3.0045478,-2.634674,3.6752276! 0.0,0.563467,-3.745306,3.978327,-3.191965,2.7817798,1.7271699! 0.0,0.87647533,3.8486028,1.0160794,-2.0197773,-3.597004,-1.1519256! 0.0,2.217309,-3.1408758,1.3230672,-0.4835515,3.6478388,-1.0720177! #0.0,-1.2529266,-1.8420984,-3.1558983,-1.1200091! 0.0,-1.4490108,1.3989015,-1.0430617,-2.3660421! 
0.0,2.9454262,-3.8809872,3.9501495,-1.8005879,-3.0845094,-3.8635602! 0.0,-3.0089362,2.4558458,-3.1781368,-2.0579085,0.3070321,2.578908! 0.0,1.2262301,2.7605715,-1.8217516,-0.71479094,2.1450315,-1.1519256! 0.0,-3.5980387,3.0250783,-1.495424,3.416777,3.1507592,-3.4687347! #0.0,-1.2529266,-0.2697275,2.5001678,-0.38768673! 0.0,0.31949058,-2.2134848,1.0018864,1.2797189! 
0.0,-0.25066608,-0.67021275,-3.0778584,-3.8587928,2.6164935,-2.7168584! 0.0,3.463373,-2.4935527,-2.119288,0.21076488,-2.9387197,1.9381871! 0.0,-0.7498889,1.9581404,-1.2152524,1.0677204,2.8556428,2.506529! 0.0,1.4354129,-2.7842922,-1.7480506,0.37714672,-2.2872043,-1.2378349! #0.0,0.1022439,-1.7021928,1.7096443,-0.9240866! 0.0,-0.17431898,0.7209611,-0.3301399,-3.2458835! 
0.0,-1.3345844,0.12678242,2.1894197,-2.6124115,1.8550395,3.6752276! 0.0,-3.7626705,1.853582,-3.0284677,-0.75772953,-0.07090187,3.8922677! 0.0,-1.600857,-0.13046551,0.3703308,1.0117278,1.1149135,1.0125146! 0.0,-2.733683,0.85019726,-0.0045673177,3.94567,2.4536686,3.7694478! #0.0,-1.2529266,1.8547325,3.7509794,3.302678! 0.0,0.36713776,2.5289922,-2.1810253,-1.6755118! 
0.0,2.6823196,3.36305,3.476335,1.5515199,-1.657939,3.6752276! 0.0,2.1700816,2.457901,-3.065912,-3.191965,2.2941275,1.2514544! 0.0,-1.0931058,0.30928898,3.8643124,3.987845,-2.9711874,-1.2408893! 0.0,-2.3667579,-1.9233036,3.0571113,1.0989327,-1.7557712,-3.4847903! #0.0,-2.1647902,-2.7315214,2.1100006,-1.4468746! 0.0,2.5112104,0.19964713,-3.358623,-0.058778286! 
0.0,-0.4475689,-0.3965969,2.9889383,1.3986497,-0.34811258,3.7787876! 0.0,2.9746797,3.7382483,-2.0216546,-1.8117304,0.33383965,-1.9053273! 0.0,-2.4522128,-2.140154,-2.5700734,1.9772882,-0.43151617,-0.054770947! 0.0,-3.5265856,1.1280084,-3.3011093,-1.3567151,0.805594,-0.26557064! #0.0,-1.1150527,-2.2895474,0.25718498,-1.8480673! 0.0,1.167816,-2.6818373,-0.9922188,0.83638096! 
0.0,-1.565164,3.0077271,3.9087627,1.1530766,-2.6716912,1.171368! 0.0,-2.4157548,3.287075,2.7551246,-2.564034,0.2307868,-0.57496667! 0.0,2.8420205,0.2646663,0.99010324,3.1219316,-3.009857,1.2475176! 0.0,3.021884,3.2176566,-1.7526778,-0.4835515,2.7667317,-2.4917157! #0.0,-1.2433354,2.3556514,-3.9593308,3.3581467! 0.0,1.8350186,-0.83429956,2.8836067,-3.1380043! 
0.0,-0.36777875,-2.1150455,-3.2523355,-0.4048339,-1.3283856,3.6752276! 0.0,-3.7626705,2.4558458,-3.0284677,-3.191965,-0.07090187,3.8922677! 0.0,-1.600857,0.6366477,-1.3055545,1.0117278,-0.2705598,-1.1519256! 0.0,3.0678122,0.85019726,-1.7470007,3.94567,3.1507592,-3.4411428! #0.0,-1.2529266,-1.6552129,-3.8670723,-3.726305! 0.0,0.31949058,0.08623305,-1.3369393,-2.3363936! 
0.0,-0.25066608,-3.0236495,-0.9302195,-3.0045478,1.2239617,1.865325! 0.0,-0.49505568,3.3051627,2.9822683,0.9967476,-0.07090187,-1.45626! 0.0,1.3762779,0.1348052,-3.8656924,0.9333927,0.10783234,-1.1519256! 0.0,-3.5277011,2.5205336,-1.964772,-3.7558222,-0.40531084,-3.0176036! #0.0,-2.8959107,-0.21561718,3.7492552,-2.1597779! 0.0,-0.7130399,-0.9654516,2.6686363,-1.9704933! 
0.0,1.7398815,3.4221466,1.1621767,-3.467902,-0.6001258,-1.7774253! 0.0,1.150805,0.7104335,-2.1145616,0.21076488,-3.039178,-0.13133097! 0.0,-1.0587416,-0.57861435,-1.9037027,0.5936103,3.310749,1.933989! 0.0,-1.0229234,2.588011,1.9043548,1.4260726,-0.58311176,-2.5579019! #0.0,2.4946108,2.4973378,3.3422008,3.8138354! 0.0,-0.75024647,-2.2861137,-1.1322876,-2.324719! 
0.0,1.4992018,-0.90322495,-1.8908162,-3.466944,-1.3283856,-3.0384717! 0.0,0.69558907,3.1594384,-3.0284677,-3.191965,-1.4454126E-4,1.5272603! 0.0,2.9787588,1.8030745,3.8712022,-2.118666,2.9121022,1.1413436! 0.0,-1.7779384,0.85019726,-0.4637742,2.3281884,-0.64666253,1.5826645! #0.0,3.6276307,-0.017000917,-2.2686093,-2.5213723! 0.0,1.8350186,-2.4079752,0.4760458,-3.1381373! 
0.0,2.4005046,-0.90322495,2.4941757,-2.6124115,-3.4697998,1.5929828! 0.0,1.0772085,2.5012722,-0.26456833,-3.4969242,0.63612986,-1.4465256! 0.0,-1.6233377,-3.4606402,-1.5781841,2.4589927,3.920398,-3.8929362! 0.0,1.4888678,-2.6953802,-1.1010867,-0.511225,2.492891,-3.2074008! #0.0,3.6276307,-2.6321363,-0.28153563,3.302678! 0.0,-0.026801627,2.5289922,-3.2364717,1.7187763! 
0.0,1.6688724,3.8195477,3.3757334,3.1681914,-1.7418602,-2.4087577! 0.0,-3.1020384,0.017275564,2.5460253,0.25593445,2.7477088,-3.6211877! 0.0,2.9094913,-0.13082659,-2.0032012,-1.744154,-0.07000719,-0.49710992! 0.0,3.4511385,-3.117946,1.4083266,0.106085464,-3.8986669,-1.1654075! #0.0,-1.2004511,-0.2697275,1.6226497,3.8484895! 0.0,-2.0956888,-1.3162684,2.8728547,1.2490158! 
0.0,2.9454262,-3.513728,-3.575499,-2.0596204,-2.4456165,-0.28270912! 0.0,3.0855398,2.0651312,-3.219361,2.8048067,-2.9788642,-2.711434! 0.0,3.4527678,1.4442449,3.0283675,-1.7626389,2.9121022,-1.5356901! 0.0,-1.1713624,-1.4783368,4.000122,3.2849612,-0.093006745,-0.3330965! #0.0,-1.4996669,3.1870484,-3.8670723,-0.097259015! 0.0,0.36880308,-0.2429061,1.5953751,-2.3896728! 
0.0,2.7981925,-2.571412,1.5432391,-2.940854,-1.4339795,-0.7470794! 0.0,-2.435688,-0.058872223,3.3500671,1.5672154,0.5667901,-3.0978584! 0.0,-2.607685,2.346878,1.9422984,-0.9839945,2.0164328,1.7497339! 0.0,-3.893785,0.53447104,2.324954,-3.3750715,-2.3693066,2.0858335! #0.0,0.04206848,-2.7763348,2.6647859,-1.9302464! 0.0,-3.2733831,1.378325,3.0281138,-0.6303582! 
0.0,2.4359002,3.1778107,3.5827131,-0.5509661,-1.2137319,-2.3895807! 0.0,-1.635395,3.766367,-0.11149148,-3.3459291,-3.6956651,3.685482! 0.0,1.4370453,-3.500832,-3.6190166,0.9815025,2.1215847,-0.4410138! 0.0,3.563631,2.6281626,-2.361508,1.4172021,-1.6019616,-0.23110723! #0.0,2.4946108,1.350483,-3.8219995,3.3422046! 0.0,2.3083324,1.2538048,0.837203,1.2490158! 
0.0,-3.4955993,3.3280983,1.1148243,1.5973334,2.2106562,-3.0676093! 0.0,0.69558907,-0.78505707,-1.9481354,-3.4969242,0.043658733,0.8328142! 0.0,1.8232977,1.6106963,-1.2152524,-2.118666,3.9109244,3.4939651! 0.0,1.4857166,-3.886004,-0.4637742,0.4732899,0.41848814,1.5826645! #0.0,3.6276307,3.2731023,-2.2686093,3.6816473! 0.0,-0.98969364,-2.4079752,0.4760458,1.9987316! 
0.0,-1.4922132,-0.031737804,-2.906376,3.0708346,1.2334318,-3.9943151! 0.0,0.9333644,-2.9425602,3.86516,-2.103057,-1.3239113,0.4661293! 0.0,-1.6920753,0.3272954,3.0297084,0.13082013,-2.3720708,-0.4820394! 0.0,-2.0724506,2.0806513,2.8301506,3.30335,3.3953176,2.9247227! #0.0,-2.1518373,-2.0205984,-3.0289311,3.7900934! 0.0,-0.7130399,-0.9654516,3.9877172,-2.1279435! 
0.0,2.9454262,-2.1379762,-3.2523355,1.2004582,-1.3283856,-3.8635602! 0.0,-3.7626705,2.4558458,-3.1781368,0.1939738,0.3070321,-0.89925814! 0.0,-1.2572451,0.6366477,0.6424818,-0.71479094,-0.2705598,-1.1519256! 0.0,-3.3791127,-1.7722383,-1.7308278,3.2849612,1.3787706,-2.5098019! #0.0,-1.2529266,-1.6552129,2.5001678,-3.6806664! 0.0,0.9382518,1.2632952,-1.3223449,-0.8096461! 
0.0,-3.8212328,-3.2251463,-3.1043472,2.2322192,-3.4697998,-1.5642623! 0.0,-0.97764635,-2.9896502,1.8993464,0.21076488,-0.5323739,-1.703629! 0.0,2.9056363,3.6396027,-2.9703379,-2.581242,-0.99354553,-2.6841688! 0.0,3.021884,2.1909754,-1.6482587,0.63554865,-3.2058473,2.0866666! #0.0,-1.8332906,-3.3617396,1.8733187,3.7116833! 0.0,-3.1112242,1.3945305,-1.8187351,-1.9704933! 
0.0,1.9646912,0.15459616,-3.0778584,-3.8587928,-3.5166426,1.9232924! 0.0,1.9017882,-1.7407098,-1.406703,0.21076488,-2.9387197,-2.428084! 0.0,0.22708511,2.8611774,1.3276944,0.8331466,-0.3945443,0.69651586! 0.0,-0.7806587,-2.151331,-2.7018306,-3.1432877,-0.6318679,-3.2074008! #0.0,-0.39263868,-1.7021928,-1.7460599,-0.9240866! 0.0,2.5112104,0.13855824,-3.7840748,-2.1769743! 
0.0,-2.9539332,3.36305,3.889049,-3.0059566,-3.3648324,3.7509203! 0.0,-3.1020384,2.457901,-2.476314,-0.568674,-2.9387197,-1.0439793! 0.0,0.96968555,1.2052832,-0.72559094,-3.0614414,2.1232386,-0.11481762! 0.0,-3.6171713,3.2176566,-2.0017965,-0.7958603,-2.2872043,-2.2101116! #0.0,-1.2433354,0.4281986,0.036551952,-3.8158154! 0.0,-0.19317214,0.11257152,0.34995756,-3.2302184! 
0.0,2.7570763,-1.0337181,0.9636259,2.0446668,0.5958972,-2.5693336! 0.0,-0.5766821,1.2024585,-2.046558,-0.8174062,-3.8789492,1.9374964! 0.0,-3.4311204,-1.969339,0.933325,-2.6058235,0.7713485,-3.8134637! 0.0,3.021884,-3.9815774,1.1081624,0.63554865,0.7782019,0.7424493! #0.0,-2.1631806,-1.9253726,0.78629065,2.7250133! 0.0,1.2072992,0.11639779,2.8569164,1.5181503! 
0.0,-0.86645937,-1.1369333,-2.98625,2.3848581,-0.46341467,3.5813012! 0.0,3.8509274,2.3053575,2.0566545,3.6400218,-2.1695485,-1.1058378! 0.0,2.474327,2.3332505,1.5249677,-1.7066841,-3.353857,3.296929! 0.0,-1.194902,-3.1655107,-1.3010402,-0.261436,-2.014275,0.1897583! #0.0,1.9233532,2.3645482,1.1951032,-0.5659747! 0.0,-2.4558353,-1.3292847,1.9223571,-1.5078919! 
0.0,-3.5738196,1.649519,1.6266899,2.8394375,-3.6198525,-0.43891764! 0.0,-1.4949636,-2.1917062,-0.63936186,-0.46923256,1.0749801,1.2943197! 0.0,0.124423504,-1.7335734,-3.78098,-0.66907406,-0.84951115,0.6226101! 0.0,0.898674,-3.1375608,0.8923092,2.5960412,0.3511181,-0.22851731! #0.0,0.3686061,-2.4267344,0.4181342,1.1491675! 0.0,-3.6458783,0.19198704,-0.29144144,0.9962559! 
0.0,-3.6031935,0.8272189,3.9693258,1.3592049,3.6003737,0.86308575! 0.0,-0.09634447,-0.032380313,-2.1801004,0.334208,1.0829635,-1.703629! 0.0,-1.8444948,-0.08366069,2.8343997,-0.21139956,1.1404505,2.6727498! 0.0,2.8257437,-3.1375608,1.3841236,2.5960412,3.6616824,2.2922878! #0.0,0.08912897,-0.21561718,0.4514359,-1.5415082! 0.0,-1.6816454,2.6391773,-0.29144144,-1.3167081! 
0.0,2.9454262,-2.1150455,-3.2523355,-0.046255667,-1.3627362,-3.864312! 0.0,-3.7626705,2.4558458,3.86516,0.1939738,-1.3073418,-1.0217957! 0.0,-1.9536452,0.6366477,2.1990123,0.13082013,-0.36390975,-1.1519256! 0.0,1.6773344,0.76394516,-1.495424,3.3260403,1.4219404,2.0915089! #0.0,-1.2567154,-1.2687788,-2.5723534,-3.726305! 0.0,0.30045998,0.086142,-1.3369393,2.957878! 
0.0,-0.25066608,-3.0236495,2.1894197,-0.6491394,-1.3283856,3.6752276! 0.0,-3.7626705,3.7345657,2.9822683,-3.191965,2.7397552,1.809031! 0.0,1.117631,-3.1014078,-3.8656924,0.9333927,-3.597004,-1.1519256! 0.0,3.678804,2.5205336,-1.964772,1.6184483,3.6543348,-1.0720177! #0.0,0.76604795,3.092867,-3.1558983,-1.1200091! 0.0,0.31949058,-0.9654516,3.0341864,-2.3660421! 
0.0,-2.3859162,-3.4249692,-0.531229,-0.47541428,0.7361145,2.5213184! 0.0,1.1098509,-3.9098148,-2.2531734,-3.233215,3.64328,1.2514544! 0.0,3.892247,3.5458817,-1.7936373,-2.0480638,-0.7197992,-0.4820394! 0.0,0.69340944,0.46814013,-0.09232105,3.414205,-0.64666253,-1.8459573! #0.0,-2.8470693,-2.8067262,2.1366248,2.6949925! 0.0,0.36713776,-1.120661,-0.56243706,-3.2302184! 
0.0,-2.9539332,3.2236853,2.7172155,2.5136974,2.4269063,1.9027685! 0.0,-2.6115632,1.2342318,3.8724236,3.235269,-1.3046666,-2.4419088! 0.0,-3.0146456,3.7119133,3.0297084,-0.89947605,-2.0539083,0.23164313! 0.0,3.7303019,3.1955142,3.9082298,3.3260403,-1.5930077,1.8879828! #0.0,3.3519974,-1.2328494,-2.97818,-0.1526618! 0.0,-0.7130399,-0.70156336,3.9877172,0.84477067! 
0.0,-2.9132771,-3.1173697,-3.813369,-1.7668897,3.6254134,3.7747917! 0.0,-0.49505568,-2.746648,3.928646,3.585287,-3.643571,-1.4901114! 0.0,-1.5098181,0.15000482,1.6556544,0.48759606,-3.8084707,-1.5848861! 0.0,3.130803,-1.3656831,-0.16032511,3.265377,-0.8971133,-3.0603793! #0.0,3.0550737,2.8244324,-1.0406027,3.4841213! 0.0,-2.7272077,-1.7620502,-0.46812916,-1.3978491! 
0.0,2.5556946,-1.5810475,3.2763824,2.756294,2.2106562,1.1937951! 0.0,2.6578999,2.2266016,-0.0836031,2.5122485,1.0053449,0.35280037! 0.0,0.2490344,-3.5546982,-2.951564,-3.0614414,-2.5592334,2.102275! 0.0,-1.8646064,3.2176566,-1.103406,-3.7558222,0.41848814,1.5826645! #0.0,3.0550737,3.5697646,-0.49609873,-0.9240866! 0.0,3.7101984,-0.07417011,0.837203,3.9614778! 
0.0,-3.9882207,3.8195477,2.4370852,1.3592049,3.6003737,-0.93534374! 0.0,2.2881274,0.7104335,-2.2000425,0.89225006,-3.039178,-1.703629! 0.0,-2.8877668,2.1057103,-1.0061159,0.5936103,-0.034793377,2.6370397! 0.0,-1.8285356,-2.8842318,-0.22464615,-0.18207315,-1.1272194,1.7170995! #0.0,-1.2709274,2.4973378,2.5001678,0.97494894! 0.0,-3.6412706,2.6396313,-1.1322876,2.4841304! 
0.0,1.1710849,-0.3988409,2.1627324,-2.2832398,-1.4339795,-0.7470794! 0.0,1.3701113,-2.4668417,0.0043984577,-2.7732873,-3.423787,-2.428084! 0.0,3.0545251,-3.500832,-2.5466695,-1.0287143,-3.8147445,-0.62947416! 0.0,-3.893785,0.53447104,2.5404618,-2.6739798,-0.6318679,2.2721405! #0.0,2.9851513,2.5843058,-1.7460599,-1.6107545! 0.0,-3.2733831,1.378325,3.0281138,-0.6303582! 
0.0,-2.923213,-3.4249692,-0.531229,-1.3189273,0.7361145,-0.4898405! 0.0,1.6821194,-2.5762033,-0.66441536,-0.8096094,1.8592987,2.0499973! 0.0,-3.130754,-1.0781016,0.81224394,-1.7186761,-0.7633281,2.636799! 0.0,-1.8285356,0.6976331,0.47879505,0.102493435,-3.0201654,3.901135! #0.0,2.9259958,-0.21561718,-1.0578065,0.8720126! 0.0,-0.17238998,-3.677878,2.660349,0.081246376! 
0.0,-2.405491,-3.514606,-2.6031508,1.3026972,1.8550395,-1.7288718! 0.0,-0.49669957,2.1036632,-0.4448886,-3.9040122,-2.9387197,-3.8864532! 0.0,-1.600857,2.7891655,-3.827616,2.5995693,1.074411,1.0125146! 0.0,-2.733683,1.0607343,-0.18462706,3.94567,2.4516745,1.1894951! #0.0,-3.8708043,-0.73473716,3.7509794,3.302678! 0.0,0.36713776,1.9791474,1.7715702,-1.6697364! 
0.0,3.9572418,3.5612392,2.7992306,-3.580836,-0.6477151,-3.1504345! 0.0,-2.6014547,2.826037,-3.6024017,0.30066288,3.64328,-1.8133636! 0.0,1.3762779,0.37320948,-2.4011202,-3.6412063,-0.032028418,-0.71706396! 0.0,-1.4226205,0.880461,-0.17631719,3.687841,-3.2150612,0.752432! #0.0,2.323193,3.55173,-3.1594083,-2.143177! 0.0,-1.4862025,-1.0158938,-2.430605,1.6932817! 
0.0,2.9454262,-0.8965826,3.2763824,-0.47541428,-1.3283856,2.5213184! 0.0,0.59689295,-3.745306,3.706828,0.5555515,-3.3934448,1.2514544! 0.0,0.87647533,-3.500832,3.8357434,-2.0197773,0.1481185,1.2475176! 0.0,2.217309,0.46814013,-0.062535286,2.2351635,1.0565853,1.8809916! #0.0,2.4539638,1.350483,-1.0406027,-0.9240866! 0.0,-1.4490108,0.09550923,-1.0430617,0.58846664! 
0.0,-0.24090052,-0.31617048,-1.0879462,2.0464706,-2.5086164,-1.3218783! 0.0,-3.874607,2.481713,-0.8965769,-0.86397266,-1.8675472,3.0010562! 0.0,1.8481389,3.2695236,-1.0321678,3.5873275,-2.9690418,0.22173548! 0.0,-0.1014878,-3.808907,-1.8048853,-3.7572312,-1.3591309,-1.7197633! #0.0,2.9426594,-0.34655952,-2.8097582,1.9243107! 0.0,1.7487783,2.0075774,1.1073833,1.2214266! 
0.0,1.6688724,-3.505628,3.3757334,3.1699138,-3.4248986,-1.7774253! 0.0,-0.5766821,0.017275564,2.5460253,0.89225006,1.8347782,-3.6230721! 0.0,2.9094913,-0.13082659,0.85971624,-2.597558,-0.07000719,-3.6987243! 0.0,-1.8285356,-0.5277581,1.4348927,0.106085464,-1.2134132,-2.6133385! #0.0,2.9476392,-0.26281214,-1.0578065,0.8720126! 0.0,-2.0956888,2.6396313,2.8728547,0.081246376! 
0.0,-2.369334,-1.936234,1.1879176,-3.4842281,2.4212947,2.6146536! 0.0,0.5208255,-1.5824375,0.72342056,0.25593445,1.5688252,-0.89925814! 0.0,-1.456516,0.1705681,-2.0032012,-1.744154,-3.1204114,2.531502! 0.0,3.6063714,-2.151331,-0.115780085,0.56733364,-1.0935463,-3.0176036! #0.0,-2.1374302,-1.8176504,0.2347643,-0.7287052! 0.0,-1.2293954,1.27487,3.4840107,1.2817692! 
0.0,-2.208994,3.3280983,-3.0778584,-3.8587928,-3.2551174,1.9027685! 0.0,3.463373,-2.4935527,-0.088451385,0.21076488,3.537519,1.0615617! 0.0,-3.2178812,0.13680482,0.99678296,-1.8812991,2.1232386,0.74610853! 0.0,1.4354129,-3.1948955,3.1112137,-3.8016634,-2.2872043,-0.7081246! #0.0,-0.39263868,-1.8272353,2.3416052,-0.9240866! 0.0,-0.17431898,0.12979841,-0.27710497,1.9987316! 
0.0,-0.2317664,3.2236853,2.1894197,3.2896016,2.3738863,3.6752276! 0.0,0.2252863,0.9588652,3.978327,-3.191965,1.5688252,1.7271699! 0.0,1.6703472,0.3272954,1.0160794,-3.6758935,-3.1204114,-0.4410138! 0.0,3.6063714,-3.1408758,-2.610701,0.56733364,1.8669387,1.2236199! #0.0,-2.1374302,-1.2687788,0.2347643,-1.1200091! 0.0,0.2710103,0.09695153,3.9877172,-2.3660421! 
0.0,3.2643893,0.70751953,-0.5782523,3.409051,-0.23988868,0.51299524! 0.0,1.532485,1.2269198,-0.85728693,-2.614922,-3.9220796,-2.0672193! 0.0,-0.97705746,2.2575622,-1.2039995,3.8392859,-0.822081,1.0436683! 0.0,1.8154206,-1.3271542,1.487905,2.5604157,-0.8250313,2.3711686! #0.0,1.5282121,-3.20638,0.626369,3.117885! 0.0,-3.4628181,-3.8782892,2.415566,2.086999! 
0.0,-0.36777875,-2.6455493,3.9568882,1.4103302,-2.1883435,-2.943791! 0.0,2.1192198,2.457901,-3.5454764,1.6738701,-0.024754722,1.7271699! 0.0,-1.600857,-1.8460236,-3.5909514,1.0117278,-3.5632539,3.006145! 0.0,3.0678122,-1.3512564,-3.3109112,3.2849612,-0.66936934,3.754232! #0.0,-1.2529266,3.4772453,-2.687767,2.1254601! 0.0,-0.6063916,-0.10687414,-1.3369393,-2.3660421! 
0.0,-0.8628864,-0.8651209,3.6584644,2.9045453,-3.3555834,3.5164647! 0.0,-3.500721,1.9467335,-0.033856392,-2.90979,-1.3966379,2.44999! 0.0,1.7766376,2.2856598,3.8643124,-0.17416428,0.15712118,-1.1640735! 0.0,2.217309,2.7384887,0.67802644,-2.9676938,-0.53534746,1.2436934! #0.0,2.4946108,-2.9754915,-2.1941261,0.43703318! 0.0,-3.6412706,-3.2519717,-1.3673058,-2.3993554! 
0.0,0.299747,1.5417528,-0.6753745,-0.526186,-1.979078,2.6400418! 0.0,-0.87154496,-2.5394955,3.9943013,-0.75772953,2.2888663,-3.6840725! 0.0,1.8232977,-0.5863245,-1.2152524,0.3079772,1.2928905,-0.9767613! 0.0,1.4888678,-0.3392439,-3.7613654,-3.3619504,-2.9612453,-2.0335388! #0.0,1.1626253,-1.160666,-3.1499617,-3.6456542! 0.0,3.7206507,3.1046407,1.5811882,-3.5414853! 
0.0,1.7504587,-0.8965826,2.1894197,3.996947,-1.3283856,-1.3371422! 0.0,-3.1020384,1.6444064,-2.119288,0.19190948,-2.9387197,1.2461805! 0.0,-1.287812,-3.500832,3.8357434,-0.9643912,0.1481185,1.9470298! 0.0,-1.6676192,0.51632,-1.7308278,-3.1364841,-2.2872043,-2.2101116! #0.0,-0.39263868,-2.235363,-2.4342718,-0.9240866! 0.0,0.13279483,3.1457195,-2.9453726,-0.8096461! 
0.0,0.5504317,3.4258308,2.4742994,0.8853216,-1.9306002,-1.3273382! 0.0,-1.6133317,-3.3115282,2.9822683,2.2929516,0.046288967,1.809031! 0.0,-1.8748302,0.17721844,-1.8217516,-2.5845952,2.87776,1.0125146! 0.0,-3.9571342,2.5205336,3.0677133,1.0419421,-3.2799296,2.422093! #0.0,0.18743944,3.5285645,3.7492552,-2.1597779! 0.0,1.1420412,0.12979841,-3.0107841,1.6036029! 
0.0,2.9454262,-2.1565921,-3.575499,1.2004582,-0.17483902,3.6752276! 0.0,3.0855398,2.457901,2.9444616,2.2929516,2.7397552,1.809031! 0.0,-1.8748302,0.1883632,-1.8217516,-2.5845952,2.9121022,-1.1044332! 0.0,3.678804,0.8135973,0.87363034,-0.7958603,-2.3266237,3.754232! #0.0,0.18743944,-0.37011862,3.7492552,-3.7494242! 0.0,-0.17431898,0.12979841,-1.360093,0.3824873! 
0.0,-1.3544756,0.12678242,2.9228168,2.285151,0.1696639,-3.5562282! 0.0,-2.1562905,-3.9650872,-0.4448886,1.0012541,-2.9387197,3.8922677! 0.0,-1.600857,-0.13046551,3.4812202,1.6547799,-0.034793377,-1.1941633! 0.0,-3.065637,1.8293419,-0.0104055405,-1.0284643,3.0319047,0.7424493! #0.0,-2.4938736,1.8547325,-3.7634463,-0.0737896! 0.0,-1.0443811,-0.41059923,1.7715702,-1.6697364! 
0.0,3.0059516,2.3514752,9.95636E-4,-1.6862309,-0.40676022,-2.180779! 0.0,3.2678428,-2.4935527,-2.1277897,0.030023098,3.0792003,-0.89925814! 0.0,-3.0146456,3.0820446,-0.40854293,-3.066441,1.845167,2.531502! 0.0,-3.3791127,2.5385156,-2.610701,3.3260403,3.5664835,-2.2928405! #0.0,3.4405046,1.4024086,0.8036418,0.21651745! 0.0,1.7397631,3.6056762,3.5695806,0.23080826! 
0.0,-2.3692074,3.3280983,3.956838,-3.3882983,-2.1883435,3.6752276! 0.0,3.7159166,-0.9856406,-3.2384057,0.21076488,-0.042870242,3.8922677! 0.0,-0.161345,3.869533,0.3703308,-3.0614414,2.124558,1.1413436! 0.0,-2.6861372,-3.1873007,-2.9297352,3.94567,-1.0008883,0.91133595! #0.0,0.24500881,-0.7690503,-2.894127,0.4415517! 0.0,-0.16830453,2.032546,-2.214179,1.9987316! 
0.0,-1.4738979,3.3280983,2.9228168,1.3829718,-2.7620695,-1.3270216! 0.0,3.2678428,-0.78505707,3.9943013,-0.75772953,2.2888663,-3.611288! 0.0,1.8232977,0.6726961,-1.2152524,0.3079772,3.9109244,3.006145! 0.0,1.4888678,-0.9892429,-2.610701,0.4732899,-2.8285208,-2.5966132! #0.0,3.4405046,-1.9253058,-1.1475748,2.8187566! 0.0,1.4066472,3.5920014,-2.3123693,1.9987316! 
0.0,1.1710849,-1.5538538,-2.6412444,1.1530766,-1.7642299,-1.2300348! 0.0,-2.6115632,-1.7407098,-1.406703,-2.7541986,-3.423787,1.7271699! 0.0,0.22708511,3.6794891,-3.5655885,-2.3932014,-0.36004305,0.26470014! 0.0,-1.4542127,-1.0994333,3.5521111,-1.9793973,1.8669387,-2.0531502! #0.0,0.7212398,3.5697646,-0.08332443,-1.632318! 0.0,1.7588874,-2.2619662,3.0341864,0.8062358! 
0.0,2.908055,-2.110196,-2.6031508,1.3519862,-3.2435331,-3.422797! 0.0,-2.4163992,2.1036632,-0.8814206,-3.9040122,-0.07090187,-3.8633528! 0.0,2.9787588,2.7891655,-1.9118848,2.5995693,1.074411,-0.18403292! 0.0,-0.19248581,-1.790966,-1.3708023,2.2606015,-0.40531084,1.1894951! #0.0,-3.667924,-0.73473716,-3.8670723,1.762126! 0.0,0.13279483,0.50482655,2.268776,2.158736! 
0.0,-2.1103234,2.9867759,2.9228168,-2.6124115,1.8550395,2.7033272! 0.0,0.5208255,1.2378397,-0.4448886,-0.75772953,-3.72499,-3.6211877! 0.0,-1.8150191,0.11540238,0.3703308,-3.0614414,-0.034793377,1.2521467! 0.0,-2.733683,1.0331454,-3.9338923,-0.49602088,-0.072299,-2.0531502! #0.0,-2.4871824,1.350483,3.7509794,3.302678! 0.0,0.36713776,3.1796165,2.4193928,2.758096! 
0.0,-2.395413,3.4740868,0.9536066,-2.4737763,-0.12505865,2.7033272! 0.0,-2.4157548,-3.4196513,-0.88481283,0.21076488,1.6521125,0.5391059! 0.0,3.4519944,0.41214,-1.2989516,3.347304,-0.89375305,3.9707222! 0.0,-1.8537512,-0.45214272,-1.3495278,-3.1364841,-2.7500844,0.7727251! #0.0,-0.39263868,-2.1002216,1.8707749,-0.9660124! 0.0,2.2499218,0.6707711,-0.46672297,-1.4307976! 
0.0,-1.7425847,-2.6455493,2.173579,-0.4048339,-1.3283856,3.6752276! 0.0,-2.1562905,-3.995946,-3.0284677,-3.1606205,-0.07090187,3.8922677! 0.0,2.9122806,0.64049697,-1.3055545,1.6547799,1.6960888,-1.1941633! 0.0,3.0678122,1.8293419,-1.767285,3.94567,3.0319047,0.62635136! #0.0,-2.4938736,3.8791237,-3.8670723,-0.0737896! 0.0,-1.0443811,-0.10687414,-2.1810253,-2.3363936! 
0.0,-1.5210363,2.7518091,-1.0879462,0.84022903,-2.7620695,-1.3270216! 0.0,-3.874607,0.91720057,2.1759534,-0.86397266,-2.3102307,-0.0016283989! 0.0,1.8522034,3.2695236,-3.5909514,-0.6668334,-2.739531,3.006145! 0.0,-0.1014878,-0.9735017,-2.610701,2.3825507,-2.8285208,-1.7197633! #0.0,3.4405046,-1.9253058,-2.8097582,-3.9050875! 0.0,1.4066472,3.5920014,-2.3368964,-3.7557983! 
0.0,-2.9244928,-2.336196,0.3246107,-2.4737763,-2.634674,-1.574338! 0.0,3.7159166,1.2403822,3.706828,-0.8257604,1.0112159,1.7496742! 0.0,1.4269964,-1.5094457,1.4224019,-0.7226505,1.2307644,2.8323874! 0.0,-0.2179122,0.76394516,-2.9297352,-1.4087162,1.0565853,-3.4436424! #0.0,-3.7083325,0.022379361,2.5001678,-0.39293236! 0.0,2.896294,1.3989015,-1.0780451,-0.267505! 
0.0,-1.3754348,0.12678242,-3.1043472,-2.6124115,1.8550395,1.5888691! 0.0,-0.5766821,-3.4469984,1.0105196,0.13406801,-2.9387197,3.8922677! 0.0,-1.6205808,0.24777889,-1.2615119,-3.0614414,-0.034793377,1.0125146! 0.0,-1.1385612,-0.5277581,-0.0104055405,-0.18207315,-1.2134132,0.7424493! #0.0,3.3222523,1.8547325,3.7509794,-3.726305! 0.0,0.36713776,2.5289922,2.8569164,-1.6415133! 
0.0,-0.4475689,3.3391929,-1.5718398,-3.466944,-0.38113642,-3.0384717! 0.0,2.970602,3.7382483,-1.902522,-3.4969242,0.043658733,0.8328142! 0.0,-0.36289644,-0.14786959,-2.5414124,-2.1648133,3.4551759,1.0155749! 0.0,-3.5265856,-3.3951826,-0.4637742,0.46412754,0.41848814,-1.8184896! #0.0,3.6276307,-2.2895474,-2.2686093,3.6816473! 0.0,-2.9388065,-2.4079752,-1.0052834,0.83638096! 
0.0,1.8446479,-3.4561787,-0.20871401,-1.193367,-0.23564863,2.6146536! 0.0,-0.49505568,2.457901,-0.8814206,1.5990787,1.5688252,-1.0436181! 0.0,1.6996586,-2.0915456,1.0326886,-3.87424,-2.2976975,0.77767897! 0.0,-0.19248581,1.367825,-1.4144106,-1.8266044,-0.45427322,1.9659077! #0.0,0.9332123,-0.18897678,-0.28153563,0.9021121! 0.0,0.112479374,0.50482655,2.8215747,-2.5367517! 
0.0,-0.4475689,-3.0236495,-1.5718398,-2.5094914,1.2239617,2.205276! 0.0,2.970602,3.7345657,2.9822683,2.1415896,-3.521634,-1.9053273! 0.0,1.117631,-0.14786959,-2.5414124,1.9772882,3.4551759,2.6370397! 0.0,-3.5265856,-3.3754544,-3.3011093,1.6184483,-1.9139214,-1.8184896! #0.0,0.76604795,3.092867,3.7492552,0.26513624! 0.0,-0.7130399,-0.9654516,-0.981163,-1.9704933! 
0.0,1.9646912,2.3976846,3.996638,-3.5073032,0.3661995,-0.9831991! 0.0,0.23220348,3.766367,-3.1781368,-2.7732873,1.2627859,1.0615617! 0.0,-0.94595253,-1.3231473,-1.2029827,0.19980988,-0.3945443,1.9235371! 0.0,-3.5584285,-0.29311225,-2.7018306,2.2242298,-1.8242807,-0.57283735! #0.0,0.7323127,-0.2697275,-3.1014113,-1.62209! 0.0,3.4622414,-1.9271222,-2.5307302,-2.1469932! 
0.0,3.5633678,-0.8965826,-3.6658654,-0.47541428,1.1117725,0.16401194! 0.0,1.1098509,-3.9098148,-0.86194307,-2.4882426,3.64328,1.2514544! 0.0,3.917642,-2.8318882,3.8643124,-0.6668334,2.9121022,-0.45953256! 0.0,-1.8934324,0.46814013,-0.09232105,-2.3145685,-2.8620038,0.3064723! #0.0,2.4946108,3.5697646,-3.0237012,3.140871! 0.0,0.36713776,-1.120661,-0.56243706,-3.2302184! 
0.0,0.40048122,-3.514606,-0.49933195,-3.5198488,-2.4456165,2.9349616! 0.0,3.757769,3.582386,-3.2384057,-0.7588044,-2.2689128,0.5391059! 0.0,0.48036766,3.8932176,3.7638855,0.5299773,1.2307644,-1.5356901! 0.0,2.413546,-3.1873007,-0.18462706,3.1376019,-1.0008883,1.1894951! #0.0,-0.9688363,3.3187866E-4,-1.8907151,0.44788775! 0.0,-3.49127,1.9791474,-0.46672297,-0.52249193! 
0.0,-2.3692074,-3.471379,0.497005,1.3026972,-2.4456165,-0.28270912! 0.0,3.7159166,2.0651312,-0.62990236,-3.9040122,0.68749046,-0.37424392! 0.0,1.429117,2.798032,3.0283675,-1.7626389,1.2307644,-1.5356901! 0.0,2.413546,-3.1873007,-0.18462706,3.0907817,-0.06028843,-0.3330965! #0.0,-1.4996669,-0.73473716,1.7543216,-0.11754322! 0.0,-0.49875546,1.9791474,1.663267,-2.3896728! 
0.0,-0.25066608,-1.5524688,-3.0608342,-3.466944,-3.5166426,1.8967854! 0.0,3.463373,-2.5010383,-2.119288,0.21076488,2.7153733,0.35280037! 0.0,-3.2178812,0.13680482,-2.951564,0.8371041,-2.5231938,0.69651586! 0.0,1.4354129,-2.151331,3.107029,-3.1364841,-2.2872043,-1.1757293! #0.0,0.7212398,0.39441898,2.067858,3.6816473! 0.0,-0.20971225,1.2913895,-0.3007655,3.9327292! 
0.0,-0.20401171,-2.1150455,3.2763824,3.2896016,-0.1989004,3.6752276! 0.0,3.0855398,2.457901,0.72342056,2.8048067,1.5688252,-2.711434! 0.0,3.4527678,1.4442449,-2.0032012,1.0117278,-3.1204114,-1.1519256! 0.0,3.6063714,-0.7790861,-0.115780085,3.2417147,-0.64666253,1.2236199! #0.0,2.6695237,-1.2687788,-3.8670723,-0.7287052! 0.0,0.67409897,-0.06459379,3.9877172,-2.5049605! 
0.0,-2.9539332,-2.1610057,-1.6978788,3.6028962,-0.4853878,-0.22163391! 0.0,-0.06888676,-3.3159437,3.86516,-2.1420975,0.57269764,-1.364924! 0.0,-3.0146456,-0.10598249,3.0129423,3.9041586,-0.7847185,0.2948947! 0.0,-2.7309146,-0.41388607,1.7566539,3.8701353,-3.0928106,2.1072974! #0.0,1.218617,1.3097477,0.5582199,-3.5851629! 0.0,-0.75729907,0.54579306,-3.6529832,2.957878! 
0.0,-0.25066608,-3.514606,2.4370852,-3.0059566,1.9363592,3.2101655! 0.0,3.2678428,-2.4935527,-3.0284677,-3.498291,1.4871136,-1.0439793! 0.0,1.8255906,0.30928898,-0.72559094,1.0117278,2.9121022,2.636799! 0.0,-1.8285356,0.69086355,-1.9757029,-3.1475194,3.1846714,-2.6133385! #0.0,2.9259958,-0.21561718,-1.0578065,-3.726305! 0.0,-2.0956888,-3.6628234,1.7955654,-2.4944217! 
0.0,1.1710849,-0.8965826,1.0262461,1.5003219,-0.6477151,-1.2170749! 0.0,1.1098509,2.457901,-0.012163516,-2.7541986,-3.423787,1.2514544! 0.0,1.7766376,2.1318698,-3.351646,0.3539583,-3.5210402,-1.202889! 0.0,2.217309,-3.348575,0.67802644,-3.1475194,-0.53534746,1.2059383! #0.0,0.7212398,2.3229995,0.036551952,-3.2975247! 0.0,1.0304722,-2.2619662,3.0341864,-0.8502083! 
0.0,2.4359002,-3.9169383,3.9501495,-1.8005879,-2.1883435,3.6752276! 0.0,-3.0089362,3.7450786,-3.1781368,0.21076488,3.537519,2.578908! 0.0,-1.600857,1.667109,1.4224019,0.4086511,2.1450315,-3.6470869! 0.0,-0.97484446,3.0250783,3.1641974,3.416777,0.8216162,-2.7051296! #0.0,0.7323127,-0.2697275,-3.8219995,-0.38768673! 0.0,-0.6501069,-0.12856175,1.0018864,1.2972032! 
0.0,1.5847158,3.1778107,2.9889383,-2.3352876,2.9985595,3.7675376! 0.0,-2.3797836,-1.5824375,3.6517992,-2.5252805,-1.3097832,2.9736385! 0.0,-2.4522128,-2.140154,-3.9777102,0.9747305,1.1149135,1.9041646! 0.0,-1.194902,1.1280084,1.3230672,1.3971252,0.8405037,-0.26557064! #0.0,3.8507528,-2.8038974,-3.9593308,-0.38768673! 0.0,0.9481711,-1.0339799,-1.0189452,2.957878! 
0.0,-2.395413,3.3280983,2.4742994,1.2004582,1.2239617,3.9599347! 0.0,-1.6133317,1.6045799,2.9822683,-0.79014796,3.5199802,1.809031! 0.0,-1.8748302,0.1883632,-1.8217516,-1.7186761,-0.97418493,1.7598399! 0.0,3.6337025,2.5205336,-3.31639,-0.7958603,-1.5717173,-2.6433506! #0.0,-1.7760181,-0.37011862,2.036098,0.9004703! 0.0,-0.17431898,3.6334286,-2.3225696,0.3824873! 
0.0,-0.25066608,3.3380573,3.924901,-1.9493442,1.9363592,3.7509203! 0.0,3.2678428,2.4615579,2.0792785,-0.8096094,1.4871136,2.0499973! 0.0,1.7784439,0.30928898,-1.7936373,-2.0480638,-0.7633281,-0.11481762! 0.0,0.69340944,3.2176566,-1.9752746,3.414205,-3.2150612,1.3935415! #0.0,-2.8470693,0.4281986,2.1129797,2.6949925! 0.0,-0.17238998,-2.4668746,0.3589878,-2.4944217! 
0.0,1.7504587,-0.8965826,3.9568882,1.4103302,-1.3283856,3.9599347! 0.0,-2.4484763,-1.5080143,-3.58571,1.6738701,-0.024754722,1.2514544! 0.0,-1.600857,-1.8460236,3.8357434,-3.0614414,0.1481185,3.006145! 0.0,-2.733683,0.47733426,-3.31639,-0.31512403,-2.9643483,-2.5098019! #0.0,-0.26418686,-2.235363,-0.28153563,-1.5415082! 0.0,-0.6063916,-0.9978964,0.9422838,2.4841304! 
0.0,1.1710849,-0.9182941,2.1627324,-1.0156455,-1.3283856,3.715741! 0.0,-0.87154496,1.2946082,-0.50245225,-2.7732873,-3.423787,-2.4649904! 0.0,-0.8735407,0.4999447,-0.73624945,-1.0287143,-0.13440466,2.6860971! 0.0,2.217309,-3.4954,3.0571113,-0.7958603,-0.6318679,0.93665516! #0.0,1.2431858,-1.8658819,-1.7902682,-1.632318! 0.0,-1.8709602,-2.2619662,0.9422838,-3.565023! 
0.0,-0.25066608,-3.8809872,2.4742994,-1.8005879,-3.0950856,3.1045527! 0.0,-1.6133317,3.766367,2.976727,2.2929516,2.7397552,1.809031! 0.0,-1.8748302,0.1883632,-1.7803179,-2.5845952,2.1704843,1.7598011! 0.0,3.678804,2.5535202,3.1641974,3.416777,-2.3266237,-2.6908255! #0.0,0.16970234,-0.37011862,-3.8219995,-2.1597779! 0.0,-0.17431898,0.12979841,-0.25738913,0.39793283! 
0.0,-0.38649756,3.3280983,2.9228168,1.5973334,3.1863213,-3.0011344! 0.0,-3.0089362,3.287075,-0.06411506,1.2808828,2.327682,1.0378524! 0.0,-1.522534,-3.2097492,-1.2152524,0.93654686,3.9109244,3.5337267! 0.0,1.4888678,-0.3392439,-3.9357016,-3.220398,1.6639457,3.5169683! #0.0,-0.60803556,-0.37011862,-3.1499617,-0.38768673! 0.0,-0.98969364,1.0171914,-2.2236934,3.0883873! 
0.0,2.9454262,-3.2251463,-3.2523355,-0.044424083,-1.3283856,-3.8635602! 0.0,-0.97764635,-2.9896502,-0.037059307,-1.586657,-0.5323739,1.6461024! 0.0,0.41134834,0.6366477,2.2236092,-0.71479094,-0.2705598,-1.1519256! 0.0,3.1333413,0.76394516,-3.9815474,1.0033026,3.1507592,-3.4139156! #0.0,2.942584,-3.3617396,-2.5659866,3.7116833! 0.0,-3.1112242,1.3650804,-1.3369393,-2.3660421! 
0.0,-0.20401171,3.6149023,-0.9329343,3.2896016,2.90167,2.6146536! 0.0,0.2252863,-2.0732613,0.72342056,-3.191965,2.7890062,1.9153551! 0.0,-0.84221697,0.4999447,-0.73624945,0.13082013,-3.1204114,-0.4410138! 0.0,3.6063714,-0.7790861,3.0571113,-0.8159041,-2.852073,3.4644754! #0.0,1.2431858,-1.9056412,0.2347643,-0.7287052! 0.0,0.67409897,0.07252598,-0.46812916,-3.565023! 
0.0,-1.5879464,-3.1173697,-2.7871299,-2.9699368,2.524596,0.06025648! 0.0,-0.38363424,-3.208788,1.8563871,3.5926657,-3.6670842,2.626653! 0.0,0.3373971,-1.8114386,1.6556544,-1.1804266,-3.7819448,-2.8107133! 0.0,3.130803,3.895236,-0.38445234,-3.4083943,-0.8971133,-0.77519035! #0.0,3.0550737,1.1603327,2.5001678,-3.095096! 0.0,-2.7272077,-3.0023098,0.28462568,1.9072518! 
0.0,-0.36777875,-2.6455493,-0.20871401,-0.4048339,2.9985595,2.4238844! 0.0,-3.786225,2.908205,-3.0284677,1.607905,-1.9133077,3.8922677! 0.0,-1.600857,0.6366477,-0.39383316,0.9747305,1.1149135,-1.750596! 0.0,3.0678122,0.85019726,-1.7636943,3.94567,-0.64666253,1.9416227! #0.0,-1.2529266,3.4772453,-3.8670723,-2.5345073! 0.0,1.5960512,-1.0093454,-2.1810253,-2.3363936! 
0.0,-0.25066608,-2.1150455,3.861557,-2.0596204,-0.17483902,-1.3218783! 0.0,3.0855398,2.457901,-3.2581844,0.30066288,3.6610632,1.1679335! 0.0,3.4527678,1.4442449,3.9889696,-3.6412063,2.9121022,-3.8134637! 0.0,-1.4226205,0.8135973,0.87363034,3.687841,-0.64666253,3.754232! #0.0,2.323193,3.1870484,-3.1594083,-3.7494242! 0.0,1.637053,-1.0158938,-2.430605,3.6036959! 
0.0,-2.9539332,-2.1610057,1.1814389,3.6028962,-0.20061779,2.695104! 0.0,3.1156607,-1.5824375,3.86516,-2.1420975,-1.3046666,-2.9229276! 0.0,-2.5430365,2.2575622,-1.2039995,0.9747305,-0.79893064,1.0436683! 0.0,1.4555459,-1.3271542,-3.2369337,1.7338896,-0.80188924,2.3711686! #0.0,1.218617,-3.20638,-3.1419039,-3.4191098! 0.0,-3.4628181,0.54579306,2.415566,2.971507! 
0.0,1.9591703,-0.33350164,-0.9302195,-2.5094914,1.2154369,3.2214234! 0.0,-2.4157548,2.457901,2.9822683,-2.1420975,2.7397552,-2.599069! 0.0,1.7766376,-3.1014078,-3.8656924,-1.7186761,1.1149135,2.6370397! 0.0,3.678804,2.5205336,1.3432746,-3.7572312,3.1846714,3.5419853! #0.0,0.76604795,3.092867,-1.0795298,-2.1597779! 0.0,-2.0956888,-0.9654516,3.0341864,-1.9704933! 
0.0,-0.8478589,-2.1379762,-1.2436409,1.2004582,2.138033,-0.28270912! 0.0,-2.3857403,2.8641462,-2.5032692,1.0987229,0.27350855,-0.89925814! 0.0,-2.3126693,2.082456,0.6424818,3.9310985,-0.12895918,3.1818068! 0.0,-1.1713624,-1.7722383,3.9948776,-0.14180334,1.3787706,-2.5098019! #0.0,2.090219,-2.235363,0.8036418,-0.010809325! 0.0,0.9007557,1.2632952,-2.2277122,-3.0499659! 
0.0,3.9640503,-3.0236495,-0.9302195,3.369865,1.1810002,1.865325! 0.0,-0.41682482,2.826037,-3.6024017,3.2224422,3.8474503,-1.8133636! 0.0,1.3762779,-3.0806873,-3.8656924,-3.0614414,-0.032028418,2.6370397! 0.0,3.7820158,2.5205336,-1.964772,1.7865269,-3.2150612,-2.456431! #0.0,0.23687983,3.55173,0.32783163,-2.1597779! 0.0,-0.7130399,-1.9495988,0.19798183,-1.9223444! 
0.0,-0.2036446,3.2932982,-2.6031508,-0.6637019,-3.2737234,3.4886904! 0.0,-0.59599686,1.5836065,0.9673377,-0.72876644,2.6409438,2.1785228! 0.0,-0.24396658,0.23325673,-1.8217516,-1.8730052,-3.2372837,1.9906117! 0.0,-2.713461,-2.151331,-0.60719395,1.7722759,-1.2027073,-0.26992396! #0.0,-2.1518373,-1.8272353,-2.2089047,1.1509417! 0.0,1.3221179,-1.4852976,-1.3369393,1.4807935! 
0.0,-0.25066608,3.5612392,3.889049,-3.580836,-2.1883435,-1.3218783! 0.0,-2.6014547,-3.9098148,-3.58571,1.6738701,-0.024754722,1.1679335! 0.0,3.917642,-1.8601717,3.942985,-3.6412063,0.3300603,-3.8134637! 0.0,-2.733683,-1.3512564,-3.31639,3.94567,-0.48798254,0.752432! #0.0,2.323193,-1.1316285,-3.1594083,-2.143177! 0.0,-0.6063916,-1.0158938,-2.214179,2.4841304! 
0.0,2.8234363,3.0064006,0.99048424,-2.106668,-3.1815493,1.9027685! 0.0,1.0611222,2.4594738,1.9057574,-0.9585369,-0.07090187,1.9094824! 0.0,-3.4311204,1.667109,0.3850255,3.667211,0.7713485,-3.8134637! 0.0,3.021884,0.9162613,-2.361508,1.1520259,2.5132723,-1.8459573! #0.0,3.1448174,1.0516665,3.584895,-0.92721725! 0.0,3.4272475,3.2369742,2.5740066,1.5181503! 
0.0,-2.395413,-3.911465,-1.0151317,-1.7827435,-0.6477151,-2.670014! 0.0,0.5825186,2.8911214,-3.3315678,-0.5509993,-0.07097058,-3.8864532! 0.0,-1.600857,2.7605715,-0.75027895,-3.0614414,-1.0045083,1.5613356! 0.0,3.442712,-1.3512564,2.4196234,3.687841,-2.7355833,-2.7051296! #0.0,2.1232781,-0.21561718,-2.1017914,-3.6633549! 0.0,-3.6412706,1.9791474,-2.214179,2.4841304! 
0.0,-2.395413,-1.8562427,2.7809854,1.3026972,-2.1883435,-0.974471! 0.0,2.9010296,2.0706165,-2.476314,0.21076488,-0.07090187,-3.8864532! 0.0,-1.600857,2.1057103,3.4295387,-3.0539432,2.9050608,-3.8929362! 0.0,3.442712,1.7949464,-1.0262485,2.0122004,-2.7355833,0.91133595! #0.0,-0.6281147,-0.21561718,-2.299848,-0.11754322! 0.0,0.112479374,-0.753998,-2.214179,2.4841304! 
0.0,3.8815532,3.36305,3.476335,-1.7827435,-1.657939,3.6752276! 0.0,2.1700816,2.457901,0.6872393,-1.5646477,3.592398,1.2514544! 0.0,-3.7149649,0.30928898,3.8643124,0.3539583,1.4594092,-1.1750879! 0.0,3.0678122,0.46814013,-0.09232105,-3.134664,0.5226941,-1.8459573! #0.0,-1.1759634,-1.8272353,-3.0237012,3.140871! 0.0,-0.32159972,0.16355193,2.8362575,-2.3660421! 
0.0,-2.395413,-0.8965826,1.1814389,-3.4842281,-0.2600592,1.1119003! 0.0,0.5208255,1.2459183,-0.04220846,0.25593445,-0.07090187,1.0615617! 0.0,-1.456516,-3.5412157,-1.6188321,-1.744154,0.1481185,-1.1519256! 0.0,-1.8285356,-2.7972083,-2.6003144,2.0122004,-0.4475242,1.1894951! #0.0,-1.2004511,3.4772453,1.6226497,-0.6518793! 0.0,-1.2293954,1.27487,2.548562,3.382587! 
0.0,2.9454262,-1.0337181,-1.8908162,-2.1089244,-1.3417023,3.6752276! 0.0,-1.072617,2.457901,-3.0284677,-3.191965,-3.8789492,1.5272603! 0.0,2.9787588,1.7654711,-1.2485329,-3.2772455,2.9121022,1.1413436! 0.0,3.0678122,0.85019726,-0.06778523,3.2849612,-0.64666253,1.1891227! #0.0,0.60907507,-0.017000917,-3.8670723,-2.5213723! 0.0,0.31949058,0.09205496,-1.334479,-3.018905! 
0.0,-2.395413,2.4415724,0.497005,-0.87260866,2.6164935,1.1119003! 0.0,0.5208255,-2.7132735,-0.04220846,0.25593445,-0.07090187,-0.33386517! 0.0,-2.3126693,0.1705681,0.35819006,-1.744154,3.3168328,2.531502! 0.0,-1.1713624,-2.151331,3.9948776,1.5920603,-1.0935463,-3.0176036! #0.0,2.090219,3.3116703,1.6226497,-0.6518793! 0.0,-0.10485199,-0.2429061,3.4840107,1.2817692! 
0.0,1.495191,-3.8809872,-2.1465225,-0.1555171,-2.9197054,3.1045527! 0.0,1.2861137,3.766367,-3.1781368,-2.0579085,3.537519,2.578908! 0.0,1.2262301,2.7605715,2.4055696,-2.9377642,2.1450315,1.7598011! 0.0,-3.2723918,3.0250783,-0.06197691,3.416777,0.85693806,-2.7051296! #0.0,-1.779109,-0.89409876,-2.3885374,-0.38768673! 0.0,-2.0956888,-3.1881423,1.4062896,1.2797189! 
0.0,-0.4249336,2.9998558,-3.339931,-0.6536989,-3.2435331,3.1045527! 0.0,2.9010296,1.5836065,-0.55887544,3.601427,-2.404934,-2.4881606! 0.0,-0.88607055,-0.09347335,3.9871087,-1.8730052,-3.2372837,-3.8134637! 0.0,2.071094,-1.4844894,-1.8048853,-2.285394,2.7667317,-0.4610752! #0.0,-3.8968554,-0.10473919,-1.0406027,3.3179386! 0.0,2.16008,3.6056762,-1.8187351,3.0883873! 
0.0,-0.8628864,-0.8965826,1.0262461,-1.5460877,2.5824258,2.5213184! 0.0,1.1098509,1.615015,-0.012163516,-3.1845574,2.7629385,1.097144! 0.0,3.4527678,2.101081,3.8643124,0.3539583,-1.0792732,2.6454492! 0.0,-0.3301649,2.7384887,0.67802644,-0.4835515,-0.5358379,-3.2825909! #0.0,2.6695237,3.1870484,-1.7916446,-3.2975247! 0.0,-3.6412706,-0.08926392,-3.24861,-2.3993554! 
0.0,2.9454262,0.6351299,-1.8854108,-1.193367,-1.3283856,-2.943791! 0.0,2.2922335,2.457901,-3.0284677,-3.191965,-1.9133077,1.7271699! 0.0,2.9787588,-2.0915456,-1.9118848,-3.8852944,-2.2976975,-0.3742423! 0.0,3.0678122,-2.8585958,-1.4144106,-1.8266044,-0.45427322,3.754232! #0.0,-1.2529266,-3.0609078,1.6305301,2.1254601! 0.0,1.5808613,0.11482923,1.2041593,-2.3660421! 
0.0,-1.198113,2.426824,-1.5718398,1.3986497,-2.4955943,2.205276! 0.0,2.970602,3.766367,1.1880131,2.1415896,-3.3313255,1.0615617! 0.0,-0.36289644,-0.16672763,-1.2029827,1.9608175,3.4551759,1.9235371! 0.0,-3.5584285,-0.24488163,3.1154833,1.4260726,-1.9141796,-0.57283735! #0.0,-1.1150527,-0.2697275,3.1425905,-0.38768673! 0.0,-2.9388065,-0.4171219,-2.5307302,1.2490158! 
0.0,1.949825,0.098772466,-1.0151317,-2.3352876,-0.5567888,3.7675376! 0.0,1.9017882,2.76542,1.3402262,-1.8117304,1.7119735,2.2827487! 0.0,-2.8877668,1.9149504,3.655322,1.0721018,-0.43151617,3.9402947! 0.0,-0.3104701,1.1280084,-2.59067,-1.3373337,3.7852798,-0.26557064! #0.0,-1.9644003,-2.8038974,0.23667572,-1.8107066! 0.0,3.9169326,-2.6486478,-1.1005387,-0.10486555! 
0.0,-0.27005386,3.4740868,-3.0778584,-2.4737763,-3.4697998,-3.3028471! 0.0,3.463373,-2.4935527,-2.119288,0.21076488,1.6521125,0.5391059! 0.0,1.3762779,0.1883632,-1.6188321,3.381849,2.1232386,-0.47741666! 0.0,2.413546,-3.1998708,1.6016426,3.1376019,2.748462,-3.2074008! #0.0,-0.586627,-1.7021928,1.8707749,-0.9567272! 0.0,-0.17431898,0.11197332,-0.3007655,3.0883873! 
0.0,1.9576097,0.05660378,3.3731678,-2.8543077,-3.4230847,-1.7774253! 0.0,-0.5302444,0.7104335,2.5460253,0.7017689,-3.039178,-3.6211877! 0.0,2.9094913,-0.13656178,0.16571712,-2.597558,-3.597004,3.9402947! 0.0,3.4511385,-0.5277581,1.4083266,0.106085464,-1.2134132,-2.5579019! #0.0,-1.2709274,-1.8272353,-0.28153563,3.8277092! 0.0,-2.0883818,2.6396313,-1.1322876,0.2875779! 
0.0,0.9901953,1.42385,2.7576058,1.7332649,-3.3648324,-3.5877392! 0.0,-2.4157548,3.287075,2.7551246,3.235269,-1.8203514,-1.4688058! 0.0,0.32378888,0.2646663,0.99010324,3.1219316,-0.5991313,1.2891521! 0.0,3.3828487,1.8434787,-2.2331822,2.8839273,-1.6157725,1.8879828! #0.0,2.433886,-2.6990657,-2.97818,2.8797698! 0.0,3.9048376,-2.7199283,0.08871508,3.1173513! 
0.0,2.9454262,-2.1150455,3.9501495,-0.044424083,-1.3042588,-3.8635602! 0.0,0.25982782,2.0204048,-3.1781368,-3.2059255,0.3070321,1.097144! 0.0,-1.9536452,0.6366477,1.4695218,-0.68160146,0.3300603,-1.1519256! 0.0,3.021884,0.76394516,-2.761538,-0.4835515,-2.2930489,-3.4411428! #0.0,0.9117875,-1.2308309,2.5001678,-0.99500245! 0.0,-2.0956888,0.11639779,-1.3369393,-2.5367517! 
0.0,1.7504587,-0.8965826,2.9889383,-0.47541428,-0.34811258,-1.1937878! 0.0,-2.4142156,2.76542,-3.06711,1.8027413,0.2857213,1.2514544! 0.0,-1.2305579,-3.500832,-3.9777102,-0.9643912,-0.43151617,-0.054770947! 0.0,-1.6676192,0.47733426,-1.7308278,-1.3373337,3.9045482,-2.5098019! #0.0,-1.9644003,-2.235363,-2.463817,-1.8107066! 0.0,1.1517725,-2.6486478,-1.0189452,-0.10486555! 
0.0,-0.25066608,3.4306955,-1.1568125,-1.1538134,3.1863213,0.703259! 0.0,2.2639499,-2.853397,-0.9124469,-1.34865,1.4871136,0.13410044! 0.0,1.8608859,0.015275955,-3.5246837,1.0117278,2.990088,0.9499191! 0.0,-1.846601,2.782017,-3.0343766,3.6842954,-3.2150612,0.70917785! #0.0,-0.7352843,0.9900975,0.051870774,-2.4515834! 0.0,2.4609814,-1.7900653,-1.3673058,3.0989056! 
0.0,-0.36777875,0.65628195,-0.53646374,-0.5509661,-1.2137319,-2.3875155! 0.0,3.0548563,2.2093468,-0.11149148,-1.5472445,-3.6956651,3.723484! 0.0,0.9477744,-0.5830159,-3.6190166,0.9815025,2.9221077,3.5337267! 0.0,3.563631,2.6281626,3.0662746,-0.35926017,-3.2524424,2.7973197! #0.0,-1.2433354,-1.9253726,-0.7356124,3.3235373! 0.0,2.3008618,1.2538048,1.2419019,-3.578192! 
0.0,3.8865142,2.2888036,1.1814389,3.6028962,-0.06499672,-2.8764248! 0.0,3.1156607,3.8894963,3.9128416,-2.1420975,-1.3046666,1.6743021! 0.0,-0.43516493,3.1567254,2.4626927,0.9747305,-0.97695065,0.969347! 0.0,-2.7309146,-0.40371972,-1.3010402,-3.1364841,-0.3093438,0.0036782213! #0.0,-3.037579,1.8798302,-2.5935926,-3.5610662! 0.0,-0.7386318,0.54579306,3.0341864,2.9288373! 
0.0,-0.38649756,3.5026376,3.9501495,-0.45455942,-3.3678994,-3.3028471! 0.0,-3.0089362,0.54100704,-2.119288,3.7568836,1.6521125,0.5452458! 0.0,-1.5116982,0.1883632,-3.7205791,3.347304,3.3105807,-0.46892595! 0.0,3.5969112,-3.1998708,1.6016426,-3.0274906,2.7524765,3.5169683! #0.0,-0.586627,-2.1002216,-1.4665836,3.348555! 0.0,-0.08260611,1.9637431,-0.46672297,3.0883873! 
0.0,-1.5879464,-1.2220489,-2.7871299,-2.5094914,2.5097265,0.06025648! 0.0,0.563467,-1.309711,1.8563871,-0.1542306,-1.2630687,0.53890944! 0.0,0.25732142,-3.500832,2.804565,-1.1804266,-3.2666304,1.2475176! 0.0,1.6758963,3.895236,1.3500395,-1.4087162,1.0565853,-0.77519035! #0.0,2.8717527,-0.33725333,-2.299848,-3.095096! 0.0,-0.06453705,1.0171914,0.25567007,-0.2289137! 
0.0,-0.25066608,-2.610318,3.9501495,-0.42615387,1.7152457,3.6752276! 0.0,-2.6014547,-3.9098148,-3.1781368,2.382918,-3.3313255,1.0615617! 0.0,0.2313793,2.1057103,-2.9125113,-3.0941496,2.1450315,1.933989! 0.0,-1.7985824,-0.24488163,2.449849,1.4260726,-3.9760427,-1.1757293! #0.0,0.7212398,-1.1316285,-3.1594083,-0.38768673! 0.0,-2.0354517,1.2913895,-2.469483,2.4841304! 
0.0,3.922155,0.12678242,2.9368813,-2.6124115,1.8550395,2.6707883! 0.0,-3.654366,1.853582,3.6756942,-0.74401635,1.6521125,3.864301! 0.0,-1.600857,-0.13046551,0.18995428,-0.46364075,-0.77809477,1.041701! 0.0,-2.2237964,0.73133767,-0.0104055405,3.94567,2.6507592,-3.9395971! #0.0,0.07138252,1.8547325,2.8354383,-1.5415082! 0.0,1.3647335,2.5289922,3.4512568,3.9260013! 
0.0,0.40048122,0.7945118,-0.49933195,-3.4606986,-0.56035423,2.920857! 0.0,0.8888395,2.413645,2.1759534,3.601427,1.5688252,-1.763475! 0.0,-0.3002238,-0.49309665,-3.3622775,-3.0614414,2.4483635,-2.7342649! 0.0,-2.1239653,1.8402338,1.8330979,0.8499937,3.3908544,-2.2928405! #0.0,3.4405046,-0.95983267,-0.28153563,0.94102424! 0.0,-3.49927,-3.3207955,-0.8918648,-0.52249193! 
0.0,-2.687549,2.4284976,3.9568882,1.3592049,0.60987914,-3.8635602! 0.0,-1.6133317,-0.032380313,-3.1781368,0.21076488,0.043658733,-1.703629! 0.0,0.62281656,1.7654711,3.8811474,-3.0614414,-0.2705598,1.1413436! 0.0,3.021884,0.76394516,-0.4637742,0.056323946,3.6728847,-3.4847903! #0.0,0.21114461,-0.21561718,3.5641928,-3.3043275! 0.0,-0.6063916,2.6523046,3.160352,-1.7982794! 
0.0,3.0059516,-0.9013198,3.956838,-2.5094914,-1.7642299,-2.4087577! 0.0,-3.1020384,-2.1043336,-0.86194307,-2.4882426,2.7477088,1.7271699! 0.0,-1.8748302,0.1705681,0.5224366,-0.6680795,1.845167,-1.4172897! 0.0,-1.8934324,-3.117946,-2.001338,-3.0914283,-3.8986669,-0.25328442! #0.0,-1.2004511,-0.2697275,-1.1475748,-0.38768673! 0.0,1.4066472,3.6056762,3.5695806,-3.76295! 
0.0,-1.4783363,-3.514606,1.0262461,1.3026972,-2.211704,-2.6640236! 0.0,0.5825186,-3.652761,-3.3315678,-0.5509993,-0.07090187,-3.8864532! 0.0,-1.600857,2.1057103,-0.75027895,-3.0676513,-0.9651973,-1.5356901! 0.0,3.442712,2.7384887,2.4196234,2.0122004,-0.53534746,0.91133595! #0.0,-1.4820342,-0.25396425,-2.1017914,-3.6633549! 0.0,1.5498366,1.085635,-1.3379177,-1.8030963! 
0.0,2.9454262,-2.1648872,-3.2523355,-0.044424083,1.8188477,-3.8635602! 0.0,-3.654366,1.8518455,-0.1857812,-0.75772953,0.63612986,-1.101007! 0.0,-3.4311204,0.6366477,2.186569,-3.0676513,3.9152613,-3.8929362! 0.0,1.5125151,0.76394516,-3.9338923,3.7004435,-1.1162295,0.7424493! #0.0,-1.292511,-0.39645094,-1.9118649,-0.32990694! 0.0,0.34345463,2.5289922,3.4840107,-2.3660421! 
0.0,-0.25066608,-1.5810475,3.2763824,-2.5094914,-1.3008072,1.1642368! 0.0,2.6578999,3.766367,-3.1781368,-3.3459291,3.9073064,1.0615617! 0.0,1.742521,-3.5632129,-2.9125113,-3.0614414,-2.5592334,2.102275! 0.0,-1.7985824,-0.26618984,-1.1159585,0.09339148,-3.9760427,-1.1757293! #0.0,0.7212398,-0.2697275,2.067858,-0.9240866! 0.0,-2.0354517,-2.3385081,0.837203,-3.114812! 
0.0,2.230402,2.9037995,2.7576058,1.7332649,-3.3317137,3.6147928! 0.0,-3.0956926,-1.2189078,3.706828,-3.3052056,1.8347782,-3.8864532! 0.0,2.890252,-3.500832,-1.3172822,-0.46364075,2.4123092,1.041701! 0.0,3.3422883,1.8434787,-2.2112532,-0.4835515,-0.4475242,1.1873795! #0.0,0.097958505,2.163649,-2.97818,2.8797698! 0.0,-0.56459343,3.1565127,0.08871508,3.9445632! 
0.0,2.9454262,-2.1150455,-3.2199159,-3.466944,2.2106562,-3.0384717! 0.0,0.69558907,2.4558458,-3.1781368,0.1939738,7.798411E-4,1.6461024! 0.0,0.17828512,0.6366477,2.1990123,-0.71479094,-0.2705598,-0.9162939! 0.0,3.021884,0.7332604,-0.4637742,2.3281884,3.1507592,-3.4371786! #0.0,3.5813313,-1.6571565,2.5001678,3.6637235! 0.0,0.31949058,-2.3752534,-1.3678051,-2.3660421! 
0.0,-1.2901803,0.12678242,2.9326336,-2.6124115,1.8550395,2.7033272! 0.0,-3.654366,2.457901,-0.4448886,-0.75772953,-2.9387197,-3.5409071! 0.0,0.012447357,-0.13046551,2.804565,-3.0614414,-0.034793377,-3.8929362! 0.0,1.4888678,1.0607343,-0.0104055405,-1.9885993,2.4536686,0.72974735! #0.0,1.5229052,-2.6321363,3.7509794,3.302678! 0.0,0.36713776,2.5289922,1.7715702,-3.565023! 
0.0,-0.36777875,3.4258308,-2.2054057,-3.8432155,-2.1883435,-0.51598215! 0.0,2.9010296,2.877929,-2.9458327,1.5522747,-0.07090187,-1.6408286! 0.0,-1.600857,0.36495924,-1.6525211,0.6896887,2.87776,1.4206586! 0.0,-3.2800713,-1.3512564,-1.7702676,1.0419421,-2.4934444,0.91133595! #0.0,-3.1544232,3.5285645,-2.6808257,2.6813464! 0.0,-0.93975735,1.5930988,-3.0107841,-1.4307976! 
0.0,2.8370972,-0.90322495,3.956838,-0.90589285,-3.2294588,-2.4087577! 0.0,-3.1020384,-2.1043336,-0.088451385,0.25593445,1.8347782,-3.6211877! 0.0,-1.8748302,1.667109,-2.0032012,-1.7184018,-3.009857,-0.4820394! 0.0,-0.97484446,-2.151331,-2.001338,-3.0914283,2.5132723,-0.25328442! #0.0,3.100941,-0.2697275,-0.5254364,-0.38768673! 0.0,-3.6298578,-1.3162684,2.5740066,1.2490158! 
0.0,-0.36777875,-1.4044609,0.3246107,-0.47541428,2.2142823,-1.6750659! 0.0,0.563467,2.9002135,-0.1676836,1.6738701,1.0112159,3.3289485! 0.0,-1.600857,-1.8460236,0.34524003,-0.7277632,0.1481185,1.8133177! 0.0,-2.7098265,2.9479957,-3.31639,-1.810514,3.694857,1.8809916! #0.0,0.21114461,1.350483,-3.796721,-0.010809325! 0.0,2.2909446,3.6334286,-2.2606785,-0.2360735! 
0.0,2.908055,-2.1150455,3.9568882,-3.052723,-0.425175,-3.422797! 0.0,2.9010296,3.3051627,-2.119288,0.21076488,-2.9387197,1.7050772! 0.0,2.9787588,0.6366477,0.3703308,-3.0614414,1.1149135,-1.1519256! 0.0,-0.19248581,-1.4414083,-1.7702676,-1.8207164,3.6984336,3.754232! #0.0,-3.667924,-3.0609078,-1.4775904,-1.5415082! 0.0,0.13279483,-0.10687414,-0.3007655,2.4841304! 
0.0,-0.25066608,3.5612392,3.889049,-3.580836,-0.6477151,-1.3218783! 0.0,-0.38363424,-3.9098148,3.2779398,3.585287,-3.6670842,2.626653! 0.0,3.917642,-0.75545895,1.6556544,-3.6412063,0.3300603,-3.8134637! 0.0,3.130803,-2.502201,-0.17631719,3.265377,-0.53534746,1.4934406! #0.0,3.0550737,2.235282,2.5001678,-2.143177! 0.0,-2.7272077,-1.0158938,-2.430605,3.6036959! 
0.0,-1.3804855,0.12678242,2.4941757,-1.016118,2.90167,3.715741! 0.0,1.0772085,-2.0732613,-0.48265743,-1.0891714,0.6782533,1.9046583! 0.0,0.012447357,-3.4606402,-0.73861754,3.8034682,3.937276,2.6860971! 0.0,1.4888678,-3.4954,-2.3573453,-0.7958603,2.4536686,3.4644754! #0.0,-0.6281147,-1.8658819,-0.28153563,0.9192855! 0.0,-0.026801627,2.5289922,-0.46812916,-3.565023! 
0.0,-0.38649756,-2.666753,3.9501495,-2.2900271,1.2239617,0.690691! 0.0,2.9010296,2.994153,-0.52724934,3.5569327,2.331296,-1.4584969! 0.0,3.4728258,-0.09347335,0.3703308,-3.812276,-2.764392,3.2144635! 0.0,-2.8443232,-1.480593,-1.8048853,-3.4202867,2.7667317,-3.9395971! #0.0,3.9450526,-3.7862735,-3.7368853,-1.7845398! 0.0,2.327087,3.6056762,-1.8187351,1.6214501! 
0.0,-2.923213,0.0915556,2.1894197,-0.6373971,-2.4545336,3.6752276! 0.0,-3.7704134,-2.4935527,-0.66441536,-3.5175915,0.6876338,1.7271699! 0.0,1.7766376,-1.0781016,0.81224394,-1.7186761,-3.597004,2.636799! 0.0,-1.4962571,0.6976331,-2.610701,0.102493435,3.6478388,-1.0720177! #0.0,-1.2529266,-1.8272353,-3.1558983,-1.1200091! 0.0,0.31949058,0.12979841,1.8169417,0.081246376! 
0.0,-2.3692074,-2.1150455,-1.0151317,1.3026972,-1.3211002,-3.3478968! 0.0,0.1406312,2.457901,-3.0284677,-3.9040122,0.3070321,0.5391059! 0.0,1.429117,2.189239,-1.2719012,1.0117278,1.2307644,-0.3742423! 0.0,3.0678122,-2.8585958,-0.09232105,3.2849612,-0.66936934,1.1894951! #0.0,-1.4820342,3.4772453,-2.687767,0.44788775! 0.0,0.3254269,1.9714172,-0.46672297,2.158736! 
0.0,-2.9563355,0.06719923,2.8497927,-3.4915369,1.1430192,3.4886904! 0.0,-1.995947,0.7104335,1.3402262,-1.4562726,1.7119735,2.2827487! 0.0,-1.6233377,0.9597586,3.6283379,1.0721018,0.62006664,3.9402947! 0.0,-1.8646064,0.9570279,3.9864044,-3.8869271,3.7852798,0.9444095! #0.0,2.416233,-0.37079793,-0.28153563,-2.7920413! 0.0,1.8350186,-2.9785666,0.20464516,-3.1258073! 
0.0,-2.9539332,3.5421023,1.1814389,3.5164201,-0.4853878,-1.3218783! 0.0,3.1332512,-1.5824375,-0.85931015,-2.6712027,3.6702795,-0.54947805! 0.0,-3.0146456,-0.09421171,3.9889696,0.9874057,-2.0431485,1.0125146! 0.0,-1.4230301,-0.41388607,0.6864674,-1.5572686,-1.8906093,-1.4166913! #0.0,2.323193,-0.7690503,0.52624655,-2.143177! 0.0,-0.7386318,-0.9978964,3.0341864,2.957878! 
0.0,-0.25066608,-2.6455493,-0.20871401,2.756294,2.9985595,2.4238844! 0.0,0.3710161,2.82998,-0.8814206,3.2224422,2.7607605,2.628649! 0.0,1.400054,2.1057103,-0.39383316,0.9747305,1.1149135,-3.4240968! 0.0,-2.733683,1.3736782,-1.4144106,-1.8266044,0.4064088,2.3475964! #0.0,-3.667924,-0.21561718,1.6320806,-1.5415082! 0.0,-0.65166426,-1.0093454,3.0341864,-1.0848418! 
0.0,2.9454262,0.0915556,3.889049,-0.6373971,-0.020081997,3.6752276! 0.0,-3.7626705,1.562238,3.978327,-3.1504192,0.89020956,1.7271699! 0.0,-1.3241048,0.6366477,-1.5781841,-3.6758935,-2.9091277,-3.8929362! 0.0,-1.1140966,-3.1408758,-2.610701,-0.4835515,3.6478388,1.5887618! #0.0,-1.2529266,-1.8272353,-3.1558983,-1.132164! 0.0,0.31949058,0.12979841,-2.9291523,2.5449533! 
